{"weights": [-0.3434139301062006, -1.0, 0.6428540968231762, -0.3460098837995807, -0.39086388206865874, -0.18423291379599932, -0.7227210015049224, 0.15890063201158633, -0.6476889960086718, -0.12311033016142015, 0.29263432958974933, 0.8974870623261924, -0.1862134442456761, 0.3033539915177873, 0.09143637990791034, 0.7792487697798096, 0.07339157696777207, -0.14679672460480395, 0.8153362205218766, 0.6948291099654305, 0.19402539177381747, -1.0, -0.8200197661560632, -0.18946025553792822, -0.9078818397830644, -0.8020181100755694, -0.8251173499973845, 0.8025177046404284, -0.05911374481752854, -0.10844589926952575, 0.35955755523303773, 0.6450884489253192, -0.9822667645223618, 0.24262502367089261, -0.19273671845185147, 0.5786420075728937, 1.0, 0.8932197210118537, -0.3364437836075736, -0.7340956614046739, -0.6888867751232335, 0.02286445958515884, -1.0, 0.2499556373514619, -0.25790999693233274, 0.20892505116524876, -0.9118590065775263, -0.3370825942407659, -0.4133708847882248, -0.15044703176719884, -0.5071519748179261, 0.4723479721222745, 1.0, 0.5180404163038538, 1.0, -0.4696339934277542, -0.6932897732611644, 0.6697699080914914, -0.4663392773731478, 0.06197416228399333, 0.480451492317673, 0.7419539647889686, -0.28359926507921407, 0.1641421206913225, -0.582819600458266, 0.5715789092110121, -0.660000260138008, -0.16604556071886578, 0.4900800411457633, -0.1631884612629353, -0.421868364137052, -0.6037221762690524, -0.32223917904828836, -0.7580415105576566, -0.3841842814582819, 0.9804275490914774, 0.2868691537935072, -0.9033804009877605, 0.44688349867739685, -0.807084465244216, -0.020657349522670107, 0.5631833802472578, -0.5795596617767053, -0.09097657493094982, 0.7719416994790886, 0.6171866833969122, -0.7154158832548986, -0.22339009175632385, 1.0, 0.9802708238842088, 0.3277461670241277, -0.4908437567969285, 1.0, -0.00811451860900507, 0.3154818736446065, -0.3051943688025266, -0.44913019249526326, 0.6225720965673918, 0.11674827993759884, 0.6095804043219588, -0.09477492613402004, 0.31336578870861265, 0.6696508579497493, 0.11315495580225265, -0.7292193135809018, 0.5556145198939669, -0.542900198152934, -0.25054537819267747, 0.09603767737849778, -0.8796557538316501, -0.858417618005792, 0.7065168839249505, 1.0, -0.350316038362383, 0.5544218767015998, -0.8342857641361209, -0.9750590045522846, 0.8713357142230433, 0.39824971501582396, -0.39731722160899496, 0.17364605753142248, 0.1766023470639104, -0.32690453798681085, -0.029636641620345794, 0.249233651526717, 0.9166613629704815, 0.4156725053877762, 0.3964604718853568, -0.6368610719902166, 1.0, -0.690751410207997, -0.5205231580535771, -1.0, 0.4965378590209163, 0.6905495375040674, 0.9554433665210249, -0.15474140071265713, 1.0, -0.4478922712397076, 0.22112451653670515, 0.2796026616039531, 0.7536700819364714, -0.30165397296450003, 0.40699070091086526, -0.3609492813336936, 0.22583808596991295, 0.7209974628461409, -0.9318702416189825, 0.6488270102028235, -0.5772996461008008, -0.17498946003253768, 0.4927538365097226, 0.07479037244356679, -0.7279282624605159, 0.6469739042645166, 0.6776415826811769, -0.9914515932570226, 0.25660719799175713, 0.25568898139912316, -1.0, -0.1792625587471483, -1.0, 0.5679541795887835, -0.7206714061144335, 0.8866551159974521, -0.5109520528572427, -0.8316447710177448, -0.118174340032459, -0.6009092877995728, 0.4003670094431988, 1.0, -0.73643426777581, -0.20768170717434448, 0.6409316985785366, 0.08658468781565368, 0.789371961170119, 0.06574993283435127, 0.7859012027624053, -0.692594093731207, -0.7019003794674045, -0.13667564285720807, -0.8593257773993344, -0.17515661531256704, -0.4362703315445012, -0.00807932750113008, 0.6271370870382119, -0.744922323385916, 0.6438501211321801, 0.761508931111498, -0.8249589882578355, 0.8702060571143858, 0.6819451399270491, 0.7508977448314931, -0.24311129807261816, -0.3595101854394217, 0.08501178007092791, -0.5177465612374138, 0.11566386390928837, -0.3681810369955222, -0.6349088155599483, -0.3906646495231211, -0.5729433470159637, -0.21480603587386998, 0.8762778264272202, 1.0, -0.8392929316236732, -1.0, 0.9499126364026276, 0.4077166946776308, 0.9622239038831124, -0.888752190797393, -0.5095958541213299, 0.6338442025990798, 0.5718289736817572, 0.8902707918949906, -0.549716781028517, -1.0, -0.4458333010615308, 0.2714611009525248, -0.9091404531722637, 0.7102451007721934, -0.3438898475749018, -0.03886626217869965, 0.7454062234753243, -0.2747251344062813, 0.04947239897681355, -0.2711997914307609, -0.06700616926213673, 0.8704753517487447, -0.8952063487643585, 0.01770483391688124, -1.0, 0.20175981072359206, -0.30718547245635197, 0.585343704708953, -0.997692845016543, -0.7308912630500044, 0.2469635709177299, -0.25655328260502513, 0.5822665972694687, -0.28115464181655514, 0.09546039946997925, -0.19036624913700195, 0.36796697841786985, 0.4492827145031545, 0.4139598085477193, 0.23399895834478152, 0.2179624140249575, 1.0, -0.09372572035747245, -0.3757224441590718, -0.8962874245095921, 0.5450015721863968, -0.39525922699877186, 0.45271040198913315, 0.4103866115364064, -0.7432152071025137, -0.18503739874482744, 0.7682945827689491, -0.3692399201285072, 0.6728527284716597, -0.8457673845002747, 0.7594599520151697, 0.791986762859823, -0.20805064686285996], "fitness": 87.01173587691741, "player_life": 32, "enemy_life": 0, "game_time": 487}
{"weights": [-0.3434139301062006, -0.5146951370482129, -0.6693881866554792, -0.27088164108934265, -0.3961751722092691, 0.7368432607595048, 1.0, -0.6318613817417316, -0.6404531453479616, 0.3514225719783092, 0.49318100956105093, 1.0, -0.22012641872282457, 0.4694636544007374, -0.4532936130254217, -1.0, -0.004611111435347898, -0.03446851620236044, -0.20480836778181843, 0.6545943742809036, 1.0, -0.6909319115808745, -0.39102785127057826, -0.9274453947630261, 0.45619075210637666, 0.379484606337749, 0.12215607393349859, 0.7119662444553179, -0.5511473797079731, -0.10844589926952575, 0.4722696509926853, -0.12831412719587865, -1.0, 0.32806843720443213, -1.0, 0.9104130376961379, 0.19653294567824864, -0.4271977334970323, 1.0, -0.6860801406525097, -0.8730896813555361, 0.02286445958515884, -0.7304584297039874, 0.24175710307933235, -0.25790999693233274, 0.9608289830102024, -0.7889702018010449, -0.3370825942407659, -1.0, 0.08550480060026511, -0.3933545027247097, 0.6086267545137329, 0.7340603349618157, 0.4141028588146214, 0.43443818190051386, 0.24786990806298495, -0.2084878366893192, 0.831241590678111, -0.5556908269711286, 0.1674385794835524, 0.5989961476936653, 0.5823848812501622, 0.11058766312761614, -0.23146488884999508, 0.57688356571749, -0.38066068237344475, -0.6354752453958072, 0.48584509286832045, -0.3011628649427213, -0.7352331548987062, -0.9203004695795283, -0.6037221762690524, 0.0276295210657517, -0.8785367054047553, -0.3568744774334911, 0.641708744239248, 0.7127370363688281, -0.8230632181458837, -0.020470943302182076, -0.9044370290086654, 0.7187100692994708, -0.2884572646871087, -0.6569135811431801, 0.5662578484111931, 0.7402677068787313, 0.23349504299063722, -0.10890914792010536, 0.4620735171388713, 0.9854221940646182, 0.4855668150143171, 0.1782868146226998, 0.6681059104854864, -0.3359893305713214, -0.002983751399251, 0.5891577324937362, 0.2828936987850512, -0.5181085821084975, 1.0, 0.11674827993759884, -0.1686016759319664, -0.09289991374507692, 0.7232996043828464, -0.06888246173795386, 0.0672309635477143, 0.2899343604754071, 0.2655626972289613, -0.7456304841128578, -0.25054537819267747, -0.6186081676494897, 0.43246119875655276, 0.42798491453517307, 0.0844165291292889, 0.9409248780383215, -0.0462039038282156, 0.5544218767015998, -0.5840466707478962, -0.6610523371000276, 0.902340299869506, 0.8093707372215377, -0.5212183447669496, -0.7008111421318546, -0.18595536658778122, -0.9631589123686998, 0.34814631619632164, -0.08156264902874684, 0.3235740908080854, -0.287203558599586, 0.7400899528736244, 0.3540939858673757, 0.07322544653707036, -1.0, 0.29306154292815234, 0.454176123496698, 0.5060067900336614, 0.6905495375040674, 0.802564975654559, -0.15474140071265713, 1.0, -0.5839664676417569, 0.7528897166902901, 0.25740748475840514, -0.30633102329681866, -0.24408502337378113, 0.345940276440436, 0.4160483273631572, 0.22583808596991295, 0.3639363588250355, -0.9265947052841417, -0.9646531233541097, 0.2883468799544852, -0.041449457335051454, 0.519693500716393, 0.5899591683740791, 0.6974896553569941, 0.6517896239198604, -0.8049672101663993, -0.043565025199279794, -0.4541359787904846, 0.2805236919448027, 0.46461010920821233, -0.6779656301984958, -0.21924366620201774, -0.7188485128344179, -0.2893878640764735, 0.4874628993068656, -0.14319625646603662, -0.8316447710177448, -0.43078230478175117, -0.16837314820089527, -0.10635523534578112, 0.6324250196315622, -0.29673493911378435, 0.6781045435015765, 0.566682194200415, 0.18158305128326957, -0.3727884182358283, -0.07952325241068234, 0.05909575615055587, -0.8917128662002405, -0.11779827704406762, -0.11318010259369457, -0.7907831275177414, 0.03604197440904802, -0.5533409278537129, 1.0, 0.14597232263377358, -0.1997839064333457, 0.8028281365477496, -0.1382458252696963, 0.5300244856265892, -0.7096630789925715, 0.5721752809442124, -0.058762393882016484, -0.7268467165330806, 0.8204673715868367, -0.8115320638107782, 0.9317588336544723, 0.1366749690765482, -0.7825961498573486, -0.21642399857143452, -0.35864579089880294, 0.25925165593420885, -0.14976859711914162, 0.7502162441834314, 0.28593719541202234, -0.3796016892431894, -0.7254441680883152, -0.5617117533152616, 0.44743092700038367, 0.8105731116747357, -0.8683967053072809, -0.3280349428742074, -0.9045941108674068, -0.24164545933150985, -0.13733680341342627, -0.6667981222196758, -0.49176950431976213, 0.7954499636180377, 0.05897560808392757, -0.7305362353149544, 0.15324948340973285, -0.594324610325903, 0.43324538177071265, -0.5054900158245352, -0.23681752740920942, 0.007588112130608254, 0.7199299217574247, 0.7928866995359498, -1.0, -0.4963768508168523, 0.01770483391688124, -1.0, 0.20175981072359206, 0.382849109674002, -0.02818605891798584, -0.17912994438544105, -0.567868180770621, -0.8427806199922863, 0.47908124538246694, -0.6396726204016078, -0.28115464181655514, 0.3915096912597681, 0.022524908890964424, -0.5860838992450594, 0.4492827145031545, 0.5716645324655043, 0.78314133008785, -0.39099517080707696, 0.014421619409124953, -0.06932951351077685, 0.7613227140689425, -0.7000971911336852, -0.9795597158927908, 0.38390577745427223, 0.48423310812738224, -0.9222359560855302, -0.6234146657366207, 0.2546902436011574, 0.640395920848054, 0.6602599483913186, 0.5072959898451588, 0.2908217534019485, 1.0, 0.9101564230750068, -0.9804465867541583], "fitness": 56.77346333071253, "player_life": 0, "enemy_life": 50.0, "game_time": 467}
{"weights": [0.18700759219887625, -0.7229818067359537, -0.5489842016398458, -0.26026537579602493, -0.7633324774540625, 0.9038004783535049, 1.0, 0.5952021992330205, -0.1912820481284459, 0.3076697583533595, 0.1740745547547723, 0.7488446087249394, -0.32610685162840547, 0.1575182387289781, 0.21196284463214327, -1.0, 0.09548267667886631, -0.03446851620236044, 0.2751852492292114, 0.6545943742809036, 0.0928519575575591, -0.578090932566529, 0.533000767880581, -0.9274453947630261, 0.5465461067695273, -0.0209545414319858, -1.0, 0.7119662444553179, -0.8441075079767753, 0.7956130193006787, 0.4611320223909742, 0.5411119661812823, 0.731472041853975, 0.32806843720443213, -0.07105417806122905, -0.4589421660662269, -0.02971125620207049, -0.4271977334970323, -0.11066593349174031, -0.30044434311557716, -0.8730896813555361, -0.18600730135169458, -0.7641367104243462, 0.42282600317993824, -0.7127178000816227, 0.4514150893781079, -0.6494325944253448, 0.0023929615565752016, 0.574124620778502, 0.04536020753964358, -0.21931018536085928, 0.5634584065923167, -0.7442041627286399, -0.8190016872336526, -0.28958674720453476, 0.24786990806298495, -0.15656178331846218, 0.5374367790700805, -0.2950724822291525, 0.42772694925938226, 0.22447295136455753, 0.4350757439640044, -0.2820110665933169, -0.6194883079351767, 0.5926450928338697, 0.541042272520107, -0.6354752453958072, -0.3722501598675205, 1.0, -0.44572817860154823, -0.707024182006128, -0.5840676482385956, -0.24911024072070345, -0.16054398811623072, -0.3568744774334911, 0.6132207067862419, 0.11287296307574621, -0.9637810420025184, 0.8004278256265983, -1.0, 0.16456905866479626, -0.2884572646871087, -0.6693477814347157, -0.17402672377474396, 0.4221314261733637, -0.47154213637001813, -0.48714324672852777, 0.3486230002427898, -0.3802179706852844, -0.10842460528641698, 0.3801074256727869, -0.5177393413842464, -0.8932415437051676, 0.801609012135497, -0.6242504461788798, 0.007429846587644215, -0.849847635217911, 1.0, 0.6536022829680452, 0.0074449110071835856, 0.26648535000823437, 0.7077513666967425, -0.06888246173795386, -0.585419932499913, -0.3829693646907001, 0.4092120945202485, -0.6973863870635619, 0.4133142224148443, 0.3116723162438773, 0.434553972914981, 0.9248974482880946, 0.9575227561410251, -0.27128130262915434, -0.053634907170654306, -0.871352900805009, -0.6646782827267061, 0.9635509409879381, 0.4748397276559786, 0.49495226744373283, -0.8452504779858978, -0.19427116720591664, -0.8278777825192153, 0.428755210141431, 0.1262718105963836, 0.032103367701707006, 0.5840659130898715, -0.025508533598349425, 0.1408630325168978, 0.32783433624621194, 0.9018959645901851, 0.8186264085322648, -0.14228153209145164, -0.8451985774130291, 0.578006289940184, 0.6905495375040674, -0.06780617044274409, -0.14046723698519709, 0.8688396100380071, -0.641419467917731, 0.7528897166902901, 0.17356264610289393, -0.22629798456959882, -0.4270776105006079, -0.3141345556990836, 0.7420260382344028, -0.3650646016781516, 0.3639363588250355, -0.928152107071152, -0.8845898672719259, -0.012555629202079727, 0.0808560659691841, -0.41114490989494734, -0.08242055086002413, -0.24035527856910144, 0.29358393263240157, -0.8079092968340003, 0.02227536591913168, -1.0, 0.031030484709662465, -0.7777197982167962, -0.718808271794964, 0.7381047664068103, 0.6019223746229718, -0.39542728462040194, 0.6487061964464331, 0.007482625410153515, 0.003953628323281416, 0.6231362054683941, -0.586326802924278, 0.018424134212116416, 0.9579625582819707, -0.6849770486498364, 0.6241632458731476, 0.64526865295469, -0.42200876012946725, 0.2957862315962446, -0.6469602822504125, 0.40930777679028324, 0.6818313440988355, -0.7718337870612241, 0.16191035473671556, -1.0, 0.14819203850797458, -0.833362891837164, 0.4774231158604294, 0.3040547249675357, 0.41470932113129777, 0.4342966871561449, -0.8161377536370079, 0.3968647583300444, -0.9911000582609686, -0.5269994382739194, -0.32453459731533635, -0.406893414884578, -0.2625669808785742, -1.0, 0.3907149899185845, 0.39521299884483674, -0.7825961498573486, -0.12546388875098616, -0.14749333050438507, -0.3806167628558287, 0.7941655883187906, 0.5708938886157469, 0.47191472479810587, -0.8348274037114086, -0.17306548511522557, 0.02096817234962986, 0.4323602807890842, 0.15292261648426916, -0.9955828231876447, -0.5148637204808879, 0.5451263440070961, 0.22206464069862558, -0.09294348457601398, -0.07232229159365272, -0.4414503692401862, -0.3954755879495355, 0.5324207800032863, 0.6399130067521117, 0.3998225776075651, 0.07613709595189072, -0.5330840460808681, -0.14357702984004345, 0.54038247205934, -0.03904283347609133, -0.3146792969429052, -0.7934549357007277, -0.7345373575508674, -0.9766039187613242, -0.46737916291479753, 0.7091107618327441, 0.11139788146184879, 0.35598138687264813, -0.1086141573731881, -0.6885871831257526, 0.8228385570835038, -0.6670525563106655, -0.3793332387735884, -0.494056487789669, -0.8406729495291192, -0.5716061972947137, -0.0681368259969945, -0.3635068401171849, 0.4492827145031545, 0.4894209247761032, -0.10169875541400836, -0.46751591044922935, 0.014421619409124953, -0.04531861197025813, -1.0, -0.683148129391054, -0.9531049271660654, 0.38390577745427223, -0.06784841273501929, -0.1634365322557536, -0.4905961032154494, 0.2546902436011574, 0.6128405274795251, 0.7234740802507177, 0.6165863864856973, -0.18703620840170898, 0.7594599520151697, 0.06742157237640933, -0.19697377764371887], "fitness": 65.74424995824663, "player_life": 0, "enemy_life": 20.0, "game_time": 521}
{"weights": [0.18700759219887625, -0.8015829456908548, -0.7161348877601106, 0.6828198085437405, -0.3567541937825167, -0.18423291379599932, -0.3255802015956522, -0.581906512777047, -0.6476889960086718, 0.5047384014213705, -0.26829125725730596, 1.0, -0.07678717966324189, -0.5859696422357088, -0.402744940478211, -0.912957019042747, -0.09389793653999937, -0.7678785783686883, -0.5333551710388151, 0.6843859208859554, 1.0, -0.5352901543209619, 0.027292152704361444, 0.24369700403112235, 1.0, 0.07440104525874938, 0.12215607393349859, 0.5689576537560769, 0.7448895620804075, -0.13314827622420836, 0.4037395088407104, 0.19764987126601094, -0.47471652544842513, 0.22846527670170874, -0.19273671845185147, -0.9780108165893818, 0.9350334311134867, 0.7972364906425535, 0.49913777325881037, -0.7340956614046739, -0.7210379392930635, -0.4988942394589648, -1.0, 0.6313348417411295, -0.4882320407761023, 0.0932125097913177, -1.0, -0.06806501089301781, 0.5855063481732287, 0.02241171452753854, -0.678533067219191, 0.7978553591736519, -0.5970878058826601, 0.028735089580368106, -0.28958674720453476, 0.09320904645715622, -0.5858172809493464, 0.547341090070639, 0.7304312926986577, 0.22211061109607738, 0.22447295136455753, 0.5831910337484474, -0.2820110665933169, -0.23146488884999508, 0.48062297499013545, -0.47291445509912233, 1.0, 0.48584509286832045, -0.5952593900190679, -0.816778321077765, 0.7389928114796043, -0.3130603980254867, 0.0276295210657517, -1.0, -0.16034511839445564, 0.44177783943676463, -0.6705601179928551, -0.43133539632301493, 0.7155409148725673, -0.7141698643748733, 0.15161729350117742, 0.9835510933544633, 0.5209599527274231, 0.3140525571294519, 0.12348385820043511, -0.47154213637001813, -0.5582822300590374, -0.22339009175632385, 0.8025468882416966, 0.996882116251123, 0.47436428906847583, -0.7084463667074723, -0.8932415437051676, -0.8145616217541848, -0.9011002628653553, 0.27782113369896655, 0.8034938553828853, 0.6225720965673918, -0.06961028394970192, -0.5676465359517779, 0.14444373916615433, 0.7232996043828464, 0.4073708083148884, -0.48658347982546163, -0.9058089083250696, 0.6211768544961369, -0.9736624094375985, 0.20161740508296802, 0.9329496200010263, 0.8106715898102089, -0.8127432661059815, 0.19571925762974277, -0.14223149057457177, 0.1461447512115766, 0.5573212869627765, 0.25458588912883295, -0.5901918778800882, 1.0, 0.9574146918663133, -0.1386905448284558, -1.0, -1.0, -0.2904637367085377, 0.6183209719316511, 0.015102281930965633, 0.4313615464056384, -0.3945098556167328, -0.01584333660533256, 0.8229841989250346, 0.7068272844805583, 0.15136128437290705, -0.4563073179766647, 0.3012347407048457, 0.5358468339973805, -0.9245901294584348, -0.9293143037475803, -0.49358029954241367, -0.5578953253238397, 0.22986474501935694, 0.9047151156822353, 0.45891558098203966, -0.30633102329681866, -0.7934604363449749, -0.3552700849350077, 0.6798395688532992, 0.562678369671239, 0.40909040003823266, -0.9318702416189825, 0.6488270102028235, 0.31339580705238107, -0.0006741064443757661, -0.4235043681324935, 0.18152746727234742, 0.7441935235516675, -0.38305034993396647, -0.13479305640222727, -0.16805802829375777, -0.2817596315239288, 0.25568898139912316, -0.7429963848188946, -0.5352772345938419, 0.8703504368382259, 0.036571818813394774, -0.293407814003555, 0.6520402058371035, 0.687070657963641, 0.16332928509057365, 1.0, -0.03717286235041817, 0.3113130412683384, 0.8051296430916673, -0.4977226891626058, 0.15688509726116656, 0.027705618316930164, 0.3726974852745094, -0.5391242546014863, -0.2548363090668293, -0.17750898381217595, -0.2335770512417068, -0.09871330605519757, 0.5672048784995289, 0.3719990573552706, -0.541661318039548, -0.5413801058213289, -1.0, -0.1483841874794677, -0.15392949299831485, -0.530698661760909, 0.5289471332025915, -0.8764258468759234, 0.6178749157829049, 0.6819451399270491, -1.0, -0.37476695907166346, 0.8294728705281816, 0.6268784925349644, 0.942298053860229, -0.7422643285546011, -0.8970275754284305, -0.21642399857143452, -0.2674372962537482, 0.11053258324531148, -0.2718212862149425, 0.883270387955984, 0.27431534450596406, -0.8348274037114086, -0.6297320117916377, -0.8890683904445131, 0.3921533126714137, 0.5639748067212269, -0.9120464938742111, -0.6759049081033828, 0.24426565781969212, -0.5573176730076261, -1.0, 1.0, -1.0, -0.0989005347529695, 0.5540707472936843, -0.006232866991615321, 0.5492021155699525, -0.9070182294066353, -1.0, -0.017670933369886066, -0.14160312327303137, 0.052247697257530534, -0.23425834046092192, -0.8568203835815178, -1.0, -0.9729863316568729, 0.008081671887592512, -0.5716866581561935, -0.3528683002478645, -0.30718547245635197, 0.3647591512901426, -1.0, -0.37675979687448624, -0.3148839699965356, 0.47609442504779215, -0.3861573282945452, -0.3195594290976611, 0.12145557739619389, -0.10663183276186183, -0.49628043686461865, -0.5463698655295193, -0.27708281216374564, -0.7574585992437102, 0.22664578967012433, 1.0, 0.11722869614740601, -0.8060871246031329, -0.7121459794532525, 0.538117511295999, 0.49511117760422063, -0.009234571946345166, -0.1634365322557536, -1.0, 0.2746834133153414, 0.803586096962387, -0.40946446619044585, 0.69583093138294, -0.7536401622072996, 0.6208301027074968, 1.0, -0.8556861998536103], "fitness": 21.17399989261955, "player_life": 0, "enemy_life": 70.0, "game_time": 524}
{"weights": [-0.4962304258899343, -0.14945234104998706, -0.8352153864026742, -0.20163435478424224, -0.7798855420173858, 1.0, -0.7071769220488876, 0.8962838698125974, 0.9057320722743281, -0.17058694694961402, 1.0, 0.7954978313046647, 0.4538121838689524, -1.0, -0.43837661382319715, 0.6594708054281926, -0.09389793653999937, -0.4051644312969212, 0.8157364918360326, 0.453311917527922, -0.17108517069115364, 0.5219939330439075, -0.16823496541893904, -0.09675154022967145, 0.47713525656876954, 0.7609753936736601, 0.6318975346090868, 0.400140842383524, -0.6097729460970082, 0.1285846527365002, -0.8625299209390052, -0.5794850791529687, 0.7421303743387344, -0.5249970304248274, 0.00014866220380985173, 0.4442584153112054, 0.04410959067234402, 0.9879468100026696, -0.5510615029204147, -1.0, -0.8073126083698844, 0.5467499697996141, -0.6435024038294226, 0.4826809963910692, -0.9829630692282787, -0.9159600306940854, 0.13786366113585138, -0.20380213533206037, 0.8335419681761624, 0.19375621957768402, 0.6374729752581733, -0.37884485784028554, 0.8756387851178078, 0.8228720313061793, -0.006884154770909229, -1.0, 0.0931069130573188, 0.7185668424716071, 0.43662962380020626, 0.5195002907723838, 0.5989961476936653, 0.6005060990877827, -0.15593715659867075, 0.32004678778121176, -0.8543482138520844, 0.4708861045674605, 1.0, -0.16604556071886578, 0.5712633172475121, -0.7802167795295026, -0.8873523606790397, -0.770006682732339, -1.0, -0.6838150309833659, 0.9302467273711945, 0.6663331171939115, 0.9649155044361671, 0.9120204792849793, 0.21461994952901658, -0.38620742694331345, 0.15819572848061386, -0.6925771447343032, 0.5038075489054392, 0.08102783948748596, 0.6073216022733686, -0.5305183162046335, -0.8174040924624573, -0.055378219212152024, 0.3077523802577335, 0.5646255643761056, -0.11404704857189887, -0.18661844495964097, -0.08887576649775414, -0.6189383715053083, 0.36243919991117446, 0.43638349581296265, -0.9025946590797884, 0.06173237001207804, 0.5142101257056342, 0.1488382185764025, 0.12365297669438863, -0.19638334889334358, -1.0, -0.6482682923881271, -0.8498851931753666, 0.024466976279326147, -0.7037825763036671, 1.0, -0.2230042124275411, -0.5867397638835739, 0.3824588228614644, 0.4234919132987992, 0.717750691471323, -0.19254365139974042, 0.11314486541552929, 0.23244333594008726, -0.46637715309078803, 0.8885654405577673, 0.8406823604005582, -0.4573248923076065, 0.10337252421785034, 0.8605876667804211, -0.4610053674290551, 0.5079009049442976, -0.3063971480187219, 0.05656847923732217, 0.6458798644483067, 0.6338085270903053, -1.0, 0.030920070630084784, 0.7160722469747328, -0.010098911177643638, 0.3012347407048457, -0.6989614970785445, 0.7474743940873944, -0.30752259843626095, -0.6447844825538144, 1.0, -0.4765001906575754, 0.5984615960468677, 0.5533675657475792, 0.0795929056889456, -0.8623790204550787, -0.6960133724087004, 0.1779643223705425, 0.4445005602960629, 0.021216305730776597, 0.8951815283359693, 0.5690708198462241, 0.3993014054312163, 0.2206697459876784, 0.5188968963498398, 0.49258963560701285, -0.7123154369362007, 0.48175197753624854, -0.6192760321957806, -0.3037503652260023, -0.6951189179963, -0.8014277709897106, 0.4941843478317476, -0.6882432262460567, -0.9188102553153186, -0.368635269899843, -0.34990747375981746, 0.7840754180157623, -0.31241353779365727, -0.8785330221229284, -0.7371973554691038, 0.44166591959121043, 0.2211529560093918, 0.7686164731378435, -0.3989445764922768, -0.5363994570146762, -0.5839106551697638, 0.264797351987268, 0.9738707060944364, -0.24769588804554357, 0.4124777245983985, -0.3321124343280107, 0.5198030387200113, 0.3536010214967089, -0.44179441275233516, -0.5365129591199368, -0.5591402640307039, 0.1358548634722628, 0.3697673656634979, 0.15777130796452896, -0.870272686197576, 0.9704603708505576, 0.2739719409922052, 0.5555312292181794, 0.6878957326057147, -0.33013034706761607, -0.547243299003652, 0.9156446330734362, 0.6965459495458988, 0.1447665274709032, 0.8097399190781415, -0.9754775634945756, 0.37936241007126315, -0.5172306953191204, 0.21884382203202474, -0.12305585988500672, -0.152864495618935, -0.7006115482712905, -0.3275419647395872, -0.7807898159339672, 0.0666717328832489, 0.48924774910004354, -0.17875846290496958, -0.7583777733332877, -0.9581447816049444, -0.9233293158373377, -0.36507093532078516, -0.7801611265721264, -0.5886666214170331, 0.32988080601057523, 0.8101553741919247, 0.30364777603428017, 0.9167396299067019, 0.08175339757585393, 0.42950649277114206, -0.9027261834679521, 0.1428068038000118, -0.6703748959654182, -0.06277899235868173, 0.49861339169019103, 0.8359127085157616, -1.0, -0.22599745294417953, -0.001715353873527281, 0.7662920957850603, -0.4229619059506613, 0.3277684821639374, 0.04368253847404166, -0.959518352687837, 0.018627719951777977, -1.0, 0.3657266924048629, 0.4120952953410908, -0.8639792883202136, -0.7217467838562919, -0.13818208978255314, -0.0040454654689388025, 0.33736172812618814, -0.33233313508309387, 0.03270217412883947, -0.5709533898931848, 1.0, 0.7264281267903236, -0.7965794204517507, 1.0, -0.08525463801505112, 0.46509900564300133, -0.5352856060247985, 0.5085552408911045, -0.6036425653958057, -0.2407510882088133, 0.6573904922385467, 0.8343949740993412, 0.6637190534470825, -0.8207181136189792, 0.727573241260747, -0.1458214319863577, -0.6968820939236533], "fitness": 38.21328304939492, "player_life": 0, "enemy_life": 60.0, "game_time": 339}
{"weights": [-0.7270800525839041, -0.1989051082808716, -0.6785362248423528, -0.12028292825549722, 0.2643903891367436, -0.24090011617989232, -0.6772926177390621, -0.581906512777047, -0.9662768519818354, -0.9441766771078383, 0.1740745547547723, 0.8778171842384792, -0.03242990433764886, -0.0018921119926435248, 0.09143637990791034, 0.7792487697798096, 0.13105663270160298, -0.7951009260278363, 0.9799935624460085, 0.5288922586823263, -0.24179229285621712, -0.42584058835505967, -0.3674147895270703, 0.06878601669366191, -0.9005276960904611, 0.09807685634913751, -0.10347745039319764, 0.3462776020220539, -0.5187333259089499, -0.057120196617598415, 0.5462189265593091, -0.03400342185090488, -1.0, 0.5055962121573188, -0.3423654151279611, 0.7083797309276509, 0.5522935472362991, 0.8951674335489843, 0.4452250774830423, -0.9959964459035032, 0.7657882820919253, -0.4475205788366772, -1.0, 0.4197711799029069, -0.7127178000816227, 0.43460352676267755, -0.7889702018010449, 0.6783841234758405, 0.7878663947421676, -0.24695650278081166, -0.5071519748179261, 0.5984845701032646, 0.7551521308985505, 0.21233224734491046, 0.6958488326026102, -0.8418855144968832, 0.08327651521818827, 0.5554540789348379, -0.8476507535118016, 0.22211061109607738, 0.3933905630054849, 0.17571945171219366, 0.11058766312761614, -0.3784106300751815, 0.5036848979329818, 0.12209039043988346, 1.0, -0.1255079485625779, -0.3011628649427213, -0.7352331548987062, -0.44823480207214894, -0.3130603980254867, -0.6549125178621067, -0.6526587490818977, -0.6961253771022948, 0.6619363830774426, 0.7082868173087843, 0.6617000353827153, -0.2274899132567647, -0.8585192003247049, 0.4028110398453175, 0.8423636588953303, 0.25813959839967515, -0.04565337892048099, 0.4091526947227508, 0.46393826001093785, -0.9114871928713508, 0.5009819952965993, 0.807782015979812, 0.8112856673477628, 0.47436428906847583, 0.8649851374658561, -0.41334526754445994, -0.0995773254455865, -0.8625773044630114, 0.056877867361598694, -0.004501159970728752, 0.38585732729192557, 0.5085327365573847, 0.4092274061741137, -0.09289991374507692, 0.31366006690258674, 0.4073708083148884, -0.17223187119498973, 0.401432555665342, -0.23242319170354303, -0.4445836949784384, -0.4203462059150127, -0.6623055230103878, 0.5443255795703773, -0.707232939934492, 0.5019374843190403, 0.8823815185321116, -0.008461594066351302, 0.6927451661142255, -1.0, -0.5460118254299784, 0.902340299869506, -0.8077061696375144, -0.5212183447669496, -1.0, -0.7800318369612838, -0.6528262015545416, 0.5586547758228685, 0.423823063827489, 0.3235740908080854, 0.038945390009639314, 0.8795900832386809, -0.2905394160770161, 0.9014189633270665, -0.690751410207997, -0.7700424126131723, 0.454176123496698, -1.0, 0.2665134720902209, 1.0, -0.11641710774651848, 1.0, -0.641419467917731, -1.0, 0.37352114175744144, -0.740014353343258, -0.23351989356492858, -0.3141345556990836, 0.6798395688532992, 0.516989940485224, -0.006595824724530908, 0.6281361846429199, 0.24273600436577206, 0.2883468799544852, -0.19624723784513032, 0.36551737647355276, 0.18152746727234742, 0.753831371550766, 0.6517896239198604, 0.8937428908172451, -0.2339730958366087, 0.3865805597111434, -0.9504758056501709, -0.6793036502211844, -0.8850921682052393, 0.8703504368382259, 0.5535816905419539, 0.4675391520961571, 0.8805790310548681, 0.687070657963641, 0.17325150237416884, -0.5750587342290736, -0.33645786402939243, -0.06314562541543325, 0.8273576622101233, -0.7079309605782127, -0.43441161904294356, -1.0, -0.03313442569516162, 0.8430514400397632, -0.09705008922452679, -0.17750898381217595, -0.5226836963581867, 0.7795710370008986, -0.9163953148241768, -1.0, 0.03604197440904802, -0.7457845135553061, 0.20952556208688, -0.1483841874794677, -0.3558377312839265, -0.6348768489812052, -0.49439170698599777, 0.3688550484062765, -0.4518611102855351, -0.26813316685380256, -0.04115624361896622, -0.26032308778574603, 0.6042079639747602, 0.03956886582637684, 0.3907149899185845, -0.22124006283286507, 0.40888338435293214, -0.16245689226387525, -0.4017715664069958, 0.19210965309459385, 0.1997962480203173, -0.2739383701520678, -0.20152877600402289, -0.4840635088673818, -0.27800717294505145, 0.8619859867551365, -0.567680720624644, 0.5440368197666801, -0.42300337649107894, -0.18979833736830418, -0.8845118774275169, -0.42049421920376034, 0.537364389605832, 0.4075791608993159, 0.14990584770420268, 0.7954499636180377, 0.5496079271044807, -0.8864052053374741, -1.0, -0.15925479275320387, -0.4703187675889914, 0.6518179985461355, -0.6599434218979419, -0.20030707932175637, -0.2711997914307609, 0.667608270025849, -1.0, 0.3968013318612474, -0.7917234243112968, -0.7239728842796674, -0.07740203090526471, -0.23342979564619687, -0.04882715858297321, -0.31224563738354333, 0.3619226996752435, -0.9899874343839881, 1.0, -0.3677365610712216, 0.03108428494393839, 0.5163722425361326, -0.10663183276186183, -0.49628043686461865, -0.15019211933120813, -0.46085932962839216, -0.7574585992437102, -0.5378577125081272, 0.014421619409124953, -0.39939320193520567, -0.3212448656097979, -0.7121459794532525, 0.17461015240550243, 0.593417191567407, 0.06594234482829425, 0.38788738309330556, -0.7432152071025137, -0.2407510882088133, 0.7745248584085549, -0.46194712991894965, 0.5609546394197326, -0.9529360825812296, 0.38137359646358204, 0.8538287945647609, -0.7613147252773735], "fitness": 86.99140997390337, "player_life": 0, "enemy_life": 100, "game_time": 510}
{"weights": [-0.27199086615795653, -0.3404029468245537, -0.34349001801368895, -0.2149153146571388, -0.8990671734747137, -0.2570930907224739, 0.9480314841292752, 0.7680367232008591, -0.40798951091813174, -0.08375435368667405, 0.5412635570730834, 0.8622166782153294, 0.012400058824847127, -0.7132106895434067, -0.2030442007988115, 0.6006664710926826, -0.01947857767386235, -0.8253108846865673, 0.8153362205218766, 0.3278547269485385, 0.5461485412263913, -0.4069224338573474, 0.04183494639523616, -0.8288748031259918, 0.5465461067695273, 0.607377633820922, -0.974069479230552, 0.42138271903151703, 0.6408837618464585, 0.34134608720447357, 0.4747003391411992, 0.23770575846428343, -1.0, 0.45721719417719875, -0.3263457331469047, -0.9339169557114219, 0.26897397713989424, 0.7972364906425535, 0.673482657184604, -0.6552523285497336, -1.0, -0.2105973443069319, -1.0, 0.544116131682675, -0.7805802568299561, 0.1703516068531701, -0.684325980319268, -0.015963242840563413, -0.6247940319432144, 0.03576642596351781, -0.7244940733371787, 0.5269352499708226, 0.4255123792984231, 0.028735089580368106, 1.0, -0.2079782031183283, 0.16594713078298373, 0.8350483725161527, -0.3116699875579992, -0.525580742240895, -0.43561316881873247, -0.4578230295071876, 0.05678771718498146, -0.6176731111510809, 0.25868338278997466, 0.3171675375597689, 0.8498489521437187, -0.13931891454555484, -0.03833743768850881, -0.816778321077765, -0.2403497813034196, -0.6188949183178278, -0.09378699472157029, -0.8007602878067129, -0.14733140583231832, 0.44177783943676463, 0.03363583235185405, 0.7666763395497214, 0.6850342077472966, -0.5565772918841799, -0.3494514102523953, -0.5537078902218537, -0.5305193159058588, 0.11624754943077387, -0.08033564992198085, 0.7823972117185936, -0.8513108016068215, 0.21078125976861686, 0.7965090376483318, 0.7100095557582355, 0.2162984314422436, 0.6367546276752405, -0.07130169633608219, 0.7590369647452215, 0.5388851997940257, 0.45833859969023083, -0.7035732954434413, 0.36581516990246365, -0.11090389442782, -0.40442070487773407, 0.14444373916615433, 0.7235231886030742, -0.016605122331738206, 0.20685517109820423, -0.012969280998488694, 0.40903701192935055, -0.7148878390769592, 1.0, 0.9329496200010263, 0.891235572358974, -0.49610272499829666, 0.5295376936077628, 0.48315324010561933, 0.1461447512115766, 0.40621599744931036, -0.3130345890689787, -0.47319741776275226, 0.9688048869971123, 0.8406823604005582, -0.39731722160899496, -0.7101623688577405, -0.5773931504622453, -0.6891311097152487, 0.280915802799251, 0.6526944286706671, 0.6391947729101286, -0.3945098556167328, 0.2396980242363731, -0.6547147915874381, 0.8012154736575929, 0.5048178522513946, -0.19716061599289705, -0.8813809682119556, 0.5060067900336614, -1.0, 0.6662709334681295, -0.059142233228504676, 0.9605334973394539, -0.4578058040482921, -0.9479861729549885, 0.5101045789856384, -0.06941583366464571, -0.30165397296450003, -0.08469612722803543, 0.2085253297665703, -0.3650646016781516, 0.17281355541330568, 1.0, -0.5495621988832129, 1.0, -0.5358857006675126, -0.4235043681324935, -0.22510425446657623, 0.09925818855262963, 0.7071173740080939, -0.5942064369934538, -0.9195306712703653, 0.20095649539796187, -0.13634092253286856, -0.7429963848188946, -0.45252539416071336, -0.09056875340633722, -0.19028651724540238, -0.5880467689155556, 0.36443171547848, -0.4617849191105626, -0.2699476257834524, 0.06297223593595569, 0.17023270606489826, 0.3482971806223436, 0.7380072097258439, -0.6849770486498364, -0.7245460692302319, -0.6358197122727469, -0.03313442569516162, 0.789371961170119, -0.2568807885268384, 0.632502762466745, -0.5288945363823683, -0.7718337870612241, -0.08974296735848997, -0.5075181411046392, -0.03645458698250578, -0.1641129413968446, -0.910317927164932, -0.5703319712520233, -0.5395704489246334, -0.5427993056559541, -0.2183585119258321, 0.6076190955397491, 0.7842635444276488, 0.7187582258930663, -0.6528059531198841, 0.6505227555835946, 0.8294728705281816, 0.3067133236308056, 0.6309281308371715, -0.22124006283286507, -0.22522500894343972, -0.19359059688394648, 0.6994976120937015, -0.24687046419324232, -1.0, 0.9490942130267683, 0.3954848066206347, -0.383029602243805, -1.0, 0.02096817234962986, 0.3921533126714137, 0.6371585711407878, -0.7847899776571197, -0.1570082713795527, 0.3137100154783312, 0.5718289736817572, -0.7911622871280216, -0.5388308127316711, -0.49176950431976213, -0.4316298567231694, 0.37330788780932794, -0.8446476526510018, 0.3998225776075651, -0.4687753407540551, 0.4658613321475855, -0.017670933369886066, -0.3222278975622661, 0.19798191163646234, 0.36381016439479846, 0.8555239045504481, -0.7753610086291886, -0.8463045942332852, 0.008081671887592512, -0.5716866581561935, -0.3528683002478645, 0.644812790456244, -0.5768072468164621, 1.0, 0.8178447125899639, -0.6670525563106655, 0.9126787794436333, -0.494056487789669, 0.9901710494715131, -0.1641809149245852, -0.9184740289683856, -0.21380659959653076, 0.1358429134834357, 0.5716645324655043, -0.8772118934912122, -0.6381492267301823, 0.9290524503436974, 0.48692348199509466, 0.7613227140689425, 0.9564685944052985, -1.0, 1.0, -0.2141244697472795, -0.32414521267312246, -1.0, 1.0, 0.9303520583117998, 0.8786912635589501, 0.8500216796286525, -0.6295130647564428, 0.29430996461459946, -0.032588216638227474, -0.29302589578732835], "fitness": 47.75972415482923, "player_life": 0, "enemy_life": 40.0, "game_time": 513}
{"weights": [-0.5626181157839127, -0.7526259554573056, 0.7861551173185228, 0.5158441189781479, -0.7928214660064442, 0.12937919490982924, 0.46537017893264254, 0.8994924007939695, 0.7419155752165473, -0.11001486579066022, 0.39686895309151415, 0.5237273626764154, 0.5173029450629381, -0.6632737689546216, -0.5122579053364084, 0.6570107126595225, -0.24081100384586035, 0.1402677305178336, 0.26185333207015554, 0.5073706349582504, -0.29611663670626664, -0.3134560825340074, -0.30676097955213755, -0.03606104687063244, -0.9470752384105727, 0.9972537510522903, -0.8595053362690195, 0.5266514957181091, -0.2614577727542892, -0.17767398431741965, 0.4561135115627183, 0.27241553226017434, 0.9270355783057074, -0.36960137441273533, -0.15914229647485742, -0.7946216347593136, 0.55176891387375, -0.5675810209780958, -0.10134154381176963, -0.6860801406525097, -0.31571727878059697, -0.027400434443193677, -0.7641367104243462, 0.954052112602626, -1.0, -0.2724807531835016, -0.6653682571143095, 0.6664381727224203, -1.0, 0.5026368376229491, -0.6764439771289779, 0.3634915448181611, 1.0, 0.4141028588146214, -0.167380223690428, -0.9883856857426276, 0.12783504243322052, -0.46792121559398836, -0.6254470516454083, 0.06026716846297109, 0.5142089496449848, -0.13611684681496858, 0.09007582478768675, 0.02353117448999209, 0.4562286159429013, -0.46146061183906933, 0.5598566697808045, -0.27683177962140115, 0.556790125850722, -0.6182771702090339, 0.11707057211254474, -0.8487275242663034, 0.0276295210657517, -0.9266053968596769, -0.28229181619118443, 0.790087035947584, 0.11375388144952256, 0.7666763395497214, 0.6057643943828861, -0.5708844853063453, 0.6310767818091501, 0.2736278009533903, -0.3653929260742163, -0.3836205325470876, 0.9675208101111387, 0.6472053781297886, -0.5582822300590374, -0.22339009175632385, 0.42100136416990497, 0.7804359336439132, 0.3277461670241277, -0.8803563204414412, -0.07828211366932068, -0.0995773254455865, -0.8010365834385287, 0.273171873907605, 0.3099233153532812, 1.0, 0.1755153312673747, 0.29728583294509037, 0.015968994385130802, 0.5781809746667865, -1.0, -0.07959277730549552, -0.1225481878697725, 0.10009181333133926, -0.5540034412200017, 0.3041228923885507, -0.7719033289158749, 0.891235572358974, -0.43295315521073147, 1.0, 0.8111838623253523, 0.28808682829164267, 0.36007285001370604, 0.06854259216560579, -0.7443270607544037, 0.8181333495377611, 0.35221396051240583, -0.3010269937397753, 0.17364605753142248, -0.04568649541283634, 0.24449216378108263, 0.37356996065407766, -0.3592264860283579, 0.36894774494706334, 0.8255201847750265, 0.2396980242363731, 0.22317229093191585, 0.39689237410883094, 0.18318117648621224, 0.1589976466116656, 0.2572672371394651, 0.36156896865450505, 0.8167279321572015, -0.31569916270767034, -0.027686995132773312, 0.743184438479719, -0.10038482172166191, -1.0, 0.5747396147660697, 0.7128130743880513, 0.564381740794045, 0.23130723581996, -0.48543956191616544, -0.5584220323438008, 0.12131958867756433, -0.9384584573565526, 0.5690708198462241, 0.16530959266972928, -1.0, 0.853885989895705, 0.530823345915082, 0.16110548397318042, -0.5019340186699188, -0.760742637246754, 0.33043875735568823, 0.022929821468187478, -0.2843592135824519, 0.4289505592857583, -0.46242197895786086, -0.9838281427381159, 0.09491078036773426, -0.23177251729120407, 0.9726267182603715, 0.0027203012678241323, 0.9837916433077909, -0.3571104176114974, 0.8923597103067142, 0.2882961508821525, 0.9775049906721214, 0.24289021847941294, -0.832674806608518, -0.858764381816831, 0.1507448260167321, -0.488490006742645, -0.20034923099920532, 0.40930777679028324, 0.920989634447263, -0.5378801007428327, 0.6200770847869572, 0.747004349946311, -0.7660344474497747, 0.341238564284112, 0.5499754081480606, -0.5703319712520233, -0.7223773366694664, -0.530698661760909, 0.36803075009577496, -0.9518975107688895, 1.0, -0.29112074447233965, -0.36184985312903284, -0.11182143840870645, 0.7745193871440061, 0.7361961075149045, 0.9425681358103142, -0.10672098273575967, -0.02807769426257442, -0.0075404499903088396, 0.056156506012855045, 0.3262333369172549, 0.24815812527561248, 0.5369763695594042, -0.42132435396898854, -0.6625554726694031, -0.8736378293080517, 0.893864157967058, 0.6833493819389771, 0.4419541666398782, 0.23403101728067277, -0.8776786145176323, -0.7496829201695777, -0.4329241308776476, -1.0, 1.0, 0.10390484878659773, -0.5107008507112847, 0.6868169667053723, -0.9737749001857472, 0.5492021155699525, 0.815094528702646, 0.18633690054620697, -0.11445908329080853, -1.0, 0.0014207500711521381, 0.5549990184438879, 0.8555239045504481, -0.6512548185861222, -0.23656197014150349, 0.3648518679433936, -0.9024016217199566, 0.26917153168288965, 0.6712562776699558, 0.3705255685824513, -0.3528573801321248, -0.33007380078840637, -0.6936787101486291, -0.3793332387735884, -0.1539346210321246, 0.5715615556565875, -0.1641809149245852, -0.3951316804689159, -0.49628043686461865, 0.1358429134834357, -0.7336672778581876, 0.6199938532552348, -0.9826767700505036, 0.2869902335720095, -0.06932951351077685, -0.44898122820615394, -0.6637574301014908, 0.6421371000662921, -0.39525922699877186, -0.20562597303162047, -0.04795349649255856, -0.4255812550614655, 0.6509534625553515, 0.5089447543542435, 1.0, 0.3954708034538849, 0.5779834429039353, 0.8942240320846185, 0.8841485973062676, -0.04946068377359239], "fitness": 30.17105438238979, "player_life": 0, "enemy_life": 100, "game_time": 510}
{"weights": [-1.0, -0.08223345713447605, -0.4951631167333974, -0.3460098837995807, -0.13548283330263877, 0.7368432607595048, 0.8008562383293735, 0.5683668667893931, -0.6476889960086718, 0.3194324361760762, 0.40990432045725783, 1.0, 0.5173029450629381, 0.3754754650354418, 0.34601000379396896, -0.2879415485484382, 0.2825404275430194, 0.5309751167735113, 0.7638670530861582, 1.0, 0.6915553953945224, 0.396187769332244, 0.04183494639523616, -0.4759259386592155, 0.5474464954038623, 0.11918450990888654, -0.011518753672331433, -0.6778982025751137, -0.5511473797079731, 0.3541569648891316, 0.5560710998785849, 0.19764987126601094, -0.7872545755221368, 0.915806749048253, -0.19273671845185147, 0.8967799742929423, 0.18092310961742447, 0.7280833682561523, 0.36618095409791984, -0.48979609992565337, -0.6596731424211528, -0.2105973443069319, 0.3132522953791149, -0.1822067369090943, 0.07744570518122285, 0.15144254171592933, -0.684325980319268, 0.3545851051891172, 1.0, -0.2950243381058608, -0.5438244670603415, 0.5848451764700813, 0.7160004689602772, -0.6237157479891359, 1.0, -0.9661301790174965, -0.2084878366893192, 0.514393347493012, 0.43978852589849426, -0.7158299681588367, 0.34420275417950785, 0.007816776286137528, 0.2238190819708309, 0.2413392531103521, -0.23524260905794173, 0.3171675375597689, -0.6354752453958072, -0.23388269904610443, -0.3011628649427213, -0.7372421104122062, 0.2937740127595605, -0.5840676482385956, -0.24911024072070345, -0.5094527991877789, -0.2479003237275702, 1.0, -0.5449719459577447, 1.0, -0.020470943302182076, -0.38620742694331345, 0.39388687135720113, 0.4340406992905442, 0.5209599527274231, 0.32356341083033446, -0.06595358041541971, -0.40745016304861814, 0.7545747275965764, 0.5263391373812417, -0.1692872400353317, 0.33852917365241997, 0.39508429193793115, -0.4908437567969285, -0.6994675120578849, 0.4759985794323514, 0.23827286511419615, -0.035525736948135433, -0.07080455375686695, 1.0, -0.1650823925706729, -0.5676465359517779, -0.059618533051900985, 0.7168306327286299, -1.0, -0.5713279673125472, -1.0, 0.6211768544961369, -0.8238140083093081, -0.37346682104264534, -0.5857318529485009, -1.0, -0.8822595711606228, 0.0961030602751658, 0.6486774270922726, -0.07780587039879686, -0.8895489623360021, -0.3237726880983217, -0.5901918778800882, 0.9318224056896667, 0.5889995647010257, -0.7624205024104506, -1.0, -0.753455264615625, 0.3053149256904133, 0.1656210510745103, -0.184287397066213, 0.534522447439501, 0.9230232402459373, 0.8672685936451483, -0.683615929298404, 0.04404966018589712, 0.14419051227485657, -0.33396338168130285, -0.6056335572887195, -0.6301600466652008, 0.6494450295778953, 0.8620538091317713, 0.2519061487663194, -0.11657698648843756, -0.525625111284376, -0.5237524553105632, 0.2833005718310739, -0.06941583366464571, -0.6541494575462912, 0.3386665010610943, 0.6798395688532992, -0.051696001683905424, 0.7289023069154088, -1.0, -0.6506957347728166, 1.0, 0.047206610604148075, -0.399624167651668, 0.26239905318566725, -0.5745758392336306, 0.7989959820510802, -0.7606700446042118, -0.017235970308879744, -0.8976908757070133, -0.07275176840116043, 0.004139850270955314, -0.7939812558713683, -0.8406315201068661, -0.368635269899843, -0.293407814003555, 0.6351309573997863, -0.35075596150149574, 0.3285773773493177, 0.6091582815093595, -0.20841096698378578, 0.5427573101528903, 0.5672108847441466, -0.45385843063833464, 0.15688509726116656, 0.22597934335034744, 0.415291223587248, -0.33742821004560114, 0.035293254720654255, 0.5111417091853807, -0.24647669277018358, -0.09871330605519757, 0.28991449167765226, -0.9316235613597692, -0.541661318039548, -0.833362891837164, 0.9385716120689929, -0.33949516059408513, -0.6443620326645476, -0.9802994415164508, 0.5289471332025915, 0.49964711172758125, 0.74161674521779, -0.828366554003666, -0.3783982428029493, -0.26032308778574603, -0.523184334969414, -1.0, 0.8483223218441033, 0.47691158044850845, 0.5426245491209776, -0.2955016936460022, -0.8175968573322648, -0.04656682502334991, -0.2718212862149425, -0.08162344572958924, -0.776453324431039, -0.6625554726694031, 0.17905682791149413, 0.8001210942189868, 0.3203295201427733, 0.44053844853478175, -0.5725901378102252, -0.46773659028629017, -0.8410876870031194, 0.5718289736817572, -0.6071882594939659, -0.29600903460530426, -0.8347108132425204, -0.5107008507112847, 0.5540707472936843, -1.0, 0.22448484634400429, -0.4220757383419071, -0.5854877201912938, 0.02021938961419273, -0.4495769477792371, -0.3174323978864975, -0.23425834046092192, 0.6272725099497263, -0.7671766306986223, -1.0, -0.13555709052626064, -0.6565311110763474, -0.16126788387658228, 0.19991463934277454, -0.02818605891798584, -0.9223366218581863, -0.8692887504043051, 0.8700170783784735, 0.20682768729363712, 0.3668197878170754, -0.3195594290976611, -0.1965732427390578, -0.5133671304239485, -1.0, 0.36250304415371176, -0.27708281216374564, -0.10169875541400836, 0.9780416914662995, 1.0, -0.030072744829483647, -0.622277591605779, -0.7930018102006519, 0.29013075925420195, 0.5654041031918489, -0.35666964593069156, 0.05752915021172467, -0.42713703662044666, 0.7578924865316236, 1.0, -0.32399427693705446, 0.8567558520834752, 0.23817236900434027, 0.29430996461459946, 0.9101564230750068, -0.7194359468178697], "fitness": 56.77346333071253, "player_life": 0, "enemy_life": 30.0, "game_time": 506}
{"weights": [0.18700759219887625, -0.7229818067359537, -0.5489842016398458, -0.26026537579602493, -0.7633324774540625, 0.9038004783535049, 1.0, 0.5952021992330205, -0.1912820481284459, 0.3076697583533595, 0.1740745547547723, 0.7488446087249394, -0.32610685162840547, 0.1575182387289781, 0.21196284463214327, -1.0, 0.09548267667886631, -0.03446851620236044, 0.2751852492292114, 0.6545943742809036, 0.0928519575575591, -0.578090932566529, 0.533000767880581, -0.9274453947630261, 0.5465461067695273, -0.0209545414319858, -1.0, 0.7119662444553179, -0.8441075079767753, 0.7956130193006787, 0.4611320223909742, 0.5411119661812823, 0.731472041853975, 0.32806843720443213, -0.07105417806122905, -0.4589421660662269, -0.02971125620207049, -0.4271977334970323, -0.11066593349174031, -0.30044434311557716, -0.8730896813555361, -0.18600730135169458, -0.7641367104243462, 0.42282600317993824, -0.7127178000816227, 0.4514150893781079, -0.6494325944253448, 0.0023929615565752016, 0.574124620778502, 0.04536020753964358, -0.21931018536085928, 0.5634584065923167, -0.7442041627286399, -0.8190016872336526, -0.28958674720453476, 0.24786990806298495, -0.15656178331846218, 0.5374367790700805, -0.2950724822291525, 0.42772694925938226, 0.22447295136455753, 0.4350757439640044, -0.2820110665933169, -0.6194883079351767, 0.5926450928338697, 0.541042272520107, -0.6354752453958072, -0.3722501598675205, 1.0, -0.44572817860154823, -0.707024182006128, -0.5840676482385956, -0.24911024072070345, -0.16054398811623072, -0.3568744774334911, 0.6132207067862419, 0.11287296307574621, -0.9637810420025184, 0.8004278256265983, -1.0, 0.16456905866479626, -0.2884572646871087, -0.6693477814347157, -0.17402672377474396, 0.4221314261733637, -0.47154213637001813, -0.48714324672852777, 0.3486230002427898, -0.3802179706852844, -0.10842460528641698, 0.3801074256727869, -0.5177393413842464, -0.8932415437051676, 0.801609012135497, -0.6242504461788798, 0.007429846587644215, -0.849847635217911, 1.0, 0.6536022829680452, 0.0074449110071835856, 0.26648535000823437, 0.7077513666967425, -0.06888246173795386, -0.585419932499913, -0.3829693646907001, 0.4092120945202485, -0.6973863870635619, 0.4133142224148443, 0.3116723162438773, 0.434553972914981, 0.9248974482880946, 0.9575227561410251, -0.27128130262915434, -0.053634907170654306, -0.871352900805009, -0.6646782827267061, 0.9635509409879381, 0.4748397276559786, 0.49495226744373283, -0.8452504779858978, -0.19427116720591664, -0.8278777825192153, 0.428755210141431, 0.1262718105963836, 0.032103367701707006, 0.5840659130898715, -0.025508533598349425, 0.1408630325168978, 0.32783433624621194, 0.9018959645901851, 0.8186264085322648, -0.14228153209145164, -0.8451985774130291, 0.578006289940184, 0.6905495375040674, -0.06780617044274409, -0.14046723698519709, 0.8688396100380071, -0.641419467917731, 0.7528897166902901, 0.17356264610289393, -0.22629798456959882, -0.4270776105006079, -0.3141345556990836, 0.7420260382344028, -0.3650646016781516, 0.3639363588250355, -0.928152107071152, -0.8845898672719259, -0.012555629202079727, 0.0808560659691841, -0.41114490989494734, -0.08242055086002413, -0.24035527856910144, 0.29358393263240157, -0.8079092968340003, 0.02227536591913168, -1.0, 0.031030484709662465, -0.7777197982167962, -0.718808271794964, 0.7381047664068103, 0.6019223746229718, -0.39542728462040194, 0.6487061964464331, 0.007482625410153515, 0.003953628323281416, 0.6231362054683941, -0.586326802924278, 0.018424134212116416, 0.9579625582819707, -0.6849770486498364, 0.6241632458731476, 0.64526865295469, -0.42200876012946725, 0.2957862315962446, -0.6469602822504125, 0.40930777679028324, 0.6818313440988355, -0.7718337870612241, 0.16191035473671556, -1.0, 0.14819203850797458, -0.833362891837164, 0.4774231158604294, 0.3040547249675357, 0.41470932113129777, 0.4342966871561449, -0.8161377536370079, 0.3968647583300444, -0.9911000582609686, -0.5269994382739194, -0.32453459731533635, -0.406893414884578, -0.2625669808785742, -1.0, 0.3907149899185845, 0.39521299884483674, -0.7825961498573486, -0.12546388875098616, -0.14749333050438507, -0.3806167628558287, 0.7941655883187906, 0.5708938886157469, 0.47191472479810587, -0.8348274037114086, -0.17306548511522557, 0.02096817234962986, 0.4323602807890842, 0.15292261648426916, -0.9955828231876447, -0.5148637204808879, 0.5451263440070961, 0.22206464069862558, -0.09294348457601398, -0.07232229159365272, -0.4414503692401862, -0.3954755879495355, 0.5324207800032863, 0.6399130067521117, 0.3998225776075651, 0.07613709595189072, -0.5330840460808681, -0.14357702984004345, 0.54038247205934, -0.03904283347609133, -0.3146792969429052, -0.7934549357007277, -0.7345373575508674, -0.9766039187613242, -0.46737916291479753, 0.7091107618327441, 0.11139788146184879, 0.35598138687264813, -0.1086141573731881, -0.6885871831257526, 0.8228385570835038, -0.6670525563106655, -0.3793332387735884, -0.494056487789669, -0.8406729495291192, -0.5716061972947137, -0.0681368259969945, -0.3635068401171849, 0.4492827145031545, 0.4894209247761032, -0.10169875541400836, -0.46751591044922935, 0.014421619409124953, -0.04531861197025813, -1.0, -0.683148129391054, -0.9531049271660654, 0.38390577745427223, -0.06784841273501929, -0.1634365322557536, -0.4905961032154494, 0.2546902436011574, 0.6128405274795251, 0.7234740802507177, 0.6165863864856973, -0.18703620840170898, 0.7594599520151697, 0.06742157237640933, -0.19697377764371887], "fitness": 21.17399989261955, "player_life": 0, "enemy_life": 30.0, "game_time": 506}
{"weights": [0.1008060006343589, -0.8036447525703838, 0.6173448992696047, -0.13788834786909082, 0.9797776617791674, -0.8622335788808846, -0.7640437063269441, 0.03308322405550704, -0.40798951091813174, -0.9504024683682732, 0.4821376171503337, 0.7691137153349589, -0.39995733490759494, -0.522916340022468, 0.09561149690990085, -1.0, -0.3931609970151217, -0.26186105882874267, 0.9525226347795566, 0.6331868167976031, -0.36929811615385433, 0.6921379731393572, -0.9428768132607517, 0.04614835428458666, 0.9427481879673584, 0.5646304873522293, 0.5658322921621499, 0.5373805656680729, 0.9644320932584061, -0.2897755906568533, -0.08823036437018184, 1.0, 0.9270355783057074, 0.20705363688882306, -0.5351490532489676, -1.0, 0.6326797728106188, 0.5113851414834458, 1.0, -0.9060889571163336, -0.6540167063679182, -0.2105973443069319, -0.6027731271408246, 0.3262072980323647, 0.29784269231965954, 0.27574308390677593, -1.0, -0.1683398031787856, 0.7678998986138751, 0.29122429665753624, -0.31552418793727255, 0.550333000173838, 0.8219506465127182, 0.7722906896610073, 1.0, 0.04360311631133551, 0.1360448224942904, 0.6502365525302075, -0.20604077011940258, 0.09616170474408675, -0.12851725744765835, 0.3779551071871833, -0.4373869317112874, -0.2990846175278258, -1.0, -0.7211350115947659, 0.19450458620682168, -0.27683177962140115, -0.26656333433142865, -0.4972833394537833, -0.44823480207214894, -0.5001385808907028, 0.4899580870117778, -0.9569349536871397, -0.2798073562440799, 0.4922026079231276, -0.2269016934808396, -1.0, 0.8004278256265983, -0.4916698209573217, 0.15572305143758733, 0.17265397157254844, 0.4280383289787442, 0.09626081409305688, 0.45723135578486634, -0.9086711323887204, -0.35653814172058573, -0.40580895462918676, 0.5503102994091739, -0.10842460528641698, -0.6338820156343997, -0.6765406414601316, -0.17871576963099162, 0.801609012135497, -0.4567291849207854, 0.2828936987850512, -0.4945371996871296, -0.3661294865751503, -0.34346011540882515, -0.03837983540489287, -0.3188267268385822, -0.4279894416733194, -0.6384245062885459, 0.15534238346751017, -0.7105453939073785, 0.6211768544961369, -0.5848904431694663, -0.41558349634686154, 0.09603767737849778, -0.9729178696736318, -0.6141713904233621, 0.8227928940946015, 0.6562247922072472, 0.07719368338828392, 0.5544218767015998, 0.1999513825350366, -0.4986626258557127, -0.756292981629249, 0.034692235384978454, -0.5554626840872962, -1.0, 0.6591654071188979, -0.6795577025280357, 0.0386526127989667, -0.3090225170908907, 0.534522447439501, 0.5673594913120212, 0.314812252492212, 0.5436375209185706, 0.7068272844805583, -0.11110225953400821, 0.1589976466116656, -0.6615659716988054, -0.3857187286159254, 0.18708352446766213, 0.8288834858375143, -0.6864925350433272, 0.4971858276069142, -0.09007702336213741, -0.6658826721883314, 0.4576865229854184, -0.1411098175617655, -0.7727765474386007, -0.11583256562159769, -0.7313340856437718, 0.5556040533295397, 0.14979323660242566, 0.895342635819157, 0.24273600436577206, -0.7210159811322081, 0.2984630096299907, 0.4292726532005734, 0.28120866798994204, -1.0, 0.8075645816659968, -1.0, -0.8471587790656718, 0.35630361512194875, 0.3100798649242765, 0.4052528897087264, -0.48772762236652545, 0.9999172319340557, -0.259728638065286, 0.2679350453871463, 0.8861776108041788, -0.4238530115483167, 0.3285773773493177, -0.8317492541421592, 0.8031384136542763, 0.43719833856259993, 0.9659773800851084, -0.545215244473459, -0.3364946414242446, -0.7118825083627915, -0.13609640199240255, 0.9254083820630736, -0.23369408515406787, 0.40930777679028324, 0.8494387388235989, -0.9214931089014984, 0.04318308956212644, -1.0, 0.2968986734663312, -0.4849081309058644, -0.15313335563258457, 0.7230718772630493, -0.6632290167362103, -1.0, -0.4967251321921451, 0.7978550503484728, -0.6023447258090526, 0.40123274869699793, 0.3498686077443144, -0.25527013723865083, 0.31239656246013364, 0.652296723973821, 0.8443707560506256, 0.39521299884483674, -0.22363694274330004, 0.2680568016612737, 1.0, -0.4176498071515371, -0.5873914150616605, -0.09771042939110686, 0.47191472479810587, 0.25903835676430276, -0.6631944280382407, -0.3096361326351469, -0.48598856927179623, 1.0, -0.8539491608333166, -0.2118817544003071, -0.9804787531516496, -0.5308291495129918, 0.7572779560450711, 0.299578721223883, 0.24567390434023847, -0.2423191109621528, 0.3097386743409987, 0.8384887010868253, 0.5897226491570955, -0.020490964081817747, -0.4234389635686077, 0.052538567890161536, 0.3189479512904279, 0.054012618052102, 0.3903041235167156, 0.9527598439623115, -1.0, -0.5137486828769876, -0.13555709052626064, -0.9949241368952982, 0.05383077235628597, 0.5032842719127062, 0.7780201282442123, -0.11597256713205426, 0.5467088137436368, -0.656746653415496, -0.6347062815541532, -0.33813551349835913, 0.4997968245152934, -0.33408942853879914, -0.3874946638528904, 0.4087070478157481, 0.899242299705266, 0.8794507239667347, -0.4748477218260927, -0.8050928074843213, 0.7420457597710886, -0.2528946756299441, -0.769767940067171, -0.683148129391054, 0.2122454692492278, 0.7350971475106008, -0.4424175875088101, 0.0038950386612826293, -0.762364737826134, 0.5494417977353817, 0.3995203131603911, 1.0, 0.36436565605091686, -0.5502370857283505, 0.8942240320846185, 0.9669835324899057, -0.8648511025801702], "fitness": 21.17399989261955, "player_life": 0, "enemy_life": 70.0, "game_time": 339}
{"weights": [0.1008060006343589, -0.10399376374793814, -1.0, 0.08415411400715317, -0.30539350629437245, -0.5341243945886545, -0.7640437063269441, 0.4000393134360999, -0.9662768519818354, 0.42867529165084967, 0.4271771613509523, 0.7711471417183214, -0.1862134442456761, 0.2727767881929637, -0.007824168323801672, 0.9369402905647014, 0.04395550081670968, -0.8253108846865673, 0.5746460427558265, 0.7024490984641762, 0.6915553953945224, -0.6450550019842808, -0.3674147895270703, -0.06465131997690665, 0.4812772944334427, -0.061163177954361075, -0.21138974559537552, 0.6353038943987008, 0.8138146170914378, 0.4320652288379173, 0.4103938143055155, 1.0, -1.0, -0.5249970304248274, -0.19273671845185147, 0.6285752588452826, 1.0, 0.7280833682561523, 0.3230941499933918, -0.7969917660542176, -0.4528609889053057, -0.2105973443069319, 0.17223584968724756, 0.979799522232573, -0.9829399765934683, 0.6569634144693481, -0.8203651057631658, -0.6848123835944224, 0.790732512472605, 0.29122429665753624, -0.16305285311095621, 0.354152615161598, 1.0, 0.7722906896610073, 0.3747302722102106, -0.9661301790174965, -0.30745019014001407, 0.5106513455038529, -1.0, 0.46246321252421524, -0.15746134171698928, 0.5831910337484474, -0.2562371696736896, -0.15561050351247996, -0.582819600458266, -1.0, 0.7503922269211241, 1.0, -0.09432077351310886, -0.23005825688484605, -0.9319699338929692, -0.5105636884086228, 0.5913953510853454, -0.27924275648537983, 0.9302467273711945, 0.67815278103385, 0.24958253723442309, -0.8843942018187265, 0.4534841130545221, -0.6938035302631784, 0.08910378048351736, 0.439693502429047, -0.6472722233550129, 0.025828732120526443, 0.12348385820043511, 0.6345020169497655, -0.4674850943115198, 0.010687979562832961, 0.9032348520560722, 0.9802708238842088, -0.08626283043608615, 0.4477874440267969, -0.2847326873709231, -0.757919177879197, 0.9582862740106578, -0.035525736948135433, 0.056091559840031335, -0.41089736404035504, 0.022263735979688087, -0.16405681036513992, 0.1313143434839783, -0.3137789159855677, -0.5511286478288653, -0.17223187119498973, 0.3573352060174386, -0.22832204786194604, -0.9258425326690494, -0.4610879269604843, 1.0, -0.6818313458436263, -0.543488333076313, 0.0961030602751658, 0.4113765440147801, -0.17876957167137564, -0.740603082685734, 0.149958613660759, 0.0007517648665572862, 1.0, 0.5800133495702604, -0.5554626840872962, 0.38464849474240864, -0.16272614260125187, 0.24415589287178843, 0.5586547758228685, -0.9352755868988668, 0.20282074320870955, 1.0, 0.3964604718853568, 0.9095129657396521, 0.871668413199246, -0.2922483004442589, -0.19716061599289705, -0.6726163020861358, -0.9284223168709864, 0.5945696060179302, 0.8620538091317713, 0.8045939604924959, 0.4950063118936606, -0.0008545804517599842, 0.7286910874983703, 0.4723167007913664, -0.1411098175617655, -0.6116336519446848, 0.23130723581996, 0.40082393012397405, 0.08661347895350034, 0.4592017280252212, -0.9265947052841417, 0.6488270102028235, 0.5270816927784083, -0.03841440202640797, 0.38420647197759966, 0.5693092990864999, -0.9593490637125791, 0.7232687802048646, -0.64080507061963, -0.9195306712703653, 0.31245175735075426, -0.07082706624360682, 0.49327995998874485, 0.7577108269305917, 0.9999172319340557, -0.706904158796815, -0.2031078047900804, 0.4934781225403813, -0.4824043540991055, -0.9686655837940731, 0.7670988059764946, -0.16975294011734057, 0.5951116695829994, 0.8128816122409517, 0.35077894752516325, -0.16412140201351427, -0.7118825083627915, -0.05847905615970281, 1.0, -0.0652803602531743, -0.1324204092608901, -0.5288945363823683, -0.5873466434713607, 0.2927907053980398, 0.3719990573552706, 0.05636055319818563, -0.4849081309058644, 0.056638330024866956, 0.5272824877232989, -0.8043383654651866, -0.9802994415164508, 0.761508931111498, 0.5300244856265892, -0.4518611102855351, -0.6499275453517002, 0.5036922430413395, -0.474541567048858, 0.9425889419901842, 0.08501178007092791, 0.9425681358103142, 0.017355269290135283, 0.47234592165017975, -0.1128305291340305, 0.4898231965714842, -0.21220942148191896, -0.21219750593849201, 0.8803325430188131, 0.09185255335341987, 0.09818771926586027, -0.077423337433556, 0.8619859867551365, 0.5826749041752779, 0.6371585711407878, 0.4977063425695958, -0.7081414435146669, 0.6338442025990798, -0.29453380725345185, -1.0, -0.6330807624272488, -0.43338762112221424, -0.02480281697340933, 0.3830999134323977, -0.9285340421180543, 0.24272021216892484, 0.039563164659428746, -0.8968159094595229, 0.49175321368878444, -0.8667174256445751, 0.052247697257530534, 0.10188340343608179, 0.8429799118668855, -0.9255876972419863, -0.9193151313562073, 0.007968754642710296, 0.7402393824397423, 0.4347927533026308, 0.7629339570604929, -0.16592923808608753, -0.06375942569873416, -0.34329294024869034, -0.9263746145323704, 1.0, 0.6505146676028103, 0.20981901757724225, -0.929828814850838, -1.0, 0.8327110771737204, 0.38028243003017576, -0.26637975246244133, 0.7922177843950869, -1.0, 0.014421619409124953, -0.32469525981094804, -0.9160422999670382, -0.4254746023472535, 0.19555663808955281, 1.0, -0.6982429433569443, 0.43120828127023114, -0.5407996047427635, 0.7415136032068018, 0.9435559550908668, -0.06577814537782611, 0.8567558520834752, -0.8327933955753304, 0.27989087463381923, 0.15019886770572718, -0.13867103834787034], "fitness": 48.17399989261955, "player_life": 0, "enemy_life": 40.0, "game_time": 339}
{"weights": [-0.27199086615795653, -0.45191942017684966, -1.0, 0.7877656595508188, -0.8990671734747137, -0.6946097003985101, 0.3324651798510619, -0.5724177492655673, -0.40798951091813174, 0.8155377770631042, 0.5412635570730834, 0.7000739408645438, 0.012400058824847127, -0.04742468547877304, -0.2030442007988115, -0.6968186245245624, -0.01947857767386235, -0.03446851620236044, 0.7739770447787677, 0.4530751598626698, 0.5461485412263913, -0.4069224338573474, 0.04183494639523616, -0.8817551232333078, -0.9005276960904611, 0.607377633820922, -0.7520704953992364, 0.6353038943987008, 0.7978348701651743, 0.34134608720447357, 0.4747003391411992, 0.23770575846428343, -1.0, 0.45721719417719875, -0.5075758794343828, -0.9339169557114219, 0.26897397713989424, 0.7972364906425535, 0.673482657184604, -0.9482003399552296, -1.0, 0.12691195838265323, -1.0, 0.544116131682675, -0.7805802568299561, 0.36366607290846514, -0.8739792192781325, 0.1617765211414351, -0.6247940319432144, -0.12109945474089825, -0.4734349887443674, 0.7978553591736519, 0.4255123792984231, 0.028735089580368106, 0.3126212969156214, -0.13644156293304596, 0.16594713078298373, 0.8350483725161527, 0.6416916732739126, 0.6780980619125277, 0.8331302844776982, -0.03308727178748766, 0.3155252231229344, 0.045449479023574574, 0.25868338278997466, -0.4973788367584443, 0.8498489521437187, 0.570081664288221, 0.43957093773773875, -0.03096847884648196, -0.2403497813034196, 1.0, -0.31831894763198776, -0.8007602878067129, 0.705865404418714, 0.6619363830774426, 0.03363583235185405, 0.7666763395497214, 0.6850342077472966, -0.5565772918841799, 0.3747644031818454, 0.4655712106589298, -0.5305193159058588, 0.7175450755471835, -0.08033564992198085, -0.687037228188129, -0.8513108016068215, 0.21078125976861686, 0.5688762323611863, 0.5272861859526652, 0.8837884923622824, 0.6367546276752405, -0.5147441945689855, 0.7590369647452215, 0.5388851997940257, 0.2871491068172149, -0.7035732954434413, 0.36581516990246365, 0.5447066092786388, -0.40442070487773407, -0.2715905568906269, 0.4139606044452321, -0.7982414200318841, -0.5713279673125472, -0.2797448434750105, -0.23242319170354303, -1.0, -0.3734949799585637, 0.9329496200010263, 0.891235572358974, -0.5746070011455309, 0.19571925762974277, 0.27350630028630896, -0.17876957167137564, -0.6340936136167417, 0.1712958612701243, -0.47319741776275226, 0.46873609564518454, 0.8093707372215377, -0.3865064132681209, -0.7101623688577405, -0.5773931504622453, -0.6891311097152487, 0.280915802799251, 0.6526944286706671, 0.6391947729101286, -0.3945098556167328, 0.2396980242363731, -0.6547147915874381, 0.8012154736575929, 0.5048178522513946, -0.49556874288558533, -0.45798969587201965, 0.5060067900336614, -1.0, 0.6662709334681295, -0.6864925350433272, 0.932792390901918, -0.4578058040482921, -0.9479861729549885, 0.5287757771211842, -0.06941583366464571, -0.613934746763748, -0.08469612722803543, 0.6798395688532992, -0.39381080833114945, 0.17281355541330568, 1.0, -0.8564061936361662, 1.0, -0.5349451368650576, 0.38420647197759966, -0.22510425446657623, 0.09925818855262963, 0.7071173740080939, -0.7822534015677212, -0.25281087524339, 0.3054510789830477, -0.9498236401360893, -0.8446895296967237, -0.45252539416071336, 0.7381047664068103, -0.19028651724540238, -0.5880467689155556, 0.9563117283002396, -0.4617849191105626, -1.0, -0.9140898709320299, -0.6009092877995728, -0.1647378309131089, 0.7380072097258439, -0.6849770486498364, -0.851960711339957, -0.7785659408849837, -0.03313442569516162, 0.789371961170119, 0.18906449113836504, 0.632502762466745, 0.8424964228063332, -0.7019003794674045, 0.37710294174196357, -0.8593257773993344, -0.048153069057382036, -0.1641129413968446, -0.910317927164932, -0.5703319712520233, -0.5395704489246334, -0.5427993056559541, -0.2183585119258321, 0.6076190955397491, 1.0, -0.38853458207797426, -0.6528059531198841, 0.6505227555835946, 0.8294728705281816, 0.4793496347518675, 0.06305398937278803, -0.22124006283286507, -0.22522500894343972, -0.19359059688394648, -0.5147969747565928, -0.03584623921502644, -1.0, 0.9490942130267683, 0.3954848066206347, -0.383029602243805, -0.5616460201383564, 0.02096817234962986, -0.567680720624644, 0.6371585711407878, -0.6785970605091163, -0.26420332770673366, 0.3137100154783312, 0.5718289736817572, 0.44149487363663575, 0.9996335289955433, -0.08662995515954797, -0.4316298567231694, 0.37330788780932794, -0.8446476526510018, 0.3998225776075651, -0.4687753407540551, 0.4658613321475855, 0.9046938445634707, -0.49812337623916436, -0.23688508024361507, 0.36381016439479846, -1.0, -0.7753610086291886, -0.8463045942332852, 0.008081671887592512, -0.5716866581561935, -0.3528683002478645, -0.3672315747291557, -0.02818605891798584, 1.0, 0.8178447125899639, 0.8180675323038549, 0.9126787794436333, -0.494056487789669, -0.9143517396547954, -0.1641809149245852, -0.18563215742681693, -0.48356570674588567, 0.1358429134834357, 0.5716645324655043, -0.8772118934912122, 0.5345913120991594, 0.9290524503436974, -0.4213709680996736, 1.0, 1.0, -1.0, -0.3495983997936214, -0.7544926041437162, 0.04467727572821445, -0.028983385397299194, 1.0, 0.7745248584085549, -0.510986958834114, 0.8500216796286525, 0.2908217534019485, 0.38137359646358204, -0.032588216638227474, -0.05345628873502806], "fitness": 65.74424995824663, "player_life": 0, "enemy_life": 70.0, "game_time": 339}
{"weights": [0.18700759219887625, -0.6428766265869642, 0.7861551173185228, -0.2149153146571388, -0.405709814851041, 0.6862415215024462, 1.0, 0.5952021992330205, -1.0, -0.2020076697431593, 0.4869115782742541, 0.7183237986030037, 0.3186773147355175, -0.7132106895434067, 0.32930347404238725, 0.745800802946411, 0.027794864006052494, 0.37398712406966317, 0.8479834944820792, 0.8744806975235923, -0.432483657217946, -0.6687344535781108, 0.04183494639523616, 0.104880377174508, 0.5474464954038623, -0.8866312491694205, 0.40750713824526974, 0.2814722895591363, 0.7518213077331732, 0.4585584615944468, -0.1968081832061908, -0.9470378910195165, -0.7872545755221368, 0.43045972541839345, 0.28874518192034354, -0.9339169557114219, 0.18171286084085173, 0.5596225016681724, -0.3491964184348695, -0.6679586077348039, -0.2408435457582508, -0.46127758850189177, 0.43056926695717973, 0.518908126966384, -0.315844329488152, 0.4514150893781079, 0.6280559518742788, -0.015963242840563413, -1.0, 0.3675812967816456, -0.33472903848218705, 0.49549197798028777, 0.8756387851178078, 0.40900292988191755, 0.9495013625016899, 0.09320904645715622, 0.2939208759572793, 0.4135939963235622, -0.8562890503418911, 0.1285945410748651, 0.07932154205667685, -0.14513729480306173, -0.004031870210113808, -0.02361627860366533, -0.8027606240578083, -0.5078211300013145, 0.8835983434442488, 0.09000850991814577, -0.5952593900190679, -0.7207313212432249, 0.15441055382741237, -0.2831886080616288, -0.3715801723778891, -0.8166350738064366, 0.9302467273711945, 0.35681481833757034, 0.6702469172642055, -1.0, -0.8612709726550715, -0.7141698643748733, 0.23665473402780873, -0.576780241840443, 0.7273891762463307, -0.03465569629749335, 0.11655955802392307, 0.3549399028885196, -0.4663657859018202, 0.09179020572935476, 0.9626705987448063, 0.8746706721893399, 0.1767476867271604, -0.6192195731999804, -0.09992842959218066, -0.1815519678974421, -0.16981285722859368, 0.273171873907605, -0.6607739030655813, -0.3546326269903042, 0.6536022829680452, 0.15911039577153854, 0.09902879655143518, -0.05470990269179535, 0.57801122291588, -0.07959277730549552, 0.020049874003542786, -0.9815414609120547, -0.6973863870635619, -0.14407919717379847, 0.09289187807893676, 0.4048385333377787, 0.7077473791811622, 0.1951472204316025, 0.5260551911871699, -0.11929448976095894, 0.7277584256329526, 0.07683179825582298, -0.172857237804466, -0.6408764189368858, 0.2916474505697646, -0.039774002832772826, -0.45694012421383934, -0.5052057968779256, 0.5776931480949692, 0.39470712596137436, -0.23277822534430195, 0.534522447439501, -0.3945098556167328, -0.07254648615332905, 0.33868214617517023, 0.8239858359707948, -0.09822609972041187, 0.1589976466116656, -0.3857746616698685, 0.25177297586010694, 0.18708352446766213, -0.24726154179616347, -0.2732063594607932, 1.0, -0.29490481228726434, -1.0, 0.2796026616039531, -0.1411098175617655, -0.3870562134612716, 0.04747877490540947, 0.6798395688532992, -0.36406752895484085, 1.0, 0.2810741243428537, 0.45625675294462575, 0.8086367533896517, -0.11362055075317828, 0.5535310124641785, 0.07479037244356679, 0.2818719586000108, 1.0, -0.45430590398268117, -0.4315460726780232, 0.08306767080375405, 0.25568898139912316, -0.5881360372458546, 0.7989301677005868, 0.5101922757721188, -0.06560049569288279, -0.07586254045951529, -0.8045555621250585, -0.4077539360172199, -0.8268547625903808, 0.24255824011051016, -0.6511032047194193, 0.1518558305292561, 0.8635445210279001, -0.5091043257464223, -0.6803231584089693, 0.5202897731138868, 0.039777218150800375, -0.758609104138194, 0.2750469938484245, 0.7859012027624053, 0.7727953569686855, -0.3899023782623656, 0.1729521436934363, -0.44890161013993773, -0.012722130607429827, -0.9455052391713343, 0.043266987219386266, 0.48553294085645116, 0.1789748609225206, 0.8028281365477496, -0.31208812478971754, 0.791707523014405, 0.7842635444276488, -0.34843579281339176, -0.4790987027197334, -0.1432980777291341, 0.8578163003989411, 0.5921461515933342, 0.9317588336544723, -0.4182679551519672, 0.5426245491209776, -0.47532200512513195, 0.6448672980689728, -0.3749807471518547, -0.5873914150616605, 0.7033961508536254, 1.0, -0.6570336750763779, -0.8307515440971927, 0.6866523522868607, 0.2761771253428331, 0.4119352524723774, -0.9909126873674837, -0.2508805427143281, 0.39968751820514575, -0.42049421920376034, -0.6306042768661517, 0.2245202528963881, -0.6152507971367747, -0.2423191109621528, 0.37330788780932794, 0.6052919220566381, 0.7438032702759967, 0.07696331321504804, -1.0, 0.052538567890161536, -0.49812337623916436, -0.09456057504424817, 0.7119205650664766, -0.8326513546321701, -1.0, -0.9042802753777897, 0.053098556088374216, 0.4626717706044978, -0.0485065861383453, 0.6468216120797492, 0.5257728995120201, -0.48592420802731284, -0.603323557063595, 0.7144342832859671, 1.0, -0.8215204056514901, -0.9195848773151301, -0.018544525333036604, -0.9375652730984896, 0.6401202791492202, 0.915264942846701, 0.7605153792938295, -0.27595096867448576, -0.5647865488181478, 0.2523517303872927, 0.006610971300555629, -0.33571713000376185, -0.6521854621386894, -0.9531049271660654, 0.49511117760422063, -0.35627233537215997, -0.1976071574272323, -0.6342222580604714, 0.8629512949612506, 1.0, 0.9997660619608412, 0.4369806492098504, 0.9020098645398886, 0.6867549942387753, -0.21823110272264862, 0.16783530890659315], "fitness": 56.769518552421516, "player_life": 0, "enemy_life": 30.0, "game_time": 508}
{"weights": [-0.6531095986031108, -0.637161854460533, 0.9163364710853736, 0.7777419417466835, -0.3567541937825167, -0.3958671406616286, 1.0, 0.5813072950438102, 1.0, 0.5047384014213705, -0.26829125725730596, 0.19700698028001049, 0.6315903044408868, 0.1795575391399856, -0.1053523345182657, 0.4103855972829098, 0.21012156152655415, 0.28847095898370667, 0.7644059187049456, 0.6533810316985069, -0.385115793211404, -0.6651583421539868, 1.0, -0.8817551232333078, 0.21946306492659223, 0.10725826378907732, -1.0, 0.3295054087650716, 0.6979659893510352, 1.0, -0.4305275392139516, 0.30426716991074354, 0.7976140430720806, 0.471421719492194, -0.07105417806122905, 0.9104130376961379, 0.3830507636047911, 0.7280833682561523, 0.3230941499933918, -0.9060889571163336, -0.40829709956295046, -0.027400434443193677, -0.8798718843860148, 0.42282600317993824, -0.5682421307064373, 0.3318848630683209, -0.5416530408269125, 0.1230207752109565, 0.5492465034288591, -0.24695650278081166, -0.21931018536085928, -0.2032618037737704, 0.5600543836716072, 0.06040815152271145, 0.14302130481356734, -0.8350322121357311, -0.9752674295020656, -0.5182345455479601, 0.7399303106585347, -0.5939878325734329, 0.2318241449884742, 0.5831910337484474, -0.5411616805735815, 0.02353117448999209, -0.582819600458266, -0.7680795302179642, 1.0, 0.8573263855595651, 0.43957093773773875, -0.031266511159325716, -0.751788964356024, -0.34241818996797163, -0.16038659330468766, -0.4593599851956097, 0.0018202516314784756, 0.59026944225012, 0.6754352952137261, 0.9863390735206885, 0.6672531824737287, -0.7141698643748733, 0.19440869085952212, -0.2884572646871087, 0.8077903926399135, 0.08102783948748596, 0.17366696892934677, 0.3890357779479218, -0.7502533290614997, 0.4620735171388713, 0.44623368670744623, 0.8307900881889789, 0.7154328902793581, 0.9562593772212433, -0.5066399711050813, -0.0995773254455865, 0.9582862740106578, -0.3821258299879261, -0.5314483229787428, 0.07671739243561981, -0.11090389442782, -0.4415690149518511, 0.8944931514077803, 0.717628117903917, 0.3890564435835628, -0.12339844862499391, -0.15917799620261702, -0.25096110539915384, -0.4055694640000913, -0.4610879269604843, -0.6186081676494897, 0.891235572358974, -0.4330561022804734, 0.0961030602751658, -0.2542206170366387, -0.1553050293933036, -0.7228062144094807, 0.07683179825582298, -0.2653326698306652, 0.8595270593753169, 0.28540212145328914, -0.3010269937397753, 0.20452180830178374, -0.5091926806075491, -0.6891311097152487, 0.43593346998020915, 0.2869261303975714, 0.7731944757408791, 0.4162008177277792, 0.12268940804259498, 0.10560923798767105, -0.11263370328143167, 0.6668217049343155, 0.3351382713743083, -0.6365521814898741, -0.9227311947826274, 0.3141965905148784, 0.5671748051726997, 0.037405911673918824, 0.9887960302122012, 0.027231189261029215, -1.0, -0.051111390495895914, 0.01667066126552033, 0.08416995968455483, 0.16919005797131512, -0.05216212716418611, 0.516989940485224, -0.9919102330433989, -1.0, -0.7828864465081885, 0.7596659449194412, 0.06789187318419848, -0.9474946542143466, 0.26194843493759695, -0.861007791231607, 0.6951753539254315, -0.8196921586607696, -0.9195306712703653, 0.08817161552466846, 0.06626462158720656, 0.06092738944579308, -0.5029227851832141, 1.0, 0.6231515199286621, -0.3579651033185953, 0.7161883375022267, -0.6755468742228877, -0.796930719003166, -0.562012821269279, -0.3569052769937594, -0.03236036875329114, 0.5672108847441466, -0.8279947557130372, 0.6781045435015765, -0.04200090493359471, -0.41904696307295586, 0.25782698008908217, 0.013737592393904763, 0.6136083150217284, 0.955983474545371, -0.21101108401741658, 0.2651881435627247, 0.7305458929796769, -0.3839949658882825, -0.4849081309058644, -0.15853585678078785, -0.19335860903914523, -0.33289579433998173, 0.8028281365477496, 0.9149679270530269, 0.6276126874397384, -0.4518611102855351, 0.38471117000759375, -0.33013034706761607, -0.8107720287394216, 0.4627773081138483, 0.652296723973821, 0.02566442187398986, -0.0644477097693893, -1.0, -0.5956918838225489, 0.5417636651632365, 0.2757573813152894, 0.008547122497256143, -0.8233946357018138, -0.38860193293489553, -0.7795977000144154, -0.859065486247087, 0.8001210942189868, 0.4077166946776308, 0.43261858383805385, -0.8560663634292227, -0.15978593909380662, -0.6455660318594649, 0.4185341662503585, -0.6306042768661517, -0.025712896948536873, -0.8347108132425204, -0.2151741936912705, 0.37262063326920875, 0.15006472431166362, -1.0, -0.10921320495196195, 0.5763477266809793, 0.7454062234753243, 0.41268105731085736, -0.12349519669062284, -0.2711997914307609, -0.2524157598284157, -1.0, -0.23861890954057785, -0.03704128742141248, 0.6093554156480822, 0.6174842842961172, 0.7840341714720169, -0.04882715858297321, -0.7727211459472417, -0.5874398122759523, -0.9394702211784501, 0.2897959704814378, -0.5752749087685987, -0.08299057386314285, 0.030789072809074863, -0.3660773573214828, 0.07416441188935963, -0.9535561303398465, 0.5716645324655043, 0.28522733664216016, -0.6774836647459992, 0.014421619409124953, -0.4492212695200345, -1.0, 0.36501699997325443, -0.8323267828128211, 0.9593314097102585, 0.06565449651085989, -0.8359552208674859, -0.5761375119966258, 0.18174599507699887, 0.8748850044368607, -0.03899724706502761, 0.6069566138765773, -0.5502370857283505, 0.057359113880178864, 0.8538287945647609, 0.06720188048266149], "fitness": 56.77346333071253, "player_life": 0, "enemy_life": 70.0, "game_time": 339}
{"weights": [0.143913247061966, -0.28156986859708716, -0.45102109817743996, -1.0, -0.19375621778487406, -0.17481177535628217, 1.0, -0.5724177492655673, -0.6476889960086718, 0.8155377770631042, 0.8149832156558874, 0.19700698028001049, -0.1862134442456761, -0.7498951421027678, 0.25258482479949634, 0.25652232613955794, 0.14914848353638324, 0.3889819066564124, 0.810472605075388, 0.8914123615751706, -0.03840023997837905, 0.6921379731393572, 0.8329172369783657, -0.7763319135927009, 0.8799926642110949, 0.056062263344131086, 0.02512878283917222, 0.3295054087650716, -0.2067368237957863, 0.4320652288379173, 0.5516839512459597, 0.6450884489253192, -0.9822667645223618, 0.24262502367089261, -0.5075758794343828, 0.9104130376961379, 0.3830507636047911, 0.6645473851827992, 0.4798508035763935, -0.5193743981612924, -0.40829709956295046, 0.11556846462133624, -0.7304584297039874, 0.7878171372872829, -0.9159823304167618, 0.43460352676267755, -0.7524536037911717, 0.1230207752109565, -0.6247940319432144, -0.5761827063993608, 0.9522492756289288, -0.2032618037737704, 0.5600543836716072, -0.6994476171855456, 0.5707960834564472, -0.6345248017255007, -0.0581053079363551, 0.444705124357425, 0.6416916732739126, -0.5939878325734329, 0.22895709437800266, -0.03308727178748766, -0.5411616805735815, -0.9474516713601395, 0.5036848979329818, 0.4054563456118018, 0.5598566697808045, 0.16862790126278865, -0.3011628649427213, -0.6871190190386335, -0.6272029814505095, -0.3919843745347221, -0.3715801723778891, -1.0, -0.3680298630150656, 0.6132207067862419, -0.3056233245769585, 0.9863390735206885, 0.20418865944675407, -0.7141698643748733, 0.09399665912515914, -0.5785218030948411, 0.8077903926399135, 0.21944410586903218, 0.11299475931324449, -0.4738812611337917, -0.2631005110224253, 0.17984123568881497, -0.1692872400353317, 0.33852917365241997, -0.6338820156343997, 0.9562593772212433, -0.40598326465100454, 0.18592686812616938, -0.28723563306525507, 0.45833859969023083, -0.2643661785984676, 0.35567371857881114, -0.1816130064684064, -0.4415690149518511, -0.20048155629577052, 0.31366006690258674, -1.0, -0.554315935888615, 0.401432555665342, 0.43325291588080544, -0.6973863870635619, 0.012141710595313257, 0.09289187807893676, 0.9431406110905836, -0.6928190810465261, 0.623665796128037, 0.8848385136003645, -0.16541746714561878, 0.6927451661142255, 0.3543098656053841, -0.03505821962704547, 0.6922620510691743, 0.17912228197522728, -0.5554626840872962, 0.23781124165557094, -0.15860564399589608, -0.530888922240776, 0.8986278752649779, -0.10812972324567682, 0.044022117570284125, 0.5744413993954351, 0.12964601122932906, 0.10560923798767105, 0.9018959645901851, 0.7160722469747328, -0.14228153209145164, -0.6491814264258535, -0.9227311947826274, 0.2723443763703798, -0.7881408503831899, -0.007956080074292798, 0.9512573142893646, 0.40107281828058816, 0.6964521372173315, 0.4391241966990501, 0.6018446129317501, -0.30165397296450003, 0.1709964385539203, -0.43077265614330457, -0.43275736541156823, 0.9621026408331244, 0.3535455710215601, 0.5677701119265449, 0.7596659449194412, 0.06789187318419848, 0.38420647197759966, 0.2514147052496907, -0.931663207630542, 0.5382710208878724, -0.8049672101663993, -0.2339730958366087, -1.0, 0.11857090787436259, -0.8100219685129406, -0.5352772345938419, -0.09056875340633722, -0.368635269899843, -0.3579651033185953, 0.418997009872738, -0.18357116820159283, -0.8316447710177448, 0.5625719202352788, 0.8031384136542763, -0.1647378309131089, 0.8128816122409517, -0.29673493911378435, -0.851960711339957, -0.5920198783679932, 0.2004539371003932, -0.05852732668604993, -0.09705008922452679, -0.39137870413652054, -0.5226836963581867, -1.0, 0.34755367909609236, -0.7218318838637116, 0.04219916650524738, 0.4582466358821451, 0.20952556208688, -0.9239875073708496, 0.1236844142581931, -0.6776915135937205, 0.9208240758234345, 0.982311661821898, -0.4518611102855351, 0.7999366334220827, -0.04115624361896622, -0.11182143840870645, -0.47054898506354176, -0.8115320638107782, 0.1502783168489235, 0.28067412680406156, -1.0, -0.5350781875166472, 0.5654587379232353, -0.29428311024687004, 0.008547122497256143, -0.6331616952781658, 0.3954848066206347, -0.3796016892431894, -0.5616460201383564, 0.7540323589610138, 0.5366753251593144, 0.6098641138926904, -0.5725901378102252, -0.18979833736830418, -0.9115641301908612, 0.13898196539018692, -0.6206602526662004, -0.5160796255425029, 0.26165405867342617, -0.3954755879495355, 0.06739582804177699, 0.15006472431166362, 0.6092050354072386, -0.8052654166795715, -0.6043159577844279, 0.6803054343923746, 0.021726393294745905, -0.24773451484428655, 0.36381016439479846, 0.7217404687355324, -1.0, -0.24922038901888505, 0.007968754642710296, 0.46074199546576317, 0.6274969360500171, 0.45115933338862546, 0.04459573647008627, -0.732631394274389, -0.603323557063595, -0.6677643228287901, 0.23347006885835575, -0.24874402353914704, -0.0897726709081903, 0.3802522670810101, -0.9097118333143372, 0.22980124285000192, 0.35787651061519477, 0.8794507239667347, -0.014025160916611615, -0.8929290831339016, 1.0, -0.5373249321724974, -0.8910774751367113, -0.6524568257616599, -0.413809529371473, 0.5460932800867687, -0.7971500979660779, -0.8359552208674859, -0.8362316748820827, 0.8370900521242832, 0.7745248584085549, 1.0, -0.385503732456536, -0.9129098454893183, 0.45979122754324736, 0.8841485973062676, -0.29302589578732835], "fitness": 84.23879267830493, "player_life": 0, "enemy_life": 100, "game_time": 342}
{"weights": [-0.47913914968420046, -0.33389323524902853, 0.9610230500685449, 0.6828198085437405, -0.3961751722092691, -0.2570930907224739, 0.3324651798510619, -0.7824555336218821, 0.808478637839872, -0.33535420706451663, -0.2537236229832251, 0.8778171842384792, -0.07678717966324189, -0.6632737689546216, 0.34726564041963637, 0.9184266869657769, -0.27731648410794807, 0.2326714825283297, 0.8153362205218766, 0.6843859208859554, 0.8167010714328005, -0.578090932566529, -0.3674147895270703, 0.08422945550062412, -0.9470752384105727, -0.8020181100755694, -0.10347745039319764, -0.7753827380593449, -0.6493322282460677, 0.19930770879084586, 0.5103368775897552, 0.36965201287419863, 0.9184142753819098, 0.43045972541839345, 0.14531207014126316, -0.817063844416558, 0.5766045225527627, 0.8524284633830186, 0.49913777325881037, -0.6622758333413187, -0.7764073802899987, -0.4988942394589648, -0.7889448724674535, 0.42282600317993824, -0.4882320407761023, 0.302819554609732, -0.6494325944253448, 0.3218720574464208, 0.14207140746614932, 0.02241171452753854, -0.9408799614604038, 0.3912586504056395, -0.5970878058826601, 0.9408057909162415, 1.0, -1.0, -0.6932897732611644, 0.547341090070639, 0.6416916732739126, 0.43851936626215227, 0.028972071378653874, 0.5516782777022978, 0.29639962932615077, -0.6346965847241814, 0.362469376769719, -0.7572585082250953, 0.6773308768795829, 0.16862790126278865, 0.34853591365294323, -0.6814305747996573, 0.7389928114796043, -0.7607317002019749, -0.24911024072070345, 0.9510715544933035, -0.6961253771022948, 0.6619363830774426, 0.43268870386508457, -0.43133539632301493, 0.5186562530245251, -0.807084465244216, 0.39388687135720113, 0.9853759381842166, -0.845328048609015, 0.13601138012718084, -0.09423045834582362, -0.09677243153617215, -0.9114871928713508, 0.4620735171388713, 0.6587190151002926, 0.996882116251123, -0.11151832836277031, -0.49228084924732596, -0.305331149042677, 0.39186298430489175, -0.8625773044630114, 0.1448930859188803, -0.5314483229787428, 0.5292439398970645, 0.5491347065262957, 0.45194650652828294, 0.10677005734486095, 0.4139606044452321, -0.585017999588385, 0.11315495580225265, 0.020049874003542786, 0.38561254403532574, -0.28826983170410947, -0.25054537819267747, -0.6197423153771053, 0.48927520579105344, -0.6537319046657677, 0.8797318632491082, 0.9409248780383215, -0.053634907170654306, 0.5573212869627765, -0.6436810320372117, -0.9380920245420203, 0.8713357142230433, 0.37662992358126035, -0.39731722160899496, 0.17364605753142248, 0.7143962829990893, -0.29238845394981494, 0.3129608014401716, 0.43627629114115685, 0.4313615464056384, 0.803265990418544, 0.11922714144040497, -0.3398971130937935, 0.39689237410883094, 0.41094783093407083, -0.5205231580535771, -0.5805153924866735, 0.7081554488260132, 0.2744614576764388, 0.10797749168036552, -1.0, 0.8688396100380071, -0.641419467917731, 0.21640129237651265, 0.44937361728629877, -0.05639062179989873, 0.3519109034201097, -0.4131178583822829, 0.6156589411758384, -0.318021886100001, 1.0, -0.9318702416189825, 0.6488270102028235, 0.10273229697158609, 0.14208063721089315, -0.41114490989494734, 0.14168046540444984, -0.7077402123990474, 0.6469739042645166, 0.3280553154655703, -0.9914515932570226, -0.2817596315239288, -0.9498236401360893, 0.5082292133719342, -0.48772762236652545, 0.7381047664068103, 0.5535816905419539, -0.39542728462040194, 0.8866551159974521, -0.7129260459762571, 0.13762185307506034, -0.15602557863539396, -0.16975294011734057, 0.32713021099271483, 0.5672108847441466, -0.4415230998900629, 0.15688509726116656, -0.04200090493359471, -0.16195770932208617, -0.26675967812322315, 0.06574993283435127, -0.1324204092608901, -0.5226836963581867, 0.33436248812114, -0.6687912990010685, -0.8345621723329597, 0.14819203850797458, -0.5413801058213289, -0.00807932750113008, -0.5703319712520233, -0.5867834213397224, -0.5657550320474987, -0.5171663713025634, -0.9384000871244976, 1.0, 0.6819451399270491, -0.32453459731533635, -0.11182143840870645, 1.0, -1.0, 0.942298053860229, 0.689685593325144, -0.2061260376518181, -0.6349088155599483, -0.49139511127442226, 0.04308764359968997, 0.7941655883187906, 0.5708938886157469, 0.24403973669541967, -0.37136860813041805, -0.08465417665934447, -0.15832988729631595, 0.5392274047999228, 1.0, -0.8555630630319289, -0.6097565515040098, 0.6338442025990798, -0.7509532329563249, 0.6040962969650836, -0.36549669349477837, -0.38876582782770597, -0.3954755879495355, 0.2714611009525248, -0.8864052053374741, 0.6762007437940015, 0.6792316032479926, -0.03886626217869965, -0.00507807342171504, -0.7302247610040936, -0.389109448362007, 0.20277311713735732, -1.0, -0.6512548185861222, -1.0, 0.039532097951453224, 0.7091107618327441, -0.0485065861383453, 0.5244507744013092, 0.06210866895148459, -0.11753182644866522, -0.34329294024869034, 0.2469635709177299, 0.20682768729363712, 0.5203839595495328, -0.0897726709081903, -0.8969841566359622, 0.0415247859232199, -0.3185004258871311, 1.0, 0.8794507239667347, -0.3681988742172533, -0.8634800327388079, 0.9822332561225717, -0.030072744829483647, -0.769767940067171, 1.0, -1.0, 0.5659222957960593, -0.30313829274644255, -0.38495554774446616, -0.42713703662044666, 0.6133423283053324, -0.3288417790716675, -0.3692399201285072, 0.7045951634335058, -0.8457673845002747, 0.34960380956820664, 0.9691265440629444, -0.19697377764371887], "fitness": 47.884107874516964, "player_life": 0, "enemy_life": 40.0, "game_time": 453}
{"weights": [-0.27199086615795653, -0.3404029468245537, 0.7861551173185228, -0.2149153146571388, -0.3961751722092691, -0.3958671406616286, 1.0, 0.7680367232008591, 0.808478637839872, 0.5047384014213705, 0.5412635570730834, 0.7488446087249394, 0.5173029450629381, 0.1795575391399856, -0.095228609216255, 0.6006664710926826, 0.21012156152655415, 0.28847095898370667, 0.8153362205218766, 0.2688259552705807, 0.6915553953945224, -0.578090932566529, 0.04183494639523616, 0.08422945550062412, -0.9005276960904611, 0.10725826378907732, -0.974069479230552, 0.5652592928871112, -0.5511473797079731, -0.10844589926952575, 0.4747003391411992, 0.36965201287419863, 0.9270355783057074, 0.915806749048253, -0.07105417806122905, -0.3801437683808702, 0.5766045225527627, 0.7280833682561523, 0.36618095409791984, -0.48979609992565337, -0.8730896813555361, -0.027400434443193677, -0.7304584297039874, 0.42282600317993824, -0.7805802568299561, 0.8363002358982913, -0.684325980319268, 0.23755387438334158, -0.6247940319432144, 0.03576642596351781, -0.7023804045959967, 0.6086267545137329, -0.2328536949424342, -0.6237157479891359, 0.3752961274080215, -0.7708442669169879, -0.2084878366893192, 0.8350483725161527, 0.43978852589849426, 0.43626492093656627, 0.2318241449884742, -0.4578230295071876, 0.2238190819708309, 0.2413392531103521, 0.362469376769719, 0.3171675375597689, -0.6354752453958072, -0.3051246255292837, -0.3011628649427213, 0.3028968944789142, -0.2403497813034196, -0.5879621112615739, -0.24911024072070345, -0.9033977635256373, -0.3841842814582819, 0.9804275490914774, 0.43268870386508457, 0.7666763395497214, -0.020470943302182076, -0.38620742694331345, 0.36177345072857925, 0.8423636588953303, -0.6693477814347157, 0.5662578484111931, -0.08033564992198085, -0.20937721445745566, -0.4674850943115198, 0.4620735171388713, 0.9854221940646182, 0.8307900881889789, 0.8837884923622824, 0.6367546276752405, -0.305331149042677, -0.0995773254455865, 0.23827286511419615, 0.45833859969023083, -0.5314483229787428, 1.0, 0.6536022829680452, -0.20403272469914308, 0.10677005734486095, 0.4139606044452321, -0.06888246173795386, -0.07959277730549552, 0.020049874003542786, 0.38561254403532574, -0.28826983170410947, 0.3041228923885507, -0.6186081676494897, -0.9889246089951883, -0.49610272499829666, 0.0961030602751658, 0.48315324010561933, -0.053634907170654306, -0.7665043470965408, 0.1999513825350366, -0.6610523371000276, 0.902340299869506, 0.8093707372215377, -0.39731722160899496, -1.0, -0.18595536658778122, -0.29238845394981494, 0.1262718105963836, 0.41487913469903887, 0.6201785500055466, 0.8255201847750265, 0.12268940804259498, -0.6547147915874381, -0.11263370328143167, 0.8339667494341291, -0.33396338168130285, 0.454176123496698, 0.6705407336062787, 0.6494450295778953, 0.8620538091317713, 0.037405911673918824, 0.9887960302122012, -0.8328379245576897, -0.9479861729549885, 0.5101045789856384, -0.06941583366464571, -0.7344943771905411, 0.23130723581996, 0.2085253297665703, -0.3650646016781516, 0.14979323660242566, -1.0, -0.5928824099157595, 1.0, -0.5358857006675126, -0.9658542651058815, -0.22510425446657623, -0.5745758392336306, 0.7989959820510802, -0.7606700446042118, -0.21322641146792848, -0.03831328537889361, 0.06046292650449478, -0.6793036502211844, -0.7939812558713683, -0.12760869098893696, 0.6231515199286621, -0.39542728462040194, 0.6351309573997863, -0.3339796668640098, 0.3285773773493177, 0.06297223593595569, -0.6009092877995728, 0.32713021099271483, 0.9775049906721214, 0.24289021847941294, -0.8807819465547932, -0.04200090493359471, 0.08998026649219439, -0.26675967812322315, 0.06574993283435127, 0.632502762466745, 0.5972353701247135, -0.7718337870612241, -0.08974296735848997, -1.0, 0.2863304488447096, -0.5989308406324989, 0.056638330024866956, -0.5800332310221021, -0.1997839064333457, 0.8028281365477496, -0.1382458252696963, 0.49964711172758125, 0.74161674521779, 0.7187582258930663, -0.32453459731533635, -0.06334147924704209, -0.2625669808785742, 0.3067133236308056, 0.9317588336544723, -0.22124006283286507, -0.21201897079983445, -0.6349088155599483, 0.5537058994577582, -0.3297111397371445, 0.6854333987503378, 1.0, 0.3954848066206347, -0.6625554726694031, -1.0, 0.02096817234962986, 0.4077166946776308, 0.6112850637080272, -0.5725901378102252, -0.26420332770673366, 0.3137100154783312, 0.5718289736817572, -1.0, -0.5388308127316711, -0.49176950431976213, -0.3954755879495355, 0.23183160244101256, -0.9437941148246691, 0.3998225776075651, -0.825523089905408, 0.2743748969543153, -0.11445908329080853, 0.54038247205934, 0.007588112130608254, -0.2711997914307609, -1.0, -0.6512548185861222, -1.0, 0.31079885672739593, -0.5716866581561935, -0.0485065861383453, 0.5350651814653089, -0.02818605891798584, -0.48592420802731284, 0.6799530546626159, -0.6670525563106655, 0.20682768729363712, 0.3668197878170754, 0.5715615556565875, -0.1641809149245852, -0.18563215742681693, 0.6401202791492202, 0.1358429134834357, 0.8794507239667347, -0.10169875541400836, -0.8634800327388079, 0.9822332561225717, -0.030072744829483647, 0.7613227140689425, 1.0, -1.0, 1.0, -0.2141244697472795, -0.2751020122317021, -0.42713703662044666, 0.2546902436011574, 0.7745248584085549, 0.8834343304143669, 0.5072959898451588, 0.6105195109518761, 0.29430996461459946, 0.9101564230750068, -0.19697377764371887], "fitness": 29.773463330712534, "player_life": 0, "enemy_life": 70.0, "game_time": 339}
