{"weights": [0.445265193550507, -0.11112308421902983, -0.0743393749662773, -0.23413341662300935, -0.47872423645741824, 0.43815514002536715, 0.7439347953753315, -0.6498852310888881, -0.4475559194922323, 0.6072968760088313, 0.5531218862924161, 0.3756050664056847, 0.36324830931845975, -0.10301677948630084, -0.5169003571429205, 0.3488535651550744, 0.9797692294301434, 0.3306628861489027, 0.9065248854780106, 0.25203313552977313, 0.511554268752842, 0.46440487993877966, 0.2369405687621582, 0.8953602682965567, 0.5075734697267444, 0.4222037194547634, 0.6362331286001113, 0.7743628513212493, 0.5744356389671199, 0.245445637781593, -0.3777106090937914, 0.581418899023576, 0.20896991199195214, -0.14500531382263637, -0.4230411159124925, 0.9311934344898767, -0.8333896475411453, -0.3861031376372972, 0.9395662423351352, 0.4915481173933145, -0.44474664462781277, -0.3502757344374532, 0.39329833337673414, 0.4218225995872349, -0.2915185400642508, 0.4421848434038316, 0.7407299971367154, 0.3237276223385577, 0.10918585541087356, 0.8940119607256591, -0.10868310406901438, -0.8546816381517299, 0.1722597247283031, 0.6453158665506862, -0.7500940825533557, -0.33189707380271694, -0.36670602193917157, -0.5344320449023978, 0.06027164971766208, 0.4559938260716627, 0.33142202217228767, -0.4116532607174528, -0.7558806704476351, 0.36283280193325296, 0.5034661501063225, -0.014019394557930553, 0.939760858662581, -0.40525066901465157, 0.8948791159199485, -0.3325290957636149, 0.607427030906043, 0.9148420229426746, -0.7036574035309693, -0.0022822528012735877, -0.6147686453208008, -0.6414958883360602, 0.492781163477219, 0.17175535252124896, -0.6523833028611392, -0.029860176187363585, -0.3989160650054362, -0.6882069384559497, 0.516725825411867, 0.5873021670050524, 0.6164692960021787, -0.08166424049532184, -0.6167297753775975, 0.04536245782472115, -0.43829697386194333, -0.4579208594581323, -0.3636907010143642, -0.4886848324922004, -0.728912414901965, -0.47813852273307145, 0.8002301836613257, 0.934941461120832, 0.9746236992340938, 0.8410323426617992, 0.9524774169056129, -0.26144692116742463, 0.801018510551355, -0.7972209727979067, 0.14005577291975402, 0.9072670194042722, 0.6174028797065731, -0.592683488454208, 0.08862562988020528, 0.052895363786860994, 0.31053765610868167, 0.41871585463934546, 0.3894975198646673, 0.9658016803678067, -0.9319140590597641, 0.9757473766190441, 0.001759174599364588, -0.2791019974388669, 0.9587541804140185, 0.7825448177866128, -0.3548527400319095, -0.007808592272904313, 0.2943559897776076, 0.742643235474342, 0.7922625747345997, 0.45830413826189753, 0.8965392486320938, 0.0974721789408508, -0.6553152162396307, -0.6424682002994377, -0.29612877596634934, -0.573167962763532, -0.9203670441674172, -0.3795844033028628, -0.5267108058690031, -0.06793889131465103, -0.9491228319151703, -0.493448605441855, -0.5618908171575128, -0.05072182940395442, 0.7564242895225131, -0.9714342483567395, 0.12497609938598742, 0.2712958389074076, -0.8851440278683076, 0.5278097635175847, -0.0914209107155004, 0.46656108837635846, -0.7277198198150365, -0.7760567414283681, 0.43920041014838995, -0.6879005291666169, 0.9274824483211082, 0.7163102741151535, 0.4030228561958782, 0.6451821100734976, -0.11503211403564984, 0.4832194293637553, -0.6887456392711373, -0.487366493047261, 0.7825247009901739, -0.6796845305383439, 0.5239455566956619, -0.27174026156223197, 0.48016155277947825, -0.22369678489109757, -0.14403739921024683, -0.5611384823249832, -0.8287217206870945, -0.5544328926931503, -0.5355244387357996, 0.11346542795553227, -0.42923370138331673, -0.7961545218238983, -0.2859912811613601, -0.07590378166186307, -0.8846712916658279, 0.05764457058103334, 0.1534104764746944, -0.5153489230379316, -0.34544874940154124, 0.6142617395138945, 0.8683805229952397, -0.90329413775649, 0.15558697513057784, 0.9372627187985048, 0.0046555908177294825, -0.9599581002557631, 0.30039540864326586, 0.6340638362806856, 0.5544509161384055, 0.5997252452607209, 0.8009005303906245, 0.04901557963559111, 0.24182944135180917, 0.553334002892383, -0.6749374443825542, -0.6417346360809764, 0.6005967449073735, 0.16111258445361942, 0.88544519776387, -0.7018219612841909, 0.7645134375532925, 0.30051841625239484, -0.3043250624333689, 0.48548710576477494, -0.8910997940302812, 0.6345852600750281, -0.03490629592424166, -0.10815003093733466, -0.7516624614890253, -0.6383856873828406, 0.2648675318861309, 0.6618894846641197, 0.2108930707981833, 0.952700951599976, 0.34461984671157975, 0.9011240227481412, -0.5487269815042146, 0.8142612334642554, -0.9935916984379369, 0.6832140592983666, 0.24337610721441227, 0.19441462214672844, 0.9862086091274693, 0.9891528946521819, -0.3553265734570692, 0.8900679870870285, -0.9237692536707443, 0.9875808365441217, 0.9942460605458052, 0.006488385656371998, -0.756357055633883, -0.8009290055449991, -0.024225014574698278, -0.08856076623590825, 0.169591284144474, 0.7171514831050021, -0.48179684722566707, 0.30210952189297813, 0.8460198289949088, -0.5593970010623746, -0.27225032023154716, 0.8376913903862142, -0.9811276936123663, -0.5814788238939086, 0.04226234247248861, -0.09550256236245303, 0.43515136128234366, 0.6475925799366329, -0.8983992518099093, 0.04092158955918168, 0.0158356462176108, -0.7707320288578308, -0.1641626351576111, 0.538340584748846, -0.9782552875478976, -0.6234517910265267, 0.6979892262740546, 0.011409226276337447, 0.816969586555246, 0.2903474882297261, -0.5833029126037215, 0.289170621460636, -0.14921936538152258, -0.05436880187864057, 0.8036250066531336], "fitness": 12.801502968734173, "player_life": 0, "enemy_life": 80.0, "game_time": 181}
{"weights": [0.3060242442128691, 0.7105371073841296, -0.22428275733184888, -0.7505348715791138, -0.2954885079970395, -0.1607845912953232, 0.5224638975940779, -0.8065096074301417, -0.9204657561803977, 0.2079959774323592, -0.24542475312358114, 0.6628106767446893, -0.2923803714414621, 0.6709187435805466, 0.5837604288882514, -0.565344775555028, -0.9627465028502433, 0.8853608212019717, -0.7321968789427422, -0.34097921145636456, 0.17623366433985233, 0.10699261604423627, 0.3180483702203034, 0.7864119617215892, -0.9337440766788843, -0.7787783295654864, 0.540956832697804, -0.07225824547046122, 0.15097816518220442, 0.7863638159548481, 0.4239203932024507, -0.6482003344053704, -0.771917317681293, -0.0065523016464834605, -0.916388190564156, 0.048760838312794874, 0.17162500617804266, -0.6930491274632384, 0.4380645585684586, -0.4945867155816983, 0.5620846607186449, 0.5985839627036935, 0.728167712725337, -0.23002486086037122, -0.29094806927091055, -0.7339725863997473, 0.08651685021759614, 0.767987108904717, 0.9437353688595274, -0.37617917668819256, -0.8797108959609643, -0.5511563832661985, 0.8620428903728197, -0.7632744724658784, -0.24090701215969546, -0.43870012083476206, -0.955051910651409, -0.4657313764882778, -0.7095448456545199, -0.6947801495202997, 0.7847778532999021, -0.4935431325113142, -0.33195677588741734, 0.38986179301190904, 0.6353418444309884, -0.37462709054566345, -0.5194093952146928, -0.18884410320004474, 0.053130752805147674, -0.3818496205899331, 0.8081246625750378, 0.36825232724916246, -0.08411181929513534, 0.5915425727029278, 0.3105572941921977, -0.9704065825872772, -0.947052297427033, 0.3232412944323879, 0.0038842614927847574, -0.9694848003236969, -0.8915076204652035, 0.9695792275399933, -0.1625596791761479, 0.8554900621793822, 0.5361887994064876, 0.9215888137949482, 0.2333969935858966, -0.24973562336174382, 0.3562195938717805, -0.9499622715513689, 0.8766592799918378, -0.4373325450909775, -0.853415381219977, 0.5805078121092284, -0.25516735354947384, -0.5227705392924904, 0.057386515039492325, -0.4055125626413909, -0.6007688029158811, -0.8568431749183771, -0.8974289045610806, -0.880893838643882, -0.9159845235493755, 0.8687249404601949, 0.042371793449111905, 0.18875762099637394, 0.3617764913270103, -0.14796912783283633, -0.3758254050259955, 0.8836184412546779, -0.2601446523239457, -0.07051449874517357, -0.17086395002973997, 0.6645877407234277, -0.8998155653481448, 0.8064526727952541, -0.41399844249560136, -0.4039103035433256, 0.28959882236112433, -0.6012936632882024, 0.6276339155660748, -0.651947691482939, 0.707001379498587, 0.0910020668642546, 0.9899266957818074, 0.10963107380800974, -0.16090741563275013, 0.6483478450963813, -0.734261028433838, 0.12828408259943558, 0.29710081652017606, -0.5304858923784193, 0.8089124199912434, -0.6392237728241794, -0.6100888151121213, 0.2418882802733906, 0.1278223547366908, 0.1903392590616797, -0.08952644217950989, -0.6295339144606631, -0.044133277352989664, -0.3633348008064432, 0.1333014516155382, -0.02486600545072548, 0.6661668401170868, -0.5419353852230142, 0.2194720892816826, 0.1279285374796677, 0.8999041195028623, 0.07314778823191737, 0.27434942666699014, -0.6638720192551038, 0.010418918726561532, -0.3941817031771413, 0.1607185569712739, 0.594369283260328, -0.18808024619991826, -0.17293229537449983, 0.7332335138793411, 0.4819114931963675, -0.729748863525649, -0.42014066675388473, -0.010265511780213954, -0.4798777695826979, -0.746115973464611, 0.9207672778900073, 0.7466711353698186, -0.38339027424606487, -0.16144276890388443, 0.1688035980701612, 0.7311407229603577, -0.15603581055835325, 0.6481445790561953, 0.7354737377122711, -0.006762640243285434, 0.32911112228084205, -0.10780378125768286, 0.5384968694231818, -0.7944629070527076, 0.3914143415302471, 0.17349091858292742, 0.5958921405412925, 0.6999766463260155, 0.7920715142289354, -0.4545247197230795, -0.020528315946167996, -0.6929966745040588, 0.7569757171219598, -0.33267521094706276, -0.43992641223419215, 0.8910411976546073, -0.8372506781130569, 0.6542512159092901, -0.3874392607295907, 0.21761372904753196, -0.05931901488881475, -0.41333630979583846, -0.2409948332487868, -0.8445215940610777, 0.8238397207908419, 0.36962950370296865, -0.26073396238162005, 0.3200794172488841, -0.08230942775931971, -0.6952140426085425, -0.8812016723590006, -0.7733921774383763, -0.035169501425234895, 0.7358205569194494, -0.06854342383071255, -0.22538463690183463, 0.9992636064223237, 0.022886381332533068, 0.7786773561402967, -0.5645210620258425, 0.5129168455941124, 0.43093639227887914, -0.47698306895583387, 0.6823676990330048, -0.1969086597945653, -0.1966030725834642, -0.9323138853968258, 0.616475358275933, 0.36286414328559635, -0.24880800350367815, -0.556803119881712, 0.9590306555545476, 0.846840473136184, -0.9605644751038553, 0.5036739174934532, 0.14642993778769964, 0.051627882533099356, -0.19120888855277252, 0.6863667719390054, 0.8886510173103819, -0.9168622989232194, -0.4104853167767306, 0.06857576320989156, 0.005457110198704651, 0.10004284338175329, -0.6557168034466427, 0.12588442574967784, -0.6651722350563845, -0.6988344245420541, -0.6439121005515058, 0.7255764923544359, 0.2514746594420727, -0.4734148413019741, -0.6158261251402946, 0.8775521151356884, 0.9268596712302093, 0.3827740211531212, -0.8487117945932199, 0.40515928138150525, 0.44354057329507013, 0.897856787887616, 0.6796643516054088, -0.13066402208649075, 0.06235990056980989, 0.08384376501372559, 0.016157924256684497, 0.6942261674084842, 0.1377106207297527, 0.7002863124791818, 0.43306864335065587], "fitness": 1e-06, "player_life": 0, "enemy_life": 100, "game_time": 195}
{"weights": [-0.7566348453956697, -0.12668365299022355, -0.9601345581408864, -0.2069673855595351, -0.9447426288940606, 0.2895118862452437, -0.9983120086344677, -0.26269286112142987, -0.1523072104349854, -0.2714281496069324, -0.5884991889015698, 0.8069198410241194, 0.08426270732504859, -0.3939287854863409, 0.8220815317211769, -0.3301935164315912, -0.7169773890141733, -0.24137255601709473, 0.2816929933383925, 0.7128559923218591, -0.8878829543031879, 0.2764068187202966, 0.04429786891890175, -0.5854067015814703, 0.4409301207904466, -0.7643450773797584, -0.8534825988677635, -0.3664009891115245, -0.08752396565042209, -0.5671212608722334, 0.3566150407499815, 0.15375867820409694, -0.7543201466752611, -0.07839320601670452, 0.5886134220453221, -0.7598863378676552, 0.17475548132375063, 0.07169468394599043, -0.9380088153766406, 0.6339363267171458, 0.5358904421397308, 0.08792194982834434, 0.032000551967558355, -0.6490536298354317, -0.3807920334014663, 0.5934394997162764, -0.5691581695620063, -0.7805818172747592, -0.02874338087966266, -0.6202367242866589, 0.3364424648856965, 0.6773487448610818, -0.31405486060333754, 0.44363932499565517, 0.7141644214871083, -0.3245910627288928, 0.44076661699888353, -0.28703976231691253, 0.1884908788189621, -0.3359994461229401, -0.5239645935398591, 0.7677551522444077, -0.09217374875898421, 0.1082364315835933, -0.8511651213400886, -0.9651380417541646, -0.3853810267290527, -0.7438125612413149, -0.604801387149138, 0.7677878874127146, -0.01817023712620225, -0.36638118028324285, -0.7275322829335731, 0.11825510992173882, 0.11476521146801844, 0.5508071772863683, -0.8536526887155138, -0.3859407232461205, -0.9221005906107658, 0.8255524264354515, 0.7921165421119631, 0.33901838655016414, 0.2736081519903524, 0.9698933054214902, 0.34304513401215053, -0.4499297767952348, -0.8020271196573858, 0.4361839682718156, 0.2902288895311511, -0.932425804101517, 0.08054134831046178, -0.302485378543804, -0.6889775600000976, -0.7751284000610392, 0.8245647000322409, -0.75815802176767, 0.5514767291474634, -0.42128659237368105, -0.21739088289614372, 0.7855625275415123, 0.7192139662229389, -0.4427298062322993, 0.13524778680319738, 0.2702387905110182, 0.3472054797221775, 0.6862715991742103, 0.07171333300818938, 0.5166766716537825, 0.6675093890162349, 0.8899441218913244, 0.8881410284235116, 0.7741682681635234, 0.19121797607424873, 0.5152040384545991, 0.4840635284028192, -0.7585637865412769, 0.14456676138699298, 0.17096106421635793, 0.314917668253917, 0.35323140175486656, -0.8429443711795448, -0.3758800423753179, -0.6174104597086298, 0.8908075729851199, -0.17250261971976433, -0.19955761545024497, -0.3750819906137077, 0.8633437500245476, -0.6356273942279747, 0.441601904497529, 0.8259266793524238, -0.5411967674876768, -0.07234480256220444, -0.21583000884180525, 0.8882053981006852, -0.030689507042565012, 0.026667467485596008, -0.20313682141590106, -0.6388442534888432, 0.8153148336463949, -0.3571122657323753, 0.7949141980558379, -0.4403174978765303, 0.3898255214871553, 0.9931010765634012, 0.05215388520921049, -0.2319316684983781, 0.2843858933853378, 0.6631421032366847, -0.14792628475515635, -0.2857508223043801, 0.6423382164860878, 0.8283985075280709, -0.3288431490266479, -0.11659888339709945, 0.8123325004085942, 0.6895248296761172, 0.07345282240579376, -0.9003611760801686, -0.5523647844013821, 0.3474401494894206, -0.17540035798400222, 0.6582709348836779, 0.6308587407387909, -0.22671984848351556, -0.19127455942635585, 0.225824441330581, -0.7023826431760536, -0.24212026794224184, -0.3776005414967929, -0.1294352581940421, 0.8541230077751121, 0.610565533299156, -0.2968627906453536, -0.775147537569226, 0.2589797342686162, -0.7045322834200018, 0.19397932037228127, 0.2694301453367325, -0.9696179257788375, 0.5231939272780903, -0.18917583486773526, -0.9089806802320508, -0.6037283649335765, -0.10203112017543448, 0.4408393258838579, 0.12182349710715434, -0.38570237644927663, -0.954835593910371, -0.5452915734787211, -0.7404986287834603, 0.8701035099796588, -0.056307675806071655, -0.0559481405416129, 0.9252742471839903, -0.9707357873352866, -0.07606529650777971, 0.1074590583238011, -0.9127040349066842, 0.8734146983334097, -0.9564542536703047, -0.3994392958237516, 0.8458732122372496, -0.4461099182661772, 0.8921970773624581, 0.17211066354942406, 0.00760409205387913, -0.9566057194217126, 0.27002103590641124, 0.6297688993845112, 0.7094039235286476, -0.12126889635382243, 0.6966719283404879, -0.6830263369907623, -0.7857043308149927, 0.7990101172493846, 0.061824110014553346, -0.37868678338102546, -0.31151893678829223, -0.28249332682995654, -0.08753389505915177, 0.37472328100126195, 0.13387762448411045, 0.4350023914367305, -0.1829263778568906, -0.19327745358612503, -0.99148472775425, 0.5405625978119057, -0.2573353822530293, 0.9843309631572477, -0.5037925102313736, 0.2333446217351074, 0.6564480722679045, 0.30951484023122755, -0.7737662154406382, -0.6796182049914243, 0.7623515172660082, 0.5774806435505522, 0.06741162781226828, -0.320933869788957, -0.6584790426026201, -0.1362490028257064, 0.09133038478653188, -0.8829989401816474, 0.3126242810151798, -0.7480493244985351, 0.5751266560451744, 0.7997223124088597, 0.022266336122034103, -0.551745870214476, -0.5409460067750913, -0.5958198075089995, 0.5595881221427645, -0.21737123258546176, -0.3693115207535629, 0.4641825390064751, 0.0667374127279885, 0.051928999254269304, -0.31120852088636886, -0.31400359313820947, 0.7223897626223315, 0.5174197790569293, -0.9764848449344969, -0.44182065063944953, 0.928321546823049], "fitness": 1e-06, "player_life": 0, "enemy_life": 100, "game_time": 343}
{"weights": [0.6161303331999501, 0.9896355017068057, -0.14822508572375748, -0.6874758657487716, -0.09967725828397578, -0.7192738637686489, -0.4245404376812145, 0.9704392435772211, -0.9224991250391616, 0.418989890698773, -0.14760146550831155, -0.09432915021701471, 0.41915892170354385, 0.24650800621301205, 0.6945326928661151, 0.25055688721554215, -0.3026774549924842, -0.5126878493290303, 0.5796637547239942, -0.41094951371789223, -0.8110957180982454, 0.8137813867789481, -0.9173258115685627, -0.5781976640912374, 0.047511525532685006, 0.12007788124211638, 0.9255959560110136, 0.3163457471806317, -0.7845844750419135, 0.9165751455567634, -0.6656751478122447, 0.5419160100157212, 0.04193027097782043, -0.09209755859266577, 0.18604390393079462, 0.4742192351964776, -0.7717135999927132, 0.8805719472471649, 0.20967499849257387, 0.7724681377730211, -0.015810392119058214, -0.5333400248705724, 0.2879458365526202, -0.15745486649062723, -0.6382383009492343, 0.12461183992816971, -0.17273989486540442, -0.8107059942880759, -0.7466045961777719, 0.9522971489459022, 0.913055351909968, -0.8871107951919044, -0.49071796046118843, 0.9521094219890394, -0.8789155552213215, 0.25801473162914146, -0.6900733042617457, 0.8028079040153233, 0.5292572422117949, -0.57966267617992, 0.16787568887118076, -0.4377688638887334, -0.0685466322448125, -0.9749728801256197, -0.07393785575781608, -0.8979221815050455, -0.4477066892586401, -0.7972719879883403, -0.3253578542274491, 0.24902846410102475, -0.16204696830316223, -0.7839492267220514, 0.23105587402889638, -0.2592271507841988, -0.9951957322002327, 0.7828291908115594, -0.7272572305458871, 0.39435376022080115, 0.24101304287236558, 0.15146488582405282, -0.6261293766194813, 0.6102028870047627, -0.3216549122594643, -0.012190994982400172, 0.9758676709857044, -0.8603315970963621, 0.5295061855939769, -0.6272589534287434, 0.6374859777019917, 0.16212990989067078, 0.9270446253381595, 0.8947746632339899, -0.970174454016558, 0.9149187610765304, -0.42841964322725223, -0.6397978786401426, -0.5249233874641528, -0.11785644119210148, -0.4292945503740162, 0.9223828768768723, -0.5117689511193555, 0.46766570429611054, 0.5777248128925094, -0.5215079790780215, 0.7510593171795827, 0.5149724437603271, 0.06835474007683273, -0.8772356789776921, 0.34641333858396384, 0.3426324070169404, -0.7121333587457139, 0.08316468763623641, -0.11174078243518903, 0.787873018496908, 0.6279103366966106, 0.42549807122962635, -0.839749457314912, -0.05844982289424827, -0.06573180647320531, -0.8101847002333125, 0.14962154998682475, -0.6862842505108571, -0.27891077357358696, 0.8297000556089322, -0.9136918242091201, -0.886361189541848, 0.907377649199216, 0.7804216579417889, 0.12109945599069438, 0.1384817850478317, 0.339046341571523, 0.28541396059588275, -0.6346071765650323, -0.8038253568315208, -0.7032022347849063, 0.6841411260433354, -0.9134292237677846, 0.42102813213292345, 0.6959252598004342, -0.9801468811041678, 0.07389021960249709, 0.2642742179920681, 0.4350684285810831, 0.48500398855662197, 0.8299580581449149, -0.2320931586388726, 0.7790160775462103, 0.9360134965468347, 0.4598730639272124, 0.6344394763212831, -0.29888609083979567, -0.06935848957946678, 0.9184010120960877, -0.538578042607869, -0.7671500678965189, 0.005984023972246844, -0.6143063575561412, -0.15685880806659558, 0.9724686310243469, 0.6779638084077575, -0.6040655261239773, 0.13262749580237165, -0.563566504061991, 0.9523748845335949, 0.37396718304914, -0.13739964034594765, 0.7975531100976381, -0.4208045642578635, 0.5204090574396338, 0.6838441589398274, -0.7903728604581861, 0.8100981138195325, -0.23575616867569105, 0.7110040176399606, 0.5848244513934766, -0.9206311428753124, 0.20099014356753186, -0.5371969684251217, -0.6274920571003442, 0.6367088687133877, 0.14477330389255472, 0.877634263069599, 0.04981752011988805, -0.9621011321204342, -0.08650079634854557, 0.40855275573445926, 0.7437326664950932, -0.44409711162453713, -0.5011698032346175, -0.46506893538943506, -0.5106290218504681, 0.7967107748871305, 0.8960642203110494, 0.8116371828774482, -0.11227755351683522, -0.22852887484097018, -0.8390143525138576, 0.1405177162656992, -0.7442008132836215, 0.9346629078715558, 0.08568238056796806, 0.37702847860254685, -0.5214236934364336, 0.5496127289120896, 0.9314919300240063, 0.6754160630327197, -0.3894443414609845, 0.9975019871164941, 0.6192819861070293, 0.8490081628020987, -0.67063752300678, -0.5111060252643902, -0.49985837907888175, -0.2104035821615513, 0.052472736213988735, -0.7913614525655888, -0.5674112088393237, 0.6799001828166498, 0.6803214551292562, 0.6268022559264044, -0.1915957337042371, 0.5475511977592997, 0.43460832896518053, -0.5700690904661971, -0.5222068852803556, -0.01874147631728018, 0.8641763392649722, 0.586063899614047, 0.9746840223889874, 0.4886412887242706, -0.8767739508000192, -0.8201747253375147, 0.5909769235663118, 0.3868632493225712, 0.3317038345922758, -0.3236825558432177, 0.8255675963115001, -0.6337955901281298, 0.11069011866585088, 0.9607164924997036, 0.008597466512832774, -0.4384199670836857, -0.05743743005106605, -0.182755806848661, -0.7592412038224343, 0.7520814604781567, -0.059179628924395544, 0.10258871982402584, -0.2527387103927343, 0.16265403858262384, -0.2696202529602105, 0.2780828697508606, -0.6511376112403919, -0.518581010902361, 0.9367280382060372, 0.16503575523604885, 0.6875003795249144, -0.5895389363009178, -0.2543222752853933, 0.19185841154120808, 0.1422156838569455, -0.8049517337896541, 0.12070907477003745, 0.7520474517854265, 0.8917179954246923], "fitness": 1e-06, "player_life": 0, "enemy_life": 100, "game_time": 299}
{"weights": [0.4201933030452554, -0.4851072163265646, 0.35888006311755305, -0.7317327515453815, -0.3444730751061411, -0.4745907372228326, -0.31357860626137457, -0.14728509186472638, 0.820577931477902, 0.6614434714541675, -0.1023488590613475, 0.2008263272102917, -0.8777288725046377, 0.12053177105902457, 0.7910211667091556, 0.2857092815666409, -0.1751017621937505, -0.9420602531232487, 0.4323491469339502, 0.4451937379754707, -0.13263298104942245, -0.6137981877358842, -0.16372284678397575, -0.9191620602585806, -0.2003567419145329, -0.14863575561231368, 0.7777708663508975, 0.32371906722340604, 0.8680558392461761, -0.38102737141475407, 0.5884568301293118, 0.35724672021330917, -0.45193317318167603, -0.5445566505888513, 0.8609514123682187, -0.7396365552328643, -0.8740953191984648, 0.6446323416890989, -0.8805908521792172, 0.08300197741910464, 0.9268022792807384, -0.06862823383100469, 0.560154168421795, -0.8406744772988601, 0.60528586829307, 0.2784333752213435, -0.7084845488546814, 0.2780445092117627, 0.12887548585145203, -0.35635969760438124, -0.851938528622022, 0.04870521616830947, 0.533202387740251, 0.6832918017744212, 0.30578910751381505, 0.9912055638454935, 0.8992887302030974, -0.2539285991605027, -0.656055952442318, -0.41120939184540606, 0.9916994870348597, -0.9234094205473611, -0.25063806832277513, 0.8066992726721958, 0.7568477143606807, -0.34921465885884406, 0.25037669960501807, -0.1321972133688667, -0.5299401337502214, -0.9358652779866783, -0.8266280133239601, 0.30522534139028834, 0.6158435195806335, -0.5850915051016301, 0.49894888326635356, -0.3399385266606936, -0.6448710911600259, -0.47134632188236036, 0.24233667609122955, 0.6313454479330731, -0.24420571906398236, -0.9462506640818706, 0.0842194528189899, -0.9703068733613522, 0.14908863155072427, -0.4371289848147357, -0.9896717786286164, -0.32066628411927, 0.49958608841362073, -0.4616336059040125, -0.8322766815601881, -0.8129091838700437, -0.180030363307647, 0.26877095736361456, 0.7155050002865533, -0.8561086039734587, -0.7173725282228065, 0.7269322549321797, -0.009438486045927785, -0.5839308808113686, -0.8139957494756176, 0.36835388710699024, -0.8680373636242242, -0.5334294914676665, 0.007906847834203257, 0.5021378838187593, 0.35307299981077134, -0.15424706362564877, -0.6303870251024313, 0.169633655455649, -0.6618262719843053, -0.7341971540667838, -0.7450666591072452, 0.12584699340522687, 0.021285253514625735, 0.7948472392874091, -0.9074827144425275, 0.7190790787097088, 0.6086089278903763, -0.6393201096988308, 0.30196306388256056, -0.23439852353832635, 0.9631555905031064, 0.9239838615402127, 0.5380392666199107, 0.6337395235756194, 0.018284464837420744, 0.7906001237872189, 0.9612241789588518, 0.593795002980104, 0.9374469165500181, -0.36230287311829956, -0.8792819609143225, 0.554324199250523, 0.6212014679479247, 0.7025375644607423, 0.78308573994022, 0.9642785880213944, 0.43932727116564707, -0.4147544855696421, 0.541572862152838, -0.7117349619369644, -0.27819019734597705, 0.9481164319896844, -0.6003330264793043, 0.7729709373218263, 0.061216010970926105, -0.811716987026009, -0.21568389704769952, 0.7831927899335027, 0.1631497501150705, 0.43877838572276806, 0.8702610627462048, -0.848242085513401, -0.08078949519373513, -0.6694513287055721, -0.9585112903444173, 0.5007540792660163, 0.21806358156876127, -0.057216336144797486, 0.6890589899562236, 0.8294960263572213, -0.513466929736937, 0.36850337218501106, 0.5703223244040956, 0.5992335633727528, -0.4913366056245452, -0.919890693135309, -0.35776233973523963, -0.36669268001168676, 0.04248803262154799, 0.5162408088096033, -0.8937868835110074, -0.420597241257588, 0.9564101480834089, 0.6438887580009707, -0.46365192140617006, -0.9554332014633351, -0.8195588076188047, -0.14852009425106116, -0.8142677269270802, -0.1809874730804122, -0.5408551311893839, -0.03023937282088407, -0.783682090094709, 0.2956900800374451, -0.7110827105850936, 0.06352350252011907, 0.020878560777114252, -0.7880363280434857, 0.47670615753462675, -0.8491513418857797, -0.9220787667498702, -0.9161290392689383, -0.851808714820478, -0.7891699416768183, 0.5752114714349317, 0.38804267177134477, 0.2425181888114778, -0.3141879452521288, -0.8198102712556439, 0.9006238999356946, 0.3661813069882274, -0.6492111654620567, -0.5128325263401985, 0.03068221316414066, -0.015633964117477417, -0.9565289232549508, 0.4495211852810612, 0.5685482711981349, -0.43764236347798136, 0.7827021170942581, 0.82653088482851, 0.42055495390146924, 0.8120718677882777, 0.027213468023252974, 0.33301757225729256, -0.546996200120806, -0.34943009357218346, 0.00037704596871335205, -0.17758123424027916, 0.4423339342333399, 0.22805971415758575, 0.8428677690333872, 0.7072970716683271, 0.36926593573052413, 0.14517735442931157, -0.5281768581405142, 0.14020243127529985, 0.8825216365876616, -0.9278641376191921, 0.038749033044711334, 0.7178539041402723, 0.3449329326923427, -0.4917938562620392, -0.12666578645687276, -0.0015972705698481526, 0.21219398378810017, 0.7892646016930929, -0.6566606929849257, 0.6819956380894685, 0.2795963476313996, 0.024428062350988267, -0.9144166288996196, -0.5100529247182837, 0.9073351311910074, -0.8119687731531455, 0.6758057560324726, 0.8577377792623662, 0.4354811323096224, -0.2320066999437691, 0.42561085998032855, -0.3409568169612942, -0.8233046997944402, -0.6517000285684087, -0.5932755173678532, -0.6682126471477077, 0.6396068276807596, 0.658037032253795, 0.6098790746561835, 0.27264508003373544, 0.37340526556546005, 0.7613991599844643, 0.6644197343634921, -0.15609666770914266], "fitness": 30.93109579777977, "player_life": 0, "enemy_life": 60.0, "game_time": 159}
{"weights": [0.06447983205344787, 0.07975371444620394, 0.2292417350876783, 0.36812632297158765, -0.1941683553897049, 0.4281128686712976, -0.8905463447282527, 0.644868009616901, -0.12441370743449331, -0.5354669684829194, 0.3845828928513255, -0.33994798416825267, -0.03351312950577445, 0.04144794145697994, -0.2518577439217591, 0.6305481518079201, 0.2469684040886262, -0.9737990567692085, -0.15141776933979068, -0.6815146769534022, 0.6778488282693205, 0.822508217634808, -0.006631147370804058, -0.7266146956988662, -0.5945940472495241, 0.1332303586522805, 0.05878738847115206, -0.34280446546327115, 0.42915188040172936, 0.07404439405741337, 0.9526869733235259, -0.2476659116928952, -0.3182605965515404, -0.7714689945965019, -0.8937268032811374, -0.4711428183594566, -0.7471318578408488, 0.5706112257134992, -0.08006322013811795, -0.22003955064891878, 0.4611979234039796, -0.5053893636968383, 0.9759651093506718, 0.9013392251295083, 0.2577992536249525, 0.06516475721346926, -0.4808587104221609, 0.1733482459844562, 0.9909352385018282, -0.5617202035345714, 0.6989540669946865, 0.5674841299198694, -0.4336374545371291, -0.25311434876691696, 0.7949808585930882, -0.03060457389857607, -0.9537378657886733, 0.7897592392499053, 0.5775061422467296, 0.7237400822449616, 0.22214843603332346, -0.9590067961484223, 0.5945369684557946, -0.3781730220971553, 0.8865491312030995, -0.06327823883032546, 0.03748960412513225, -0.22437691999942144, 0.5624256120208355, -0.3574014437119093, 0.8766708220935737, -0.26537115078113294, -0.902432091185644, -0.9020498257985334, 0.8307234577481384, 0.8542354566589003, 0.521294936636199, 0.9380987396750395, 0.17954643962385308, -0.7561518168147394, 0.11355700163619109, -0.7379653934304051, 0.4976249431736759, -0.7944039636069762, 0.54179761464898, -0.41801916495711855, 0.4214672686932879, -0.7210625976598772, -0.48344281277377443, 0.1433872749099978, 0.4333291215970274, -0.06860910818856336, -0.6127956073216541, -0.029651840846824484, 0.05260676779863993, -0.2488086919819421, -0.1349773053450709, -0.34825731135662474, 0.6249557389161409, -0.7451438554482279, 0.6324196058153877, 0.7545857361566155, -0.6108729251889129, -0.7995959216498978, 0.1761135822467077, 0.19169868652157773, -0.5229265922136896, -0.49071249600994493, -0.828985653008282, 0.9412898070023739, 0.15207114018093848, -0.7289320199349008, 0.5420313195446318, -0.8025936282264847, 0.09268409290232449, 0.7496838046428129, -0.18960437365796912, -0.6918150975369497, 0.7369880358620937, 0.7805797437033142, 0.7137683070217511, -0.869276167276424, -0.051492238524490475, -0.5787257834960089, -0.4009211971931219, -0.64996145627003, -0.5391320683964593, -0.9902244408831784, 0.18928628536572534, -0.6195722786795284, 0.455645029295104, -0.7363487637336048, -0.35603272135212083, -0.917061586047264, -0.0830992900916474, 0.0441481888205113, 0.3688828731645426, 0.8034209329134343, -0.29705587226417896, -0.2420229447107176, -0.3557335399714112, 0.03667383140915281, 0.6240635823459959, -0.5155686322674393, 0.48765282268537424, -0.29354854382342, 0.43866084961775953, 0.2002349520137412, -0.26563984069806335, -0.04012824200189247, -0.9030676461249774, 0.7710162131127503, -0.9530663910130155, 0.6455625375488809, -0.9309902366791221, 0.9315884647977153, -0.8844642022803537, -0.8301239577518047, -0.5036444639950282, -0.46072604933338535, 0.15915635432762731, -0.35502386600915403, -0.3663744007956482, 0.5793525780166895, 0.12360040788644389, -0.22662670536933138, -0.36497845492440795, 0.0010571789758768713, -0.9315457027390257, -0.44485519986783806, 0.9842812593505168, -0.23470554051290637, 0.5018891799985472, 0.702572721614807, -0.5752748275856354, -0.6812037427172724, -0.0730168509188629, 0.49206925491764597, 0.601042380413624, 0.37261359372220193, -0.8362228759841408, -0.24365477510486766, 0.8321861450563737, -0.6143853994202362, 0.5892152615103099, -0.8686323261697895, -0.23132318635676397, -0.8777205970821584, -0.4479903695357148, 0.8286453509430722, -0.7009697460996316, -0.3149052427886023, -0.49123045797510034, 0.41129991831254076, -0.21935267308550643, -0.9825800546382182, 0.5320762506578418, -0.19313683280668492, 0.006741984930507039, -0.07836462314383352, -0.7409282933671999, -0.6916646128305342, 0.22076284919873723, 0.38573858699091446, -0.46462931865300616, -0.534149284321239, 0.3794444478879253, -0.43499869956617854, -0.2084542594087997, 0.21058181683587085, -0.475410356099341, 0.6893343498423476, -0.5481604884677258, 0.4404609630612881, 0.11770973657017603, 0.49241555525164293, -0.7481234825904484, -0.5934589635672343, -0.4890989313955272, -0.8047873012882072, -0.732944663458557, 0.05223121333245673, -0.6585429757359098, -0.7745526697613616, -0.08937200774601672, -0.07831221395097399, -0.5716681055874708, 0.670921125776863, -0.44405197141533104, -0.7148256343060986, -0.6840989232574413, -0.43681513194122523, 0.9862620973807756, 0.028051135353185375, 0.05461756118334793, -0.24005975392635936, 0.5136352165184455, -0.6468067687826455, -0.4368242180135591, -0.7061313455671057, -0.9767071162190413, -0.3336569234051323, -0.27689706006479087, 0.059881820846322986, 0.8218301301905289, 0.911863294652127, 0.699920631706501, 0.1693965659998915, 0.3516902266669908, 0.0933233092018011, -0.9959099215136638, 0.8033526522417307, -0.7738496855343326, -0.39239172787126253, -0.20441941390077756, 0.5038430084367647, -0.9049087932097752, -0.8380852716497111, 0.2054572834086894, 0.3826986767280609, -0.8500029925206092, -0.4103497783644674, 0.9322473085784346, -0.5756167192530957, -0.016809699392024147], "fitness": 1e-06, "player_life": 0, "enemy_life": 100, "game_time": 190}
{"weights": [-0.7143299055667718, 0.7946043025539464, 0.0395859332056554, -0.49227684092652413, 0.3876780593022371, 0.2280437488263165, 0.8191149895627967, -0.18671851058984412, 0.3354320920644822, -0.9527915137205567, 0.10216300439280723, -0.5786232223296159, 0.157185203719455, 0.33254441082610886, 0.603197651360196, 0.4016336569231833, 0.166534453822077, 0.9053953434484363, -0.2759543349619422, -0.5158302914591326, -0.20384893236168966, 0.6369058357423478, 0.02546448307960536, -0.9674464719486959, 0.7352529988266001, -0.1650822111645116, -0.23887603647052535, 0.8827857642010339, 0.771690485786668, -0.47967484686519524, -0.0924444941250473, -0.7331007582370201, 0.21068192191114798, -0.8332571735409642, 0.8907411889285941, 0.8403327729661971, -0.9852634776879716, -0.28192938910659704, -0.7981558582846457, 0.03375583156370898, 0.6454092847899386, -0.47970092690632216, -0.33719068663391116, -0.5411487598244793, 0.4473924812392107, -0.6904138804053561, -0.03985440736454238, 0.554722150272553, -0.861024762402326, -0.8216124917534768, -0.1584389889307034, 0.1251278670263365, -0.9716270670509493, 0.8668758655247752, 0.9283618258366624, -0.29922426500132393, 0.6641787159665382, -0.8527928586068105, -0.40236116378338815, -0.1950536077374061, 0.43834204159818047, -0.6050322934856112, -0.14068320946453694, -0.8575356581171383, -0.43137436234579973, 0.12077570975832308, 0.6759770377424719, 0.4987770876695834, 0.9449536638886407, -0.571359842988014, 0.43337289446719285, -0.7464872529251632, -0.29936219979502754, 0.7853055064175438, 0.0664435144542097, -0.40187116297415826, -0.37080572673221357, -0.9346952160701416, -0.04083098556986409, -0.6348243117804035, 0.2800357606316799, 0.2820929580278415, -0.18064097812065505, -0.3490611886483679, -0.2645820829578025, 0.45832088714986896, -0.6529678565871688, -0.03298256700908131, 0.850425972613897, 0.675849467592218, -0.5550334235921175, -0.6348186694581781, 0.9331885445885724, -0.27561189751931914, -0.7234078423847066, -0.3012746815189551, -0.6899439349744723, 0.4567703224950419, -0.11421822903166068, 0.5270098252887871, 0.8177115157487154, 0.30757043677019036, -0.9554045741835617, -0.3296779366966853, 0.25754543566176036, -0.09478066603234314, -0.9984988420948651, 0.7580489111763089, 0.47059762457251697, -0.9349245720245616, 0.21261600922716206, 0.024227928975061097, -0.4676636506421541, -0.3219780678756823, -0.012484004815325855, 0.14042927390210713, -0.994660712639821, 0.11523191516919651, 0.9517352687199321, -0.4270933984168639, -0.8988961791859531, 0.2537696905726372, -0.08898868088816747, -0.17030500011892524, 0.1322200391055619, -0.25053379540622234, -0.3972868354654684, -0.3319136156055258, 0.381483513613192, 0.050080956034061375, 0.7850770517982459, 0.31509170735940195, 0.506343186964139, -0.717326118845981, 0.6359937098861237, 0.28178236178688887, -0.3663909595692465, 0.27707506068848997, -0.57343129263583, 0.2925000766793251, -0.8628803056137921, 0.317191217377468, -0.3410690546017823, 0.7649906683242487, 0.34486190888605495, 0.7587156340683214, 0.8042434927034385, -0.6848375403252265, 0.27803937692698866, -0.5391716845163024, -0.13978511149932826, 0.816569652596937, 0.12009967135014743, 0.16602697666297073, 0.3341764459525458, 0.42302647766713264, -0.19574197107008784, -0.5827706040642324, -0.8685606507919066, 0.6854543686805985, 0.6339696507774764, -0.020574538181345137, -0.04301754745071773, -0.7604206220078762, 0.6991840060077652, 0.07265059854540201, 0.5503637751083719, 0.920057730681425, -0.937913526749103, 0.9756837177489242, -0.9770452483371208, 0.20953844003591082, -0.6122314189315841, 0.49259772368467925, -0.027713648702279325, -0.9434329006120143, 0.07308087941546804, 0.6694563870232617, -0.4001955542724247, 0.8707473756928605, 0.8968313584542211, 0.5676732296355145, -0.3250102761420186, -0.2718790490043326, 0.5403549595914245, 0.12340373992179532, -0.7266776484760997, 0.044510806032931116, -0.9552749581490563, 0.2740399955796635, -0.9810865361192143, -0.614725207485334, 0.036473423172219466, 0.37614960481976567, -0.8943426458005761, -0.6864746933269932, -0.9028046952130258, -0.3435065356978342, 0.7092461235310148, -0.9719085777621648, -0.8114690740133508, 0.9986368566571151, -0.08021664984396071, -0.8242728678440783, -0.08063442170342361, -0.0732688029393278, 0.3821566949112294, -0.6047504821014404, 0.5832233194604448, -0.46352366215811336, -0.42852785799878745, -0.9390558831360294, -0.946626763063305, -0.3288917558894424, 0.8233676888908519, -0.6177541653599825, -0.10443626417272234, -0.545493645179485, -0.288630270057733, 0.5288591983643671, -0.5167604295297026, -0.16637447156753882, 0.9302644680245706, 0.5175247623781878, -0.7024362593867941, -0.6501373184793329, -0.13086758381957786, -0.17432729615929143, 0.5018809225149385, -0.04138106327024671, 0.38683904988396955, 0.1811447191811273, 0.9161938026406666, -0.9390720814682578, 0.02723704404187499, 0.17059938623929072, -0.9266635263972829, -0.08728485761073634, -0.8332496370487583, -0.8213209270454167, 0.9901711984712207, 0.8138690355605369, -0.7977620090015332, 0.855912215504659, -0.8826295980729992, -0.6272544795581472, 0.9153171024284046, -0.4672731009986215, 0.6142697361857754, 0.5303574916843943, 0.4901087208749748, -0.0010286340053067278, 0.3126574209246755, 0.40282278087508505, -0.560788416588075, -0.027060211295030445, -0.8781422461163393, -0.4781024417300461, 0.07596130397781842, -0.49954387651634, 0.16010988841345908, 0.49178232199583194, 0.9106001167232063, -0.624873448253439, 0.5515913595015633], "fitness": 1e-06, "player_life": 0, "enemy_life": 100, "game_time": 190}
{"weights": [0.22025001092312158, -0.6963770192999115, -0.70500595061017, 0.7231115741848821, -0.8064887960455238, -0.15249688705495856, 0.31776688298306, 0.5574477039832195, -0.8292837434139917, -0.6058498927363507, -0.36336536253386864, -0.24191626452052595, 0.5670291035281292, -0.8145884033808586, -0.27006901248355897, 0.03712850405613288, -0.3412041852685306, -0.799119725657121, 0.3321674738733067, 0.32720461368380827, -0.30084245232486606, 0.1449679964685131, -0.31889198737238966, -0.3781404772974388, 0.5156645503387816, -0.06921906333271255, 0.7209681826083663, -0.3404351493967801, 0.30609602994649365, 0.23776257931117661, -0.012245040414917696, -0.2552478034792258, 0.6748268377107072, 0.9669927192384866, -0.13610690401578185, -0.4938850964493908, 0.35820193131710076, -0.37760947294992664, -0.9879646110336482, -0.036946974540492894, -0.5839009650367939, 0.3635588644133638, -0.2812672852389668, 0.0544024178283391, -0.4420291572544739, 0.6437777707874883, 0.9486657223841375, 0.3980978714492316, -0.10440774162749666, -0.539203243412441, -0.9617480988285108, -0.8252093016490922, 0.03745763910832145, 0.23957687304129616, 0.08733851093734168, 0.6275021389203379, 0.9366607264723261, -0.5073132065438022, -0.22652288149160693, 0.48914380078518205, 0.35504283862570807, -0.8020904500881256, -0.14906003897503073, -0.6921047046231208, -0.5372946734509783, 0.29320325402228686, 0.6867713541517129, 0.1426689246557611, -0.6708897899430599, 0.14814214227292166, -0.04432732860715771, 0.1408708550920441, -0.9011365641554336, -0.07770644497726487, 0.757299749553795, 0.19033600889817315, 0.6711814424213107, 0.8890347660129407, 0.00957277413568458, 0.4827336563563618, 0.11476408955030726, -0.1682303566195935, 0.06238673809592932, 0.9006423221176705, 0.6904275296295677, -0.3076293322384793, 0.12193288805476854, 0.9699872277270474, -0.7243668316947218, 0.3784507022438748, -0.5586792393691875, 0.5058730704125851, -0.6654575193313084, 0.9329472165679269, -0.45880137970058454, -0.7330668703886531, -0.5057007349173825, -0.48324513237411204, 0.8447032869574846, -0.12351562772420999, 0.4050026883631954, -0.03625949041471732, -0.4119312170524405, 0.57558407415692, 0.39252794867605423, 0.9600235167671094, -0.9502390186290262, -0.3438726247699462, -0.9629616378582964, -0.514866952073326, 0.7506450678434735, -0.25576314215629514, -0.6213044528276026, -0.3497432010436181, -0.7304921602730385, -0.5103141382891891, -0.9144698588551026, -0.14992252001566997, -0.27033785982067826, 0.19692082950602963, -0.494281644808791, -0.8445093854473025, -0.071248136086278, 0.3893238808177033, 0.6540087347068924, 0.3467857554397733, 0.9821590564790033, -0.34907026951018794, -0.010655924786900028, -0.5468521529940764, 0.27141415554497983, -0.5615808771713766, 0.9392463541617886, -0.49643311481199515, -0.47592214075202577, 0.03456720742221431, -0.8245181039051968, -0.8472232098746963, -0.02642580844233855, -0.11175338351860642, -0.9061161059520915, -0.650262741542569, 0.29452945590437296, -0.42767620929661887, -0.6082729836692935, 0.2509867299286146, 0.26374000667064257, 0.5158328747293606, 0.8299414321049996, -0.8721665088550754, -0.3173606651872911, -0.17075714078450033, -0.22903778625476545, -0.8777651127208634, 0.3800729775007383, -0.27086085639265356, 0.47476270696070366, -0.8659502917224307, -0.18347468898701846, -0.7447527262436449, 0.38487987424898296, -0.7792864305576948, 0.9012921229772126, -0.8539322883738505, 0.6334079338786385, -0.9455724378578492, 0.2648256683275345, -0.7501020461354082, -0.7348540227902338, 0.5046246541502921, -0.42120278357036844, -0.09175744880379688, 0.5269785703946983, -0.9517742299082046, -0.9811054920852935, -0.3122399367642228, 0.6104275958727097, 0.42228403973393225, -0.3511412538658929, 0.8690825648004741, 0.9576189682624285, 0.37225650910449426, 0.14553956766032417, 0.8827826998319646, 0.4123113098016593, -0.1554786214268491, 0.8809503178068645, -0.36644031746776395, 0.7684335667611542, -0.7192389614390045, -0.14646574146037494, -0.5690619019537146, 0.6114549572552159, 0.22637996388968706, -0.04845449427841664, 0.01906296205781488, 0.38953791390582415, -0.4137426782296354, 0.9581484867398633, 0.4537451196332223, 0.4021887471401815, 0.6286888219392581, 0.9571203528471073, -0.5428013473097473, -0.7096900303162663, -0.9580403020792208, 0.7221669979478742, -0.683785012191622, -0.17715398496876378, -0.06172560054671239, -0.5391860717642227, 0.6399270359029281, -0.30820172928868006, 0.6810004625308039, 0.7334930698434419, 0.06456912270867465, 0.7198783764441838, -0.16165293707807793, -0.3920940472826231, -0.9099284420113232, 0.6132452548172378, -0.3661644332964247, 0.8698828298298407, -0.7484211329015975, -0.7721661047463086, -0.7390480655876253, 0.3527958376114715, -0.8972987726007877, 0.09212656611189929, -0.2317685474759381, 0.06727239150413666, -0.5603284309933481, -0.4169576805021513, -0.3585821675000682, 0.6126559660291466, 0.864658464045406, -0.980286980962336, 0.6197532158642998, 0.18570739894838262, 0.9651248480911683, -0.34804345593098085, -0.8148040554965508, -0.617559533108059, 0.8962032307936665, -0.7325438474786206, 0.5350115298773692, -0.2121629024329843, 0.5589789352247041, 0.6640092031352371, -0.4026132962070257, -0.6605597625894402, -0.6142863171544326, -0.5413673870488191, -0.26905487963726227, 0.15925767536417967, -0.0943093408526039, 0.9523927944740669, 0.8607177463845848, -0.371110231029842, 0.27388416419433725, 0.8634277063108802, 0.33755361002177864, 0.6900817272258803, 0.585295520501057, 0.2737537276402511], "fitness": 3.7742533262867983, "player_life": 0, "enemy_life": 90.0, "game_time": 186}
{"weights": [-0.7629221572690681, -0.0801653201254433, 0.2743233949289028, -0.13720187594526534, -0.8732471935704285, -0.3753709759850814, 0.2439125812980667, -0.8500891287294188, 0.5298343104952061, 0.28739784210930064, -0.4973064968521008, -0.42139379237343544, -0.9114993217896918, -0.5386963777701077, 0.44271763606031267, 0.27114907250169273, 0.14912796758459512, -0.33668418238430053, -0.7306080552689853, -0.5827013837273356, -0.08448469868883457, 0.3876878112457123, -0.9926550852811742, -0.6810934497743077, 0.753432864224217, -0.6935640558065583, 0.8937296078296666, 0.6185751671073836, -0.8961736000723026, 0.6577933454862779, 0.38176269790685446, 0.5197439821942886, -0.4813172044643308, -0.997403179557534, -0.08196295797146158, 0.20700707963059828, -0.639585027715349, -0.10513989628910947, 0.3336681495219824, -0.6971639285744038, 0.8908623412704064, 0.4917449589918661, -0.7609815768711299, -0.9292868188167267, -0.3078698281960648, -0.3795638809112687, 0.9053870916070919, -0.7677108860210178, -0.317665511605167, 0.13532656455899628, -0.17362955634844246, 0.06460905027573793, 0.6627894748612704, -0.9612888890050175, 0.40982942182407367, -0.7816683521130605, -0.09918377342538243, -0.777893683963905, -0.9696361212925182, 0.44692034290117877, 0.6898966698551401, 0.9274931895617771, -0.6620877329407018, -0.180308955495476, -0.7286257168650649, -0.15366217327999143, -0.8594845304239733, 0.7231858039608348, -0.02617566879962463, -0.9485848240774579, -0.14630717384866498, -0.19134183232995183, 0.5393011186642709, 0.07124762049921807, 0.23071619546288136, -0.31462124304861794, 0.8239984938791831, 0.023177245956516268, 0.7833950217923722, -0.1722863166139339, -0.6569513027262952, -0.20879830402407107, -0.7503941341666744, -0.6033347520500862, -0.44488001718872794, 0.4246057477143048, -0.019357782526647327, 0.16607311459979224, 0.40264777917735395, -0.7045034223627573, -0.8832256744222842, -0.31914532293941655, 0.824889183967092, -0.23157533428916022, -0.5765083479456552, 0.795456531358308, 0.7586006629745756, -0.5821073344429202, 0.6196275823486852, 0.9214824763731981, 0.43701283080930375, -0.8900754356802896, -0.8409770629474291, -0.9395277582311232, 0.4841405791297593, -0.7140643809304859, 0.4883806568885354, 0.7027096677664959, -0.8157349351140608, 0.05295572366590706, -0.984707671377741, 0.7191038480823473, -0.8827544956172151, 0.12517905897736026, -0.6730580582955148, 0.8480636921901978, 0.9470019697730288, -0.37992082080692957, 0.45758535747829554, 0.47778414918145873, 0.6044246869937988, -0.16268704396206335, 0.5285415437527476, -0.374704341532311, 0.9311335049963223, -0.10775359347595459, 0.04086068125257025, 0.3798950872997571, -0.2555872846214262, -0.032584384663748356, -0.21783521367632686, -0.68118476574899, 0.9142837192938131, 0.5451828025227972, 0.265422599157761, 0.3638154143367964, 0.1559589249242288, -0.2617306127816401, -0.1777837101055899, -0.13269481883466394, -0.6533808756529365, 0.3718849577883083, 0.666466821821273, 0.7430357892967272, 0.954019253049418, 0.3168181657051581, -0.2516995885260409, 0.0754632164570348, -0.8080896798448896, 0.39120980564940133, 0.33314267904904216, -0.8957375136456842, 0.12257242064268259, 0.5677561781568059, 0.37091699020420155, -0.8314087911601573, -0.1166570396096902, 0.7051800374470327, 0.6374614453264364, 0.6853658903937203, 0.40179428915570203, 0.9786098685199469, 0.6868693755718724, 0.5914189169485151, -0.1498935122110865, 0.9916871467448019, 0.17746523170820971, 0.26247665001041653, 0.5803732533088022, 0.14764708236293123, -0.09080560489054745, -0.03698746936023811, -0.20038981109088927, 0.9089500496137368, -0.971599126625853, -0.273436495646074, 0.5724239490526744, 0.6153118091019039, -0.36386686932864953, 0.25394904011940334, -0.2970700255697494, -0.1131362328715877, 0.9269824366184114, -0.877587789420478, 0.03692800111422323, -0.09455678082802521, 0.2052829963218712, 0.9736862095763594, -0.40994620588244945, 0.13522489084235767, -0.4262571598356515, 0.6723413917407544, 0.32086679827966624, -0.3534836505708072, -0.8172619584509639, 0.8233603232017688, 0.027193542822381067, 0.5150438550224612, -0.3255493933575906, 0.9557147093313918, 0.9129082920188865, -0.4656021663714711, -0.25972557407129915, 0.9640401902200024, 0.4719104782668877, 0.914001010847501, 0.8983136889899714, -0.1416469526325772, 0.15871779353880466, -0.10535273790927047, 0.2976724989821973, -0.6814688644797797, -0.0019971943834069528, -0.8125027402573701, 0.6822584397770171, -0.13029982203919777, 0.2644533465642567, 0.5314939015492022, 0.48638684930649356, 0.233697403244985, 0.9513527375284061, -0.6441088249514177, 0.19732189155849555, -0.3430523079840442, 0.012397509630784453, -0.7604225588253366, -0.6355563863964198, 0.49195794807766413, -0.31614777504547154, -0.8950672614152513, -0.2435705525332561, 0.0033622703478652927, -0.8912830332377495, -0.5462830616170904, -0.8474354792687342, 0.5639167660622144, -0.6473606948796977, 0.5846693539644121, 0.2399765058964558, -0.507325443063479, 0.7153800219580941, 0.6351725581805778, -0.04318378929467337, -0.8593522031815701, 0.3505928636797222, 0.7319200687512275, 0.22843885745389425, 0.4592412306595097, -0.2617555673194589, 0.24600115508768305, -0.36939239230525445, 0.6124324557829646, -0.43244510665137836, 0.045059963056131025, 0.24189354719912437, -0.4410869991689377, 0.2868998726743308, 0.8633233074055175, -0.145877063724849, -0.9404163661045086, -0.8977929701824647, -0.9384384384577122, -0.8953232781776568, -0.2984152311146222, -0.7379983115429032], "fitness": 1e-06, "player_life": 0, "enemy_life": 100, "game_time": 292}
{"weights": [0.5418535795863777, 0.9633551078654399, 0.32332563089015465, -0.9901516598445617, 0.6360473092314265, -0.4935343886671193, -0.5491885453198622, 0.18169036500711933, 0.10059085503740528, -0.12793557511218312, 0.898249222518817, 0.7919510427189049, 0.8891982494642214, -0.7338763725652946, 0.914467138432667, 0.5920608084322063, -0.5932350853523849, 0.931353770464052, -0.5010431534121609, 0.7460090207266319, 0.06501328196575762, -0.47560914638080964, 0.9640601693516739, 0.9892246739105817, 0.15009998605252606, 0.18884730436696828, -0.09499838037583053, 0.41504423507349353, -0.9455866153343901, 0.5869227398992429, 0.7503725372365506, -0.17149749948198956, 0.1391072778606648, 0.9806346181005752, -0.6785658431183077, 0.21006059599979654, 0.421601726834415, 0.9680329190778978, -0.6781512029946135, -0.5572631657643294, -0.6919245794919213, 0.3077328302017497, 0.6621981534741528, -0.12342467162490967, -0.9934779128867159, -0.8138313105605526, -0.044945227365776, 0.4973317314995287, -0.27263487356322647, -0.8194086251958295, -0.06039592995050569, -0.2847186979749954, 0.13356567399724195, -0.5213949273633216, 0.900169489692676, 0.37108399115160373, 0.3854749483936655, -0.01077515239375626, 0.308768483207873, -0.30341713731076925, 0.6060821730627712, 0.5864177003157152, -0.42744361610182, -0.635128882086105, 0.686201341509638, -0.6879994152376476, -0.34931310318022146, 0.5464937010841548, 0.989964326376104, 0.31975751051752055, 0.17532870855164795, 0.3204773523019586, -0.13370550160687866, 0.5179522562072076, -0.058799919006622625, -0.7244510898074961, 0.09446181937431875, 0.93119583650106, -0.11365330442169119, -0.9776879865390047, 0.30829531412796185, 0.05502728641188903, 0.19629981319369216, -0.37741842296872496, 0.9412458317464991, -0.9927030383694695, 0.005286750185555356, -0.15100727013592086, 0.1598181340430711, 0.8042326392181702, -0.7245021863688963, -0.363294149599082, -0.0744913846114188, 0.317758802008526, -0.7876888702306806, 0.33337670502257266, 0.9562500980291484, 0.20292392016354555, 0.07126693004279505, -0.1853742835663994, 0.8398142562717466, 0.049481906092008865, 0.9649598903200507, 0.1254409028151351, 0.8457378804242497, 0.6761710577028275, -0.6110426792598931, -0.8673521525524361, -0.7013578366554696, -0.2091620629762072, -0.16632739241371763, 0.684629645361325, 0.015992573689521672, 0.06926638394759888, -0.3708552964843326, 0.10975237111161418, -0.11282967537069633, 0.16796143085359527, 0.25993022139303235, 0.6194651085875962, 0.24067434359917916, -0.9978434958352762, 0.11003654933545604, 0.1828119008751825, 0.14305159729598604, -0.8027843808006103, 0.11862633976972736, 0.01857785328303274, 0.8044015867289811, -0.8917668444075026, 0.1156911493407542, -0.049165227167289105, -0.08333594169628933, -0.30675229215581545, 0.8241747002943702, 0.49158872095481376, 0.44723286479862767, 0.7491691942830172, 0.3246983182673646, 0.5342862253543263, -0.42257017001011876, 0.8796191237190201, -0.3827335069561266, -0.8108358982158421, -0.30010074257547026, -0.9012772367748336, 0.6394428746001071, -0.49183104782388565, 0.4582062315166302, -0.5500146119532479, -0.2843880793124267, -0.2421979961979237, -0.578179347568307, 0.8226275259352225, -0.9765604938333861, -0.06841546370260954, -0.43862160647237936, -0.2589869135024436, 0.6187862697213593, 0.06504606575348837, -0.23444256576691136, -0.38928447898451535, -0.44961204802731314, -0.8557438511544075, -0.1007446994395651, -0.28603558102629534, 0.9402666840456047, -0.9745466951525619, -0.5881988208455955, -0.8629499660310591, -0.745098271507096, -0.03167026228644931, -0.5935715749311468, -0.44366885536072953, -0.5723644513796988, 0.8223589338075419, 0.013981612334408533, -0.4976503208144707, 0.38440378749870874, 0.5245866269505242, 0.8967395361564972, -0.40073061070632776, 0.9219202468347905, -0.20886010929518117, 0.01846481192420235, 0.1210846950978759, -0.2253598697553627, -0.42577324587049303, -0.41646933113339624, -0.40391321506521916, 0.1367417244274376, -0.4301683731794552, 0.8485011315452708, -0.6841105721355345, 0.16714189592389306, -0.016773390034710012, 0.08858244806918214, 0.7920595033514775, -0.6319496920227239, 0.6979697776796585, -0.26876773259072695, 0.8194096294485105, -0.6755648969510848, -0.20997879360814942, -0.07181009176445641, 0.9091294134072818, 0.14939264644396233, 0.912339058015037, -0.32338460822376325, 0.35088579170000145, -0.9935363709452709, 0.2255276583216803, -0.48249274664441355, -0.9424181527008006, 0.2900195953595648, 0.8536850201538622, 0.02317152431157088, -0.11691894632490474, 0.3436255680088227, 0.702757800365253, -0.8336301562049921, 0.7014436785199478, -0.017230598558733545, -0.6489848257507098, -0.0459864453352663, 0.38613566537595556, 0.7495277631249815, -0.3498483598560347, -0.54284810172164, 0.4023030731170649, 0.3761853659721699, 0.1445076326901069, 0.05704371739488612, -0.03819620634870824, -0.5269770494658947, -0.775832932145907, -0.19787619565931136, 0.06894714931862089, 0.30384804264011733, -0.4839858021800081, 0.9245535096706317, -0.7100495444434232, -0.20334687533626994, 0.9807441305934221, 0.9988671776733957, -0.39534012705814003, -0.4713582606237592, -0.7041483753594098, -0.12250872118755884, 0.44594694504219623, -0.6634369153183444, -0.7827100164820098, -0.4919075737821339, -0.5491421576919879, -0.1024227440481773, -0.6440085236322262, -0.7710901048890899, 0.8726072861139318, 0.952476158359387, 0.026861894320607815, -0.09099615473587175, -0.4510936356608295, 0.06768534236727652, -0.20938935968528027, 0.18100899284717364], "fitness": 1e-06, "player_life": 0, "enemy_life": 100, "game_time": 190}
{"weights": [-0.8258957323509855, -0.08900440124550046, -0.6605204845513712, 0.5577768426643861, 0.20191158264718, 0.3740138721418629, 0.6235015102145773, -0.5382318426513395, -0.9669215755167497, 0.4897709748653145, -0.2531257037628494, 0.8414425176851144, -0.6132177412648647, -0.7650736121091681, 0.4220001606778785, 0.8215128051142566, 0.6388635178762225, 0.7731327878083791, -0.9506859990418106, -0.6441098502336136, 0.5578893796582078, 0.9375564915462651, -0.9107015904915461, -0.5405981285333346, 0.6732084558355209, -0.7272772025224847, -0.00030830399479175874, 0.9847728155849487, -0.6334975349510412, -0.6375563563013573, 0.5620206566793049, 0.2570528559247305, -0.06618775838407953, -0.8545929650463682, -0.6454843305433602, -0.4087039645498509, -0.24041312876094145, 0.7111386816633498, -0.8351725467207876, 0.17068151126376452, 0.8844548206430922, 0.40381621820352187, -0.4610430031565589, 0.42414135820658583, -0.392415744011539, -0.172669916900124, -0.9595185188383779, -0.8495300463979025, -0.13689610993631351, -0.6460269909249983, -0.5610198746647994, -0.5528993150205241, 0.5815590065115464, -0.33663205885781466, -0.13614548813172322, 0.04066002038412164, 0.49806567100145727, 0.19004903768996662, -0.345145312210251, 0.0360776867519339, -0.5739976539222746, 0.841946518565861, -0.9193553716517968, -0.058888652654769835, 0.5361151514970726, -0.20207784972073828, -0.23551931209585764, 0.3768624923554651, 0.504086454961296, 0.913049224827756, -0.6623205875161957, 0.6692400298170669, 0.5058251721925187, -0.26182515452134036, 0.5774813790234814, -0.5923464196589405, -0.555088912203314, 0.9156113404102142, 0.5524451466194249, 0.7825115064147963, -0.25459165392501126, 0.8544933223388982, -0.3565013951735505, 0.03781879607045835, 0.12961244935248817, 0.7722961287673022, -0.3870809991296713, 0.7416564949513873, -0.7088040920102665, 0.5035305207309746, 0.260347006602883, -0.6494938844251676, 0.9440806454303075, -0.8208123442569437, 0.4462830503912263, -0.5881553981004697, 0.10979736560106357, 0.7346247819604956, 0.9430263439233313, 0.6986991490603471, -0.2139096356555572, 0.8143244873833893, -0.16538480236462694, -0.7772245435038618, -0.8204990556446887, -0.5498834747316519, 0.9670211486291913, -0.5865320530497511, -0.9300946691633996, 0.29408974190978143, 0.3188083075324384, -0.3044573623103024, -0.22174838075537884, 0.3296856591803139, 0.6292396160774174, 0.46722093209923576, 0.44049175733026735, 0.5954003936768897, -0.29335821914295135, -0.2269913667385377, 0.6828499840813422, 0.7407734158653108, -0.28605025465875356, -0.4113589029674416, -0.39991092306410114, 0.8389446304578065, 0.4629497013508488, 0.876269519194294, -0.14494087464237437, 0.1853982582932685, 0.14874836028266847, -0.5377684086729424, 0.7202058455896923, -0.4011526793608098, -0.26137538075829947, -0.3266430556898485, -0.5371008104041195, 0.34022151873955386, -0.5982426278734461, -0.6047879612504357, 0.5048162408417458, 0.19303166239171143, 0.5138733480509492, 0.30618343712368246, 0.4899496396375722, -0.34037525060434093, -0.10287545312915225, -0.2190168400420851, 0.7410304620712891, 0.4617320996340455, 0.8550021249556681, -0.535655324627591, -0.11755815580736773, 0.41624835794383075, -0.3274676172026445, 0.6302124260620796, 0.8795964914244399, 0.6137680705970865, -0.5358905099957694, 0.16609173986977432, -0.04150261179924053, -0.11938067090660476, 0.009119593144903737, -0.49955035732931763, 0.2795603791408223, -0.15131934376177147, 0.2736504897078087, 0.6327604159641091, -0.6327676898864687, -0.9198969733922095, -0.4313194995013667, -0.374537168775011, 0.3171616871560936, -0.9315036217034314, -0.8763428360476464, -0.2384104465375383, -0.19216905553429942, -0.9777319515628717, 0.5652863720208365, 0.11254201378728501, 0.9470861121370382, 0.4467422061150481, -0.6699175922287541, -0.20024695467851839, -0.22697506593532424, -0.3297226844459904, -0.036799935897545044, -0.9808058190837301, 0.6755064281476506, -0.24595547650684724, -0.014142812602554455, 0.39518246937594315, -0.6532171662294413, 0.07474401565997457, 0.21260657729918075, -0.010052559791143834, -0.7847995870674589, 0.49516228958335184, 0.038001705481481185, -0.34989285095964484, -0.597279792366523, -0.4057237025133309, 0.4543166843786388, 0.6285922399928516, -0.902297143666696, -0.7406911995336969, -0.8819127744972943, -0.033425821645269416, -0.9619416235796987, 0.5284960395021385, -0.13856432490144077, 0.6864812017448103, -0.433329096176412, 0.5088490261097756, 0.35862749290702767, -0.6546200566089106, -0.5641567797801421, 0.12790696713617766, 0.2913016526738448, -0.07207953484709351, 0.4262669322674193, -0.6716015674099283, 0.9423313146758816, 0.49533109245956863, -0.3416455778985217, -0.63322778177507, 0.39393369896857844, 0.7170474527426256, -0.6807508665879825, -0.23410782549474773, 0.5699327252788036, -0.7651494139073751, -0.31284444195134964, -0.6939383515446496, -0.009610065746280316, -0.6118160444628955, 0.033667501106907416, 0.3467097312515548, -0.7348139905636013, 0.9104660651134191, -0.3583842824537309, 0.39161592109053855, -0.6050042366945922, -0.3940918999532508, -0.8322003113756999, 0.9327395636780447, 0.6163167385250663, -0.8409246701516044, 0.7228858906053082, -0.31510207041984595, -0.985568747164105, -0.37935631966470584, 0.2128446405097617, 0.3785606673610411, 0.37179594818848294, 0.7791337941599707, -0.7287067618278447, -0.06328003732451348, -0.8094306622426595, -0.4726283885498812, 0.5020971698130281, -0.3186496273305066, -0.8432233818021757, -0.6220501114652914, -0.9423430195703553], "fitness": 3.299556426609313, "player_life": 0, "enemy_life": 90.0, "game_time": 299}
{"weights": [0.40848585369815704, -0.38316030661923617, -0.04151002774349366, 0.6568795313688189, -0.7414469201746625, 0.5973034564121686, 0.11757192785724713, -0.19033912266294473, -0.9733419322675774, 0.1222391669995826, -0.04654140715830013, -0.027155760028686915, 0.8463727581104841, 0.9974630500944701, -0.33298414963063716, 0.2257606783928705, -0.5759517690243483, -0.2064309283151291, -0.2607199539029259, 0.330940519087473, 0.026480047871101142, 0.29647505407452934, -0.34358719551551586, 0.041484478619149945, 0.38098746148099005, 0.6254602134512892, -0.460250397963069, 0.413004126570347, 0.8831079393016255, 0.03290896000725052, 0.4095119256961144, 0.40647662509697025, -0.3237028103184296, 0.43059581834588734, -0.09328708678101383, 0.8429356571395106, 0.656244572224769, 0.38750948156463694, 0.4236291863428563, -0.21284474011221244, 0.9517329766551372, -0.47629210252296494, 0.8703816224018335, 0.9703406403960129, -0.0072477259182734954, -0.35199166067102095, 0.10719670545217874, -0.7168415645467523, 0.1058395133992609, 0.8047919673557571, 0.7777295714350785, -0.29542552443178804, 0.11648114674695687, -0.9242131981687736, -0.3237288588544027, -0.21233840077086152, 0.2400687429299293, -0.3950573494608469, 0.7686755607275153, -0.9876846223924682, -0.8495358812782028, 0.9674423409354085, -0.2634783791067885, -0.6516605739133996, -0.518471778075446, 0.48167760466503884, 0.6906497206150317, 0.189504654211613, 0.4195155336207106, 0.9085221405250208, 0.2819023261187208, 0.6820027265049262, -0.38401674297011623, -0.32372285735033013, -0.8447352470153346, 0.44081672496684154, 0.3404332380727224, 0.37849789339952356, 0.08986420779266346, 0.3143880086212849, -0.0864558373962856, -0.7484325907962859, -0.09658555108018008, 0.23103208137600673, 0.22240810455238158, 0.12332906212618333, 0.20197892822822294, -0.5006870137235067, -0.27630262234749425, 0.6750879528319027, 0.5815496554234392, 0.12237723919223176, 0.46803187651000555, 0.708221712615819, -0.7784709399283565, -0.7678460033205994, -0.998346339816228, 0.5474548816748832, 0.6373547312581773, 0.9615978834727015, -0.23038526723382158, 0.6805030986020246, 0.17820738106240008, 0.37020766992725096, -0.2966380195746454, -0.7233380430686218, 0.3645684134784746, 0.20030890790458478, 0.03316911705630132, -0.6939025606338038, -0.8402149155913787, 0.576628321437108, 0.4810371445223456, 0.764442601439828, 0.004589243858601932, -0.6894676486319589, 0.6859778971087944, -0.4839325908560048, -0.6009924693154574, -0.05491281409016624, 0.5673219422170657, -0.7457542475299086, 0.1517248561499962, -0.5189151226763533, -0.9876279697664991, -0.20178245484973134, -0.8516359746382896, -0.47151331427857346, 0.6762219861859287, 0.08076653454523708, -0.4693957465751586, 0.1081820643501894, -0.2842866149392984, 0.6570076675249659, -0.24625205394393035, -0.6744504442298376, -0.9234686211802807, 0.7484673744318155, -0.7510287916068679, 0.6525053909659708, 0.17374985738024007, 0.5182496500195493, 0.8250259752190439, 0.7058831635408824, 0.21405899440313592, -0.6183785369728589, -0.5148998289750266, -0.20522759860612116, 0.4223080857178583, -0.7894598861232214, 0.22349634985768563, 0.15425345091501774, 0.1694065127827411, -0.9619218822695823, -0.5526713156223797, 0.895624911455309, -0.6451779338756203, 0.5945861680682953, -0.8739677004729061, -0.6357054366552166, 0.5367296722747537, 0.13018954300749064, -0.6697547108325572, -0.9820646974437661, -0.4470608509834819, 0.4231651489130883, 0.27029854926352637, 0.222350509885195, 0.787860648276228, -0.28951282636180253, -0.8338817792450077, -0.18742760425631322, -0.9070330440386276, -0.7497026928485453, 0.13077545623907416, 0.4381325130789706, 0.4060942426897396, 0.18259924749008527, 0.9858401253279774, 0.7546037912819803, 0.004469802193965977, -0.24672819635066756, -0.15092184112565077, -0.020558597863204353, -0.6391414879209971, 0.3049404130289268, 0.1304263416567899, 0.1079958132868366, -0.4554821929825401, 0.38218622933148394, 0.5382937297474206, 0.6931423987877692, 0.06858789097539164, 0.3729314048859649, 0.28568288860807467, 0.9157961189707065, -0.8254062742389914, -0.586760303602047, -0.16034246090792958, 0.5179061451399609, -0.2317608552204482, 0.5717425709709361, 0.8587366735744173, 0.13041877752405617, -0.5501596863975551, -0.15998334335333797, -0.3826284063869074, -0.6968883106973811, -0.6045425333435768, -0.5668947557483526, 0.9533449496221502, -0.2374583979857996, 0.8894021504899761, -0.28531628630847683, 0.030504697791966295, 0.17357750386941828, -0.8305908126003225, 0.6668565471910697, -0.5898901328901807, -0.61321596853084, 0.06363092030126793, -0.8713269980369074, 0.2824867911368705, -0.29840734743892705, -0.39261074919433137, -0.9719643352427314, -0.6504745239499987, 0.8672769156545885, -0.5902542435737301, 0.3493810214512447, 0.29067376547522117, -0.19607061738965492, 0.26805667576716097, -0.5436038245151718, 0.3139304285300901, 0.6112163681226832, 0.0832732484455525, 0.5958357781705828, 0.771245111262858, 0.5355351062292315, 0.486469548965196, 0.8574857409167187, -0.38619645953190473, 0.025811976534458214, 0.6157671263172839, 0.5539254791515345, -0.3744424958229722, -0.9390546948831866, -0.6555471459611952, -0.4337892912218264, -0.7468164323184499, -0.14293551461091347, 0.7541897766575565, -0.22161113497973184, 0.7081287601956296, -0.034590042465979076, -0.06641035950470786, 0.3460652290628361, -0.20974427300654575, 0.2105225828550792, 0.8351618860433025, 0.1914868917912762, 0.25060979802039385, 0.9231610601399547, -0.38809007843839494], "fitness": 1e-06, "player_life": 0, "enemy_life": 100, "game_time": 195}
{"weights": [-0.8473663577035615, -0.5566880662363509, 0.6917433900016552, 0.2013472403275125, 0.39217842956483584, 0.7216478723033111, 0.5231059163007774, 0.44451593521661104, 0.9574982615920291, 0.5202433897602197, -0.09361838905793585, -0.7237772531016915, -0.20667001171989718, -0.49320747441983603, -0.990923543606733, 0.5382557565631576, 0.7545081760808876, 0.015375744364349853, -0.8179460784964327, 0.45736353787856654, -0.5457414419458657, 0.42021691562006813, 0.7000424598287915, -0.4767530685733059, -0.9611139883925444, 0.23733070535270584, -0.5868559399362703, 0.3922072426872316, -0.5418540064344044, -0.4989692931961851, 0.05294793830683875, -0.4906148840322848, 0.72923596356207, -0.1714278820437085, -0.9663663801929419, 0.03852698414313305, -0.19071418168568988, -0.9537302825141243, -0.07309398222415298, -0.9344587834500055, 0.3774423657986854, 0.35628182538139486, -0.7730855374883638, -0.29406109124548574, -0.8251647239158066, 0.5544081708359174, 0.40797863802515555, 0.6316326922789057, -0.507302913232835, 0.0454985963963237, 0.2068538915728002, 0.04776256203578999, 0.8073245598446672, -0.5739582585083802, -0.6463563741131071, -0.6242457534794486, -0.033189154563372014, 0.6305310126930477, 0.7105535562507588, -0.02914706507043019, 0.5852127374091984, -0.5203855579449992, -0.3234207669487774, 0.7494202663190406, -0.18333542220237797, 0.01547834553943872, -0.1042242075208697, 0.22354087350041518, -0.9771976970324292, 0.6254771067210534, -0.9104412141449134, 0.028084209970829388, -0.32802889515263267, -0.40691889461461206, -0.014962038528066435, 0.09619250366023979, 0.2213751649528941, 0.25532635469536813, 0.9179418220580389, 0.3554334876126064, 0.27529990064799437, -0.6026394556217045, -0.43527835766896805, 0.2889468754890516, 0.900507551838934, 0.47775204006215044, 0.5483059690536574, -0.47931673527386454, -0.23434964748307063, 0.9252213735492711, -0.6005041633978365, 0.04835359065564071, -0.9066078705398148, 0.8108033436047666, 0.9808094692043372, -0.0828275953828963, -0.11270630463680176, 0.26319114427577395, -0.6005125412233889, 0.7947386838128148, 0.24753252330032072, 0.8455046662337482, -0.5932704657825696, 0.8982839347837632, 0.22877409403523985, 0.8429842479863383, 0.3136392745257637, -0.27868880304683263, 0.32747632142478067, 0.11335607010760262, -0.5134571239783496, 0.22144974616692537, -0.08146645943108899, 0.6076197775302083, -0.18855281357194764, -0.18509291069122846, 0.15136843943279477, -0.14398123481535485, -0.605347445324266, 0.8124351081585708, 0.6897577407284077, 0.8554045056610453, -0.6867566286917295, -0.5874952936692048, -0.8037579087746782, -0.9877867611064017, 0.7882368336029351, -0.29846004311412067, 0.12762560427273728, -0.4156159070313603, -0.8549018884372597, 0.5402333532703776, -0.8762005045179964, -0.3394346452783308, -0.7056549668096532, 0.7804092235791884, 0.6562520846291386, 0.9471413590348423, 0.5529961863652089, 0.8517988888830512, -0.5049335619662343, -0.6445576207185224, 0.3667377261910343, -0.18769825758206538, -0.08547413940363424, -0.9131030967616995, -0.3298791750123935, -0.4091151075878403, 0.36656252686948987, 0.33131167794412697, -0.5834589612438004, 0.19920190865444143, -0.511124669009478, 0.3905694012567078, 0.9732823230646388, 0.20675236459071122, 0.1292456131219164, 0.21598824679847395, 0.8929796151503533, 0.8411869826379053, -0.7739579724722734, -0.16525357712113387, 0.9568630380524321, -0.9242722902203191, 0.8253833048193187, -0.5667401895929509, -0.4393782644299207, 0.3005820248743263, 0.9442153241638356, 0.11361257442698669, -0.7362828440250964, 0.29031912224127665, -0.8219043166162503, -0.10860191082419557, -0.86584187550347, 0.6142194231401064, -0.31084781874320555, 0.7534203768726504, -0.2828120618745662, -0.24646865761602998, 0.9149613840193762, 0.3767971148039029, -0.4727315929674736, -0.45400886610961044, 0.4993160693083354, -0.42519633445501115, 0.821857921087364, 0.549160786847328, -0.8741817892983847, 0.6296316681011076, -0.1382819465619114, 0.5125902595358565, -0.4541908572307576, 0.8885713700540214, 0.9729778696368909, -0.25199037183929884, 0.02129923306875159, -0.5709143446440146, 0.4696945031196287, -0.17607889751199424, 0.5058686342327448, 0.6788120657925301, -0.9848942299733587, 0.17205590620670907, -0.002223917446626089, -0.8157253274794996, 0.1520457052268207, -0.3276495129233574, 0.38494118372310027, 0.6472135742758558, -0.49778569023276664, 0.6682195974838652, -0.95319508081972, 0.07975020810745015, 0.027698574465533365, -0.8505821437508763, -0.12865522855189715, 0.3376164462012732, 0.2350497789125936, -0.6240226747070172, -0.7335225859957544, 0.3469886189487903, 0.37945090375035573, 0.3922644186933171, 0.4938781162025325, 0.5758145346713615, -0.0722107878053122, -0.3906556844291187, -0.34637266755209795, -0.4172475041586403, -0.7669524981360853, -0.5039463089133303, -0.7005458087361931, 0.8912128606159027, 0.24358014045700505, -0.6944948803625, -0.20011233381122517, -0.15906111332204276, -0.3724082802651514, 0.7527695950707238, -0.0966326863180198, 0.6312731573920909, -0.022280105690486218, 0.15352004781588557, -0.8335619657784259, 0.6463781281403058, 0.29602938456470773, -0.827193425556388, 0.4369506868015769, 0.6962890913544513, 0.6277024854138751, 0.8514173727188199, 0.559352383060536, 0.778826933565048, 0.9442525880832371, 0.9815327708513681, -0.6882100466455854, 0.8662193942148773, 0.7089096606628076, 0.23680612305571525, -0.3884691938918374, 0.8722990266004143, 0.4959730645332252, -0.2643727746863924, 0.4429571211742587], "fitness": 1e-06, "player_life": 0, "enemy_life": 100, "game_time": 186}
{"weights": [0.6345328664104133, 0.7975876459598523, -0.12426708842486733, -0.3855160174429946, -0.28661901907037257, 0.9587826689436088, 0.6445911810345184, -0.35198737234397526, 0.6505273025802232, -0.005070221975478795, -0.10660109757133096, 0.19591435239077093, 0.5358475040943904, 0.1451110233035242, 0.2421624845578727, -0.7844114227431518, 0.9042042285056116, -0.3357911451472759, 0.21741265501440088, -0.09169680417409043, -0.7977799510811896, -0.32332010590503635, 0.31209994269846875, -0.31790378009437514, 0.0026059058228031784, -0.502358081737708, 0.3440502158724579, -0.6707704467954503, 0.5347338232137255, 0.6390196009775577, 0.9243333826371238, -0.807022499244628, 0.1576679726148793, -0.6574174365053462, -0.03649383279816565, -0.02488746885997184, -0.025856405686659922, 0.11987712001513828, 0.7201686779232552, -0.5441048006973539, 0.7308176575351273, 0.2687678786395329, 0.7612150903684882, -0.30211225576857714, 0.34837643422916065, -0.7593583803844475, 0.09987188812186876, 0.6358101879402871, -0.5648813680242684, 0.8515903673485332, -0.6570093036150948, 0.8971522450602814, -0.45592126494791474, 0.11578195224685728, -0.18040438500538492, -0.193112854201287, -0.9144502951797906, -0.24825117227617888, -0.1471970043851294, -0.14219670188458045, -0.4754633835660145, 0.002377223023587005, 0.6505777597587796, -0.4513294318057224, -0.6991738068171178, 0.11670144425992945, 0.34275915126602907, -0.48718806796584113, -0.5571546206140143, -0.43958466201103885, -0.8849928494251347, 0.9874464692183063, -0.44670532311448885, 0.7739767547083491, 0.46507650450967497, -0.13144827665494518, 0.49236544878423816, -0.4994960628709135, -0.5188798257329164, -0.24900680736599945, -0.994722403646721, 0.46287971633258396, -0.5531987690091731, 0.4749938251194499, -0.44662697417465336, 0.9542869588343734, -0.6809670375728085, 0.7061675852478826, 0.8550971394347227, 0.7997658725797885, -0.9650064150612692, -0.8337811221475682, 0.9534113188565716, 0.3245962214611373, -0.12200625449930569, 0.41470305640445293, 0.2501154508601737, 0.6872398212145583, -0.8754155420413852, -0.04619185412632065, -0.7564208521175386, -0.5565583383992387, 0.453912910992778, 0.8826217576095239, 0.3083984703209077, -0.5548353019525172, -0.2587197299911892, 0.6025232071024944, -0.32402376255421617, 0.0702351217188888, 0.4393595950515643, -0.8477559427626977, -0.7972565214578906, -0.787209271528915, 0.4454877025235362, -0.34480055289466494, -0.08454900214617744, -0.8768389852960572, -0.6778798428817294, 0.33146632977312707, 0.5949684048080153, -0.23413774435889478, -0.17080189091760145, 0.25349321197716446, 0.6756968675150576, 0.2744872339975577, 0.857097246238995, -0.621052798655223, 0.28683607581730586, 0.8400456320106371, 0.30743221377291974, -0.5963376971717764, -0.9236969529508616, 0.8922157414935494, -0.9936536369525295, -0.10206136990542203, 0.3509809397646515, 0.8101206725399313, 0.8581894017438048, -0.7149789563808941, -0.5382462705352011, 0.9707296846227054, 0.3357538295838125, -0.8267934960296841, -0.5716839501729107, 0.7068500674377649, 0.6814743175129612, -0.6130452026071285, 0.741674361972193, -0.9270194457073024, 0.2809627342301839, -0.7466941399125471, -0.7484837051650757, -0.3530227837943618, 0.5014398488950544, 0.3036625118691936, 0.9840786575086833, 0.3856984506986667, 0.3435676054721357, -0.3803530521993095, 0.23430747119993045, 0.22482961872665297, 0.28679716298667524, -0.3588126182100937, 0.3589620266814926, -0.6849380613590963, -0.5617528935396074, 0.7053108166234638, -0.8172017766500081, -0.14047181298260614, 0.5573102945932242, 0.24612456661345483, 0.541734751411505, 0.44743822560855895, 0.36201583906420143, 0.5688028010208457, 0.48714867650327465, 0.0385457570209109, -0.6899373233560102, -0.6002827958339079, -0.5162915604335869, 0.24701478774240915, 0.5191367892536229, 0.31236383115015465, -0.4021077425519184, 0.3869081739007376, 0.8630194594163336, 0.38031217849363474, 0.5031958909050351, 0.8442929127553673, -0.9800534285478879, -0.6171457024220783, 0.7064391570512203, -0.9194401808105539, -0.036777148721142794, -0.1655290201416686, 0.2873080224894322, 0.83506810915732, -0.432606935360514, 0.4142406642255416, 0.713903698572699, 0.9078334113570881, -0.5724386314013752, -0.7430028440261174, -0.3806512569775917, -0.08505638506836166, -0.19855319244516423, -0.6393968356641104, -0.9051343873493041, -0.9572947515672632, 0.5453436569229404, 0.4024871317273149, 0.27151954435921355, -0.026777313712615047, -0.7786285561340889, -0.8224457095733251, 0.16473595193962254, 0.1637052997030215, -0.6483593860920578, -0.16095578692094592, 0.08587184981363816, 0.1522821185915808, -0.07631374726519224, -0.6354756179789263, -0.6100371244062537, -0.9513925287969676, 0.5691218054101346, 0.1465043220788047, 0.615935437006963, 0.274188330510039, 0.8046846562247416, 0.7679963572894888, -0.1650894758109427, 0.7757460964891738, 0.1288822808581318, -0.38728089289600054, -0.24797733918797782, 0.5164499257322699, -0.9292244817642084, -0.4132618978498719, 0.34538115414212456, 0.949413985992883, 0.0004804650501242236, -0.3137688578949629, -0.4421164768695185, -0.9321037077081313, -0.41842208670810255, -0.07220850337326357, 0.2736882637779834, 0.8752393764468638, 0.56325663422923, 0.10004664157554966, -0.22013219655314686, -0.6925045839043817, -0.1694962911442246, -0.16845618271491447, -0.7174159624260383, -0.35958541907652974, 0.2954569151037829, 0.4118015245102393, 0.06805293102281662, 0.5211525665027577, -0.5600233188387067, 0.5699317320872794, -0.7517132926832271], "fitness": 1e-06, "player_life": 0, "enemy_life": 100, "game_time": 191}
{"weights": [0.7441544264574045, -0.5006121523396725, -0.6597277803286601, -0.060501642725578675, 0.21122108764431613, 0.17794365473716756, 0.15229959690736594, -0.6605869453942099, -0.3673032080946419, 0.9709894282522276, -0.9644288583829197, 0.6271042881865787, 0.2796128643506248, 0.4539159148168188, -0.32387124172339354, -0.504901020128532, 0.4147049671193743, -0.9031730771867137, -0.6419171192306026, -0.8136548973433746, -0.9573669639344762, -0.6958771673604374, -0.9138255495865537, 0.8932225830067662, 0.039122062557247705, 0.5422253488582212, -0.5726363656277804, -0.6743061350526589, 0.15999417261715387, -0.266986438916462, -0.7164332294976492, 0.7051606746940255, 0.6000820674970464, -0.8561736203301911, 0.6805099428491468, 0.014065923108232292, -0.09167422680680892, -0.7203512256759756, 0.2748448611312384, 0.3977209639156196, -0.6724627352286194, 0.22049256064608969, -0.9428914904119536, -0.07411283448844674, 0.8143140868305014, -0.9523665442544267, 0.8038042503290177, 0.2882950593307685, -0.8117339627790296, 0.48440284557011726, -0.5664672512846609, -0.03899700347493984, -0.5097174450216311, 0.46639746977469376, -0.4027317795324008, -0.5314621170589404, -0.9844386847041151, 0.07219724102051739, -0.16498559442491412, -0.16033912321935628, 0.32440940710170896, 0.22657181622175582, -0.3612911658632789, 0.6973203040686988, -0.770682515521155, -0.9341938960117466, 0.06833050432179255, -0.10051043109906743, -0.38897163984888783, -0.7006126725823956, -0.29395661816180496, 0.11876715526559645, -0.27173535800717463, -0.9572099709071724, -0.3049338361224134, 0.2825883056959846, -0.021681119796720605, -0.27716353700586316, -0.8913594297299097, 0.3730091926891963, 0.4680203035334405, -0.7439847053153685, 0.704371471897064, -0.08226279370271672, 0.405720015490479, 0.514697837959758, -0.1991249322213846, 0.058911006847584435, 0.6629705139457276, -0.43189270797220747, -0.6563837069187752, 0.8424149984514913, -0.7714145891716981, 0.6419231377831314, -0.6271955075196287, 0.37749956566078047, 0.7961345171082206, -0.3333551655325371, -0.4951970583338521, 0.009432536718036788, -0.900340617515397, 0.20475701248373057, 0.39296848536092965, 0.8598793364361261, -0.5388762473729436, -0.011442702773358349, -0.11434203557258793, 0.15363337455295056, 0.3564592289798074, -0.24716870054721962, 0.28306059707538656, -0.48787323467790267, -0.8659350904087983, 0.8617987209803812, -0.97540913360933, 0.5331646939591137, 0.8109609814808001, 0.914015171349764, 0.2524326407621347, 0.054739040140477924, 0.6630597315761244, -0.23079861590766582, 0.8012071352673096, -0.983721703862489, -0.44830008004213107, -0.2773034335076143, 0.9718278284565136, 0.4599006756346493, -0.14262439021011786, 0.10417174117523076, -0.39668599487790024, -0.5032890762263122, -0.04002463675301171, -0.48325510746064504, -0.8659404084585491, 0.7632251668372185, -0.8957443518282624, -0.8342771026765436, -0.6651484409995669, 0.23164279395931797, 0.9465739368222315, -0.7866277047128503, -0.005568148950560348, 0.45860196136541376, 0.14409691702777527, -0.7715166570984486, -0.06727594347894428, -0.2465282176525332, -0.5024566759789955, 0.8363578486538179, -0.8976785604878192, -0.3077800402228279, 0.80648925003203, -0.07578930383868876, 0.11207582316320774, 0.8962303236955957, 0.5389710652631465, -0.3365863795396198, 0.026589975201388505, 0.3049465751633591, 0.8816095855073263, -0.8115257237990205, -0.9975367450302657, -0.6955125961196527, -0.727919822762519, -0.09733999688666728, 0.5438436343934778, -0.5796054376268593, 0.5791612143586433, -0.947502243414128, 0.3173463678503692, -0.26705004366605656, 0.25351604758653834, 0.2260648769383422, -0.07921604868348742, 0.10820985258833948, 0.29166741663139706, -0.6447865767773013, -0.35120220910934075, 0.6363962240200574, -0.4224703886768546, 0.05410083982870173, -0.05946958983300843, -0.493661880198738, 0.2749916906093177, -0.5497742515990109, -0.2974668877582538, 0.7656534958859842, 0.4565371094127677, 0.4668522086506688, 0.24923407581073032, -0.008974523435671733, 0.805063886064795, 0.5224823113858044, -0.4340868107181892, -0.557596041903953, -0.14759946820985292, 0.9206290554675207, 0.002503325376861376, -0.01483978771513006, -0.7751590433729365, 0.40311199103397755, 0.04327311131350409, -0.17611430974073916, 0.6536925065379477, 0.7549790103792053, -0.06005097101855417, 0.7296159065543975, -0.3164126088810544, -0.7875113346870242, -0.5594555460633022, 0.4351543184763955, 0.7516696732424191, 0.4022963505877166, 0.21951885976683871, -0.18381269755205087, -0.49407747800576196, -0.6767848333545305, 0.42681977732620613, 0.3171337464880821, 0.8517543121530877, 0.6708885266178548, -0.7088076301364195, 0.1995936971139014, 0.7088864951152152, 0.8239897241876157, -0.07662129491361136, 0.3119110087338035, 0.7777345135822649, -0.5097420119244829, 0.18567312922882384, 0.21684666088979498, -0.21231026971003475, 0.3346583512431405, -0.6803897724790222, 0.8579741472627871, 0.781541754603996, 0.21523750817446174, 0.9702342247607085, 0.47029753745211433, 0.8257568361022221, 0.7298187870417066, -0.8508853142365469, -0.3976914409995296, 0.35853439878698623, -0.5783717560766448, 0.7245179926331065, 0.11206513201990265, -0.748860794227288, 0.07075426117414185, -0.16691252899205744, -0.7965691237254748, 0.2564081424338156, -0.609787028080035, 0.5210450636177646, -0.7862837815034647, 0.10211304937319476, 0.5611358663185526, -0.42317767193976574, -0.4583780561261368, 0.7490945227149761, 0.9270235274904117, 0.07981364153969239, -0.530028088232509, 0.8865019201009103], "fitness": 1e-06, "player_life": 0, "enemy_life": 100, "game_time": 195}
{"weights": [-0.738860222108594, 0.11930367692179766, -0.3756812215245737, -0.3220483149223645, 0.6318963815808254, -0.24038168124687265, 0.5051965301174601, -0.8869631036508587, -0.6845497963573435, 0.11836170169562799, -0.2737845523301454, -0.7623409869240902, -0.5325475426967088, -0.15011668528068056, 0.8366582284559259, -0.4744834495338812, 0.06192233009108472, 0.9712221750693213, -0.8241545754658428, -0.846616321998662, -0.7025446793767782, 0.19174530557797298, -0.21482323222213395, 0.14407118080386883, -0.32416445789453174, 0.46854673048242, -0.710419018802259, -0.6072685549883516, 0.5238512731162754, -0.7686560225583199, -0.0185764004814728, -0.3215209006656041, -0.12425484583434798, -0.2011644005394322, -0.30599707440595014, -0.15993300895324958, 0.48445062460049315, -0.7163235942690902, 0.1889897915089731, 0.6772625206248786, 0.5685624257042319, 0.6504323185083116, -0.6075412417302788, -0.8679332654038885, 0.11483121564080423, 0.66340848057164, -0.6190994655482507, 0.6832595126799708, -0.22177442708052775, -0.9256579976356161, -0.07182665676973299, 0.7607083868880022, 0.4484148014274123, 0.3793571368607007, 0.08583982890975883, 0.4297621654968016, -0.6768946093474706, 0.5987030349768396, 0.9842559759424272, -0.9626118619046353, 0.6003483683169271, -0.9380288640429089, 0.05818094015279218, -0.8786778760023151, -0.5870346018233203, 0.8311830906219644, -0.767092137393631, 0.18107900231744445, 0.7430083985959601, -0.5053245038691336, 0.7650620033300657, 0.8623507399689441, 0.950498515489596, 0.06617243044717047, 0.16374032593659593, 0.5938674436650051, 0.829482460904422, -0.8235058204167054, -0.32601875145664594, -0.06407081459621322, -0.8573157082854046, -0.8450496818890734, -0.7030616555181082, -0.8771172045479521, 0.441795496477682, -0.4160486669158854, 0.8814494190783744, -0.9434462476740768, 0.8816263966942464, -0.26458832232413854, -0.9023148713220117, -0.6941594723558799, -0.5572122176228509, 0.47248078966594464, 0.5206328045463142, 0.7236503175033073, 0.20597003921126333, 0.26557417165620434, -0.9068682966434989, -0.4936267923242046, -0.4106144343463971, 0.4971073611298218, -0.4471474590761413, 0.5043368336906018, 0.9504120049018561, 0.1250931847562471, 0.3215713091405803, -0.5205316059083569, 0.32891649213701823, 0.7571979134289362, 0.6501751489311329, -0.06205088722671159, 0.01719659232572024, 0.6236496446675768, 0.02816349286209796, -0.6414960258210098, -0.5228567469324872, -0.49049140771055444, 0.05802644646353072, 0.5114197258621409, -0.7218858654331224, -0.35139351590622514, -0.8808086242524349, -0.31033721926325164, 0.44374928426587545, -0.7535195418522682, -0.18938511103691025, 0.3175182479634633, 0.27088638202088355, 0.6685161467442513, -0.45545644817130015, 0.40025474028356034, -0.12335733239287805, -0.3068677544404308, -0.6988468540894646, 0.5082383621292883, -0.04356577261483263, -0.24135509767310825, -0.4838584319655397, -0.6837661952743421, 0.3780663691933326, 0.5118059500935583, 0.11106037942698799, -0.19651138282877523, 0.13188422339782302, 0.5344240136403768, 0.9524184757660803, -0.8871976865535509, 0.17331693356727618, -0.04611658837861343, 0.7088184220282281, 0.4569066035909477, -0.37298426512265714, 0.9745260702135494, -0.1979867789943397, 0.6110740703767608, -0.9252965419908896, -0.6034658645593027, -0.7144341592629035, -0.7686309884784481, 0.36558258547559364, -0.5083103204177208, -0.7917255812033137, 0.6026160872866004, 0.16372197731634675, 0.49995266721365095, -0.6782560026938316, -0.9738418548066714, -0.09409916834943388, 0.576796712366132, 0.7122727569701814, -0.7886653109512771, 0.5973437612094037, 0.36644332017017267, 0.38579106732833957, -0.1293653350496855, -0.0458860927673308, 0.7165023574309386, 0.8093235316897709, -0.19141810517687818, 0.2910377482093329, -0.6714521583202389, -0.15537200578032695, 0.6108122344146707, -0.5218510093608464, -0.8229322786595836, 0.7929233113128218, -0.39931344854070416, -0.3270130532726765, 0.5005957491819306, 0.7046696072074428, 0.789870836331678, -0.11368464578350013, -0.6843439347271643, -0.4462161276842487, 0.888563408183717, -0.7000876110922287, 0.9613698177627474, -0.616273696560901, -0.42168303901141946, 0.3691006238540906, 0.806966267463654, -0.7688189060322368, -0.38116706504958753, 0.7740230474167666, 0.32690594441889687, 0.08536591408180394, 0.5993088328782799, 0.20782280470175918, 0.7957888340798562, -0.19132376138027185, 0.9811298529087591, 0.4064912471184161, -0.21800427244359621, 0.2932766999824925, 0.747918365881149, 0.12280485742364355, 0.3079507727065083, 0.8633745130856838, -0.4241751602793966, -0.893536620175851, 0.9609338762141899, 0.1654490507725468, 0.23169248126970898, -0.5727324137684584, 0.054662680811565334, 0.8037383384113772, -0.807016504023091, -0.04798779924931851, -0.544309165442646, 0.8536296269586461, -0.46099823138220475, 0.7450227561788558, 0.0017893419426835422, -0.36038771941923686, 0.8870902206509843, -0.09703280087957089, -0.767349623149032, -0.6195819321190696, -0.10729086516081598, -0.5053455463869658, -0.5681538935155634, -0.00240559633055204, 0.3925704131278347, -0.24848319618922532, -0.611438558779708, -0.873900887541313, 0.5638938532303226, -0.5864429082053522, 0.11739717325648868, 0.3878118781513906, 0.5645827489030293, -0.7620355477754892, -0.5464223225011295, 0.793028704648737, 0.0791992576554601, -0.742708737513196, 0.45629816993768757, 0.3169387136764861, 0.14257843720701846, 0.47710814563335213, -0.6270525497584538, 0.7738641094206893, -0.38255374893190397, -0.44692133946268164], "fitness": 1e-06, "player_life": 0, "enemy_life": 100, "game_time": 343}
{"weights": [-0.6921435697868603, -0.7011304925443553, -0.849511531251486, 0.5905499177358602, -0.36188780884359195, 0.14874081245083515, 0.5677588509464051, -0.3449821917283509, -0.6489534161375992, -0.4612580583569299, 0.7577848018608209, -0.8668764016939838, -0.9035847353296753, 0.819012097452418, -0.5698996706179029, -0.8875758643615819, 0.8551780717029562, -0.10945305966121222, -0.3116412121891732, 0.6730675275041025, -0.12401978636749655, 0.7611617860958493, 0.12429072831785715, 0.787717172568871, 0.5643411033949837, -0.7088996687103166, -0.8584121854356186, -0.11692419961463618, -0.08443026334267989, 0.9845114853443049, 0.6590103590400993, 0.6278147015105895, -0.5893854743492921, 0.5129385153487211, -0.6563971645854854, -0.39408886556304146, -0.6744021343005049, -0.09029502555202473, -0.5524402534639068, 0.9960026365295527, 0.007473748406182423, -0.9416508409935909, 0.26506454376969457, -0.14805100386281334, 0.7361202076410878, -0.8097838210651356, -0.970441943009978, 0.6434685027566556, -0.034911249065179284, -0.7266971811969973, -0.17091199286711967, 0.9280376689496981, 0.21735592813626403, -0.2744295126195917, -0.45136290773073573, -0.8150600920560176, -0.07888570198313571, 0.6312696748891511, 0.5832538565045224, 0.9369410930945032, -0.6810555555897044, 0.33886309025167183, -0.35126750524480066, 0.9322598633779724, 0.19452419127796183, -0.030557945795323782, -0.28769272647443356, 0.6613339180270887, 0.262701199768687, -0.876865004131874, 0.20494129968266406, 0.10331118182751964, 0.9797401021822116, 0.3223406619063913, -0.8101777293725478, 0.43739940149682255, 0.5335394292133044, 0.04499511355670327, -0.8251298266703857, 0.3283974086240089, -0.4235029008606277, 0.4300365249635485, 0.3485180646181749, -0.005642292291807793, 0.8735958905127577, 0.008704806831744571, 0.6252815809378709, -0.7697676875990045, 0.6002094834453067, -0.5822442571507718, 0.2849189054345902, -0.3756808239804188, 0.6146944398118115, -0.9246385548538969, 0.7245112477060345, -0.9087447374845303, -0.9591935986256708, -0.5206569586817649, 0.9225979230294177, 0.665590849234935, 0.5787491848745949, 0.9330259301005994, -0.3867013772822292, 0.6674646295859827, 0.7794657334411612, -0.39463150446722506, 0.39898618503835603, -0.42798634216220477, -0.9104404426543642, -0.7064803168184093, 0.14761705573379302, 0.06030423052170075, 0.5512253300236774, -0.42889583839717793, 0.5705251528027835, 0.7512328660542897, 0.6904869456840539, 0.9027812737672174, -0.39993880472991283, -0.493573789691339, 0.44282863186867427, -0.6488949593296767, 0.7326503556464612, 0.21776288790623877, 0.9375912796008661, 0.5232266562638468, -0.3647273829310995, -0.12271389015506196, 0.2768608143885687, -0.3849198460163368, 0.2270816368608466, 0.08241779451206077, -0.27857901045426026, -0.03161685670244707, 0.2529465923302907, 0.3558049761891964, 0.2345769192124465, -0.8632986697630318, -0.3767995416348593, 0.17160910582992805, -0.5663181371320498, -0.03278296549059867, 0.2061041713115257, 0.89000494841203, 0.36762639920230256, 0.4102213515583619, -0.9672240092451405, 0.8948082489779983, 0.6662929917072897, -0.7655596806510987, 0.45075641210159123, 0.9355617695660949, 0.7821809175513539, 0.37288521393219565, -0.7800516315466357, -0.5009631043649927, -0.712653606851551, -0.07156849246507568, -0.6583367133195797, -0.6530071625502538, -0.13701149489665343, -0.10202598400761653, -0.18885769513077388, -0.42777618416377616, -0.04137002401413947, 0.8534813461920145, 0.10959437768657398, -0.5663422270144529, 0.15945161175635758, 0.09684094720265968, 0.7067817021152609, -0.6144578539043208, -0.5869348528007687, -0.5853013891732974, -0.2220048725275119, -0.9167072398684846, -0.5057621234755505, 0.1413339438859451, 0.32800001456368033, 0.30352655943108764, -0.4295278571991392, 0.32997134807257833, 0.9020251397440175, 0.32262037472331695, 0.0697389388628098, 0.3973189485016919, 0.30166603804233083, 0.3319062813900202, -0.42279067267733095, 0.7297332472599913, -0.45285835566392163, 0.24493137030479195, 0.854819846287457, -0.341934937457375, -0.5749042337095545, -0.4116010712890139, 0.8140585019807043, -0.3164947713130397, -0.695817815390134, 0.5050826526636176, 0.9246051819060925, 0.5821195203429796, 0.6327439525948997, 0.3476642534441412, -0.5952314117989819, 0.1201459646556704, 0.34833557094090706, -0.9816036087145632, 0.5402991985419636, -0.808870143896226, 0.8398987754491032, -0.00807879805531786, 0.6891307773367874, 0.8136336134941446, 0.31490994778369297, -0.39280897261938286, 0.6130795759553436, -0.839940314034342, -0.14777410887453302, -0.5138953312296557, 0.11149556889394074, -0.8273582072148065, -0.2969193404824799, 0.4772884910559063, -0.892150515308727, 0.09132764580139607, -0.3396852808550044, -0.8118218072292438, 0.7935240007215916, 0.5965605122494648, 0.22907158995374743, -0.8950729636350823, 0.8060823883821597, 0.6313403914701412, -0.3479013010265062, -0.24789023778883856, -0.6635285573389325, -0.7045124147428696, -0.7362667314510964, 0.5927752191526283, -0.20906921342547946, 0.5727433675131537, -0.8907759140556253, -0.8475143859639378, 0.29961845210465143, 0.039956424981124616, 0.5425766723171268, -0.6624779583376306, -0.74352595469387, -0.7808709551049449, -0.7435088415241518, -0.012764978230817015, 0.5465221913574683, -0.12703811131619314, 0.6523893061014832, 0.7595718999316372, 0.9881716326977414, 0.20202019368373092, 0.7969334633098344, -0.8038896252375862, 0.12946815681474488, 0.7128731367699612, 0.6784838784731448, -0.49105701784461386, 0.884399621930408], "fitness": 1e-06, "player_life": 0, "enemy_life": 100, "game_time": 195}
