{"weights": [0.202087452147466, -0.6074392506806502, -0.028994617387254062, 0.4812982023182966, -0.7375798925399283, -0.20718688349955433, 0.8355808629282844, 0.30357749976056814, 0.8058737913965236, 0.8790768706805148, -0.5427702035677885, -0.6482969866329573, -0.3442395806747083, 0.9219903327939454, -0.5864083997947667, -0.43671648138672464, -0.8684125464929878, 0.05246502884288673, -0.40885218208980206, -0.47935458943860826, -0.5596089106994274, 0.9386832633390538, -0.5724881549874491, -0.3493538942772402, 0.6731015965982151, -0.3704486814252577, 0.6736268835237728, -0.5619109448859428, 0.43364211048477064, 0.7331199835294839, 0.9705726574481985, 0.8127076250970185, 0.34492261703174554, -0.7054669319335848, -0.236022117690164, -0.8809010376116735, 0.8245680819186341, 0.33908812108914066, 0.37692958099425955, -0.011851392495863589, 1.0, 0.4153326725564417, -0.9030271634257971, 0.6779281655570631, -0.48638755559873725, -0.01809380674854741, -0.4854196792832195, 0.4826593365934768, 1.0, -0.25428500443589896, 0.20735166581209624, -1.0, 0.2326462369597431, -0.14779867536813307, 0.35179161293469274, -0.9580191588177908, 0.4553256157163375, 1.0, 0.632612718045577, 0.8281053226673635, 0.5119137517127756, -0.11407388785376682, -0.8662881441558832, -0.3068894824896335, -0.6844412234467161, -0.18169865382372907, -0.9124187529874324, 0.05830645521644777, 0.9051309393596709, -0.4031352058552865, 0.8412117921941035, 0.31837936340090905, 1.0, -0.18786768887582223, 0.06308824137407865, 0.0888301761512301, -0.5971903828228856, -1.0, -0.20682837474329885, 0.4121621539033957, 0.3148086437313802, 0.5230578984532628, -0.9977527842379014, 0.20703044276759897, 0.9297321218875291, -0.7164404914290473, 0.28680067819329685, -0.6935628384235148, 0.4790363005935294, 0.8545890797263678, -0.7280871800654631, -0.18317240402822488, -1.0, 0.22533540719200218, -0.48229385685171955, -0.06817191840868017, 0.31042192059826235, -0.15972443798119862, 0.47124381150419403, -1.0, -0.502981355776223, -0.32153218970614533, 0.6828683907845776, 0.019689630465140634, 0.14932673904855864, 0.9908133286780583, -0.9449476393247369, -1.0, -0.2314694823524254, 0.40568692084473834, 0.8068868191695002, -0.9697181191410174, 0.965007337892902, -0.06826813855911647, 0.49762179990724087, 0.4092086328839657, 0.8130783785947746, -0.8818907412653898, 0.09641895703972256, -0.3289728371965234, -0.4090785379409616, -0.8428879137917256, -0.044769616722527134, -1.0, -0.3789902637830966, -0.9039889306140613, -0.8106212572369181, -0.841075558011607, -0.1573180173890939, -0.2879368401940822, 0.491297886403686, 0.15136847391664807, -0.022051427812018465, -0.679916209648324, 0.2427111616094311, -0.04651109750685972, -0.45188976036814654, 0.7756651372481411, 0.2503182592601155, -0.48749885314842994, -0.6121346544827859, 0.965185297996592, -0.2356259290341034, -0.2677656345119347, 0.9287496578440162, -0.8556853252287171, 0.5827224815519414, -0.4229478515278363, 0.7354504439087332, 0.5145925207114506, -0.7099593466563914, 0.4493859513572872, -0.952536649680848, -0.9976323754341632, 0.36428001357826084, 0.06807074700944271, 0.6693427238202831, -0.4867416975644441, 0.9001672098645359, 0.8067124537695898, -0.0005736819011460947, 0.9038831006844772, -0.7002838833149011, -1.0, 0.17825807027598128, -0.5859133644085371, 0.1793387334770854, 0.49131051317396673, 1.0, 0.8262709123147163, 0.01128483695595986, 0.3650880615286399, 0.3616598009476855, -0.6865462096591114, 0.823152061088727, -0.9997231581146501, -0.6259274555350773, 0.49987465751364757, 0.796884492837312, 0.5594521842184378, -0.03469721591291647, 0.1803634077645514, 0.10769803736218875, 0.3996563226530895, 0.7277346370789282, 0.08415869092856762, -0.9874350609213549, -0.23697848027985977, 0.5443506930643192, 0.18071829494478148, -0.7990445738661971, 0.37638628882201763, 0.553360927871352, 0.24622732109705553, 0.0800665377854117, -0.2930590657363404, -0.3842873261086821, -0.05609538988063287, 0.16415172719996105, 0.6989326235939938, -0.28870984410447653, 0.7645167661277167, -0.0031338514504714726, -0.6109772554418732, 0.6536143464696027, -0.25511447434169404, 0.3365077260664033, -0.7140418049977781, -0.80742880694718, -0.0020759448530419944, 0.7360704863968943, -0.6907363682319961, 0.37055089939478164, 0.36283979881269424, 0.10942343469782789, 0.6075241932806885, -0.02392037477002487, 0.08073381732809673, 0.20170315160242253, 0.31927535483956987, 0.4416098727843051, 0.7786433524083232, 0.06667752393156512, 0.7742402386326732, 0.8182177247748084, -0.300114620482004, -0.3255496097154006, 0.06250471990862125, 0.22519901413899837, -0.19688210352188823, 0.3883363746222088, -0.6871682618264834, 0.21023061697403028, -0.8406135107406565, -0.4755015034819209, -0.9768755030741589, 1.0, -0.09802145074081925, 0.42816951383749535, 1.0, -0.7102048703874604, 0.22919356619551365, -0.3823629901973324, 0.5207582916492621, 0.14668072226167067, 0.6473831366246001, -0.7762047419542384, 0.5673668741648855, 0.877406004972083, 1.0, 0.7036573850812151, -0.8215836049139607, -0.19005722773971037, 0.32774782277963294, 1.0, -1.0, 0.5079307349105622, 0.03131698576253582, 0.7686848368815882, -0.44783353527867686, -0.8411524170966176, -0.9701695967863665, 0.43073307112507414, -0.07338430442672259, -0.31186773420036645], "fitness": 46.5793287089582, "player_life": -9.427910383119723, "enemy_life": 3.29713563032848, "game_time": 202.36476616681298}
{"weights": [0.8355053792474173, 0.18667589941824286, -0.130301900289429, 0.13052530060317646, -0.5804399455017899, 0.18435963566091346, 0.5679836862055451, 0.6578184782521177, 0.5450636431805942, 0.7154587363495959, -0.3845073033509505, -0.2505850168277618, 0.5732086074281247, 0.9353288283650126, -0.45706923209984723, -0.16035793845710428, -0.8420377355118278, -0.4435975477821842, 0.8560668460211713, -0.6261026566386231, -0.6903045475733758, 0.5078057602915872, -0.7590556258268686, 0.2330839330890933, -0.25481276644398865, 0.5910182454628944, 0.4871517595732162, -0.6111768750891388, 0.2969465626818094, 0.5586064578893437, 0.3269637277157976, 0.38916913552748333, -0.555884769301829, -1.0, 0.2539921472023013, -0.9715302280140888, 0.864175178745745, 0.5679128230578283, 0.6217669254248791, -0.284826428104452, 1.0, 0.6183971505306921, -0.7421383053305959, 0.22300134923836343, -0.40168983788172585, 0.1346250411773868, 0.1875812031666077, -0.4465892399435513, 0.8950914247928367, -0.19528430870760988, -0.16093330831279445, -0.8120983609684234, 0.3003656340998201, -0.19248467292275884, -0.6314305634000081, -0.8670106566079073, 0.4876541611780482, 0.9809289359381308, 0.3960432579875553, 0.9874858990583331, 1.0, 0.4425835741295217, -0.7117651526661679, -0.5135271255338834, -0.018207552914017072, -0.45865645425339935, -0.6815219202915793, -0.03818124187907729, 0.7674484762829815, -0.9164578405994378, 1.0, -0.34249070643864943, 0.6415099731655247, -0.3499667811359084, 0.2964361697196494, -0.28654001981823074, -0.35291485906242726, -0.30329652391211764, 0.6457012714501905, -0.13169418181099485, 0.960023856308076, 0.7467506498327309, -0.8633917695110624, -0.3767332244388276, 0.9704867110923072, -0.48053484771871635, -0.3891154793852868, -0.915580681739758, 0.4578560001906679, 0.3201430926289086, -0.31231275134214664, -0.4831014652196328, 0.06557103977865164, -0.24869596989299514, -0.45985542096427706, -0.22194331388083455, -0.39936652648001175, -0.621118282427971, 0.11771997470960935, -0.5193188194451106, -0.47145097451001017, 0.49307460965888217, 0.11247532975183858, 0.07059783428265484, -0.006570718911530493, 0.7871710562142571, -0.745707298645444, -0.6254618981223143, -0.38802744673772926, 0.6188426122517012, 0.9136095550766227, -0.7317787074348808, 1.0, 0.21031777344839053, 0.8500096872710055, 0.5034233442813121, -0.29233851780704684, -0.4676865185722999, 0.07019886378144052, -0.15604558455312384, -0.5055002548772581, -0.4413000823051183, -0.4538716314654522, -1.0, -0.6747651343135186, -0.738385931629985, -0.9594017324221158, 0.34935089366093613, 1.0, 0.7412638770187232, 0.42463855198705247, -0.23552411700674003, 0.5819186308497422, -0.5817177706862251, 0.7171318432965625, 0.46428963154713915, -0.3884107663965996, 0.7800326928929655, 0.15686614135457616, -0.7155429813459123, -0.3416660882520348, 0.7000085813618221, -0.3197966078237781, -0.21921994534087608, 0.2701157484379238, -0.7771512988141266, -0.7438408593213295, -1.0, 0.6593808714552207, 0.5812454257419408, 0.36600378093281366, 0.5783503756623635, -0.8349217000123116, -0.9987325931068018, 0.09165526992772077, 0.539032229451919, 0.709003568685271, -0.45179577097704693, 1.0, 0.8029855244389883, -0.12639273599068857, 0.7642115599188348, -0.9002620968400796, -0.5306105495217986, 0.2802337996967653, -0.1168134684501605, 0.5216959336517021, 0.9317926565110867, 0.8666001431964739, -0.5632852627848106, -0.20120279385111806, -0.5067896116738082, -0.3370450210018023, -0.35079527580199904, 0.299914996018927, -1.0, 0.5775831720286209, -0.5024076929117621, 0.8477712156109433, 0.24224746649044604, -0.7627023659077535, 0.20120439714580313, -0.40894159201321273, 0.8548550515531461, 1.0, 0.4876420370327995, -0.6527954664764188, -0.06349963737082578, 0.36720402359135973, 0.6938337054947137, -0.7353381947217936, -0.2947666516062816, 0.049296165477725445, 0.800560175290888, 1.0, -1.0, -0.48185538503791725, -0.8320131724215589, 0.15448629255904733, 0.8807957245484084, 0.7557893996209137, 0.23949981574318124, 0.7022862712797464, -0.25847943153489394, 0.9095759482969957, -0.2669344122721271, 0.6623473605750666, -0.8019624725606131, -0.8180021483286384, -0.14955469591290013, 0.3392772072898267, -0.6910093504787269, 0.6432061163503062, 0.9779256193683197, 0.2256067871736446, 0.827864823383025, 0.2841739851281272, 0.29731382410048657, -0.09035428498721496, 0.09980093548528443, 0.18653717295300543, 0.9258326284246361, 0.16026930293204456, 0.8607983810572163, 0.6044265057391556, 0.4050648514908565, -0.8371945331655162, 0.14103134406477394, 0.7567777096278705, -0.6861156957237846, -0.0331136378508782, -0.8243848649412766, -1.0, -0.7655541041556181, -0.4822013554413773, -0.9797338747594688, 0.9997317252107843, -0.33469086358931666, -0.018926447377099476, 0.8653516194748051, -0.17805932497619287, 0.4765554742949078, -0.3089075659033237, 0.8937545866483181, 0.32764346700150593, 0.14305914048413648, -0.9944178988967123, 0.4619889122506803, 0.9428403595227092, 0.9716951015007448, 0.5869256238225076, -0.5894293168170284, -0.7565750493360397, 0.21026769274166207, 0.2962003402489761, -0.9101149648992034, 0.3389361869480168, 0.13499771179874215, 0.6456913906158115, 0.3293322290711239, -0.5174531492515532, -1.0, 1.0, 0.01699864162490887, -0.6848248989049734], "fitness": 33.22784174040599, "player_life": -4.772767734408664, "enemy_life": 3.0741759643274804, "game_time": 171.51680065029132}
{"weights": [0.6263733815179297, -0.2934940812644268, -0.21549487122881955, 0.2491978110946223, 0.12382952995631916, 0.14800376278932162, 0.39415594970585055, 0.7449213363007402, 0.5645179375557999, 0.759773935105339, -0.4717392373360743, -0.20719125984533104, 0.14971387048360013, 0.9675267640523137, -0.4102034789837773, -0.9508844941377064, -0.9066926703186433, -0.09514647704567372, -0.6936030302245176, -0.26175636477519143, -0.40876813118705496, 0.6589390048395835, -0.4567576715127768, -0.3648771583202981, 0.14251168458500657, -0.17898649694239233, 0.6333599908661872, -0.8375331027507755, 0.5889126340055078, 1.0, 0.9108947186489202, 0.9257095218977924, -0.16124884809672674, -0.5921370719542771, 0.2935746016709555, -0.7783402062739236, 0.7322003930800589, 0.2409827782363746, 0.6371714559698523, 0.03712121231581607, 0.6675112089905276, 0.5483707567045333, -0.99112191749911, -0.06507692763623084, -0.3977317969426381, 0.054417574349919784, -0.907937765589211, 0.5088737718456071, 0.44629851852333696, -0.5320813049800498, -0.29755621803730714, -0.6925645002154808, -0.032247778835403945, -0.5000058820274559, 0.09919617749829887, -0.8974250069765017, 0.7027068852373877, 0.47796306222546403, 0.961299286598992, 1.0, 0.6842874704611766, 0.7958386873795937, -1.0, -0.2729038332818933, 0.3328184687692666, -0.26233080672323333, -0.04223615525716096, 0.40032588455372137, 0.4403807944085455, -0.12058846716296684, 0.7797029285322092, 0.5827520488994594, 0.9025599335935894, -0.36872797014801245, 0.5951236096355754, -0.24154560471556755, -0.7440950993707738, -0.8897958043051337, -0.6074704958995587, -0.16071913960464515, 0.29941031288475695, 0.3926549997684468, -0.21476939502582698, 0.14698986439241113, 1.0, -0.607067457567941, -0.38224210648428636, -0.7145652255916618, 0.44621793959662776, 0.7632621364461598, 0.39244641770137373, 0.10012069719644666, -1.0, 0.1399572021615678, -0.29368653091681707, 0.09482303279377745, -0.7544494146075509, -0.4413682788647762, -0.44485293851226954, -0.47770466760586416, -0.45644708812822077, 0.12114794296287498, 0.28344240638531026, -0.5578962342485813, 0.43145204849933366, 0.5458316226937084, -1.0, -0.7630268412516761, 0.09430090645455771, 0.7421854802153753, 0.6178207087280118, -0.9153931815946221, 0.7876550575605239, 0.9574156107482674, 0.24994013802609163, 0.19468009546358406, -0.3259485585161497, -0.05832494855838624, 0.3583111495026669, 0.16760437334522915, -0.13639888460064004, -0.9156693348198611, -0.6991409172449969, -1.0, -0.6179386520804439, -0.7955387988621989, -1.0, 0.2538054489063535, 0.35191009256863237, 0.6159414925435222, 0.22445613502780115, -0.583849246488022, 0.08591993976350004, -0.170144480707343, 0.48308260029030625, 0.329540074809702, -0.5744473804289383, 0.8246763256900946, -0.6505302108700253, -0.5183344227363942, -1.0, 0.5705601519513007, -0.26215027816240527, -0.33248075448112324, 0.7070728683701346, -0.6834314054513495, -0.5038580214424248, -0.4536218072709168, 0.44775006627046837, 0.33771212736450773, -0.4067807106667356, 0.057000759630861195, -1.0, -0.8723192738260981, -0.34218769647345115, -0.0837738284708906, -0.09743086528803588, -0.3377929907088521, 1.0, 1.0, -0.7607383046431355, 0.24860447245099537, -0.7932125124013008, -0.4746331336651674, 0.24624719835127903, -0.7802232467992423, 0.4601798649304098, 0.41058395314946183, 1.0, -0.42828855475681926, 0.07252427881845186, -0.8236215860093451, 0.28367483914612934, -0.04793045211869143, 1.0, -0.6782283371215071, 0.36012380717481285, -0.7477435798136344, 0.8081625196939091, 0.2155775700676023, -1.0, 0.22438562423361333, -0.31534022582962057, 0.7340357516036928, 0.3291665281062872, 0.4296462088160144, -0.7000864146028124, -0.3628237006473371, -0.42110368975478996, 0.8123488013519369, -0.9943210043098836, 0.32984494950839494, 0.07070184635708013, 0.21003423986705072, 0.5657708641913983, -0.8432967020268216, -0.7953197871920111, 0.12909208016635226, 0.10998452327313896, 0.770640327603646, 0.8760582792883881, 0.2214786801866227, 0.8047920353372885, -0.12525718841012645, 0.7519341726765437, -0.15375982709361863, 0.7951939338125263, -0.8052705017408441, -1.0, -0.03355817822293927, 0.3174274168374154, -0.5349965078329789, 0.7111001196438697, 0.2222742999207703, 0.3450778587419254, 0.6668406953187054, 0.04451709899368378, 0.2588393264017307, 0.19830723572899417, 0.8560187831422178, 0.2940438802841488, 0.9229644058233908, -0.6655634027842509, 0.7828202268965121, 0.48345365139795926, 0.11456946821725608, -0.9160313399310402, -0.14755425258110183, 0.548681769289557, -0.8912628811144392, -0.27270374471553704, -0.8858061903747805, 0.21347333049447687, -0.7968378454075806, 0.13106584542552993, -0.8863973393345264, 0.9870711795266673, -0.8335271476927963, -0.018774287147331647, 0.5925844534844162, -0.33106545181517655, -0.543019210341537, -0.4021248907047183, 0.9657680766484333, -0.9372288378192734, 0.3353817857753043, -1.0, 0.362955486886284, 1.0, 1.0, 0.8441102895535665, -0.7928002469367288, 0.2844134482246678, 0.6249481553033551, 1.0, -0.8935353911417897, 0.05256895475168419, 0.37208770115721485, 0.18782521875905758, 0.5263922939150347, -0.8526900753942961, -0.9604697351563604, 1.0, -0.2510371636812508, -0.6223401821948916], "fitness": 38.168623363827535, "player_life": -7.516858299757981, "enemy_life": -1.4575131106459054, "game_time": 206.8662673485468}
{"weights": [0.7436282759388211, -0.32191615219459113, -0.06335638099374458, 0.617795346528878, -0.5590716754405579, 0.1457136711662704, 0.8051585389675502, 0.5143179279738918, 0.576199167218763, 0.773185946918983, -0.4820761711840922, -0.6298155609539962, -0.01698883859776866, 0.8532537474899939, -0.4509505414937017, -0.8168541500994589, -0.7533065142202833, -0.31507904310588175, -0.9176296065094106, -0.6090219802535614, -0.7093827065366984, 1.0, -0.48267882706100596, -0.29989584588543466, 0.7917223978774711, 0.9275151764527299, 0.1227363560549483, -0.5858486058019057, 0.5585990029226908, 0.747420592621404, 0.8329150426677281, 1.0, -0.024461191847887198, -0.5143919922304474, 0.32519118007459896, -1.0, 0.7627923277807094, -0.06854969955134235, 0.7283975240176972, -0.15555095876207745, 0.5431829722165902, 0.8826223407741189, -0.7224506881305118, 0.1852778166201306, -0.606262514817805, 0.5168390725026939, -1.0, 0.3768348807285083, 1.0, -0.3439532854050601, 1.0, -0.6432555775575534, 0.5174014254901514, -0.39655555623020367, 0.07247917221222742, -0.781268910116402, 0.6327137574798526, 0.5767538915846784, 0.8369907407641208, 0.9977874194203923, 0.956786194863143, 0.5802563299208539, -0.8723797990045739, -0.2000037871086343, 0.021900123571814686, -0.44519583542287877, -0.4935523379152121, 0.1216215839101384, 0.5846189682751267, -0.17055466387559323, 0.788730880736741, -0.021243873894601223, 0.5699406028802845, -0.3323181475980724, 0.40362512059384886, -0.5865420466870364, -0.6491763969020683, -0.6739655638889374, -0.08828024504624671, 0.27196566151521184, 0.8238099158973224, 0.7488829598976339, -0.6765101161052757, 0.29738700195987233, 0.8149546653435535, -1.0, -0.3262868571213232, -0.382799889596713, 0.14498592042665934, 1.0, 0.458855424853025, -0.1289856339499918, -0.8337392091206917, 0.8017478259784598, -0.4700280998741269, 0.16864345300915246, 0.5345364492479002, -0.8971732318782771, -0.742817849396462, -0.15493081394177832, -0.1255718867470476, -0.1333055464499071, 0.028563811235720632, -0.234038262840643, 0.5531201410053136, 1.0, -1.0, -0.882959665309988, -0.06813817475240469, 0.4721267674413226, 0.7487414262725274, -1.0, 0.9098514317706736, 1.0, 0.3941078398788232, 0.15693963137381367, 0.5564071281601821, 0.051936780451272174, 0.3259300549007185, -1.0, -0.5870718194482427, -0.7260080965711821, -0.6094350488282148, -1.0, -0.5209701464709323, -1.0, -0.8126101312630942, -0.581033013623423, 0.1595249909927984, -0.3998423196929244, 0.3789237475811394, -0.6862489017014194, 0.302614069270453, -0.2280732031259592, 0.19983198259382304, 0.3715311042480744, -0.734156906687189, 1.0, 0.3270451066938483, -0.6643574796033628, -0.8984238613094166, 0.7353608191610795, -0.18338571305301804, -0.20995306719963414, 0.33343834116163507, -0.6828719106268584, -0.3505702306625378, -0.4267466337708641, 0.7204244304461614, 0.5892766305279269, -0.7046034771861972, 0.2613415087074501, -0.9467521132047931, -0.8370975545127314, -0.35143350609063495, 0.5676677766814794, 0.1959930811911462, -0.22536390183308413, 0.5161385355254755, 0.6820003342205012, -0.515830871971772, 0.13524473920563707, -0.608019959263814, -1.0, 0.003720972994593133, -0.8007006822520213, 0.4816276378531122, 0.8173570951834959, 0.979921386879465, -0.40478876668362235, -0.24550557960092123, -0.8344551795975048, -0.18121459477116184, -0.8701033513768293, 0.7842083474478445, -0.6496474401053802, 0.45271758157010616, -0.3846904918652619, 1.0, 0.05700823027410239, 0.09175404407699331, 0.18798920626726295, -0.12397998150585093, 0.8085023233664899, 0.27032633452664634, 0.2007245380722986, -0.6066580353856375, -0.5200472169505294, -0.6220661430602814, 0.4950541092303049, -0.8220010654141242, 0.1687118267254113, 0.18022279914147254, 0.16272494304572815, -0.09649900316257964, -0.5151280875579967, -0.7410890316809625, -0.6434500192074291, -0.41800434429985983, 0.6184704556428697, -0.14015830955368086, 0.4963461052519779, -0.13824568536356696, -0.09096298173172362, 0.8307191606789801, -0.1548959540102332, 0.8118860257640228, -0.6565255115389108, -0.8900696082574453, 0.2269381880534943, 0.502416197915308, -0.8417092415698996, 0.8225725248451575, 0.6370535694141287, 0.21112554039263423, 0.7666245576888787, 0.25762682926583297, 0.36133951629351496, 0.15996933732339108, 0.00916463616671398, 0.6201241808694176, 1.0, -0.10529909383869909, 0.5499532233770571, 0.47926469882670936, -0.9723153784144364, -0.8714470644268992, -0.5607705412978399, 0.10860034430712401, -0.6515914476661826, -0.5170376847493056, -0.4425112966276159, -1.0, -1.0, 0.11871366773042302, -0.7865102622473943, 1.0, -0.9858617183993394, 0.06648704777477746, 0.4999418313423426, -0.5291624619172315, 0.3067333073692492, -0.36424245616318274, 0.9985172453975492, -1.0, -0.03495362183291956, -1.0, 0.4375882457244366, 1.0, 0.8295583558708902, 0.6237410142357218, -0.7930575234029391, 0.26194486938407563, -0.6695898906903237, 0.818028773197586, -1.0, 0.8739550105130893, 0.5716391959345979, 0.5927157895666426, -0.23854378565717144, -0.9720668409920972, -0.5174898141322934, 1.0, -0.18796259127881404, -0.5510549258549775], "fitness": 22.064356338447272, "player_life": -7.282561501017831, "enemy_life": 3.107316041092872, "game_time": 162.72997532955748}
{"weights": [0.664335925129736, -0.08580341496267152, -0.27737396867816133, 0.6560731949255831, -0.5606183039373357, 0.09195422025333123, 0.5161005334917468, 0.7962792017094087, 0.43521043304212415, 0.5919850192921913, -0.25183285242717324, 0.10595521623962698, 0.701646131411758, 0.8718796487808089, -0.46012873869997006, -0.448243987973698, -0.8087493626819697, -0.2661389891922437, -0.7374024318293582, -0.4961426708745523, -0.04241734830435473, 0.7981437662325062, -0.7195556630505411, 0.2670938426005447, 0.550409074464912, 0.6868125673416551, 0.24617751771397473, -0.43469289290937313, 0.5292173833164572, 0.6203587673373065, 0.5726907616969166, 0.24259212639595598, -0.14270001592327283, -0.9678182009661018, -0.0039635558890835365, -0.9393029039727535, 0.6914504917930692, 0.8164938128920024, 0.5696185320566944, -0.3576207459155084, 0.9644805365479374, 0.47308629216687326, -0.8874095176937397, 0.017458305834835985, -0.4658311038334967, -0.027136386878035934, -0.7375395117050839, 0.30456885829813785, 0.6237364264268653, -0.37318058332478954, -0.008994193275952467, -0.8517080900815548, -0.001826930053647785, -0.2654782910861585, -0.3514395420576183, -1.0, 0.20922198628535368, 0.8546608731429204, 0.7253490924490493, 0.6952912742736224, 1.0, 0.7949452907735868, -1.0, -0.32457995761636577, 0.34099467683617846, -0.1416152094131516, -0.17392171971015863, -0.036513354165919, 0.8152957069523294, -0.8553574233172446, 0.5553952162848264, -0.06061479514054158, 0.3481804373474371, -0.4797707744726412, -0.07761495103671001, 0.24462345211921913, -0.5348391599579579, -0.6323404999307345, -0.6968247735722908, -0.3366047465443872, 0.972163960519355, 1.0, -1.0, -0.18969781156651572, 0.9381238685517113, -0.17918940813838238, -0.16807108880674052, -0.8681339698056642, 0.6136820488854569, 0.7139285282104366, -0.07804526343575532, 0.11482339711507464, -0.09741000487549167, -0.027247376305255505, -0.43006850398932917, -0.06423506136756596, -0.37349727625604123, -0.8102764627910608, 0.13235179575213962, -0.5643863667311093, -0.62596136490276, -0.6839905146984688, 0.3120162991156151, -0.1683487921704264, -0.022783645847257603, 0.9202081807494851, 0.5006973805354638, -1.0, -0.2156975112337688, 0.6160443736480323, 0.9103213939536767, 0.17365810253991892, 0.7966806513889486, 0.41713605782245633, 0.8031816905709099, -0.09103674763325678, -0.2759773198031019, -0.6587967847825952, 0.3480666354789973, -0.23420945501722046, -0.48477190368892875, -1.0, -1.0, -0.972876658528961, -0.6045061619514056, -0.4406551488578158, -1.0, -0.47793226707447284, -0.13753162980057565, -0.3940587639538826, 0.1903060296214498, -0.47636113254456064, 0.4199687765868899, -0.22009388386784287, 0.7842935209273383, 0.4755602595075093, 0.003528907413689386, 1.0, 0.24708231324985544, -0.4575950066261475, -0.8862870356035635, 0.8427139377833108, 0.22454980492879456, -0.24552867392965555, 0.1677961376151385, -0.8685776838602168, 0.49450939100976876, -1.0, 0.5096374579036881, 0.7784851873262916, 0.732622237292706, 0.29255500962690273, -0.6035579283029826, -1.0, -0.11268870141333676, -0.14129962416158304, 0.4617966732352252, 0.10249601130933861, 0.9124034057711441, 0.9316068089941765, -0.33790515146913574, 0.8153787244958909, -0.5909367383299589, -0.5168737784831672, 0.21048071079708996, -0.09953515612752628, 0.2835222831836795, 0.9739016475581487, 0.2214327899618227, -0.4856058866163482, -0.14178269581082312, -1.0, 0.2759243595229925, -0.20610450667372554, 0.9641553052742273, -0.9532016161710207, 0.44790762800883255, -0.35353592421198937, 0.1867788709987344, -0.01961081752870572, -0.822707405940323, -0.009917227242587728, -0.22195318708033626, 0.6960934318401112, 1.0, 0.885204257932549, -1.0, -0.9932166588782887, 0.31898520802235447, 0.6215447160904684, -0.5563210077792391, 0.4338332779625318, 0.18777541790387148, 0.7271156785352639, -0.09564984087004899, -0.7413832617034266, -0.2495849740678085, 0.05133883650611555, -0.07319961089050075, 0.6281051630684613, 0.6346482858642719, 0.8891163648135197, 1.0, -0.06212011697437486, 0.5073112234057184, -0.28604587351620414, 1.0, -1.0, -0.92988112938346, -0.01566143941142084, 0.6831559323275447, -0.8598198864818678, 1.0, -0.18430240413299487, 0.3894873868680866, 0.7964386651716299, 0.3950949119237226, 0.3231823544915464, 0.32740901858260807, -0.015264657636405221, 0.36293231732135245, 0.7525420350846583, 5.3416225301666787e-05, 0.7870759668371916, 0.18766877274833843, -0.21230407517374003, -0.7818275751206305, 0.08727865744248453, 1.0, -0.03499180011063435, -0.0949434754907521, -0.7036390038249841, 0.3537036356400802, -0.6874429720578816, -0.06700046020392486, -0.5842032900730029, 0.984722920620839, -0.44333810175264937, 0.11158409520710971, 0.8257964465277534, -0.8019976413372304, 0.23335662004092916, -0.05224784080406347, 0.9687480756126381, -1.0, 0.05684997686877896, -0.7796255424075881, 0.13815458264590424, 0.7243044230666937, 1.0, 0.8204622682262208, -0.4812447934194003, 0.29743802300043576, 0.23223683998032624, 0.5115638347643388, -1.0, 0.5681219165087105, -0.023626414645356905, 0.5383459450426411, 0.5078969626722887, -0.8824981411761228, -1.0, 0.5228884280291903, -0.01588787138976376, -0.24331586972512276], "fitness": 35.63179150004282, "player_life": -5.690985762665115, "enemy_life": 0.6904867630909806, "game_time": 184.48994928673682}
{"weights": [0.18892092577581138, -0.25763675689781507, -0.08453172782956606, 0.3443319386888964, -0.04208746972510581, 0.17150856228569178, 0.8071688890024158, 0.5017227987220574, 0.5791900003576621, 0.6875618609586811, -0.4078672739352112, -0.31527926833377273, -0.7338274726361739, 0.6552844211807546, -0.44864091685431207, -0.45590497713461764, -0.6315201272700406, -0.11379852642045152, 0.9671416494445496, -0.19851549491159756, -0.9657635721220663, 0.5891575279423388, -0.3494178563731408, -0.42865318386427087, -0.043033950445392516, 0.8549775701207026, 0.7594720403582044, -0.5210025178786284, 0.6847358213706348, 0.08772507408322797, 0.7538920901590358, 0.520724911161164, 0.3003600330666969, -0.5019930898659328, -0.05905650448957839, -0.7823750962003002, 0.8094317520200003, 0.12090839565042451, 0.6256378156714464, -0.23144567504037933, 0.9888601103518178, 0.47386971889103363, -0.8233777432991454, -0.03385832178259038, -0.30810848968279037, 0.13920131226341756, -0.024203475598545687, 0.6433871541000797, 0.7912316387159047, 0.5126992122162359, 0.5169002625998758, -0.941253535709428, -0.24944000754405468, -0.43127226801706314, 0.09989529470926506, -0.9008925939315371, 0.2548068159308911, 0.4713289658460267, 0.8973392655163963, 0.921693246075438, 0.851709277958351, 0.7776289295014911, -0.6974238645782753, -0.32524702109197356, 0.607255349984068, -0.4013143494126121, -0.3275739404346374, 0.5058355323561181, 0.6893770790710672, -0.18261341259623026, 1.0, 0.49063312758591754, 0.3379211606247664, 0.07727725166901206, 0.7325762814763888, -0.15059688148310324, 0.23955274494733725, -0.7390404279668055, -0.17560831387253814, -0.10957305222235139, 0.3802930135922281, 0.5883610078239868, -0.13210082618977795, 0.19643730639243262, 0.8079977815937581, -0.5021213629425734, 0.3437538909834417, -0.9525674508923898, 0.7762763918858593, 0.41635409685821756, 0.28155537769156624, -0.6835402776174571, -0.9722752561777307, 0.09610336989904233, -0.3698155650788063, 0.03617376807305295, -0.2207711027439715, -0.4083370153886882, 0.3330901502778816, 0.20713176747690987, -0.6484280740116134, 0.3229166391935332, 0.4332689527067247, -0.3134802896107711, -1.0, 0.7022307533069037, -0.8607708343925431, -0.8749886074443014, -0.09261876559012125, 0.6756842761294783, 0.8040717768662702, -0.8667528957072763, 1.0, 1.0, 0.8355727663584984, 0.39683077998912974, -0.4369248232958079, -0.03334633897496894, 0.30009501592279963, 0.005052078606025551, -0.36927518076163235, -0.804198481435813, -0.8724855879125473, -0.7597066942583436, -0.5698208197336693, -0.48162737864660377, -0.20156581992726524, 0.34552950299801777, 0.5891369516453325, 0.6641306535561056, 0.25576464736248483, 0.5446654617374667, 0.1568064825278404, -0.8350588372931833, 1.0, 0.09242482640116051, -0.4951553515830153, 1.0, 0.3438954430515446, -0.49957321903869784, -0.7442768480967303, 0.19133457584489472, 0.24744997323117024, -0.128184818861999, 1.0, -1.0, 0.6635072370179734, -0.533430581804772, 0.47123453994573206, 0.4469813845191404, -0.3508347008956043, 0.08404865606186952, -1.0, -0.865801571936964, -0.06581451902943275, 0.6114590165537357, 0.2294330740342671, -0.4634655403728415, 0.7493828937350552, 1.0, -0.9487036423072335, 0.4108991482486186, -0.47826098174470916, -0.33476706585916294, 0.21687551386058856, -0.905616339238221, 0.18733128357091988, 0.7092683933064513, 1.0, -0.2965212082147162, -0.5938028811706622, 0.19641009286635958, 0.29931500997999205, 0.06752215448844953, 0.5462114570008858, -0.5855504652853464, 0.11716978651018983, -0.6438429171599059, 0.5486316667387632, -0.1388961693988425, -1.0, 0.2773090521694499, -0.05998529364091887, 0.6716519048822638, 0.49615761515637163, 0.25448838196899526, -0.6782652429665792, -0.1607045836591613, 0.4944494216214598, 0.5946504120108268, -1.0, 0.5992211706218511, 0.5405872743206386, 1.0, 0.8351071440967419, -0.23064724275587412, -0.1930198753400449, 0.02084012218409695, 0.14264220558104285, 0.07369620394397766, 0.815754934830425, 0.24869452853345397, 0.6139014983629215, -0.27942764612299476, 0.7607971001995082, -0.21481583117506942, 0.936929738957835, -0.6660021855058661, -0.20207535193419204, -0.022727439777576547, 0.4938372473405109, -0.3764508217070441, 0.5005283071030664, 0.273418577051173, 0.6525717424827545, 0.45188464616367, 0.16566515354388417, 0.04445418426735073, -0.7681652197169331, 0.7877505792487319, 0.3838319667168723, 0.8800631772399174, -0.7783123988676117, 1.0, 0.509764474512782, -0.946982614205646, -0.889509163810061, -0.7775054435668924, 1.0, -0.6837083857262183, -0.3293724262241977, -0.6818000515296864, -0.04864316339377775, -0.6477347904627617, -0.4798817548712619, -1.0, 1.0, -0.6446244512322765, 0.1319286634033797, 0.7684892379628094, -0.20349908715334053, -0.4823767554191589, 0.12242879649265073, 1.0, 0.2586478796323039, 0.38496253807647884, -1.0, 0.48612224509893875, 0.40543804210973633, 0.901921896683206, 0.8451446433336258, -1.0, -0.07900344655939642, 0.7475516457230609, 0.8913223743723744, -0.7391951194080657, 0.39324539829967264, 0.40788220407784886, 0.3762785040865032, 0.18818688425572946, -1.0, -0.8479917865198966, 0.9637445197455374, -0.25464123492420926, -0.584052636733336], "fitness": 7.6491064282706915, "player_life": -12.293629309150074, "enemy_life": 15.35898384862245, "game_time": 200.11596978481455}
{"weights": [0.5286323161622255, 0.3012402253844462, 0.06238255943583679, 0.09644304346977711, -0.37108583580511306, 0.26969428436054943, 0.6979980226027549, 0.7839754959226088, 0.46591699452832047, 0.7118447034571009, -0.0983791358628377, -0.36658164157390005, -0.8453213532331394, 0.6790053812776267, -0.3254310408514816, -0.9957144596150208, -0.4303341285902301, 0.10467119433355335, 0.775203956971999, -0.22788875020082455, -0.698551893358437, 0.8087779618065082, -0.6727850184665958, 0.06036436597890729, 0.05186077213166568, 0.8992758754786182, 0.46904772521471827, -0.6717872927498063, 0.8206970053695166, 0.156352458756684, 0.7960456663428779, 0.6721918318320377, 0.25682192527915965, -0.6797858180679834, 0.04331902965953999, -0.9927112930983775, 0.5805598777220576, -0.021797372285155867, 0.5610373651838455, -0.44053104629377404, 0.9001523861233303, 0.4575889601134321, -0.8065019623770273, -0.016812053123203857, -0.45889519450526195, 0.39211775770076707, -0.7037074991122905, 0.2884345815144739, 0.36295223792977815, -0.12940131147960887, -0.24926847404798944, -0.7712881284101456, -0.06219139897873446, -0.6216185018568353, -0.3484983594940048, -1.0, 0.15883077752642186, 0.4326082420842215, 0.7082566147572642, 1.0, 1.0, 0.6520048336139318, -0.6177552673427896, -0.3604966404513509, 0.16676004939888323, -0.2303311867764466, -0.194071101765722, -0.08445924384947409, 0.8447303372886728, -0.33140600272006504, 0.5743521409131319, 0.47441376970066573, 0.4154345830679391, -0.21426588173286615, 0.4168949622676858, 0.3084804557722143, 0.12733368795488184, -0.9522986315575364, -0.6987449237454515, 0.03802873362991366, 1.0, 0.6627599869388354, -0.20417336597420419, 0.0002273872896852991, 0.8858381179448424, -0.40517802019966964, -0.30096286898840263, -0.6560665790742648, 0.5232369676304153, 0.2425744800076957, 0.36643718979564205, 0.26884113946788757, -1.0, -0.2686303448348577, -0.45097913288418157, -0.1321706021700146, -0.6319380887386773, -0.5764110659029293, 0.8147086374843773, -0.46045676410393377, -0.7064332655781814, 0.008312508509905947, 0.007153861382465265, -0.35889956861749067, -0.9838113234208552, 1.0, 0.39530122224626885, -0.9491373276020272, -0.16888689172443494, 0.5164006779162872, 0.8175156870874971, -0.24774688612038187, 0.5733181264650105, 0.8570582027658996, 0.6720569140609538, 0.3115803110472648, -0.29814042672339736, 0.08789095098490304, 0.39705334390846414, -0.4025358468666666, -0.22977473572915946, -0.5731321665629292, 0.08052136381500086, -0.9119587686282987, -0.9180849238167458, -0.562887187097181, -0.9825982430914735, 0.40134521298533543, 0.9669788555612395, 0.4642175516612461, 0.2787165604808105, 0.5321982300222352, 0.4367442106174585, -0.6884765263406312, 0.554269681142071, 0.4020736274968515, -0.32258194822391345, 0.9470868161624226, 0.018736046980634746, -0.5219218336186328, -0.23139458426050036, 0.9039191408868141, -0.1606495034531989, -0.3864930791907306, 0.8071466234036241, -0.5558059600651779, 0.7502579980132243, -0.6011440561913972, 0.27358829147100905, 0.6024582527965645, -0.4346763629679313, 0.27387508484177725, -0.48857945101421285, -0.9740003951579732, -0.11429688632933922, 0.7115756396758408, 0.7048197854589666, -0.3698703624884081, 1.0, 0.6923599603987364, -0.6980802276966658, 0.8757415993472439, -0.8933971224698389, -0.34995746724440696, 0.29729611773042575, -0.9438937911110309, 0.3090117035218752, 0.7276083511108499, 0.057564454062556836, -0.6079430494750899, -0.5578837028861763, -0.9179912435669371, 0.3022592387664679, -0.22417795850273792, 0.7682893841870903, -0.35876886434297794, 0.5176886124350226, -0.6331792895479694, 0.34763072748487894, -0.2994577553908593, -0.19309043679212481, 0.37572104847059223, -0.39629684908353735, 0.9376072139359188, 0.8260914982367012, 0.5346363157848777, -0.9534139011092644, -0.16745838143463604, -0.36688455453765306, 0.3608532767518966, -0.8441859570807723, -0.3821526050610037, 0.08246058538146994, 0.765386111887664, 0.41455695213275295, -0.7042958100480408, -0.5318490678093444, -0.9545508160826092, 0.16432357020990335, 0.8670595607323786, 0.47663434104018054, 0.9026690918349317, 0.6188017127239522, -0.44968703130322485, 0.5319371852460224, -0.21116266658540203, 0.907616468319768, -0.7210972943645773, -1.0, -0.07226331726816243, 0.566514603923109, -0.7366601801965482, 0.7256603067334406, 0.0026240817742428924, 0.4823222746183169, 0.8709276715540459, 0.15762270845487358, 0.43404059259222466, -0.9791729124106947, 0.6097248119706806, -0.1181477779998783, 0.550469281662569, -0.6455829376670741, 0.7537578534230225, 0.6311710893332085, -0.07203844458059047, -0.7151493827360377, -0.21698794591711534, 0.8562146787450965, -0.7137812791290064, -0.37350678759113376, -0.5248739135565591, -1.0, 0.8036189677522017, -0.402680942035596, -1.0, 1.0, -0.9710017600004666, 0.24235313779008472, 1.0, -0.1681389633228792, -0.8053443075173673, -0.23865174956828972, 1.0, -0.7559442892689858, 0.06167396022735905, -0.8158162715883188, 0.3036123285013137, -0.6347367499625541, 0.8304485512824743, 1.0, -0.44555085054369165, -0.07391861273816755, 0.030754845919722995, 0.9323857002065216, -0.9145533531645371, 0.7882167396564834, 0.1968507586290274, 0.39194847196293336, 0.8209087197399179, -0.8197577459455423, -0.5655506467563352, 1.0, 0.019939358554739425, -0.49997343560763835], "fitness": 25.96072660045332, "player_life": -7.6477137615164885, "enemy_life": 2.550040064128286, "game_time": 180.57959344785561}
{"weights": [0.9933902860585555, -0.1867572816140396, -0.4195897006638075, 0.48056072104663944, -0.26927449556395766, -0.3020700644847362, 1.0, 0.16468649725368883, 0.44527101947902603, 0.6719341371689322, -0.9027035912653506, -0.47994275213643567, -0.8386085356757002, 0.8079383062186688, -0.47451824569978474, -1.0, -0.7003090254235556, -0.40997770261446015, 0.3589056540808173, -0.25118714067507714, -0.4335080755365269, 0.9522753892419389, -0.27858541304098733, 0.29164213354814966, 0.4798779852895492, 0.6064303379616226, -0.10599799832469835, -0.6696237396912673, 0.867226738458885, 0.6250712532602717, 1.0, 1.0, -0.2299670840543112, -0.8656029869251142, 0.48712275109857517, -0.5938809913581192, 0.8972746340729991, 0.41571034760997805, 0.8375588231906345, -0.1532256100194764, 0.7093332851106431, 0.3760459770264051, -1.0, 0.18276892920621832, -0.22894714904005425, -0.1880094714903357, -0.7912093741085875, -0.43297887303708904, 0.6465974184888059, -0.13793344584267384, -0.4964177052779572, -0.8182808842728044, -0.2275203745103964, 0.03846124533844425, -0.021566391297621695, -0.9371564173467251, 0.7523072428164701, 0.6381421304816093, 1.0, 0.8943814454725496, 0.9718496335850806, 0.018616177442223825, -1.0, -0.2760016638517404, -0.06824807383859267, -0.1754675949054199, -0.3092662647701858, 0.7079149614106175, 1.0, -1.0, 1.0, -0.410975402508576, 0.9661794033190156, -0.822657239355693, 0.9168385308022435, -0.31238492873342, -0.8400958077246394, -1.0, 1.0, -0.3037524265735785, 1.0, 0.2409575146057986, -0.9651807880513092, -0.5409369421609421, 0.9702982951250844, -0.6515917524997374, 0.06737182027951338, -0.7060562993197209, 0.3282838417747296, 0.49546824438700043, 0.5328424366028939, -0.41577622748218246, -0.9749053337475989, 0.24494784021453314, -0.6030646020447791, 0.09538400477056777, -0.08555049023694303, -0.5202202401070593, 0.721814369665719, -1.0, -0.55738192059381, -0.1453940011953981, 0.1052957702011855, 0.09488478549149967, -0.45034789155533295, 0.9578995516791877, -1.0, -1.0, 0.1319115365354623, 0.3996974453324712, 0.2718467226354173, -0.24504359460304154, 0.550415610579154, 0.2637655303634825, 0.47677737218335603, 0.30179591507725634, 0.7223179068898904, 0.12273820435808377, -0.6215218555669532, -0.5033724463718271, 0.12405247601548647, -0.3262150351609732, 0.20478753976759098, -0.1611511719086915, -0.7604046789430021, -0.47506384693116643, -0.8099341141221561, 0.7568667412086397, 0.2618566620204455, 0.6200005395351914, 0.41174173618410614, -0.12250998865927504, -0.15535976538881258, -0.29186701844387153, 0.35810810035585205, -0.2309480173771579, -0.9979377853400281, 1.0, 0.7890479706855689, 0.22774183043391608, -0.6485488072784158, 0.528277728584563, -0.26429626051421157, -0.3132469278169723, 1.0, -0.6235993868269378, 0.5933153590885722, -0.47882407160743456, 0.4583572096531276, 0.21936417380660436, 0.060690811617725854, 0.3120785235165169, -1.0, -0.8539045476328142, 0.41594744465540157, -0.4655681036196413, 0.19682302615747851, -0.5590025520901188, 0.7154349077995099, 0.2975898147397897, -0.28496163204030045, 0.6898409800272394, -0.9349489681537063, -0.589624699197765, 0.06541524605782267, -1.0, 0.7015296322473388, 0.7097867473447547, 0.7725079460887232, -0.7561343854134248, -0.4405524876564677, -0.26484445587472244, -0.22702341665736356, -0.007995188940125963, 0.6450460943982705, -0.862591980265276, 0.8203710210499082, -0.9330644075753256, 0.2986261299520975, 0.012289296911750958, -0.5457901669324634, -0.3796890846289124, -0.8171088746513251, 0.933825379593328, 0.5749281430023852, 1.0, -0.5176185874678709, -0.541252232202796, -0.23608314100510125, 0.8181783583953035, -1.0, 0.11591272141210845, 0.3999758397189078, 0.6428759196070184, 0.29019455637001623, -0.6043044171008125, -0.27293854108559346, 0.23002359423858595, -0.252532309813532, 0.48636970376241556, 0.21823897929200992, 0.6392429834497868, 0.3389768418168962, 0.3859072558955151, 0.9768899648720526, -0.2507457253858405, 0.929683111592362, -0.7144729289873275, -0.62437065833515, -0.18589002598567286, -0.25248510582560063, -0.2137812767298039, 0.16484192251959934, 0.2692664251272524, 0.45058144018481994, 0.46842499854128994, -0.35504255060986073, 0.40869010313346205, 0.18434079796604913, 0.7222075458295032, 0.04688223431405528, 0.47327862224778283, 0.2941991430791854, 0.5625308240320344, 0.9852179039387768, -0.9855764665923723, -0.6597901666614994, -0.44065310635502064, 0.5652854500970272, -1.0, 0.07923475678608427, -0.7776614803625873, -0.8963330055077872, -0.8645781344779395, -0.4811766785322816, -0.5094118368002595, 1.0, -0.608786517980145, -0.6135737730439202, 0.37129453836561577, -0.8681916013390268, -0.9827134523271037, 0.06829621714641401, 0.7439359514163818, -0.1322628199402761, 0.5196669630472686, -0.5527499976726715, 0.5023852434134423, 0.7258657207343495, 1.0, 0.5999973530836922, -0.6158996633108564, 0.3062998666344963, 0.451498839070427, 0.8919802264060374, -0.6873095783722825, 0.6946769495509454, 0.2124479810957124, 0.05125466055446537, -0.5309881295140247, -0.7608856921515881, -0.635012447438316, 0.6403374836008084, -0.7031056376352942, -0.8299132822129865], "fitness": 27.186784813438035, "player_life": -7.410107582795597, "enemy_life": 4.196023956157777, "game_time": 118.72680477240746}
{"weights": [0.1047469375481199, 0.33033152284902784, 0.7105294939264465, 0.6583931427051569, 0.11064632755442938, -0.04937138902673094, 0.4864425546894504, 0.7024810391892619, 0.7269727937234945, 1.0, 0.3401804486955854, -0.4377527469393361, -0.6381643251168969, 0.8261102003986618, -0.009738246362798436, -1.0, -0.466470438234422, 0.6638243721571526, 0.70777913769423, -0.44053497627592947, -0.41643494136941533, 0.46135569014874683, -0.5996431496242373, -0.520186159518838, 0.2171364582032136, -0.07996649140458761, -0.2130407516355966, -0.7368830570844563, 0.9312763616770119, 0.045009225102860456, 0.9245261694548657, 0.5491172195718479, -0.23484606838683442, -0.4346851697162259, 0.8036563990830776, -0.5537943465589354, 0.4620954001186891, 0.7452178566550743, 0.8459376139804494, -0.21733997236303432, 0.8114153994660503, 0.5997916776218688, -0.6041332742805823, 0.1979810914338824, -0.43397187947897436, 0.42796191245247367, -0.6312258065174485, 0.31149484064426725, 0.8447096955622955, 0.6343752751614469, 0.13814708776836152, -0.7341060868644282, -0.07356201382875574, -0.6311076637103828, -0.21617633254297464, -0.8052113768556329, 0.7377896950893117, 0.16156870221817607, 0.5725201916373317, 0.7951568003428311, 0.6922576773268179, 0.8410095113263409, -0.7450776557647281, -0.3161678646449938, 0.28990907440719405, -0.27659660255143925, -0.04834601675365696, 0.2724063841085331, 0.7597520023730475, -0.22177051581692198, 0.9726295113353567, 0.4627652018539228, 0.3631159911019663, -0.6362450892840796, 0.3679220123204996, -0.18437885568883777, -0.5962551297707466, -0.5500709576547198, 0.13251295396861615, -0.18801323376169635, 0.31735505751053616, 0.13636643834997758, -1.0, 0.2797247592327591, 0.800079871178623, -0.30419541259857596, 0.09944421394557595, -0.5655283062361237, 0.5914167775244343, 0.3843913982395197, -0.017076763645772874, -0.18395154619937226, -0.05708573118599242, -0.1294010373742666, 0.19275586438910822, 0.12690118314654816, -0.5352535238083631, -0.3832563895214745, 0.6987352373457523, -0.7034101512472247, -0.40751051781266373, -0.3125271779680949, 0.23024494334994747, -0.2858441420095322, -1.0, 0.8035762065825303, -1.0, -1.0, 0.27827148157894765, 0.6199849944071749, 0.4167089527886673, -0.8284747465934796, 1.0, 0.755083747804006, 0.486746690630415, 0.4596134910197637, -0.19277476632179028, 0.1224585126269454, 0.48718296788505194, -0.11385703909164932, -0.26663960156774114, -0.6650902607394578, 0.39636714601306194, -1.0, -0.5032169923963247, -0.5776862920373969, -0.2319444784829628, 0.1761883138574294, 0.8115487334555296, -0.022060212017089187, 0.3888966520013508, -1.0, 0.3169719286700824, -0.9526011662581536, 0.8668569520682645, 0.28381086374157644, -0.7237667444492568, 0.831918503609967, 0.028456248529125733, -0.765876553339977, -1.0, 0.7472155856486329, -0.10203744120141606, -0.18400054311268643, 0.9097075006317632, -1.0, 0.9347920301558426, -0.5383186897342978, 0.7997470901189664, 0.5720758308768013, 0.7863257208250403, -1.0, -0.9967742550580381, -1.0, -0.4605398004344235, -0.5211067983467658, 0.5384213521236022, -0.3899257211551708, 0.9224657760638518, 0.9722708579410514, -0.4649409490111012, 0.3593325161267108, -1.0, -0.5671663508090645, 0.1778169803093431, -1.0, 0.6064716116878147, 0.7084218178410326, 0.9957132877778899, -0.5471856834832853, 0.1615254265962185, -0.9016835418541564, 0.4115581780807739, -0.3095231427614512, 0.639929002098012, -0.5812609958405353, 0.013803467033681516, -0.6672391090673571, 0.6044990984170153, 0.25958516422058997, -0.44106249013434995, 0.3190406290278878, -0.45577144520284896, 1.0, 0.8980626184388585, 0.5274463613571931, -0.7706198642053927, -0.5336722353395483, -0.38332643581715803, 0.8577042060013658, -1.0, 0.7018390501350196, -0.10287266891520282, -0.014763519003656689, 0.3866523451763575, 0.13470426541460273, -0.30846888108552495, -0.20828321727202723, -0.06680665638287141, 0.492174365264322, 0.40633994698442216, 0.479557824009371, 0.670695024308937, -0.4088550912812857, 0.9306986788778547, -0.033435096359767505, 0.61268790170708, -0.24329082161678117, -0.8782740920181086, -0.0435855035664805, 0.7289400901898808, -0.13070197235953643, 0.7629412625886636, 0.8006684336341598, 0.8698452902972016, 0.5923355461405259, 0.20771766602306596, 0.044895482772852977, -0.4707684001260708, 0.8405159898969139, 0.3769891091978401, 0.25700515581944583, -0.3557422248445853, 1.0, 0.1784342385032463, 0.038601880451820225, -0.5557564084244762, 0.3217306250692489, 1.0, -0.9405822651386851, -0.2998357186195376, -0.5390491831109423, -0.9688811251170169, 0.07037531054770074, -0.3758528833490145, -0.7406712243811479, 0.7777316059092855, -0.7150605000490521, 0.14906141161492914, 1.0, -0.17785105681418895, -0.9081162431382284, -0.6049668238872336, 0.8831618686053011, -1.0, 0.44423517167441867, -1.0, 0.807947840968093, 0.32131932601892843, 0.8991159918445452, 0.5964532855737288, -0.8902848854630996, -0.09418304714203071, 0.8737812664729685, 0.6439215864908039, -0.9632868178762444, 0.6420625649731654, 0.6075421410624146, 0.17632292960744067, -0.3519800427967482, -0.7209203143817641, -0.7670052315906251, 0.8300366540140266, -0.011582053795881037, -0.5023132354310595], "fitness": 28.905635079477175, "player_life": -6.670006771134723, "enemy_life": 3.4526249034443737, "game_time": 193.42969647260574}
{"weights": [0.16303174253114758, -0.27250133964739426, 0.6912880008861266, 0.5922392815785429, -0.6392184350617609, 0.551612344131191, 0.7317310771699735, 0.7930364308169149, 0.7362993413264087, 0.7084094165959061, -0.2863209355621186, -0.6447339494016775, -0.5629075442563902, 1.0, -0.31173491823640437, -0.8925520827084003, -1.0, 0.06974717489408605, -1.0, -0.38590464032566596, -0.2503827450661055, 0.6208302010528092, -0.6394876831954617, -0.1456481746605537, 0.7717448760706977, -0.22422097189882498, 0.364175244789959, -0.652038438898298, 0.722556452228319, 1.0, 0.35279627002507696, 1.0, -0.44026919127067454, -0.7978661796689616, 0.5952710450079055, 0.19009978041496037, 0.3499433838743804, 0.7084699241928497, 1.0, 0.0667346304364517, 0.844492452000516, 0.49578468665993075, -0.8628280041668897, 0.08971735608702078, -0.8620588796835169, -0.03689404928577633, -0.6392248871183414, -0.1838045312546443, 0.7536448118235786, -0.5690544851906114, 0.7788239456232745, -0.6730898342146865, 0.4351793009845018, -0.17322518451914967, 0.027909762415800204, -1.0, 0.7552975751857134, 0.49496522015527195, 1.0, 0.26718673531228804, 0.5380219521402173, 0.7558569984324124, -0.7356835217373288, -0.527921906072647, 0.09141214483216481, -0.3163879387851103, -0.7720323639204872, -0.06307864238335356, 1.0, -0.7906366131053797, 0.7728131093119951, -0.34086849952589066, 0.7614795487184016, -0.2545373710400843, 0.0442355005192023, -0.6001104914088248, -1.0, -0.8509334720732266, -0.4209044535399836, 0.45699917640767557, 0.9554464683058386, 0.46213832449128345, -0.8446712209064662, 0.2640718456519352, 0.967037666530217, -0.37070560816057496, 0.2199131106461526, -0.37503380224313615, 0.5653180033588255, 1.0, -0.33562361258361784, -0.020833645800878167, -0.5862357169754492, -0.18811212670681943, -0.2051747745847003, -0.008706605252896862, 0.29028471103306364, -1.0, -0.4369480323163469, -0.26223163843941444, -0.7218812776537626, -0.4927626453497177, 0.4597638690127225, 0.30061800325769383, -0.2447185750177129, 0.4951145413083199, -0.8197853981498764, -0.8441950356691865, 0.07270816906022151, 0.7540292243746227, 1.0, -0.8565411561668674, 0.6093458202680829, -0.001769970737924953, 0.726720906153268, 0.21063982043233329, 0.693452144595323, -0.02697780938007603, 0.38682984247950186, -1.0, -0.09947310546838709, -0.7383729040692906, -0.29589660870121215, -0.390242536830508, -0.2850955123897984, -0.5948281113559418, -0.8325294351992272, -0.1688437229251093, 0.7445599966964512, -0.24822279268653671, 0.5430542899883595, -0.1927364173161495, 0.3494468551557976, -0.19642464068688864, 0.7134656522114995, -1.0, 0.4580784088403212, 1.0, 0.9248257074404407, -0.508567915413833, -0.8899468953854908, 0.654296105326415, 0.09146483602910194, -0.16914250967040162, 1.0, -0.002035822275734289, -0.31777026805681063, -0.9403980631624647, 0.6081495028228072, 0.5389802726434212, -0.15849096553175404, -0.15897220198868783, -0.9702159444162056, -0.8896857420074504, 0.4190767470288934, 0.45001886022454074, -0.2764828367425757, -0.7451229509784254, 0.9774600563535656, 0.753192873886669, -0.15344615090510963, 0.5095766727211781, -0.8425116706035148, -0.909889050325893, 0.1652599639527948, -1.0, 0.11337510467354076, 0.8734172973209453, 0.8748820680005203, -0.6608305444985039, -0.19388457594890374, -0.6662182091220912, 0.2535795925217693, -0.02514743202800937, 0.7386710734055354, -1.0, 0.6808632730434581, -0.9053386906963852, -0.31044613822946654, 0.14696432529371936, -1.0, -0.09647480007907024, -0.42807680620304395, 0.28758584837482504, 0.6868600262609081, 1.0, -0.8148821988331421, -0.8452867381066007, 0.4214465370899713, 0.6283316279997866, -0.8916214600091068, 0.46447994895016326, 0.2505758460818686, 0.8852729558691947, 0.1595371186213743, -0.8496020166561972, -0.2949232022045522, -0.7430762089932281, -0.5116150126927841, 0.9181089485800868, 0.5482810481811929, 1.0, -0.048146949731324995, -0.22282849439435598, 0.33460268452580433, -0.26917353940235317, 0.6623585956652001, -0.2289671722186089, -0.9788213806612077, -0.25825361669915414, 0.31178379305163273, -0.5490629286595317, 0.8531330354581005, -0.20415530933768822, 0.37659392026045996, 0.9152764704154093, 0.2869312892978058, 0.44797827763187703, 0.2936704306304616, 0.24452026644488123, 0.3448612934504023, 0.45682471012261827, -0.17112540384129382, 0.7376542968870656, 0.5634467321035799, -0.36349103217939654, -0.8516641748066842, -0.40890689365963195, 0.7258187752323972, -0.9627147856934278, -0.332997998103415, -0.8904129010536347, -0.5258356221253879, -0.5847393855420198, -0.03069285067934377, -0.832539900881621, 0.9510828071292504, -0.39938371244309845, 0.03935532430833527, 0.153224978787815, -0.21531934848938805, -0.48623332222613064, -0.21731115709511917, 0.8474456927095637, -0.9885408393519063, 0.2545901065027256, -0.9750675093453428, 0.15537297357953425, 0.8855947394766804, 0.9172506595549484, 0.4360259295608678, -0.4790529241566741, 0.09123983436496991, -0.37637614949611065, 0.8892491354723697, -1.0, 0.29009346130833663, -0.0003393697467048984, 0.40950904874637645, 0.5596618095484116, -0.48738959206527593, -0.6156929828634576, 0.7189245040371064, -0.06842530013796634, -0.6384282876428855], "fitness": 40.21797061821146, "player_life": -5.984117244978501, "enemy_life": -1.714435984329203, "game_time": 214.91124211621917}
{"weights": [0.6039304330251505, 0.10684008000164696, -0.1932789127771462, 0.6454690232395882, -0.03664202374734543, 0.1534705580868765, 0.3006599242134057, 0.05866591409040409, 0.3235470957289944, 0.76547298274465, -0.5689136325917807, -0.3273329838773425, 0.007576101137107993, 0.6318268524925796, -0.3664803121591212, -1.0, -1.0, -0.281738680823821, -0.5792020660646772, -0.10084436617746217, -0.7172216121347368, 0.4661832668016215, -0.2598405481346599, -0.4364781428486527, 0.31907294889139665, -0.2892066605796684, 0.45526793700517976, -0.7175308543934767, 0.8252751638606309, 1.0, 0.7069326321016766, 1.0, 0.03843317954064124, -0.6011390020238221, 0.48676615553497227, 0.167459230793098, 0.517298253831217, 0.3238485135167496, 0.7117014791315972, 0.1040886706378323, 0.917746329887008, 0.45590876511485584, -1.0, 0.21038989936084201, -0.8293210263883717, -0.07424469097105713, -0.8176473357821914, -0.26269531563882814, 1.0, -0.34659711601416004, -0.7226143982530606, -0.5834792792718744, -0.35726790721463103, -0.4584939950842262, -0.06695549244279159, -0.6563803431134526, 0.7637488343754508, 0.517925803629389, 0.9160039633273058, 0.8161916801747633, 0.7743200764204035, 0.8383452300269084, -1.0, -0.22356028383628312, 0.4226688579481686, -0.5596832912115451, 0.09941699506146745, 0.060794059503434666, 0.49344968845952797, -0.033609067229396494, 0.9573191984857172, 0.4257689872482354, 0.8803968604864191, -0.23820072494979191, 0.7030256265819463, 0.31823296458097294, -0.6825569451288248, -1.0, -0.17961656162997514, -0.10698691142217046, 0.49184597292160676, 0.5295824041297579, -0.7697428493783751, 0.023339484032887256, 1.0, -0.7647273285968763, -0.326759352662496, -0.90425391517033, 0.08072208055690833, 0.9317536196132686, -0.2651741872705805, -0.8374826525549451, -1.0, 0.04946339833988961, -0.28837435321529875, 0.19726038504468613, -0.8462547324709742, -0.638387313296626, -0.5290219760567212, -0.9162978151566019, -0.5011005074243293, 0.2639871737906666, 0.5223080743567473, 0.4257360274957067, -0.020205681030196487, 0.7321348013730268, -1.0, -0.9443290969957718, 0.22253916541675842, 0.9097743774831646, 0.6913158450926951, -0.7691969743809215, 0.7945273293898689, 0.618297421292235, 0.9287422085370387, 0.12679410835667024, 0.2884271873140798, -0.17324380387767394, 0.3792056524212614, 0.033514490199300584, -0.6115093585445971, -0.8664763709739592, 0.1286396874120605, -1.0, -0.5855102533841297, -0.19122901522156982, -0.9583093747100717, -0.34323251810632416, 0.022498229496875563, -0.09375611706130738, 0.24937405481952846, -0.5758311798330218, 0.26176320183216417, -0.3394400611179609, 0.2977706607311841, 0.39765031345096763, -1.0, 0.8965269847847513, -0.4753133327581183, -0.8682655597251449, -1.0, 0.4752139374907066, 0.052549792494662156, -0.34086879799610836, 0.8274907246694185, -0.8486631010970105, -0.5093447772231579, -0.3276363743428765, 0.6440173700725172, 0.19560124211364005, 0.033532323361918054, -0.3465410292300791, -0.6390362701440031, -0.6818104216428396, 0.4228299324116226, -0.3812068541853775, -0.11072890896842444, -0.026110189629329594, 0.4162300935938516, 0.9548410293067093, 0.5146644837342351, 0.3108509493864091, -0.5685861328302007, -0.3854600411216816, 0.29605735975287684, -0.8223638532707496, 0.606223324327636, 0.21173761740908326, 0.6381394925694303, -0.4743692853587509, 0.06556368425525, -0.8991284164398209, 0.2595626418173353, 0.12678519215675035, 1.0, -1.0, 0.2966478867723982, -0.8916717886775122, 0.5783839696436475, 0.11970805444554367, -0.12665434030869566, -0.15341927950672457, -0.39173502471724864, 1.0, 0.24730744862441453, 0.25646063266438834, -0.631019902396795, -0.1687362255190059, -0.4865729253086426, 0.8488124411417698, -1.0, 0.037559488084202064, -0.06762419288270699, 0.1384017550597019, 0.3843727202169368, -0.713049497916588, -0.6157929837055103, -0.04582049673431901, 0.1043091686077039, 0.32796067249616495, 0.8642348901232321, 0.2036286718809667, -0.03357713393956188, -0.7244340732167858, 0.5303395962361506, 0.26150242110208693, 0.5198357331039473, -0.8348018340360706, -0.9644737984018786, -0.04664384032911123, 0.6157505623367846, -0.43461636487081673, 1.0, 0.4108052242783901, 0.3634994843553375, 0.4717158425736952, -0.07321318480211485, -0.13660508113081885, 0.3186244158594669, 0.3406469160361819, 0.4841900399508637, 0.808144742141744, -0.5372940160643541, 1.0, 0.4564048529753453, 0.14662107234348237, -0.9040399317365766, -0.7598447104118139, 1.0, -0.7782895815657207, -0.09136655914478407, -0.8106090882314146, 0.3697147187527456, -0.7748058452184025, 0.03453949893992872, -0.780383455904522, 0.7454593072508304, -0.6518801500182971, 0.27580043440401647, 0.46760570180426986, -0.20431909557566091, 0.02384295096343217, -0.48478054164488205, 0.7732120371272491, -0.9659488981495886, 0.43280097394715045, -0.7972084583966982, 1.0, 1.0, 0.9604399610889427, 1.0, -0.7063305157543004, -0.9321840672519843, 0.7153323469688504, 0.8331666107140482, -0.8555517803473782, 0.262596624880479, 0.38822335945792974, 0.15542750011923134, 0.4556927345181673, -0.8557626823518776, -0.7781559462206465, 1.0, -0.4017338929159629, -0.15287160476649292], "fitness": 27.493222799750612, "player_life": -6.005479952406141, "enemy_life": 1.7794856813887314, "game_time": 176.7955506274355}
{"weights": [0.7851113829128793, 0.2717566887052316, -0.271447679135162, 0.20107593149391098, -0.030074378034278926, -0.30096974131098947, 0.42778783724973274, 0.5049953590588698, 0.3676520833521184, 0.7214580451074998, -0.3928074339867544, -0.12092556592950127, 0.6774036273221309, 0.9625319749739298, -0.5762419546270506, -1.0, -0.8539070660990996, -0.17265230001903753, 0.745969224238119, -0.740578303445197, -0.34572627523255656, 0.5102870916384997, -0.6287147052546915, -0.5110347141211357, -0.10461657758748409, 0.5952528439992982, 0.5728496077272084, -0.4940354705044803, 0.36562522122436614, -0.12869858438712756, 0.3048639472617203, 0.46279308457655977, -0.16491682192532667, -0.7014919844286538, 0.4589742410833204, -0.31202781099057486, 0.4499873465910611, 0.4604072114686766, 0.5755740495273519, -0.017034216883481765, 1.0, 0.8251814579154161, -0.8855834962714858, 0.04095685225718873, -0.4116591829008866, 0.2742998007777905, -1.0, -0.5331295120759381, 0.7894925964412048, 0.3558634210603216, -0.24111357982479326, -0.8104943280599637, 0.09134659256394764, 0.2545172132263445, -0.7288265696800527, -1.0, 0.13500526336334168, 0.6655882174067265, 0.8376132640644062, 0.9160891357288319, 0.9159968015208264, 0.5798819839637079, -0.7325297595291242, -0.32073247459085086, 0.23506989186232866, -0.3997519419646526, -0.1400261323136482, 0.49267217024725923, 0.9718363742663712, -0.9720170734048449, 1.0, 0.20422156234461775, 0.27969914590627976, -0.15579771846320367, 0.46668870172129095, -0.2603683199380553, 0.30323209413291075, -0.6599596351510668, -0.1933322173635821, -0.24659299522535072, 0.3017309462591291, 0.7327057159954846, -1.0, -0.45417710789144783, 0.8939261306242888, -0.5103987698965858, 0.30514294701401085, -0.7175407372745342, 0.1597296322045103, 0.14575456518151259, -0.30276720355048903, -0.2198962505377999, -0.12902254577580613, -0.35845427832438254, -0.4273228440692744, -0.1083954100306239, -0.43208553806096917, -0.44493807741767927, 0.0661420218887893, -0.6804121034228859, -0.5540046389975363, 0.5474723948755967, 0.048659537893867205, -0.3374860626785308, -0.9934801827479891, 0.7294694076079258, -0.889477320781124, -0.5346426069936558, -0.21736755406276248, 0.6302869687841399, 0.8148976539915551, -0.7825127476106253, 0.9829140239056979, 0.8155079729885039, 0.8413393953591006, 0.31096199784333844, -0.41644880967046916, 0.11966874353138182, -0.017984961147578138, 0.061951239524167284, -0.4462688864566326, -0.49970607592812477, -1.0, -1.0, -0.6613503225511486, -0.6339932319007128, -0.2770615543295237, 0.2640573304156457, 0.8647258088778217, 0.5544477770809237, 0.38202353692792435, 0.3515066706019245, 0.49975166504372803, -0.8749590572228301, 0.570525337408853, 0.5930851306703881, -0.29765590856112656, 0.81496032651658, -0.5245489627905369, -0.6058074014315501, -0.18486042283826642, 0.5834448882417498, 0.03854722843456179, -0.6144211360005413, 0.858903507185931, -0.8099593411617683, -0.5894595660490317, -0.6865021338093307, 0.07793511224572047, 0.7274167636537419, -0.4112792346012354, -0.04780774894065956, -0.5289394848144019, -0.8271529442566395, -0.08113791594617792, 0.454163580012658, 0.6990192726076441, -0.3857042359311206, 1.0, 0.8712627501017869, -0.7275180237294123, 0.3744313354179034, -0.8083094014618954, -0.5470957220389381, 0.043965033307634765, -1.0, 0.3717874745022733, 1.0, 0.8547302056698411, -0.30267398181990435, -0.37728542990895364, -0.9770020436731016, -0.2572459480491832, -0.02812108878144734, 0.9286960648375633, -0.982434787637585, 0.5386827573565389, -0.5671788668094002, 0.37603615778146665, 0.2004380056199514, -0.8458725381868445, 0.02089658108634096, -0.1341713369317616, 0.9551583933445738, 0.4732205447606876, 0.4740536799101145, -0.6448919805639344, -1.0, -0.510187720879592, 0.41184723845041704, -0.3295975671563729, -0.46429341159025245, 0.05421044004259701, 0.6338932056555474, 0.8848515867527058, -0.8533699880223535, -0.48390918970350144, -0.6590208069297466, 0.12887779688847917, 0.7374789528255407, 0.7581962513153623, 0.21807723665717044, 0.713386117518395, -0.22221893617744176, 0.9607326043738644, 0.054086033207588285, 0.6647968165398727, -0.8703066183495668, -0.009220328273500722, -0.2177681662008709, 0.6502471233035376, -0.40530271062825624, 0.6304334087401502, 0.8334499508165285, 0.27950608757974693, 0.8577094379815748, -0.08908184785131282, 0.2693628591811291, -1.0, 0.8099440972664639, -0.046627871025566314, 0.9443366743976748, -0.4647077176342081, 0.7765320840023378, 0.5040150386252948, -0.2666311480764744, -1.0, -0.1150851001202525, 0.7945739726810035, -0.6299847373965852, 0.031409325450452774, -0.7185389896406785, -0.8424780012616221, -0.7370957303438458, -0.6727230091383671, -0.795716593914404, 1.0, -0.3323048874330362, 0.13769182274506786, 1.0, -0.2830205941982711, 0.09432218638047882, -0.4191448493844058, 0.8604266091505731, 0.3642472838165882, -0.5464281133421229, -0.9081010846934588, 0.5513924146214808, 0.7779269690887449, 1.0, 0.9344075082703871, -0.46216541792215216, -0.29956421654484233, 0.21386401996328663, 0.41485809978212185, -0.9358519854806717, 0.25764709127668894, 0.13503145943903494, 0.5303039170594765, 0.2540235789140499, -0.6131853596216637, -0.9036774539248682, 1.0, -0.03767583328514973, -0.11915871786087748], "fitness": 28.043824158227014, "player_life": -3.543070636279479, "enemy_life": 2.189110867544649, "game_time": 168.5227307521016}
{"weights": [0.8887927263948628, -0.4554474382173936, 0.22886811958806547, 0.474700421922424, -0.10400603450450868, -0.13564115696159368, 0.576148763652653, 0.6095499746874267, 0.6329867900410119, 0.7088290546262392, -0.5218624040380844, -0.008277526564083981, 0.28323052673116567, 1.0, -0.40921065336549867, -0.649497843362541, -0.9708609158846911, -0.2422096708336801, -0.49520046116686633, -0.501064636716194, -0.3257915472585545, 1.0, -0.9523259779925366, -0.05437603335853669, 0.6492642520472612, -0.005861894947028046, 0.023120049554950242, -0.7590543345860872, 0.6909175938583209, 1.0, 0.4512114004598354, 1.0, -0.24790797917298013, -0.9366229995960053, 0.0348550510087554, 0.20397798985204235, 1.0, 0.7911497870178112, 0.9664855833670345, -0.09288839544319621, 0.847950855851004, 0.42468134350721715, -0.9229267644987033, 0.16330078399379025, -0.6379640148477478, -0.2635303197033313, -0.36316623550566546, -0.6913424483540537, 0.7352738469843392, -0.7296478753079539, 0.8620011512007063, -0.8097665490351604, 0.5624767309370926, -0.13548214883798737, -0.3735419162570005, -0.9484205962991695, 0.5835723983457435, 0.6301657940111451, 1.0, 1.0, 0.9224813512892399, 0.6466130305154006, -1.0, -0.2698225547324606, 0.28370903269380243, -0.3213938195832925, -0.6088810548007351, 0.23617896072054667, 0.8032254197222929, -0.9562375070693593, 0.5924523234405268, -0.37289690742709386, 0.26229867374984817, -0.8844827304661464, 0.24554536214252295, -0.5783426183952848, -0.6849565364923524, -0.8023841223390558, -0.6168764685201641, -0.00021595445386507484, 0.9058629450668868, 0.8614958899139056, -0.9097630909077898, -0.0033410636698200935, 0.9427510012377466, -0.6704894316984048, -0.20606376916635183, -0.4798819968089903, 0.2826666051354312, 0.9064665320399172, 0.0844590609404145, -0.7237222841215009, -0.542201232957521, 0.6067899828010456, -0.5133758733273641, 0.12616914673312996, 0.005621937745537542, -0.5225433041332439, -0.20924798435461983, -0.24609690579411292, -0.7329176353751767, -0.41652476422284784, 0.09464076626453927, -0.29265083980674145, 0.16159846034544, 0.9533323480640719, -1.0, -0.8228013665298488, 0.04711556232622749, 0.5044418142435786, 0.6099407381586918, -0.8910820660944526, 0.4302469752953222, 0.6575979699346581, 0.7454120980872322, 0.21935950831052836, 0.2888470162252301, -1.0, -0.014306458792626875, -0.9627015756371935, -0.39578371420683794, -0.8446336875185165, -0.6716883567042591, -0.9145305045066912, -0.45933566714789714, -0.8366874010104429, -0.9189843086833571, 0.5804469623599366, 0.6238027799056557, -0.03980012563925911, 0.5229284588260554, 0.6969795326033981, 0.36382979303339547, -0.20965443080896323, 0.6319677932630421, 0.46588322825790995, 0.2014850261673104, 1.0, 0.5960106327156647, -0.5585991755909903, -0.657477573723277, 1.0, -0.45281250017105884, -0.18545658156569256, 0.46640740879847664, -0.9091727106085961, -0.4893580927943473, -0.7974682498809915, 0.7338877607860861, 0.6053378792520404, 0.11535332751450406, 0.16794046118586387, -1.0, -0.9649331787058929, 0.5251630991077029, 0.16330915874485352, -0.08872697004340277, -0.45996247090684905, 0.7892075301240125, 0.8118318694238186, -0.423429011385991, 0.15950770625214483, -0.7698972205205834, -0.6471638573095326, -0.056534486931011096, -0.8510148479944717, 0.4352993467184255, 0.5517742386140176, 0.8847684982533692, -0.20524588761362483, -0.25000492291999865, -0.8273895008707577, -0.09733997051296497, 0.1219390652015383, 0.8359188603696404, -1.0, 0.419015640465598, -0.9970754641747968, 0.8182425256060079, 0.2510602541502943, -1.0, 0.29234784189155183, -0.37673662061593505, 0.7320665522936869, 0.655577607424473, 0.8502459810266987, -0.6482720972137681, -0.47489051388235437, 0.22310931673346823, 0.6371307036178282, -0.8825841096688418, -0.002833431949345405, 0.2515325136259818, 0.8531928566731755, 0.30997574069857986, -0.7339193213680055, -0.8617985770712159, 0.2193484141955481, -0.26690835740647456, 0.9974913040536136, 0.5363219767354577, 0.6268419468981712, 0.15962555481941829, -0.24264961026378173, 0.4079693236149874, -0.4619590043579731, 0.6700314377812907, -0.8469910330145098, -0.9870180207362491, -0.1694976256426793, -0.0043654669953856196, -0.8369282608896167, 1.0, 0.43477805378488155, 0.3731204598555672, 0.8990602204400312, 0.45532334736584923, 0.21574393323233992, 0.06605298701863477, -0.17691733533290083, 0.4281663575739735, 0.5962315509647612, 0.24960380289288675, 0.794533430630716, 0.8339412515514155, 0.20388734602184877, -0.9085019251665627, -0.5282046356685041, 0.8021279091544806, -0.9942515588083469, -0.19372413191498955, -0.6322571658272074, 0.4890131656432138, -0.8342802578921615, -0.028469136953460678, -0.3598033498277676, 0.9344461626249609, -0.8813378758965273, -0.37960080957209213, 0.4910276573230123, -0.3808484490908454, -0.4839362422830828, -0.5558275719836849, 0.788285744645336, -0.854000398603393, 0.5169794604532213, -1.0, 0.363196480257285, 0.8880433899796927, 1.0, 0.6653440503511194, -0.5051858802198437, 0.18628532238754675, -0.721067499063552, 1.0, -1.0, 0.4071442055344895, -0.24969376758688538, 0.3662423830413364, -0.2324178585159669, -0.5534359382225125, -1.0, 0.8920809899408207, -0.016773002085506694, -0.41707100861514423], "fitness": 43.69096853152841, "player_life": -5.724235960245373, "enemy_life": -0.27608394786074797, "game_time": 201.8760986422423}
{"weights": [0.7838700474023548, -0.31493768618024576, -0.37293925024853736, 0.462487282896384, 0.17661516433889185, -0.08668622033508933, 0.6312811123365357, 0.054087689986201726, 0.5646350741447101, 0.7728932591386013, -0.2757238532391946, -0.14673879061635114, 0.11784970552316712, 0.8849009686376901, -0.5419662422347662, -0.6502482180839495, -1.0, -0.33192300871923264, -0.5358449248152826, -0.33838246366283525, -0.5779631116188054, 0.8044573342668818, -0.8774504689714394, 0.34543241197875196, 0.1344172616156203, -0.19230454046119613, 0.09663397737566755, -0.573027567340989, 0.8392654594428353, 0.9188625402204339, 0.20078817733308746, 0.8992865433080883, -0.06476654514141822, -0.9665063775690874, -0.15902999924723216, -0.41392237566663337, 0.25271515158080965, 0.8445640371527869, 0.9705600082901189, -0.06675226442379745, 0.7948389986524597, 0.5627989668410364, -0.7404445776437845, 0.23038159269555572, -0.7579110363264906, -0.19635135712896812, -0.21432307527626127, -1.0, 0.7167740795531778, -0.8360971087583993, 0.9975887403697072, -0.69903478706058, 0.8646697163714676, -0.11882509018686241, -0.37563337710158745, -0.8073581752186432, 0.4187475223961616, 0.5027272608570634, 1.0, 0.9956446092331611, 0.9872516728926984, 0.9383837994338259, -0.957818034501773, -0.38520046024547244, -0.07850755738924158, -0.06733335814244007, -0.5103173648874477, 0.3416647242338859, 0.6064635313377362, -0.8544155838142826, 0.4413640751687424, -0.35119907859348914, 0.23058076131049005, -0.5554492392891974, 0.42977901735467094, -0.5796591108179794, -0.5075637607796619, -0.663580987827758, 0.8781399204216833, 0.03239283002558177, 1.0, 0.8959725525584396, -1.0, 0.13566894357915474, 0.9595017298242469, -0.6009951453472113, -0.05317512164103666, -0.4023481954162672, 0.5100199123025568, 0.8422605003895575, 0.1952213683988891, -0.6871186094487687, -0.9032490254793462, 0.516582786182361, -0.4452240628189489, 0.31492983926315127, -0.12583438437651673, -0.11198801990253718, -0.18307666227786307, -1.0, -0.6539085824040175, -0.14031057402480687, 0.5149819361700819, 0.19141667836995313, 0.030194900934529798, 0.6319643516311502, -1.0, -0.9428193266304512, -0.14857835138389588, 0.6439082155282152, 0.2508764381523121, -0.9630951301015979, 0.36472143242357014, 0.6302581988053912, 0.6717429433733099, 0.3646945984190599, 0.31205787667378443, -1.0, -0.819930464669241, -1.0, -0.06829695694359122, -0.30594376891105707, -0.5733036336789322, -0.7819112372450125, -1.0, -0.6519119762941795, -0.8245274999759045, 0.46979873883356243, -0.05957804189848118, 0.09132608277505538, 0.5016194514224767, 0.8291696485901479, 0.44159799868555394, -0.1632949080132848, 0.8005222991034974, -0.3033890582432125, 0.30527908942944537, 1.0, 0.6751752999027569, -0.29070176493341277, -0.8092265358175185, 0.3927409214124544, -0.46402004327197766, -0.1915548536777117, 0.5303046111985305, -0.7990099280819258, -0.3529048007261788, -0.7702747842848218, 0.8724671238284056, 0.14477634518898802, 0.2938144499881282, 0.7956102712497111, -0.10905264349797023, -0.6737951892417878, 0.5990258813667504, 0.5569508145029339, -0.05327337633633153, -0.3163308794168683, 0.8829956196493589, 0.9521073550336574, -0.30460787932424693, 0.29841320863472537, -0.9261110584939797, -0.921792229283108, -0.07942026516489575, -0.9943445470520691, 0.2576356855280042, 1.0, 0.7565053613861298, -0.17686612608795052, -0.24797719321286854, 0.010784827312173173, -0.362123365100543, 0.23047188389475362, 0.9204064143979288, -1.0, 0.6058137990409944, -1.0, 0.972834536322341, -0.05764896511893289, -0.9373363067719467, -0.5067118746333221, -0.24264174899651847, 0.6117771708022669, 0.5217201329756529, 0.975258737872934, -0.6936535440774533, -0.416759692997205, 0.38327861426650295, 0.7385904484526036, -0.5325997705960144, 0.11166267585987003, 0.09504581352768204, 0.7097836813427899, 0.001887718377521802, -0.4432232778083664, -1.0, 0.04827980043630556, -0.11336320231435298, 0.6263726572543912, 0.5617921633940612, 0.43129613927729593, 0.12439210487339172, -0.978164972803458, 0.37060065377041396, -0.658898198387176, 0.4928641192335464, -0.8138110843242035, -0.8798070955323545, -0.03655662800768936, 0.09251343913047841, -0.7040723418409904, 1.0, 0.3191196531300977, 0.27882651661757285, 0.7860508872432257, 0.5981009888800634, 0.17812926981959218, 0.07075362212287914, 0.6991933363925635, 0.45851776633897473, 0.6699885992852717, 0.3536365529299948, 0.6935762448699632, 0.8511838226002064, 0.013697238669538037, -0.7469558767891262, -0.41002356783070804, 0.7126802974700728, -0.991023782249084, 0.25568831323401175, -0.6228674892095524, -0.9772165273037448, -0.7458142830408514, 0.10119848595075828, -0.9707559474637802, 0.8748555303312231, -1.0, -0.4119774790849205, 1.0, -0.20409899293820988, -0.4255426865454511, -0.7185180828609383, 0.8527659400161283, -0.8672180151262651, 0.3732361179657605, -1.0, 0.30367541861740305, 0.6756174919084438, 0.8214983660569262, 0.5026468159564382, -0.48757188521667083, 0.23743451126202325, 0.16112857853301954, 0.9242691224967392, -1.0, 0.39717227151318285, -0.29157658532153663, 0.5797015888293552, -0.2677090449578411, -0.6627701816564548, -1.0, 0.503948560429073, -0.02170908333615021, -0.41715249764269596], "fitness": 28.390199960840853, "player_life": -4.022393987733558, "enemy_life": 2.6043481422465042, "game_time": 166.47286828123188}
{"weights": [0.3542596753271079, -0.09772725973625232, -0.07951102587899722, 0.6938278112290701, -0.13464995048661654, -0.09975907479130863, 0.4464737319360446, -0.11767957866163936, 0.7930940287951793, 0.8680285864822743, -0.241284065996362, -0.35828041374691244, 0.5462110962198506, 1.0, -0.3836533716542068, -0.6753934945248703, -1.0, -0.42052665750682133, -0.6115723831017815, -0.1227156408698637, -0.5199547938835556, 0.8833252703056278, -0.7159013719880609, -0.02574654244506716, 0.2679870326132996, 0.7906249978014098, 0.42511137442424873, -0.7399093193807217, 0.6748271585650881, 0.3196844506302704, 0.6882450076067036, 0.2561129760433551, -0.21496913376623367, -0.8154534874633227, -0.1013031838304836, -1.0, 0.45863311842580307, 1.0, 0.5730211701469382, -0.11803003205988755, 0.8117043602582092, 0.37017001183380455, -0.8363186950769766, 0.3713203933737438, -0.3114291543442047, -0.47123772963680766, -0.6389333536824313, -1.0, 0.9065536733710071, -0.31205418249841466, 0.7629907115571237, -0.9240902784991918, -0.03302765767531482, -0.1916707781578373, -0.36162610578334625, -0.9516899746680827, 0.20984660133157604, 0.33296939948914983, 1.0, 0.9943273430814143, 0.8511495394794588, 0.9037494418074722, -0.7399910029251917, -0.2823137051261704, 0.31742703673257044, -0.37560253551542655, -0.15237159230380554, 0.0933747174796165, 0.21487178321912684, -0.9775209253985295, 0.6673843479688554, 0.20584404198645637, 0.54018419286385, -0.46061291401519183, 0.4666471083885204, -0.3388323693776169, -0.39227061620015613, -0.8952486323250753, 0.8661428608330917, -0.130950213252542, 0.8466018685781077, 0.7510636304678875, -1.0, -0.3742581949968806, 1.0, -0.5044913934004699, -0.22628179309357888, -0.6379897031392071, 0.5073537562349482, 0.6400698668565143, 0.3894285708094187, -0.5870070421113103, -0.9167581511767138, 0.5342627288755231, -0.7292711155972947, -0.06400490569376255, 0.1122874136109617, -0.8673944537176309, -0.09762355750680451, -1.0, -0.6648119865586847, 0.2377723418428356, 0.3658182702443139, 0.020222666918279675, 0.21937877937497305, 0.8654599846629447, -0.6681695158467361, -0.8447823211511797, -0.07132228670023852, 0.7344933987242952, 0.5146100185992395, -0.8116861259479656, 0.6030426836634571, 0.5566927740771379, 0.5009088868550207, 0.08460680364737666, 0.5715987512350732, -1.0, -0.5219568246130231, -1.0, -0.010067516199249504, -0.4371625249316772, -0.882815167450421, -0.7319788498443205, -1.0, -0.7125467460275976, -0.9789790204579003, -0.4381644782280109, 0.10546805672296598, -0.28396566819722224, 0.28903156709267974, 0.12691416157596627, 0.5356492857268469, -0.37850820003071894, 0.8510988393072538, -0.2424653472497173, 0.13364296895632627, 1.0, 0.6191625492893639, -0.8466201086618624, -0.78378873247988, 0.9693590006179197, -0.1236539434236239, -0.000804227697617399, 0.9057439844634871, -0.7787463762990559, -0.6776143367943177, -0.577039069453295, 0.48950002261465386, 0.2553063037984622, -0.04993890358305589, 0.6284131506144925, -0.241517102018929, -0.6959952237349507, 0.06426927092182205, 0.313841094468547, 0.4473721497325311, -0.4540526410273137, 0.8739844126685915, 0.7131625365598273, -0.41817690239780536, 0.5815813600658638, -0.32560800776799464, -1.0, 0.08080068332162366, -0.5663540843574725, 0.5048099693350538, 0.6590616014223326, 0.5080157738316762, -0.6067035069921719, -0.13096231173340256, -0.012736305140317927, -0.3491954964901791, -0.21113648272057628, 0.6826984233554216, -0.9661838625167829, 0.47330430308229254, -0.10030328282833578, 0.7526781995870919, -0.1546033166255438, -0.04143187723996894, -0.5578851408244172, 0.1358484446707665, 0.9464340789747498, 0.9634151555842603, 0.4690023258896621, -0.7790800750000664, -0.46765199126225665, 0.23666361414460063, 0.553551231845063, -0.7921461476674236, -0.1455405079310301, -0.13046424921892097, 0.6546245060579325, 0.09506775259380709, -0.6884880705771466, -0.47499675681227144, -0.044133253126669575, 0.16273126522624834, 0.6977488362245877, 0.7771222768340595, 0.5261085783498521, 0.9459284897127622, -0.1648926601579337, 0.3754438533995979, -0.020445153821958384, 0.6992374306635283, -0.9601502212131576, -0.8052258648467355, -0.3019720452461925, 0.8005749135355964, -0.8164224319988288, 1.0, 0.008455518310901411, 0.3772859477716358, 0.5413435913329097, 0.8156912301063689, 0.18448883252890239, 0.26819647932125923, 0.6407401072514967, 0.7881268727552027, 0.445743511051949, 0.33143143645029594, 0.8253256870875385, 0.3129278130800015, -0.2508695338180019, -0.300239379601977, -0.1529742964437677, 0.9312400282381179, 0.10191308766818627, -0.41183329713840866, -1.0, -0.9001464287542349, -0.9663568812841573, -0.04310196993290319, -0.858738873895383, 0.6641224363737142, -0.6436954228006727, 0.35672311287026903, 1.0, -0.42233247480895536, 0.30282992654117147, -0.6547603378507072, 0.7861667072473517, -1.0, -0.13838226615570176, -0.7380822647331836, 0.4580979168983845, 0.7986943916159442, 1.0, 0.4277288386486525, -0.5990828681857848, -0.8153503042081032, 0.19888309010213095, 0.7784284949680285, -0.81583505272573, 0.6485396609950741, -0.1017980395474464, 0.5480929697240973, 0.6345315485349943, -0.994788673272198, -0.734568364885752, 0.8704562225949476, -0.03356465427598425, -0.7185444322135841], "fitness": 20.514526723104986, "player_life": -7.077165359153938, "enemy_life": 4.052279599350868, "game_time": 174.90207671176302}
{"weights": [0.37572087301480644, -0.21021842900965024, -0.16434796768370902, 0.3812512711339221, -0.7137386555776151, -0.0046888712942148025, 0.8066466083910351, 0.7327592166401494, 0.3317388179545384, 0.8632540551840415, 0.4570288187729715, -0.27504187750971276, -0.13481405929616003, 0.8823157338818147, -0.9438580456986961, -1.0, -0.7807372288987725, -0.31840443768105986, -0.763862875242289, -0.4281682715560381, -0.2823597831367189, 0.915537325304372, -0.666972353653169, -0.41246470561031995, 0.4765411839969272, -0.241833552326654, 0.48848241635940287, -0.29745755553178677, 0.7645307403616595, 0.6386840385011945, 0.4644121565328288, 0.696944481616231, -0.4065643530129602, -0.6489824151232653, 0.17060410207438248, 0.3556444297723679, 0.8075363151737454, 0.48936254047403316, 0.017606696964039437, -0.02992765914821685, 0.9729020455354583, 0.681649345539074, -1.0, -0.1375613699617049, -0.42176726979901774, -0.009454703812954934, -0.2157233557505096, 0.42870066336406465, 0.6987772824925582, -0.6562457517030639, 0.03657669991910925, -0.655017446705036, -0.0384667297688672, -0.5232429233821809, -0.11314153349128286, -0.6355974365852928, 0.7587083807542916, 0.5003474373940108, 0.8436568199757493, 0.9918861091811381, 0.4633723615611457, 0.3252704561483165, -0.8442571718651186, -0.21297192835158213, 0.34177159995813544, -0.6063237244870252, -0.9235056769784028, 0.6494858103361196, 1.0, -1.0, 0.5492323612714952, -0.24343269917892296, 1.0, -0.48393972837868565, -0.32265043231347923, -0.579483794155349, -0.5714011117409687, -0.9059568084460908, -0.7426946298229353, 0.12205484180102252, 0.30410294522424386, 0.40531933238589013, -0.37453249427755736, -0.12030042866810409, 1.0, -0.6317378501315277, -0.08722750208189214, -0.6611705797326748, 0.23062103102795908, 0.6219774772470916, 0.44454443783165537, 0.22043362934142982, -1.0, 1.0, -0.661078604378734, 0.1114103719217659, -0.012585861563080558, -0.633635612439367, 0.6500711409392941, -0.34900246280266256, -0.7683843709300865, -0.35132873917170543, 0.17447979155869134, 0.4492872073554287, 0.5329393971275036, 0.6084417423633709, -1.0, -0.6085749094656109, 0.04575296165970963, 0.767516469832076, 0.7252850876592648, -1.0, 0.6282169066299085, 1.0, 0.5766605989294272, 0.029968396931045665, 0.6160184850363695, -0.9219589310945826, 0.20117610803848845, 0.17688367023344193, -0.32177759373021786, -1.0, -0.5753101901502233, -0.7819304715343864, -0.6697169040752058, 0.1350306739028588, -1.0, 0.4912742238716011, 0.12315462558788905, -0.3742212087460025, 1.0, 0.7641161242665754, 0.08556194352822871, -0.10449177716311142, 0.07175718010780185, 0.5329908619084028, -0.6333308147140531, 0.6298014934765377, 0.5685171522579711, -0.33788178325980683, -0.6929659820032477, 0.5302981744431261, -0.5249254596033887, -0.08849407842991747, 0.8064249457691574, -0.7484575113104363, 0.7625318614088838, -0.5070525389758642, 0.13567783893202257, 0.3974110403478407, -0.26693864634479497, 0.38542583674401626, -0.8055419476219059, -0.9700079782219334, 0.5016088641900474, -0.25138457851787666, -0.6717934385332637, 0.09918094374569829, 0.9646500037852774, 0.9308025021596433, -0.45609657733216397, 0.4255718648771195, -0.5755485284911768, -0.7030242386671749, -0.0828386494655248, -0.6961605615676048, 0.40173030890940165, 0.3633075473430101, 1.0, -0.5787794598539864, 0.09117917295418682, -0.36607160814110884, -0.025932234481282734, -0.7491160185700706, 0.9687500806652162, -0.653776565744604, 0.6532678527919608, -0.5982689968821555, 0.921488338252211, -0.2007230181053307, -1.0, 0.13697505226477047, -0.6812323481694847, 1.0, 0.6012176257595359, 0.6045422648158545, -0.7828532398932254, -0.7334417630367281, 0.1545322868929752, 0.3377907608960734, -0.972636905878631, -0.05657358794741238, 0.575933026057108, 0.5426934451157821, 0.6176669105307004, -0.7256904852132794, -0.8277980343385037, 0.0600732729179638, -0.5853713064058916, 0.7599395908449826, -0.15157743551840178, 0.994523405660402, 0.5111444436479735, 0.10995656672878532, 0.7187977314311612, -0.7564093562675637, 0.6960154945844195, -0.6667972173389648, -0.8420165210175232, -0.14314847147142096, 0.27650281258619, -0.6598976681399664, 0.7364937400160059, 0.20123143318274472, 0.36618039493610777, 0.8004042534861178, 0.28905923508820186, 0.20742132857480097, 0.44586608029545727, 0.8630978032416569, 0.21782881152135664, 0.578260249916854, -0.7483183368731181, 0.7449255237496393, 0.5195430008522358, -0.06597505030999685, -0.9176898084211098, -0.5770081392967681, 0.662791731364202, -0.7658320608653468, -0.14270153946403125, -0.9795918683545211, 0.4501440068146263, -0.8930507618581721, 0.045574554006200474, -0.9024732947733298, 0.9271118528209563, -0.9329918468804217, 0.035048857440208386, 0.6633383861001529, -0.24993691781331384, 0.2841661309858463, -0.6228091831782767, 0.8967412409522768, 0.1763212581241033, 0.3955227182997133, -1.0, 0.5247672031112739, -0.1187827119395849, 0.8695066733404737, 0.9691180326359334, -0.6770279226556226, -0.04167771857479036, -0.439658494846946, 1.0, -0.5754729728246886, 0.7993670510168966, -0.023111330799737623, 0.40358173083136883, -0.12257619272341885, -0.5506909393833179, -0.9394993242476807, 0.6553826399414286, 0.1267449877565686, -0.249607728768514], "fitness": 25.823314239239284, "player_life": -9.144489195725377, "enemy_life": 2.550040064128286, "game_time": 191.1493320118955}
{"weights": [0.43996552151336443, -0.1268904036467935, -0.3764197312423652, 0.4992043757412177, -0.13326721172140105, -0.10692380567490889, 0.9675508034155162, 0.1155924531098177, 0.9309485296917653, 0.679010173770211, -0.7141676355395927, -0.5436784948004827, -0.7608599668530442, 0.7262469055510885, -0.381307424616381, -0.9322985344311343, -0.806640843360876, -0.4876487954418358, 0.33183157735028485, -0.4075194888420936, -0.49546340473898753, 1.0, -1.0, 0.2399530485285004, 0.41192426275072064, 0.7133591413176721, -0.17835236614295102, -0.5526988698304429, 0.7128773127468506, -0.006357850331129317, 0.07335240921594627, 0.1449532880241174, -0.2933684246450874, -0.3947370457435472, 0.3741079205626827, -0.4827735658892182, 0.26624465424321125, 0.30039104448277776, 0.9781171094792067, 0.020751138765392252, 0.874978613392887, 0.17549999337831668, -0.8531348045855884, 0.10191782579569242, -0.38529281480811745, -0.3215432702044104, -0.15952615307019774, -0.9216142150690019, 0.8931363901403365, -0.2208095515252049, -0.4823869767013158, -0.9702516700977619, -0.2062295112380489, 0.022133035358058883, -0.13863567273441216, -0.7636652311227325, -0.07521580679346282, 0.7688813998380525, 1.0, 0.7182524782298176, 0.8225195913570577, -0.12613735550439853, -1.0, -0.2485947793186896, -0.07902028203054741, -0.1372760793045612, -0.4748325238042482, -0.2632385330429615, 0.4863725998557611, -0.9170257577739196, 0.9762856472623865, -0.07501276295833423, 0.8375614200150088, -0.4543316983446323, 1.0, 0.16707837587958727, 0.4810044926851532, -0.6620045078026848, 0.9455352838420894, -0.15661450528173096, 1.0, 0.295775759254125, -1.0, -0.4148083856474426, 1.0, -0.5968530719563221, -0.3839409562254459, -0.626355093321624, 0.12203134681017258, 0.42457988807381863, 0.35659986925564846, -0.22656056079193468, -0.9817631880088202, 0.4015730951535315, 1.0, 0.04061976346982796, 0.1139727864411976, -0.16789389776738062, 0.7578950038269481, -1.0, -0.6786475658021236, -0.0769907908155297, 0.7020145246461362, 0.1033024047993365, -0.46084135348510047, 0.8027721995550979, -0.839950187503847, -0.7576017353149092, -0.02675407273426214, 0.31420543654958316, 0.2235858575147739, -0.18700974485831082, 0.9272099881371249, 0.11821283085425491, 0.653661010882481, 0.4949445554714328, -0.035038276306405436, -0.2557301616254461, -0.5849897365297286, -0.31075430223485156, 0.08088398483929457, -0.32704001879447514, 0.1048850757528185, -0.33191165154349395, -0.8763381418775547, -0.45015451171365584, -0.25994046471262994, 0.8607661869651225, 0.2538197862696526, 0.7676474521086062, 0.2846299693988372, -0.11039837279232681, -0.328974454219495, -0.28841034673473476, 0.6939516402801393, -0.031669601196441716, -0.42800513492971787, 0.8166112815088633, -0.013692319487874374, 0.41369031924973027, -1.0, 0.5150971013715587, -0.2321084070801513, -0.2887121999155336, 0.692206343854495, -0.8008143992181986, 0.7115300656555665, -0.05705544096102794, 0.4346737529949305, 0.26856490243439207, 0.03141384101213113, 0.46009685011977114, -0.22115107679835017, -0.8423595389862117, 0.3100988022008268, -0.3177540257850301, 0.3816612479648387, -0.2527445143487498, 0.8707502744386075, 0.43161995097279227, 0.7348996889018313, 0.5014408096995132, -0.6091877150001985, -1.0, 0.13204662680266294, -0.6902519175175029, 0.5482114764612356, 0.9941704233624232, 0.4172816911719213, -0.7364334937530258, 0.037597866370891214, -0.17006183236223185, 0.20046341327309242, -0.15208614445847024, 0.8194962985792587, -0.860092436356916, 0.26320295449675224, -0.08066685118461747, 0.19345903802561534, -0.10397523789150037, -0.47777442541403137, -0.5460597531344175, 0.059296425958678456, 0.9694492628144596, 0.6725614565182663, 1.0, -0.6963978350667523, -0.6411585171722956, -0.054644579776470845, 0.4931040169591601, -0.7423775644623939, 0.7813202758036576, 0.5929087006454696, -0.26390180459418644, 0.21118249779245846, -0.4198871999929357, -0.27961417866540084, -0.05411617539376665, -0.11035693278729294, 0.5361879882087977, 0.3290427694565748, 0.4521948210567656, 0.22642526340070612, -0.709826299608486, 0.9818477690725975, -0.2707513269650493, 0.8803139470987662, -1.0, -0.5335134930939305, -0.16211889043659602, 0.5103203667379982, -0.8731264174208888, 0.36384938294024183, 0.8081688691993854, 0.49171167162801055, 0.42968242042567983, -0.26655938964908354, 0.4930635527615741, 0.206780035052419, 0.573538498114404, 0.7969501070500755, 0.8849013944727184, 0.13298844399889476, 0.7453617126211349, 0.176729591021486, -0.09862960468030363, -0.5566783324587549, -0.3097968987311876, 0.7014615542706399, 0.12685672855328076, 0.021049622369145538, -0.8343980701362144, -0.9112099056622874, -1.0, -0.3687428527235481, -0.8433385528806321, 0.7165532472356007, -0.541924496054887, 0.450754696425602, 1.0, -0.8803046865131685, -0.8474984834784038, 0.07159528244636443, 1.0, -0.01737958828242045, -0.052968824960821156, -0.40653902146307036, 0.510959522410525, 0.6953806860666888, 1.0, 0.4664995542825207, -0.7433218521157268, -0.706129767493209, 0.00171695467716243, 0.7487802607018581, -0.6018574186883495, 0.6559310305448619, 0.1712770170269475, 0.6011349747395569, 0.7615440650240217, -0.870345627663563, -0.5971907542464345, 0.4957415685753068, -0.7540612565179569, -0.2600146847920349], "fitness": 33.2949428205567, "player_life": -4.438832365561975, "enemy_life": -1.9745653063789916, "game_time": 206.7108755666947}
{"weights": [0.571908819329787, 0.41464665705171716, -0.20472568629976162, 0.8055515491539953, -0.6034702014769854, -0.1967375057171613, 0.74840857345902, 0.694005522750022, 0.8208813637602224, 0.842899015793623, -0.28951525695648284, -0.6432286447651465, 0.8458759209080609, 0.8848708511568657, 0.3396537621704401, -0.4309347590439992, -0.4579748596519616, -0.29048527402638685, -0.5067498817528348, -0.5749742086948451, -0.3580715778885358, 0.8254938217714707, -0.794149253209967, -0.2376427835581807, 0.5497806100411031, -0.0715153733821352, 0.46444785738452876, -0.7878867906813469, 0.8029819119544652, 0.6622122698234061, 0.2481315113418201, 0.9753136128388458, -0.20482959072609258, -0.5169300910079417, 0.05459561592412571, -0.756460590537521, 0.881053141020418, 0.2908773504259527, 0.08450678765976669, -0.30882931389608875, 0.745141727666688, 0.7654374786574271, -1.0, 0.23731314277790616, -0.8757246146055189, 0.08485437215590061, -0.280381756824734, -0.26245249293451733, 0.8713096532358231, -0.7228282697687681, 0.28896388889752733, -0.5793636103681179, -0.2924476479542143, -0.6465144189447228, 0.34967513326394395, -0.911000411688767, 0.6326581191807751, 0.2623365573150733, 1.0, 0.9387563156394758, 0.5965576776390706, 0.622480949787949, -0.9455234332577849, -0.46816293766848904, 0.36636184132202687, -0.4649988865294774, -0.38291773410153207, 0.19496963098274384, 1.0, -0.8629645161047556, 0.634871785031439, 0.5926482670004972, 0.3341650188592028, -0.21195867007868296, 0.29661534872728273, -0.7075549448710201, -0.936660182259331, -0.9916122852862417, 0.10908389885507519, -0.10007094047016662, 0.9440261815324265, 0.436767134208507, -0.8584289036973238, 0.14384304340749207, 0.9517732355698965, -0.5026577287712234, 0.10193833795631191, -0.8455714999211139, 0.22763260082329925, 0.6406265248416454, 0.5002348740805421, 0.3351358946388209, -0.2701782287915183, 0.6178568231115584, -0.6103605501550655, -0.01706970947877802, -0.3380028615337197, -0.357174943625029, 0.1827088481757558, -0.2778844209480592, -0.27324025064394813, -0.2077800408601999, 0.13661101549065818, -0.8545364967427131, 0.5826865393885512, 0.6479323683377567, -0.795694916819287, -0.8634967313205515, -0.30813872863320413, 0.8595192586919627, 0.6567216236531266, -0.6804082711331221, 0.6677145578605217, 0.9377727294191157, 0.23521256849786099, 0.08566335776086612, 0.5686130788219684, -1.0, 0.19842757113888976, -0.19856713012918176, -0.13523382410071266, -0.4226177833582052, 0.1244621049875958, -0.96459424660401, -0.6238086944420904, -1.0, -1.0, 0.7474477858633767, 0.2647702053611315, -0.22898352622675117, 0.307751563030946, 0.6904584973959398, 0.21529107559688115, -0.06831648966382053, 0.1969516573186422, 0.27077568087578785, -0.44246389780856743, 0.846139147252927, 0.0813623532040994, -0.6196838002193685, -0.9788240320795456, 0.6279145037022229, -0.3960098982807874, -0.1234803977871537, 0.9213544840783483, -0.8952638934037822, -0.48587090110407716, -0.6051812208648926, 0.24043747663254084, 0.5564480997706951, -0.19835598569533341, 0.23366929239966763, -0.8199959330010709, -0.6861815373497071, 0.3120409607809189, 0.6112610862245826, -0.20720886895807505, -0.5676690723801583, 0.5823209585073243, 0.8233370704455921, -0.05404205832391007, 0.5340434720823198, -0.8078394490819045, -0.6948602952082931, -0.0818638649945059, -0.6894982998036392, 0.29143381925815925, 0.5801754323601164, 0.860244763247592, -0.33032322790855045, 0.04738625707348765, -1.0, 0.23983976082455874, -0.7190732147189345, 1.0, -0.43439090391492313, 0.4720186076671259, -0.5920999543085628, 0.8650220052499844, 0.28872108465354845, -1.0, 0.015133605579323445, -0.6733610386434088, 0.6519102486817797, 0.49657099588873777, 0.17440492639564606, -0.6329890886870249, -0.4249049369752229, 0.5187620125435235, 0.9534444811220746, -0.7324008444638945, 0.006533951109692682, 0.5945897812287126, 0.023894014704750166, 0.4760433960653956, -0.5804815624825563, -0.6741286998714938, 0.43057173272155763, 0.152144852954112, 0.2946128939398159, 0.1105185610996873, 0.9354229316068787, -0.04596722545357787, -0.28945363505519384, 0.5776627031897313, -0.10449801986314555, 0.5862291962690537, -0.9100987105520704, -0.9780602312145936, -0.15755373747515414, 0.5901637194000056, -0.6416420025374581, 0.6906287487522135, 0.12570640261217902, 0.1588313071762839, 0.9097134883258284, 0.0964285036625306, -0.07086127342115606, 0.3399954670220014, 0.6587689155041646, -0.16186917606680026, 0.3982685540623194, -0.15908781937044048, 0.8157240899786483, 0.5437280068900371, 0.20250916928012397, -0.8585734982205082, -0.25260413503766227, 0.5075052605261406, -0.9885521982432766, 0.04963836282840961, -0.8679232094885643, 0.2415698772556697, -0.7189990662133843, 0.12861536798511533, -1.0, 0.8756795943325609, -0.41381705582095113, -0.1746980482712031, 0.5853629255509529, -0.35874927423410374, -0.47788663220504457, -0.6104106152610195, 0.5946936742912438, 0.017502564072886112, 0.5781919406933937, -0.755866539997641, 0.130328749087191, 0.6484638212785728, 0.9053242113041807, 0.9058968980038318, -0.3289026722982017, -0.0475632633949378, -0.7941317750609438, 0.5161494251390967, -0.6173203642342583, 0.6488416814360932, -0.21679362222070225, 0.4974279188667595, 0.966724047890746, -0.5909853065546787, -0.6259035237721541, 0.7753252906169852, -0.1483926052295519, -0.6185254155600338], "fitness": 20.638889849473088, "player_life": -8.54264181919732, "enemy_life": 6.564017026040666, "game_time": 153.36303769657746}
