{"weights": [-0.7283153384170533, 0.857059582396482, -0.6148056051495944, 0.9290318059877902, -0.8895075097837302, 0.4616586254664512, 0.6364197821805799, 0.4806612550208013, 1.0, 0.3959378630076163, -0.5383606566021956, -0.37850014882694666, -0.14225318039086807, -0.596954920454982, -0.4422640061410754, 0.6080858426211504, -0.8425142958775622, 0.43113011318621264, 0.5170765692269351, -0.7892951426521542, 0.36311461971907544, -0.4350827371797028, -0.4109975230119398, 0.6782929869750594, 0.8156752404958972, -0.5428602388445553, 1.0, -0.8017442571542334, 0.3880977479846053, -0.8515889343873977, -0.4702839938372673, -1.0, -0.7542569913045772, -0.3061813096341868, 0.3728183010972029, 0.49425409181725644, -0.6651167655611403, 0.9229208958373345, 0.8821886939220537, 0.5364947785792782, -0.0658540900393143, 0.603722292298636, -1.0, 0.39920109336769005, -0.27050529848680815, -0.16553113038557293, 0.8518253067931862, -0.9235049953123852, -0.6333830550030434, 0.5248510067866018, 0.4489854902590014, -0.21957056630429728, -0.13555874450483157, -0.5086103211769196, 0.13469298594684112, -0.9968473805740095, 0.5121724688159591, -0.994943048155425, 0.10715372328362324, -0.6657304001531921, -0.23307305472917522, -0.6357613847443259, 0.06199843031004253, -1.0, -0.057809668781085954, 0.6611182862067866, 0.4278497474137827, 0.2529572068830001, 0.6616524048596613, -0.8111757256271894, -0.662943678938832, 0.06083272263762446, -0.17813585786732888, 0.29087882347197797, -0.6934270272668146, 0.11891204828184343, -0.9433569354006396, 0.575577006106128, -0.02574060405091147, -0.26067085717602817, -1.0, -0.5221532529914977, 0.14166640788784926, -0.3856325357086575, -0.12730593394683215, 0.10475509807433345, -0.41470188289516063, 0.42647862191512054, -0.18344694142725312, -0.04836992943234533, 0.9169510491511477, 1.0, 0.9038431230446888, -0.24906828584350343, 0.8911165421677874, -1.0, 0.4162612031878802, -0.27626990503136456, -0.4516006237442256, 0.809784298607148, 1.0, 0.32181730277527487, -0.23967995098363076, -0.5787938059798559, -0.3614358239750104, -0.7824114859657343, 0.8112775099118129, 0.9564837271303369, 0.8279174381125447, -0.40101296162137073, -0.4694171302688417, -0.9245013298088101, 0.5709924973061014, -0.34737746651647844, -0.9661503578765245, 0.18356601738142342, -0.4157647232613921, 0.18653047121956984, -0.7959880284445696, -0.36131411179628053, 0.3375159547892346, 0.29750543428734183, -0.7717600718313022, -0.21182028652569743, -0.2190825215971561, 0.03874155304325763, 0.18876525154236318, -0.8971943056665579, 0.5485372457303652, -0.9430427529557832, 0.6794507063480819, 0.9317412789453534, 0.0661704024342015, 0.39061199586751516, 1.0, 0.9011600031756174, -0.7133307139738303, 0.8505009118165034, -0.33278948455055096, -0.13207561221807126, -0.4342398884017828, -0.4572349326828653, -0.45316744591957675, -0.4985198141793683, 0.85133572493875, 0.05763106631606146, 0.3982547173199812, 0.07124748167202578, -0.21026661790015005, 0.35050214331055923, 0.5965199021138279, -0.4861660850399961, 0.8220116459197013, -0.18621279666710727, -0.0024060973008316333, -0.3364431037023446, 0.16163639989083145, 0.8048452527382485, -0.18417624249550324, 0.6803600984156464, -0.311360265016904, 0.38221614851994146, -0.7223183437539353, 0.4795062460875883, -0.24996806639993607, 1.0, 0.6164834410091644, 1.0, 0.37733387703795773, -0.35652313012172193, -0.44540955774060026, -0.3886973653423046, 0.9456830792854636, -0.3647932457833679, -0.9059891002881922, -0.312620488929301, -0.647531370641194, 0.8118003670480707, -0.7933653290736471, -0.9784613440465241, -1.0, 0.25873765550253114, -0.7584594340648807, -0.023368476955796136, 0.3559373139558949, -0.10960896551302435, 0.10462551574932642, 0.8982758760707119, 1.0, -0.7739443941923807, 0.47930676162436103, -0.18474520391731192, 0.8534872061791987, 0.8069006870511051, 0.7002174941757171, -0.5988863286984698, 0.4213769198644912, -0.5617804174550157, 0.1107814983725986, 0.21973821474376454, 0.1635529058255552, -0.43369448094578184, -0.42890581121010984, -0.8427040245602587, 0.8402798065365293, 0.1879877946095628, -0.18873336477158814, -0.1728925074991024, -0.1087862098517886, 0.9272813336628943, -0.16152749366956085, -0.7167135936743945, 0.8163499499747038, -0.45398084209022216, 0.17610488263136692, -0.9699542382303834, -0.6680738413677734, -0.8718735022617614, 0.7449848962863717, 0.8165783199406145, -0.0323546137404751, -0.5868419234840038, -0.5995882747860599, 0.020340170073429864, 0.7433051851059065, -0.6136426699750227, -0.3678235120217335, -0.7831824390587973, 0.5754842665344588, -0.34850265186590146, 0.016071564640844638, 0.5926032288960479, 1.0, -1.0, -0.922925366192527, 0.39155345050142143, -0.5586578182568881, 1.0, -0.12495036563926959, -1.0, 0.3133114076377338, 0.09068817745606542, 0.7636279637886196, 0.44947413814726367, -0.50396794022221, -0.5913377913638366, 0.6621053502157132, -0.29029312263266843, -0.4608596921636664, 0.2942524028886717, 0.40826421770520593, -0.7057682008730239, -0.38905736381385947, 0.6316982179791164, 0.7217701025970142, 0.29638546536849125, -0.4016665550217177, 0.8369749141733187, -0.7461398786560149, -0.7012730593452444, 0.1059684072898502, -0.549201074213159, 0.6830996190403578, 0.38101843207825725, 0.05711030635314693], "fitness": 94.02326625757942, "player_life": 90, "enemy_life": 0, "game_time": 145}
{"weights": [0.6480669439314224, 0.14700609467133693, 0.21079021797156602, 0.17488327490350192, -0.2983703766293937, 0.44091430684105226, -0.24561174830792037, -0.5767540531138782, 1.0, 0.8116425022192943, -0.2361146220037026, -0.7694153339214939, 0.44208788897183565, 1.0, -0.6140414186501699, 0.9181484850552338, 0.6310442233222133, -0.41154384850871784, 0.8972024636467238, 0.11907801512665007, 0.592600809041777, 0.6053922310006628, -0.9166902508162196, 0.24995843060491083, -0.7217993784518644, -0.25459492542784246, 0.6605460092839386, 1.0, -0.04444479290563508, 0.14882609073234615, 0.7535590770079332, 0.42134139214034616, 0.8596442290717494, -0.17718242210445947, 0.38533802131195916, -0.6750711851082439, 0.543986734590998, 0.23028195842300758, 0.9232115533213529, -0.5689768014810963, -0.3570707780910352, -0.026763895254039438, 0.8557229282741472, -1.0, 0.8951457331831429, 0.6398714253390732, -0.8250215603064606, 1.0, -0.8473654442661563, -0.9424277491326916, 0.9722599988086944, -0.6126376885129793, -0.26771726048088296, -1.0, 0.10267320686894263, -0.4753211845403543, 0.3727417558888636, 0.603964491444071, -0.6431566665724127, 0.14450380498021728, 0.8706815018844809, 0.7454213747183516, 0.50869915293367, 0.533268726571698, -0.7864589846030468, -0.46392754978110134, -0.44276155932334754, -0.09591232887941345, 0.5966806173043075, -0.5905032410109308, 1.0, 0.6861368067752229, -0.614228784000406, -1.0, 0.3009870263191712, -0.22304036633111368, -0.3613322631657953, 0.41799287710333644, -0.15413218010641697, -0.6415732328793556, 0.827231520085371, -0.14791317674181054, 0.015403944674307696, -0.8902019184023582, -0.392826299959426, 0.9680755134756032, -0.9523858677711529, 0.008907776111171509, -0.6581470550430305, 0.8057369896726592, 0.3744864213154211, 0.6269139182996192, -0.3583113532404058, -0.13646813408507744, 0.9273930690387561, -0.09482105478211655, 1.0, 0.8728347963647862, -0.27301965234706316, -0.23263495072886292, 0.1940585496404055, -0.0666426556692774, -0.6460368473994773, -0.5331177768347406, 0.34976173461800053, 0.510716834390641, -0.015844373359258895, -0.7050338184850089, -0.9430383678171452, -0.6494842027672039, -0.6825208084822683, 0.8111710964843878, 0.5215059377677634, 0.1368412935523975, -1.0, 0.70473304166173, -0.0812113702440948, -0.14500735625370825, -0.7779470881680179, -0.05143914295410171, -0.3863427778699805, -0.2641664530859752, -0.6967142117738591, -0.3821232704988273, 0.38440574281175816, -1.0, -0.6272078833279247, -0.04564283181745299, 1.0, -0.5327721525917072, 0.7407714219537156, 0.4782540000438673, 0.7398088939758185, 0.08244418738417486, 0.2782549216506367, -0.3102123124889011, -0.4086343958862415, 1.0, 0.08024790967025353, -0.23245877357155162, 0.9279550410166784, -0.8506655145287816, 0.7272285164157231, 0.8644436741228446, 0.8513083703844349, 0.08701614097725843, 0.4084598719292428, 0.5548601842378557, 0.2547259203524028, 0.096306857535078, -0.22615279155961251, -0.5720345618873425, 0.7298026572011014, -1.0, -0.6728377328010761, 0.7133454803554359, -0.6199746434008049, 0.9999490546449376, 0.6503217629647083, 0.036750578751659824, 0.018956254486595242, -0.5668035774663566, -0.4990718459554542, 0.6951588830148754, 0.25794613720651965, 0.6419350719715929, -0.6545345201687218, -0.4382991058611712, -0.7420021041990632, -0.8785122729541555, -0.3651979008033892, -0.7759853277498836, -0.7507561083358443, 0.2966557633786179, -0.507852869713586, -0.5612481677040313, -0.7209575341196292, 0.5019452684173074, 0.020761629666472214, 0.30120490034779573, 0.5704754193960523, -0.7583797978419795, 0.4064202624525011, -0.38853719720401564, -0.7561270989405093, 0.14595976187385498, 0.75065231606372, -0.012341874316329354, -0.704420050387725, -0.3730648249564742, 0.9093903238303797, 0.6533919665534187, 0.7968219324815111, 0.5929503404529408, 0.63257059610045, -0.6619037325567966, 0.17660393794187934, 0.8369738699431841, -0.17625728430057686, 0.3019460511297247, 0.25112149543961426, 0.44474214381057287, -0.09096887298636018, -0.4226312671278933, 0.5954034870793239, 0.12635277393986055, -0.7896345600275599, 1.0, -0.6590416773836693, -0.43903018556012446, 0.8329314489608359, -0.46933668898037695, 0.5506740746604482, 0.69925436250934, 0.2937985501419349, 0.6229741273757022, 0.6927925412429498, 0.06737457508130468, 1.0, 0.7250256709855045, -0.3820339884712735, 0.062243709292523625, -0.09288252204676242, -0.0013097627922811217, 0.5815974027420877, -0.545845208359143, -0.060650409157119556, 0.10161448851030919, 0.08948280060370611, 0.8880567163229949, -0.350898831441826, -0.819644109838886, 0.8095787624732771, 0.4962422797016468, -0.8311433937215635, 0.4646085993009658, 0.7786222813795431, -0.22088452689824406, 0.9833466284253487, -0.9663286191634064, 0.3030915764472365, 0.3884427148466881, 0.19015767030909167, -0.6946873100254054, 0.3501666924942463, -0.9094720156246963, 0.7921583965233293, 0.4779452656587287, 0.44128356332636165, 0.5063778099787628, -0.7119955057942393, -0.9097495385192451, -0.4239343667904908, -0.8196062937149675, -0.96640548554801, 0.2601570039453792, 0.7782648829006914, 1.0, 0.4615438670006635, -0.24905053409794176, -0.2686331104490277, -0.8385450866853967, -0.31554104176244246, 0.5351401150293567, -0.32677540162268015], "fitness": 57.16226955283406, "player_life": 0, "enemy_life": 30.0, "game_time": 343}
{"weights": [-0.769544996228045, 0.2671491184074843, -0.8352810449143677, 0.4181062082732463, -0.1771134571001952, -0.8702827387021561, 0.5525934933237855, 0.6552679551368524, -0.051530077302042676, 0.5983689786526278, -0.6102405368519884, 0.03274408246096963, -0.16369764927686983, 0.6471989779667445, 0.16748883194227004, 0.916312537104919, 0.6612812745208703, 1.0, 0.8067748701172659, -0.5634393890988653, 0.9119242713778681, 0.5103504805897559, -1.0, -1.0, -0.5086281591699966, -0.4216051062504641, -0.7902970501574056, -0.5148825270995667, 0.8616880217730046, 0.0027475284106521225, -0.13373668234997976, 0.33019833756057115, 0.8105769016965765, 0.5122087293283655, 0.0066076908962282715, 0.11694534003482093, 0.46952046714254625, 0.43620831525830284, -0.21855426620479979, 0.07538726632092713, 0.576219646626286, -1.0, 0.6065531894346045, 0.9165349113645713, -0.6284245566338671, -0.7227705326190734, -0.9538929511764024, -0.06596296385882039, 0.5569498575903818, -0.6990860427129402, 0.4003476635720675, -0.09133114713646867, 0.13753316591217546, 0.8894036147942818, 0.42349867015876663, -0.6843881373897711, 0.5109554648644535, 0.3398640693549543, -1.0, 0.48340704900654957, -0.06089197959354381, -0.8794166998441006, -0.3374016893390742, -0.9092182253810391, -0.3723017436150838, -0.982167583903097, 0.4807605632493419, -0.04917175033320281, 1.0, -0.9418591543025793, 0.34303226431731887, -0.751053386272523, 0.6484581970578394, -0.7736525079454317, 0.18120856862030177, -0.4761356641066136, 0.4312440065482085, 0.7704311661873058, 0.7712444988306938, -0.7992559843039604, -0.3494300921702884, -0.7834974217717797, 0.9692564171600331, -0.7451703485173344, -0.23287522533051097, -1.0, -0.5988426347317334, -0.055249340164599536, 0.5076878173630446, 1.0, -0.373918141580307, 0.5167690894756267, 0.09216914868780729, 0.8280280435987022, -0.0754023373404156, 0.9298711632985341, 0.837036273072561, -0.18677380127569304, -0.6009584311757881, -0.925683089436926, -0.08690273877800192, -0.5624311182846857, -0.8976488404298197, 0.9846020465100978, -0.7778543999311445, -0.06930851969635887, -0.44055378732152445, 0.9188794401799913, 0.4107205442868941, -1.0, -0.6227695142691024, 0.9026446150109597, -0.40606894697844753, 0.7809361531735135, 0.9003601065451874, -0.39141680975415, 0.052767905358139855, 0.5093024170090834, 0.5601821505585161, -0.6715888509884691, -0.44818038728236, 0.2413036217480733, 0.3017915369209676, 0.8100990665869892, 0.5061589342982236, 0.8439216167978723, 0.6009797787879039, -1.0, 0.07762395661040444, 0.9181013947346071, -0.8380790787018169, -0.8619577308066784, -1.0, 0.14452572640844882, 1.0, -0.29660166825860496, -0.7552873016160304, 0.8937897452308656, -0.8552230791153825, 0.42012490240588907, 1.0, -0.3456769154668638, 0.3451550362121644, 0.9593341204278226, -0.6933157226764675, -0.03069439048860584, -0.532846255939432, -0.1660089259564713, -0.8670662760561809, -0.9660995900995523, -0.5714269690351692, 0.026935808963911206, -0.3517359377206358, 0.48271997150940227, 0.2625052661589249, 0.5888935480516112, -0.9885242407743515, 1.0, -0.960073755712163, 0.8558895620825365, -0.8494131927293674, -0.06509194488324971, -0.41842424024654346, -0.584713313078596, 0.39810372359061846, -0.880124476221926, -0.7345590607984976, -0.6255664833172222, -0.8009198340085725, -0.027485544171841167, -0.8656981902308621, 1.0, 0.6420117457685147, 1.0, -0.6804325437080144, 0.35234378837487285, -0.28243122946760896, 0.21691414716322654, 0.3374341788117351, 0.6730393443160041, -0.064634131160441, 0.47088243301089605, 0.06853663999251858, 0.5660249809693461, -0.9373617252388969, -0.8020225659263975, 1.0, -0.7195516540021165, 0.4066609569936668, 0.11745970714317377, 0.14708050104937795, 0.03590932188069135, -0.6624912413700836, 0.03545960125196336, -0.7784109766481726, 1.0, -0.1069607945256768, -0.7734486914515188, 1.0, -0.2735523827032532, -0.252777418572773, 0.6760977225498003, 0.28282267256638577, 0.2490154669790533, -0.9702082373524419, 0.88412058637548, -0.27538579353524817, 0.10220393449066403, 0.3249542894333374, 0.6354274963502095, -0.1341925317866537, 0.3416903643021229, -0.925134871536245, 0.5238800494327102, 0.8115553268683235, -0.11174949117692348, -0.4660544304798977, -0.8387119051159034, -0.16020342574526217, 0.722273245175285, -0.24851777756990995, 0.10162626484260912, 0.2606372052400922, 0.05357612701387296, 0.150833255618564, 0.8168059727354718, -1.0, 0.5118068063995262, 0.47211924194840066, 0.05383437151825543, 0.5436301536330157, 0.4833111583798794, 0.7135337773896598, 0.2504368191149854, 0.949145355159985, -0.2895674873287678, -0.12637517104772844, 0.5918309189647797, 0.215566782110033, 0.320512432083468, -0.34425812649399534, 0.3067170613381267, -0.38298582514504526, -0.9440222818415537, 0.32690812031874095, 0.2740899777851405, -0.8360909419167257, 0.28659899125405697, -0.24098610453477032, 0.26017815366928626, -0.7998308682565843, -0.6390315319267487, 0.7217153451481888, -0.5149742565392932, -0.9455505077722538, 0.3765740235212343, 0.3234020704926107, -0.5755324955190437, 0.3799485205808256, 0.16844583670950664, 0.7866827197834916, 0.9761126726851597, 0.8812125186145681, 0.4950348985929228, -0.21193372666679605], "fitness": 57.23167900420623, "player_life": 0, "enemy_life": 30.0, "game_time": 320}
{"weights": [0.11174758096045395, 1.0, 0.4317914086135604, -0.6430696774315956, 0.8972240062491876, -0.13486372706744154, 0.08690579886692901, 0.9663413543921994, 0.6943510243187467, -1.0, -0.8322063559928505, -0.4068141529813012, -0.23909886192122914, 0.20884706476758355, -0.23172914943898848, 0.747877267641901, -1.0, -0.2859319558527536, -0.04515297037561919, 0.047431854188786815, -0.7546664904438716, -0.25901335726457186, 1.0, 0.7882265971469844, -1.0, 0.6941116021672331, 0.7392810949361548, -0.5893905380657315, 0.7869453075111119, -0.9389300792448914, -0.04324989685718328, 0.28451251521454646, 1.0, -0.6155258641441165, 0.3161197113727211, 1.0, 0.5395397019575947, 0.7866258884753417, 0.9242231496833582, 0.5621369521771634, -0.2069039784550683, 0.93497748712201, 0.3029367668877049, -0.2249318384558161, 0.840183338093426, -0.16199543237465192, -0.3145377800035198, -0.42846925704913286, -0.22363732919332593, -0.49772237304619943, -0.5454835862544177, 0.46318530577440226, -0.606650811213847, 0.25064090278286627, 0.996479272840385, 0.8805923525695749, 0.7030535326641564, -0.0319180828749665, 0.8970936556482214, -0.1266596855708047, 0.3688519568866311, 0.3671517194775755, -0.3562534282649554, -0.6042344144559213, 0.9834663232600293, 1.0, 0.6657708902497756, 0.9481384420340602, -0.936719820453207, 0.42670814052904604, -0.7487248107154303, 0.6762414667630534, -0.30988893369851, -0.7122769303750017, 0.3673789090721698, -0.09747448074180007, 0.9754311471722391, -0.3712152418443401, -0.3828087854215003, 0.5769030777435875, -0.9134330014149362, -0.2078619722445652, 0.15159971232669658, -0.6963576518476886, 0.7749270946643587, 1.0, -0.13474732821393418, 0.8909346558957976, -0.2619281073358489, -0.4628351401238946, 0.7831446424911235, 0.7354329144269418, 0.49531252030714884, -0.2959504286052033, 0.22349112053000975, -0.9236243825834187, 0.35039587258269067, 0.9533947601551873, 0.03131295577441423, 0.598933815723069, -0.08403593489105038, 0.5131420871248604, 0.040458228814494346, -0.4556530438678461, -0.03521739408371197, 0.18049489616343947, 0.1815998803716293, 0.4306745695949522, 0.4781905971071492, -0.028657293509840948, 0.2177096466678229, -0.7045259960936014, 0.7366160953051474, 0.41758048304798656, 0.33492500774334527, 0.5710201418392812, -0.9770039964827414, 0.4880649408925246, 0.3436996091223946, 0.4600806952115951, -0.7040786590222796, 0.5567003271560027, 0.6708119624825474, -0.7609067758286293, -0.6126568326748321, 0.18290354352517246, 0.15563511492841967, -0.5171189809647581, -0.374285240978464, -0.15362508256961943, -0.6786331365251281, 0.6044692720087734, 0.36773379331661493, 0.5773364904423208, -0.905390100351748, 0.11565077819303071, -0.2435566703459665, 0.8548924815464893, 0.1343942857127285, 1.0, 0.6867549293697053, -0.7448454821353165, 0.7370960890455307, -0.7455160009276609, -0.738822403361075, 0.3878124655202667, 0.5078556049326945, -0.10942520569580522, 0.1972311885065172, -1.0, -0.23861991391737208, -0.5235207358909196, -0.03108036628532415, 0.3148153739241052, 1.0, 0.18748698443853756, 0.48334543910533695, 0.34460948609059083, 0.5129803558183956, 0.13479065566240836, 0.4978744283650887, 0.7500225351719032, -0.813054332980783, -0.5246125326910217, -0.05733296017849632, 0.9816684332528779, 0.3099123970797029, 0.12322513022543183, 1.0, 0.20949345914701173, 0.8649981465591483, -0.7483110936935351, 0.7550456213990291, 0.44603769831267087, 0.19693559626150697, -0.33136572276788234, 1.0, 0.4854990519820954, -0.21423039146292122, 0.2831637129350488, -0.38604780351812007, 0.1495009625970678, 0.029662854171109948, 0.3018897256860119, -0.2274163168822273, 0.7712751222331771, 0.977539859375256, -1.0, 0.5298245270833264, 0.09620014599628152, 0.6598822182323147, -0.2713618510184754, 0.8762496177601486, -0.14816835725045568, -0.920565035588195, -0.9298998876988847, 0.4966114915958125, 0.7208362897462058, 0.07582774080918264, -1.0, -0.3578573010841014, -0.6716202251934371, -0.8493373883342024, -0.003582524282376154, 0.4131574223839634, 0.4509854741317749, 0.09853799087846082, -0.1293304970597562, -0.5925713703271638, -0.7463219231912608, 0.8942183806109063, -0.8476518356045961, -0.5652086514021076, 0.41891630325785034, -0.6679217898501237, 0.4243525631529544, 0.528282445239294, -0.05595452315332122, 0.7633446329217912, 0.11929440842964614, -0.35181748130606155, -0.715206117112478, -0.7397786041837462, -0.2859028744034954, 0.5590551374403888, 0.5975596796304316, -0.13867775103298852, -0.8983459852031016, 0.07311303345738009, 0.5528301201362813, 0.24707130281581371, -0.5853572372258897, 0.14926883139861669, -0.06772972999806742, -0.3645798977184081, -0.9439229353272879, -0.857014744480626, -0.9602376300159492, -0.5236564696087922, -0.4979921245465839, -0.7310433468951292, 1.0, 0.5645894259213253, 0.8197644880280509, -0.8154112634274906, -0.6421750310609137, -0.20804134266540567, 0.529869254990937, -0.9290923071261148, 0.6810965742933954, -1.0, 0.8928578621073116, 0.9546392200773642, 1.0, 1.0, 0.7273453177100525, -0.7141323384098852, 0.6235539502279396, -0.9528188232783544, -0.5260431553586553, 0.5930322516358404, -0.7818711734181818, 0.873627512229559, -0.06817104787700465, -0.3395595715151608], "fitness": 57.23167900420623, "player_life": 0, "enemy_life": 80.0, "game_time": 457}
{"weights": [-0.27153568124447836, 0.9844728951246202, 0.3088005313820549, 0.5563487200436257, -0.8979721542234828, 0.452314462714955, -0.2648268698074071, -0.37709362250633466, 0.21685687743759605, -0.2235553131601145, 0.6997064375335929, -0.8888909886219778, 0.29771249024576885, -0.48082406882929474, -0.5077910036711661, 0.6837423690654159, 0.8780875539627991, 0.09085549821850941, 0.9686715444920657, -0.12698977160984753, 0.2963695692777903, 0.560244219445817, -0.25345702301313106, -0.28826074917878935, 0.701926961673512, -0.9173392513226456, -0.2303594257119222, 0.19851235859002997, 1.0, 0.35534199812919176, -1.0, -0.3971717214973928, 0.5287848183340131, 0.8945921387902789, -0.11111008332061575, -0.3128359092325821, 0.5758409959842337, 0.6319613992225432, 1.0, -0.5812801576687953, -0.15794376545590905, 1.0, 0.5838208492073432, 1.0, -0.7305961745982513, 0.9001769324431899, 0.11312745130910501, -0.5950297601166961, -0.12618808713579346, -0.8966098390608254, 0.2757791454244649, 0.5111800283085456, 0.6659588328133059, -0.18932530365736094, 0.7467343020536203, 0.23625459097653054, 1.0, 0.4449912016064642, 0.7313792573075064, 0.9513245895851716, -0.2825087206428298, 0.3282398393762926, -0.20377593912954833, 0.4415344954866578, -0.9115192671867449, -0.19477173556980934, 0.32690286632305265, 0.1930536840819904, -0.6466857784910577, -0.37100061126263906, -0.29868010200401607, 0.2505262913300973, -0.8554250534314334, -0.3052052714610876, 0.8314898328365639, 0.05043594794683948, -0.730403217339163, -0.6420725544755208, -0.4462358276458613, -0.5593615322384955, 0.19470217443243615, 0.9334063729117663, 1.0, 0.3601553042826644, -0.11369793680839968, -0.4798479879527508, -0.7287928528773006, 0.4723040255826507, 0.7900212680617413, -0.9087977254420911, 0.7193460527102904, 1.0, 0.5850759698310303, -1.0, -0.26015997420856, -0.8695476854631594, 0.25534895284014636, -1.0, -0.012654986598640589, -0.5971371637057848, 0.711235519787335, -0.7833723274257584, 0.7014215309894287, 0.7236991345890827, -0.9604297558507348, -0.8848675044061306, -0.3697734469693688, 1.0, 0.39979227718961025, 0.8789398751413502, 0.08377757556720858, 0.4931956499599614, 0.893450702830712, -0.02165083525512579, 0.8183210622767265, -1.0, 0.8463178812926179, 0.9441931336276962, -0.10715446819770241, -0.34193125773558036, -0.25282829034014465, 0.8596978435358438, 0.5535628256881506, 0.32344751631043434, -0.48012686696917306, -0.43409708414045245, -0.7429598785927477, 0.22528653838775758, 0.625862201911954, -0.10948933974894809, -0.8431813735306473, 0.46108159610150085, -0.43424466677034745, -0.8654029891067552, -0.735515605685018, 0.5358045790603089, -0.09764497303630731, 0.7757545396069387, 0.2907256838688299, 0.45311314422685145, 0.4741246052737439, 0.582474597132469, 0.2409728690763699, 0.9011408575261013, -0.5953338059169593, 0.38830757165297525, 0.2810947714353468, -0.9335765153786938, -1.0, -0.23044308149013748, -0.233435782804227, -0.06298298590220977, -0.21858416584056123, 0.16980999786706796, 0.7677436672435862, 0.9634389076401888, -0.15388488821978388, 0.2186922645824174, -0.10636301796860775, 0.6865546742438385, 1.0, -0.9005778857162637, -0.5778625689589125, -1.0, 0.419795882938799, -0.316060855852425, 0.12765442259112628, -1.0, 0.7216937924153759, -0.25689783615087364, 0.07393248665279403, 1.0, 0.7707037815680307, 0.08503699742852061, 0.8720366673828923, 0.46008678201012443, -0.028053158372802464, -0.04900917674512495, 0.7460310574307261, 0.5265288786161034, 0.25275757642400837, 1.0, -0.4639842822300416, 0.2501926915683369, -0.48141398288274484, 0.14479841781262723, 1.0, 0.07205275558515362, -0.33353975304133093, 0.1627030841071632, -0.12153374191728888, 0.8440209873398477, 1.0, -0.27741933105187205, -0.8335452917610758, 0.31190833822237335, -0.9844075669000137, -0.1001361963344958, 0.1961562989474263, 0.1436078042597751, -0.5294788732176168, -0.5707648485237293, -0.8219156499689311, 0.8473122936082206, -0.5714478750299323, -0.05185655987762294, 0.3849002368607007, 0.8976359164898242, -0.4830475789537152, 0.4314490707141485, -0.525435232787482, 0.3151097137445338, -1.0, 0.9679064335347635, 0.3016364734229333, -0.9395477914975682, 0.0982820938945376, -0.6957389339075688, 0.924096598922587, -0.8621323139680336, -0.9398160280621778, -0.07116034879681724, -0.5622057261011677, 0.04460453415925389, -1.0, -0.8603277705832773, 0.4605066093904352, 0.2712655270246104, -0.48263569770697906, 0.6976789235399428, 0.7701183964054686, 0.5296334550643802, -0.12948013980215908, -0.6216321595842333, -0.2992169974926911, 1.0, -0.6910647200475756, -0.3911930031714741, 0.05752054443380994, -0.22137409656579643, 0.6538559449465212, 0.5419577337757108, 0.7816175805742445, 0.7836212927462295, 0.7889078493150155, 0.6743235085264152, -0.7747688853629653, -0.003514235821488354, 0.8418542422908073, -0.8357837338101843, -0.31386814410725994, 0.4005158138247415, 0.32889564578258185, 0.18570363168736553, 0.8027701235868008, 0.3663716697754104, 0.6042328793064489, -0.9994402187545328, 0.054885301785356805, -0.4753992618200237, 0.7589510562730035, -0.04247209784735756, 0.12373895866587031, -0.013025046145883068, -0.842222169475048], "fitness": 57.16226955283406, "player_life": 0, "enemy_life": 100, "game_time": 343}
{"weights": [-0.4681722559460274, -0.7272087873647476, 0.9664576187059907, 0.8452343004607739, -0.47380406070793746, 0.3459682353814807, 0.24609522072612133, -0.09382791619249825, 0.15846719959171796, -0.5413434860658712, -0.6439358700398694, -0.4526178454425885, 1.0, 0.29363428927863844, -0.6451890150770141, 0.7684533891760096, -0.07892533744195576, 0.698213949224398, -0.4093907042397199, 0.24114600655455795, 0.953792778045895, 0.056287958201277244, -0.5102998230485647, -0.4612956077546145, 0.923585761308162, -0.8078925931209066, -0.7659702334976377, 0.8508634238881563, -1.0, -1.0, 0.48077496782596657, -0.026865978254077494, 0.5185006271466919, 0.08580180216644542, -0.8255956485131568, 0.450189007042883, 0.7151744495083467, 0.2269844541308758, -0.21380033697606035, 0.35959019763705374, -0.041988619070916305, 0.7285304659217798, 0.6074164620902174, -0.809972635059427, -0.9126000182904063, -0.91063208971369, -0.964020746403154, -0.7661270141020468, 0.6871613517841108, 0.13541997433192104, 0.6600871960515089, 0.5447365839788687, 0.15772598936990684, 0.23677621707630608, -1.0, -0.8505305435272514, 1.0, -0.9783150489342107, 0.7571530980544653, 0.022307747508941253, -0.9480015395153565, -0.033362561787766754, 0.5938781603463277, -0.6419625613070528, 0.3854889222506647, -0.33618722915421884, 0.6663795271213168, -0.06404441411885003, -0.8081719187550626, -0.16076351140963646, 0.17436565724178021, 0.48521634634159455, -0.9175947287058887, 0.4278477935458376, 0.9166752079663174, 0.19494010222541786, -0.8869003313811441, -0.19825661242064382, -0.8827507106680658, -0.044157051844371145, -0.05387364213519055, -0.6400656684818569, 0.03886577296337612, 0.5731760028562349, -0.6485942696305985, -1.0, 0.748306941021691, 0.9101014714001839, -0.12308416609598793, -0.6391642958962713, -0.3294058947319266, 0.3977691504974472, -0.204308936614722, 0.9077388920626348, 0.7946659293670746, -0.3961412968801449, 1.0, 0.122247695862931, -0.22418324432034864, -0.5520881480702788, 0.07270475714083396, 0.5366555151186434, -0.8998199732642285, 0.4422501466323602, -0.777489453842136, 0.32735505498390516, 0.11096719045327302, 0.4218456606724594, 0.610973992225573, 0.528922266107215, 0.856915638674062, 0.39750507272969693, 0.1517689114935562, 0.5058051573176272, 0.9890321794555579, -0.8312711807273876, 1.0, 0.910355315651745, -0.6216913617546045, 0.5158212315209953, 0.10659897634405348, -0.9861654595489454, -0.7446559741506059, -0.4638060789080795, 0.03705644344644371, 0.4359130821479994, 0.7752130754781863, -0.3828981589008089, -0.5286888920312678, 0.9346156389649563, -0.6561574115650612, 0.6710925837449471, -0.1185279077114624, -0.16076793015610344, -0.618592586655976, -0.43870755977766507, 0.22492054707240927, -0.30016124782246434, -0.5807416992978685, -0.039410061262920515, 0.704067724913239, 0.37355311844545613, 0.1511786691726436, -0.9705713456410603, -0.564737340122502, -0.060632778546306915, -0.32790577730473625, 0.587901347201594, 0.07430466794184229, -0.30053216967088026, -0.9829459242636562, 0.45111995745062544, 0.04602128436075889, 0.09182339465269557, 0.5432999055403412, 0.21549272676806322, -0.36491628162583806, 0.20830718773276585, -0.2740378702769768, -0.32181520194682234, 0.8660840062631238, 0.1456206153106488, 0.5662785319969927, -0.7354492854399071, 0.36811204400427355, -0.22193191421318426, -0.5269759109533922, -0.02862228891858208, 0.2462769702947345, 0.44408185424157265, -0.6409164388058219, -0.6093840102181238, 0.7000479263765735, 0.47424845130622306, 1.0, 0.3275903257787124, -0.8350538470171738, -0.8075952517802476, -0.8751942318180083, -0.13960659775269907, 0.890660217902475, -0.7681875552940286, -0.5207674719577572, 1.0, -0.04808736473455036, -0.3392096861203361, 0.6808616342185306, -0.2989302568084262, -0.2575687306396346, 0.16890719569091422, 0.2981393919613263, 0.3162884323783518, -0.3651265779235948, -0.20453667732169883, -0.399708624795857, 0.38068485061682444, 1.0, 0.6081544579694855, -0.556704514187553, 0.9950482210992091, 0.013104806030022564, -0.5190540013321225, 0.01062560216125047, -0.30962925789714657, 0.6018800822859932, -0.505406889335378, -0.23225907110973049, 0.7292647882654617, -1.0, -0.5903244026165644, 0.42727579090334145, -0.5088855806269543, 0.5730821413560814, 0.6930648652102249, -0.12575711267566336, -1.0, 0.10479920161578493, 0.01959470771236553, -0.6111026822343899, 0.581552971554284, -0.11555708195773629, -0.8259060643555891, 0.6485239315416078, 0.5792920218240916, 0.6488217468602064, -0.028378223137986103, -0.9451715676345849, -1.0, 0.018045200326917282, 0.08919282546650723, 0.17841458939475838, -0.6443360861217892, 1.0, 0.7585670486944621, -0.9893739616298844, 0.7774517742061833, -0.6209502717138676, -0.4317487264821055, 0.611693585069454, -1.0, 0.23277825584980408, 0.09157917726276656, 0.2794010362857086, 0.6479851449907363, -0.11031280645338319, 0.5385807832769375, 0.2195588597890793, 1.0, 0.8439973275789019, 0.7576043926285503, 0.005492912567482938, 0.014069950076499693, -0.17051486202880406, -0.3624105078198754, 0.7266595458280465, -0.5760717256662182, -0.6891628840059987, 0.5402856800069649, 0.5279737622502081, 0.6035738060139655, 0.6229716067951498, -1.0, 1.0, 0.6901135981110484, 0.4883610645173724], "fitness": 21.752975927839515, "player_life": 0, "enemy_life": 70.0, "game_time": 190}
{"weights": [-1.0, 0.3780820352745537, -0.06401229227388527, 0.6025783021796365, 0.2872486738118353, -1.0, -0.7325928257247274, 0.047918958189181515, 1.0, 0.22468857690824834, 0.03201261727219787, 0.6506808426875358, 0.8287815352541633, -0.3243532326038357, -0.5416305739026656, -0.9237726990845403, -0.00014702913896780245, 0.4803342101397706, -0.17771767848855263, -0.6041973003956561, -0.5615177226507793, -1.0, -0.4455499888446066, -0.6847251418891247, 1.0, 0.06585680171733568, 0.5883057410934551, 0.0939817275924048, 1.0, 0.0036806628647012563, 0.24427984909135717, -0.36638985062583584, 0.735228671433241, 0.2057568252329021, 0.5801348077168826, -0.6131945469494833, -0.9057342749953655, -0.3012074583781537, 0.5505243872333361, -0.7705930071680276, -0.048073226647990575, 0.9623394320963987, -0.6081345027640457, -0.750852200802911, -0.7803848379828718, 0.8617824659714557, -0.023573532599758307, 0.3904824719378258, -0.9446306155223485, 0.7968651135548602, 0.16847299995678305, -0.9813932156487974, -0.46984476301224287, -0.4086214838109521, 0.8127928436544953, 0.599298682841592, -0.5770985615013987, -0.9395996032124267, -1.0, 0.4632175255033737, -0.9535830621260984, -0.7951984447233669, -0.5217696872902409, -0.2711414364212042, 0.44302198337046395, 0.40615876795442274, -0.07614477407762871, 1.0, 0.22377816080316235, -0.23457016856745017, -0.8615708159686625, 1.0, 0.2934029832157809, 0.11460511470911311, -0.3166112616532229, 0.09157072572322947, -0.7905873915115345, -0.36639561388162245, -0.9868623844264628, -1.0, -0.3914365814564827, -0.672075374450366, 0.9930067546757992, 0.7393722159753628, -0.8045667799073025, -0.48357820263862694, 0.5581092473220662, 0.21312682866746382, -0.35400359126629166, -0.7151917563526445, 0.9676711886327333, 0.24410980956557485, 0.1875600452603073, -0.4928462446864243, 0.4566863777163108, 0.4592445568991981, 0.58647970913888, 0.33682795259364473, -0.5449697058097749, 0.05350295948281769, -0.19836381646494858, -1.0, -0.8921028908044164, 0.7643874828474102, -1.0, -0.8294791384186432, -0.25044293799599615, -0.7911896234429394, -0.9183005443515323, -0.10502108658767101, -1.0, 1.0, -0.3616757813085525, 0.04028461318022618, -0.4212319034503189, -0.884303980910295, 0.32291348996871805, 0.21301262650120903, -0.9425643353542993, -0.9043252726684093, -0.6747504759163312, -0.8717004464831873, 0.8349584073680343, 0.6345694111917718, -0.8593352814225552, -0.5055297782300125, 0.01229310633294789, -1.0, -0.011512197417592088, 0.4379208830900328, -0.7791957846311256, -0.7439996685498987, -0.007470384107867267, -0.016535539171225133, 0.5585407058761787, 0.7191386551231301, -0.5113029610225144, 0.836657198755711, 0.09910352221805016, -0.20413878715679754, -0.8529988903202406, 0.08074653998956702, 0.14162056187471542, -0.41348778852287404, -0.20455469333801996, 0.7463692452264317, -0.07508103584828574, -0.7318122696178664, 0.3603868155329568, -0.3675967337491436, -0.017396251008708036, 1.0, 0.7961429022919275, 0.4065207734686288, 0.12004033544735937, 0.1369458044206207, -0.49976339845694584, -0.8253099891893172, -0.3436481463107636, -0.2950740329265069, -0.6786382479220872, 0.14624212968364075, -0.2809640856770043, -1.0, -0.4397196243419305, -0.0034947802429379227, 0.5684502284085546, -0.11222697726700492, 0.6909869228507654, -0.26390558387154195, 0.2816031827433089, 0.026133516278859514, -0.1504541424709377, 0.9970901453110856, 0.5995968809086555, -0.44160773643155854, 0.6341163777355032, 0.4597691618991067, -0.06526854380824015, -0.5964924233360633, 0.8840719554642926, 0.5798603959706357, -0.11894407211973504, -0.15391582849171717, 0.22415005242565755, 0.5415996627627884, 0.7083422631518356, -0.8719961765075508, 0.4824924142233816, 0.8985514267276612, -0.4802030228833647, 0.4247897160930928, 0.6078736381065237, 0.6453092231134828, -0.9412287834925934, 1.0, 0.8015196042802667, 0.37301180062891837, 0.8231304769972562, -0.5959229877200773, 0.07411744733860545, 0.43418604200449884, -0.3280986291343746, -0.22695988104287418, -0.8235957523417561, -0.06119750006401933, 0.6697880279851854, 0.7050224308382814, -0.43821631767719854, -0.778264373358006, 0.15267877635488433, -0.5613283863993055, 0.5031806921315854, -0.08883380342974831, 0.12613163728593485, -0.9687352584319762, 0.30166596244708926, -1.0, 0.6190027410235676, -0.6017311047294418, 0.6890601019411905, -0.24930248975406638, 0.8496328626466347, 0.7748683670171015, -0.5115515130209911, 0.2641427209485834, -0.3674974054967585, 0.20237935567276716, 0.49279342899762446, 0.3915688416808015, 1.0, -0.5219763422403247, 0.36264185714470387, 0.6626945990295442, 0.9137472886406364, -0.33549025716630687, 0.5526148651161421, 0.37732802323328785, 0.5721776782989721, 0.18762529202270403, -0.39419637981327627, 0.09451655570496723, 0.22603214889233386, -0.7508209833266981, -0.6333965957236634, -0.8166352041297718, 0.696871765505974, -0.19248576549911603, 0.5228908991775588, 0.6661693770908297, 0.292806427326692, 0.2374846999744625, -0.7920094740849151, -0.058654558452085004, 0.23458168993750486, -0.6668457197704838, -0.08515433608503165, 0.35025863091656895, -0.49284128425168267, -0.051662268716255844, -0.7863447785407274, -0.5506335206355831, 0.695686286595263, -0.22563914823704947, 0.7247647199110764], "fitness": 57.16226955283406, "player_life": 0, "enemy_life": 100, "game_time": 195}
{"weights": [-0.681672133820536, -0.732713963664173, -0.30073210222893887, 0.07199044317887102, 0.8631187210011779, 0.35997014637539215, 0.9777301726062466, 0.6152140470771024, 0.6173586336610751, -0.5422637293493411, -0.9872044646122569, 0.9010384894875018, 0.5979059181188835, 0.1704307221891669, -0.3068762953565686, -1.0, 0.09084287617475853, 0.7740583127948675, -0.4093907042397199, 0.6509521904259654, 0.8643648903044326, 0.7736558244143251, -0.5489203221422463, -0.71621071163704, 0.7693129103244388, -0.43450141322144986, -0.8548334058958018, 0.03549355298873054, 0.8333526632258873, -1.0, -0.8606099259699328, 0.7900309493662074, 0.9239018885154151, -1.0, -0.1328254962913567, -0.974271314265915, 0.8739005227270856, -0.7141386955757486, -0.08672931615492466, 0.7330178482763943, -0.5214316339620294, -0.8537868757203264, 0.4509265713634669, -0.30479726898341114, -0.7999228204477309, -1.0, -0.12452900257110494, -0.25435458238370073, 0.6621006701831503, 0.40295160627622073, -0.8700644559507452, 0.331352891516726, 0.3342210274992441, -0.27627308308703113, 0.6787279209847905, 0.25623888568515385, 0.7415448109146807, -0.4109918703706145, 0.539654265002528, -0.8063252927692668, -0.882697817526521, 0.6418550139237036, 0.29709129071742957, 0.44392305206360816, 0.4432706957486033, -0.5861549112346784, 0.40607664835366636, -0.1699921524568217, 0.837695779215492, -0.8037971036910613, -0.14662710132520407, 0.36127033679904, 0.4208870550517971, 0.3160666437210248, 1.0, 0.8556709602320114, -0.6317654526930123, 1.0, -0.9077396432482484, -0.7748968894178377, -0.6192679320681409, -0.407152189784499, -0.8743128629174666, -0.15216330479679702, 0.34771609162297523, 0.1026673366038176, -0.37894895483682883, -1.0, 0.6260366400091317, 0.3930237128790966, -0.29374687619496687, 0.5030005054381759, 0.26518800121822195, -0.6731268342666188, 0.5287234161438761, -0.48537328158427934, -0.11622936983369184, 0.7258771561840245, -0.98767501164688, 0.7892560793707291, 0.003668453855250442, 0.05240149391647331, -0.12699442966476698, -0.9539347817297106, -0.0041442925240577355, 0.007892144254224603, 0.4855720452500588, 1.0, -0.25577504294732173, -0.8147002631898506, 0.6098176014701776, -0.07039692293675912, 0.5877605693203487, 0.7003801734431065, -0.5492260306019177, 0.7737022300100597, 0.3022051337229683, -0.32033981912825243, -0.3981205882095643, -0.6732209937121227, 0.6098465071967732, 0.5653936093965266, 0.5699723025099008, -0.258487773101437, -0.03819002947004935, 1.0, 0.8235505216407925, 0.35418229145180347, -0.03898976926416026, -1.0, 0.1654836106984752, 0.4456958517719042, -0.8757847338950198, 0.5025245656723194, -1.0, -0.8574906313350008, -0.11451934672038461, -0.3431744516909525, -1.0, -0.23216658573435217, -0.7343021770583703, 0.859434514940052, -0.2282407670583118, -0.8125170426425807, 0.005005054496181008, 0.5893604065788065, -0.09762541330117464, -0.8969914661317759, -0.20105585071233634, -0.057701218146624544, -1.0, -0.07564142328646772, -0.01362500470789324, 0.4020331168281516, 0.31652304386577906, -0.9083940011484826, -0.11680021643828539, -1.0, 0.6174406902003188, 0.9481270756895901, 0.7337236199606114, 0.5694901159439206, 0.14773713512094713, -0.5799404247432142, 0.23088549122830598, -0.7557904292320398, -0.8313075355582593, 0.6778470366859684, -0.7105858966144345, -0.1007350199894819, -0.11036334775806524, -0.989187247415009, 0.8914483546919272, -0.8369205516831287, 0.553366868339845, 0.48220110101120417, 0.4811767934190777, 0.6281878338335412, 0.061746548106456356, -0.46651655885661125, -0.4074567947234866, -0.5529508706870989, -0.04785673310898593, 1.0, 0.34483728800070124, -0.7112984201130161, 1.0, -0.48890378538979046, -0.41741415721112474, -1.0, -0.05432328594645927, 0.09107055033580969, 0.8711900087236786, 0.8490454148372665, -0.47242531708370783, -0.07615211801909055, 1.0, 0.8866276556597569, 0.8070757731256083, -0.010953173121441437, -0.26621600183793015, 0.39931662818086633, 0.7620346492295154, -0.5296486812263573, -0.8968927535181273, 0.8806742405543557, 0.6135275051945556, 0.34647060585829026, -0.3777015945129299, 0.196280394733852, 0.9531571009117177, -0.737705812460536, 0.5757564035529801, -1.0, 0.5964980322209141, -0.7287980435182945, -0.8427441017145552, -1.0, -0.05132313457274296, 0.4788557598629091, -0.1657338477401645, -0.19178403464578708, -0.5309683191137103, 0.22437113181731277, 1.0, 0.058195333887879064, 0.6346808502989657, 0.25698725870654776, 0.16604652909177328, 0.09440091067181947, 0.3930506182179287, -0.311441445459962, -0.32046393691907027, 0.7204361976176832, -0.7657526311344125, -0.7995636473030967, 0.683260834875953, 0.9768523935255274, -0.8936673102293295, -0.6593232347595268, -0.264988486120159, 0.6836715858400557, 0.6222979778623516, -0.6434832350843093, 0.8075265055811857, 0.6050773698497924, 0.7584705156596652, 0.9348685802764287, -0.2073779781249855, -0.8463339074199567, -0.042610096460486524, 0.6011423360707591, -0.2851385349595383, 0.5306695359411971, 0.6536073260952509, -0.8972104684675564, -0.7980490864339326, 0.6850065146511104, 0.18707215615378575, -0.025070349388081115, -0.3952489310868163, -0.24803274147071108, 0.0841782555016467, -1.0, 0.4741919115242051], "fitness": 66.16226955283406, "player_life": 0, "enemy_life": 70.0, "game_time": 190}
{"weights": [-0.677216193747253, -0.39881774839466694, 0.3063436554271929, 0.8408450086118495, 0.5496037377606361, 0.8026969300587001, 0.9035097928546101, -0.7673119005747124, -0.7894488463462664, 0.15457587069299814, 0.8024839266298167, -0.40006171394315676, 0.6825582693152223, 0.00045607714063256033, 0.42473740481488653, 0.759435021994019, -0.6722655586650469, -1.0, -0.3435525491526443, -0.5290064533306005, 0.49786615539250567, -0.9127942903842616, -0.663738525325261, -0.22358792293452845, 0.8402461566054749, 0.0360223574262066, -0.8497764429531884, -0.7328702901683476, 0.8311210503684182, 0.14235827381501948, 0.45637078105063406, 0.7123225392184931, 0.19911842314606448, -0.5213968839019985, -0.15720016272542492, -0.5941697734168672, -0.048566565279569554, 0.4010638516100135, -0.1684306682262904, -0.04923544201983118, -0.3118105312200216, 0.7865383234306518, -0.4748541081927376, 0.2409905795164932, 0.9913039858446606, -0.8436688172834219, -0.33379203974126115, 0.25820692965530173, -0.7514340150353346, 0.05775391483129513, -0.5759002894922798, 0.8284235049402007, -0.7525912353686687, -0.17193304525417824, -0.4049770188831528, -0.10493565148597642, 0.9900743133483512, -0.7401375947132827, 0.7205634263597392, 0.4210663030841231, 0.669828964676637, -0.4338161488153312, -0.6722292588253412, -0.6643753030379781, 0.07300883708840072, -0.44088261923406613, 0.4179897190811007, -0.20531215583391393, -0.8523933513009649, -0.45935602604051184, -0.18167292783793443, 0.8406267502719516, 0.7360912390535979, -0.3665287892311846, 0.5252192688294248, -0.5323396716454536, -0.4446882389391734, 0.11509353538776237, 0.6229904433279535, -0.44929104867529485, 0.28826382366801695, -1.0, 0.663690081798517, 0.9474100966844561, -0.7996750504529999, 0.6116032859453695, -0.3639156476430772, -0.7470179585670307, -0.4677582654969365, -0.5327120890973951, 0.43082844729441283, 0.8451522056307803, 0.4222587307717713, 0.9853790815322728, -0.8433728163036542, -0.7753102553007388, 0.4225349660505493, 0.5790300039971736, -0.21980201799284504, 0.43523943881242233, 0.28652563650693785, -0.07767559796760815, -0.016544074095319244, 0.3602906431167727, -0.08176912883623935, 0.8857676468660647, 0.02995610035738666, -0.4334993683287738, 0.6501436031151853, -1.0, 0.7690174935583043, -0.18083261221716723, 0.4707503520189257, -0.05846768858813298, -0.7190333564369358, -0.9749206879453229, -0.435614267821259, -0.5930963700646832, 0.02439933901097116, 0.9886188782088426, 0.760227612523484, 0.5530806181089044, 1.0, -0.4810986097644568, -0.16133917051311703, -0.18951848343014516, -0.380715908444398, 0.7870505303026373, 0.053397405765149814, 0.20208213880529022, -0.8460951428819847, 0.5584965757203619, -0.356995650955732, -0.7048840975241415, 0.516115098376982, 0.9912584025049207, 0.10092677895890684, 0.8002867597149779, -0.7040107219229782, -1.0, -0.7981012792960396, -0.5977804331112888, -0.5352749447491356, 0.13826052730276162, 0.8366270117458261, 0.1558389900745822, 0.5767723186838404, -0.9752982653060344, 0.7532989379175705, -0.9254500276345874, 0.03816786108362957, -0.6080514121280796, 0.39292030437957626, -0.5007500306253804, 0.747162161155162, 0.7370391263836022, -0.8398099608521442, 0.8575974310859308, -0.15787530722005053, 0.9734082913003355, 0.9838827960215674, -0.6100079973761154, -0.5963697598361336, 0.2892961131964157, -0.5729409146277689, -0.7377399923571231, -0.5111572886870297, -0.9785150757506416, -0.4982559733490481, 0.30383307996764664, -0.21152898189901687, 0.07838283467599999, -0.20128708560365255, -0.8156532222342936, 0.998949574793647, -0.9242437214696545, -1.0, 0.2594215027215169, 0.7060438886299663, 0.29732013502963117, 0.803499715746921, 0.1009609553121338, -0.05766115773329794, -0.2065578989464149, -0.3536036417468976, 0.31812946185128954, -0.04804912467547909, 0.7055743231510239, 0.3773550745236598, -0.9508407440277017, 0.8921883725348171, 1.0, 0.4122546748271369, -0.9077026813824602, -0.6135584387499504, -0.8505020793598664, 0.6499706619954811, -1.0, -0.4022190690547578, 0.9136873941225204, 0.10838873903622717, 1.0, -0.7976754671037454, 0.41291642975228393, -0.07691440742340488, -1.0, 0.001288113539819502, 0.5142922636176253, 0.11186340585849251, -0.674160412330767, 0.8189023580558392, -0.4312874726559004, 0.444316171331727, -0.959400672612734, 0.2679583189311033, 0.7922275863005328, -0.5320451692304292, 0.6051151779946136, -0.47530675079789675, 0.5364668613082939, 0.0016510377189742909, -0.04971893854112733, -0.5739940571821857, 0.17812623769663158, -0.16016658648505844, 0.5860380736114975, 0.9008132819331437, 0.32271258941617054, -0.8880944468876346, -0.5428999939966109, -0.3289313162115177, 0.6326847844477859, -0.49906414799946297, 1.0, 0.5049795302199784, 0.1896373524082188, -0.9893276731706558, 0.88322307846551, 0.8962106426018468, -0.600078965725452, -0.03348717210361585, 0.0973261325959062, 1.0, 0.09053188697866046, 0.56490425802928, -0.27582583937197835, 0.5847734720975417, -0.5373103707890905, 1.0, 1.0, -0.782986156821871, 0.23806182928502215, 0.7871579358486426, 0.2678467640149236, -0.08577163707552876, -0.3707952908720853, 1.0, 1.0, 0.9927895520736274, -0.33005291108762563, 0.6351934556128567, 0.15465038677163387, 0.6891922492747733, 0.1358581825453058, 0.5717033834839627], "fitness": 57.16226955283406, "player_life": 0, "enemy_life": 30.0, "game_time": 343}
{"weights": [-0.6836455450355109, 0.6408037445010344, -1.0, -0.5873035390965191, -0.4459803432769607, 0.5770358600081419, 0.8675783879885236, 0.8422672097240657, -0.41117193187808504, 1.0, -0.37032811741146165, 0.3176847694458492, -0.11170694253355706, -0.6905407066736449, 0.14784745149967354, 0.7694708834822489, 1.0, 0.6593512684194953, -0.7355195878006637, -0.9449416008418885, 0.2499901496997821, -0.2015034062380644, -0.02480064007872701, -0.2849331125584045, -0.38592195040104693, -0.21261729790446493, 0.8125960960064921, 0.05744886735347346, 1.0, 0.29205698539229263, -0.2704191962241953, 0.7183184218504169, -0.4897014164634273, 0.9451824105404751, -0.5857063332202441, 0.5651942584098967, 0.29947261446458473, 0.6476122874111813, 0.09592722395191489, -0.5756103534894972, -0.9047592483515656, 0.5056687989674413, 0.9336572373196581, 0.09775221280794294, -0.18324293717386236, -0.6059680583225656, 0.008038073936745826, -0.799608786285212, 0.928868858573338, -0.521851400080168, -0.8062871770861686, 0.21353248918423762, 0.3354732157007335, -0.9695780074468819, 0.18848712710022764, -0.7204493974852924, 0.2148136672885082, -0.21105983039813409, 0.9701201973355984, -0.6149612775570863, 0.4501108790854579, -0.8924795883012253, 0.605275593255779, 0.4965108247839177, 0.1790509411073264, 0.3785661850857923, 0.004087912752437112, -0.7570241469852423, -0.09826094185940429, -0.9976466976014366, 0.4992979217708085, -1.0, 0.4929266986215155, 0.1054009371389793, 0.12434906913578118, 0.4403815825817513, -0.52552484092886, 0.24769365914625213, 0.9984919810541955, -0.31481550279420434, 0.3854699344388227, 1.0, -0.136776945778666, 0.6941801364075917, -0.3405512692895787, -0.7297568124503446, 0.7416316326969703, -0.6060704109689818, 0.10541829606898417, -0.8476333075829289, 1.0, -0.6461874207104401, 0.8642020517754443, 0.7691286622740305, 0.16054229010620436, -0.32112405066377225, 0.6094214509097649, 0.27587134437129973, -0.2306468736213239, 0.8563040377432775, 0.4048650719789759, -0.10371376986438913, -0.03568155709629528, -0.6820351281997522, -0.8350307564176369, -0.8722332821855798, 0.3019979988975275, -1.0, -0.7120712698596594, 0.18355054371344268, 0.5463445008672841, 0.2349006452398313, -0.3377737139435202, -0.42166702917227317, 0.427611107067037, -0.4340451715479265, 0.6733019097102984, 0.7792699279214206, -0.6190101547882034, 0.20265496137965588, 0.31083634240980307, -0.047207455504674395, 0.09850404452144543, -0.13325555572697578, -0.5763845919033993, -0.6617131556800349, 0.618262711259346, 0.8148629760565328, -0.4445300907808207, -0.11324048551504126, -0.8572994026516761, -0.23688542817112962, 0.39831440412985686, 0.1357224481748538, 0.6516679561775062, 0.6787606008135465, -0.8342269697035136, -0.646609176483702, 0.026637379946571116, -0.7088402204541113, -1.0, 0.6619997551254253, -0.8971646838047395, 0.25145324821388565, 0.3477204454720763, -0.16481573534146413, -0.05145535692833397, 0.509703667550715, 0.402680507044794, -1.0, -0.2024521232708695, 0.2270815549845095, -0.2891744277815613, 0.906847525494341, 0.31942536539524985, 0.1536638693152188, 0.3514391990668109, 0.6044509255757202, 0.0003796161433187728, -0.8354474604770803, 0.2957059284528182, -0.7237477559290554, 0.7817285653389653, -0.7657777044151621, -0.5421900135623132, 0.1796493311014753, -0.051316446095485746, -1.0, 0.847323724131058, -0.17302072447745798, 0.4649864621979174, -0.34171083552486314, 0.08600649253885934, -0.7058878013517491, -0.40847622677141504, -0.05161958197258537, 0.8470036778034131, 0.2202600956763567, -0.6779760490114032, -0.864531890937116, 0.3327178466125472, -0.20166116053160857, -0.633177400484563, 0.4546810916821967, -1.0, 0.7136452085368967, 0.1658336734255496, -0.9347366199693348, -1.0, 0.3103959657718727, 0.5057860778733588, 0.3196264027466346, -0.9290692279820446, -0.264033620312232, 0.3647257991201802, 1.0, 0.5819319307343128, 0.4209501179510263, 0.27067187495842304, 0.693614730975016, 0.2966665097789495, -0.01139635764726793, 0.5015407340219625, -0.2863717994225843, 0.08528847886621527, 0.6207088899155708, -0.03070411583096877, -0.7555035039848382, 0.43079897652070154, -1.0, -0.9292903659326935, 0.9301779650647336, -0.43716406038403455, -0.1905065766560746, -0.12002382140672391, -0.5316140354039113, -1.0, -0.78525942944998, 0.969824346228477, 0.19224671376462293, -0.6987840727296863, 0.6455587214765455, 0.8585360642500346, -0.20625885293276622, -0.847998021697162, 0.6435739900669113, -0.19516530739267124, 0.6225105857306743, -0.9556113086437074, 0.5298945963113164, 1.0, 0.0868118705970859, -0.13456548393488116, 0.9678576657448111, 0.4084817010613019, -0.8211718507257674, -0.21979514771907757, 0.23844114925607499, 0.810857217892075, -0.7369805765569251, 0.7034145657432996, -0.3480380876072882, -0.17754365002554032, 0.3887431321432354, -0.9395644182557865, -0.35330573148876776, 0.9851529302166185, 0.7682775780725825, -0.3459623087693186, 0.2795283617047769, -0.1552596379927073, 0.29268015553277826, -0.5539458483576377, 0.5080025984435848, -0.3012650088875148, 0.012325526776158058, -0.571103489976326, 0.41055959751958326, -0.26560454424617785, -0.9299896947567743, -0.7563782032001813, -0.8727864481605099, -0.05130481710735661, -0.20749287412930256, 0.01785220371286783], "fitness": 21.752975927839515, "player_life": 0, "enemy_life": 100, "game_time": 191}
{"weights": [-0.8818958871678706, 0.36364558828950544, -0.5916124143487693, 0.8220604434404626, -0.7310813768791977, 0.45945482519425873, -0.0210859735586085, -0.9296545855016155, 0.5300413198219542, -0.13833086873019257, -0.4174903268514276, -0.7907337277680994, -0.6503199294272756, -0.2178847581796356, -0.32031664655083747, -0.8195293318421241, 0.36550010173184366, 0.35876972665065676, 0.9258706980253285, -0.8325467490716231, 0.42669837353214757, 0.21893671680688626, -0.8956065221218998, 0.8751536264487307, -0.914156032660391, -0.8608848502273843, 0.2770515773558937, 0.09478315894034421, 0.5451182775978707, -1.0, -0.2466643057040041, -0.3192577500665391, 0.7796049929885513, -0.23072648809485719, 0.6455683235575365, 1.0, 0.32273690368374475, 0.5116228235912674, 0.83080950992168, 0.6929017154713841, -0.9982650006757576, 0.6905852260098251, -0.6640822799633017, -0.37969639409687356, -0.6464994098003496, -1.0, 0.171573652276008, -0.6404331116424206, -0.717375437805141, 0.34331563149700295, 0.8740233336587112, 0.4238277156991924, 0.8974771205705105, 0.6127820029573252, -0.9445638719365841, 0.610650580913622, 0.4491936942997765, -0.4938225957280084, -0.5568734885986951, 0.5011649701469264, 0.7631364198721428, -0.3517182990299221, 0.0031338379452611476, -0.8292776080243901, -0.6865158591896878, -0.22481192238149672, -0.46594211302721056, 0.2070820603681329, -0.5769913253326611, -0.9675663252584891, -0.3315741027343758, 0.5989943596554788, -0.046182206810788745, 0.023795719005597016, 0.34089578194788317, 0.9743400777729919, -1.0, 0.8160476476191256, -0.9689099941379501, 0.34287014828727963, 0.6461654777570873, -1.0, -0.6605636898886311, 1.0, 0.3335995492949482, -1.0, -0.4960073342703691, 0.9941004738001255, 0.19929339754906636, -1.0, 0.6583539621201224, -0.2306312921793539, 0.8487661925081398, 0.39218209314417485, -0.9509040125496075, -0.02110747489987841, -0.9140388301035722, 0.265818015057459, -0.09655069771491895, 0.9061210900238449, 0.7597706895545389, 0.9319567814721448, -1.0, -0.0577801664506441, 1.0, -0.6630922363594909, 0.013281454363303496, 0.6665131720870104, 0.9792931901968234, -1.0, 1.0, 0.20704298905263044, 0.6367864126605123, -1.0, 0.9637180726403478, -0.3920323773245856, 0.3929322857985164, 0.17860222712687035, -0.7684420624563478, -0.13649362607295756, 0.8246518970680434, 0.6047275845680917, 0.19097802490257454, -0.034322837237022244, 0.5294659418543375, 0.3161695017773099, -0.5678774186257618, 1.0, 0.22913507032469138, 0.5234575225262221, 0.2635609938869993, 0.7823633637116278, -0.5761033246011495, 0.14794936355828492, 0.7629918980328756, -0.267602258373139, -0.9705191663151604, -0.4540552187080201, 0.017018144212855885, -0.014301585508192882, 0.8194770823137231, 0.9093219719969177, 0.5975283770045644, -0.5404657695016992, -0.4434699615790312, 0.7098666146622786, -0.6263932037780593, -1.0, -0.21023156102364465, 0.26358902951025565, -0.08797246686816182, 1.0, 0.4134293401750342, 0.029989992143851424, 0.8059743811256245, 0.9614148672095405, -0.7422642723411232, 0.11727415745495687, -0.8121786485191829, -1.0, 0.11515672216000145, 0.4756691546242751, -0.6604002355901573, -0.2418781730906227, 0.710178088768502, -0.35017698198270664, -0.9151251581770268, 0.11189796032105162, 0.29511683547862044, 0.2563528150526511, 0.13580539295883157, 1.0, 0.45846579275096805, 0.37345147657205063, -0.033412839173958805, 0.3967627548957068, -0.29909864687165183, -0.9261744326287066, 0.7054592274633812, 0.3025355701526916, 0.1996818250177803, 0.5014609070166174, -0.3204028850204811, -1.0, 0.6296118761865779, -0.6260828401463656, 0.7635469220821894, -0.44031321049803585, 0.7313670631783014, -0.5353353532911682, -0.6891636688559701, -0.20970761441498328, 0.9707274583082753, 0.15788704028381295, -0.9706300014328335, -0.7499173202215254, 0.7385369461770159, -0.5134420233702806, -0.6558656092580356, -0.14289817911874278, 0.8339452204372871, 1.0, 0.7411231642906262, 0.38648967957069624, 0.022318675855127368, 0.11305143056216575, 0.8877413170720883, 0.7809286786906757, -0.45878698844911886, 0.5280082590583068, -0.2855879958722519, -0.3302970305312223, -0.9561763519469924, 0.5229471731305266, 0.2847204484052821, -0.5937865542634274, -0.9685759376313734, -0.178358747008798, 0.0879473186120984, 0.8784173722541788, -0.8423877878495096, -0.42904237597078887, 0.10973092112762588, 0.6630355378389418, 0.3376821023617487, -0.1321264006373707, -0.8187086248135287, 0.6950754563723301, -0.026284149759561892, -0.4815920269437092, -0.0728804890369347, -0.9900580431661803, 0.1376812385412426, -0.3010425938446326, -0.18146501396203535, -0.05044914843192144, 0.10284014990700374, -0.5518350057513274, -0.5584268075400379, 1.0, 0.4393881307612283, 0.25628463566617954, 0.5717087374189186, -0.496516081261786, 0.8667526028440662, 1.0, -0.5013711137604893, 0.16567645701226386, 0.19976680300441627, -0.9750108302812015, -0.19435146785174476, -0.04746985056892651, -0.3462861898675694, 0.3683957038326187, 0.5802602224707453, -0.5716681276796662, 0.7136395463980132, 0.7630966078535817, 0.2523741264777818, -0.6447634555711703, 0.7157944104921263, -0.4996022801651989, 0.03440173764166343, 0.8335966059497235, -0.29958593033512526], "fitness": 57.16226955283406, "player_life": 0, "enemy_life": 100, "game_time": 333}
{"weights": [-0.03670750612457847, 0.6327096813640953, -0.3038932994185187, 0.6486440100040525, 0.07384608575018493, -0.43161582690845046, 0.9362514499291513, 0.857699811222208, 0.3078110092571733, -0.9034379547150622, -0.46112556739603017, -0.6007200883577218, -0.9259849459538414, -1.0, 1.0, 0.42564718640889687, 0.07464035776079705, -0.5310801394838782, 0.440161926149776, -1.0, -1.0, 0.33556431067962456, -0.9139588339750555, -0.7990946865884159, 0.8533895921859052, 0.8927992055889846, 0.01821649604809522, -0.8384386956604291, -0.7963568256148906, -0.9435228953066829, -0.24020886954095988, -0.0977103704305989, 0.1619043342353171, 0.5290945040373332, 0.7141392104964244, -0.0982789982470767, 0.8212861434864012, 0.555599156192879, 0.8933597047583265, -0.43639915182899963, -0.32188801699155367, 0.14653976353130144, -0.2697342404352206, -0.41051234098383604, 0.7597457472404434, -1.0, 0.3004532663986953, -0.42458518719951527, -0.6738431753616629, -0.8202097070485477, -0.22692607429210443, 0.5314531704242145, 0.41499589052614905, -0.5067782705853547, -1.0, -0.5809180713808412, 0.09459178482109976, 0.5027010961186003, 0.7614572517428922, 0.6215922672476507, -0.16125346450476255, -0.6731590968829494, -0.41487282179937224, 0.6001479217709769, 0.10945386182655636, 0.29902201962985675, -0.6983341795737968, 0.4403171132468964, -0.9405119133204038, -0.9624608535664323, -0.42278559814478905, 0.05863526224188623, 0.2528909319731413, -0.6200523099631083, 0.5902976237259798, -0.6389024780062158, -0.05192676706404184, 1.0, 0.8617047222192119, -0.9364967332659487, 0.13348573414369858, -0.7415557912501762, 0.5229199290975934, -0.8414121759749882, -0.4122338030949165, -0.20065203153252759, -0.49884283657260436, -0.396764659924501, -0.22492936501302258, -0.7135781637725348, 0.3091737774526352, 0.6051509053250269, -0.6146766615171373, 0.5579734039118184, 0.21212446580498684, -0.2822520607118239, 1.0, 0.7257626000571905, -0.8078789928581063, 0.36180406166537676, -0.5774929012636789, 0.24176607148644216, -0.5481401522997593, 0.41720337806086993, -0.7786973610902577, -0.3381501434237371, 0.534311618287588, -0.509620386422076, -0.40595880557897995, -0.9536761585811979, 0.6895469669695793, 0.6687305412179234, 0.6706403418471588, -0.07703250631846986, -0.8326315492428099, -0.4448997544815815, -0.4412833875891878, 1.0, -1.0, 0.010499932878737073, 0.9663287235581426, -0.7426093566059625, 0.10382075885763639, 0.7085381017011021, -0.5965595087790172, 0.5866886881109851, 0.21692673306700141, -0.4762093385056651, 0.6178259307084806, 0.9546376742323908, -0.9430935528693082, 0.2511897211894042, -0.041781558096022436, -0.47405626946442636, -0.5093644029575752, -0.08826314542945951, -0.1766362352375891, -0.9967326390400928, 0.3486402246455766, -0.9902783399119508, 0.42528582882005717, -0.2918267276743243, -0.5873688918799792, -0.8510361102702908, 0.28955859138222245, 0.2442573798807932, -0.8112368204242155, -0.22334670654418964, -0.6967994456877789, -0.5488717362807752, -0.7416320623205145, -0.13681302600855383, 0.38646231135178066, -1.0, 0.3098999547378307, 0.36152466854499843, 0.0446323530457719, 0.5627381475856487, 0.39101276041627075, 0.965067210880685, 1.0, -0.1285980059415848, -0.9148631144126984, -0.4455439465118126, 0.04344807106601198, 0.16568631952612395, 0.48890357690397274, 0.4874079147152442, 0.8470010802437116, -1.0, -0.150531643249964, -0.1936838892991378, -0.37360163193542784, -0.6483318694310177, -0.3741476254342312, -0.2930773918923064, 0.8459248554489511, 0.3777920472497551, -0.851559651662789, -0.6178417129775723, -0.03269325673139978, 0.015667607682364845, 0.42186474579836064, 0.5914464431965124, -0.7318830864119573, 0.26719318762177074, 0.009428385476211554, -0.39557111377089926, -0.44181664529631576, 1.0, -0.36925606928902543, -0.808750329455037, 0.8943713029849226, -0.8145806316293137, -0.8352143340608731, 0.5144400683344912, 0.7126058856660447, -0.9504686327322984, -0.0406055340902606, -0.3557876087933643, -0.48999337993603603, 1.0, -0.6340584870395929, -0.9427491822392036, -1.0, 0.39029303317527286, -1.0, 0.1735624272804473, -0.8863462628903482, -0.4372719506800547, 0.7137442330606023, 1.0, -0.9690980861572207, -0.16818827881408607, 0.7333206649479346, 0.3478436717520965, 0.5931088225822518, -0.6019453112746724, -0.1894035856693833, 1.0, -0.38310091399354423, -0.694248041657203, -0.5825246089609325, 0.10222111914006206, -0.08367737636018036, -0.04966339127797048, -0.35013536521309085, 0.652869594169642, 0.0744986757307301, -1.0, 0.633878526713518, 0.28770408197196135, 0.6429779491128684, -0.2903154716926254, -0.02879503859115029, -1.0, -0.058662207786638026, -0.1713029919506499, 0.8356384715882108, -0.07337840033172444, -0.3887384596489335, 0.7954183681823874, 0.5253115484197407, -0.43271939847501606, -0.6332096194039556, -0.5973495908859313, -0.4494756395712468, -0.13989126278148378, -0.7495521451908855, 1.0, 0.5470497495771082, -0.7736199509906829, 1.0, -0.20496636238364221, 0.8126353385674014, -0.9478824843864799, 0.5639832822022102, -0.5427019031499003, -0.6176010142117859, 0.3924945594515255, -0.4242696491946796, -0.6968244188350757, 1.0, -0.9991478571663249, 0.8226211086951414], "fitness": 21.752975927839515, "player_life": 0, "enemy_life": 100, "game_time": 297}
{"weights": [0.3264316662078712, -0.8083519855863899, -0.46617308456291334, -0.6482107549802554, 0.4707899884191331, 0.18742618879005904, 0.9977847418692365, 0.4042522314742061, 0.372020898139912, -0.7622047619412666, -0.5821705441970169, 0.406238702688702, 1.0, -1.0, -0.14012657958224817, 0.056728156671408736, -0.3710817181725079, -1.0, 0.3750833558692223, 0.39736988469784496, 0.08862414034141616, 0.7997718323442676, -0.9115439719017358, 0.6890625107894326, 0.6411697853507904, -0.21474398393920985, -0.934398961983133, -0.2023546577190353, 0.8957845289004407, -0.3074171742587929, 0.584398918521911, -0.12990021125668427, 0.5976965292576538, -0.037164901867353106, -0.25309721683955566, -1.0, -0.3770472511702821, -0.4485817225951054, -0.998292339993704, -0.20064150489271965, 0.11164696325903985, 0.25242432008914595, -0.768960646916295, 0.8953070624359429, -0.8436276234041988, 0.6362840299535484, -0.3405316009675999, 0.8525542123483123, 1.0, 0.961910370682237, -0.5386576536716874, 0.6356682631165512, 1.0, -0.053632461743256477, -0.87800141545574, -0.7545415392939121, -0.49313125288124904, -0.8420868469925757, 0.6532104974648425, -0.43506797822158305, -0.34879657231035066, 0.17132357719686359, 0.07527792045443053, 0.20997350099395592, -0.9530859611550244, -0.5495271812029805, -0.10290376718996114, 0.6439608118991998, -0.19243840561338077, -0.4203576424066303, 0.021729664181702857, -0.32377045333548043, 0.6599272977128545, -1.0, 0.4925420336365111, -0.9850041441604158, -1.0, 0.24415946067850558, 0.02495899519308667, 0.127690035595781, -0.6703515691889042, -1.0, -0.6178781567197221, 0.811575879686775, 0.14564390242140518, 0.2829123721316107, -0.5984909834571812, 0.9074430482277482, -0.34680259638555955, -0.8575276422666946, 0.797340167030848, 0.6591444439977949, 1.0, 0.941625992137638, 1.0, -0.7750590906938366, 0.1480289917000877, -0.39269891696077946, -0.3530410621529926, 1.0, -0.8677906027022657, -0.8805477105567023, -0.6136512109853691, 0.6653682030715747, -0.8467072742737405, 0.4188891400199498, -0.2547263203024918, 0.47372651453239534, -0.5419587743724743, 0.657338377861978, -0.21646054974992845, 0.5541320723974017, -0.5423685358218289, 0.6364004328749532, -1.0, -0.9427199416477144, -0.5788710428171542, 0.3076892440349217, -0.9759132321089046, -1.0, -0.03693038313635781, 0.45401517772123007, 0.009400669376655374, -0.0016731122046557967, -0.3279187933814911, 0.8208308559499282, -0.8286141134938637, -0.6128949046539808, -0.3227380285375253, -0.42797650431571144, -0.9969008608204744, -0.2597150993672388, -0.8935657451598267, -0.19535336974324147, -0.03174071734962691, -0.9031703605879678, 0.013707974256758959, 0.8783384384060748, 0.11632984716087047, -0.8890173790370755, -0.8457346059209441, 0.7587033926137647, -0.7552809752299604, 1.0, -0.07304658078837467, -0.3203594078990094, 0.8133586027276568, 0.27206839731236443, 0.5456936262417146, -0.8230114586505795, 0.8245550299440876, 0.8538262816745796, 0.5353684491724867, -0.20775612629768558, -0.595171776418191, -0.7680274724149838, -0.2474239829832428, 0.25049658256796326, -0.7498982806761608, -0.9892556300123154, -0.2728827469758459, -1.0, 0.6767819210536884, 0.01066031029752662, 0.9112718175389701, -1.0, -0.9503891608616246, -0.8028387658385494, 0.3879334935889133, 0.5296731422668709, -0.1656757405916071, 0.8608033422670502, -0.699288122057667, 0.7101150177048619, -0.317371529608971, -0.191205512182488, 0.08719581334952267, 0.9154278208406053, 0.8245913462952844, -0.9382074927370458, -0.9559306578722959, -0.8986901245050832, -0.4574117490790298, -0.6287404064885829, -0.7031956254331326, 0.9921836086873473, 0.2556637267802053, -0.4515191116188026, 0.9118912271417556, -0.47965529835117826, 0.5604266034650202, 0.9115095846626307, 0.3023991789232787, 0.6884766274440707, -0.3054422552185934, -0.2601278223041371, 0.8257890627609275, -0.1820240682086207, 0.6959517327939859, 0.760731373346643, -0.14932195192101055, 0.654872939344306, 0.04912773505596135, 0.28971031402799846, -0.9361378861026155, 0.8446934127517906, -0.4996208811969943, 0.9193269782411375, -0.6034818242656177, -1.0, 0.39879877158612625, 0.8763029226075159, 0.4819607330550926, 0.7406932341040562, 0.3372158566473655, 0.022800574429589077, 0.0844028729961658, -0.6124977634390707, 0.28885167286441293, 0.9974694298092093, -0.147070652392247, -0.6012541947940389, 0.7821824711912218, -0.3074808313655303, -0.11899492187680355, 0.4310821255150945, -0.12306729216976159, -0.5884228094213971, 0.6126742805120153, 0.22922420115394523, 0.06445169858497848, 0.36778498461065046, 0.43177273245901193, 0.48534328037127855, -0.9169617101346318, 0.1244740039720939, 0.20376569008719178, 0.8887561359028746, 0.013861269372628438, -0.4076741280068237, 0.486001392284942, 0.9087806627158723, 0.20680588108129117, 0.4001154475672862, 0.13101127706684643, -0.2814179529892312, -0.646108802113016, 0.05628237449383525, -0.28407072762215363, 0.6918504074959976, 0.5599810184037766, -0.585638179659852, 0.8489998104270058, 0.9941091056824675, 0.31072025761084676, -0.8689140302814702, -0.382614297900087, 0.2020197086663439, 0.23095476424173797, 0.5125574158961298, 0.9533424910535175, 0.10766227063672142, -0.8581121629677968, -0.5241474955337263, -0.4486905081914516], "fitness": 57.16226955283406, "player_life": 0, "enemy_life": 30.0, "game_time": 343}
{"weights": [-0.015900708281787024, -0.6968413223284837, 1.0, 0.4252854543190845, -0.26255897789721333, 0.6412621737161529, -0.5163354977404899, -0.8864852318465243, 0.7956200204026533, -0.6776029175403866, -0.3786729640102345, -0.7293705724976844, 0.24514784561713587, -0.8188738370277768, -0.8067916552683195, -1.0, -0.3404809012721701, 0.13825257452245407, 0.8068854192094621, -0.5955856639485361, -0.11319300030190707, 0.06741790510516397, 0.5289631342696738, -0.0008494278959747525, 0.37613802996590256, -0.3497643769218667, -0.3502061339371075, -0.31979584696106456, 0.21991536663845565, -0.8981639060784677, -0.7199812876219828, -0.37537093416039125, 1.0, 0.7378071196965132, -0.5545323702480338, -0.3566386579175686, 0.8678801484794638, -0.4389623037669012, 0.8981500238483321, -0.3711455376179693, -0.7380808939119793, 1.0, 0.3914317909060022, 0.6973830886084077, 1.0, -0.8376807602413106, -0.1885316738740651, -0.2308892769442097, 0.5979028341281114, 0.39799755886526195, 0.17868097496536117, 0.6916470453434267, 1.0, -0.8181151758410965, 0.20445246923172297, 0.21713282123013933, 0.3254216336164649, 0.02965754818355615, -0.1849561799526501, 0.3507226628387084, -0.8291776451701012, 0.08183789567847813, -0.048720531990220084, 0.7381713742634032, 0.883035104944859, 0.8729584179222127, -0.4649761530307542, -0.9559018053424664, 0.4733618838824472, -0.6831133846090001, -0.7491554328073224, -1.0, 0.06945009024376106, 0.03229019896275809, 0.01018232965345342, -0.3331677617086123, -0.5258913973621422, 0.4690277844992507, 0.2723413668917475, 0.07476982130603042, -0.7205071517564112, -0.8910609247571648, 0.7227562214819006, -0.3338226552494741, -0.10591023175315542, -0.2036941136039942, -0.8165397806758279, -0.25849986347527804, -0.6620947984396609, 0.12138391687289485, 0.8660791992804353, 0.4327372322828472, -0.685817981886546, -0.15034730999936566, 1.0, 0.0653116417907181, 1.0, -0.02670203333807661, -0.3988846239904157, -0.5307703585379961, 0.9378289626650811, 1.0, -0.24659587050026827, 0.6775707392264938, -0.9535198338558252, 0.5382342527492521, 0.17147442578999522, -0.053730645516587766, 0.9031121311873396, 0.06434646075669281, -0.08393065015867263, 0.6344332304148897, -0.7915045345279512, 0.15075329447418, -0.6776912938482835, -0.38102858027458464, -0.8611528918726916, 0.7038899101642071, -0.2715080185590588, -1.0, 0.6415154381394719, -0.4272898710714182, -0.38711436571069174, 0.26022271978029976, 0.7263584314912402, 0.8295498682425848, 0.7629883132083088, -0.0740960087664422, 0.022510846938115864, -1.0, -1.0, 0.8274199143113123, -0.1889557446033509, 0.6670982897600916, -1.0, -0.7334809597971914, 0.010308725979602251, 0.6538640046905158, 0.5679467048333744, -0.102210194984932, -0.014513303211624418, 0.6296046732249109, 0.6955826848597806, 0.6752130968812926, 0.6403269705373812, 0.6917305495407601, 0.7436602632926959, -0.7919317988485298, 0.5854006729739522, -0.21681379575091297, -0.40057115374976865, -0.0706478150888559, 0.1505308557692449, 0.5601556239539376, -0.02811513709218194, 0.2769080083348771, 0.10482890330765493, 1.0, -0.32278197903377537, 0.8513971105890039, 0.49766628494533727, -0.8350534881281533, -0.8451597976084344, -0.8166914518016972, -0.40709362165445967, -0.6079997396571222, -0.6011099633054676, 1.0, 0.6999769521628477, -1.0, -0.21586366878060612, 0.32582287447719915, 0.3636762925244441, 1.0, -1.0, -0.9083546897642243, -0.0946184935031418, -0.1927206185196087, -0.7520182285072498, 0.6117942538032719, -0.3521726302127966, 0.5772697748823302, 0.026949828952036875, -0.6971114263235054, -1.0, -0.17164569408800673, 0.7323643224605452, -0.04170512736797921, 0.29878663685163276, 0.9607916846759422, -0.1146629781663866, 0.6677167559694255, 0.9270134792259768, 0.6857268795599454, -1.0, 0.4727337809721621, 0.4601097078172549, 0.16375254817108237, 0.003245021471058901, -0.9644411913108104, -0.6036656818025088, 0.7069990794442667, 0.18980109130455583, 0.9445606840360918, -0.17192964075896985, 0.20256912626709048, -0.27568066297562477, -0.8029868139839602, -0.05227052918440625, 0.9980022874624497, 0.5081462824100029, -0.3915014935901958, -0.7605284738495943, 0.5544452785297145, -0.8137076257085343, -0.24850999623635944, 0.10115410243725936, -0.3524274565349847, 0.45306858997412897, 0.06537429501666236, 0.8168398414980071, -0.48848470753659456, 0.9690550011982504, 1.0, 0.5618802539705912, -0.7981756368503226, -0.4272385524958653, 0.8543605152916338, 0.9872908830184484, 0.6729144814205696, -0.14277462206662767, -0.803093074438006, 0.26880292730921784, 0.43382179482818484, -0.5130029481074904, 0.46692769028479186, -0.8799683705925365, 0.27313039233963227, 0.1521850698299218, 0.13317654081100405, 0.501676661282807, 0.23980391128141204, -0.8228586496443093, 0.53749689100878, -0.914352392945456, -1.0, -0.6495824103909826, 0.8559803268042574, 0.5450365617812403, 0.3733657108299761, 0.3261740810274586, -0.9674593097430682, 0.6218755078408699, 0.8750985823063366, -0.17456524670728146, -0.02097992174677943, -0.8937404160206333, 0.7681738289610133, -0.34443906105437316, -0.1148580324644893, 0.5186677054588327, -1.0, 0.8025324275468785, 1.0, 0.658932387019831], "fitness": 12.200907345539473, "player_life": 0, "enemy_life": 80.0, "game_time": 330}
{"weights": [0.5865967914911538, -0.45410855857607146, 0.1323008247986032, 0.012061945526351148, -0.10906645408899203, -0.919012436283258, -0.23981267040235482, 0.025716859643574008, -0.09874537685583162, -0.8997961280250231, -0.49979542300197455, -0.6222555204348579, -0.7393583785744279, 0.06264618030061617, 0.22146945826008632, -0.6486929426823169, -0.506670660049067, 0.6245852681907339, -0.7830348656163292, 0.5562546307186407, 0.5040377946220824, -0.01645038793198264, -0.4607913644787925, -0.9980972768408779, 0.1205964026802179, -0.19489862421301796, 0.26571151577454705, -0.033977227643739547, -0.2313886788527914, 0.3265042671901243, 0.26260134829395015, -0.03288359942447702, -0.8573113036816588, 0.9287566769969573, -0.8613101071099712, -0.5357516634550413, 0.9137473343666487, 0.6741431080955719, -0.6122664772355396, 0.37206427097112577, -0.797685543206261, -0.8722635951986464, -0.2606771211101262, -0.26220614553912974, 0.6851634139593152, -1.0, 0.2999315371033538, -0.9731380344116976, 0.37690633350739633, 0.353963893134578, -0.33487799124269957, 0.4446654336430771, 0.013569003185624567, 0.19526611006420325, 0.3744854725500986, -0.6637940724876954, -0.7283921387387348, 0.548836293830685, 0.5777869830219109, 0.4067979419622959, 0.8493898317329391, 0.8480286358069355, 0.3413503103101039, 0.8155186693569566, 0.7491555000666169, -0.717058868021542, 0.2787389454969137, 0.5819196567527287, 0.3467151504249964, -0.26385254790641854, -0.3634863019039172, -0.17029874918986565, 0.23985747714989192, -0.5055163505437035, -0.9515848273013084, 0.28791200476938184, 0.21486840664562487, -0.7717104966021658, -0.38567188927215956, 0.370510818482661, -0.570946448586536, 0.31246751981963894, 0.6968643312138767, 0.39304429788426654, -0.9558489942568815, -1.0, -0.8568729688377003, 0.007669447978534388, 0.6981118196167089, -0.5256949506222566, 1.0, 0.9144342003728961, 0.34888616248139975, -0.15656271110156975, -0.061659114207107735, 0.10088608610385164, 0.6507970640113775, -0.47829570081547035, -0.20681001700517626, -0.6045035551166722, 0.9007460263704438, 0.36683250393831757, -0.8857678781378636, -0.2255258850086011, -0.06072901810719321, -0.604350274125383, 0.6209839045396485, -0.7061744873522962, -0.07660411639277914, -0.7551630295586916, 0.8365328803506633, -0.9806600215446367, 0.24171540810364894, -0.9183727256377077, 0.8224322079427611, 0.7171517698084735, 0.7186104900251967, -0.9361380739578435, -0.7828933103234845, -0.9072168588326497, 0.8716090358276325, 0.7999591455900477, 0.4381655293792557, 0.8314050251100981, -0.8546875972628243, -0.2667370897158456, -0.05209718200062624, -0.05098634546189673, 0.37166397296165443, 0.8615773707617673, 0.9603124261451333, 0.6135576178447678, -0.5354940152165637, -0.006195184423852779, -0.9875301934914833, 0.4535261084129103, 0.13669896370461018, 0.9100092555170722, -0.894061837870097, -1.0, 0.23141080584564355, 0.5909731593704829, -0.3255341276792236, -0.9477518455254534, 0.45433348830041576, 0.18692337126228797, 0.673893260065329, -0.6403825939454664, 0.6171904986153849, -0.4820701239018158, -0.7781340832344622, -0.6261579883216394, 0.4654646684497914, -0.2858362405337036, -0.13304390428226365, 0.6424432294183329, -0.7009790360937375, 0.7463139961382217, 0.042851685629731795, -0.3851467010115292, 0.01258231485968217, 0.2078664123818949, 0.07424259824175469, 0.7965051259697069, 0.8885568978302807, -0.5126219994996285, 0.5144998307610164, -0.10892428090880163, 0.11729797815004128, -0.8873304671955458, 0.8916869135082088, -0.5755693158049069, -0.9818089753090213, -0.1340908328220646, -0.025242242516684887, -0.0776644020593425, 0.6481531616512601, 0.19792590740576788, -1.0, -0.02128964493621166, 0.8341633046266295, 0.6781609526999033, -0.7818311630779223, 0.16693544375858219, -0.5897094063405423, 0.15314742380400254, -0.9221239007374684, -0.3529706792107261, 0.025300351776270075, 0.7857209936203611, 0.8246634103600119, -1.0, 0.7841477094062692, 0.7630488414042033, 0.3012629841100933, 0.03892155258148723, -1.0, 0.8656868861113987, -0.03886296959871641, -0.8206229147563637, -0.9382190749845266, -0.45512564647674325, 0.17510932277034325, -1.0, -0.10430042792582991, 0.8527813734710954, -0.9370495104921001, -0.024975398295569717, 0.4162192478737332, 0.3301131285792645, 0.1502413496608292, 0.1309360788894526, 1.0, 0.8904298586250625, 0.5917186319271579, -0.1415559451283828, 0.25621297880950733, 0.028526342123385034, 0.7273090858089691, 0.14588375275949306, 0.3986649228654167, -0.038067475861293346, -0.11122244224269937, 0.0834932667698248, -0.25685959720670354, -0.7907049705264145, -0.8369321464638176, 1.0, 0.14209346233640058, 0.8258679644415768, 0.37229080720335067, 0.8523705699692685, -1.0, 0.6554019991512667, -0.4720119877758343, -0.4454100934776068, -0.735649564090435, -0.15686751562067525, 0.05260867783332929, 0.11261280342872329, -0.9432904719533941, -0.33427799244379724, 0.7953524432320287, 1.0, -0.932178598548093, 0.07586157571656846, -0.14805395475815913, 0.009486114173175603, 1.0, -0.8364865252256984, -0.4393007948259894, -0.3164227701476097, -0.22025468005160695, -0.0903877367927988, 0.6319680408837353, -0.6780444189817301, -0.5152985854587265, 0.31504710058098323, 0.7521146829110531, 0.8959031902395544, 1.0, -0.47467721706157245, 0.1628228937053544, 1.0, -0.194659566976275], "fitness": 57.23167900420623, "player_life": 0, "enemy_life": 100, "game_time": 195}
{"weights": [-0.015900708281787024, -0.6968413223284837, 1.0, 0.4252854543190845, -0.26255897789721333, 0.6412621737161529, -0.5163354977404899, -0.8864852318465243, 0.7956200204026533, -0.6776029175403866, -0.3786729640102345, -0.7293705724976844, 0.24514784561713587, -0.8188738370277768, -0.8067916552683195, -1.0, -0.3404809012721701, 0.13825257452245407, 0.8068854192094621, -0.5955856639485361, -0.11319300030190707, 0.06741790510516397, 0.5289631342696738, -0.0008494278959747525, 0.37613802996590256, -0.3497643769218667, -0.3502061339371075, -0.31979584696106456, 0.21991536663845565, -0.8981639060784677, -0.7199812876219828, -0.37537093416039125, 1.0, 0.7378071196965132, -0.5545323702480338, -0.3566386579175686, 0.8678801484794638, -0.4389623037669012, 0.8981500238483321, -0.3711455376179693, -0.7380808939119793, 1.0, 0.3914317909060022, 0.6973830886084077, 1.0, -0.8376807602413106, -0.1885316738740651, -0.2308892769442097, 0.5979028341281114, 0.39799755886526195, 0.17868097496536117, 0.6916470453434267, 1.0, -0.8181151758410965, 0.20445246923172297, 0.21713282123013933, 0.3254216336164649, 0.02965754818355615, -0.1849561799526501, 0.3507226628387084, -0.8291776451701012, 0.08183789567847813, -0.048720531990220084, 0.7381713742634032, 0.883035104944859, 0.8729584179222127, -0.4649761530307542, -0.9559018053424664, 0.4733618838824472, -0.6831133846090001, -0.7491554328073224, -1.0, 0.06945009024376106, 0.03229019896275809, 0.01018232965345342, -0.3331677617086123, -0.5258913973621422, 0.4690277844992507, 0.2723413668917475, 0.07476982130603042, -0.7205071517564112, -0.8910609247571648, 0.7227562214819006, -0.3338226552494741, -0.10591023175315542, -0.2036941136039942, -0.8165397806758279, -0.25849986347527804, -0.6620947984396609, 0.12138391687289485, 0.8660791992804353, 0.4327372322828472, -0.685817981886546, -0.15034730999936566, 1.0, 0.0653116417907181, 1.0, -0.02670203333807661, -0.3988846239904157, -0.5307703585379961, 0.9378289626650811, 1.0, -0.24659587050026827, 0.6775707392264938, -0.9535198338558252, 0.5382342527492521, 0.17147442578999522, -0.053730645516587766, 0.9031121311873396, 0.06434646075669281, -0.08393065015867263, 0.6344332304148897, -0.7915045345279512, 0.15075329447418, -0.6776912938482835, -0.38102858027458464, -0.8611528918726916, 0.7038899101642071, -0.2715080185590588, -1.0, 0.6415154381394719, -0.4272898710714182, -0.38711436571069174, 0.26022271978029976, 0.7263584314912402, 0.8295498682425848, 0.7629883132083088, -0.0740960087664422, 0.022510846938115864, -1.0, -1.0, 0.8274199143113123, -0.1889557446033509, 0.6670982897600916, -1.0, -0.7334809597971914, 0.010308725979602251, 0.6538640046905158, 0.5679467048333744, -0.102210194984932, -0.014513303211624418, 0.6296046732249109, 0.6955826848597806, 0.6752130968812926, 0.6403269705373812, 0.6917305495407601, 0.7436602632926959, -0.7919317988485298, 0.5854006729739522, -0.21681379575091297, -0.40057115374976865, -0.0706478150888559, 0.1505308557692449, 0.5601556239539376, -0.02811513709218194, 0.2769080083348771, 0.10482890330765493, 1.0, -0.32278197903377537, 0.8513971105890039, 0.49766628494533727, -0.8350534881281533, -0.8451597976084344, -0.8166914518016972, -0.40709362165445967, -0.6079997396571222, -0.6011099633054676, 1.0, 0.6999769521628477, -1.0, -0.21586366878060612, 0.32582287447719915, 0.3636762925244441, 1.0, -1.0, -0.9083546897642243, -0.0946184935031418, -0.1927206185196087, -0.7520182285072498, 0.6117942538032719, -0.3521726302127966, 0.5772697748823302, 0.026949828952036875, -0.6971114263235054, -1.0, -0.17164569408800673, 0.7323643224605452, -0.04170512736797921, 0.29878663685163276, 0.9607916846759422, -0.1146629781663866, 0.6677167559694255, 0.9270134792259768, 0.6857268795599454, -1.0, 0.4727337809721621, 0.4601097078172549, 0.16375254817108237, 0.003245021471058901, -0.9644411913108104, -0.6036656818025088, 0.7069990794442667, 0.18980109130455583, 0.9445606840360918, -0.17192964075896985, 0.20256912626709048, -0.27568066297562477, -0.8029868139839602, -0.05227052918440625, 0.9980022874624497, 0.5081462824100029, -0.3915014935901958, -0.7605284738495943, 0.5544452785297145, -0.8137076257085343, -0.24850999623635944, 0.10115410243725936, -0.3524274565349847, 0.45306858997412897, 0.06537429501666236, 0.8168398414980071, -0.48848470753659456, 0.9690550011982504, 1.0, 0.5618802539705912, -0.7981756368503226, -0.4272385524958653, 0.8543605152916338, 0.9872908830184484, 0.6729144814205696, -0.14277462206662767, -0.803093074438006, 0.26880292730921784, 0.43382179482818484, -0.5130029481074904, 0.46692769028479186, -0.8799683705925365, 0.27313039233963227, 0.1521850698299218, 0.13317654081100405, 0.501676661282807, 0.23980391128141204, -0.8228586496443093, 0.53749689100878, -0.914352392945456, -1.0, -0.6495824103909826, 0.8559803268042574, 0.5450365617812403, 0.3733657108299761, 0.3261740810274586, -0.9674593097430682, 0.6218755078408699, 0.8750985823063366, -0.17456524670728146, -0.02097992174677943, -0.8937404160206333, 0.7681738289610133, -0.34443906105437316, -0.1148580324644893, 0.5186677054588327, -1.0, 0.8025324275468785, 1.0, 0.658932387019831], "fitness": 57.26665872310225, "player_life": 0, "enemy_life": 30.0, "game_time": 309}
{"weights": [-0.7224589422966491, 0.40333936371157497, 0.2986444671339892, -0.09323214642156835, 0.22438819211555036, 0.26511606803634413, 0.2878369110321417, 0.020039834097875797, 0.5980654003142802, -0.2941109467307614, 0.38392203074970443, 0.9102068929985773, 0.21328233978993622, 0.12021718523472191, 0.6699779781750748, 0.2915831896421181, -0.3144109229850382, 0.3765412199728375, 0.5611275987340347, 0.6070591774526184, -0.19019733910472225, -0.45822211512575195, -0.8219014982907781, 0.5792045607373074, 0.38922209583992384, -0.2886853515943574, 0.8555309792342267, -0.6105902078204604, 0.052542903009593855, -0.6186501335996197, -0.8778643318213604, -0.14228767371144915, -0.6561075361465987, 0.6851883336647944, 0.6031480772883036, 0.8082461192945396, -0.1773472236212565, 0.8215275455332408, 0.5197692433753679, -0.5476241677963393, -0.8809071686306404, 0.2512669508927867, -0.15624960045333217, 0.3246503342323525, -0.5703345963025628, -0.49385177729745755, 0.5030390805131242, -0.9594860966580361, -0.659388940909823, 0.7542276540878075, -0.06551424631786769, -0.4846791639810172, 0.2517772224466597, 0.2724592059329578, -0.8299069350281905, 0.1774703586312149, -0.5443169082822183, -0.6702682213543548, 0.16021463805075875, 0.5047675651817847, -0.552638670688721, -0.2539180642672785, 0.8747698664284926, -0.7570770707046968, 0.7163978782242844, -0.8779896962550298, 0.4569081679846634, -0.2111506385952281, 1.0, -0.5719557996533575, 0.9143993759742459, 0.9343690642071889, 0.5176590870704291, -0.3672384983296937, 0.6276130027550572, -0.9767573442620094, -0.24506970981430126, 0.5794311296559004, 0.3759484470117682, -0.4766641378407895, 1.0, -0.4224903381605254, 0.1738025604562713, 0.26331116812094296, -1.0, -0.5471195169072105, 0.028162213212595905, 0.5018465728665479, 0.2911817301995412, -0.47540941667291214, 0.8854253641166991, 0.6875565133435743, 0.5789610083413967, -0.6891379964109691, 0.7874998257993662, -1.0, -0.45611801495683446, 0.4735777338698449, -0.43885792438517096, -0.11767818910337544, 0.6264117403957139, -0.5934733770129785, -0.8401820729941051, 1.0, 0.21098489310296548, -0.5093303984742922, 1.0, -0.8442963042399352, 0.9882244803052812, -0.815712887332928, 0.2968157818377475, 0.4835797725814963, -0.5311455984904309, 0.09052543094698282, -0.8990015124899571, 0.8085228041632886, -0.8779896756077373, 0.050248340005475844, -0.4592096607019073, -0.5227002260317689, -0.989000222138237, -0.4052303597285621, -0.004448577642980761, 0.427478804028473, -0.40280826159441513, -0.18016975747320674, -0.4482394727038082, 0.30020336952189125, -0.06104897462567083, 0.47439146939355553, -0.3450958400914816, 0.07986782413670382, 0.7250907902581699, -0.8936371106562295, -0.913395198550494, 0.7596314008584109, -0.23357295484469076, 0.17563031699910175, 0.015382229305716477, 0.6091657261077351, 0.3373866787721127, 0.9629631571470726, -0.6836429107515927, 0.6261620252703044, -0.2002530570969969, 0.3852237589057273, -0.8022707762654606, -0.6585035569909623, -0.637091456878935, -0.5013414280842062, -0.7473894800919753, 0.48505658902364424, -1.0, -0.8122007981898398, -0.22073816219202597, -0.5387447603983859, -0.5104528747281212, 0.2723606369095326, -0.8951869382912586, -0.656533057479493, -0.04334897256125267, -0.5422302995297675, -0.6809083440899296, 0.2729024893584341, 1.0, -0.2581034884879884, 0.14307953581846203, 0.2957750556136065, 0.3353560935830422, 0.3742988683196018, -0.22213233318224343, 0.37975566122571813, 0.9555005470155137, 0.6671866503676223, 0.35002737258085925, 0.011892116714880385, 0.22783452805203763, -1.0, -0.3238359102961293, 0.0661117453701475, 0.7106882276516948, 0.8491664777169382, -0.48640421714424575, 0.747756434661857, 0.21548411591172248, -0.4938884425740619, -0.8916438689555576, -0.07755798355914667, 0.7565422778912783, -0.18714270323970028, 0.23650881836225962, 0.27421091642701595, 0.3310557357994403, 0.06427520729543776, 0.5135574425877729, -0.1650547824921299, -0.6893502973125266, -0.43951537623393166, -0.040542513609813646, 0.12004733609081622, 0.2665269312348968, -0.21894973268087034, 0.28983934603227834, -0.9382770099778901, -1.0, -0.1517332628567426, -0.6985322180992338, -0.400892669592828, -0.7341991849929212, -0.8410707367826479, -1.0, 0.7683633435752951, 0.16404716113030104, -0.35089231549383876, 0.7120345061874702, -0.6902428896760064, -0.5556109031735443, 0.32851030100833367, 0.8150514959115669, 0.38604639133185176, -1.0, -0.8238520068701365, -0.4188654780493515, -0.5567751144804859, 1.0, 0.3964357846301693, 0.20035773878478302, 0.8812999372936396, 0.6603468434244193, -0.7747114463111238, 0.35722967107282966, -1.0, -0.7889181975035422, 0.31728808338338793, -0.21080019793401542, -0.7030528274215848, -0.7120341451335859, -0.30971748664575244, 0.01915584559450187, -0.5635279016919357, -0.6514465551173383, 0.4414587881139621, 0.9454247773394924, -1.0, -0.3687465724404008, -1.0, 0.5207332541651668, 0.9003017444412224, -0.6101546505219453, 0.13720156683154303, -0.03676763964568641, -0.6757085086402025, -0.13299954228500485, 0.6190985409879746, 0.6608630500868172, -1.0, -0.06269193244566933, 0.14815235254047804, 0.06527983536601142, 0.707985074921907, -0.35666996241187904, 1.0, 0.876541112986601, 0.817523340688715, 0.4898085272177201], "fitness": 57.16226955283406, "player_life": 0, "enemy_life": 30.0, "game_time": 343}
{"weights": [-0.30016335482730283, -0.49373315983604893, -0.7973028148931585, -0.024649039296682634, 0.7589639964929796, 0.3911350395039829, 0.551177302689629, -0.037431400136086174, -0.05500614268568907, 0.36832324758935336, -0.877242647444294, -0.3893270866626878, -0.4171483546500188, -0.27719069894439957, 0.34136328138239463, 0.09896250166356657, 0.49773539773727615, -0.36817989741843843, 0.4234551670901362, 0.09135355302790144, 0.30227653131846394, -0.2625259585370937, 0.1812568925850489, -0.11269227978180293, -0.5407012493716938, -1.0, 0.24200672644019258, 0.05671925696829583, -0.034797456989709125, -0.09056769290475797, 0.011676325298598383, -0.6949751217134699, 1.0, -0.34454350683626755, 0.8015212261170799, 1.0, 0.23172857996069368, -0.40242604661916914, 0.5739747602584875, -0.22533566094013763, 0.0489727975520258, -0.565294185362861, -0.10993831977729701, -0.7414643234144866, 0.2610940093641996, -0.8416435579556402, -0.5928148036942932, 0.2842966412819675, -0.3440939170082522, 0.5904792964729564, 0.8666329945696218, 0.8684836542843395, 0.029039633072168697, -0.34810535942941145, -0.7435076120170607, 0.7653352036587442, 1.0, -0.5005906764169511, -0.3306488687813649, -0.13073962058089827, 0.37945140382613235, 0.1317259727206721, -0.7033014056593176, -1.0, -1.0, -0.9542114773318325, 0.7197575688729614, 0.2095046520538555, -0.5946725739668989, -0.17951264885957896, -1.0, -0.25110109243275563, -0.5722660825724919, -0.45648200386589527, -1.0, -0.7128266232049106, 0.5823393144372523, -0.22041973938410542, 0.7796751786004772, -0.6056027820039929, -0.7189651720072369, -0.7142693311746175, -0.5849244738782, -0.826645242653453, 0.6293816474018625, -0.7307432978530265, -0.048158559778745724, -1.0, -0.7858695750360751, -0.5268640655703252, 0.18479381888331115, -0.5319448197966575, -0.46815349232879977, 1.0, -0.9201898773566051, -1.0, 0.19716849659223717, 0.1442123749635737, -0.491201149764467, -1.0, 0.09190908935437776, -0.01900974673453476, 0.8515991808019555, -0.5025866499964773, -0.4616318562037887, 0.841590444563373, -0.2159440176350531, 1.0, 1.0, -0.17739532602021793, 0.4005462009050759, -0.3678500676481938, -0.7737080739875425, -0.1835777037682918, 0.34491262988249577, -0.6719632159920326, 0.5348911837016621, -0.15307213362643163, -0.2566821333513545, 0.8325662768309672, -0.5895495944667098, -0.26211661249790985, -0.9868829715001062, 0.8914140799417832, -0.3563757051003185, 0.4311706216816311, -0.7477594823717764, -0.5957730594184714, 0.609142727601828, -1.0, -0.5576810499965279, -0.8012100690586431, -0.15292856996392706, 0.35136889199334553, -0.4629584455737463, -0.7313549333421553, -0.6497271107420262, 0.7347625370910509, 0.4745101245940317, 0.5513111078149502, -0.0752231566655729, 0.3448968798235288, 0.3350887202951608, 0.5428715052064208, -0.40669158355776897, 0.7618865111522283, -0.5160983948370572, -0.768151618390283, 0.1799444633063967, -0.930391293492594, -1.0, 0.04783627967482887, -0.031116104112090037, -0.5277458181726082, -0.4935962385385645, -0.41405946408191435, 0.029961824936014347, 1.0, 0.19559368180148667, -0.26375652933018223, 0.2710015807737787, 0.335640367554388, -0.7621649436503564, -0.5025704467087128, -0.08826146123062642, 0.36714576378287855, -0.4922524113208767, 0.04443594310720694, -0.34472771480184994, 0.8163296533592799, 0.20931150952707867, 0.19256084483914648, -0.9733843320214396, -0.09854111103004198, -0.657306729678524, -0.18564596243295692, 0.8845911919144311, -1.0, 0.9224430972721154, 0.7263480854041782, 0.28084318923992335, -0.24211824665514098, -0.039758023776563844, 0.6245592787491785, -0.036627953887898856, 0.12941620455884265, -0.13108443670576672, -0.900714690722807, 0.16667050144863216, -0.45411565704063217, -0.6947573024913062, -0.1846895083017323, 0.982260816728207, 1.0, -0.3586916561237048, 0.7714091378720522, -0.2511525886223136, 1.0, 0.9424375993809642, 1.0, -0.7866530043888008, -0.4765546344884462, -0.26946205723957245, -0.4499526240549572, -1.0, -0.3266712921842349, 0.5027542866769277, 0.49526073059824294, -0.12328822059198813, 0.4175517428497977, 1.0, -0.19172985205420073, 0.8358380513873586, -0.879534999534411, -1.0, 0.43999114410236784, 0.32333813891469765, 0.35713281780622, 0.6971176499968665, 0.019950082711455597, -0.7298062082482322, -0.47293996626364254, 0.8901878639344191, 0.3431320834359567, 0.5339989741265427, 0.3789491856378242, -0.9888267285107857, 0.7984759607279046, 0.5972295260863227, 0.09653956218922378, -0.234859604847256, 0.1596901473880104, -0.6335701434965274, 0.7582118459133855, -0.3785365021194247, -0.09784392763297003, 0.15280721440322023, -0.40712439994446825, -0.8391111878479078, -0.34548918493168773, -0.2095585759259564, 0.3250416997970152, -0.30323660167947664, 0.7589702682079804, 1.0, 0.7449005696227518, -0.2054390891117849, 0.12026004711056335, 0.009342524166907312, 0.9327939839753748, -0.8163888320820252, 0.659574710312074, -0.03417741691460058, 0.8892075019535592, 0.7257652813741453, 0.7926258197522701, -0.8511758668360735, 0.21950845388103923, 0.5148424229649446, 0.8828540576297194, 0.2611861855327919, -0.2427307687863352, 0.4935838555095554, -0.980231651358848, 0.05141257308870181], "fitness": 57.23167900420623, "player_life": 0, "enemy_life": 100, "game_time": 343}
