{"weights": [-0.19568826562596153, -0.1959282308102847, 0.008704698697526755, -0.9972587374268576, 0.7322003596328573, 1.0, 0.44628916857038103, -0.4628013396505764, 0.5722384780976665, -0.6060634164800827, -0.9096307243546625, 0.2772056700322709, -0.6998065071568166, 0.6581244399909711, 0.5078293257916091, 0.8154875732723783, -0.36734508902246177, 0.5075307111374815, 0.8595342596635366, 0.9801997958643014, 0.16057916898914226, 0.8245207374369111, 0.9512385026262983, -0.41097885276333773, 0.3154912183173652, -0.7365787997836815, -0.4094150612133752, -0.5876516654764901, 0.06989112901832992, -0.4369576867345317, 0.5719953977981594, 1.0, -0.2849103825001543, 0.02431218635769755, 0.08013133337554643, -0.4214416609957986, 0.7553995193730094, -0.3322576660848605, -0.2497589805195719, -0.4860587646099028, -0.7084779346100007, 0.7577963236031511, 0.9474117877375606, 0.2240469400908913, -0.4984682475445106, -0.7259439155349867, 0.7614180498869386, -0.25290637742301475, -0.25551822088457316, 0.1400725593978965, 0.8608244100528161, 0.36449216855821853, 1.0, -0.8081875658288357, -0.978224069933954, 1.0, -0.46330489146628157, -0.8902303004394734, 0.43577376262722134, -1.0, 0.6534042697312404, -0.24276110921040223, 0.7585840457272153, -0.48396031657563476, -0.16931256773719414, 0.39352873573578184, 0.25020450958406504, 0.37384914545125486, 0.14393830320085532, 0.8864915328425876, 0.3421013110753772, 0.11115237570877462, 0.8583056061977019, -0.08195025561159985, -0.5801844041716141, -0.8482091025103224, -0.35011070774751196, -0.6958033385459571, 0.06627633020161228, 0.30661179262689026, 0.26404685809178696, -0.9368285631876246, 0.5914719817719312, 0.7401331909618349, 0.5624337527455487, -0.1582754118211433, 0.2497723360280341, -0.33260325456851775, -0.3662805716014813, -0.6998644512399139, 0.8505266415276481, -0.8188062517144141, 0.6718557604027964, -0.5057094908594737, -0.8430240254612168, -0.6865423064837828, -0.6966666415478763, 0.5834528436789371, 0.8717052038088933, 0.00807692869709542, -0.37750602561671837, -1.0, -0.5976033904338334, -0.2048672457414773, 0.10013278092007633, 0.7836095684890342, 0.9250548268821096, -0.6632496511543959, 1.0, -0.33611528469517465, 0.7832135019971936, 0.6901550613284878, 0.6002827687127864, 0.6270499379394847, -0.6337248890477318, -0.829247305518086, -0.27724034267617415, 0.30355358101473745, 0.012896105731191487, 0.14618294683695934, 0.04914319230380931, -0.8652452287065792, 1.0, -0.08528557339839149, 0.49362276750316614, 0.1831810994488599, 0.5697327940297297, -1.0, -0.18036348382680523, 0.8952710871520364, 0.6018389497844956, 1.0, 0.7930040198506603, 0.8572031540273893, 0.5891579713239123, -1.0, -0.9667257172651624, -1.0, -0.8976200615670222, 0.39343545766698756, 0.9441145287650141, -0.7618280072979591, -0.8585608468653745, 0.5373821706720843, 1.0, -0.1337551081420209, -0.879014202649794, -0.7666547421637518, 0.07366283374081165, -0.6513296836435916, 0.8888800494121321, -0.9153712924325953, -0.7316545244598656, 0.027278032752258735, -0.5297182479204372, 0.2745501359272777, 0.28219868531769826, 0.07865174685234134, -0.11304473286348994, -0.345943450751285, 0.9253527680272056, -0.22410327434027077, 0.4536753954078841, -0.9658540641000868, 0.4949741114632592, -0.05547932513402068, -0.26084054816330043, -0.7731473763437313, -1.0, -0.8339007769942317, -1.0, 0.49381263983556467, -0.41843459299248764, -0.6497030300679631, 0.5072597978425174, -0.9339960744984026, 0.49902622387672946, -1.0, 0.5505221590742673, 0.9949013122932042, -0.22325576214616522, -0.008374415907024146, -0.6750400931078081, 0.7612438055410959, -0.8092303077292113, 0.8936040588054803, -0.42794251036826697, -0.15150462563696487, -0.2235979352146812, -0.9783992409701903, -0.432478689985174, -0.9047902338833742, 0.12479998736702294, -1.0, 0.5025193741577116, 0.13267349260122677, 0.33098659096352623, 0.4577128568370954, -0.04710222171716377, -0.2806700747137401, 0.44363731381320276, -0.5893733481690631, -0.8446926617646253, 0.6680247897865316, 0.13893133925323475, -0.5872209670180256, 0.5600652006142269, 0.9733780055673993, 0.6808362924964662, 0.8891801914541659, 0.37377708220787587, -0.8240806689193851, -0.08051402641975908, 1.0, -0.5722026232360475, 0.44626373655002793, 0.5636926011893894, 0.1672691654854221, -0.24042370513412742, 0.8153922602595914, -0.3818500478266763, 0.847836272763939, 0.9575343345996263, -0.7928754344195275, 1.0, -0.6871981303512447, 0.7845792135584038, 0.4014187849545281, -0.8285071368565132, -0.3935434015054637, -0.8760065046523572, 0.2050725769290546, -0.5617199270737765, 0.7889919424743476, -0.30351305875567886, -0.23834678350546865, -0.023320802601157792, 0.3816177983152067, -0.5703929541912288, -0.25351050518518436, 0.09346403175483384, -0.9810636509074031, 0.909207224514407, 0.3303829069032393, -0.08610773502057745, 0.7295798292142854, -0.4381335683343528, 0.09618023976219953, 0.0342962491127457, 0.8550753871127184, -0.10449542912198595, -0.46375725917247, -0.08178472060291331, 0.411090860291216, -0.5692926492971364, -0.6566397995252153, 0.4558347263253921, 0.36221610871740184, -0.6631973290139509, 0.6359884601046736, -0.04747869613087982, -0.9209076319349185, 0.5698208309823654, -0.587354994436913, -0.3656925264420383], "fitness": 94.02326625757942, "player_life": 90, "enemy_life": 0, "game_time": 145}
{"weights": [0.4403310191377111, -0.6182141340389132, -0.5971232425994505, 0.10653528007209577, 0.8594384264907674, 0.8343648490828348, 0.6893357934073919, -0.7972076263392798, 1.0, -0.33782889580216957, -0.948578522474609, 0.3418716811194423, -0.7539282969556445, -0.7698668087884324, -0.4526555929732377, 0.4459136348892453, -0.5587229025268358, -0.05551251357496714, 0.8825703476111095, 0.6220365360601307, 0.6296167729850671, -0.7255516653793493, -0.22195893497342534, -0.015167017601347255, -0.712884340860086, 1.0, 0.777862032954667, 1.0, -0.3363715246269453, -0.28574659979611866, 0.37433553733469055, 0.8888518501616043, 1.0, -0.14984315698284606, -0.6436045629411661, 0.5750555408112155, -0.7120906062791075, -0.8077351269440509, -0.6888715681365792, 1.0, -0.48812036326328584, 0.4378455995069151, -0.18060033950054918, -0.3422051960262523, 0.8794365383413622, -0.7725777805477876, 0.7639091510575976, -0.5843229260518157, -1.0, 0.7859329582316785, -0.08557338307374734, 0.5659578980192892, 1.0, -1.0, -0.4875694558189205, -0.5870570890855761, -0.06560814549338677, 0.7960732774412949, 0.1440930873215044, -0.40523254269461517, 0.17569411273854801, 0.21960272422266786, 0.6233665390697312, 0.636360163403914, -0.27521933527532516, 0.22210414504823103, -0.8189859659514789, -0.726016118540084, 0.5092694454793714, 0.6175843186229497, 0.35932318547199343, -0.0432021058202145, 0.7242759661373063, -0.6535650290025358, -0.03257490009884151, 0.01089422817077293, 0.4463458758765021, -0.8209888317442708, -0.47616071918355257, -0.8958884757981231, 0.6875533055233891, -0.04412512301241414, 0.7050133015887472, 0.410991700957798, 0.08325065099330284, 0.9728080461529488, -0.9291920240089464, -0.5826706664162578, 0.5365011167612118, -0.2562951851302076, -0.8765264845441542, -1.0, -0.5249084530078968, -0.3517770162936508, -0.8907346192143385, 0.6612469035998575, -0.34967605945185615, -0.6689579979516682, -0.1186673295036133, -1.0, 0.16070082853390105, -0.17544492961567718, -0.6331011203051535, 0.15873947289270765, 0.3085406912962201, -0.4967109690743165, 0.11616551730354172, 0.35487224282812185, 0.0840662340012427, -0.38623981227066956, -0.1064978920242205, 1.0, 0.6607547452127853, -0.3065433728233407, -0.4872109826350472, 0.011713100293960443, 0.7068826553474219, -0.932276965618613, 0.40110754958154526, -0.2591870897655672, -0.6995220496904297, -0.8336421991515091, -1.0, 0.6871235042978733, -0.43253534817479694, -0.047611583991549994, 0.8413712694264135, -0.7771108398126001, -0.6549478966713755, -0.9322994733259785, 0.02944341921535576, -1.0, 0.8000435841733039, 0.02348336396370604, 0.5548909059812779, -0.7024433318733136, 0.5230357710262975, 0.6964746447110581, 0.874910818670644, -0.7957853349320438, 0.6511001429823594, 0.592777017644006, 0.46495992499593597, -0.023455955034944714, -0.7896510089035506, 0.9118869600063436, -1.0, 0.7173153822444397, -0.6878037283556411, -0.9747892700161174, -0.367535388070269, -0.7345968553703442, 0.38087804967095507, -0.26216749669262907, 0.32719229390913923, 1.0, 0.6456662139499262, 0.32082824813746336, 0.28236461341414515, 0.3985831496190352, 0.3709270411438815, 0.6457117886796709, 0.802411319196122, 0.42022522360559506, 0.129568600862651, -0.05536761364263798, -1.0, -0.9744231114395534, 0.02415222956739424, 0.6531649553967568, -0.23279752117169078, 0.5942335491850471, 0.36300805772228995, -0.3870095459381194, 0.696835708292699, -0.9768469319402916, -0.06080537689703977, 0.1393130584113569, 0.4225837172821323, -0.923952262429408, -0.5525209623210003, 0.12403156209581256, -1.0, -0.29756016887085246, 0.7010080817821335, -0.09448796761611594, -0.24349876704050316, -0.44596929228152693, 0.3524694863784804, -0.14202037335319434, -0.0656523649157506, -0.07497092713991842, -0.223958249673135, 0.6234709164312479, -0.4974171457975235, 0.17555430569553696, 0.21729987612875484, 0.5657780311711985, -1.0, -0.8177136769370396, -0.650960711938525, 0.07506591627189757, 0.7694863836990842, 0.09130882187988093, 0.8219701875494112, 0.28398718868491835, 0.33679968005842764, -0.4686745450727742, 0.8300877878797288, -0.5629460537413062, -0.8713685314275095, -0.1835384196757895, 0.30280252832866217, -0.006412859147348154, -0.08892000435947424, 0.26019642366613605, -0.6875515503339533, -0.5097917773151261, 0.11147651907769124, -0.5324385824221812, 0.24304889590317136, 0.6533361608311093, 0.5518115506495327, 1.0, 0.15962098827463933, 0.11988555906748599, 0.02377664697683529, 0.32013480763955443, 0.6365960532748245, 0.9434040226957184, -0.23147611462987613, 0.025412401727437, -1.0, 0.8095013617216669, 0.8724227130466522, 0.5742985739363344, 0.7721390239545318, 0.9279585635461275, -0.05819291054672532, -0.8330176169061806, 0.8223968517466274, -0.044455401697741315, 0.07846748307288309, 0.7754737997299858, -0.6856761801470659, -0.8579328135069095, 0.5772902925137332, -0.7133128477749815, 0.584517644198648, -0.008318408742091193, 0.8194470025892474, -0.6058649552505816, 0.5615468087078475, -0.06178267353529053, 0.6849831864814018, 0.1284793502884619, 0.8229712821866492, 0.3816612166722906, -0.7159507599016608, -0.5242760814145813, 0.23172877090214217, -0.40864336534369755, 0.7071362121741926, 0.2656601902430338, 0.8112960919120824], "fitness": 30.159358342626604, "player_life": 0, "enemy_life": 60.0, "game_time": 344}
{"weights": [-0.5481552109447223, -0.7337169468426845, 0.7582235075434312, -0.550005227904196, 0.6410578907334694, 0.26843955098422717, 0.8010795735434396, 0.27602258372647687, 0.6596762332050279, -0.22815071894113126, 0.9904853012476407, -0.6866270546574678, -0.4823426075832019, -0.45422546012251247, -0.5182598330331205, 0.48549876383595625, -0.8768403552368602, 0.7588219386231965, 0.8612201067321683, -0.9277758429707269, 0.6822451888359214, -1.0, 0.6962243056808963, -0.9248967530725719, -0.5584365001331653, 0.732801773301653, -0.7339494736473011, 0.06826272869533048, -6.103596353423946e-05, 0.25078837186328795, 0.07681992222300693, -0.33062747068748055, 0.674407992527057, 0.7009238763453438, 0.20577355584414608, 0.1321351916050855, 0.5391906438163248, 0.7032868849137337, 0.41426588498521705, 0.40782595122085896, -0.33102044783459167, 0.9964078854326411, 0.9821507703882251, -0.3992698627600335, -0.0872029507678727, 0.4605853939807788, 1.0, -0.37338189098258945, -0.6624689285777863, 0.5175121975000455, -1.0, -0.2807102457366017, -0.2239041895933837, -0.5039722289744658, 0.3493897637978012, 0.2995794575100697, 1.0, -0.8256250327178886, 0.848899980789215, 0.26349100902987677, 0.681024704397887, -0.13268189912763192, 0.0399285610579401, -0.5224585598157081, 0.7406490784174147, 0.24697121959032114, -0.8683820651052223, -0.7368598631403901, 0.9459823758430415, 0.4401581923343261, 0.27081835869045573, 0.9134478844145282, 0.16193224092811834, -0.502440981917172, 0.3487974595481468, -0.5717996091080355, -0.04591995669705999, -0.39305821835827853, -0.1446543803224459, 0.9822604228175702, -0.6521168924856617, -0.7726244631165449, 0.8647135869779106, -0.4039235926546297, 0.11220242110673523, -0.27837813155108027, 0.7852376059339322, -0.05558961964410031, -0.8001254149809902, 0.23421302220968887, -0.5688895232869042, -0.35894337936815945, -0.33122655473850193, 1.0, 1.0, -0.43079120267595233, -1.0, -0.72527456944531, 0.780077772800813, 0.558183587108952, -0.41935507373879766, -0.46284076154101916, 0.2511232579184046, -0.3463459530443429, -0.7866041245676535, 0.5021634481585184, 0.9511092470163454, 0.46951059046750854, -0.4363475069520694, 0.9260009316356441, 0.4126147081579699, 0.00616136397636044, -0.6575029270882765, 0.10894126274023833, -0.41709746413343596, 0.06238022874713545, 0.4120350391400684, -0.47252688500829326, 0.9295004248716427, 0.5709209843217342, -0.15349390604749247, 0.5408808469483857, -0.8350261906806604, -0.3196781716249, 0.2739718013349858, -0.7216337232232539, 0.9683379878232441, -0.8191804699125425, -1.0, 0.6020594308204079, -0.05089290586096007, -0.8627300584762021, 0.33371727282138064, 0.2667425436731286, 0.5240842326953747, 0.9328144206217565, -0.030945885516121235, 0.3614864443093819, 0.4518915726772986, -0.5729327347942668, 1.0, 0.6990726885014097, -1.0, 0.09118814284753823, 0.596814984641543, -0.4400360097893167, 0.6838685979029484, -0.16249455953072606, -0.5603760880731373, 0.1549767522135326, -0.039513757682186526, -0.43921396453333283, 0.35317232418131106, -0.7060382233048147, 0.6886745706863155, 0.5578071711471962, 0.24465425702055343, -0.3139082598421048, -0.49583152957920323, 0.5903341697326387, -1.0, 0.1358700775294296, 0.8712911700785575, -0.06316120436539821, 0.039933047921414416, -0.716320045427552, 0.4829770548990001, 0.5471807409666894, -1.0, 0.43331278444717247, -0.7663206694608741, 1.0, -0.9303412661853525, -0.6028386218641409, 0.9249208766084362, -1.0, 0.6010379404678794, 0.48265765432527474, 0.6843684997665028, -0.5943907242457096, -0.9090252375904123, -0.7432368605445251, -1.0, 0.5767602107780885, -0.3916102245331165, 0.3352316021024674, 0.9871270125496296, 0.8214232559503416, 0.548563777334595, -0.23620579162290511, -0.009896585237953337, -0.4720871854260521, 0.5381577016141841, 0.3610613830096123, 0.8274605455360783, 0.1946196761114376, -0.6401152238634424, 0.1721112306944904, -0.7390959848760722, 0.7540940060046668, 0.06369862083657207, -0.820292979492478, -0.05144430400033789, -0.5686328253849678, -0.3118370159596226, -0.6195113553019451, 0.32127884388195643, 0.6989408483683657, -0.9082377361161234, -0.12803760274166429, -0.7082686267036888, -0.8109857044605004, 0.5157699523532664, 1.0, -0.2525416580634652, 1.0, 1.0, 0.21990180095494793, 0.4669753213568564, -0.5140631838273257, 0.1471167221354816, 0.3025242563350997, 0.046595536811555316, 0.7162175196324301, 0.44756764384502634, -0.016859061817024817, -0.30104757153708506, 0.10065571795368781, 0.24573448996047176, 0.8042314297497002, -0.1716386227589419, -0.7706016042923023, 0.23636239643117624, -0.5236365214449507, 0.978439108827176, 0.6571320409410852, 0.42964352081279644, -0.7465808941091376, -0.7905335361856743, -0.908195200482044, 0.7754646075799225, 1.0, -0.07147987829736782, 0.9043925827736683, -1.0, 0.4570275453833337, -0.20396262205319543, -0.006782244751838973, 0.8531757661808009, 0.10629805214101148, 0.35812083315486365, -0.22158794235159238, 0.5045972506686337, 0.397751801360809, 0.49966430612455603, 0.5124392668821502, -0.22636916328842543, 0.8102669960568833, -0.3242588495661837, -0.20027728235776351, -0.2097289589599249, -0.4846520298562523, 0.847038587722309, 0.4314392047450001, 0.9975378243378414], "fitness": 57.16226955283406, "player_life": 0, "enemy_life": 100, "game_time": 326}
{"weights": [-0.8515382236106894, -0.30542714148822864, 0.5597910656062328, -0.27601982436286293, 0.23341571537594272, 0.9764072674443656, -0.8116386419839194, -0.14437629952675257, -0.28052232925670273, 0.2350835812752125, -0.6052794317421728, -0.26884609461929565, 0.04859152074882517, 0.007535152644297466, 0.22100709572994764, -0.6710542987014313, 0.4212283445326957, -0.9301224561726779, 0.025215605769813326, 0.6170148381993756, 0.9058547631414398, -0.5280605932430225, -0.8573490167395152, 0.744558035785899, 0.20878895002506376, 0.7133519128290898, 0.5969766399302328, 0.11997337818552797, -0.3825972834119449, -0.6724789500463866, -0.8049568578475337, 0.6432801427544437, 0.46242983903083373, 0.6412910862662575, 0.15389972600591562, 0.638760849750228, 0.9988205660069303, 0.35880763006185, -0.43540369477012614, 1.0, 0.727628919256872, -0.4082886264960217, -0.656274556972225, 0.6582483960038442, -0.3285547934565076, -0.8590860706378385, -1.0, 0.6881398404919337, 0.611110375678074, -0.63547515498025, 0.22829158527839902, 0.5144172953142663, -0.30050075207946925, 0.13426403972235434, -0.45048165854875444, -0.7186922488689151, 0.6214510810906588, 1.0, 0.5366196228623592, -0.2203998704499915, 1.0, 0.9921698033768623, 0.0627966485218471, -0.3027657292538981, 0.06867334880213649, -0.5638966437403565, -0.8920844251712334, -0.974921660238517, -0.6273043333734385, -0.3152115784519173, -0.2878696231261055, 0.03675993552729934, 0.6668965670720104, -0.1690490396408403, 0.8662634592905591, 0.23038027370278363, 0.2699364090721971, -0.6729523057726547, -0.6194556467037893, -0.5789569729198819, 0.014692216494900767, -0.0898932165090186, 0.9368418716865277, 0.45146028339281874, 0.11557132050680707, 0.5766116555783112, -0.3072637332534704, -0.12484640407765725, -1.0, -0.06776933325659418, -0.8587956168305043, -0.8566391603645911, 0.011885688152214163, -0.3664546062957627, 0.7054874889380764, -0.48952869010279376, -1.0, 0.1266781605383916, 0.8237651352661057, -0.23840201596082278, 0.8018595028284088, -0.38225251471247923, 0.3279258905628637, -1.0, -0.588727987067514, -0.06761249936602876, 0.36429276271931466, -0.21762755529054223, 0.12316126726045173, 0.2992485225476318, 0.14322037103749868, -0.6866824338896016, 0.43942180360964506, 0.09111126968527378, -0.610717695723586, 1.0, 0.08852872781511437, -0.9458055811668289, 0.33584548339958853, -0.27325651635294756, -0.09269372364886211, 0.8250515344300057, -0.3319201214115165, 0.7561059476983486, 1.0, 0.15599215298998853, 0.055456821589027955, -0.7737272516396877, 0.5623501952983816, -0.4008715255670071, 0.34496108681796134, -0.5280569223211415, 0.6096828883015628, -0.46698200955948743, -0.7153129463671011, 0.5586425895260406, -0.7212388302507884, 0.4852039118725954, 0.5095562620588634, 0.1806516302734364, 0.21567047142057275, -0.6836436722543875, 0.37947203593019896, 0.07408060008848671, 0.8134985968118682, 0.5299365567110181, 0.04880946770188686, -0.41616909139335145, -0.4208999965663376, 0.18753340423764425, 0.16423025597037588, -0.45123927296049676, 0.7964323118181394, 0.8565947564150993, -0.8045090771301165, 0.7920676209928603, 0.745075662928145, -0.2793559014154403, 0.7562773038067835, 0.7639647346418664, -0.8519136846680936, 0.06369991560804464, 0.08302628420344546, 0.3147326058381725, 0.027620567514400174, -0.6986105905550253, -0.8663803832578987, -0.9304222481035981, -0.2513079731247728, -0.4447660299775458, -0.6981077327077139, -0.4583369657024292, 0.6358772868788486, 0.4599073290421273, -0.550134119814258, -0.10920373648433854, 0.03200357584179345, -0.6970501128407739, -0.1776158815442567, 0.4244142406559288, -0.7489954248558123, 0.05101663832069586, -0.9253245301487701, 0.3349178317100876, -0.42731815292181163, 0.22754622079220696, -1.0, 0.5818071096756761, -0.5311423061945553, -0.5010515734054761, 0.8388441591557979, -1.0, -0.987808955278499, 0.6494448921335555, -1.0, 1.0, 0.010791096785114002, 0.452355089644316, -0.7631371657436038, 0.8000859068359061, 0.5611627893469833, -0.6056664422218382, -0.9570321126030258, 0.9879739810820397, -0.25704806315790474, 0.284500589171904, -0.027478769514213602, -0.8980374678414511, 0.7686520962822185, 0.8640220751002401, 0.05241524929311425, 0.52531985583394, -0.1733842582849916, 0.35067529977313466, -0.8686599514677522, 0.9016360707984872, -0.3216668468434265, -0.22811734752994484, 0.5737690175653598, 0.8046640379738745, 0.6758585781304851, 0.11006866462510129, 0.038217072039116146, 0.7638336675569238, 0.4602963911770091, -0.2973405022891826, 0.46043228393240987, -0.8085304539104852, -0.6753382783306505, -0.43366188593490085, 0.3255183359452572, -0.9639841530464108, -0.7903822334318105, 0.8089933220536811, -0.9268165419501178, 0.8986630497340319, 0.4409637057189281, 0.03239571294711892, -0.17136353863339066, -0.48370922670055766, 0.9358298321436562, -0.8653277088081627, -0.8269424984103928, 0.46776238519884783, -0.8910196978404117, 0.4726776471017202, 0.7033670895497628, 0.26079165188351516, 0.5750362850647551, 0.29070142292454954, 0.09668838931770263, -0.6217983919248509, -0.7444056293496315, 0.8978717713916566, -0.44665031429602486, -0.46496899951430254, -0.8638292941699983, 0.887521333781088, -0.8425680910345656, -0.8540553655702627, -0.3566975642002694, -0.782657830463136, 0.6182522608299763, 0.9966108476590063, -0.7744315074663726], "fitness": 57.16226955283406, "player_life": 0, "enemy_life": 100, "game_time": 195}
{"weights": [-0.6822238466220933, 0.1849137076914735, -1.0, 0.4935234070429071, 0.47887344882225547, -0.018350406644680878, 0.6873817085946696, 0.48873689325816005, 0.5567661048714272, -0.2014346517813579, 0.9087229022085536, 0.1477477461296931, -0.9940208813180748, -0.44906488210742734, 0.32128570951855007, 0.06383448670246028, -1.0, 0.6420076195627731, 0.5373810888517369, -0.42968247326290404, -0.0006834103931295799, -0.8851584592141193, -0.2208737758427765, 0.05709050137009103, 0.5879273201195585, -0.5833196802527969, 0.6201892603437043, 0.011276667548191746, -0.31379846970996833, 0.010584694876833861, 0.47961384773073035, -0.3159754957901896, -0.11062274909486897, -1.0, -0.19574265733206986, 0.9856909042892975, -0.11756284819264962, 0.024502667844882586, -0.8407937101903491, 0.3204972965968024, 0.7167386081282613, 0.31673769018380854, -0.929531710264966, 0.578948682631294, 0.269274807520525, -0.652283974168412, 0.14255424306881914, -0.7786181732020985, -0.15253567145161295, -0.5880149037120828, 1.0, 0.6032363769610544, -0.14562750949330688, 0.15446430411083434, 0.3255892530507553, -0.253873022071308, 0.5232781259069507, 0.788563922739286, 0.4459322955185988, 0.9262502668761599, 0.16484035009321893, 0.4569687439402291, -0.1119936022441014, -0.5328014654834345, 0.8529866554597549, -0.46526433904149533, -0.9012318010225533, 0.02095933406628192, 0.5522851592925264, 0.05990599733195495, -1.0, 0.609153142602809, 1.0, -0.6323071521421066, 0.5924562005140107, -0.24894659166913974, 0.7160368707101752, -0.16309209315020037, -0.6509682017998797, 0.9896404224731419, 0.061143418976322195, 0.0017654826309570215, 0.9105233426794477, -0.3691713474659899, 0.6393557946070276, 0.7086205901561922, -0.45781377151748404, -0.5608075811157534, -0.2271574194119536, -0.7980470394359465, 0.9211645884893618, -0.375174876907984, -0.46565816753586703, -0.3533225790586157, -0.044792851248456944, 0.7961836540538618, -0.39463281467349925, -0.4847932925052303, 0.7902855528634879, -0.01755883239275985, -0.366519892508714, -0.1437049825382459, -0.13556311854541106, 0.29324055247015063, 0.8037497571550869, -0.1326369966138819, -0.43442778758583, 0.25479381172294924, 0.2803924231956657, -0.03710638698748894, 0.7054732803699111, -0.567069278332885, 0.09007793167587652, 0.3427277948760645, -0.29749449053452875, 0.06221138108756319, 0.050590318307953186, -0.7933829200255478, 0.1507491030910517, 0.2788662773687667, 0.08818879953829625, -0.9236700627505406, 0.2574183214560883, -0.7690617023447217, -0.9227050930868881, -0.13966952995417947, -0.09107470193224347, -0.498730642965494, 1.0, -0.3369452062174914, 0.4236544654672957, 0.4781462687894869, -0.1343817455337168, -0.17239895862630222, -0.8102901456783673, -0.01392463029133073, -0.42639778610363016, 0.9394109126364368, -0.43670321339613155, -0.3178500779751727, 0.48847215410122663, 0.1836868733007487, -0.4895543124629099, 0.27143063743035695, 0.5530661934642127, -0.08917168568028114, -0.08746242269756081, 0.39788031664672635, -0.6265523325961975, -0.29144298413726105, -0.5637055076090066, -0.6195860882182773, 0.24485746178948523, 0.5291043168652846, 0.8825010276510269, 0.9259778241585357, 0.42070049108807606, -1.0, -0.10574157182332497, -0.13783194203416121, -0.17746916910690416, 0.350729519748621, 0.914857436825237, -0.14263764934675002, 1.0, -0.7237282121923989, 0.2377939802076832, -0.3935560528754398, -0.11888475343957378, -0.5463393447723461, -0.17935701938036977, -0.638021803798879, 0.29805208121647153, 0.10694375376588813, -0.718678954652534, 0.24762494967976142, -0.9840986537608563, 0.711372774370412, -0.709825297964805, -1.0, -0.6153998609035447, 0.8385114820218613, 0.4885215896201285, 0.0458050461599718, -0.14611610747364906, 0.560106483041473, 0.27637121759098465, -0.2814825348141121, 0.37716881856469153, -0.45190751387851463, 0.7896527704014085, 0.8710255414637272, 0.04323170164764911, -0.3474682699656281, -0.7228140633721037, -0.01626203589265024, -0.2661680199814355, -0.5726623231971567, -0.1775577650749054, -0.2707865030456592, 0.451980872584179, -0.9432919859109024, -0.8406204712912333, 0.3538407457865166, -0.903969987996557, -0.022848202374475074, 0.7766076596019582, -0.3646455673276636, -0.7719307026619744, -0.77868944134352, -0.008571192803693561, -0.6290350784172247, -0.2957535233299632, 0.1913653787515817, -0.8686906783335135, -0.10684703424314407, 0.04959081197831158, 0.7926920060490857, 0.5136738967539727, 0.6732164402111899, 0.5500897433404246, 0.010336531716032882, 1.0, 0.8502546061420129, 1.0, 0.21913709476377413, -0.9915219810915723, 0.10107851464684339, 0.8812187032304697, 0.12441807508076236, -0.174072738006866, 0.7808160998967496, -0.9300212668200274, -0.289978103442035, -0.7348968586526938, -1.0, 0.29941075931461425, 1.0, -0.870705520291536, -0.9390097369615911, 0.49429496373041576, 0.08489412606667579, -0.6452207328286618, 0.4957578623234904, -0.7739565745666177, -0.901213962309042, -0.7586025403413369, -0.04612169918884562, 0.573090215562156, 0.2151373420340804, 0.46800016842478964, -1.0, -0.5899654776614427, -0.8998353700562957, 0.007850385258265008, -0.23531756934443043, 0.9018790298184912, -0.9968391871307045, 0.06607786830926213, -0.7895377550897678, 0.7091446031168002, -0.8193609104277024, 0.15697374672937578, -0.26993124389399675, 0.8807362377129974], "fitness": 57.16226955283406, "player_life": 0, "enemy_life": 100, "game_time": 195}
{"weights": [0.10217202993581281, 0.4311729608161262, -0.32522252298163096, -0.7543193701651167, 0.9906272476000464, 0.1202371180319087, 0.13784489636436975, -0.031173507204631676, 0.31564863507894436, -0.7883410495309574, 0.6199555769882661, 0.07234774615359874, 0.8270188025225784, -0.6346876181779901, 1.0, 1.0, 0.6202499180181047, 0.424176040957874, 0.4197651959193304, -0.4375772370329765, 0.6433221547856645, 0.9759644064373378, 0.018813636918244517, -0.08581315642108842, 0.9688368839072451, -0.10917021975070146, 0.8021978438861668, 0.8978497363634368, -0.6902579026171702, 0.2554780633830188, 1.0, 0.7137835085604967, 0.8549905267135582, -0.877162333240198, 0.8194835748430322, -0.33316693300616457, -0.8227587419786946, -0.7982350261454363, 0.683900995324385, -0.9395804594474808, -0.4074491679556788, 0.435359734666321, -0.36249479095271314, -0.3385402856227947, 0.2926563472945051, 0.3860225020678725, -0.7607139916194692, -0.7688929330902277, -0.14507149882112558, -1.0, -0.4447252856598086, 0.9124295730682463, 0.028700359003789033, -0.8768542425961897, -0.18778993729781446, 0.5872534670152323, -0.369375057706822, 0.7724730940103957, 1.0, 0.036961983648408275, 0.5000050049226076, -0.3705484409900929, -0.037649566769647674, 0.18917439721309254, -0.7954430102675447, 0.9382005833737588, -0.08622074519825398, -0.15013339993692165, -0.27539417766417956, -0.13556409218341184, 0.9569541588213442, 0.8611369668653917, 0.8060241140391532, 0.3948887506296533, 0.973554980144108, 0.8553169425237954, -0.0032484066940741685, -0.029657827254856328, -0.6976981144702008, 0.7319265804940246, 0.7334782161192351, 1.0, 0.8229567642395543, -0.5358477669966957, 0.9919249344902507, 0.773904995242924, 0.0770253473518481, -0.4920648611661258, 0.3410990917212581, 0.41965970220944204, -0.8678601524957124, -0.7215149690712532, 0.08831687690033371, -0.43171564091993797, -0.9572497857947762, -0.5600901227574943, 0.5647231384438466, -0.17823354674421082, 0.019264056417373415, -0.15109468354973954, 0.42141482293818133, -0.7502618559713712, 0.6315471689778751, -0.615186589250614, 0.8520848518237811, 0.34340382601661834, -0.8848772564967538, 0.48678067356147214, 0.1810815175351153, -0.717466584046192, -0.3196014360103637, 0.6981497860641339, -0.007165169416558148, 0.10157686038074164, -0.9916837884378005, 0.29121257948308, 0.2551267527557774, -0.3414816834099709, 1.0, -0.2791976264967617, -0.6937738744706021, -0.07869270520367044, -0.25919902611507684, -0.6840971440282282, -0.6761853519673422, -0.17812001122027626, -0.8078280380018741, -0.5197433916051648, 1.0, -0.6084239939696732, 0.28627747605323983, -0.1717415114235362, 0.15684567093670432, 0.7294485521909556, 0.7343856416441406, 0.7095020487445587, -0.411018399408887, -0.06919799216987033, 0.899469976863493, 0.5526290626082693, 0.8992083801760888, 0.2502586194267498, -1.0, -0.4383319319088772, 0.7067702154514994, -0.6861991907892399, 0.21985221858164244, -0.1951133455860575, -0.5246557366019985, -0.48793890588961736, 0.8673733515158704, 0.08708186902542076, 0.8169451789979458, -0.3644126720665293, 0.9560743019401252, 0.7928077323686955, 1.0, -0.6777440100666756, -0.6212188362684115, 0.43746149068180173, -0.3699408560937537, -0.3296796318918187, 0.06422744948173278, -0.7252283262702305, 0.9100054226946084, -0.10177984920132771, -0.5656007040738341, -0.0021162382875060254, -0.10550938480044575, -0.6897295759729116, -0.97274459592114, -1.0, 1.0, -0.3642356573437899, 0.20520412390515877, -0.9198041087146178, 0.07229889000419604, -0.9151343299755917, -0.5849552203056901, -0.7017915962335586, 0.11089127454286463, 0.23447997747199947, -0.17837799453593828, 0.6052104322519409, 0.5447843940444126, 0.2377872971976324, 0.34340486163828504, -0.4403600235704716, 0.8391547769784216, 1.0, -0.9251914242345514, 0.013079222184535805, -0.027044610161097465, -0.3234110665201424, 0.2910688265480039, 0.8557338497862341, -0.8356253551449222, 0.985138762948012, -0.8061142553752525, -0.8574562178389564, 0.27546965584751437, -0.30220957381896857, -0.8390332180643689, 0.906046278322348, 0.22487722690998233, -0.44251161509186654, -0.8059486671524912, 0.21480565584511407, -0.6553669625653862, -0.3065183886389423, -0.09930250461422865, -0.6151569591299646, -0.034904327067303606, -0.16369755588790083, 0.8481047379021318, -0.0032601809086732214, -0.8600692768987642, -0.13553717923807945, 0.9717593615344529, 0.3975107954791246, 0.7534888385723446, 0.9063933614769151, 1.0, -0.35059238682614374, 0.8105565876567731, -0.9845646168388397, -0.6170982747013293, 0.3762362605849249, 1.0, 0.4905153890363307, 1.0, 0.17341920669903957, 0.2831095427385971, 0.8344506799802607, 1.0, -0.1623153758284892, -0.45322359391698064, -0.3941242319016221, 0.6495054797173749, 0.07428250014613652, 0.8201451870675903, -0.5816514524345204, -0.5476275197508413, -0.2778407789637641, -0.750625578963563, -0.8076385972861982, -0.2642607572718507, 0.023877753257007056, -0.09417385321495793, 0.1908410844843455, -0.6596704436252938, -0.4938281610507538, -0.2073708392688835, -0.5757158136859115, -0.4225172874907258, 0.38519569323704617, 0.3121090073200524, 0.4642393322260812, -1.0, -1.0, 0.2165991541169155, 0.0705551666085368, -0.46689914264255383, -0.00789879840499505, 0.6574970476016455], "fitness": 57.16226955283406, "player_life": 0, "enemy_life": 30.0, "game_time": 343}
{"weights": [-0.07477364756525842, 0.39803028631666304, -0.8587412832525833, 0.1958085341947109, 0.7968393625017799, -0.16865591760170076, -0.7252836646502329, -0.6964839503175724, 0.36405248522220307, -0.03389785506472462, -0.7590137796184095, -0.426078373400142, -0.5097044581523782, -0.10259481687175243, 0.26883191106085663, -0.6605043328113914, 1.0, 0.5655834957422569, -0.10715155414274724, 0.7981501708681396, 0.3959705671711454, -0.5544668450867858, 0.4542873342838306, -0.2818865056992262, 0.2601768071787473, 0.3202066616761464, -0.48055670065563627, 0.24818298399632546, 0.630401449757615, -0.8029146780232995, -0.12053926942572918, 0.4984930995219584, 1.0, -0.9815511617373052, -0.20306441848884058, -0.43620269267873724, 0.6361485716112031, 0.901885844481675, 0.8663305371890243, -0.8926173172748335, 1.0, -0.3379687186823067, -0.2233554683140051, 0.6781664078887787, 0.9792530279455816, 0.9320753318605863, -0.27580953423591337, 0.07782014254975007, -0.49431451363592444, -0.3672756576366157, -0.5685975750666541, -0.2241685410048442, 0.2861051526411258, -0.28664572174451713, -0.9178918513645671, -0.6425299531837869, 0.09654949380102634, 0.8033769023931381, -0.4246437107461704, -0.6705025987164038, 1.0, -0.15126779456451325, -0.0859416505968198, -0.5049906505620932, -0.998020849270553, 0.338134245054059, 0.9495578410885137, -0.1116667237029553, 0.528905396332144, -0.4948362483062746, 0.31101900309551567, -1.0, -0.27808477559777234, -0.21838161115973137, 0.4041489811092427, 0.7120589348033897, 0.8707218177278544, 0.09170206444394756, 0.5846981006934767, 0.7166331945888672, -0.5113604567462924, -0.4996811893414469, 0.36700362950598675, 0.468743297937244, 0.892773181891643, 0.10171460565586149, 0.4663335433257608, -0.9831664030612242, 0.35453683382855966, -0.39525168087509155, -0.42950920989326047, -0.9606441691650817, -0.4604619891776906, -0.7900592285821124, 0.6482654713594767, -0.9872744298023894, 0.8112921586140829, 0.5775925781963194, 0.8767289905672051, -0.9222101655612851, 0.004380405264028581, -0.586557571906047, 0.6143198357780566, 0.445004219430923, -0.18011991799555638, 0.5658572584969122, -0.7971826153786394, -0.604461002195352, 0.8168382086355965, -0.17764452846230905, -0.13628221519503378, -0.8001519957389917, -0.43016763074563674, -0.04626296149078904, 0.12449819610959162, 0.20978223358324105, 0.14735703589436527, -0.028853863694421167, -0.4819392856792659, -0.9151226531729805, 0.6974195579625273, 0.18096382570647937, 0.04648635860731626, -0.014172890470084964, -0.4536807499981592, 0.7758206571305414, 0.49140290892181177, -0.2161743681156677, -1.0, -0.4901716082076125, -0.3426831262607418, 0.16340013631787345, 0.6897226149955662, 0.6880640267579576, 0.8620227082771824, -0.9999105386438992, 0.019602427546757006, 0.8395600701053121, -0.8007431617534138, -0.20729575685300988, 0.7588563588152184, -0.7033667294271362, 0.09589893803720902, 0.21402899257346944, 0.7608783970523098, -1.0, -0.3062574165204495, 0.7146253193744021, -0.5616088526421612, 0.031228115808699275, -0.4997998537768988, -0.7732825428163528, 0.6638546004314028, 0.6391964079534711, 0.6472941535157312, 0.9508079908302736, -0.4311392245659638, -0.8187203453801939, -0.06323013552221002, 0.26208691388718447, 0.040571087582727094, 0.800235338848761, -0.8053368057316672, -0.34908755725655904, -0.550928919817427, 0.5095794681837886, -0.348927584366751, -0.8031647013648611, 0.215561535378779, 0.6576525969400745, 0.9560742895877489, 0.5315813615846327, -0.9361524747381685, -0.5330071834508211, 0.9438350216110285, 0.10152411484037732, -0.23847197355895805, 0.5202171930083235, -1.0, -0.2873565653862757, 0.11359312187655385, -0.36765354575366105, -0.7458512388516475, 0.31581925867070126, -0.8181318327360688, 0.7766224668804163, -0.03871862826081021, 1.0, -0.20952694058993315, 0.1944105245243279, 0.9218730634036973, 0.6595816545470854, 0.5467551052767575, -0.520136726762121, 0.9864102528393075, -0.1321281427114253, -0.6267043303998117, 0.198563538523297, -0.570971945625542, -0.6173917410459103, -0.31714287690972, -0.5216271880551031, -0.9297404975105019, -1.0, -0.25409192594985286, -0.22716852973726032, 0.7588354239355874, 1.0, 0.5505072372352628, 0.18201934605523104, -0.05461526530155991, 0.20517649326987022, 1.0, 1.0, 0.2806691441357302, -0.8073407984089265, -0.9010267509293263, 0.07094360465024299, 0.7292412457830375, 0.8456347119785906, -0.1672657895279699, 0.3673422142038645, 0.3410022073932638, -0.36399154663648475, 0.5942520351231243, -0.13033034722309556, -0.6074609603459011, -0.16716878304828695, 0.7023866653426147, 0.5216989169021411, 0.5117199194131754, 0.054925941367269915, 0.6185888067659797, 0.8759257531572426, 0.038230873923295605, -0.9417860411721398, -0.7320791241542814, -0.07626949887417256, -0.16593399579566065, -0.6632978640413629, 0.7680245254492197, -0.6598757835704099, -0.5811543068398135, 0.5335471821603377, -0.8723160998794188, 0.5172412111511604, -0.6793532582627453, 0.3821017098623601, 0.3652107534385005, 0.417579636381158, 0.6164972090578991, -0.7826056394611274, 0.27083832164761545, -0.19212392493073335, 0.6432901477613484, -0.1602001863932535, 0.4819796342490894, -0.011347546910464676, -0.22961993864137076, -0.43555591708836033, -0.5116583817505029, 0.03959089542985923, 0.31009626763569975, 0.8104478176263293, 1.0], "fitness": 57.16226955283406, "player_life": 0, "enemy_life": 30.0, "game_time": 343}
{"weights": [0.019409053522671582, -0.16090975948257008, 0.03139100439346676, -0.6874845492369632, -0.8711708712701987, -1.0, -0.4465465499056585, -0.959935571732489, 0.48438843241177354, 0.06065921315867953, 0.09566252688248306, -0.29454704655327346, -0.8372297354580152, 0.8120145263167275, 0.2528647912541462, 0.8786905749535877, 0.8645843320447477, -1.0, 0.7019558304697818, 0.8616973667605633, 0.5372219222785171, 0.4993660207089165, -0.11320934787657722, -0.8099075280561653, 0.6286573621758037, -0.3160599635703192, 0.2316121657929552, -1.0, 0.6054182618205594, -0.799699898071962, -0.18632889097178917, -0.2707615519285762, 0.318111146120027, 0.41879580763925045, 0.8028606101855509, 0.40219902519918654, 0.5136360030052248, 0.36926920481044967, 0.6076553434990688, -0.6088659407784394, 0.06473949515240313, -0.37120894882731814, -0.8840844805527696, 0.39644582662158456, 0.31430221735345176, 0.9981522958490392, 0.2656142200254138, 0.7119823775460923, -0.5691719816963315, -0.2501309485153346, -0.2634153629489727, -0.2661176498304432, -0.00820393788337076, 0.5552683739545752, 0.8434856278781593, 0.8007615913270774, 0.602345212237244, 0.5002144981184802, 0.03865368130854187, 0.6206818302338974, -0.4901054263498203, 0.8578682197332377, 0.02696042253169592, -0.3288348435091052, 0.7192419475517688, -0.1385104958087815, -0.08116114472321473, -0.29703441432391375, 0.0805780100613353, 0.24357310823726755, -0.5614906544608046, -0.009704391229670345, -0.5483076036047996, -0.3708714306336687, 0.0010889571264409426, 0.12482903715427124, 0.7113547964559408, 0.5733756960008237, 0.8234701924756587, -1.0, -0.761772770740994, -0.7179539296508398, 0.1999087399150611, -0.006761310004046672, 0.3157669313318923, 0.20317573563034563, 0.6543451049207138, -0.2952378888262631, 0.7594634461123171, 0.749558563749966, 0.15845168254170044, -0.3066839419290517, -0.5525163223572898, -0.6660230821404012, 0.47029369388108194, -0.19965243892633908, -0.558215273598887, 0.023492345901831524, -0.4603242068121132, -1.0, -0.7887558929927122, -0.6529955722177871, -0.009165972963940033, 0.12933829480871384, -0.4869528013471041, 0.7866194558125259, -0.8253864391187817, -0.37027126954978146, 0.8271120062311834, 0.22646057803887626, 0.5610348899003325, 0.7340701459562182, -0.22362284184880316, -0.2833720927229013, -0.9605573439132454, 0.6548873118274816, 0.30049517146702803, -1.0, 0.6091674035224227, 0.4604416645100947, -0.352589645904909, -1.0, -0.16233895620256406, 0.10628219891855585, -0.8757988538273866, -0.28391143225842774, 0.09533949558256603, 0.4790864450162881, -0.4006711428407141, 1.0, 0.5880856585669528, -0.903436129111924, 0.8687951388074675, 0.2593503245165069, 1.0, 0.6687535468896506, 0.015062072329769083, 1.0, -1.0, 0.8707367797076707, 0.0269319970571322, -0.5058605487045592, -0.337031690584646, 0.8597538652646165, 0.7403299961808909, 0.13137131243325467, -0.4393297924688678, -0.8561349663604799, -0.9461149271413337, 0.5214738975062858, -0.2167034577321887, -0.7868034799655715, -0.3791310759088169, -0.837997366413275, 0.7870731829829486, 0.3685895364899523, 0.16162548521383474, 0.9326921888467461, -0.47957928271822425, 0.8862517279715256, -0.42268177414650077, 0.5424310052160213, -0.008499015001838361, 0.6408653230097701, -0.6106143800075025, 0.21386700978510206, -0.8390799602163649, -0.9752774989015767, -0.8678377223543481, 0.7506709582289963, -0.8219855720039397, -0.25965586889551445, -1.0, 0.0074493966307285775, 1.0, -1.0, 0.7684380055483546, -0.2900026255533825, 0.5972133807541916, -0.26491835802209823, -0.04261020058104549, 1.0, 0.8073321923794106, -0.5311858223792267, 1.0, -0.8041835407192184, -0.1090138656932852, 0.1374880686530858, 0.4307957886256141, -1.0, 1.0, 0.6377059079800403, 0.3460396632309676, -0.03577257222353622, 0.6992623245766991, 0.9043771689819047, 0.12270496650044038, -0.29830743808409743, -0.5167138924376344, -0.0767041947348985, 0.4455889594548106, -1.0, -1.0, -0.24446272008018627, -0.8124573225202141, -0.2960350540947393, -0.5912133752488353, 1.0, -0.6966111864092666, -0.28284845079562015, -0.9124527865535882, 0.23959837280540047, -0.9519607269233883, 0.8220543318736899, 0.7081997498212872, 0.8410461838324643, 0.9167032528407579, -0.7850546242146874, -0.21198235917821262, 0.1912365648413122, -0.6682983783508369, 0.5529244483740863, 0.1486354050642641, -0.6095209169055631, 0.47734428349008096, -0.6528320720308404, -0.7250336887192856, 0.19039615301096519, 0.8292182122975895, 0.9754499569807992, 0.4155856820152057, 0.45834625127891265, 0.085323048845485, 0.021797173710198903, 0.6234707708597917, 0.1949544262095741, 0.24165725997946302, -0.06764474582320945, 0.3529133272625628, -0.7846731735755952, 0.8365070645587539, 0.37757882002233156, 0.38894412908514947, -0.3786984645815423, -0.7013871265402497, 0.4141546233052392, 0.3625532910995928, 0.34585858925216734, 0.7402756098456541, 0.3014472758107379, -0.06307855189273326, -0.9546749532027315, 0.6904258199611799, 0.9542894129874215, -0.5910008181135434, -0.4338904816948187, -0.3864914122958128, 0.4340581449404967, 0.9168888590705213, -0.08149767411122985, 1.0, 0.628379060428485, 0.6457128403818725, 0.09796399280139034, 0.6219058622388645], "fitness": 21.326676732828506, "player_life": 0, "enemy_life": 70.0, "game_time": 291}
{"weights": [-0.38919108386275963, -0.3307384355062923, 0.25600655794790717, -0.3661817370835125, -0.11412959371170939, -0.25384028581657864, 0.5575327301119641, -0.39827499324198545, 0.19402853741092205, 0.3682618334532901, 0.6440818845833122, 0.3676177382812125, -0.6782328928849557, -0.5000961391956271, 0.48231665092849374, -0.46350157297153827, 0.45067356892464583, 0.875693688636485, 0.7654309344265842, 0.25063270781610236, 0.3440588356220048, -0.6584384029296905, 0.32393970300921243, -0.9940065946724084, -0.9931881873214117, -0.2031824529147377, -0.46600200041759454, -0.6046489083388069, -0.297705176013775, -1.0, 0.454855394143119, 0.5282538531192877, -0.5361697163097074, 0.08715863939563973, -0.35703336191196744, 0.8361946075004978, -0.7407147734521016, 0.9050408885169512, -0.014975143584334993, 0.6210400502072342, -0.5924763373286145, 0.13341169186489604, -0.9017299668378095, 1.0, 0.7077913067060877, 0.00439285257127095, 0.29373581804347837, 0.8511718114509752, -0.46952152090011234, 1.0, -0.6858656538790753, -0.47449896162411587, 0.6121248904626224, -0.9649245196589269, -0.6986601619548389, -0.12758142137900913, 0.6348897588805991, 0.791092030771664, 0.9161036374860283, -0.010315670237425523, 0.8977199146257322, -0.17229776886165715, 0.2593046493794208, 0.14613280988551303, -0.7203095114394108, 1.0, 0.030766992490187772, -0.48337305478347664, 0.8471903522095521, 0.5220486057432556, 0.1608859474693778, 0.513834450620309, -0.23311589895182094, 0.3749893702872001, -0.6336594888671127, -0.08378584579244003, 0.653354374481409, 0.913530608188917, 0.3639184682120458, 0.6229858491148502, -0.4663795252525237, 0.34325810574818905, -0.26674383183438755, 0.6523735676816615, 0.6921887675257881, 0.5983345897607764, -0.526670155496555, -0.5555008983460369, 0.40526166823472953, -0.40073821772053625, -0.3807025082518204, -0.2330497633202966, -0.9198540147347097, -0.43034413321409876, 0.5801859071381406, 0.7605245081171703, -0.24272687686578176, -0.6885886047627714, -1.0, -0.8323087974454529, -0.39312764843490805, -0.7000681757594457, 0.877212137923923, 0.8702784988212501, 0.475498361632292, -0.9147308434725152, 0.9473208553444189, 0.18204844311633495, 0.18409262240403712, 0.9046362966172568, -0.1438883443525005, 0.18146281239768516, -0.5769952123320117, -0.06604005176745559, -0.7016728949261823, 0.7025977352713351, 0.22152093097534975, 1.0, 0.8234443284264914, 1.0, 0.0323480339046294, -0.14978195057692445, 0.6619163707312433, 0.8370250966362995, 1.0, 0.018462115885120686, -0.004554078983305454, -0.6657338811281317, -0.8747342217071833, -0.8402970386630342, -0.13422997336573103, -0.4872457344889653, 0.4503883378942166, 0.41209058459488246, 0.7980302917111806, 0.4759151292742209, 0.4689555548298465, 0.47848562116998883, 0.08913732371838004, -0.632913293236027, -0.020424683494698087, 0.7070123347612053, 0.25432621039718056, -0.7069220287259473, -1.0, -0.7232456587877016, 0.02057829156927915, -0.08182447847046032, 0.11576406137860462, -0.5139893736613095, -0.478652623462289, -0.43292708480749864, -0.9228641988328863, -0.5152705154537875, -0.0896480688613718, 0.43048935736354993, -0.30612529913042713, 0.012706363985170666, -0.9487788133064454, 0.591437357408351, -0.5913924380450084, 0.383766665833681, 0.23477686619663318, -1.0, -0.23935036586832592, 0.8194082760653495, -0.8421431862778309, 0.01821114602535731, -0.033661136099916306, -0.07030696656453497, -0.632258774184447, 0.24690185698590267, 0.49360553354517117, -0.3133870897743942, 0.7191541884619621, 0.026546201171156858, 0.5035308425628382, -0.7535937175029961, -0.6484389331388107, 0.5809390426617034, -0.27606667685521985, -0.5412657847348126, -0.27910814802021816, 0.6517500344100662, 0.5742768735838257, -0.21420276963524207, 0.47526531825352664, 0.5592833237903563, 0.9408810565350559, -0.8506179877765755, 0.48702096358853336, -0.10312952742955445, 1.0, -0.5254269772351357, 0.09253510986779007, -0.6227809146678009, 1.0, 0.14855844092312598, -0.7876577234539492, -0.9252742370807991, 0.6115512166356707, -0.31243948546938527, -0.5477591282089016, -0.8160532986627852, 0.6783151179885286, 0.7938835954602727, 1.0, 0.4560345320848098, 0.38687025083429555, -1.0, -0.7327895319257939, -0.8546992898877798, 1.0, 0.027072899725889915, 0.8317600743119642, 0.6467744138889401, 0.2127883391732515, 1.0, 1.0, 0.827586353462583, 0.3660187264337669, 0.09935736192059136, 1.0, 0.6759042989282528, -0.5902395260460372, -0.7017210930272468, -0.8714236471025902, 0.9924673329091724, -0.16090308902157624, 0.9055975652219043, -0.4136390958281837, -0.3468633134781136, -0.6133773153842988, 0.8397131125830632, 0.6495767317382326, -0.023289058415643937, -0.5717386162054792, -0.056428742468025705, -1.0, -0.5251813947388795, -0.2022165487076385, 0.37240520050585285, 0.6708739696344979, -0.28322233657140666, -0.8456757979993544, 0.5137798091168642, 0.2895962060843608, -0.33609614222939804, -0.7060638549843868, 0.4164921424565126, -0.41045772522456936, 0.07240612705886443, 1.0, 0.7684592527820171, 1.0, -0.7395868216506544, -0.0670597106154659, -0.32454672093460823, 0.4761427314595913, -0.8097392361825676, -0.35092806704424306, 0.8077990068641637, -0.47423009215290546, -0.7267302881736066, 0.15634177460318494], "fitness": 57.16226955283406, "player_life": 0, "enemy_life": 100, "game_time": 190}
{"weights": [-0.3224147377093984, -1.0, 0.08991349948259815, -0.43942745235458347, -0.05141127425685005, -0.2540590893557233, -0.44679674132198033, 0.7145079064450988, 0.838479156181327, 0.7068885263519141, 0.23107682289084552, 0.4135178748864956, 0.6262431546139957, 0.8282426258081719, 0.816800711983598, 0.3287548420319167, 0.8640976000615088, 0.9402486446654923, -0.7411346468171743, -0.31803728445586377, 0.9352549024401379, -0.7432646821065132, -0.9264161851100522, -0.6521970221801021, 0.6075868348514779, -0.7698410042399403, 0.7646829050515617, -0.7880132860190161, -0.34867381733668373, -0.23508471093093414, 0.36023322690037113, 0.4339003642258821, 0.9275661258755455, -0.8444241482765573, -0.19708331538024873, 0.8673924545873404, 0.1689639777558414, -1.0, -0.8801224901844135, -0.5053466981266281, -0.9798406769314962, -0.09714010237961898, 0.9432418999320844, 0.5222336172001011, -0.1978176028294556, 0.01930386097308956, -0.4352731303956501, -0.6565617310315426, -0.5890457343192631, 0.9575172527790017, -0.47794210819388977, -0.6631425459278244, -0.9283245126527873, -0.47393971501824517, -0.847233219615461, 0.3917836895936994, 0.9692929324301398, -0.18046713640391338, 1.0, 0.2390688373104558, 0.7437016202774906, -0.7773167479240158, -0.17758877892356084, 0.42930611315031336, -0.7546600784524002, -0.9328342673005575, 0.673799931458941, -0.7166852158560624, 0.25679803068414253, 0.6092959997004892, -1.0, -0.11419640708810502, -0.3094262834915741, 1.0, -0.5619653436551966, -0.6624925604412811, 0.4996637266054924, 0.5611645466835811, 0.41227432201466047, 0.12106552430920439, 0.35901111656629947, 0.3881283975161389, 0.9135808030460026, -0.35029566336626344, 0.40399687235445014, 0.4092223808691939, -0.8373363198318958, 0.44354484186985865, -0.8592985348375465, -0.3725386719446666, 1.0, 0.039493939089476904, 0.014953092451189934, -0.09291338919580155, 0.6874446856044325, 0.8349662340135101, -0.4869242311987648, 0.8240762923954503, 0.4371571157863749, -0.9817901718392561, 0.6195473656653288, -1.0, 1.0, 1.0, 0.15072122106921124, -0.8205070567661541, 0.9485099617034092, 0.4562158859865835, -0.3612526987082695, 0.010713644738807676, 0.04174882181855817, 0.9618743305404756, -0.3344445017154848, -0.08401972859659171, -0.845482235940011, -0.8383571924184583, 1.0, 0.509014716289234, 0.7242930045845417, 0.2551013364776644, -0.6280328857953672, 0.04407486922886955, 0.5467276337900504, -0.19102425647906202, 0.019893187258420722, -0.7039289731130003, -0.13597219453649878, -0.6788728782883678, -1.0, -0.5050282507473116, -0.5292839110546005, -0.8574504484928946, 1.0, 0.6512821111133928, -0.7815010453813745, 0.519798068843368, -0.6871006812109334, 1.0, 0.25450284194182055, -0.5279783509784761, 0.5331810533860346, 0.6778981641075479, -0.13189969252305947, 0.9578612139582461, 0.5972054753307781, -0.4521964095700437, -0.5828912445421679, 0.14568045590933965, -1.0, -0.3902300414378422, -0.9429311536901921, -0.6411839524091218, 0.2825460160985298, 0.12473410860627036, 0.6433341289562805, -1.0, -0.8742395586444265, -0.6948562706582231, -0.14154079920074303, -0.6297239339151804, 0.07877479306953385, 0.11171064199596689, -0.15475565672603442, -0.7356194382383414, 0.9462200786683268, 0.4621716509788566, -0.8510095367795034, -0.8785794448823305, 0.14807239044415924, -0.322803893021657, -0.42533834659590875, -0.7896365993654487, -0.08192756731550471, -0.25337155045167137, -0.6505557844624044, 1.0, 0.808836600804177, -0.8350866273278534, -0.841310451909433, -0.6382636097411089, -0.460889848125312, 0.371546436120149, 0.9728806577254643, -0.18997847285496086, 0.16154883344755464, 0.05030092416326856, 0.2261053289675462, 0.541375716122235, 1.0, 0.025465245805204928, 0.3603105789099085, -0.9159848809774781, -0.57494941723812, -0.8550995455046542, 0.5672722675823352, -0.8882266363351846, -0.12969981652147614, -0.4941345473114712, -0.21518054230698277, 1.0, 0.6352580105278267, -1.0, -0.7520447648605642, -0.7346122861503631, -0.8390567793948058, 0.6160288064608568, 0.8636630561065779, -0.0035108246412748345, 0.09087457904567237, -0.7009705990615391, -0.6915518010276819, 0.14002659131122974, 0.528935605132537, 0.5765394939746226, 0.3430463150855828, 0.7232025181426072, 0.580930560876112, 0.8053902343537918, -0.9902356429018153, -0.6550550081726147, 0.9022398418347013, 0.6398779075490282, 0.1595055358098958, 0.7527818085835627, 0.06369605792453717, -0.29450451502391567, -0.8522346945180528, -0.5776995237828232, -0.02610629294068262, 0.2129489823080355, 0.37126029825311874, 0.1731532845644757, 0.2352650971681658, -0.5839918975202434, 0.786385254402518, 0.41079222385971537, 0.46780471863020046, 0.1667075194931133, 0.10138536610578969, -0.42188612524824276, 0.48664566516685653, 0.8537138396204166, -0.48499731120413164, -0.2957960975041583, -0.018217440963959664, -0.6226616079530356, -0.07378805645633471, -0.5752143771728637, -0.8737434255552556, 1.0, 0.315215368503528, 0.26632462073468544, 1.0, -0.5743050245496546, 0.1743774440930614, -0.7896045968248755, -1.0, 0.7834021065661235, -0.8154161924977238, -0.8881973699361184, -0.26314272719681187, 0.7883832886362532, 0.14813402654753238, 0.4079646578202315, 0.9538669070901891], "fitness": 57.16226955283406, "player_life": 0, "enemy_life": 100, "game_time": 191}
{"weights": [0.40974191585181663, -0.7017333900688261, 0.25600655794790717, -0.3661817370835125, -0.2798691399958366, -0.1908364573291817, 0.6774707856931224, -0.5292906953397278, 0.19402853741092205, 0.36897847862226396, 0.5776168905239071, 0.8872078740979192, 1.0, 0.2698082825572927, 0.5375317032945055, -0.46350157297153827, 0.39693401813003726, -0.49660851079205026, 0.7730031466235269, 0.10119103043535138, 0.9815575294840695, 0.958138995073115, 0.32393970300921243, -0.8578551288509809, -0.9931881873214117, 0.23081194835018903, -0.3115101449877604, -0.6046489083388069, -0.07483241294780829, -1.0, 0.37124653496396454, -0.49910834590858044, -0.26351863509344964, -0.03309557084868289, -0.5033978935275303, -0.7637802428870695, 1.0, 0.03816677197502319, 0.3149320482134411, 0.6210400502072342, 0.054775647541742634, 0.13341169186489604, -0.9017299668378095, 1.0, 0.6112345041389912, -0.301172706154638, 1.0, -0.023937103451933978, -0.46952152090011234, 0.6432847233131331, 0.19721834888442433, 0.89905744267586, 0.7625467509213968, -1.0, -0.9580962764506925, 0.0021392835502886953, 0.5365494979541003, -0.44018541867759525, 0.5272525777463846, -0.4037559725670478, 0.11798786706101227, 0.15800128294125693, 0.2780009882731547, -0.7870838359363597, -0.5590633181126834, -0.2618902799595578, 0.10040158561710721, 0.2316811555022077, -0.08106557320557259, 0.9422936216242137, 0.24444131306569683, 0.44160052244315073, -0.0915156370901205, 0.3053806705832779, -0.6133170726602593, -0.007797033216196236, -0.32333285810397344, 0.877279986548204, -0.8742669007823142, 0.7509146609618833, -0.30372383423316973, 0.9644287072529358, -0.26674383183438755, -0.15805972196583024, 0.2198113579900258, 0.23495916002709685, -1.0, -0.46427689573675085, -0.940729645552414, -0.9379501269489781, -0.3807025082518204, -0.2330497633202966, -0.8791883178237485, 0.6056274656928413, 0.2909259361791795, 0.818589544216212, -0.6128006570734502, -0.7033855925366981, -1.0, -0.5461118273643428, -0.39312764843490805, -0.8312533886272632, -0.2053045008236674, -0.1590858487466816, 0.475498361632292, -0.9147308434725152, 0.9473208553444189, 0.18204844311633495, 0.25622234269234795, 0.6934116554565751, -0.12194290958286871, 0.2750221750098689, 0.9788210056057907, 0.24539448730444177, 0.49535520900574453, 0.33006384358354474, 0.27093239954962844, -0.637653216847837, 0.5177476262116363, 1.0, 0.17661115055773355, 0.360828768583101, -0.041678508569106626, 0.1990334670291661, 0.9219801951846854, -0.14055922037778035, -0.05778244305022154, 0.6941519018252245, -0.6973802433002368, -0.5343953542973576, -0.13422997336573103, -0.5847354152579651, 0.25553490914446286, 0.41209058459488246, 0.7980302917111806, 0.4759151292742209, -0.658736884949456, 0.47848562116998883, 0.08913732371838004, 0.1760615165481094, 0.344599490556218, 0.7070123347612053, -0.21340127789496893, 0.6082553843941056, -0.44348763043466827, 0.06747945509573937, 1.0, -0.08182447847046032, -0.8156390425143365, -0.4438693756848754, 0.35281665566049103, -0.43292708480749864, -0.8737013858109274, -0.486237405074977, -0.13295463466830407, 0.5370698121155875, 0.7112155862774133, 0.5084982238535349, -0.9487788133064454, -0.4665449488473577, -0.7022579494691682, 0.5899155045596247, -0.694699070136624, -1.0, -0.2049862463490834, 0.08263390899855705, -0.9941310202606763, 0.01821114602535731, -0.033661136099916306, -0.0989743897913703, -1.0, 0.24690185698590267, 0.3351095548042792, 0.8756649350122993, -0.02776001109395959, -1.0, 0.339922149096338, -0.44662219565351674, -0.6484389331388107, 0.46792515913258453, -0.44414602516911855, -0.4779782592431526, -0.2406230311044491, 0.9129793458787755, 0.5411706109884474, -0.21420276963524207, -0.6546738021761925, -0.803140491357127, 0.7433204225672942, -0.8506179877765755, 0.8317686854908111, -0.10312952742955445, 1.0, 0.6559537247350485, -0.4296995065455724, 0.5578908659015711, 0.8182166853922844, -0.15995259941102238, -0.1867185405293611, -0.8129426438817327, 0.787669595100529, -0.19200815867793614, -0.4724673340459037, -0.9508167545158162, 0.4852098861167652, 0.18443300486894024, 0.8338313848760264, -0.8188314231156222, -0.44456606576715857, -0.8647641769668917, 0.4574647037398626, 0.7856047617668112, 1.0, 0.5036616824951929, -0.6683411022329634, -0.005302470319462377, -0.05656948555100122, 1.0, 1.0, 0.827586353462583, 0.22681979500400645, 0.15198420002715385, 1.0, 0.8476227481033468, -0.5902395260460372, -0.7017210930272468, -0.9736649803951284, 0.9980654241460504, -0.20630462533791544, 0.8200441418879147, -0.4044281761997891, 0.5641250593336485, 0.7985321995529795, 0.25264580627924615, 1.0, -0.14788461211018455, -0.5717386162054792, -0.02359386209097708, -0.7842472206794071, -0.529740403922242, -0.18666708221329154, -0.01477558291391462, 0.5809062371213004, -0.28322233657140666, -0.8456757979993544, 0.5137798091168642, -0.8992127248278576, -0.914098792460736, 0.9495820805422266, 0.48547447147202677, 0.6978212930778052, -0.7434896215040013, 0.8050664777719625, 0.7684592527820171, 1.0, -0.875485407468584, -0.6794779946626175, 0.6434517550332662, 0.7283577803580185, -0.8097392361825676, 0.47465798804688974, 1.0, 1.0, -0.6443708277576845, 0.808845437449295], "fitness": 66.16226955283406, "player_life": 0, "enemy_life": 20.0, "game_time": 343}
{"weights": [0.7716546013461083, 0.38802585795076683, 0.02789358755567725, -0.1296213054965099, 0.2907759718896366, 0.5153950103703299, -0.5198850346051459, 0.6841152617491332, 0.20480049288244934, -1.0, 0.0790440675384951, -0.6596597826574149, -0.24693939049644156, -1.0, -0.7449584863188194, 0.305065811509988, -0.45302031583467367, 0.6421080218589434, 0.46057692569513264, -0.7559348971898234, 0.8184424189324007, 0.7211428648301916, -0.6808975196064941, 0.569429295607258, -0.9164850063751355, -0.31578512295024164, 0.3840689160973454, 1.0, 0.9194433826735611, -0.6531129775295741, 0.705893641196933, 0.8048342830322678, -0.13978749411693997, -0.018740646167367453, -0.2659551078165049, 0.22541589614920843, 0.6974514698525118, 0.2840487049718621, -0.40544468074522, -0.6481683077797628, -0.1681110510282795, -0.1806996700039224, 0.08358109336394029, 0.5561035597388224, 0.8284148758503198, -0.875550744518105, 0.941763090976405, 0.2575567391965039, -0.9742713818474001, 0.9114958838302365, -0.8727411423240834, 0.7004516422062909, -0.65291349687873, -0.5924866216350513, 0.391008837653709, 0.05589016638835417, -0.6723352513539826, -1.0, 0.7442082604577781, 0.3853082091594389, -0.7686647992629094, 0.43034673774806487, 0.983903586640686, -0.4735958115168284, 0.1537651162793567, 0.05670482317248704, 0.48609291908724217, 0.11988128542445103, -0.13294403868929255, -0.33876982679842405, -0.08376465439261246, 0.6171822073640632, -0.02912069304562709, -0.6719029213588036, -0.3787441906122676, 0.36335195221572114, -0.3602597190762022, -0.8084675947221989, -0.24249656636353398, 0.8429115918063785, 0.5882328230383569, -0.9325416110005884, 0.6861130622437702, -0.31739355887881304, 0.632267141663001, 0.9744357945792272, -0.7007128401347964, -0.49110431502978813, 0.06395610439562407, -0.38940873339120535, 0.6499338956747744, -0.48680131563070506, 0.05097856546317639, -1.0, 0.44656592947222384, -0.06915278455051196, 0.34968686024118784, -0.7826438426760635, -0.6125647043610317, 0.7370309538370491, -0.18388726349324652, -0.16588448693715116, 0.05833738958407819, 0.8457802393192901, 0.038919018499825764, -1.0, 0.7692960421428914, -0.22010964101347202, -0.05523085015967173, 1.0, -0.22364301645225487, 0.9750493290706674, 0.8318986021344318, 0.4708443325129893, -0.02808519555910316, -0.5248918673680357, 0.18181180164170174, 0.8821933064048973, -0.2956699973051782, 0.9556012879945897, 0.33596271598400074, 0.6623486328245735, -0.23332674037284334, -0.7923204501131141, -0.37068237292150613, 0.6780449457061186, 0.8382560224967008, -0.3377650354054276, 0.31708451309301633, -0.6870030628253454, 0.08498549024874036, 0.8950922321121575, 0.7392319032216985, -0.1299978922135388, -0.9532484144244002, 0.5092578918353756, -0.6209250082841269, 0.5468958737612295, 0.23525553759968384, -0.7251486536424163, -0.696824304065851, 0.6241650264859171, -1.0, 0.33332217262232433, 0.6119691774709238, 0.6304535632471779, 0.9345610236867091, 0.9682913160945569, 0.31885821284890103, -0.7704169535610591, 0.30164698054914924, -0.5959379960624044, -0.8911981804166373, -0.6744521742784523, 0.08543203556367429, -0.033856415363000075, 0.3592985241178709, -0.4937172155428362, -0.2171941142949878, 0.7070205344253153, 0.3925880398277003, 0.3219805556980381, -0.7765212805503833, -0.9908680712521764, 0.17674398041120637, -0.2989542861717511, -0.574583291531064, -0.9593150793097445, 0.9083746618243018, 0.06752637280393625, -0.8136334410090014, -0.5381826007104934, 0.29995436130391584, -0.09275445390041981, 0.48850095044137276, -0.38096716396978936, 0.2280369783300989, -0.12735279974439354, 0.33078770841893435, 0.26344281656622115, -0.8490255428002176, -0.15637002191005642, 0.2898297013646002, -0.39438634529308053, 0.2245140078198411, 0.4068850918623389, 0.21685518746208202, 0.3523367177212018, 0.2780853336380175, -1.0, -0.8198783873637603, -0.6651793116385705, -0.04357931550174071, -0.8318333695125903, -0.14018584185938154, -0.4130879606638416, 0.13251195073061423, 0.3492222406808512, -1.0, 1.0, 0.8261466187974138, 0.6566849193590228, 0.15631014019862838, -0.45213956334084615, 0.4111094711339646, -0.4910540529022572, -0.3897158632795348, 0.9361238525008739, -0.8686948317929752, 0.2977294220788531, 0.0518949328563314, -1.0, -0.33997504675678913, -0.07470151452989869, 0.413207965111118, 0.8595682014013034, 0.8624378939150475, -0.7098464908587582, 0.4070737319575614, 1.0, -0.5946577425602121, 1.0, 0.15843245466389386, 0.15876519813763898, 0.25724373304227743, -0.8250147147190119, -0.3228522175673726, -0.10422776716658871, 0.2610194741515416, -0.035279583933735426, 0.551860841429615, -0.8072801709400963, 0.15366576654376743, 0.4170547814075821, 0.5679662754551379, -0.19935591400548214, -0.15388918824477973, -0.06992902681614581, -0.6506222666739471, -0.8617275872587367, 0.3653284823688917, -0.05978157279172158, 0.5078439965613468, -0.17319553306954466, -0.7913599196725549, 0.17183009739634808, -0.9025494500126859, 0.4391297839268584, 0.38550349347481705, -0.0765644651225783, 0.04329664447169891, 0.47201997262028783, -0.6101769128173649, -0.16954789089529082, -0.7978787790723334, 0.5137207734330607, 0.8728949824192964, 0.491775496706729, -0.8635018877060983, -0.37526610495478796, -0.9951323064220491, -0.9712475744576083, 0.13317356258416926, -0.2817007290529445, 0.9971149271871931], "fitness": 57.601837298482245, "player_life": 0, "enemy_life": 100, "game_time": 343}
{"weights": [-0.07884872366667961, -0.9288388658772321, 0.7328644653312801, -0.2209116072159623, -0.06484856070689896, -0.06922961516985726, 0.32296835862158324, -0.33227097830863994, 1.0, 0.627086514378311, 0.48949919572521483, -1.0, -0.8783556184635863, -0.15271038372696033, 0.6875147620521098, 0.1441727073692371, -0.10355687369339617, -1.0, 0.21751789406986358, 0.6210391931264021, 0.858345703459857, -0.6776979082182457, -0.4824891197026884, -0.8189747186513032, -0.015599692408499038, -0.4676886097127834, -0.19051665380431965, -0.11228378502318376, -0.3076886260735535, -0.7777796779820738, 1.0, -0.0969786464864357, 0.17894140045575546, -0.9583719556101844, 0.6731151903838444, -0.6870153905756063, 0.2833198418311168, -0.7596361015593307, -0.3458172821456642, 0.376545279883488, 0.9044688011348583, -0.7796395241094118, -0.7906008970433331, 0.9197126926214185, -0.43128926043305127, 1.0, -0.5605427069292688, -0.8839987173219745, -0.022840213511447882, 0.5418286001751613, -0.694340746273, -0.8570230834984406, 0.5627474479566345, -0.6075048100944882, 0.8923954622474353, -0.4890631412331229, 0.1420608772071827, -0.6782844987532937, -0.7819158988018213, -0.1326563594634923, 0.598687050681037, -0.023743081045830644, -0.6910686427307091, 0.03255350890306957, -0.3294476035330655, 0.3403261799126636, 0.2238509171081453, -0.3423612020212864, 0.9009625293345471, -0.8455306048383524, -0.18018020003783825, -0.2132485113011448, 0.28396626183394325, 0.7027281206400355, -0.2521297494385595, 0.20433459511148477, -0.035004865870169044, 0.24403917217705706, 0.2524955931072804, 0.6919859635818975, -0.5751717404275849, 0.5794665751101677, 0.9241003465422344, 0.1157958342098615, 0.9648532741486606, -0.4610675046220218, 0.9143555098374283, 0.3470680501383871, 0.32682084172566483, 1.0, 0.4254255475584646, -0.02992948561594644, -0.08647874066502706, -0.07646906322452181, -0.2196348851248195, -1.0, -0.8375219853807863, -0.5141921482669025, 0.6977305694767527, -0.033165345731720114, 0.7049942045609131, -0.5128131003475812, 0.17473626970022793, -0.1475972674130937, 1.0, -0.13276078432924004, -0.9949986755103442, -0.9938968613499088, -0.9288874404835343, -0.024786989455002906, -0.06310171843259131, 0.8707158628394968, -0.6211793718174823, 0.26677731373489366, -1.0, -1.0, 0.8390263123383983, -0.8862830754983368, 0.8777293087128157, -1.0, 0.542432181374829, 0.520265582474732, 1.0, -0.12571923849224775, -0.47642785483308087, -0.22305621245701363, -0.9380577781462721, -0.8378370766990041, -1.0, -0.5798849540728247, -0.7622412804541998, -1.0, 0.10466104259316458, 0.7218951785611764, 0.9470517342834699, -1.0, 0.16822870776706242, 0.4549706778615292, -0.7237025931280627, 0.2210713263664344, 0.8254576661501832, 0.6768174414976129, 0.7764224041519057, 0.8662171810670325, -0.458915490236258, -0.26942677927548225, -0.2503762720708161, -0.3461590164778998, 0.5221213875465248, 0.034295102088237855, 0.11781449223761806, -0.8796649004939529, -0.7105678039197519, -0.45948194971619055, 0.03275052368173832, 0.9897440878013386, -0.21734624359050697, -0.9551917155480731, -0.25747592554668913, 0.9646208042037238, -0.07436691536292067, 0.6212669923014928, 0.37046755087055644, 0.5417007085165916, 0.41610547839456813, 0.36915209880268807, 0.2065882264481347, -0.5098664035288176, -0.7983068403062272, -0.48619710773346037, 0.2895623044648705, -0.1979788078987575, 0.20595037944306605, -0.3312817733912496, -0.6575009669003683, -0.5840925072425476, -0.7065891269356854, -0.7631670134955181, -0.5748265035936612, -0.6323241384870958, 0.9649285633127078, 0.1155626083043339, 0.8396850953110141, -0.4236776181979839, -0.41659474953113973, -0.42710038460128985, 0.7063538424260947, 0.9456403098124283, 1.0, 0.6044707267124042, -0.22066588694282946, 0.5326326863868485, 0.891118770787274, -0.336574149747438, 0.5924982646351609, 0.4444405714977142, 0.8644423548585769, 0.6363906732221242, -1.0, -0.6738287425321268, -0.0972349226551561, -0.8043698133333059, -0.6323620202963353, 1.0, 0.6247350094938897, -0.3565607326437066, 0.6977671044175304, 0.30861344955953934, -0.007269026361124753, -1.0, 0.6970069240223234, 0.04444825710929015, 1.0, -0.049669486911898875, -0.396234768142222, 0.8335974932527954, 0.7577686916679054, -0.5993198788518082, 0.1772195279196785, 0.1417091714119621, 0.5327857908784277, 0.2533991384858148, 0.04377228100517269, -0.20797808125841885, 0.5752715877449369, 0.4071154633826446, 0.037329388830457194, 0.8288544351267072, -0.01814788871125167, -0.31858841851870245, 0.4802442525674532, 0.6787229594396046, 0.805784944547324, 0.8055935197541116, 0.4405992647852872, 0.4450459290705875, 0.6725489422044493, -0.5408667786261938, -0.8307452118657602, -0.4867915256456947, -0.06378921153208153, -0.3422586536524341, -0.8296712096193994, -0.051438364919149826, -0.6984350690539678, -0.481240767885823, 0.6978799689811294, 0.06426637955682357, -0.8966065542174593, 0.623637510196007, 0.4272303101720535, 0.6346119167394744, 0.41957144360967813, 0.9320965414645919, -0.6794742850534622, -0.04271183042648277, 0.9429442906698746, -0.2596516264230894, 0.11424849336265222, -1.0, 0.044480520281250754, -0.8481909097757079, 0.7185178481107121, -0.8037732191399488, 0.35469989313544936], "fitness": 57.269900217026425, "player_life": 0, "enemy_life": 30.0, "game_time": 308}
{"weights": [0.344130238139542, 0.18065338092346434, -1.0, 0.713519480022443, -0.32008665826949917, -0.6584925984133836, 0.21035671822612173, 0.24757439991668362, 1.0, -0.12256688910365954, 0.7437609624772822, -0.8286132428749458, -0.9837607160825851, 0.5782341189197641, -0.8963932807329096, 0.4832811299326718, -0.8823375756125597, 0.19232255143548535, -0.2411970921484632, -0.42968247326290404, 0.8797655697885559, -0.03658642220345851, -0.46426979660843204, -0.47909521126387944, -0.5173993649722838, -0.193051006544448, -0.17095498290140265, 0.5650054929309396, 1.0, 0.1940442809602016, -0.5877272869231471, 0.971612418115825, -0.13586950733431902, 0.27524268175154115, -0.5548908639493825, -0.5990862921412656, -0.41272874586760155, -0.8039363336531302, 0.1352794849930879, 0.23587689804764286, -0.10666693630939875, 0.6381691632830429, -0.7690168639359617, 1.0, -0.5954654929637688, -0.05626950282984017, 0.7569926999025932, -0.4600651715565346, -0.15750734535066716, 0.07940890397273362, 0.3754306789654446, 0.28493965001233945, -0.020606184406735922, -0.809438893680838, 0.6721777600646492, -0.10910641720679032, 0.6633461158274243, -0.7424643260676044, 0.4458019799706009, -0.6784463926163078, 0.6745544108480759, -0.5041527268161382, -0.6488047076703854, 0.057912055112261024, 0.4832515962257188, 0.6309235675673395, 0.4517461167885692, 0.46456854235396683, 0.23699662848145603, 0.18058577594881783, 0.7865408271426939, -0.5315535056961477, -0.33959637251019337, 0.6817535002597536, -0.546852974940847, -0.6426200125221313, 0.33077388643311756, 0.31261532785898116, 0.5268699384866594, -0.0212734841675655, 0.06291777810406213, 0.17596043417076448, 0.21012611124407415, 0.08680748459998766, 0.8998670140792633, -0.09026466560764462, 0.5936448335421328, 0.0058697212647632335, 0.041440360668499016, -0.806415831107008, 0.46902779177955944, 0.0963090096300653, -0.27464666617464517, -1.0, -0.23794055150006663, -0.5143598841463974, -0.2175125720945297, -0.5241561830764925, 0.7365783709621836, -1.0, -0.4051118028627272, -0.6137107783034246, -0.4429820517638811, 0.1158098170094711, 0.09770475534210821, 0.7955091501868425, 0.01451182107386581, 0.903679061734384, 0.6952723139062915, -0.6557608793181838, 0.3053686215843465, -0.31148292251939785, -0.3802994959446914, 0.37968733803841426, -0.37433084128290767, 0.6365483206596452, 0.1973943656197296, -0.5661703386282928, 0.5162607249943194, -0.9265601150319421, 0.6504267016183427, -0.7399608300578551, 1.0, 0.7501980768282382, -0.006519967659128434, 0.08933855070833535, -0.01302645275054197, 0.14401551972706195, -0.766824755615519, 0.5611748472410582, -0.855802150778758, -0.8748362439679536, 0.918924644596156, 0.5320649387424568, -0.4064991645755882, 0.5772943388589329, -0.6131128679495659, 0.13265052279833536, -0.9275886908388677, 0.4201715986310147, 0.5059862051573865, -0.36534541911623986, 0.09560308352288192, -0.07764077885277332, 0.09977940733242588, -0.16489969988671113, 0.09528836213234748, -0.26819954944771135, -0.697275045991343, 0.3412062123126392, -0.7076301679363922, -0.14821424503105168, 1.0, -0.16720834036576573, -0.24719827520295837, 0.9168647540087375, 0.12808324263980148, -0.5633349949580457, 0.38507938382213214, 0.4295208933809623, 0.26322640003333075, 0.34346911300925365, -0.19569208581590292, 0.8000112398105368, -0.1886507856907665, -0.511960955392084, -0.5584844678756425, -0.688253525001326, -0.13540887710809435, 0.4422784721898715, -0.7121444865190473, -0.18171962634422584, -0.3314802139278088, -0.15067297962789114, -0.3395082460819825, 0.7384846929042895, -0.4235502685448511, -0.4394938127112095, -0.4066893231848387, 0.4305132769664505, -0.5161828084173896, 0.6888493263834748, 0.0585267604752468, -0.45776659591605695, 0.3914121597087574, 0.628229241577249, -0.012825491003732259, 0.7560657703899839, 0.5197184851817325, -0.5836315230605301, 0.1476415337830732, -0.7549760811583373, -0.3442195204008583, -0.33962410486385436, 0.3088784727066107, 0.17038309982969982, 0.8727983107061024, 0.5337220163031109, -0.3697329720708385, 1.0, -0.623414513381124, -0.5727646753890354, -0.21163126746654937, 0.2688636674386604, -0.9246724436706709, 0.6766619234105679, 0.14618699038078167, -0.23246134171057045, 0.8645414136691827, 0.5662322389941518, -0.024497620668641806, 0.9140526875472235, 0.5974096594030901, 0.656327265591975, -1.0, -0.35744734333806905, -0.22899701614188223, -0.013682001712416292, -0.5807737828145911, 0.7098894736350535, -0.7477810361568276, 0.6188909745376827, -0.4402259884169228, 0.9291609644590182, -0.49511415392723146, 0.21913709476377413, -0.44742970963476486, -0.5208081331532873, 1.0, -0.5434665437974021, -0.45388923965469674, 0.06680037925021591, -1.0, 0.5637314249902139, 0.8536863537915298, 0.679212395517492, 0.6316570295382998, 0.9703811209712728, -0.05572817610493583, -0.03834662527896146, 0.6089263303963864, -0.39795649466757965, -0.6882508776684595, 0.8171607155243719, -0.5927839769722931, -0.77623542584665, -0.6655478342194134, -0.1991587594889927, 0.48268624423676654, -1.0, 0.5448020828370108, 1.0, -0.3663863986553002, 1.0, -0.527414587469287, 0.08761664182705797, -0.013680511745373325, 0.2588284085198088, 0.30389556585022404, -0.3554462142306235, 0.5351691124000209, 0.5769466102086408, 0.6521436951330438, -0.7702531712092592, 0.8202100903116014], "fitness": 57.16226955283406, "player_life": 0, "enemy_life": 100, "game_time": 195}
{"weights": [-0.7701975417524848, 0.43423212785357784, -0.5795430270827169, 0.009450997572564568, -0.9940077180836457, 0.9777086340653207, 0.16496215782463028, 0.16699308123832107, 0.9498428260093258, -0.5744103426661751, 0.9437914483000872, 0.6699583021473969, -0.307487885921621, -0.20644854535957555, 0.13170978008837064, -0.5936032518724192, -0.8440718250378266, 0.09431351285604467, 0.3712151470546672, -0.7636159885538994, 0.4850614488304625, 0.5105103527676298, 0.8629086596628395, -0.30464468001296857, -0.4103812824477856, -0.3629570021180135, 0.8312021294751836, -0.38163587686583683, -0.32666918064560113, -0.1647388573412376, 0.36593110863518863, 0.5574688345874037, -0.31123894118888157, 0.2613973466515227, 0.3523619017937115, 0.9056189489422866, -1.0, -0.29238709010057906, -0.16617933699588944, 1.0, 0.13470005033168203, 1.0, 0.944455518539945, 1.0, -0.8568369024760691, -0.6112446851434999, 0.1741850831201284, 0.2163505673654095, -1.0, -0.6080424983393422, 0.83319197401533, -0.29170613089215913, 0.1289313640025832, 0.9464677601987666, -0.055049391710853324, -0.5624673452853668, -1.0, 0.12561773905306828, 0.4220124895181307, -0.747719509099061, 0.5826541557683843, 0.1912849979754445, -0.20699308372412772, 0.9761027727176772, 1.0, 0.10572953415793301, 0.9718497597450002, -1.0, -0.46650328241317174, -0.510117195136922, -0.33245262306796, 1.0, -0.3692833035865323, 0.5383021682400542, 0.5995307732007765, -0.09169637613070167, -1.0, -0.1791721569901487, 0.6435313598886453, 0.7635323404314606, 0.05978784655382122, -0.983099425239525, 0.6936298602854566, -0.05985088940029226, 0.8799502557254988, 0.5326585453206147, 0.7688457024062006, 0.2274758259606754, -0.4874006712995523, 0.5654690651103573, 0.08394130369090441, -0.3147961276053638, -0.6872898014673039, 0.42061288776375483, 0.08148711695447318, 0.714837754950818, -0.3283359382062298, 0.39295360537386625, -0.09265184159426576, -0.8870383414362037, 0.36870292709358043, -0.6200363808659759, -0.26474505765639433, -0.6192509204737138, 0.21168909306683603, 0.23637214474884666, 0.150332083522728, 1.0, 0.7541950591422348, 0.6403164766791375, 0.02595613366261118, 1.0, 0.33054608020876264, 0.5515482785024517, -0.6607779402332651, -0.5169959429921728, 0.15584445217200604, 0.8971905740771746, 0.7388062948588865, 0.4783612140539416, -0.5793363502828714, -0.5601768606408646, 0.6275718575922005, -0.12226298730723312, 0.565125067123568, -0.41286305058246603, 0.08805280096827209, -0.4303290028020918, -0.6399686955670356, -0.4223285754159118, 0.4744561512510257, 0.9115042427723985, 0.6900088600539938, 0.42810256767452787, 0.15752322504563138, 0.11925774550011595, 0.6763962721680795, -0.537722461778165, -0.6310304481516718, 0.214098769886197, 1.0, 0.8944762157644006, 0.35678163047317574, -0.8468349063228671, 0.36523073106394527, 0.3199796578458045, 0.06465206831416365, 0.785043190030935, -0.878834753751166, -0.5515833107192564, 0.40590925204829686, -0.568705527672153, 0.5278771781505283, 0.9539310383909477, 0.16299615553013097, 0.8665940919709454, 0.12543764890996, -0.049491333596953624, 0.7347115197985843, 0.4287867645662008, 0.0051374253569829165, 0.09175248731900482, -0.9220926112116192, -0.8618416769878285, 0.16487662238839662, -0.3979075430253343, 0.49688748001809985, -0.7469796085429121, -0.01143184762478594, 0.2503449745647215, -0.12600285084242419, 0.8899083934211308, 0.7868537859867732, -1.0, 0.59609567587085, 0.034473195901867704, 0.922493701089672, -0.5289081006095406, -0.8733809777233663, -0.39328397655098823, 0.6035097040284276, 0.7196799635357645, -0.5657948800969606, 0.9444299014179217, 0.8401869110097857, 0.43071493547809775, 0.25373645285386237, 0.9630889576565091, 0.16403276207508202, -0.3048915467589964, 1.0, -0.1993480219295703, 0.4725769936829015, -0.5391415736344526, 0.7141415784105065, -0.597525723819637, -0.497981157711482, 0.2810880624748086, -0.7322740403638466, 1.0, -0.5831337497785358, -0.605027776769832, -0.9230640632399054, -0.8723357983141102, -0.9971814821925846, -0.738797245406902, 0.22771890842847417, 0.17326882962135015, 1.0, 0.6930334366500008, -0.7498961565540478, -0.6758147913213224, -0.7070352889488439, 0.7997329983342971, -0.4691495078037666, -0.6873324347029612, 0.19053707705905235, 0.8666946601319507, -0.5470470173136273, -0.9874510737346849, -0.9624758599747609, 0.004075954283510236, 0.7212262552127772, 1.0, 0.8656350720104089, 1.0, -0.010798933954430129, 0.4835404961984211, 1.0, -0.16594731433158277, -0.21167248086451151, -0.4332151760422159, -0.6960993200082741, -0.6286624182535565, 0.9594942835930728, -0.45905555987400987, -0.5888515649297712, 0.4982957825114678, -1.0, -0.43474246415482415, 0.2729453890879416, -0.8301799496156668, 0.8314469341238584, 0.8136775923686992, 0.1657088311430765, 0.9619986221134035, -0.7185775450189811, 0.19404497885503683, -0.7690645440087903, 0.8079315180547453, 0.9058633743569632, -0.4497653231268311, 0.5013508136449978, -0.5478809416969677, 0.3911787655444672, 0.26004413890702216, -0.8678822752833849, 0.9104765068528169, -0.499009658072569, -0.5968789131400225, 0.08043720786483838, 0.5686123062143457, 0.8130393195020327, 0.28581653790068956, 0.3730722248671665], "fitness": 21.752975927839515, "player_life": 0, "enemy_life": 100, "game_time": 195}
{"weights": [-0.4551354635896795, -0.8445496615037418, 0.22021468113178866, -0.49301109482769195, -0.14352152059970505, -0.21350858030975303, -0.36757977389239127, -0.4569444208196974, -0.6638628215077064, -0.7985461218313967, -0.14402699506492195, -1.0, -0.06314131459380577, -0.16154287493087843, 0.4039203771501264, 0.9161538246607015, 1.0, 0.6707891183330387, -0.10950375903186002, 0.7298626072807791, 0.7033068382337102, -1.0, 0.33743181497234764, 0.3122243616059377, -1.0, -0.023447070334286335, -0.9355723949076075, 0.8622605393580982, 0.2274207991766634, -0.08661206084349415, -0.7809009982419892, -0.4038490067774587, -0.582214400542087, -0.7733687915734107, 0.28516867381788524, -0.5132934364313484, -0.7449894116273293, 0.9581089980570285, -0.582976072296954, -0.7455372045113319, -0.5069496897891048, 0.1144433518295876, -0.6471660271171589, -0.2477652527989152, 0.6711466050501355, -0.9392470519894455, 0.8644892650481498, 1.0, -0.23929873285049125, 0.29148553391013454, -0.8032312887505084, 0.43186239335944704, -0.7431059380991691, 0.012965219015297763, 0.6529619532244042, 0.6020477129861125, 0.5006480508063229, 0.6365820047391199, -1.0, -0.10343393932020428, 0.19497893087902385, 0.32986264540138005, 0.5193064685643553, 0.5354577919873964, -0.5754654014196287, -0.3016614185883085, 0.3869691200310474, -0.24828506329474823, -0.6021844969185363, 0.7734598145006131, -0.05371336507904301, 1.0, 0.32355195491130934, -0.0659405011728054, 0.8270300400318213, 0.25115547267722443, 1.0, 0.40654149094470354, -0.30517436221531374, 0.6839908049233998, 0.3931128601969346, -0.20906605018702368, -0.13031689023486295, 0.4398093895300869, 0.9066059972407596, 0.32875253048419467, -0.653407756288914, 0.06733428042643619, 0.9694609974279706, 0.22186370239946432, -0.5752940903852337, -0.26871494376928934, -0.3388034251794043, -0.7277208389140207, 0.6383564768506491, -0.23628217498938575, 0.899429319828357, 0.04873619492344744, -0.47966661903069524, -0.4639557197944565, -0.2293245423260278, -0.9372753991162905, 0.531330530590628, 0.9566718710733045, 0.6619204614406877, 0.5255620509486448, -0.3308842442464383, -0.06202837573609246, 0.807295294401451, 0.22120245723508536, 0.2764117068429021, 0.9635837616641117, -0.00030106453887832063, -0.3096783397025335, -0.09991224902107809, 0.09792780633724843, 0.8029995151888296, 0.7334626860050124, 0.3714183963637095, -0.812679127605019, -0.9389181396452626, 0.40455918882918956, -0.4631393215275222, -0.9408917394345837, -0.8378179924366904, 0.6139126668209282, 0.007442257678094019, 1.0, -0.7938694912963637, -0.7179016169335359, -0.8581679050442983, -0.4118581899774136, 0.05386191371140853, 0.24720245155468465, -0.4483554846038906, -0.27081077025729744, -0.6369342155539279, 0.4600298691861932, -0.8856060561909476, -0.015359485667897105, 1.0, -0.03313825404689211, -0.37026478358117554, 0.6199591616152497, -0.9164667411017339, -0.6020732356010137, 1.0, -0.10640401133410182, 0.8142970137420784, -0.6722672765708959, -0.028329104928666082, -0.19138265274335675, -0.7541500652376312, 0.3991891078987696, 1.0, -0.3646731814192564, 0.7031322888169247, -0.647688633630096, -0.1485839600486778, 0.12792790316077324, -0.047059274127453365, 0.14661746267870857, 0.046410705517830025, 0.08653163059634891, 0.7490907684417352, -0.9707310105199496, 0.8529342929651625, -0.42629485880772544, -0.544185541946873, -0.5053442818313494, 0.2715265477855503, -0.06902215442118492, 0.7579821878240056, -0.1918077109463544, 0.8507498916775488, -0.8282912546995247, 0.029998670821692178, 0.12021250973199735, -1.0, 0.7523531347663792, 0.902662687993161, 0.20096601214830406, 0.12627061953116442, 0.9448322965802589, -0.14053507620065278, 0.21608949332782895, -0.291857682962864, -1.0, 0.7550248197082743, -0.10261138707735526, 0.3330058820479911, -1.0, 1.0, -0.6641325677618282, -0.21515627800688672, -0.0891908891515995, 0.39120897386682835, 1.0, -0.49055249463214734, -0.5356772390907403, -0.04083950521796906, 0.6223326620950265, 0.02858952250485222, 0.13491272937246662, 0.10261671535207345, -0.06679619448715587, -0.3305238168346484, 0.5960402149772912, 0.3591580683759772, 0.7941300677894118, -0.4865555980254885, -0.8598777719479498, 0.6967313620459559, -0.2587368022834638, 0.25635192964158576, 0.4944271527860705, -0.8926990682518869, 0.20728765331173196, -0.0878937285108892, 0.28515432788933454, 0.7070646556963047, 0.7549276451966166, -0.5585383141931155, 0.8007340367602618, 0.8527937478101715, -0.7105502601051334, 0.7977574717387614, -0.1792623298942725, -0.09982332439792144, 0.4288500708427647, -0.2508819472980654, -0.28131881815945764, -0.7764680975411504, 0.5994660427216959, 0.6280437131290454, -0.37883917475675166, -0.4932589884434917, 0.3036434252425628, -0.4462493254741523, -0.11843566048377102, 1.0, 0.7510702783160546, 0.9202726037710819, 0.6152711196538004, -0.5156304359531287, -0.829431337093797, -0.0942520271837955, -0.24688341813440137, 0.3926993815710902, 0.34786389066036805, 0.9257265628640821, 0.12810555848977007, -0.5697565994671421, 0.7281117796714386, -0.26211788002810993, -1.0, 0.3482659032088144, -0.8703771742709272, 0.5763434821154183, -0.6756777202124988, 0.5130655471895006, 0.7751038355750492, 0.8119673306446129, 0.004315803108019295, 0.6444100356678701], "fitness": 66.16226955283406, "player_life": 0, "enemy_life": 100, "game_time": 195}
{"weights": [-1.0, -0.5051737566782173, 0.3360521693562548, 0.2655328763418105, 0.020676834052550552, -0.4864084018823839, 0.31230317978408184, -0.641185508582199, 0.7776895124256159, -0.24704806234225463, 0.6500844690117636, 0.14050745079382979, -0.285513738336867, 1.0, 0.43806579550873637, 0.8063910662074938, 0.5995058217995222, -0.9215703750283808, -0.342834416711701, 0.10146230936613715, 0.8256391828389366, 0.9776547068852289, 0.20572254069289878, -0.8563609336091789, 0.5227041617431049, 0.5841058333343976, -0.8172788197390238, 1.0, -0.8302671747098813, -0.971763865198126, -0.24873906035536614, -0.2946297428622998, 0.25321610737152345, -0.33178814084140296, 0.25571196457321954, 0.3683851833747466, -0.5996287151600997, -0.8963742572298952, -0.22394669052069127, -0.6358762830859901, 0.40031206419947013, 0.1664955163710386, -0.978604523171114, -0.14836763289115673, 0.38812368764944216, 0.9228154656824468, 0.7962766802420642, 0.6375114180013366, -0.08022615291513929, 0.5460780702600032, -0.6852401555864402, 0.615003910100199, -0.29519928727285005, -0.9087526176937897, 0.7761886939175195, 1.0, -0.1286369681980883, -0.5767851861465394, 0.7797315270911467, -0.09469389118796659, 0.339266757955887, -0.1655891073466878, -0.5617201203263388, -0.7484176839345557, 0.6369213516648784, 0.10448517743225187, 0.15352625698196093, -0.01926553719668954, -0.5213968136547005, -0.1689653217285364, -0.08012639674356424, -0.010022802189115942, -0.5631177324526773, 0.2641143411335421, -0.7480269711326302, 0.48445932535456127, 0.4714999966227495, 1.0, -0.859776670979671, 0.6882856517724021, 1.0, 0.09657528779456656, 0.6982475341954577, 0.007513052931202635, 0.40666607550217915, -0.026421891613895493, 1.0, -0.30665382370646366, -0.14519349155150263, 0.30513055672615264, 0.24027903405170417, -0.871566290727205, 0.38206605180332665, -0.3308497345846361, -0.8178771357068761, -1.0, 0.9634295886940556, 0.6897393902864632, -0.7000645677163155, 0.5574145401658054, -0.6951118869516171, 0.4455600724878762, -0.31537862814143375, 0.8493156614688041, 0.7598200206645471, 0.12218976030824039, 0.6031253499226459, 0.2580623286708388, 0.06291257384592899, -0.43278397106368527, 0.4708528568232952, 0.6440963562135049, 0.5812360220031628, 0.3601693881350532, -0.32335390770020783, -0.17472824486590713, -0.7141649221921953, -0.03356640136907296, -0.34959625490692076, -0.3734256187828691, -1.0, 0.871077140369769, 1.0, -0.041041109380649754, 0.7626277979364887, -0.17089424588426033, -1.0, -0.8126197341952421, -0.8259371763344603, -0.44789902085530514, 0.14608880846704528, 0.9429191430030632, 0.6229341135837461, -0.25422700492456235, 0.6281713946488248, 0.8856107997642869, 0.654542114892809, -0.3937885323869878, -0.3989073798093304, -0.7699106649429915, -0.20356823623578163, 0.3981270466552619, -0.5016760470947581, -0.24563636621537774, 0.2688632718687263, -0.9040859535392426, -0.35555470741001954, -0.5100318633086668, 0.5415070116628031, 0.6667539115132722, -0.8710254728748745, -1.0, 0.9701682034413281, 0.46269108947212084, 0.9563421489145466, 0.2122740444477501, -0.8142974708777917, -1.0, 0.5295497445381327, -0.05874106010132826, -0.2057135277041352, -0.02457079887598608, 0.7154548779271204, -0.6114661573270428, 0.13715491465773733, -0.3218456535763764, -1.0, -1.0, -0.3213371985340312, 0.8031792566954044, 0.533595173948668, -0.9652294034239324, 0.3913602735208195, -0.07752963566310789, 0.6805349650328113, 0.629155996092513, 0.578679767913991, -0.9545120967384929, -0.8611489269534509, 0.0956765122721972, -0.12071818769506548, 0.7159130700982644, -0.7272130702833023, 0.9180496285933849, 0.9776584361855458, -0.3315396625235333, 0.14181515943050615, -0.7194667786053905, 0.9398518354346337, -0.7339108578448748, 1.0, -0.9614467298398836, -0.7196746028119618, -0.18267892055799057, 1.0, 0.15228208587091357, 0.3134794607611199, 0.4770209604646305, 0.3939109047211186, -0.3071415294191864, 1.0, -1.0, 0.17654924197427033, 0.2308378805385516, -0.3922092695977225, 0.5221239985551385, -0.0413116620493571, -0.647848316616003, -0.9001419980161495, 0.32700267082646883, -0.10935718635077035, -1.0, 0.619432278731284, 0.0853576313970853, -0.980204179771958, 1.0, 0.9602527154425176, 0.48789437598516533, 0.6005210967834205, -1.0, 0.7503059655382649, 0.9152329010760518, -0.945164143647747, 0.1497916712660633, -1.0, -0.9021628249436583, -0.5766311702035615, 0.23922599273261752, 0.8343195671280144, 0.25316328198546567, 1.0, -0.22498613115942662, -0.6562079621075431, 0.7352756274830479, -0.7885275796441122, -0.28608105711482246, 0.5367148168122187, -0.03912801885927675, -0.1618709236217351, -0.793742255190081, 0.5857457372588994, -0.3714038944963698, 0.29846299134276216, 0.6657000110222548, 0.3334100517145884, 0.1839754218456803, 0.12157687810163631, -0.618260501309793, -0.5495083268074232, 0.6531272018696044, 0.8409609145564829, 0.48900006359847936, 0.3758328730592877, -0.03383245146958344, 0.07846779957203695, -0.5796580818143868, -0.6645156093465348, 0.6400700797508299, -0.6134089227664521, 0.30278562152199306, 0.4047497934378446, 0.6422990221333824, 0.7924393020814309, -0.45098039812750124, -0.120878597722677], "fitness": 66.16226955283406, "player_life": 0, "enemy_life": 100, "game_time": 343}
{"weights": [-0.9883640833754078, -0.4439878213369152, 0.4556782458007261, -0.37907760337051916, -0.4667952001611609, -0.4605073559977949, -0.24677722843119443, 0.058350001707358615, -0.584175041646577, 0.32078752548814643, -0.6877116641033447, -0.8285378075441958, -0.1376729067720647, 1.0, -0.8213546722411718, 0.8071102120866906, 1.0, -0.006523245175063197, 0.4564656860653117, 0.7024980345926775, 0.9810080561573511, -0.8391846093372012, -0.45478221960325943, -0.5504083654630179, 0.4340542308118889, -0.8932755087634519, -0.5392452438364266, 0.8296155212424907, -0.7053469536479513, -0.9927905539953852, -0.6206838647275148, 0.632760238552957, -0.5258199403996819, -0.7068817407781722, -0.19360454513812814, 0.27021659057931524, 1.0, -0.055644949926157095, 0.37737385345641505, -0.1315479123355648, 0.4304653679575668, 0.030184328107071723, 0.1571347432263686, 0.17769327637240886, -0.40395216362172687, -1.0, -0.43223982090210755, -1.0, -0.2999629307114269, 0.4620784362631665, -0.30430817455937736, 0.3802276082710964, 0.6858211400467276, -0.006379955156772976, 0.3800302595088494, -0.07024194818254068, -0.03479847469992836, 0.38181639195850886, -0.33910941101228986, -0.5367919820369127, 0.3141376368766267, -0.6394331263953288, 0.32834148966904286, -1.0, -0.3536222524664948, -0.30423832412209906, -0.8078978136725216, -0.786719335058543, -0.20208971950944243, 0.36816655414038446, 0.17114157331446161, -0.7640570008561409, -0.037506497686195794, 0.3366895832805733, 0.35140853925957627, -0.617057913325614, 0.751413828985967, 0.5668040414486064, 0.8112098199907095, -1.0, -0.7943204653541656, -0.5844898591586802, -0.5327002748133021, -0.02387749408396614, 0.9353884424262907, 0.4220240864813949, 0.9759319972053072, 1.0, -0.6455264612899312, -0.30896855709414545, 0.11217938763481944, 0.23755565531614325, -0.8679431007161956, -0.5512605445548044, 0.49541128329283834, 0.11098086754468839, -0.21447317268544175, 0.5054953157328848, -0.2231453720271571, -0.8356689103270091, -1.0, -0.8208531533453136, 0.45743855851284365, -0.8916545659747165, 0.4168912256765516, -0.6443541180085985, -0.147951069639372, -0.4521828269965895, -0.00965232737223079, -0.04038533172745097, 0.8494963321544083, 0.8054342767656002, -0.7046384054096442, 0.5466858547898316, 0.18834766149689264, 0.20400218348362464, 1.0, 0.48406319770331724, -0.30962732026537343, 0.6990639154147057, 0.7485665763443434, -0.5657590656976794, -0.9318249734354844, 0.44955118383176274, -0.2269577166935987, 0.628371451290213, 0.8169208313000735, -0.36100931105092443, -0.7918077557737857, 0.007319618333786193, -0.9230067293726655, 0.9902744586215005, 0.8430049432049642, -0.6678372567495103, 0.8234298703533555, 0.9476371333905317, -0.3848666110965287, 0.4339479370145752, -0.3120360199213713, 0.7957228182418757, -0.7235828928148957, -0.45128371861971595, 0.7793539704994124, 1.0, 0.18268587655438484, 0.3880769311360379, 0.5113686094670893, 0.334950147334746, 1.0, 0.2847491888964664, 0.4095739893296503, 0.7665945623477652, -0.5405284442354786, 0.13323109050578413, 0.10267948470628166, 0.8136861796067454, -0.46097841830190023, -0.6650129907832846, 0.8711428328232748, -0.3658237174462964, -0.9656539233879652, -1.0, 0.9734804616037716, -0.9024408273256401, -0.7998564786249293, -0.42738505475996647, -0.5229750326453486, -0.2802553777799793, -0.535243061020429, 0.06430390420804269, -0.8785521216616237, 0.7584191090023428, -0.09551278598616841, -1.0, 0.4656721311844062, -0.5610478471601636, 0.5230534347598041, -0.6679203784968852, -0.7189580156406703, 0.3468324357313805, -0.2477424342668027, -0.8440469315453714, -1.0, 0.14449434839306718, 0.1549599879771755, 0.9716753583066297, -1.0, -0.4446636367360637, 0.4728590167094382, -0.1581402868247834, 0.22200236599150713, 0.07025099526002157, 0.40094765369964513, -0.7954417732586135, -0.45078994965372543, 0.4822506991316187, -0.5833454446135111, 0.7468225386065258, -0.9300103544182424, -0.96735335386878, -0.961656765490082, 0.5942006037178073, -0.5133377660362015, -0.720496966699353, 0.3928952842412975, 0.3265083378293961, 0.8196194361003619, 0.8395082502480442, 0.5542559583904908, 0.1631586720479003, -0.5860434096463905, -0.6156440589499625, 0.41453535842415057, -0.158398503896994, -0.31945836254574517, 0.8147767532351171, 0.6453429900044704, -0.6178989227603475, 0.24223698662559354, 0.7666134591864301, 0.9194540994674839, 0.7138731945583823, -0.2341274548305966, 0.012387113292691099, 0.8918148071386858, 1.0, 0.5892978183253252, 1.0, -0.06552561570691554, -0.19681515346555611, 0.10170563898458318, -0.6216628523675277, -0.9097473519918742, -0.09733568669388547, 0.4797857056113256, 0.8098793268094086, -0.18819178327378172, -0.9285693666211492, -0.7619416857479786, -0.8121927568096481, 1.0, -0.5552372962887135, 0.16033661879938885, 0.2811794931132954, -0.0861168363697542, -0.9239021512285924, 0.21066369555119416, -0.7162959210228219, 0.3224795318802189, 0.48431318271699747, 0.3921174065227047, 0.45799788623567905, 0.3647963780576784, -1.0, 0.3990548166892045, -0.9841015657743806, -0.8523066842385241, 0.963826447965346, 0.5114532600447408, 0.22594650392001778, -1.0, -0.8473379379590773, 0.6466168431403365, -0.19611562244950462, 0.12552917887314083], "fitness": 57.16226955283406, "player_life": 0, "enemy_life": 100, "game_time": 296}
