{"weights": [-0.7782203688138091, 1.0, 1.0, -0.23362373538611736, 0.6304609157142045, -1.0, 1.0, 1.0, 0.11166298559271709, -0.3270782725892074, -0.38861524274081494, -1.0, -0.21028456679758034, 0.6355357586905126, 1.0, -0.7657536126234088, -0.8793121519305178, 1.0, 1.0, 0.3899122913723698, 0.9424528631178053, -0.7380723750288966, -0.7643618337382602, -0.17587314578625746, 1.0, 0.4711762702324064, -0.7689153436789636, 0.28915916429338084, -0.146703780386905, 0.649451193213241, -0.2271518137278759, -1.0, 1.0, 1.0, -1.0, 0.8059606857680327, -1.0, 0.42550527002548244, 1.0, 0.6152810551702955, -0.30153980966576577, 0.5318428580074523, 0.5592094786387591, 0.6568640618523499, -0.6159858949461233, -0.005868235612185302, 0.22245365435423947, -1.0, -0.5408297010584325, -0.07986978547735579, -0.4382824759561208, -0.4864200927121799, -0.2428025984921448, -0.8030819428397122, 1.0, -0.8196162669897401, -0.3443974956612842, 0.11234279484081988, -1.0, -0.90717931485127, -0.25902901755751245, 0.3637252050804115, -0.31968022294560444, -0.4974830761432349, 0.10403113086629123, -1.0, -1.0, -0.2845108859066743, -1.0, -0.41061498799480556, 0.7040733080669749, -0.7596176479087737, -0.22577305689852967, -0.9710986071674246, -0.37581755806169387, -0.9643607831707914, -0.06396403454097133, -1.0, -0.6073068284306433, -0.08529280547525542, -0.6438325846495806, 1.0, -1.0, -0.9243910919032047, -0.8708852416557841, 0.287890505459118, 0.2142069059887074, 0.0883005925627835, 0.8651346556008506, 0.7657703272456012, 0.9004729631036654, 0.9831623351633606, 0.5529484461013973, -0.3497657532231493, 0.8181306183928613, -0.1001328190236358, -1.0, -0.29089095861173125, 1.0, 0.7098055153570012, 0.7904392162480314, 1.0, 0.7998456275302674, -0.7034656492842001, -0.19035974101539843, -0.009641674147030321, -1.0, -0.2587803122263409, -0.41590070816262614, 1.0, -0.8303415572871883, -1.0, -0.7212605241668147, -0.08425239328001399, 0.006729029596732605, 0.012003116253177626, -0.36931100756529583, 0.0425699563869818, -1.0, 0.8665758182195296, -0.7498080848791701, 0.9806976012439813, 0.3903982734522029, -0.41281707339066376, -0.638721501984854, 0.44146112760261824, 0.5708422890060788, 0.09595134830299412, 0.8456782307340298, -0.8434893826869188, -0.478933130726902, 0.6796891444750659, -0.3184034868676274, 0.009968381460900622, 0.5581815125181775, 0.40234686434309574, 0.7930076299158964, -0.5820729140109999, -1.0, 1.0, -0.1298060126713091, -0.23274472727530338, 0.5085250157732778, 1.0, -0.4352716176021507, -0.7852020406682103, 1.0, 0.9768995084771308, 0.9322462192768551, 0.8519130939051256, -1.0, -0.3052681648017571, 0.03543866802703721, -0.3663198337527922, 1.0, -0.7744619037303173, -0.13673322788435216, 0.5621504058465887, 0.8420804630133003, 1.0, -1.0, 1.0, 0.31914710366478827, 0.15684063731663267, -1.0, 1.0, -0.28909345436724676, -0.13199469509389639, -1.0, -0.8181689536506896, 0.30439720946409565, -0.3732864180148634, 1.0, 0.3873692310177054, 0.5043912637088519, 1.0, 0.1663665947930406, -0.010846673659451633, 0.511798134514255, -0.14418912763731517, -0.9946461683435661, 0.30258618561000106, -0.9926135641901517, 1.0, -0.6775678283378331, -0.08041611119019731, 0.7152434488332795, 0.901145045136216, -0.24983382338257665, 0.4102109432650496, -0.6499533013713764, -0.2572240963493766, -1.0, 0.6115896081304897, -0.09533230851842955, -0.27826117721809407, 0.5966930694707419, 0.8810660237133228, 0.7244863771708784, -1.0, 0.7072552534870367, 0.033905918325830564, 0.19608320353041853, 0.05294820847119319, 1.0, -0.6772539481268609, -0.6568941775358502, 0.2370885704259459, -0.349983139253193, -1.0, -1.0, 0.8141964302917145, 1.0, 0.5215571030351411, -1.0, -0.6230072286398745, -1.0, -0.10060808440504265, -0.0042669908657885225, 0.9553879475164865, -0.4554278547553301, -0.20611485921157646, -0.4257112504766999, 0.18965571040374907, 1.0, 0.03347673267357465, 1.0, 0.46989080244230497, 0.02482367404624275, 0.277823870625003, -0.6469942687602284, -0.9581638183132672, -0.3780208603697188, -0.8746375166546683, 1.0, 1.0, 0.9172993571899066, -0.3649580166844084, 0.08517707278279307, 1.0, 0.2526689602284248, -0.5483806661490361, -0.1109840571228885, -0.34924603122468256, 0.02132283306079419, 0.5432932033127819, 0.8568591185422646, 0.4808882581973748, -1.0, 0.4035172943711637, 0.46290029401508626, 0.5457050889043548, 0.5086348677349164, 1.0, 0.3510519341209569, 0.14840385842167492, 1.0, 0.2050311694521051, 0.21986966585371304, -0.3910185183219964, -1.0, 0.5417298448347496, -0.4369207235699216, 1.0, 1.0], "fitness": 12.790513847158579, "player_life": 0, "enemy_life": 80.0, "game_time": 183}
{"weights": [-1.0, 0.5381314670257681, -0.06483239805316898, 1.0, -0.2498687845834504, -1.0, -0.7803796360845094, -0.5430814980773868, 0.9844839738971649, 0.7021179189272285, 1.0, 0.10014766682954779, 0.3875255077733889, -1.0, 0.8999555988139538, 0.5972152448045617, 0.18999503521356298, 1.0, -0.3872703479356009, -0.39492697932595555, 0.6900093618084078, 0.8738334759919439, 0.4515387503342907, 0.2396173167726503, 0.26171258458805036, -1.0, 0.9100486699795131, -0.0846524819248291, -0.6258156532727218, -0.35232689185056365, -0.6589633060680222, -1.0, -0.07481491257234596, -0.4602805153351097, -0.9875348477328344, -0.34519915098237186, -0.2796706487047922, -1.0, 0.07944569621400288, 1.0, -0.960144104892547, 1.0, 0.07503665556411099, -1.0, -1.0, 0.5608182380183212, -1.0, 0.47117673481654887, 1.0, 0.7185700302379642, -1.0, 0.4698943860469761, -0.92403933828372, 1.0, -0.053213037017214915, 0.42541767740320946, 0.9478471551653778, -1.0, 0.08809259421965632, 0.11499987680341239, -0.42242279979041064, 0.470189545273479, -0.5365664232741154, -0.3071586189680191, -0.46388235990208004, -0.4421997191090867, 0.434946672964136, 0.8919898053768602, 0.020179397325354842, 0.6409940473704725, 1.0, -0.7617694857523774, 0.07980573033616456, -1.0, 0.8681174345878298, 0.2956777814051055, -1.0, 1.0, 1.0, -0.7051581899113814, -0.7672506017481758, -0.4388419146781488, -0.5691272140087263, -0.33481966150461273, -0.26265330930178143, 0.23847200521240408, -0.00413235404809742, -0.9303418125239222, -0.553513176316972, 1.0, 0.011617955879553388, 0.5429881119493795, -0.9498693786278929, -0.9053616783489871, 0.09607302552381591, 1.0, -0.4865749454091606, -0.9376242989056348, -0.8473632676555062, -0.0706848127039138, 1.0, 0.9154679936778436, 0.574888729677328, 1.0, 0.39445593848777183, 1.0, 0.4057629704942286, 0.9307255403753655, 0.16949968150566042, -0.5169528618295518, 0.13193191500473644, -1.0, 0.5275707355427006, -0.7846057100933239, -0.6113060150855385, 0.3106441583937598, -0.9072261186583642, -0.7473444657987978, 0.7302543793604603, 0.6824055723791871, 0.13859519674088694, -0.5467547425812069, 0.5306382547896431, -0.2733640571025162, 0.6283250646666252, 0.7418986885413026, -0.8989128657826813, -0.8217283452138696, -1.0, 1.0, 0.6184941423324001, -0.6290410831408527, 0.5359208330771122, -0.4340101478650925, -1.0, 0.6180440827643825, -0.41127197610342536, 0.7709306178711388, 0.866315454460757, -0.5255183011040818, -0.8865951434130922, -0.8614929110123539, 1.0, -0.6464687849418214, -0.6985218187048381, 0.7131526476592575, 0.1292153432227129, -0.09195124301084212, -0.27445010423398175, 0.3064802251690575, 0.4915029538187237, 0.5307712314589396, 0.36885852191217117, 0.6463043016293273, -0.4311295333834432, 1.0, -0.4671729034519503, 1.0, 0.0066963447171662915, -0.32712324085988687, -0.8600788947626933, 0.5750343787628682, 1.0, -0.5740666848873934, -0.1487902710795832, -0.17873335886746633, -0.04691430015095999, 0.2906180541845206, -1.0, 0.8281218344243324, -0.7959192299434965, -0.5927854924627349, -0.638350886960301, 0.4336493736812421, -0.3103815743649492, -0.6592559489615482, -0.9185453947442513, -0.2858327108703781, 0.03299950974671939, -0.6411874221070568, 0.7247921954902754, 0.6039327332061976, 0.2787086691142874, 1.0, 0.9610074292590405, 1.0, 0.7683967997057595, -0.05165532266540951, 1.0, -0.41292265342249124, 1.0, -1.0, 0.4275933371869147, -0.9443593341581782, 0.920137419606459, 0.47644824371151495, 0.48269775543843063, 0.42623914002101315, 0.3583616466495376, 0.8509220537918918, -0.9068611235835125, -1.0, -0.2754358610611437, -0.16601187737495188, -0.5341808587609579, 0.21894805665601458, -0.13342748572108193, 0.06574203380552207, -0.23528520503699646, 1.0, 0.17403171679032903, 1.0, 0.7920814786032749, 1.0, -0.12587460311553622, -0.11934910505082374, -0.3837465238408895, 0.6140806702697116, 1.0, 0.17356429920881822, 0.9436026684168339, -1.0, 0.6274744154835662, 0.1288305587705622, -0.34269396819747877, 0.07887124281494629, 1.0, -0.30804274033570145, -1.0, -0.38335705578336643, -0.4249585739148739, 0.1464380800535251, -0.4063640418396053, 1.0, -0.2093603423209065, 0.21274723374304894, 1.0, -0.47689023752225645, 0.9439038320018989, 0.12682629358430875, 0.8702140088552883, 0.6445478797167135, -0.615096739968898, -0.5224485361057687, -1.0, 1.0, 1.0, 0.08517964124891575, -0.95095068327955, 0.2593209762055405, -0.03110009232921418, 0.6160553667399161, 0.3354727485506621, 0.6939939039647168, -0.8853342536750001, 1.0, 1.0, 0.5147394548062061, -0.43882977882796625, -0.1400480552485615, 0.3706658337879869, 1.0, -0.9260375603215867, 0.5762792285923318, 1.0], "fitness": 30.79051384715858, "player_life": 0, "enemy_life": 60.0, "game_time": 183}
{"weights": [-0.3796905959342308, 0.43197132918502823, -0.2324298781261736, -0.26393878528884185, 0.6304609157142045, -1.0, 0.4501408321148952, 0.9907257382646181, 0.11166298559271709, 0.23365245871986295, -0.38861524274081494, -1.0, 0.48362526021035723, -1.0, 1.0, -1.0, -0.8793121519305178, 0.47234558733277254, 1.0, -0.5445642897012895, 0.9424528631178053, -1.0, -0.25288797351741754, 0.44487841357913016, -0.43079890164280754, 1.0, 0.11098792906590049, 1.0, -0.146703780386905, 1.0, 0.406589626915529, 1.0, 1.0, 1.0, -1.0, 0.8059606857680327, -0.8693681425992844, -1.0, 1.0, 0.6152810551702955, -0.30153980966576577, 0.11966987700936071, -0.09118416697272436, 0.3352704736852552, 1.0, -0.46874809047002797, 0.22245365435423947, -0.3595975325788564, -0.8698425955146888, -0.07986978547735579, 0.5839113181185871, -0.4864200927121799, 0.22335029345759305, -1.0, 0.4464739534296649, -0.8196162669897401, 1.0, 0.11234279484081988, -1.0, -0.7373464787397196, -0.02792957678509278, 0.3637252050804115, -1.0, -0.4974830761432349, 1.0, -0.8666712156333307, -0.7611590670913642, 1.0, 0.1252215484893784, -0.80412925019962, -0.2761677567482237, 0.195301614950683, -0.22577305689852967, -0.5112787552867295, -0.5376857213209687, -1.0, 0.1809852400167855, -0.418924306246812, -0.24187240184637737, 0.8298469193311995, -0.6438325846495806, 1.0, -1.0, -0.9243910919032047, -1.0, 0.287890505459118, 0.7938512111944743, 0.22701008780082843, 0.8651346556008506, 0.2087024229948089, -0.5118393191653914, 0.9831623351633606, 0.5529484461013973, -1.0, -0.30180546404962516, -0.20281283552858198, -1.0, 0.005386664721804213, -0.31597093307141044, 0.9440395221759968, -0.352954170965431, 1.0, 0.7998456275302674, -0.9390849956017582, -0.19035974101539843, -0.009641674147030321, -0.3270862923654436, -0.4557014991792063, -0.6398246869460553, 1.0, -0.3595972249337195, 0.165532543325978, -0.992793226316651, -0.8447116365445057, 0.2660909705007445, 0.24660802302091323, -0.46325023263729664, 0.5131267569429416, 0.7018102196064999, -0.4378458513504251, -0.7498080848791701, 1.0, -0.9010486158610241, 0.024166936148592222, -0.5844470641873092, 1.0, 0.0010361472611450928, 0.28514692511188344, 0.8456782307340298, -1.0, 0.9917185326260027, 0.6796891444750659, 1.0, -0.5374451169109331, 0.5581815125181775, -0.10103134607235109, 0.7930076299158964, 1.0, -1.0, -0.7504717841195906, -0.7642494460117567, -0.18106132974838718, 0.6282289951740873, -1.0, -0.38362729795429984, -0.3461100209039556, 0.26261869312362685, 0.19684079980696179, 0.9322462192768551, 1.0, -0.6486105930180734, -0.9343894857275173, -0.7152470966700577, -0.3663198337527922, 1.0, 0.9935228366529698, -1.0, -0.6514962928882149, 0.40785562666507064, 0.6589088341450097, -0.46084859359143526, 0.4826584990762752, 0.14410263136126744, 0.15684063731663267, -1.0, 1.0, 0.48375629555358746, -0.13199469509389639, -0.39055402068944295, -0.8181689536506896, -1.0, -0.08792820339232943, 1.0, 1.0, 1.0, 1.0, 0.9484459400385106, 0.6462874913701921, 0.504843465551282, 0.00443647742168618, 0.31870165991291866, 0.4755635248624522, -1.0, 1.0, -0.7865760691104479, 0.6883842135076061, 0.7152434488332795, -0.4035030912228451, -0.24983382338257665, -0.11987670386270777, -0.6499533013713764, 0.21661374811504175, -1.0, -0.5665604658648709, -1.0, -0.6757484904960251, 0.41697309316535214, 1.0, -0.5089006526587172, -0.8827248661574023, 0.32715922135534814, 0.4576357809636322, 0.19608320353041853, 1.0, 1.0, -0.5768729370961448, 1.0, 0.2370885704259459, -0.349983139253193, -0.7558116160348125, -0.22868625831189604, 0.8141964302917145, -1.0, 0.33280400212320027, -0.9889035278597513, 0.20102186581534465, 0.7604089196482314, -0.5171821529987344, 0.9563680541618697, -0.5998224905019036, -0.4554278547553301, 0.007723291816967126, -0.041833645908506356, 0.18965571040374907, -1.0, 0.546184053441689, 1.0, -1.0, -0.30071777043855963, -0.08373043643049605, 0.5315363394293986, -1.0, 1.0, -0.9340636066329211, 0.3825227542454728, 0.8325925360816827, 0.9172993571899066, -0.3649580166844084, 0.08517707278279307, 1.0, 0.39916553628884177, 1.0, -0.4419709849799763, -1.0, -0.6880610480770066, -0.4512332534208665, 0.8568591185422646, 0.4808882581973748, -1.0, 1.0, 0.6510894777787566, 0.056845104800283375, -0.17730851216034849, 1.0, 0.27733039955072286, -1.0, -0.7648000148001695, 0.2050311694521051, 0.9060303661264028, -0.6197236199474679, -0.438513628255057, 0.798082698595721, 0.1284692934151772, -0.856583686845188, 1.0], "fitness": 57.19486503108351, "player_life": 0, "enemy_life": 30.0, "game_time": 332}
{"weights": [1.0, 1.0, -0.38791924328709193, 1.0, 0.2021982998782449, -0.8249273705560934, 0.13158404918250832, -1.0, -0.8257909493405443, 0.06743597877943874, -0.2635546139421888, -0.8270182016037824, -0.5781382127764522, -0.2711462001122502, -0.9016958853013225, -0.1095268555627551, -0.3166687945151785, 0.6482534429259561, 0.6416256261783054, 1.0, -0.28537335795242413, -1.0, 0.26230756168504676, 0.12087977981755582, -0.36229034950155037, 0.13013965368816527, -0.12525953575153426, 0.6675565797598821, 1.0, -0.9244511969862734, 0.4325257135733849, 0.5057744972355213, -0.08178765898994955, -0.9610386571694098, -0.213549196310715, -1.0, 0.7194156254318202, 0.6172706223319955, 1.0, 1.0, -1.0, -0.4837107102193963, -1.0, 1.0, 0.1569445007624114, -0.45889674616817483, 0.6169254970181253, 0.7518001191970852, -0.9480491038292383, -0.271287732438112, 0.860034513716756, -1.0, 0.9438263954202158, -0.7368718838165565, -0.7276981151624695, -1.0, 0.5431235299733468, -0.3833845433231009, -1.0, -0.5634233955758703, -0.5737126232927852, 0.32437197910820015, -0.567602378249534, 0.9773219285123812, 0.739091293670971, -1.0, -0.7761349399055884, -0.3334492320264114, -0.2914645711024526, -0.5620523064443244, 0.02206277221284625, -0.761662580011814, 0.45529003019450986, -0.25168780173432903, -0.09438166273671011, -0.007887946402166945, 0.9915401436770468, 0.20436000759590933, 0.26572614602954125, -1.0, -0.5251000583905658, -0.1638422165898169, -0.2601631087440832, -0.18164617035812913, 0.5571169820823775, 1.0, 0.3950852617589943, 1.0, -0.3499740581664539, 0.8713933581245838, 1.0, 0.02344111843352059, 1.0, -0.10668260550279252, 0.7641019692251082, 0.18598242458936032, 0.4693727549361493, 1.0, 0.6974101540328504, 0.9356078895861744, 0.6565145824218368, 0.613896116761917, -1.0, -0.24641286176294475, 0.029460191496817112, 1.0, -0.2475639113015592, -0.40580488814712146, -0.9162473720005533, 0.9625064089856379, -0.7658450555591132, 0.23139867166451006, -0.09294092053323155, -0.08934956017382123, -0.25612530917641374, -1.0, -0.6695498776194774, 1.0, 1.0, 1.0, 0.7912589763326405, -0.016151593189791813, -0.0033586434342981475, 1.0, 0.33011156879975834, -0.24774607734173404, -0.5874786718459377, -0.21040900691054, -0.8283567742408313, -0.6925101223075105, 0.3385427839581352, -0.5132579255788896, 0.9785233897984694, 1.0, -0.756069007138243, -0.4343219718885374, -1.0, -0.9789665144814994, 0.5017556219052541, 0.41755446119906314, 0.39305710665602067, -0.2595764217069507, -0.23635837719519126, -0.5312415901962869, -0.6743574115166262, -1.0, 0.4785222034426039, 0.27947447227842925, -0.7596591415925986, -1.0, 0.057050456265913096, 1.0, 0.5047819130748966, 0.6270844357960698, 1.0, -1.0, -1.0, 0.26173804020756597, 1.0, 0.26130815668311547, 0.022453580951951768, 1.0, -0.5829833030915796, -0.05090122085470583, -0.24620353085618873, -0.31849900743077164, -0.3174781843433735, -1.0, 0.7869409848396738, -0.282991547397273, 1.0, 0.242658369698444, -1.0, -0.997161165658861, -0.4536351460804794, 0.3610574846379193, -0.09775793524760623, 0.1778184364930634, 0.12753137851910057, -1.0, 0.3667589003991678, -0.060590039956294084, 0.6181533108964946, 0.10998500108247733, -0.8127742717797598, 0.005845968717964167, 1.0, 0.24356368334474787, -0.5919116839546256, -0.3142498371034291, -0.1486470127768179, -0.42939267230865985, 1.0, 0.45782448357188055, 1.0, 0.06730277079497943, 0.23159509823095425, -0.9836342714245896, 0.7891373626620493, -0.6484322814249645, -0.8209935452248489, -1.0, -0.8785755289357772, -0.6177523696311712, 1.0, -1.0, 1.0, -0.8262365639767215, -0.02876973511566927, 0.0888216016695576, 0.505141149947002, -0.8261179050672542, 1.0, 1.0, 1.0, -0.3538295975311867, 0.40816944087363044, -0.14180396029583964, -0.15752008771749615, 0.6056324462759232, 0.4562495750092894, 0.41241667309373664, -0.8529966025075106, -0.4280384716905703, -0.634680570155254, -0.428119660564953, -0.4470684433970967, 1.0, 0.5917281766656093, 0.7465753701485303, -0.41653771868782674, -0.8302182249022518, -0.8652148858160322, -0.7056092602974605, -0.8598753134454344, -0.07877662813625907, 0.07254321378001383, -1.0, -1.0, -0.21024797907707216, 1.0, 0.6934205227149195, -0.07130224456806628, 0.6423641318617643, -0.10011337681958887, -1.0, -0.9581417010898892, 0.9314504199966646, -0.7305241299043937, -0.5425494979143655, 0.8919103701697182, -1.0, 0.3056512463041383, -1.0, -1.0, -0.009853139556848411, -0.40136279773589345, 0.12715841589556082, -0.3326568197865103, -0.2092124089846703, -1.0, 1.0, 0.7489867027267358, 0.21648572345216965, -0.346847543481939], "fitness": 57.16226955283406, "player_life": 0, "enemy_life": 100, "game_time": 195}
{"weights": [0.43248700589240374, 0.7171139906822445, 0.5927909544523032, -0.09772626937370488, 1.0, -0.665813236041926, 0.0016064215113993363, -0.4758436280428613, 0.469345942411842, -0.17077593775867228, 0.4690836105522871, -1.0, -0.731637302840367, 0.3873130833730346, 0.445155701392713, 0.8314333666359952, -0.23380039534576735, -0.4685018555473561, 1.0, -0.22035764376454492, -0.9266729423134684, 0.7609333728485645, -0.3805400695147563, -0.8441622270125784, -1.0, -0.6185182934062596, 1.0, 1.0, -0.491044287777767, -0.5974669629287395, 0.49539255706746776, 0.3993629475577576, 0.4737136015060137, -0.9540251304021556, -0.5288042553660474, 0.7947096960317473, 1.0, -0.008577236829042656, 1.0, 0.9593385936489074, 1.0, -0.4388276909155986, -0.4997997530911843, -0.7354848588646473, 0.3836398667853384, 0.014022262779712968, -1.0, -0.4836141128047533, 1.0, -0.24414934798475962, -0.2275637293491024, -0.4296209247551168, -0.575626886850581, -0.916098583167742, 1.0, 1.0, 0.7848961087230618, -0.3162098934158881, 0.06981336588024878, -0.9977550912785087, 1.0, 1.0, 0.3123302011359661, -1.0, -0.35530997102292794, -1.0, 1.0, -1.0, -0.7181449400712898, -0.31647511204210244, -0.23990630741500985, 0.7324918511817805, 1.0, 0.5565592578048824, 0.14733703687644195, 0.7056038788067256, -0.14856669572357106, 0.8573946045472317, 0.8200175340335728, 0.6441018254939335, -1.0, 0.7223616581960103, -1.0, 0.2877370516917278, -0.6180636126037349, -1.0, 1.0, 0.5247451907120751, 0.35122428103989645, 1.0, 0.49069977536582976, -0.5347354940121304, 0.7797097255351341, -0.8016852440699854, 0.2458624228317705, -1.0, -1.0, -0.908594212510006, -0.5387161652664745, 0.14822334931769787, 0.7926502061555037, -0.5321653153240706, -1.0, 1.0, 0.5600676547720429, 0.04766248156535258, -0.6774159778703044, 0.8443850063394938, -0.16125646726802778, 0.306060394425545, -0.059935541027774986, 0.677901521091224, -0.06511915765745768, -0.40437535702666083, -0.1563002764216579, -0.5813098506983346, -0.8709438918826298, 0.3710630023047947, -0.46637128372722647, 0.43113957589017404, 0.17567158175016784, -0.7960187135845329, -0.45889952306357873, -0.5325201824804531, -1.0, 0.3083321440284639, -0.41933093261078913, 0.14304766587262696, 0.0837007051781623, 0.41844083687965394, -1.0, 0.13883866312585957, 0.6068020086438675, -0.9543871780072318, -1.0, -0.26894994282050744, 0.5496438613353591, 1.0, -0.9807791822501122, 0.2822150540272733, -1.0, 1.0, -1.0, 1.0, -1.0, 1.0, -0.06307730035374104, -0.6572650044262383, 0.18509509239028848, -0.6946970707358499, -0.181107655631096, -1.0, -0.569482047978183, -0.49990045530624505, -1.0, 0.3090100223342885, 0.14348326956357127, 1.0, 0.31435010160277677, -0.486799380330289, 1.0, 0.8964724443732277, -1.0, -1.0, -0.40464934256871454, 0.5582880866037441, 0.06165954599017165, 1.0, 0.3118310919136344, 0.22282993385542404, 1.0, -1.0, -0.9798588942644473, 0.6679173593516521, -0.7802447068511986, 0.44713993247844425, 1.0, 0.16496889362265932, 1.0, -0.7239237873192087, 0.8861816855486131, 0.35517136604872007, -0.8890763422381129, 0.04372020482712946, -0.756166281253566, 1.0, -0.2118131411886638, -0.14777291725331088, -0.3743391894351429, 0.20324656035160615, 0.4991149201076135, -0.642884584755637, -1.0, -0.42854906949780314, 0.0059812056160511995, -0.19552926819350186, 0.9929060522332711, -0.43309375148117035, 1.0, 0.5123099208452888, -0.28164617910332423, 0.4794777899075826, -0.7416032866644947, -0.020395433874146995, 1.0, 1.0, 0.22356737090719836, 1.0, 0.5123018848495481, 0.2375824283923783, -0.8142857565101251, -0.35639474059627896, 0.3859510061040421, 0.38998909771304713, 0.8115510140974633, -1.0, 0.4766915462791888, 0.3175202020785821, -0.011990393896654572, -1.0, 0.5749079834063592, -0.31025369751165777, -0.7180803662177768, -0.5455788120698448, -0.6275164096289363, 0.3908814896017032, -0.49491579227452986, -0.9522811463144776, 1.0, 0.3637792491169196, 0.8853866505424867, 0.4857884395483263, 0.04310512093540486, 0.6025417191518504, -0.3640158430219722, -1.0, 0.16408801822286812, 0.3246414124956969, -1.0, 0.4697076876634976, 0.39083923875631577, -0.8761854374232085, 0.8591671055526965, 0.3936624084565472, 1.0, -1.0, -1.0, 0.06647404502349341, 1.0, 0.6718389786665433, -0.9439239257266251, 0.22429379774952474, -0.6761614038716077, -0.25776037546964553, 1.0, -1.0, 0.18054304755234873, 0.27761826450867055, -0.12611292307666977, 0.2501893657583828, -0.5656294718633079, -0.7660183797382091, 0.6596612144766466, -0.8276737199009727, -0.09105300543270695], "fitness": 57.22544845445559, "player_life": 0, "enemy_life": 70.0, "game_time": 299}
{"weights": [1.0, -1.0, -0.4673591990712045, -1.0, -0.9159495664081467, -0.9044300093758462, -0.6084447759044727, 0.04310668276199692, 1.0, -0.595713662386027, 0.6473009253140596, -0.34830249096151444, -1.0, -1.0, 0.31544390216073825, 0.4466464811474862, -0.16963484944279328, 0.43561535016113717, 0.24990970565798842, 1.0, 1.0, -0.9618256067107596, -1.0, 0.3757737805891629, -0.2496633598130028, -1.0, -0.6978267633405357, 0.45718977228999114, 1.0, 0.7173880980588431, 0.2944228954533019, 0.31719781681566717, -0.660649001404715, 1.0, -0.6595013787543017, -1.0, -0.2767134738522463, 1.0, -1.0, 1.0, 0.33100770106294597, 0.2595210968130071, -0.33868155106180475, 0.49854426179302436, -0.37569786050587844, 0.29464666819563967, -1.0, -0.6674805185899544, 0.3043775434410325, 1.0, 0.6276247183757555, 0.24837716757222428, -1.0, 1.0, 0.017674547805077934, 1.0, 0.18045510002444176, 0.5481182262833734, -1.0, -0.5188285655132657, 0.3864302903945251, 1.0, -0.6226897410188118, 1.0, 0.2316227571808639, 0.19139773832428997, 0.7284175105104151, -0.2955163215966867, -0.2753547135304525, -0.3810395553633661, 0.45975541231602146, 0.9106312272322389, -0.40597577522989936, -0.7119217285794146, 0.48516311180961813, -0.23888553536236312, -1.0, -0.6878019149622101, -0.06254431323439497, -0.4038739553699944, -0.3780533440140038, -0.7336105677161595, 0.1877517663428625, 0.20209276903508877, -0.6759907074131479, -0.2895214473926412, -0.7503683749495971, -0.37330992512193606, -0.270997763912175, 0.5794601719232522, 0.7611028870451662, 1.0, -0.5310417756730333, 0.14104462197242718, 1.0, -1.0, 1.0, -0.4406079207513214, -0.5777419636566481, 0.24558289472698713, -1.0, 0.9426402623769838, -0.5004188997500679, 0.006255125360846714, -0.00814566119672544, -0.7518970329746526, -1.0, -0.37368339327831723, 0.3028356321930641, -1.0, -1.0, -0.43715771033317674, -0.99630836240356, 1.0, 1.0, 1.0, -1.0, 0.04929716516227545, 0.5011476781329509, -0.25641023934597174, -0.35812565855635026, 1.0, -0.9275006577918843, -1.0, 0.26427839025732947, -0.38804168073499057, -0.14227416108574104, -0.5072170292980536, -0.7214352031031296, -0.018225989561673872, 1.0, 0.8203887258661491, -0.5257107169219893, 1.0, 0.19801044807394041, 1.0, 1.0, -0.1725807745100434, 1.0, 0.009728724495819852, -1.0, 0.0752333142118502, 1.0, 0.08645147197167036, -0.1673685427109533, 0.34027510204836264, -0.4512865265908571, 0.45014491141112223, -1.0, 0.3750259325682166, 0.7728953142793605, -1.0, -1.0, -0.7989020132238168, -0.478707737058927, -0.6770554317607524, -0.4012058033402619, 0.9127009714447333, 0.7935542288817649, 0.41350370870492403, -0.799743055049555, 0.6947882108468394, -0.800272748291755, -0.1163295542684879, -0.09980864057075534, 0.7086522033539053, 0.4363845871456924, -1.0, 0.23671457428890197, 1.0, 0.1704341517635567, 0.20488786217740285, -1.0, 0.45417564762260054, -1.0, 0.35466336856096026, 0.2785637993727243, 1.0, -0.4255102137173383, 0.20734516285827786, 1.0, -1.0, -1.0, -0.5743587277104248, 0.19340435205878442, 0.6235116960425666, 0.07022919956557816, 0.016883856571365152, 1.0, 0.5384339263200267, 0.8793562677460144, -0.29710636927936307, 1.0, 0.7092845181091518, -0.5630605921797733, 0.36672942385857366, 0.12230409325282299, -0.5933353731334091, -0.7514338503518017, 0.03211044933290341, -1.0, -0.9333668468957708, -0.29479984918750435, 0.8658764124381179, 0.35654997098683117, -1.0, -0.7831022946622135, -0.1261422886538499, -1.0, -1.0, -0.09802547179460963, -0.7299858368724824, 0.6702304155989971, 0.930824400134681, 0.2933052861569144, -0.44809835116690433, -0.6035365792038887, -0.2869731801878347, 1.0, 1.0, -1.0, 0.8237309550526459, 1.0, 0.10915532792802862, -0.14654143974670508, -0.2897089493682834, -1.0, 0.6316355463980757, 0.5519024447350279, -0.6189570051227273, -1.0, -1.0, 0.1642105377137496, 1.0, -0.02165384042085261, 1.0, -0.20704744727570612, -1.0, -0.44787038687140446, -0.6034641198959415, 0.8101662582315248, -0.5519905128191189, -0.244405466771916, -0.3021484207892323, 0.6571442975299936, -0.46176057885567046, -0.9221628299799753, 0.6592579186927466, 0.09615828730267734, -1.0, -0.518071512940025, 0.4355109278897543, 1.0, -0.476163278463002, -0.6054759608078083, 0.5969961927309838, 0.3034216777931039, 0.9345909026326298, 1.0, -1.0, 0.353535936600219, -0.3700112331176064, -0.00015659450362459637, -1.0, -0.8536838439490309], "fitness": 39.79051384715858, "player_life": 0, "enemy_life": 50.0, "game_time": 183}
{"weights": [-0.30323167357701364, 0.05377419287349572, 0.05494723336555618, -0.7150123215664658, -0.25121868624390487, -0.38351556351295524, -0.6605732572677784, 0.5825460541951203, -0.12752760225808835, 1.0, -0.090290857684455, -1.0, 0.006916154860002188, -0.04329914714952554, -1.0, -0.6129270754062163, -0.7798330866321881, 0.33291889668171715, 0.4790807865031381, -0.9798652880313279, -0.2691477823508573, 0.8831298267553294, 0.8657432820825615, -0.7978900623616484, 0.778243762226581, 1.0, 0.7814907389810741, 1.0, -0.39530429031830183, -0.8799213871086966, 0.16172733722046595, -0.03880404200134202, -0.3741687741418488, -0.1587633597481306, 0.9097807080930908, 0.7194762552447306, -0.3379372522937372, 0.8261562617248647, 1.0, 0.09302482095951525, -0.31323137560558567, -0.6782638081343488, 0.5481565908971828, 0.6158582066763345, -1.0, 0.3122633783641158, 0.2779267795107778, -0.8443885551534134, 0.3529827714651637, 0.013348293914540066, 1.0, 0.7793632283615053, 0.07827542680294802, -0.717507342535671, 0.8303959444961033, 0.326877042225329, 0.06113668591002963, 0.1831630935226547, 1.0, 0.440716479354867, -0.517484030459878, 0.9060253451674327, 1.0, 0.7890421842835156, 1.0, 1.0, -1.0, -0.46663783476185794, -0.7320919373138561, 0.562870621985697, -1.0, -0.9946367671951482, 0.7075239999545223, 1.0, 0.23773568692971092, 0.4064695413262025, -1.0, -1.0, 0.19448861648545412, -1.0, -0.5449608034684098, -0.11879176396264701, 1.0, 0.746024951019536, -0.3953874390551467, 0.21595296651990958, 0.48559345684707833, 0.37109050221438844, -0.37768966368225554, 4.395107205990012e-05, 0.9246260475595741, 0.668476733385525, 1.0, -0.5244514217833733, 0.29966773801948066, -0.054019291126991664, -0.6300233364241477, -0.02959253742383694, 1.0, 0.022595956990160704, -0.865564112696668, -0.009637273101729238, 0.9546543619248673, -1.0, 0.4070340129031571, -0.410313132188303, 0.07754893367558235, -0.4347086509972543, -0.7510336886594071, 0.9289251266518499, -1.0, -0.28099040147398424, 0.7182163324009492, 0.22064515451968703, -0.745728185206769, 0.030504968422804146, 0.28320190945221024, -1.0, 0.5382593625515341, -0.5362473231943443, -1.0, 0.6792195294530097, -0.32467260197636816, 0.7423440699311076, -0.002439241508996548, -0.5275440746688596, -1.0, 0.721522327979353, 1.0, -0.010927490470076018, 0.3357962485626975, -0.5897569634152806, 1.0, 0.12422683399645906, -0.35568427066535063, 1.0, -1.0, -0.7738341561298951, -0.23853453089585652, -0.23650382008119897, 0.5012289032048827, -0.11622390768884228, -0.35333578081022554, 0.7886934714258682, 0.9552203204189526, -1.0, 0.3750048519834184, 0.11782883195376914, -0.8827244783420471, -0.01249949885105095, 0.7626295433710203, -1.0, 0.4309522360761577, 0.5107732044240603, 0.9338417494143221, -0.9690284085470502, -1.0, 0.6479200464535108, 0.31576843452095815, 0.3687286123944906, -0.08176641563923248, 0.17748262873365128, 1.0, 0.008337317973615976, -0.8040036325903319, 1.0, -0.8467092103478178, 1.0, -0.9955366085908061, 1.0, -0.7114345786821594, 0.07695343137214183, -1.0, -0.31828977338968145, -0.9601873204860886, 0.7603012089350911, 0.08999660669715559, -0.9914358022424152, 0.9230997474582952, -1.0, 0.1200302512000262, -0.37861817648045426, -0.7001581635047718, 0.5789173441984337, 1.0, -0.22597820078650466, -0.7933536185941501, 0.19623265563079906, 0.3545882131048895, 0.689491653805892, 0.9749323207807223, -0.9565130828015708, 0.8740299763455361, 1.0, 0.25850457180183384, 0.7235461593374927, -0.6893618081112972, 0.47744825469329966, 1.0, -0.24632465032604367, -1.0, 1.0, -0.5675457193349895, 0.772085444236289, -0.47555199504418844, 0.13547087284243775, 0.8074824091914938, -0.8925538514664352, 1.0, 1.0, 1.0, -1.0, 0.2798537061755725, 0.999574821130968, 0.8413673264918282, 1.0, 0.6753254208489707, 1.0, 0.7447898087800784, -0.09975999997105545, 0.707353589190027, 0.11913434644976284, 0.6105562791407476, -0.25168577910210166, -0.9558186053158477, -1.0, 0.007423747623690025, 0.5306621338096432, -0.034212491402243916, 0.12354016698168035, 0.13394339645927422, 0.2159412034723206, 0.16808197391375496, 0.2688765748761677, -0.16396315083466534, -0.147496848756676, -0.11236268347504885, -1.0, 0.2355689615761929, 1.0, 1.0, 0.6935561590003041, 0.13085924432450824, -0.41103061659819384, -1.0, -1.0, 0.2130257372992138, 0.42298762628637077, 1.0, 0.47493798612250115, -0.3288701292275482, 0.19459668967789895, -1.0, -0.017858794526206867, 1.0, -1.0, 0.6374774837079105, 0.357595892893084, -0.0024268442980253657, -0.011125743103327812, -0.264152148296396, -1.0, -1.0, -0.5492010236202628, 0.8608169105943496], "fitness": 57.2731522524128, "player_life": 0, "enemy_life": 30.0, "game_time": 307}
{"weights": [-1.0, 1.0, 1.0, 0.6246373294439296, -0.9477974402123553, 0.9460723078750737, 1.0, -0.11508492586846703, 0.8774344206325997, -0.009637794167473457, 0.9784070037656398, 0.1364921505115716, 1.0, 0.47254022747753166, -0.9913788397788486, 0.039177859987991726, -0.3295957919505922, -1.0, -0.5754404368662903, 0.1990023733240851, -1.0, 0.6251875234177783, -0.49183382091730743, -0.5189295456535655, 0.28865756337642057, -0.883473635449532, 0.29706908799891796, -0.3708100435327513, 1.0, 1.0, -1.0, 1.0, -0.04880756696503824, -1.0, -0.9062577702571774, 1.0, -0.7350537412136071, -0.8088714319657719, -0.05518611270422025, -0.13773108348542318, -1.0, 0.4168130329538019, -0.8177855946213707, 1.0, 0.7944898466597694, -0.32955846938911826, 0.27356831786480895, -0.910007219732687, 0.7413295061861458, -0.068350874262874, 0.2739528370101101, 0.009429300337252422, -0.417816681286058, 1.0, 0.5077687802941144, -0.6561153517346511, 0.22004917922688638, 0.13110937085305086, 0.15865921764317958, -0.807660755977856, -0.23308045917727116, 0.45352949296776957, -1.0, 0.5939344855269011, -0.48264164155258205, -0.2791040111022528, -0.7306555491874553, -0.11679180829154501, -0.7187289011501713, -0.7345572310601312, -0.747178415911598, 0.6727960186849249, 0.06331013626121562, -1.0, 0.5952182150613626, -0.3505408405329151, -0.6396934454212281, -1.0, 0.4300560195735741, 0.27186152313752077, -1.0, -1.0, -0.670079798323944, 0.0013493312078685649, -0.7204860292330392, -0.2547791565507954, 0.9263609091505852, 0.1923189103258921, 0.3280908573991237, 0.15677530268974882, 0.17771735601586774, 1.0, 0.9406398395354458, -0.4809356560121478, -0.6841677800689903, 1.0, -0.8492460606754841, 0.6943835159324144, 1.0, -0.9249436171775869, -0.737186104359738, 0.6623790301072742, -0.5299277641787461, -0.09449777181117369, 1.0, 0.0859718888448463, 0.5451501510816802, 0.008992336886152641, -0.8598716643497175, 0.40729381365832934, -0.6875256571400659, -0.9539296002349889, -0.8003542125278476, 0.4809308985333506, 0.20769715823271484, 1.0, -1.0, -0.8303796305022474, 0.39193527201319317, -1.0, 0.8915415411676044, -0.12561787124428048, 0.18745311777242524, -0.7142330418773628, 0.009710011763682025, 0.4953868980028037, 1.0, 1.0, -0.3009714029897488, 0.5982281393498747, -0.9843888277348354, -0.6879889785175634, 0.6283396518440669, 0.17458904301110034, 0.5916681101482328, -0.5546105586101501, 0.738454670317242, 1.0, 0.5087815612446631, -0.7047084414808209, -0.22594539313444462, -0.6298562786049804, -0.47324432403185795, 0.7062396254452051, 0.6208704577405606, 0.8147187174151773, 0.02049726589536549, -1.0, -1.0, 0.3144104557914651, 0.26684845387298317, 1.0, -0.6188109804062882, -1.0, -0.37874739564466553, 0.7820294665351551, -1.0, -0.8821910770477202, 0.27253882281592884, 1.0, -0.11959974606446733, 0.08730426292898252, 1.0, 0.047506018557936125, -0.4154205170120191, -0.4588271720578204, 1.0, 0.8966873005865386, 0.2896167336415004, 0.41472632732733583, -0.6372345370012272, -0.6205072460680768, -1.0, 0.04368135917127902, -1.0, -0.9804594006572319, 0.3777086422053504, -0.37703181796344587, 0.6083779067437264, -0.1557037229221208, 1.0, -0.3526086931991066, 1.0, -0.1508959338490672, -0.6751522142941744, 0.03774844243168185, 0.3560526817224273, 0.8466342169783264, -0.09741738648057974, -0.5049556428832772, -1.0, -0.42802553260402076, -0.05625851418397776, -1.0, -0.3577843668296762, 0.5966736024725556, -1.0, 1.0, 1.0, -1.0, -0.4165619933418383, 0.2622363006902766, -0.3412358882738725, 1.0, 1.0, 1.0, 0.755786952980402, -0.037985282583743896, 0.6903010690920766, 0.5058747627523563, 0.6973806505135058, 0.15628051144138388, 0.007350820078579234, 0.6151848376468012, -0.2442898792084165, -0.9182325387372456, 0.49244367997314664, 0.3611008377155782, -0.48897301579205227, 0.3143882807955862, 0.0009783717552048765, -1.0, 1.0, -1.0, -0.690031392068116, 0.655492407376601, 0.9498021318383003, -0.1948547009935067, -0.8246233390072655, -0.30692092132313253, -0.4111026252136143, 1.0, 0.7332882456524709, -0.5043968182553317, 0.3929604326842897, -0.16791018254826817, -0.14436094153027085, 1.0, 1.0, -0.49416497649278, 1.0, -0.8043706671016512, -0.34928641943156413, -0.6493358242483767, -0.5227319361430675, -0.5140264588999901, -1.0, -0.19993483872390305, 1.0, -1.0, -1.0, -0.007248697906632406, -0.2704819928377419, -0.5883393777039345, -0.8224983450689642, 1.0, 0.5093566112898222, 0.6995755341444323, -0.3804424893363323, -0.8893181893096579, 0.9834761959239541, -0.1841611340328289, 0.766128186078957, -0.003085939384682379, 0.5186206593511876], "fitness": 57.16226955283406, "player_life": 0, "enemy_life": 30.0, "game_time": 343}
{"weights": [-0.7776074394236787, 0.8475353480068915, 0.6403439792066211, 0.3982968093339137, 0.9664016591946846, 0.4218373680566003, 0.21975828174198597, 0.9215536528211673, -0.0546488549817119, 1.0, -0.42592201842350774, 0.7213978326839297, -0.681696906850592, -1.0, 0.4991368165952701, 1.0, -0.3922853307428189, 1.0, -1.0, 0.4447625330160143, 0.6994151476334155, 0.6101683169755227, 0.11535201649401028, -0.4919093682400528, 0.40766021281440623, 0.5535889668801817, 0.24548547544606958, -0.21949555471513432, 0.33435098352749126, -0.9325724428965969, -0.8132106290947059, 0.07993529813266637, 0.02851791581238905, 0.33060233203529954, -0.9326379410456186, 0.3690174439361913, -1.0, -0.02353114259215705, -1.0, -1.0, -0.3326481739088172, -0.6002374559844218, 0.48664462241026485, 0.23518635935980248, -0.9106733352629324, 0.7137422657490574, 1.0, -0.43697309149683733, -0.1110055936706209, -1.0, -0.6372392849676707, -1.0, 1.0, -0.7887727458527192, 1.0, -1.0, -0.12881138667332115, -0.2999953361571135, 1.0, -0.2922999603484321, -1.0, -1.0, -1.0, 0.5018268215184263, 0.4725413115276733, -0.33155362520318143, 0.232648250081133, -0.7701361086176852, 0.061856754801310476, -0.31255918655087833, 0.5733480616386287, 0.07064670132871548, 0.8801329465636231, -0.3714913140084453, -0.5337393215861479, 0.5695276565164091, -0.5519565318049384, -0.22511226255138284, -0.21563002414397464, -0.9182700536375197, -0.4043921921270264, 0.6734523891316376, -1.0, 0.3586137204167337, -1.0, -0.24589861850247763, -0.5975340237144011, 1.0, -0.8159896665495144, 0.8443461180803038, 0.2886307588356215, -0.9195873671603566, 1.0, -0.6760837125404311, 1.0, -0.0964128434338869, -0.964340265242061, 0.6461771524409909, -0.2669242928520198, -1.0, 0.5248381919593673, 0.13726510971843364, 0.38481085383779035, -0.9657796798432252, 0.14081300248923512, -1.0, -1.0, -0.33876126063129663, 0.9689032208934849, -0.9531751764033163, 1.0, -0.5533606366888182, -0.31712916097527355, 0.692524141213968, 0.3288281735872698, -0.016151437608575736, 0.21834718469314518, 0.7396480137930453, -0.051851268527898786, -1.0, -0.8830510058884309, -1.0, -0.8409803934563219, -1.0, -0.3351831308862413, -0.04857968422046599, -0.07960953103250545, -0.9883777600211773, 0.614824773207779, 0.7197927857008933, -1.0, -0.30567730016126005, -1.0, -0.5949016386457425, 0.07406595728810378, -1.0, 1.0, 0.48223598861194206, 0.7617179608122561, -0.4232434871531876, 0.6523646890622488, 0.7662869587491794, -0.8702214918680997, 1.0, -0.8589192500049359, -0.7012566224938919, 0.23673711462735492, 0.9243930966889343, -0.048685059584836377, -1.0, 0.6245807005719651, 0.17598503177929337, 0.7078017800490554, 0.8672543065084982, -1.0, 0.46343587811802966, 0.5953332216809457, 0.894900840317985, 0.06264508235789884, -0.39191792940646386, -0.717069251856665, -0.4786578926437536, -0.04120399505932815, -0.04492798112070584, -0.8343186832035933, -0.45266201909205656, -0.6146160988476919, 0.23491427574566526, -0.7925969581789136, -0.050767848954735295, 0.960263416545296, 0.8783345159776376, 0.9790841761185435, -0.19989588456659746, 0.7351117658779087, -0.21558179238567926, -0.6909548051831913, 0.45600830058695385, 0.49490718432592296, -0.6224261933283716, 0.7546225973888596, -0.4737693538268746, 0.34978450287024976, 0.43450149654360715, -1.0, -0.9665110994868874, -0.7675895091635314, 1.0, 0.27069060811465806, -0.542269923466393, 0.8821181719160508, 0.6758283814145007, -0.11576991890065236, 0.8089215256691183, -0.009413658098669564, 1.0, -1.0, 1.0, 1.0, -0.048313736921406614, -1.0, 1.0, 0.8930656171961533, 0.4680808830611558, -0.9295051300074653, -1.0, -0.4910494686812301, 1.0, 0.3391350732495435, 0.483137311937366, 1.0, 1.0, 0.3269138275983403, -0.5890352516888988, -0.003525031452587424, -0.9450563467107282, 0.15106985358602143, -0.8155097411085357, 0.24139238189351686, 0.4425165661261543, -0.5619110791995704, 1.0, -0.48442735129552295, -0.08206258481462814, -0.7333256265893631, -0.06106452690283082, 1.0, -0.2654812483037523, -0.6544292412763812, 1.0, 1.0, 0.9856444534166673, 0.14551447510406912, -0.31674298492632635, -0.5522734418418391, -0.760393672867143, -0.8096128671278908, 1.0, 0.3244843318277595, -0.022332527973046246, -0.9780066170924369, -0.17196139999776228, -0.9420103025627875, 0.18837509852573953, -0.8845928106922011, -1.0, -0.3466769018335748, -0.8479363673639214, 0.741139319001508, -0.36806390590733473, -1.0, -0.43848053224060957, 0.8919608108544607, 0.022537640595086006, 0.8916407219521261, 0.28010178656503476, 0.23481849416000433, 0.7852228071717196, -0.21721728872878, -0.028423842000926736, -0.9483846513499895, -1.0, -1.0, -0.8141673359227604, 0.6053471871978298], "fitness": 57.22544845445559, "player_life": 0, "enemy_life": 100, "game_time": 333}
{"weights": [1.0, 0.8730400158358685, -0.03760989544649962, 0.6201702479311151, -0.7167045332364683, -1.0, 1.0, -0.5696834765152691, 0.21642561667423976, -1.0, -0.6085656089696412, -0.6376229536152526, 0.3865384021109797, 1.0, -0.8213230650213005, -0.11435633865718114, -1.0, 0.3990283913627186, -0.7789228049880145, 0.11895297413073819, 0.2099328307725563, 1.0, 0.5313441265427284, -0.5176936292411035, 0.18498604336295132, -0.8145392514954132, -1.0, -0.46862355296715874, 1.0, 0.35626855588385753, 0.4437001049778967, 1.0, 1.0, -0.8913639167117531, -0.12907200428622945, 0.8101309347942554, -0.1766496094857063, -0.3482714722658323, -0.05305751190742325, -1.0, -1.0, 1.0, -1.0, 0.27941448309550243, 0.4942794681534647, -0.5170592267939346, -0.20400059211112265, -1.0, -0.6037048975909403, 0.30419315725795193, 1.0, -0.8812388448583173, 0.4850667392687231, 0.7282201170808749, -0.6591655005990862, -0.6812954153286185, 0.8186564054282759, 0.1944986546533013, -0.48558344728409386, 0.4277485528010432, -0.5267167474965925, -0.3600917627984213, -1.0, -0.9974216719933607, -1.0, -0.5351958218349204, 0.052064691055369816, 0.5326601320463431, -0.21065360155892887, 0.2733003362196269, -1.0, -0.26643770787566534, 0.5613528035438307, 1.0, -1.0, -0.24621206251743882, 0.34886378709927635, 0.19619890361090153, 0.5511477119966135, 0.1787470950939688, -0.9911228983914369, 1.0, 0.10567862813143591, -0.9036973892708154, -0.6870489129651471, -0.15366201858661677, -0.7238942754906612, -1.0, 0.15974957208946683, 1.0, 0.11347053389106054, 0.86749570662147, -0.3886584143903582, -1.0, 1.0, 0.6425880010720758, 0.29397919782658544, 0.3417499421623761, 1.0, -0.822701120423951, 1.0, -0.10797786111186847, 1.0, 0.2942701670852963, 1.0, 0.4370830850332392, -0.20834044032974408, -0.8424474009721453, 0.4178829708356475, -0.3883759442474526, 0.42383303646660103, 0.06790366528796554, -1.0, 0.8299288293604906, 0.013770626040001233, -0.2792096218682353, 0.901560489789699, 0.2502916291384044, -1.0, -1.0, 0.6095485070397371, 1.0, -1.0, 0.3715047336152345, 0.5389831885990387, -0.3818885009507147, -0.2761237917179804, -1.0, -0.22962949367864333, 1.0, 0.18936037216920587, -1.0, -1.0, 1.0, -0.4845657047920451, 0.35308342780275903, -1.0, -0.021559724685069948, -0.9385838462373842, -0.4801575186498247, -0.29255904736222316, 0.7165060881971574, -0.8074231567411457, 0.9382390188222831, 0.5523852673445446, 1.0, 1.0, 0.3974636674948826, -0.07288859180542417, 0.1315956804368188, -0.8174345536737521, 0.5795079144838783, -0.011773943865692527, -0.442957031015221, 1.0, -0.4563304972471274, 0.17650264819101213, 1.0, -0.32275850163970476, -0.26127010735033074, 1.0, 0.938088112719189, -1.0, -0.1455673002105169, 1.0, 0.6198308235315662, -0.7150728398717554, -0.8384659263703297, 0.27627637930489635, 0.5305791864498295, -0.700865528300838, 1.0, 1.0, 1.0, -0.38087038534294315, -0.8975720183948952, -0.453450552140807, 0.34960005941845845, -0.6736411554290391, -0.1521674222105185, 0.2055955788724484, -0.2591540914204443, 0.2531254002467239, -0.15033721174908443, 0.8612648296055421, 0.2741676762355758, -1.0, 0.529002991056183, 1.0, 0.7204179353514122, -1.0, 1.0, -1.0, 0.6107953878247532, -0.3344587139053803, 0.9755909380384687, 0.577001389589333, -1.0, 1.0, 1.0, -0.44853366711055886, -0.32435574051117966, 0.5521575121265063, -1.0, 0.061241659501504175, -1.0, 1.0, -0.27712169747867443, -0.14316032014380276, 0.7847266483477299, 0.04135971134557104, -0.40282019935114527, -0.5492096840273719, 1.0, -1.0, 0.31193529110902385, 0.8371650595688362, -1.0, 0.4732354020942682, 1.0, 0.42837117922370815, -0.29124665647538506, -0.030433431916145892, -0.8905070166084292, -0.7653267036715109, 0.3118185694845992, 0.5398182250071172, 0.5313544728139931, -0.23598293474452492, -0.2844720174171681, -0.8444275179736883, -0.04953022534600482, -0.4321619638884333, 0.17632060055399656, -0.17101951047078068, 0.7063879836721767, -0.1552419671752825, -1.0, -1.0, 0.7522721727033469, 0.35478223271354903, -0.08325992239791402, 0.6521825018923058, -0.8093412867702698, -0.009780844291581214, 0.08844103738572057, -0.13040788175669038, 0.6287893954159444, 0.2724155945070008, -0.35246045369195333, -0.09168719528787217, 0.6270425143112679, -0.24252443576992488, 0.7352732177135495, 1.0, -0.34471824465377476, 1.0, -1.0, -0.24538326631357554, -0.5120786761052044, -1.0, -1.0, -0.4827424648856564, 1.0, 0.05805027765375348], "fitness": 57.16226955283406, "player_life": 0, "enemy_life": 100, "game_time": 190}
{"weights": [-1.0, -1.0, 0.7417752026108987, -0.7949412217350385, -0.2641176499311204, 1.0, -0.5326238203632422, -0.5913092115333128, -0.5393424588621385, 0.19118166835049522, -1.0, -0.7863525683777215, 1.0, -0.9631916709559185, 1.0, 1.0, -0.6876624265787874, -0.3446315257817332, 0.3952694792625486, -0.6109752234404051, 0.06395379340725538, -0.11811771416400807, -1.0, -0.45463312401695954, 0.8174484911976871, -0.6387625400097803, 0.07932241196917206, -0.21351700333003237, -1.0, -1.0, -1.0, -0.6549403546443235, -0.8088814482656813, -1.0, -1.0, -1.0, -0.6317263780269026, 0.47817304758880486, -0.4136384779918818, -0.28211505613864984, -0.5059576744551745, 0.7647284133481005, -0.3404757850930876, 0.08466911425999302, -0.7677074344264896, 1.0, -0.42183769709768737, 0.21300032579176043, -0.619213690209174, -1.0, -0.6399269823815368, 1.0, -1.0, -1.0, 0.17459775331691274, 1.0, 0.6533839084385135, -1.0, -0.2622546600182465, 0.437228466441225, 0.4372090707751568, -0.142069315327927, 1.0, -0.3770196998373434, -1.0, 0.2630473900672362, 0.33953933332798825, -0.4821814646751692, -0.2185847957545204, 0.29222255117979945, -1.0, 1.0, 1.0, 0.7868770475207698, 1.0, 0.4765129385454504, 1.0, 0.009099319451498555, -0.2720845298319735, -0.13819378358118084, 1.0, -1.0, 1.0, 0.9282324731422426, -0.019897979132697974, 0.1581823043360494, -0.8293868616909448, -0.0127277803256729, 0.6538299914323407, 0.5016128724144077, 1.0, -1.0, -0.1221508646786521, 0.4644805526955581, 0.4416498440001436, -0.5241719420320636, -0.8272720310724664, -1.0, 0.9453203718154694, -1.0, 1.0, 0.05273952938531323, -0.8369010767006999, 1.0, 0.9021086967252114, 0.11930374464327875, -0.3210466121504415, 0.5741734195946258, 0.7701192593389313, 1.0, -0.017322698841074846, -0.8858919838269103, 0.05828341206445298, 0.08566884776339057, 1.0, 0.8397435277314717, 0.966698307700647, -0.8771862907114016, 0.4138052282373181, -0.19268033816886576, -0.6425307390497277, 1.0, 1.0, -1.0, -0.13332286606337185, -0.7389290881627154, -0.7762308050506128, -0.07210707721656812, -1.0, 0.20258922614933494, 1.0, -0.04171795211681584, -1.0, 0.8878106978281041, 0.23301668252836305, -0.5059603257386817, -0.6175274977913482, -0.9850122141992625, -0.5802823555265054, -0.35385863018540425, 0.05459611167809353, 0.03789978152413753, 0.21838080251269631, 0.027993893923050517, 0.6572014510333849, -0.8193099549419453, 1.0, -1.0, 1.0, 0.12478063117151472, 0.997075080001371, -0.9075985495865955, -0.10442884003947228, -0.8924262950695471, 0.6822134506631325, 1.0, 0.6640727237885049, 1.0, 0.4661672530883594, -0.6408165325833332, 0.07437114849410209, 0.2003729638413918, -1.0, -0.19119620959658556, -1.0, -0.8746931391010286, 0.5333522227941017, -1.0, 1.0, -0.4318657531158183, -0.9907576050914593, -0.4008170536167167, 0.2896934138996824, -1.0, -0.7072844480139482, 1.0, -0.0028765740136265094, -0.24317700603481135, 0.9842073971174565, 0.7247558861794574, -0.14523532996000832, -0.09659769509323146, 0.4835418874743604, -0.06332756360008451, 0.5396621806562486, 0.9276021976893143, -0.14385117636822686, 0.3187452696422546, -0.6741566356548975, -0.2337991843987382, -0.293314871790219, -0.5780493073706158, -0.9109226978395664, 1.0, -1.0, 1.0, 0.13340044767251802, 0.7243237395251475, 0.08162488437471027, -0.5671899270368727, 0.727203148170951, -0.33951433862380787, 0.7514491339885221, 0.2637975075931491, -0.012817276969724123, -0.5848101019253478, 0.8219410274748271, 1.0, -1.0, -0.367181865889045, 1.0, -0.6102905887971839, 0.1826492913201554, 0.6621280682266225, 0.8960921495186651, -0.8795570921466371, -0.0740266367511464, 0.5926530974028992, -1.0, -0.19838689527516418, 0.6386713992675762, -1.0, 1.0, -1.0, -0.11747280562119167, -0.8320618442183307, 1.0, -0.6330182631336836, -0.49722362477939985, -0.40206320744851154, 1.0, -0.058973154209935874, 0.5104280285198062, 1.0, -1.0, 1.0, 1.0, -0.5084572013365816, 0.6955428524148547, 0.4523761308379166, -0.3607983492204352, 0.5918308380636566, 1.0, -0.7064646667598935, 0.3656685554709157, -0.5054185965890768, 1.0, -0.9895720233937253, -0.745149443503605, 0.6500075622109517, -0.745453037242625, -0.328796801853555, -0.4480302503098281, -0.9833775199015548, -1.0, -1.0, 1.0, 1.0, 0.7408017643870872, 0.4127794946479427, -1.0, -1.0, 0.3478280756392106, -0.7782465496103652, -0.2572516964040843], "fitness": 21.60183729848225, "player_life": 0, "enemy_life": 100, "game_time": 221}
{"weights": [-0.6048533818021489, 1.0, 0.01055124312847422, -0.4915888609487611, -0.30083478324723023, -0.44819283371503027, -0.4230399586051795, 0.38753293837115743, 0.5131171972863473, 0.7249466078178891, -0.13059891751583597, -0.3261770088848599, -1.0, 1.0, 1.0, 1.0, -0.05710412121524444, 1.0, -0.5635962236787964, 0.9530453350320227, 0.4212313117618791, 0.7595448815027407, 0.5060800564018831, 0.24511275055749981, 0.28971780957876514, 0.38377649592799373, -0.4955694664260928, -1.0, 0.2964988256342517, 1.0, 0.3099921746729639, 0.6778477920772926, -0.6785551851479854, -0.7518988929647099, 1.0, 0.7670656733474549, -0.1314675209089795, 1.0, 0.28749076334744417, -0.27032852793956885, -1.0, 0.40960296073448643, 0.3272537799101835, 0.01618165478517919, -0.5780252488682428, -0.2622092069851264, -1.0, -0.27125009404658695, 0.6454526794751858, 0.3126934087919133, 0.4596286764262316, 1.0, -0.882863521305596, 1.0, 0.30112850725073115, 0.01997029618173818, 1.0, 0.7147453948272156, -0.6778580062092372, -0.739532460757576, -0.05524771029246933, 0.6919388726235042, 0.2413043643013486, 0.22420784763763313, -0.30848538783874013, -0.2007686798356259, 0.8615216551223563, 0.3917442347339136, 0.7761200661118082, -0.4684582524960148, -0.2356131832168294, -0.08892849693113031, 1.0, 1.0, 1.0, -0.8837719472846297, -0.8243820967600626, -1.0, -0.2472639705749506, -0.22649980685293913, 0.5000717939664486, 0.08182989966954135, 1.0, 1.0, -1.0, 0.6033223390523075, -0.9963471651798173, 0.11897613647530209, 0.8321715806358407, 0.34980111921890766, -0.5964939988797103, -0.1042469331535627, 0.7791287703899759, -0.17096842346934926, 0.9475318132430048, 0.5651808226882629, -0.8389352865376467, 0.48333386829557223, -1.0, -0.6638534850887977, -0.8545080623138186, -0.5782005248255428, 0.005602793918684457, -0.524311380945041, -1.0, -0.6270566323229753, -0.6113115725313893, -0.1790052172902975, -0.7468149756450636, -0.7697771681972139, -0.7551967267263677, -0.5367330612364887, 1.0, 0.8821563671336632, -0.04832930038132044, 0.4396788412464936, -0.23980972281553914, 0.9799044475249424, -1.0, -0.7721783798468529, 0.383841500529874, 0.24652302310183893, 0.467836684213392, 1.0, -0.5464698044600067, -0.8467549983948309, 1.0, 1.0, -1.0, -1.0, -0.5003723724656213, 0.30773329045989517, -1.0, -0.11591728827231496, 0.17410998004089828, 0.43310891006929286, 1.0, 0.9457385823754195, 0.35366182216209263, -0.6886615364586566, -0.3135024271062006, 0.06109219901545737, -0.7504344586335574, 0.9352416884633407, -0.7837755553868079, -0.6817202374031057, 1.0, -0.3543482028492839, 1.0, -1.0, -1.0, 1.0, -1.0, 0.6889304259056475, 1.0, -0.19707766853175118, 0.8400618582754287, -1.0, -1.0, 0.38925383223157684, 0.7842649180231196, -0.37048874551493716, -0.8384365641446875, -0.7629812728158177, 0.24480731808316414, 1.0, 0.47368531255341784, -0.01059374436481264, -0.9459485447828287, -0.9477225347597429, 1.0, 0.1682256628412448, 0.18340210260083678, -0.7901127128050062, 0.10339372989007928, 0.09109482387392676, -1.0, 0.7535053439782351, -1.0, -1.0, -0.029318208862640804, 0.1831526252509389, 1.0, 0.2989352228764236, 1.0, -0.7223361165096298, -0.27831526488818836, 1.0, 0.5045214934018794, 0.8454586606131832, 0.643569285206211, -0.6059458114799702, 0.009254387157947463, -1.0, -0.02902680322121509, 0.8298196338863174, 0.5274587121588827, -0.10557067173096912, -1.0, -1.0, 0.06758740705143157, -0.8472635731312614, -0.5642758111838797, 0.16412056443603568, -0.033696920225687765, 1.0, 0.8791060265198277, -0.720245144509188, 0.8616618439560041, -0.6525317247679048, -0.9540297201112241, -0.4595424493643259, 1.0, 0.16382222863985751, -0.4257535825981115, 1.0, -0.24131493309029217, -0.2192774467106926, 0.3233169519053699, -1.0, -0.5777627252975543, 0.5765065986853094, 0.5180491160893789, 0.13876884020632296, -0.733438196336913, 0.6968476796541779, 0.7305009321246341, -0.08068575292007829, -1.0, 0.3128823598337908, -0.46184294491351485, 1.0, -0.9023918739942249, -1.0, -0.26086338471675674, 1.0, 0.624229861914857, 0.11121849406723816, -0.8023578094144623, 1.0, -0.6837593368432575, 0.3030186978901074, 0.056642434235499584, 0.21291454713355262, -0.311309573186462, -0.9332199592082925, -0.30828819301539157, 1.0, 0.029237128028772985, -0.8389636174985348, -0.7092426134523503, 1.0, -0.6683675508134947, 0.24272389730858113, -0.8771800775064678, 0.06977982211823619, -0.35923766778401545, 0.4085563839305423, -1.0, 1.0, 1.0, -1.0, 0.05513227736496806, -0.29215373886589613, -0.17408288382885417], "fitness": 57.19486503108351, "player_life": 0, "enemy_life": 30.0, "game_time": 332}
{"weights": [-0.5552681965709207, 1.0, 0.5634248638206685, -0.35769798576073886, -0.01866786550902122, 0.9507528100441514, 0.2947180134707034, -0.41862109036235967, 1.0, 1.0, -0.15001251553967687, -0.661796205380191, -0.2318436950779581, 0.5811601078119499, 0.5966768430520577, -0.39597596919043143, 0.18381542852175525, -1.0, -0.289666002435903, 0.2426403590763413, 0.5995657793223976, 0.39935782987739044, 1.0, 0.499842958362987, -0.6815730206027136, -1.0, -0.14614435410057092, -0.004429607812798664, 0.785360154485337, 0.46535108968428995, -0.9657585827082893, -0.9846575336334231, -1.0, -0.17271012545721875, 0.012242292997373283, 1.0, 0.011360448828014347, 0.8656707841270928, -0.9059822824756483, -1.0, 1.0, -0.4773917815321541, 0.01908495703730051, -0.4792447254678574, 1.0, 0.596491723226604, 1.0, 1.0, -0.8466176577579063, 0.5626613643331353, -0.19719997302181924, 1.0, 1.0, -0.5230570661417531, -0.775599422195462, 0.8179556655886928, 1.0, 1.0, 0.3617446914287896, -0.3062616979145598, 0.5101446659872196, 0.8781733223287425, -0.13016582498772467, 0.713912584065851, 0.8494840193541875, 1.0, 1.0, -0.9107106326430916, 0.4439638309732864, -0.36706747502072257, -0.250148870592136, 0.169309534146593, -1.0, -0.019473286551734248, -1.0, 0.07215397395319423, -0.778242146137671, 0.10577472163699964, -0.6688927679750761, 1.0, 0.43141231166373634, -0.5395473700534759, 0.6424468187821298, -0.7502438834627871, 0.7280823274889998, 0.02804989362123922, -0.38191786727907817, -0.38201678603297495, 0.05480340776227788, 0.5844392401047397, 0.19472722261758785, -1.0, 0.2795748932939733, -0.37319319215623303, 0.010310671822598372, 0.340168581503757, -0.45843491902958744, -0.6252975521161865, 0.4069504422594498, 1.0, 1.0, 0.9911236532324234, 0.13992744527278023, 0.7437719464018259, 0.9113728441976537, -0.84291442273249, -1.0, 0.3859985320700743, 0.5900651002184237, 1.0, 0.3899152315848511, -1.0, -0.6950386457542599, -0.12301231897568787, 0.7746178150586954, 0.547600105002327, -1.0, 0.3252557531731197, -1.0, -1.0, -0.24624027839324003, -0.9243537879299485, 0.838341114322187, 1.0, 0.6994122384440139, -1.0, 0.8300175924729324, 0.6642496896089295, 0.35680701637516576, -1.0, -1.0, 0.33982177284580073, 0.19908524631175484, 0.08315608893263093, 0.12457261486888538, -0.3475062732829831, -1.0, -1.0, 0.05170637514619336, -0.8150079450402008, 0.458412908285881, -1.0, -0.44747202910870126, -1.0, 0.2645413333193527, 0.8118408422782892, -0.12278227276599063, 0.9614602205392627, 0.9851121996868952, -1.0, -0.20236220452182674, -0.7853537530110977, -1.0, 0.9359301583474794, -1.0, 0.5104835853545342, -0.3904256151371135, 1.0, 0.14410590489101427, 0.7326979357204185, -0.7785313892819676, 0.31750151723802134, -0.19399039906924842, 0.8066095872091825, 0.5686992248594132, 0.4663067018277114, 0.4571885671757432, -0.21243658804691257, 0.49045367272909035, 0.5890172285118224, 0.2495768888117338, -1.0, 0.31114343571052333, -0.18756686654818477, -0.6299602555254882, -1.0, -1.0, 0.7493273745493855, 0.9595376907865651, 1.0, 0.2659883456241926, 0.02233426065100441, -0.7964319501155128, 1.0, -0.971694466614849, -0.6459140005885533, -1.0, 0.45519846151131826, -0.4347446728487707, -0.8926414020630814, -1.0, -0.47693842650297813, -0.11836329115257416, -0.8616920900662985, 1.0, 0.38286536524076015, 0.9242890950122443, 0.014532187985842104, -0.5512037625041788, -1.0, 0.12222947374762727, -0.031701656727968985, -0.37915625249596085, -0.7453834898094116, -0.5231591494468555, -0.03182064050104605, 1.0, 0.7154451906202621, 1.0, -1.0, -0.9947402565161664, -1.0, -0.6531388973312144, -0.6513373911102557, 0.9429082288399362, -0.8595409462097207, 0.5267313029190669, -1.0, 0.5641222781412809, 0.4844148280387123, -1.0, 0.6082750635870788, 1.0, 0.20239317046962557, -0.1456076607637119, -0.9110742004872575, 0.003221800777711392, 0.5090466569894121, 0.48964932604165967, 0.007256794900606267, 1.0, 0.760571811690741, 1.0, -0.76305626682854, -1.0, -0.08259035532096393, -0.7756967788821998, -1.0, -1.0, 1.0, 1.0, 0.555938231888263, 0.827556589860555, -0.6208077019530188, 0.25708724702274843, 0.6368777702209124, 0.5397572411304715, -0.04331481828694561, -0.7195506143231307, 0.831588174801366, -0.3122107975789501, 0.4720443175000081, 1.0, -1.0, 0.8875576248973751, 0.23523362380030632, -0.3935426962681394, 0.6229636225655127, 0.8464714551595828, -1.0, -0.2915747631923732, 0.39145390377613987, -0.7563130355392224, -1.0, -0.8109049494086473], "fitness": 57.26020708782077, "player_life": 0, "enemy_life": 100, "game_time": 191}
{"weights": [-1.0, 0.17422268584289108, -0.25351464375406696, -0.07269186092107971, -1.0, 0.19355602015364415, -0.6791852630700373, 0.9977908099352433, 0.20445944112118264, 1.0, 0.3282366736733575, 0.11902342695229162, 0.9718101843962624, -0.6600232664651478, 0.1451768922348644, -1.0, -0.698654223290929, 0.6952380407864092, -0.8622605298521756, -0.3556407930627259, 1.0, 0.5301823339585674, 0.8991979658252169, -0.8007964454927254, 0.5723738863787804, -1.0, 0.06716786174920586, -1.0, 1.0, -0.6920402626608346, 0.6253915001138007, 0.4550870661016858, 0.25761360816320156, 0.7482927448437113, 0.45966385889859623, 0.09057309398090974, -0.8787535104455829, -0.30249788161197094, 1.0, -0.6198468366965726, -0.22476644353893815, 0.20468839294007168, -0.9756636813039796, 1.0, -0.6938875250364018, 0.4129472879863143, 0.008851242142221105, -0.6226397286012777, -1.0, 0.2048970147529916, -1.0, 1.0, 1.0, 0.7071657537089926, 1.0, 1.0, 0.12198370346191145, 0.31402587417237693, 0.6569880307075451, 0.6610875586809785, -0.20951843912115603, -0.8617195548859107, 0.9617484924111682, 0.3730205684833702, -0.20168381036265548, -0.5045617365603133, -1.0, -0.30720107510949735, 1.0, -0.5330049121916154, -0.389013752783472, 1.0, 1.0, -0.46607722375070737, -0.5439419080538982, -1.0, 0.023597680031094748, -0.7234373515979559, 1.0, -0.0064776825188045395, -0.507932006861868, 0.03030125643120296, 0.9064104565725247, -0.2388209421923284, -0.7055322614848188, -0.1103969754721621, -0.22001881985556704, 0.8008748549426329, 0.15683703951241013, -1.0, -0.3808946585286119, 0.3540435067210136, 0.394440248575456, -1.0, 0.3199570427926228, 1.0, -0.10604575610676126, 1.0, -1.0, 0.029592797277686933, -0.4398195051022098, 0.4842094684368221, 0.052025127411580274, 0.8837600557083789, -0.4092761727608094, -0.04377794517595979, -0.05206716297941005, -1.0, -0.42018203369973994, 0.9295728623675403, 0.47890577312529936, 0.16497666932721444, -1.0, 0.9009094327700795, 0.4013898535267364, -1.0, -0.21249813308063692, 0.5924727709532527, -1.0, -1.0, -0.02850591445898587, -1.0, -0.19442349270033665, -1.0, -0.22686926773310417, -0.22289544084445279, 0.6361189473297618, -0.31236754628536756, -1.0, -0.025862228873989146, -0.22646295094850255, 0.5957605433582518, 0.4159075954827508, 1.0, -1.0, 0.5582998215432651, -0.7710837838795672, -1.0, -0.6385015446764046, -0.12984727061004264, -1.0, 0.26436532325237194, 0.10403524159013355, 0.27790486744451937, 0.9963586748756388, 0.5261981240476094, 1.0, -0.19691054030470645, -1.0, 0.3403222707784157, 0.1293380334857941, -1.0, -0.5245560234309721, -0.6696992103245089, -0.7368803021892483, -0.8289401771126503, -0.7816906321583565, -1.0, -1.0, -0.24765284212048289, 0.5305233756088495, -1.0, -0.22158955294040228, -0.4079663613681952, 1.0, -0.8716556230321748, 0.442677882484831, 0.3991189604640716, -0.023269922496225226, 0.5031484970432121, 1.0, -0.37069113373506934, 0.2129151294653926, 0.06415842370070307, 0.03311125675102672, -0.5392218171707965, -0.7635371035365934, -1.0, 0.7340989333555763, 1.0, 0.826641809608439, -1.0, -1.0, -0.3116350223748204, 0.30927853275708594, 0.30285382864002885, -0.33328253507411065, -0.06034938611619678, 0.8072833996955776, -0.9309118513322338, -0.7830115538278108, -1.0, 0.583159043437259, 0.26213063202329956, -0.19228740636043606, 0.7985173134905988, 1.0, -0.11117582051743824, -0.265230728922208, -1.0, -0.1158926311325712, -1.0, -0.3116581003640475, -1.0, 0.9434010341794463, 0.19545232902417564, 0.44253502017563207, -0.1715426687632201, 0.3268859722531777, 0.43558334004684873, -1.0, 0.2656124909312204, -1.0, -1.0, -0.36336355695728906, 0.5707095868350608, 1.0, -1.0, 0.474070588046436, 0.4179206021690431, -1.0, 0.40760659337922855, -0.5232377543225645, 0.9483453112421826, 0.006149854251899567, 1.0, 1.0, 0.9196778194686736, -0.5016740563909083, -0.513932669589708, 0.24556456800715476, 0.2706147639275813, 0.5698271185811783, -0.2625670330643629, 0.4374432004225808, 0.9820842506893948, 0.5113788375745909, -1.0, 0.2584587441190516, -0.4990276106090499, -0.8291534913989652, -0.002808535644715282, 0.4483518761587817, 0.39831638059572827, 0.8193144109778301, 0.35807131391137564, 0.1560008340331278, -0.6494174259129181, 0.2689980561576554, 1.0, 1.0, 0.5568227209546193, -1.0, -0.9073522567019856, 0.9616946245485768, -0.2525988901440035, -0.3120270566608956, -0.37807795500528135, 0.7958637538676224, -0.49721743020701015, -1.0, 0.2786729001320093, 0.13602543216015295, 0.4744246021224203, 0.755124103684511], "fitness": 57.19486503108351, "player_life": 0, "enemy_life": 100, "game_time": 181}
{"weights": [-0.2065471174299579, 0.45133135640061806, -0.11603502430002066, 1.0, 0.24318529674996436, 0.058881068612893106, -0.1343919763511512, -0.07836494026297863, 0.2130310994741902, 0.411540149681675, 1.0, 0.4963268728318093, 0.5077266062716783, 0.5632772898481788, -1.0, 0.7372338054806099, 0.517633306110432, 1.0, -0.6024441177872476, -0.3425510504124487, 0.3928039470173479, 0.2296113820407899, 0.46431709233215, -0.6641743929094129, -0.021378109794152222, -0.8457576833094518, 0.09490450155427993, 0.8277080882820674, 0.43115896510255347, 0.9345745115605796, 0.5682310230770772, 0.23271328071239272, 1.0, 0.6917516473349422, -0.040549804214553564, -0.047205664005202985, -0.979240119456904, 1.0, 0.6405364981188336, 1.0, -0.5554476576530905, 0.19528457869983862, 0.7995775724546226, 0.7439232117954635, 0.4702481255493668, 0.6647385114104483, -0.8108394353112816, 1.0, -0.3386302071763294, -0.9071154232832384, 1.0, 1.0, 0.8480751325743968, 0.3624111199038047, 0.36639418712237914, -0.12139414253746394, -1.0, 0.4091439956572285, 0.4538598819256574, 0.7384956378479332, 0.7917017910204239, 1.0, 0.9368475841277876, -0.24001503531710744, -1.0, -1.0, -0.9209634493143946, 0.4079169057532578, 0.3705658464297653, -1.0, 0.6957005489917103, 0.1410896458727079, 0.15252044324448139, 0.7029702795013811, 0.44664972904361133, 0.49332578910609026, 0.5777209879958647, 0.10577472163699964, 0.26465115505357195, 1.0, -0.14023639184656123, 0.11571910713297218, -0.08377892524660185, -0.2124215329058915, -0.16507266277607646, 0.17136652546049325, 0.9675899647768238, 0.8352931176760785, 0.5349636433311579, -0.18578580706620573, -0.20389945653482278, 0.8336324836393658, -0.3107722058275918, -0.4317773245564858, -0.47398095205624646, -1.0, -0.5087362001247158, 0.6594867881934016, 0.1721302101939074, 0.6212586753121102, -1.0, 0.3558441843827447, 0.3914910395594986, 0.12680176025821277, -0.2519279994846716, 0.07841163336043167, -1.0, -1.0, -0.6800541211279812, 0.6666109520072593, 0.31193087893706306, -0.09073802651873963, 1.0, -0.5442188183935144, 1.0, 1.0, 0.2545096979139637, 1.0, -0.43135858922214476, 0.7535716488890276, -0.46522537863330715, 1.0, -0.6235946451343177, 0.044562217043037866, -0.6815320614806297, 0.29950090956231534, -1.0, 0.4652737228723639, 0.032320262364730956, 0.12749289888450366, -1.0, -0.6206481601092335, 0.1439493465686532, 0.6998792861398605, 0.6060544013413258, -0.4750635313318008, -0.4588701576138948, -0.5586206171438327, 0.12066169198152199, 0.678844750525961, 0.6569077753333514, 0.6272490453975094, 0.3766869369656156, -0.932698154924823, 0.35002989692304154, -0.11552017332612413, 0.19739731892624568, 0.2637414356155383, 0.09633002170583194, 0.07190793059362988, -0.853321612038926, -0.21200492814893013, -0.6925157384943398, -0.17688477048484963, -1.0, -0.9995129973456844, -0.10371873289258216, 0.32419508662974117, -0.9793010832918232, -0.36536508922106214, 0.907689941945199, 0.7896617216497892, -0.2702851349948132, -0.6301531610391081, -0.46867189154944144, 0.6624549872224048, 0.7465342755177989, -0.3366518345531979, -0.742380155454083, 1.0, 0.18517683040701627, 1.0, -0.03910465308227917, 0.4891177231309308, -0.12897995294770026, -1.0, 1.0, -0.8766166353749216, 0.5170279920256039, -0.8249274641479211, 0.49201473462863365, -1.0, 0.04535544927727886, 0.185327908697468, 0.31937110372740274, -0.8368815014726897, 0.014126879696912842, 1.0, 0.1734840380564694, -0.6301831684646011, -0.14541606177757416, 0.9492433023758302, -0.46583814900993076, 1.0, -1.0, -0.3135371463249449, -1.0, 0.6560003654195028, -0.16541147736319672, 0.03449016516900749, -0.2343302662944442, -1.0, -0.884171284006063, 0.3251937319916893, -0.5628365476243815, 1.0, 0.23036095515962562, 0.8154089053249187, 1.0, 0.33865476413575324, 0.9947952182301648, -0.6563382520011405, 0.2507132998891781, -0.10059194094168639, 0.4175637497551179, 1.0, 0.4704451096706066, -0.7146439972718721, 0.2234652503418192, 0.3033265935190248, -0.843612242482345, -1.0, 0.4621856747282107, -0.7593400484723076, 0.047491417020788296, 0.4114909753974162, -1.0, -0.4697745896398662, 0.351824891463866, 0.3361967659043227, -0.5702300496594886, -0.5885288129523741, 1.0, -0.5000152159559811, -0.11636328382222871, -0.9450568612554258, 0.24621424651877316, 0.24455674568937624, 0.32237736979971154, -0.3870035668149701, 0.3808209535073862, 0.6040750836324174, 0.08931472980504229, -0.7723808236730991, 1.0, -0.2884794061324685, -0.5753696867383613, 0.459191554751435, -0.8210794117651617, 0.02498761962953422, -0.9593328474823115, 1.0, -1.0, -0.07568481435788577, -0.3873162462776726, 0.5186775370286052, 0.31370101745771817, -0.27174828717007116, -0.05006576839347687, -0.47214571671640226, 0.8356162935777448, 0.2679493307039432, 0.9958690349557159, -0.7442119527112825, 0.8103610305649631], "fitness": 21.752975927839515, "player_life": 0, "enemy_life": 100, "game_time": 343}
{"weights": [0.6354028584006692, -0.11702894408253217, 0.8650856439229438, 0.043510315218857176, 0.5864106455663638, -0.3639682143461269, 0.3133669606279529, 0.8346073819291501, 1.0, -0.5677493158252725, -0.9373475541978578, -0.43208709228116327, 0.9641216156476689, -0.48806068994445684, -0.7733092532654173, 0.4553738276982789, 0.3353551175229147, 0.30145337107138803, 0.1347584803015225, 0.5044108730827415, 0.4999839243352834, 0.4624160133326827, 0.18672870817578247, -0.4817429051007871, -1.0, -1.0, 0.21992673328062262, 0.6090201745371008, 0.5731522864125008, 1.0, -0.7286598681003249, 0.5896511148065949, 1.0, 0.9345830665019258, -0.5033788352918895, 1.0, -0.056765493701263714, 0.22833669428768388, -0.0668176956587182, -0.11276560283214077, -0.8214812768213812, -0.7261122505802056, -0.7689000495891325, -0.8841943815292617, 0.04040129518534297, -0.2797509579424674, 1.0, -0.35416509435268695, 0.974390806752571, -0.4804078746718789, -0.4937647682335325, 0.4088825213124554, 1.0, -0.054720634865597084, 0.5452878408927273, -1.0, -0.8300659030689839, 0.6352792729144523, -1.0, -0.24698442209025906, 0.3088901844679941, 0.09796594756719701, -0.03584428082645452, -1.0, 0.699227974758878, -1.0, -1.0, -0.5138842159990046, -0.3603707349491563, -0.642997209996568, -0.24756575123730368, 1.0, -0.42118888000145605, -0.7920567542044918, 1.0, -1.0, -0.1557782565360773, -0.5207747183048574, 0.6634752756487569, -1.0, -0.13135190241862638, -0.2519109085963367, -0.5843174676356395, -0.6337782484525528, 0.941601428741081, 0.6868688765665976, -1.0, -0.38876314992635397, 0.8708007900483931, -0.7434078536004645, -0.46366025648856357, -0.6360579354772329, 1.0, 1.0, -0.344934631136524, 0.1263306596934034, -0.46745422367807676, -0.38139983978241476, 0.3519224946258459, 0.9448658669458996, 0.4412439707816487, 0.6747496057590529, 0.5939318402840453, 0.7460505096207387, 0.6954078656154745, -0.0971256483540085, -0.6605794730198188, -0.853971874628735, 0.8640296439314485, 1.0, -0.7491521116353128, 1.0, -1.0, -0.6557764892235958, -0.7150582680255861, 0.4346920848866072, 0.12547703180526526, -1.0, -0.9842309349873188, 1.0, 0.51579463921491, 1.0, 0.17552520438283253, 1.0, 0.24572068412970394, -0.7156754506574002, 0.8873055424171876, 0.8206564701397701, 1.0, -1.0, 0.2187952146462927, -0.5537468774702514, -0.17200231264971855, 0.6571953156539484, 0.6650083152359547, 0.001315861212858982, -1.0, 0.3479480982407376, -0.8791996401340973, 1.0, 1.0, -0.42389639838651494, 0.006176372615047887, -0.9553693158387118, 0.501152780157118, -0.0016243935396290654, -0.180763345375493, -1.0, 0.4968100422366204, 0.16502791790575133, -0.9598702082419301, -0.29171173281451335, 0.0273017074564883, -1.0, -0.17314522717622804, 0.3843999799944776, 1.0, -0.9257360140708597, -0.004951073505059689, -1.0, -0.6959919394131102, 1.0, 0.8022181273311558, 0.2420065481211059, 1.0, -0.04293889042613064, 0.13596687158134013, -0.5481115140096104, 1.0, -0.7862891759052567, -1.0, -0.9499629560121532, -1.0, -0.6744640383768274, -0.3219700062509563, -0.2699692701941323, 0.3509065706443687, 0.2677337193934797, 0.43228940721789677, 0.9411482084086675, 0.623492094923238, -1.0, 0.08695397839829, -0.11777556738342332, -0.11789514321315986, 0.23609727164925332, 1.0, 1.0, -1.0, 0.019512866411056207, -0.4243399368305344, -0.3117708660317544, 1.0, -1.0, 0.22183764316072857, -0.9274870647080631, -1.0, -1.0, 0.5132606568963334, 1.0, 0.47516969824704547, 0.3174451185220046, -0.9975786324959297, -0.8408215929968058, -1.0, -0.010851818134493318, -0.21394911619970203, -1.0, -0.2037027231737284, 0.757964506345584, 1.0, 0.9583589545124394, -1.0, 0.34850736415834416, -0.016994154393799588, 0.4067004733820394, -0.8210811630503513, 0.46608904364394255, -1.0, -0.5886437551613642, 0.1743127606014867, -0.30563462322796986, -0.1314587989504704, 0.28303351718499425, 1.0, -1.0, 1.0, -1.0, 0.9562342490030682, -0.5422129682799386, -0.33292752542802884, -0.6531084946372516, -0.7385359877765252, -0.7206948595506996, 1.0, -0.4771829522579209, -0.17331439536021193, 0.13679521271598882, -0.07177969463207967, 1.0, -0.348858792304804, 0.3880060501985594, 0.8593791795783167, -1.0, -0.7768049772995292, -1.0, 0.2687575998533964, 1.0, -0.9003882749442449, -0.22732433161097454, -0.9077699199576212, 0.11992419440198943, 0.1321272185476159, 0.5639595291960757, 0.5653128135724381, 1.0, 1.0, -0.8461821895043968, -0.9119355662865581, 0.645756374111192, 0.46879014634986427, -1.0, 1.0, 0.5180923253240254, -0.7257996861647256], "fitness": 57.16226955283406, "player_life": 0, "enemy_life": 30.0, "game_time": 343}
{"weights": [0.6622010202204679, 0.0766715161097059, -0.4558530020156428, -0.6391137436012949, 0.27269502654145533, 0.10839084767788543, -0.18516711474571368, -1.0, -1.0, 0.03248553781117147, 1.0, -0.609410748320694, 0.28287892344283383, 0.6591737110019814, -0.26299363503701134, -0.32655552804894583, -1.0, 0.24463522530313198, -0.32767813096432574, 0.019309643133901044, 0.15943670953375366, -1.0, 0.6123671098989995, -1.0, -0.6400757225054082, -0.46352990019704987, 1.0, 0.2851574936510901, -0.24331904647337166, -0.6604013004483428, 0.544284050664466, 1.0, -0.6848764654503419, 0.7683813341017912, -0.16353068605062437, 1.0, 0.6211688447168584, -1.0, -0.3789958952385374, 0.45906931381824767, -0.37615067395687385, -0.07673151699694625, -0.30433962250800284, 1.0, 1.0, 1.0, -0.10684736627103442, -1.0, -0.7785694049574521, -0.34077472093871775, -0.039315439373670324, 0.1158234012059981, 0.8272828753612237, -1.0, -0.8570445873551367, 1.0, -0.2855359522924876, 1.0, 0.7688666110717257, -0.20164304424996082, -1.0, -1.0, -0.24677406604418062, 0.7509547104072607, -0.09940006617370067, -1.0, -0.5320385750638572, 0.5912887817509878, -0.5950128426309336, 0.0728533058148142, 0.2576533427940875, 0.8399628795628353, -0.4676208524477574, -0.9124320415095395, -0.7958776017403144, -1.0, -0.7015498428005612, -0.5264088613322095, -0.5218855005622922, -0.504269542474035, -0.057449820464754775, 1.0, -0.17748857306187377, 1.0, 1.0, 0.23478515735415328, 1.0, 0.7294838048952953, -0.9587319949633973, -0.30704385508108856, 0.6736635382635986, -0.8648139091825997, -0.524309466400154, 0.6778948408577066, 0.7856648763224509, 0.2637555874741697, 1.0, 1.0, 0.1128338369266097, 0.0916861462688437, 0.43858906635535333, 1.0, 0.2916367828866324, 1.0, -0.78619529047943, 0.3344043120828558, 0.7799597698492529, -0.9887458715287887, 1.0, -0.3847326611247821, -0.5755346401453149, 0.09824682543115026, -0.7204426076278803, 0.9355020159210505, 1.0, -0.8065804956995947, -0.8756053666161026, -0.32222472120625223, 0.37467624460483717, -0.0582167650595658, -1.0, 0.8403901215103622, 0.7794174924452025, 0.7893405902289082, 0.11438908519197288, 0.4713826261096632, 0.7967931119408116, -0.6398648026002891, -0.8050323701934275, 0.2111628781171081, -0.14346826930156797, 0.0734547807355811, 0.8647543260518094, 0.12441638137111954, 1.0, -0.3438105950483923, 0.026122365764372546, 1.0, -1.0, 0.7801305793112554, -0.11082645232850985, -0.1835993131656749, 0.8051318045208784, -0.7878064880365632, 0.4642987282966444, 1.0, 1.0, -0.7444145374450338, 0.8549985438102709, 0.3250884047100482, -0.801373641843567, -1.0, 1.0, -0.19621032079171769, -0.2823713273100019, -0.76057246933974, -0.7504638043028777, -0.7394847111851562, 0.7838566446488328, 0.14273055807399715, -0.757078448581509, 1.0, 0.16915958700493544, 1.0, -0.6463519135300595, -0.3105177874559727, 0.986422142509961, 0.017422898623458805, -0.49459469777054565, 0.07606211406426389, 0.45539770721590067, 1.0, 0.1684107993767584, -0.8032091366661175, 0.31903029359600976, -1.0, 0.281645058567878, -1.0, 0.30254572603949925, -0.734508646802669, 1.0, -1.0, -0.2505071612699301, -0.7732916366993472, -0.1331484761338444, 0.7594548645887625, -1.0, 0.7001238202398463, -1.0, 0.10948555141636951, 1.0, -0.3155582579987263, 0.0852951497718788, 1.0, -0.5831297993048843, -1.0, 1.0, -1.0, -0.8873735008804747, -0.1777913232937982, 1.0, -0.7972956351402822, 0.4507183041763282, 0.16200958596022796, 1.0, 0.043956753413766814, 0.3173927470461855, -0.1082447325760948, -0.3028493241080278, 0.30704991841828255, 0.015081755855051338, -0.8399997957176651, 0.6660675578758452, 0.41251874399264643, -0.05143518641573008, 1.0, -1.0, -0.15024324940548817, 1.0, -0.12038722228597087, 0.2913839305747752, -0.9680309369746001, -0.12590416211964517, 0.571127615955594, -0.7383872294342697, 1.0, -1.0, 0.11713922036133984, -0.10361470371781423, -0.43869836262979645, 0.005482194489591086, 0.42744851355430413, 1.0, 0.3432113427379928, 0.9279158511326866, 0.43155919446295243, -0.18926022095018175, 0.7701780332525602, 0.12420953894745196, 0.7205661170804544, -0.20579231929573938, 0.23806613544875144, 1.0, 1.0, -0.4430239817485123, 1.0, -1.0, 0.4291892160858882, -1.0, -0.5509385489117165, 0.2634297840908212, -0.7354714954324926, -1.0, -0.35069670616622717, 0.6999352907961369, -0.6890176044076355, -1.0, 1.0, 0.45524313038205455, 0.7848009672320574, -0.6968822571569293, 1.0, -0.0075135223355204395, 0.8073162165431788, 0.2863094016987464], "fitness": 48.16226955283406, "player_life": 0, "enemy_life": 100, "game_time": 343}
{"weights": [-0.7909427540024045, 0.21690494576889363, -0.9685869270304283, 1.0, 0.2841345152617718, -0.16118621778842157, -0.9044055909440964, -1.0, 0.11146134994745238, 0.7561122065934558, -0.6435277847663877, -0.6235912709219398, -0.46285098492801324, -1.0, 0.597892776758668, 0.8024402859674086, 0.7741014846165646, -0.7700743896775013, -0.33442799241646093, -0.8688314587861135, -1.0, -1.0, 0.3984456083531861, -1.0, 1.0, 0.4791007573744863, 0.3165955737035962, 0.7569084740306242, -1.0, 0.5025830981879416, -0.13365908717858022, 0.4896382904301657, -0.17682814613604225, -0.9532416179742178, -0.5979529968951431, -0.7798495432903098, -0.4873011500731833, -0.8640414418811577, 0.4353245596611546, 1.0, -1.0, 0.6336412365483474, 0.12498252493163386, -0.11871139757002713, 1.0, 1.0, 0.34766242754947774, -0.9653415072394049, -1.0, 0.4334587848938424, 1.0, -0.15303046543366294, 1.0, 0.7356302375828034, -0.6314774137690878, -0.20347072931433652, 0.6883198331747458, -0.21032292900773375, 0.5018670532202135, -1.0, 0.7504268831568265, -0.5985963660948379, 0.14641025603829372, -0.40724738838201496, -1.0, -1.0, 0.13414110204072238, -0.3383317820529279, 0.7553862445953743, -0.5057584838216986, -0.646744394145631, -1.0, 1.0, -0.3360979556312631, -1.0, -0.6602068008610158, 0.1371523874074712, 1.0, -0.6221470807791112, 0.4842892929794863, 0.9751678443520104, -0.5247593934366204, -0.6171578085175566, -0.9576030651484111, -0.047594546784495484, 0.6071358649873093, -0.6915680140796188, 0.9652316309898877, -0.9052550512113177, 0.15618842665515242, -0.008146608929021304, -0.2720353934832065, 0.6630166947341449, 0.9159210043148556, 0.02328200442338474, -1.0, -0.7963676244110276, 0.07833060732412694, 0.8470647794482286, -0.6404864817580853, -1.0, -0.40664770615633733, -1.0, 0.9695151605045847, -0.14814331119688595, 0.4865295330246453, -1.0, -0.33005308587929133, -1.0, -0.7162196503392255, 0.20207512818840945, -0.17974478189086135, -0.7001549189821294, 1.0, 0.2883597899334772, -0.507437389924578, -1.0, -0.8734357996937975, 0.2559520514510739, -0.07569956601384309, 0.8504579411549449, 0.07090624084019936, -0.427718033301848, -0.6430649315880307, 0.008240741484294045, 1.0, -1.0, -0.7653296982515593, -0.7770643026464716, -0.2319348925578152, 0.3961533003543213, 0.6240898277575051, -0.8390394904424536, -1.0, 0.6157579495771097, -0.9300754477620795, 0.1714598155818423, 0.9254887820046528, 0.36671861941494266, -0.07523176590947656, -0.823493069880381, -1.0, 0.1771816761986995, 0.016499135919186614, 0.40784125732263377, -0.6559986580036365, 0.5590623429663876, -0.1708609775578669, 0.7732437543727784, 1.0, 1.0, 0.527752731054338, -0.1413179840745996, 0.6521684288556321, 0.2624106764008439, 0.3586110252207742, -1.0, 0.8167101258191821, -0.11876195484660051, 0.4443660049976291, -1.0, -1.0, -1.0, -0.05953403810180469, 1.0, 0.37530273629536337, 0.055069773849018455, 0.8509093400927167, 0.28009868991237374, -0.03647474131352901, 1.0, -0.5213423613283923, 1.0, -0.5097204386001197, -1.0, -0.9634402560536849, 0.33327550751630686, 0.2224068562548993, 0.5505107128551339, 0.5743199711415576, -0.24526080360058, 0.03721870269220673, 0.7310112180099093, 0.4766889884918968, 1.0, -0.38202044965800286, 0.6690415421749745, 0.9542752148762197, -0.31769684420903876, 0.9302383407635464, -0.012720354800383138, -1.0, 0.6268806236930506, -0.03112849575653931, 0.08917550728412937, -1.0, 1.0, 0.592078523119901, -0.9358902241453814, -0.6411890613839915, -0.7946350644428049, 0.1997979181476457, 0.4357521680815777, 0.8841237487578875, 0.36078984045888074, -0.8371070246349285, -1.0, -0.019054462018328278, 1.0, 1.0, -1.0, -0.3831481713336242, 1.0, 0.8483876074827379, 0.2773529399477105, -1.0, 0.4946273311811973, -0.7221988105926233, 0.14038219483794612, 0.22587463740895808, -0.6724369438516661, 0.3236475308419744, -0.31498877173493023, -0.1557100256007259, -0.8495686958061781, 0.9287386808523979, -0.2804051822055549, 0.717647865056371, -0.9029545373814497, 1.0, 0.3174934829325517, 0.3454559310083386, 1.0, 0.1926568664394429, 0.7814120572564478, 1.0, -0.24272597668974916, -0.33568623850218926, -1.0, -0.8476033244886104, -0.6785401493357857, -0.7733174179367135, 0.2964794818868244, 0.3602443303083269, -0.7902870530733941, -1.0, 0.1652821707679053, -1.0, -0.4577347161697132, -1.0, 0.17948066841544486, -0.6059995840272131, -1.0, -0.44463914340732225, 0.7273494019239286, 0.6839533750468071, -0.9575943734882941, 1.0, -0.55301127781729, 1.0, -0.22115698539193618, -0.5338305889453385, -0.14888264032567633, 0.5624540322600509, 1.0], "fitness": 57.16226955283406, "player_life": 0, "enemy_life": 100, "game_time": 343}
{"weights": [0.8308381000547117, 0.7885017209500945, 0.4590462484157374, 0.24320243286438115, -0.9383224750578937, 1.0, 0.9511868361485101, -0.6262464183465796, 0.31654049474431833, 0.20937829456143264, 0.7223363202680303, -0.22149783087504193, 0.592569701075449, -1.0, -0.9119699280870477, -1.0, 0.19334232083442437, 0.3043804932688745, -1.0, -0.9059934803126197, -1.0, 0.387398280172361, 1.0, 0.5674587225526733, 0.8051725826063149, 1.0, 1.0, -0.1145573431560667, 1.0, 0.2857495994702288, 0.40840743783129396, 0.03869295287837038, -0.5675598709617234, 0.8076861337137414, 0.033611700549505574, -0.5592041400737351, 0.6248757675587349, 0.49218114954863323, -1.0, 0.3164959853594518, 1.0, -1.0, 0.843949374130923, 1.0, -0.06676341074145431, 0.8843682052339601, -1.0, -0.4597629634230333, -1.0, 0.7208304444195843, -1.0, -0.3917217114176019, 0.039052992243269136, 0.606079853471983, 0.9559686330991805, -1.0, 1.0, -0.869176251187925, 0.14744045060655242, 1.0, -0.0109578932361597, 0.1793487171463597, -0.7629884205203041, -1.0, -0.08822942647500454, 1.0, -0.18733517770161068, -1.0, 0.058983678746967416, 0.6709371454740629, -0.5377854649390417, -0.07956386152221745, -0.2215074705453095, 0.6078329533078164, -0.797829413547433, 0.7429493832014238, 0.28866268699711656, -0.8176907587998752, 0.5193598614365129, 1.0, 1.0, -1.0, 0.16356607699891523, -0.911111675529535, 0.03351498131359776, -1.0, 0.4296641164798368, -0.1726586712708037, 0.7308606465476439, -1.0, -0.46816216031576785, -0.8698251599244663, -0.6620906716523941, -0.6522713734737042, 0.2555170482423683, -0.8463010842421339, -1.0, -0.11417669094327787, -0.8975216092150586, -1.0, 0.4069505409495534, -0.05452358581870986, -0.09325970537127021, 1.0, -0.5461067169400039, -1.0, -0.6785099729123656, 1.0, 0.31438231771765357, -0.6117851046226728, 1.0, -1.0, 0.5043493122767811, -0.3322404791224669, -0.5732968385267694, 1.0, -1.0, 0.8894160386000707, -1.0, -0.43666516778476616, 0.9510541323975051, -0.41957452393723904, 0.737863152967423, -1.0, 0.055493213690110954, -0.39769418650309374, 0.08073194045786858, -0.18561467030837964, -0.11349763248535982, -0.11466575372720567, -0.4674220135414938, -1.0, 0.590780924234284, 0.7157718909042902, 0.2181063678751194, -0.16751952950986204, 0.4471376737933705, -1.0, 0.41083950882060394, 0.34347731726112707, 0.2624313407115585, 1.0, 1.0, 0.10560325079734556, -0.10258397325230828, -0.553332969805757, 1.0, -0.03158180503353736, 0.41408774352740063, -0.6234392650037224, 0.8584016332751285, -0.7543432496761584, 0.35167763054906065, 0.38147027896736574, 0.707869500104368, -0.286656553295386, -1.0, -0.17557727470575912, 0.34495102958908863, 0.4698666188118573, 0.7493092968112451, -0.32786848112135614, -0.48203562967925856, 0.5771474232782178, -0.5782993147425273, 0.17071980173878332, 0.19052752582653731, 1.0, 0.7144300466956717, 1.0, -0.9896675080151018, 1.0, 0.10568305328307792, -1.0, -0.9816639932634911, -0.09329762118114193, -0.22095400114312136, 0.1334598382951978, 1.0, -1.0, -0.29112394409612263, 0.5344683375993291, -0.40041114771404407, -0.3710907251560474, 0.03237767819220416, 0.21305398806215103, -0.31532772547824206, -0.4598282605395505, 0.09469471929961637, -1.0, -0.02475740840821372, -1.0, 0.001732641882914887, -0.5078997670515095, -0.2946903143956734, 0.0783538980060472, 0.1972099175406552, 0.0737567668186323, -1.0, 0.4941382426000118, 1.0, 0.9597701011059339, -1.0, -0.6718789211049532, 0.0721088510438217, 0.1728746373205503, 0.36577554894467035, -1.0, -1.0, 0.15938207663991022, 0.13721491187189394, 0.23121367430358075, -0.04443515565603906, -0.28315108619946616, 0.49372278728920826, 1.0, 0.7910937555382832, -1.0, 1.0, -1.0, 1.0, 0.6486542100483996, 0.9033871724770126, 0.626294107314127, 1.0, 0.23318312635138683, 1.0, -0.03775813464946387, -0.2273292663931339, 1.0, -1.0, 1.0, 0.04611457495782345, -0.6990510635312854, 0.9738228376221103, -0.29401436952918947, -0.052368786099202924, 0.4931255250634159, -0.9545854053844472, -0.935763287042217, -0.40964942271407434, -0.26191711800823636, 0.125326768890471, -0.612445854760474, -0.6351825800684145, -0.7725367839690379, 0.5672893772343957, 0.23068181090533568, 0.1224351610283343, 0.8782604735638284, -0.1553047610491518, -0.4018386436984307, 0.03642112464492364, 0.2703087634201272, -0.8582169354497124, 0.045204138753325185, 0.6125465485183101, -0.3388381614483383, 0.23485801308289322, 1.0, -0.332597145875428, -0.44168281257859854, 0.8932944146483282, -0.5346141165401155, 0.8124790918901336], "fitness": 57.2731522524128, "player_life": 0, "enemy_life": 100, "game_time": 195}
{"weights": [0.1495475539821407, 1.0, -0.13524853867785946, 0.8741527131928664, 0.8553182483614781, 0.3067237409185962, -0.5070181958458949, -1.0, -0.6383259859743009, -0.06507099685201395, 1.0, 0.21548981850594862, 0.4505545056671829, -0.29363452517344746, -0.008603343202819858, -0.1994434690275404, 0.956068812156561, 1.0, -1.0, 0.18750454163950225, -1.0, 0.3898726141554262, 1.0, -1.0, -0.01227126961384728, -0.35307468835593236, 1.0, 0.49560633491982764, -0.6017497124508384, -1.0, -0.15817416019398445, 0.17306836363973155, 0.21170075753341833, 1.0, -0.6750909842032382, 0.34859743366546436, 0.935874687957415, -0.20331651912335108, -0.5392095146542664, 1.0, -0.2293784584125797, 0.9917100790605158, -0.40412339036018186, 1.0, -1.0, 1.0, 0.40798869947494665, 1.0, 0.04615708661436224, -0.8460242995344711, 1.0, -0.620815543200725, 0.8631585074823203, 0.013733526010801356, 0.08678215477693274, 0.9241546721219124, 0.4591442996181704, 0.48047667188559007, 1.0, -0.5606113302540752, 0.4595075503173829, -1.0, -0.37578256415558897, 0.3908409724141373, -1.0, 0.6052548880123765, -1.0, -1.0, -1.0, -0.0908728696616985, -0.3941615914101302, 1.0, -0.09568436226394006, -0.9112234032147415, 0.5565108571314057, -1.0, 1.0, -0.9500610163448135, -0.00812506581007133, -1.0, 0.4522727277572436, -0.3476078411788882, 1.0, -0.21803298635589102, 0.7158900898228244, 0.2892379198423318, -0.5127237149524665, 0.999647381727437, 0.5068429418650038, -0.41923582450848895, -1.0, 0.8452453540209699, 1.0, -0.053145534030958896, 1.0, 0.24101699899086837, 0.054944309708050976, 1.0, -0.9136922357912918, 1.0, 0.18547358240130518, 0.46979783767143096, -0.8917857157835256, 0.39986482099738546, -0.06591451051298114, -0.6959019042296095, 0.022579049582837296, 0.25862675812104025, -0.8115154492556294, 1.0, 0.5291365494173718, -0.1996118681142771, -0.695773696748837, 0.19452744111097253, -1.0, 0.36804222235770623, 0.44247556211416367, 0.22405328773099553, 1.0, -0.4829512143904647, -1.0, 1.0, -0.8129546714549797, 0.6616075322478521, 1.0, -0.6934737056104666, 0.7508243113382198, 0.371771180495866, -0.22596086591366837, 0.056119366189351316, -0.728965339734067, 0.349764621960438, 0.7393288272997688, -0.13035251099742656, 0.08541740490372651, 1.0, -0.1632324628284152, 1.0, 1.0, 0.16132154124528075, -0.6089370051651373, 0.2298732778924949, 0.9937631018529997, 0.1647748456756295, 0.3369902094892939, -1.0, 0.5655223232017801, -0.7837086368541859, 0.11334632564198455, -0.9998530405570565, 0.9680894960725803, -0.35335227522625245, 1.0, -0.3137809131101591, -0.9369075828186723, 0.5846319626772386, -0.13626985159959004, 1.0, 1.0, 0.011576167585338526, -1.0, 1.0, -1.0, 0.2779104864883536, -0.4643719157848507, 0.19261408548137438, 0.1024412164199684, -0.43412806916512664, -1.0, 1.0, -0.2582885775203675, 0.05328331627355265, -1.0, 0.20426384084778476, -0.10929026410383458, 0.9597073243080965, -1.0, 0.5087346040838805, -0.49452156357956045, -1.0, -0.43893439628299336, 1.0, 0.9993406834830928, -1.0, 0.7862907293302589, 0.3389117061938056, -0.21648197522379753, -1.0, 1.0, 1.0, 0.2702719843259199, -1.0, 0.5551123753786495, 0.8518691830249531, 0.36332081409471506, 0.8313100087425361, -0.26004519888885014, 0.08225923135423496, -0.9207344847175968, 1.0, -0.8015655158555367, 0.9168909369196637, -0.42366680942756296, 1.0, 1.0, -0.5527505396861097, 0.35454351624060243, 1.0, 1.0, 0.25021259374016197, 1.0, -0.9949678781696941, -0.2699354232730722, 1.0, -0.5307423369680746, -0.043911264776501535, -1.0, -0.02894472133813164, -0.519524779310746, -1.0, 0.2354749970847212, 1.0, -0.7555377371821258, -1.0, -1.0, 1.0, -1.0, 0.5196004981091749, -0.5408034515942828, -0.9929466623129029, 0.46010430451318984, 0.9443352962266873, 1.0, 0.8530442609802458, 0.46462281414175344, -0.6981459031271576, -0.0010399625434112103, -0.962587871992403, 0.036380365161891914, 1.0, -0.872537516557008, 0.9514573897966729, 0.19164743208618074, -0.15846895441031295, -0.9238457787262988, -0.5096534310863801, 1.0, 0.5748442564810207, 0.7084371008806662, -0.4922294407198875, 0.0820196734646339, 0.6897686206488343, -0.8633276366777214, 0.8907409960476619, 1.0, -1.0, -0.46152849619019864, -1.0, 1.0, 0.8222631683538265, -1.0, 0.6421463207625401, 0.20968879232234117, 0.6332010437794349, 0.6825524994038814], "fitness": 57.22544845445559, "player_life": 0, "enemy_life": 30.0, "game_time": 322}
{"weights": [0.26024182078397484, -1.0, 0.27411842702921274, -0.5583049495890433, 0.32673886812531333, 0.7079354030995576, 0.37437557810682454, -0.48207066900178025, -0.33179956671513755, -1.0, -0.8846825634173351, -0.5252949070542761, -0.6302177817520389, -1.0, 0.14535169088755373, -1.0, 1.0, 1.0, -0.14338463815039848, -0.3281182699427847, 0.762018238986103, 0.4746926408238834, -0.46891335294995284, 0.05072212855535663, -0.6955743975895678, -0.3563434162533574, 0.8009358318003443, 0.5532428815651651, 0.6713594727367906, -0.16438281314457814, -1.0, 0.8874310091470072, 0.6803864881201437, 0.982162995643331, -0.9586355828835268, -0.3261936895229698, 0.9372238744921748, -0.9628848343179237, -0.7654687300005261, -0.7320912508366687, -1.0, -0.6172408966470092, 0.3995938186018346, -0.06855908935986865, 1.0, 1.0, -0.29419017200585973, -0.9360748217364392, 1.0, -0.42083011771491663, -1.0, 0.5650182100020334, 0.44396923726066084, -1.0, 1.0, 1.0, -0.4846041466837969, -1.0, 0.13176015163799126, -0.3666498577237136, 0.5946886243077352, -0.20186976644176224, 0.5203723543546536, 0.3215366744377255, -0.4246559732759434, -0.324201595026014, -0.14160726286587472, -0.9486129323406963, 0.675141205469091, 1.0, 0.659539236496285, -0.003116044672676177, 0.6666023793361774, 0.39207477590141326, 0.12122193452503605, 0.854349381552089, 0.2633268180409979, 0.7403730102205393, 1.0, 0.050184119670239946, 1.0, -0.5262835058439569, 1.0, -0.3302919048564802, -0.5788202572164418, 0.4868767441569348, -0.3017369883387394, -1.0, -0.05622614988347774, 0.879493043219987, 1.0, -1.0, -0.27258804673446657, -0.41977758642861773, -0.37846001021372033, -1.0, -1.0, 0.5209987412324549, -0.23750664205030758, 0.09013859453083212, 0.07279681603453514, 0.7234768250742499, -0.7845594300742005, -0.7422178035542146, 0.4619251912771407, -0.2099893562333942, 0.9455577517817357, -0.5673352000553908, 0.5412087314887759, 1.0, 0.11428552369049272, 0.212331909578641, 0.6604263387469766, -1.0, 0.9412306417581124, 1.0, 1.0, -1.0, -0.07085590968274225, -0.2931796590389816, -0.6115959403822948, -0.3422019089093443, -1.0, 0.06332988322387079, 0.6176862892472395, -0.8621033961294673, 1.0, 0.07238197766659682, 0.15779051498635321, -0.38901021245629164, -1.0, 1.0, -0.8390394904424536, 0.12913358834034605, 0.8001146268156161, 1.0, 1.0, 1.0, -0.11751695447898558, 0.722434885004241, 0.04935066231275176, -1.0, 1.0, 0.3039351042400256, 1.0, 0.34608074762256924, 0.5954058944054225, -0.37973154833597467, 1.0, 0.05529603950673345, -0.2065287020150759, -1.0, -1.0, -1.0, 1.0, -0.49502681980378327, -0.048006035916513534, 0.06759741767374805, 1.0, -0.5245985093537463, -0.21074008681162304, -0.9057962983375285, 0.8384373696485833, 1.0, -0.19253907409732607, 1.0, 0.8077140676414756, 0.8645135134782965, 0.20482523850105794, -0.07582396286249482, 1.0, 0.5566613329504424, -1.0, -0.705535621767857, 0.2383660894451622, 0.883686440107072, 0.5932415534137109, -1.0, -0.7570359455920316, 0.9995276781270492, 1.0, 0.7531861858547124, 1.0, -0.10917732051572848, -1.0, -0.4970150226248547, -1.0, -1.0, 0.29606706965756646, -0.9425560457783309, 1.0, 0.5170100623585195, -0.7909960259718005, 0.6403151535597198, -1.0, -0.30374073090352804, 0.44277713327530654, 1.0, 1.0, -1.0, 1.0, 1.0, -1.0, 0.6078446175033623, -1.0, -1.0, -0.9082632809051602, -1.0, 0.06223281643774603, -0.22588940668682045, -1.0, 0.8951122718680151, -0.9460758475087769, -0.21319772181424257, 0.8481986509199153, -1.0, 1.0, 1.0, -0.3671817146695212, -0.23050332857307215, -1.0, 0.25733493050684153, 0.85127733102722, -1.0, 0.4119188911089052, 0.4773679695688895, -0.876033221420089, -0.01361529946623008, 0.5511262084092421, -0.7312790302314857, 0.1816937756276641, 0.33588866119865446, 0.11863460861281405, 1.0, -1.0, -0.9664216958487579, 0.4315001135993687, 0.6776080674668992, 1.0, 0.5425642266260322, -0.4905902050640134, 0.13500808822465404, -0.8143158977322946, -1.0, 1.0, 0.21329536850768394, 0.9024224739905835, -0.1866748432954599, 0.4234289988934937, -0.34011910539747103, 0.032254126226058055, 0.27855535690133837, -1.0, 1.0, -0.79594166505185, -0.6098739007418218, -1.0, -0.9949443134391597, -1.0, 0.9898139086842774, -0.1644337570739649, -0.621376242144728, -0.5987702158663727, 0.5739434489872839, 1.0], "fitness": 57.19486503108351, "player_life": 0, "enemy_life": 100, "game_time": 343}
