{"weights": [0.6664187126322971, -0.6082515405199542, 0.27400025804816125, 0.9492562456251321, 1.0, -0.38489000646261784, 0.5565470077156226, 1.0, -1.0, -0.14165118742928004, 0.8762360416525747, -0.5517578531583531, 0.09624042774843455, -0.3274548881097883, 0.6414650609304055, -0.7119265842798402, -0.4263570256130817, 0.08863099256524551, 0.04879130501420467, 1.0, 0.08504985770918658, 0.3738803677585603, -0.8755604305831561, -0.23113867862453125, 0.3048586000105014, -0.10148478547701889, -0.3755146535899852, -0.6571765043905387, -0.8721739072572133, 0.04772293647024481, -0.36785786213373944, -0.36053072276363035, 0.14094766744891438, 0.3581325786672013, 0.8048500400433659, -1.0, 0.29348703910776164, -0.35893941346264213, -0.70502480811832, -0.2662450616927829, 0.42269585679886124, 0.6388015503922873, 0.9693289706774436, -0.10189146023068144, 0.5350049795079983, 0.44753279231033005, 1.0, 0.7900141869594782, -1.0, -0.04070685966366869, 0.9397545021724756, 0.8102807417974505, -0.9394779578351845, 0.2486044011763535, -0.22924316864736083, 0.0009134390253016655, 0.4946099543056588, 0.9692752192157776, -0.15033180336470886, 0.13040180962728803, 0.3845592799388163, -0.10756811717244631, 0.849162048920687, -0.786616317316227, -0.009247577480517188, -0.8885689042925426, -0.7826054113540901, -0.5906446521956615, -0.7692312654622238, -0.5550185712748031, 0.4972314984465545, -0.5737439176020852, -0.8724640478863197, 0.3036448382148218, -0.817103240222654, 0.41550063291704137, -0.04671201900107891, 0.4751495428635388, 0.419968314518534, 0.20989884784492624, -0.03806800123375992, 0.20884055324150125, -0.4004832718800717, 0.6562934237680638, -0.3764825632864202, 0.2934985476470242, -0.4293815229943647, 1.0, 0.10271845347070765, -0.6058635019511014, -0.5997670418435629, -0.7346210568880464, -0.6139475669427827, -0.4735123895239722, 0.08612548155546615, 0.5161083061582488, -0.1952863947884984, -0.6457018308819958, -0.0332679256527245, -0.012262887499230796, 0.3056326596506823, 0.6647785226495775, 0.3505629378222815, 0.7444051453084722, 0.14137985454282048, -0.6401615548836472, 0.2199343734081068, 0.7923850987986041, -1.0, -0.823884746389566, 0.8542933980382217, -0.641056002676303, 0.47095225244027417, -0.39747854139725625, -0.35294337043243645, -0.332676212217196, -0.43893461928728156, 0.23403244206143786, -0.6868270403597018, 1.0, 0.034712666819787436, 0.26060661726279377, 1.0, 0.21964005834895375, 0.14227731003016952, 0.538609820638803, 0.7499022162447118, -0.6952530811383371, 0.7279077234989184, 0.5948579296578034, -0.686913487180026, -0.9525590507332486, -0.08589869087636665, -0.3898254792819551, 0.08393757359895182, 1.0, 0.38813216918323323, -0.9816858204500536, 0.23862161409650473, -0.7530452311116036, -0.003050764346197443, -0.7736714490151172, 0.40715703008049353, 0.2566746116776656, -0.47993902528497295, 0.9049702773677633, -0.7115197806693286, -0.2902841248397951, 0.9564655276696626, -0.7145090558754521, -1.0, -0.16778579795569665, -0.3186335071273349, -0.654607083989875, -0.7125826431432072, -0.6598073275223122, 0.4977188687371913, -0.004694993613726217, 0.8693629250618203, -0.8640459295145269, -0.5295772533197229, -0.7225945981177473, 0.5073228946017928, 0.14107856128681634, 0.6188322707877161, -1.0, -0.5500161089786924, 0.6464294822674851, -0.3955598553709892, -0.5418288658448425, 0.6118092255676221, 0.9455325247045427, 0.06748066078554926, -0.07152512912147184, -0.8352125578333072, -0.5313442837728047, 0.6386575927018963, 0.24004373976405927, 0.04236691630901074, -0.9764554210446589, -0.006844802998295013, 1.0, 0.0828793651244672, 0.027853002589349973, -0.12044781245476854, -0.353312846062606, -0.16525816588798234, -0.011904662353164591, 1.0, -0.36706279516562185, -0.729816335706925, 0.8206998779290331, 0.858558410724599, -0.5017166411694858, 0.08178201811787589, 0.39457649208278106, 0.5840130869263767, -0.26884168463184777, -0.5439330227460915, -0.7658135217841717, 0.05186634195815143, -0.035890639508932176, 1.0, 0.7606915684032256, -0.6253912677191583, -0.110585078994626, -0.2354213921018523, -0.29319250828101373, 1.0, -0.19489095860264116, -1.0, -0.2689930521622874, 0.19694244065923602, -0.3756728156696587, 0.5356962655848504, -0.3226084574309209, -0.08158880117162545, 0.9284454032718366, -0.6071060021895588, 0.754648700263929, 0.558789205364084, -0.9330618963319539, 0.22316186579939706, 0.5872717273145738, -0.4601570174554319, -0.9315163706713916, -0.7888680399557461, -0.06334302467481298, 1.0, 0.737879224935702, 0.002654594919789574, -0.7060348187702252, 0.8336785313091077, 0.9466162793160666, -0.7248886280528642, 0.334716321459652, 0.6991149738768137, 0.17772132957159603, 0.5391385791250753, 0.03873098113534809, -0.19953153799591755, -0.6974270775403606, -0.6174381589689433, -0.8404228528602179, -0.5113805477174046, -0.5921097219515503, -0.24986454447261144, 0.10516980705750067, -0.514098562026424, 0.8134847431992127, 0.1660485213908513, -0.694107871381143, 0.4780338000325326, 0.026410557884629843, 0.31131303918062336, 0.60957967975434, 0.6983651319901105, -0.21602681093471846, 0.5263071593530042, 0.4514037893055145, -0.011826518438445871, 0.8007261308704868, -0.15730764870060626, 0.464603157185356, -0.3673316244751035], "fitness": 93.72700044143625, "player_life": 90, "enemy_life": 0, "game_time": 195}
{"weights": [0.631846300511685, -1.0, 0.04997303568917895, 0.4849760976739019, 0.9655198196719021, -0.04006079777307228, -0.8244072946708068, 0.8547513798030979, 0.8814726225536592, -0.021875012246515058, 0.9004520268731833, -0.6790465640394782, 0.5175499354050406, -0.6936935316076166, 0.2863046499236025, -0.7385434305309939, -0.7208752871056153, -0.6154813132007557, -0.8751613133566454, 1.0, 0.03470259811624796, 0.16783293363807222, -0.9775127303951204, -0.5053721631368198, 0.3048586000105014, -0.05673216793505509, -0.2317698374321745, -0.6079727818397477, -0.23443895682287313, 0.1250692378767964, 0.16975208503928124, -0.7355469489153272, -0.9169673390062263, 0.1240484385642277, 0.5599468449366145, -0.8672410487984372, 0.013200719484230253, -0.18287787237632525, -0.7286838486402696, 0.09499101242974797, 0.27488008589765517, 0.050216704900899994, -0.5579719350549744, -0.10189146023068144, 0.7669586627366356, 0.4411319183922614, 1.0, 0.7060218785785896, -0.8028408692096212, -0.48692411635209154, 0.8723566958353446, 0.6261071820220038, -0.5436155891233192, -0.2927370874796921, -0.5051787774033828, 0.05893015586414549, 0.5593038402182038, 0.8237904558489706, -0.494092046106103, 0.32717427442620256, 0.07869986352205827, -0.12456701662778467, 0.849162048920687, -0.6613551623621452, -0.1854029963560223, -0.9169919596706877, -0.6568072031481004, -0.14198245257736658, -0.6018645124879729, -0.42372350856939434, 0.5351979637630565, -1.0, -1.0, 0.6718142604306958, -0.8521951671110424, 0.5062208827919592, 0.06417521635136736, 0.8290887240958832, 0.6237796076303668, 0.5556133679090307, -0.03806800123375992, 0.2540320509829487, -0.10315229058823083, 0.30508479280501644, -0.35141857835499957, 0.09853246175445216, -0.7812026050860574, 1.0, 0.35189495848667296, -0.8530675337409762, -0.5997670418435629, -0.2644944369415646, 0.8948377471465971, -0.5974743847660395, -0.01958403041838208, 0.36717478192376973, -0.09275705961229103, 0.8260419530209907, -0.1053688568073704, 0.3377993312285126, 1.0, 0.7636006787471361, 0.2853915903722214, 0.9621976088823154, 0.223563751962971, -0.7479979570628723, 0.526469942578548, 0.7328956313098053, -0.8937341094277819, -0.9164361642808354, 0.03018119805732794, -0.3007776938376329, 0.6743780032096071, -0.6738889478076762, -0.5800854495062032, -0.3219231467924328, -0.4517286454373538, 0.5958612544026618, 0.9570562187279475, 0.9667576142618527, 0.015523959970312085, 0.17330420905117722, 0.9131078674066577, 0.8917363513151566, 0.30970046809738727, 0.9462826337404322, 0.5926278289563032, -0.6952530811383371, 0.39964626324266517, 0.4360418337538414, -0.8197061924902858, -0.6544154367784002, -0.09141178878482684, -0.13725253511020744, -0.6044781318689513, 0.7169003801586622, 0.5503216474987296, -0.8530497911341385, 0.8103205892109266, -0.7530452311116036, -0.8187942188552735, -0.6567105762899489, 0.4844070508873789, 0.3246165774461941, -0.12214903720217812, 0.8754454863489358, -0.6206436846293656, -0.3239645544859402, 0.9794561837218098, -0.7880048752831068, -0.6904259061043412, 0.3965563168979853, -0.5302073759866054, -0.8362855061691428, -0.8613979192872145, -0.9196788915410177, 0.40044934803000065, -0.2533571031920121, 0.5412814605198499, -0.12796880737743183, -0.3795395679673054, -0.7704094806584998, 0.10539460988379719, 0.1654676386874313, 0.9725842203477888, -0.9083625486094744, -0.3658038051755415, -0.03278705391994913, -0.43325318155718273, -0.7376444890993992, 0.7068127176053434, 0.7826110541213239, 0.06748066078554926, 0.2924990444613747, 0.22972991046961416, -0.29776873385630864, 0.5334143969742541, 0.3851671963656531, -0.5086617132291323, -0.7715750468694506, -0.02675270362655549, 1.0, -0.0388816109119442, -0.3095096427305171, -0.07076289096423462, -0.2559289653636181, 0.24612015190206202, 0.26475237397860074, 0.8215704099581769, -0.40756647418484493, -0.6459405307445719, 0.23601613175423994, -0.8087053272846061, -0.3891381716619522, -0.013149950499865337, 0.49387383334856705, 0.4634817840107146, -0.4627069240801972, -0.7086904038218224, -0.5580318520153431, 0.19019012189754755, -0.6594038159078108, 1.0, -0.13292317273578158, -0.5557959703020647, -0.36733531727955515, -0.2977914242600185, -0.01330059111910889, 1.0, -0.2156195138641851, -0.9968201099776408, -0.40930689818025745, 0.32812112760409345, -0.14015810997100758, 0.6665382560130186, -0.12916679902891592, 0.04653851436325532, 0.6374587303531173, -0.4257030385564261, 0.8565954028278809, -0.5755423952418726, -1.0, 0.36631665730284163, 0.44709443271679283, -0.07991318192533081, -0.9595684484433114, -0.9276897041605683, -0.06334302467481298, 0.8042788457741668, 0.8652159895873341, -0.09893633879704963, -0.7010351897659273, 0.8200523728924173, 0.36422047616805964, -0.6084075414653298, 0.18555198982581747, 0.8691582897201897, 0.23751840452451212, 0.30785371052647786, 0.08388517173237478, -0.3393893861419386, -0.7149048738574744, -0.48899343827164876, 0.9450197046751658, -0.40948652433530164, -0.7446423985220996, 0.040466177770851264, 0.2303132459381069, -0.5572049673072268, 0.8784078042897561, 0.2995369662598184, -0.7605026655928987, 0.32829593458287576, 0.82928721641442, 0.3227789806854741, 0.7509160624605822, 0.5653411406001, -0.21977197807328985, -0.04463480794336869, -0.15813911409508352, 0.32436545833724784, 1.0, -0.8073993204188639, -0.4433717432735014, 0.14551118649819625], "fitness": 91.77237888630937, "player_life": 74, "enemy_life": 0, "game_time": 278}
{"weights": [0.8375275476576224, 0.7914296994605782, 0.04997303568917895, 0.6830579852885723, 0.8505262103072557, -0.25813373772749404, 0.6759083999429655, 0.7927618823901179, -1.0, -0.01454036081138571, -0.4671947939140344, -0.5123556527714216, 0.6292328154400945, -0.5141693797972885, 0.2477480651536818, 0.7719465107715096, -0.49263957654543267, 0.4528582303629364, 0.16912393086412383, 0.9031181295350142, 0.20499465358604002, 0.00544282051612921, 0.1671654135675287, -0.2529499562010896, 0.16267365281583057, -0.13021637623590884, -0.2317698374321745, -0.4188982338054418, -0.442467180030216, 0.12151769182305677, -0.3775694576262024, -0.7355469489153272, -0.19728652693254262, 0.39928602603035795, 0.5826642029715237, -0.9510298247028551, -0.44971390827311813, -0.4995409437436045, -0.7286838486402696, 0.5013547746509273, 1.0, 0.4973416868954246, 0.8400557455010247, -0.10189146023068144, 0.29470180963855647, 0.3093485897210009, 0.597911014379097, -0.28939841742455713, -0.8028408692096212, 0.08545114520070946, 0.9799013717174566, 0.9584084702591806, -0.49695645102386565, -0.2927370874796921, -0.6524883406969183, 0.4311581888938113, -0.0021527196770703694, 0.9922272843606281, -0.30398835860493034, 0.20436527787761366, 0.22412362084161438, -0.027907809703236752, 0.849162048920687, -0.6132081888666985, -0.1854029963560223, -0.9026851175832873, 0.5526306344794844, -0.5906446521956615, -0.6018645124879729, -0.4218335523843102, -0.4461141128483668, 1.0, -0.686177071130684, 0.4910191467181459, -0.541862686025437, -0.8693095173202444, 0.08263489453961692, 0.6590321690426424, -0.0543186479393237, -0.3905981666917297, -0.18559458151041403, 0.20884055324150125, -0.14461950783390012, 0.6060825190358204, -0.31092796745079154, 0.25303393808208613, 0.3706616169073732, 1.0, 0.10271845347070765, -0.6796017307364663, -0.7385362471474706, 0.18446282416851073, -0.8726465365067586, -0.5019698202113244, -0.05651485990595581, 0.36717478192376973, -0.21169350425273953, 0.72837517843648, 0.20093408938322363, 0.3377993312285126, 0.9390425443903002, 0.2312157704951613, 0.4162691384721142, 0.940875863783679, 0.2725008794382314, -0.2572859176717807, 0.03241446739435466, 0.9636159009732217, -0.9692577426037791, -0.6546635666928295, 0.4671716934278604, -0.17700678728323127, 0.6470289468820362, -0.6738889478076762, -0.5800854495062032, -0.16549666465855434, -0.7435058867090865, -0.025388663754520424, -0.8130548407320795, 0.9067632614891262, 0.1474028056289034, 0.4446748508664195, 0.989930873775786, 0.889898920249202, -0.014140077006248933, 1.0, 0.7810777367355732, -1.0, 0.39716371783919086, 0.4425883179621841, -0.895281139936372, -0.413444461755663, 0.1650709410410652, -0.009036802304488306, -0.22421723274432115, 0.8956515965840093, 0.7175987486740254, -1.0, 0.386564851258266, 0.6721572858080769, -0.003050764346197443, -1.0, 0.6776457119285024, 0.24954850845916376, -0.44664091776949494, 0.5960984520795318, -0.7050761339636453, -0.22849307665203306, 0.7036145564214276, -0.7145090558754521, -0.9117890974256748, -0.6973630201175421, -0.7199126586243504, -0.6690637852317273, -0.7549978850283284, -0.9695514011591528, 0.5363858641311987, -0.31566030245406235, 0.6339943464108855, -0.43763406703247626, -0.5545045757000074, -0.9867574393835119, 0.5073228946017928, 0.03965060953518046, 0.48182428732412025, 0.33088326437496696, -0.5155705253802463, 0.24201958306166774, -0.43325318155718273, 0.7431936734493239, -0.7443546280832096, -0.3427220424639881, 0.3148740789471748, -0.468171445375586, 0.2040951138208879, -0.30585470201433296, 0.7278913915336398, 0.573994876357494, -0.3329184329745072, -0.9976118633018277, -0.2426404311508224, 0.8387048010121398, 0.07671536633413722, -0.07293464421582335, -0.4115743958830699, -0.7022172089687121, -0.5207735723398901, 0.3430335885135065, 0.7805122605911047, -0.5403156727655385, -0.739739182948913, 0.1901412439241522, 0.9674588573733495, -1.0, -0.18536455797696583, 0.3698912063572013, 0.24754481756340788, -0.8868312314759662, -0.8803173668224646, -0.49683648604481534, 0.14166749703751313, 0.1266688938351479, 1.0, 0.048426638196126914, -0.6205499470384521, -0.36733531727955515, -0.3905818955372833, -0.21631299101003282, 1.0, -0.19448237670967936, -0.3019453434482643, 0.5093824029187213, 0.21085839465044845, 0.3556409808986009, 0.19831543492762763, -0.42509643569689615, 0.0334410715217798, 0.7315146533819603, -0.9587962605007215, 0.754648700263929, -0.4997883624490544, -0.8855159370451471, 0.608300765750068, 0.5263099426265265, -0.38714061600616023, -0.990606583186593, -0.7910848029405688, 0.024229923918984847, 1.0, 0.7601322013443912, 0.08017975747802314, -0.42542640385908, 0.7664478587727919, 0.9749707705607782, -0.6084075414653298, 0.18555198982581747, -0.6885888358904503, 0.3241878122247936, 0.6113768160143792, -0.2203533203199604, -0.17169795069444088, -0.8660293649907029, -0.7702572253319917, -0.9076068717571832, -0.5327493783048532, -0.5814661583812348, 0.1569936434320685, 0.0964186447331912, -0.5000478576389322, 1.0, 0.2995369662598184, -0.4325174338814899, 0.5177095461944095, 0.7109418617539373, 0.3227789806854741, -0.4103704606574732, -0.9576823643899354, -0.5702852089073958, -0.3840117373132022, -0.08509940390003093, 0.5490455671218899, 1.0, -0.6613267686985507, 0.5939464343724145, -0.8763522391894553], "fitness": 91.77237888630937, "player_life": 0, "enemy_life": 100, "game_time": 325}
{"weights": [0.6787961773603056, -1.0, 0.25378487254440385, 0.9200198193421034, 1.0, -0.5688645209003373, -0.7359609830808956, 0.8163966801606426, 0.8814726225536592, 0.20995734758178258, 1.0, -0.5855792970976581, 0.1931579800991876, -0.6493351645993403, 0.1649922531148363, -0.7108434558777761, -0.4424382738057457, 0.509690318302974, 0.16912393086412383, 0.11286914838212872, 0.3502388458496139, 0.09739926910778751, 0.1671654135675287, -0.14518200784451762, 0.42746167656014644, 0.3041680348606849, -0.3755146535899852, -0.14095709569311565, -0.2016021127850793, 0.2520559653315037, 0.19862584140537087, -0.4079140974772309, -0.309995683822358, 0.2588853059180128, 0.7413910700166604, -0.5885075691736419, 0.021321384878077776, -0.22530289436729237, -0.8711858149765843, 0.009723850318511612, 1.0, 0.14353073225265434, 0.8400557455010247, -0.27776575779909213, 0.4743974507980424, 0.2902001754563184, 0.5002968537400811, 0.7319886203756132, 0.34963721091365985, -0.17747258171637836, 0.6001767324228003, 0.9080646671943058, -0.5448423925391327, 0.7909818921541099, -0.2744658865322968, 0.039715981631978675, 0.3045872193897731, 1.0, -0.8006586841462577, 0.32717427442620256, 0.4832951133615282, -0.09869315882713303, 0.9452874760852674, -0.4913768439061769, -0.34342159635031233, -0.5332329809236573, 0.5526306344794844, -0.5100542948265152, 0.5705875968930435, -0.40276563219167344, -0.49201695129052814, 0.9757071521883187, -1.0, 0.4910191467181459, -0.968404716655314, 0.5062208827919592, 0.03744160734849564, 0.8169978463011527, -0.22180172234585638, -0.4704864297674757, -0.03806800123375992, -0.22734142322057285, 0.1119133306026854, 0.43552695460354574, -0.31092796745079154, 0.2566026561607869, -0.7063030933560863, 1.0, 0.1662737932881164, -0.6796017307364663, -0.6699852626036915, 0.18446282416851073, 0.7386500551373218, -0.5974743847660395, -0.21610756879962062, -0.32638162116584657, 0.31532411618568035, 1.0, 0.20093408938322363, -0.001547885106176261, 0.946327035273595, 0.42363195376867574, 0.2853915903722214, 0.940875863783679, 0.2725008794382314, -0.2572859176717807, 0.21781998364763103, 0.604744788309054, -0.8308732340540887, -0.6695741568991896, 0.6803472777952118, -0.648589369641823, 0.5265704165094502, -0.6738889478076762, -0.5800854495062032, -0.332676212217196, -0.4611110999101113, -0.7505291931637265, -0.6868270403597018, 1.0, 0.119147152935665, 0.059058158589987336, 0.9131078674066577, 0.8917363513151566, 0.24195107241534777, 0.6191703674375978, 0.7974060722259384, -0.7600420912393457, 0.6561698737246013, 0.5856051211728551, -1.0, -0.3190136339860616, -0.1872912270484724, -0.020026830985523658, -0.22588768018068067, 0.7169003801586622, 0.7175987486740254, -0.7844337226770071, 0.5365150317306724, 0.44558660671558836, -0.10807466333993487, -0.8990778641923822, 0.10851221786194246, 0.055850298988183944, -0.24065000684947485, 0.7424024023376744, -0.7071532120912123, -0.4276030779408774, 1.0, -0.8768062148411759, -0.7375316577096104, -0.06477538233905136, -0.4302041769364356, -0.7379404123065377, 0.12748298252059567, -0.8952864209890357, 0.23939653415973083, 0.014925396889265197, 0.82992566189805, -0.20124727637149006, -0.5384991274594184, -0.6183935721659031, 0.41829620307335547, 0.22928271489109964, 0.32474476143282693, -0.8036241986197457, -0.5592849700923149, 0.08226837414732094, -0.32287681256334905, -0.6944687544403728, 0.8540918210492745, -0.3427220424639881, 0.09985186058168966, -0.5723963723888491, 0.10360760379452316, -0.6270771027942361, 0.6516620228339867, 0.040702866345529914, -0.42494612623565997, -0.9976118633018277, -0.2426404311508224, 0.9741447965347387, 0.08857840106496453, -0.07293464421582335, -0.24536633367803667, -0.5659446164340249, -0.06092005285729388, -0.04540028243246225, 0.8278987314640047, -0.25715197885395763, -1.0, 0.6711377805742683, -1.0, -0.8740456714484875, 0.08178201811787589, 0.37711682283824777, 0.1978142411779077, -0.6893637407471507, -0.7128767231930409, -0.7015271634980524, -0.039411415279283574, 0.3058141084574054, 0.7740853436556685, 0.07982648541945594, -0.4640154768564569, -0.09675667583327952, -0.2354213921018523, -0.6018968610388569, 0.8515319748144152, -0.2156195138641851, -1.0, 0.06668887617703623, 0.2602510101128891, -0.1111996366520625, 0.6059203861870657, -0.20771608505651, 0.14326521473270906, 0.8560569011940092, -0.6425341634911322, 0.754648700263929, -0.5890279239541019, -0.6412564039248203, 0.2781858564742393, 0.4162265267295879, 0.08475248151434417, -1.0, -0.5414862286298292, 0.024229923918984847, 1.0, 0.7601322013443912, -0.14807409370626307, -0.07478983549289919, 0.41589813097835804, 0.7286773140132232, -0.6084075414653298, -0.06154565993181055, -0.13647037751774221, 0.40144314300977024, 0.30785371052647786, 0.31415408841661163, -0.45315816701368283, -0.53595001367637, -0.7808871389091707, -0.9160486781927571, -0.40948652433530164, -0.7560900584311947, -0.08499650417625207, 0.4890162815609443, -0.5680500053735609, 0.9924917671310827, 0.2853817312661594, -0.6736741751482935, 0.7036742442044345, 0.4997489647993284, -0.6656639720385588, -0.4705523752482313, -0.8832219254197311, -0.3833529434901527, 0.3402765207409162, 0.5440390822065471, 0.5490455671218899, 1.0, -0.750055673715388, 0.5939464343724145, -0.14693748999119635], "fitness": 92.04704041507837, "player_life": 76, "enemy_life": 0, "game_time": 258}
{"weights": [0.5131843391785769, -0.8109456404150812, 1.0, 1.0, 0.7258872943837477, -0.3218852578304553, -0.9069447150190528, 0.9378928069040172, 0.8245670813558572, -0.17390726683679314, -0.47329832488773615, -0.887559995514751, 0.4863865377180495, -0.6493351645993403, 0.22770489633092483, -0.7108434558777761, -0.4486764069611049, 0.22962872764452774, -0.08433107925494962, 0.9346269947502875, 0.06105771975341384, 0.5021437429603792, 0.2651656708996458, -0.2529499562010896, 0.31428444555415946, -0.20504366386534556, -0.2697721221879554, -0.8117903933799318, -0.442467180030216, -0.06680100741243594, 0.1195366829096606, -0.666381738752458, -0.47903516827518766, 0.45039740015865154, 0.2805642823109011, -1.0, 0.021321384878077776, -0.3822099131285751, -0.922889659077412, -0.05273943724171121, 0.2043555522219031, 0.29906108035749535, 0.5702297192733412, -0.10189146023068144, 0.4962685131249881, 0.44753279231033005, -0.21854478233533836, 0.938111263116796, -0.701300107915465, -0.008499848477852068, 0.7988115877686619, -0.013438848811783172, -0.361620530991851, 0.9057717064793915, -0.41488981131570046, 0.28440895294012414, 0.21406050473180163, 0.8492466156456197, -0.30398835860493034, 0.3260174967841825, 0.47700236513957256, -0.027907809703236752, -0.859137636164397, -0.9067219238137388, -0.1803729552349772, -0.6265196046436828, 0.44484003035724407, -0.42302716103536087, -0.7692312654622238, -0.4218335523843102, 0.38516856359552143, 1.0, -0.8724640478863197, 0.6718142604306958, -0.541862686025437, -0.8693095173202444, -0.04671201900107891, 0.8232104719080936, 0.10138972887770265, 0.5556133679090307, -0.03806800123375992, 0.017841947515668977, -0.10315229058823083, 0.8930360359050122, -0.5336610640620365, 0.2934985476470242, -0.8016138776142134, 0.8775956325884146, 0.15455004486355434, -0.8365584301248954, -0.7512213694150321, 0.3859920726870285, -0.5649629633864174, -0.5019698202113244, -0.01958403041838208, 0.549515515196036, 0.31532411618568035, 0.6833579715448681, -0.18253240037581275, 0.23327222837594278, 1.0, 0.3914741195175846, 0.48103755847226215, 0.9888934800496436, 0.27092295868732486, -0.8596451754803252, 0.6221183318951194, 0.5451614522663475, -0.6124646844434741, -0.8755196947557196, 0.5237641983466759, -0.35398049561703815, 0.8761907140170336, -0.41557260572683874, 0.1297508984238657, -0.16549666465855434, -0.4315375638240245, -1.0, -0.6880876982684488, 1.0, -0.033612125814552224, 0.07499228511064843, 1.0, 0.889898920249202, -0.014140077006248933, 1.0, -0.4255418766616945, -0.6649247369857443, 0.6561698737246013, 0.5248685460991025, -0.6322001696941527, -0.6839416538147529, -0.07994058215341845, 0.7291868106677514, -0.15667599127845144, 0.7266699674599965, 0.8850523815942306, -0.8530497911341385, 0.386564851258266, -0.719348112182609, -0.003050764346197443, -0.8219660286133542, 0.30601494793240747, -0.2262981798248679, -0.24637903316020693, 0.9452114082035896, -0.6138245057694292, -0.30334536823915537, 0.7036145564214276, -0.23580911055118312, -1.0, -0.6973630201175421, -0.7199126586243504, -0.35481299820147916, -0.7493211299674845, -0.7956312398221985, 0.5363858641311987, -0.31566030245406235, -0.6972543965417013, -0.7694251418426558, -0.539296956758889, -0.7704094806584998, -0.29088695248043556, -0.15321503640993042, 0.5205607267953367, 0.33088326437496696, -0.42700228051514644, 0.24201958306166774, -0.6189027168658511, 0.8732709865684031, 0.48355704097500046, -0.4366989695411011, 0.054727886767322986, -0.468171445375586, -1.0, -0.3625315221045533, 0.6473665936468621, 0.16587464369141636, -0.44040131080757433, -0.9976118633018277, -0.3823902743838882, 0.8014451036491028, -0.07874305069832083, -0.13608993871202493, -0.6434694251737467, -0.23584388395764022, -0.17862808065385158, -0.05320443779568451, 0.9749317608901672, 0.37802878822364366, -0.9108064977794721, 0.24740672655858426, -0.6939937276527057, -1.0, 0.22037934844762405, 0.3771359794330461, 0.6268319421951061, -0.24302779977869232, -0.8803173668224646, 0.8697301015649155, 0.14166749703751313, -0.8694247694900973, 1.0, -0.26559353896520754, -0.3562061807668724, 0.34645372536093, -0.16598524612944143, -0.27244927443441685, 1.0, -0.26169934088879265, -0.9954362741420779, 0.28875370012356827, 0.2360579645051518, 0.07071489215682053, 0.6560555284232945, -0.42509643569689615, -0.11452003711425299, 0.7315146533819603, -0.7571709609354924, 0.34222456178449323, -0.4997883624490544, -1.0, 0.2714021731325553, 0.7001564943886961, -0.38714061600616023, -1.0, -0.884429986287919, 0.2147535796085127, 0.8992797098956767, 0.7964948409155369, -0.0493332477593067, -0.26243206829732346, 0.9262764652811857, 0.7280644561318563, -0.8403672216730405, 0.18555198982581747, -0.6751549225237209, 0.27418814930169977, 0.6363653013108124, -0.2203533203199604, 0.010964395324060683, -0.7742676833597499, -0.4977425383278805, -1.0, -0.017569862902721806, -0.4186901900439924, -0.23114526162155546, 0.0964186447331912, -0.7302125177375262, 1.0, 0.5231113423121398, -0.4325174338814899, 0.32829593458287576, 0.057308260237247055, 0.016154117375153182, -0.4103704606574732, -0.6675499484145442, -0.5963412126386669, 0.23932564149503688, 0.14397531058115776, 0.4193822093310399, 1.0, -0.593186782680209, 0.5939464343724145, 0.025619124936334947], "fitness": 91.77237888630937, "player_life": 74, "enemy_life": 0, "game_time": 278}
{"weights": [0.8375275476576224, 0.7914296994605782, 0.04997303568917895, 0.6830579852885723, 0.8505262103072557, -0.25813373772749404, 0.6759083999429655, 0.7927618823901179, -1.0, -0.01454036081138571, -0.4671947939140344, -0.5123556527714216, 0.6292328154400945, -0.5141693797972885, 0.2477480651536818, 0.7719465107715096, -0.49263957654543267, 0.4528582303629364, 0.16912393086412383, 0.9031181295350142, 0.20499465358604002, 0.00544282051612921, 0.1671654135675287, -0.2529499562010896, 0.16267365281583057, -0.13021637623590884, -0.2317698374321745, -0.4188982338054418, -0.442467180030216, 0.12151769182305677, -0.3775694576262024, -0.7355469489153272, -0.19728652693254262, 0.39928602603035795, 0.5826642029715237, -0.9510298247028551, -0.44971390827311813, -0.4995409437436045, -0.7286838486402696, 0.5013547746509273, 1.0, 0.4973416868954246, 0.8400557455010247, -0.10189146023068144, 0.29470180963855647, 0.3093485897210009, 0.597911014379097, -0.28939841742455713, -0.8028408692096212, 0.08545114520070946, 0.9799013717174566, 0.9584084702591806, -0.49695645102386565, -0.2927370874796921, -0.6524883406969183, 0.4311581888938113, -0.0021527196770703694, 0.9922272843606281, -0.30398835860493034, 0.20436527787761366, 0.22412362084161438, -0.027907809703236752, 0.849162048920687, -0.6132081888666985, -0.1854029963560223, -0.9026851175832873, 0.5526306344794844, -0.5906446521956615, -0.6018645124879729, -0.4218335523843102, -0.4461141128483668, 1.0, -0.686177071130684, 0.4910191467181459, -0.541862686025437, -0.8693095173202444, 0.08263489453961692, 0.6590321690426424, -0.0543186479393237, -0.3905981666917297, -0.18559458151041403, 0.20884055324150125, -0.14461950783390012, 0.6060825190358204, -0.31092796745079154, 0.25303393808208613, 0.3706616169073732, 1.0, 0.10271845347070765, -0.6796017307364663, -0.7385362471474706, 0.18446282416851073, -0.8726465365067586, -0.5019698202113244, -0.05651485990595581, 0.36717478192376973, -0.21169350425273953, 0.72837517843648, 0.20093408938322363, 0.3377993312285126, 0.9390425443903002, 0.2312157704951613, 0.4162691384721142, 0.940875863783679, 0.2725008794382314, -0.2572859176717807, 0.03241446739435466, 0.9636159009732217, -0.9692577426037791, -0.6546635666928295, 0.4671716934278604, -0.17700678728323127, 0.6470289468820362, -0.6738889478076762, -0.5800854495062032, -0.16549666465855434, -0.7435058867090865, -0.025388663754520424, -0.8130548407320795, 0.9067632614891262, 0.1474028056289034, 0.4446748508664195, 0.989930873775786, 0.889898920249202, -0.014140077006248933, 1.0, 0.7810777367355732, -1.0, 0.39716371783919086, 0.4425883179621841, -0.895281139936372, -0.413444461755663, 0.1650709410410652, -0.009036802304488306, -0.22421723274432115, 0.8956515965840093, 0.7175987486740254, -1.0, 0.386564851258266, 0.6721572858080769, -0.003050764346197443, -1.0, 0.6776457119285024, 0.24954850845916376, -0.44664091776949494, 0.5960984520795318, -0.7050761339636453, -0.22849307665203306, 0.7036145564214276, -0.7145090558754521, -0.9117890974256748, -0.6973630201175421, -0.7199126586243504, -0.6690637852317273, -0.7549978850283284, -0.9695514011591528, 0.5363858641311987, -0.31566030245406235, 0.6339943464108855, -0.43763406703247626, -0.5545045757000074, -0.9867574393835119, 0.5073228946017928, 0.03965060953518046, 0.48182428732412025, 0.33088326437496696, -0.5155705253802463, 0.24201958306166774, -0.43325318155718273, 0.7431936734493239, -0.7443546280832096, -0.3427220424639881, 0.3148740789471748, -0.468171445375586, 0.2040951138208879, -0.30585470201433296, 0.7278913915336398, 0.573994876357494, -0.3329184329745072, -0.9976118633018277, -0.2426404311508224, 0.8387048010121398, 0.07671536633413722, -0.07293464421582335, -0.4115743958830699, -0.7022172089687121, -0.5207735723398901, 0.3430335885135065, 0.7805122605911047, -0.5403156727655385, -0.739739182948913, 0.1901412439241522, 0.9674588573733495, -1.0, -0.18536455797696583, 0.3698912063572013, 0.24754481756340788, -0.8868312314759662, -0.8803173668224646, -0.49683648604481534, 0.14166749703751313, 0.1266688938351479, 1.0, 0.048426638196126914, -0.6205499470384521, -0.36733531727955515, -0.3905818955372833, -0.21631299101003282, 1.0, -0.19448237670967936, -0.3019453434482643, 0.5093824029187213, 0.21085839465044845, 0.3556409808986009, 0.19831543492762763, -0.42509643569689615, 0.0334410715217798, 0.7315146533819603, -0.9587962605007215, 0.754648700263929, -0.4997883624490544, -0.8855159370451471, 0.608300765750068, 0.5263099426265265, -0.38714061600616023, -0.990606583186593, -0.7910848029405688, 0.024229923918984847, 1.0, 0.7601322013443912, 0.08017975747802314, -0.42542640385908, 0.7664478587727919, 0.9749707705607782, -0.6084075414653298, 0.18555198982581747, -0.6885888358904503, 0.3241878122247936, 0.6113768160143792, -0.2203533203199604, -0.17169795069444088, -0.8660293649907029, -0.7702572253319917, -0.9076068717571832, -0.5327493783048532, -0.5814661583812348, 0.1569936434320685, 0.0964186447331912, -0.5000478576389322, 1.0, 0.2995369662598184, -0.4325174338814899, 0.5177095461944095, 0.7109418617539373, 0.3227789806854741, -0.4103704606574732, -0.9576823643899354, -0.5702852089073958, -0.3840117373132022, -0.08509940390003093, 0.5490455671218899, 1.0, -0.6613267686985507, 0.5939464343724145, -0.8763522391894553], "fitness": 91.77237888630937, "player_life": 74, "enemy_life": 0, "game_time": 278}
{"weights": [0.7961907865224415, 0.810653539148855, 0.27722207940475946, 0.8211880066468702, 0.894473265904425, -0.04006079777307228, -0.6645163127017264, 0.788208431830095, -1.0, -0.021875012246515058, -0.3582388152557915, -0.5742335012458639, 0.1931579800991876, -0.5141693797972885, 0.22347828604579498, 0.7719465107715096, -0.7828465091266407, -1.0, -0.9714389031009532, 0.8946815298396238, 0.08504985770918658, 0.1639654518254465, -1.0, -0.3517874088019415, 0.12003214472308477, -0.13021637623590884, -0.4818628137987217, -0.2255834362913225, -0.13300175521221985, 0.2520559653315037, 0.15841879478991805, -0.41676428314751623, -0.450201040141764, 0.2505274655853881, 0.5858482227266586, -0.8261850556757542, -0.07166962257052617, -0.5124383562683439, -0.7597589863833767, 0.019747726299189028, 0.08313925550964776, 0.19874396271674055, -0.5579719350549744, -0.039557567673572436, 0.41698680374186176, 0.46296143147612007, -0.04852694684729231, -0.5761661951369271, -0.848293927462171, -0.33943780109524435, 0.9397545021724756, 0.5876668207650162, -0.5436155891233192, 0.8719952433311039, -0.47066678123047645, -0.38656191119503935, 0.7082440165319442, 0.9692752192157776, -0.30928328056050125, 0.25574535105434903, 0.32616208705089983, 0.017672095445267752, -0.859137636164397, -0.6098608097531195, -0.1803729552349772, -0.5059837924522783, 0.37663713858526615, -0.4968892233537493, 0.570782165253409, -0.3301330106169623, -0.5318017508277809, 0.9413432438566551, -0.9546719759909486, 0.6120106820009888, -0.8934659470115904, 0.522284576052453, -0.04671201900107891, -0.8483644164364206, 0.7850099454298647, -0.49525906371131684, -0.2502717101446428, 0.2796289754058995, -0.5861907724153856, 0.5987861410263726, -0.5740728476017801, 0.21467579825060484, -0.7727964414100381, 0.334302575587232, 0.04562517151769355, -0.46662372384502826, -0.4931401220497223, 0.18446282416851073, 0.7768941889585107, -0.35133691021159175, 0.059927309096740544, -0.24166904578724874, 0.24997368652734436, -0.5849919183138185, -0.04531652216734683, 0.21150956533511633, -0.1516816953287769, 0.29644962756422616, 0.4213276469165947, 0.9136234278775619, 0.38046206895188905, -0.36389056706050577, 0.29782857664147155, 0.7641567611206819, -0.9692577426037791, -0.9494265814031886, 0.011859268053177496, 0.1025864885423837, 0.7311936476094254, 0.409142039984708, -0.024322805078749676, 0.934981836367733, -0.4517286454373538, -0.7505291931637265, -0.5558172446146707, 0.9152254164244618, 0.119147152935665, 0.0014770437986990487, 1.0, -0.33151445648069255, -0.08059188949710362, 0.9778875284281112, 0.7810777367355732, -0.6956384373920267, 0.9308355244318594, 0.6206500555378549, -0.7958885550615735, -0.36138807357672, 0.007948243918581704, -0.020026830985523658, -0.24260225536558522, 1.0, 0.8492181045072191, -1.0, 0.5361542213738574, -0.7138955769591034, -0.10807466333993487, -0.6731368370044231, 0.36989395216583754, -0.11862688200610236, -0.6762267488706323, -0.521428395986859, -0.6161059745814512, -0.4276030779408774, 0.8726414651349828, -0.7309047551138013, -1.0, 0.13177230209542057, -0.3705629627289527, -0.7924962218970866, -0.8613979192872145, -0.7956312398221985, 0.010412850880358981, -0.19224066708890852, 0.8865948289037907, -0.23849385546566676, -0.7522604740786856, -0.7704094806584998, 0.22929021636000335, 0.1771153639060162, 0.6558364670809222, -0.8336299107844016, -0.3658038051755415, 0.4286085494645225, -0.6188663333006027, -0.7082218121159798, 0.7376414813950145, 0.9455325247045427, 0.528931037723543, -0.24567979414580338, -1.0, -0.36572317679301924, 0.6386575927018963, 0.24004373976405927, 1.0, -0.8072820467927901, -0.006973672119733126, 0.8387048010121398, 0.3641855387757609, -0.2032719215844057, -0.746256352058102, -0.2559289653636181, 0.021816039198632536, -0.10317237138179619, 1.0, -0.17686885589487866, -0.6991882886453176, 0.23287192361545547, -0.4917247134129651, -0.7106884726999385, 0.876516360456538, 0.5210283016105541, 0.3857917800256694, -0.2195211157718049, -0.5139401720886145, 0.39781002922126674, 0.1905525101563583, -0.9805507218928073, -0.08368046894329048, 1.0, -0.5091243287127011, -0.19011299970505569, -0.2354213921018523, 0.16428332041377347, 0.8561857298534445, 0.007233397813757453, -0.07570053796581888, -0.4542712537705746, 0.32381156026694846, -0.1111996366520625, 0.6059203861870657, -0.20393647763701017, -0.08303302322211659, 0.9188352887859284, -0.5537777249232123, 0.3453347915518606, 0.708498479079679, -0.9678351151515932, 0.2714021731325553, 0.497243294540348, -0.38240020108015116, -0.6981374445218933, -0.48833830191511374, -0.21661272028743028, 0.712938008301573, 0.42839841276272234, -0.02319950162806539, -0.29187371570825993, 0.8899566459918684, 0.8494980284351799, -0.5959014132922046, 0.2117177547288329, -0.06846880951162698, 0.28233431517615387, 0.7339974823644523, 0.5122111236824235, -0.9008026578732091, -0.8395842621943927, -0.3253283961805926, -1.0, -0.2686677672519264, -0.42093499978799714, -0.006468618161628026, 0.0964186447331912, -0.43376695653769076, 0.8134847431992127, -0.6801538465336445, -0.6129192047050708, 0.38308953638447446, 0.7109418617539373, 0.29531369500901594, 0.60957967975434, 0.5653411406001, -0.18322612209094963, 0.009934981939072385, -0.06696518152501958, 0.39428373829581087, 1.0, -0.15730764870060626, 0.50166095951603, -0.23511510431849825], "fitness": 91.77237888630937, "player_life": 74, "enemy_life": 0, "game_time": 278}
{"weights": [0.5093225027450782, -0.7199409511967957, 0.22780702763852512, 1.0, 0.7168341621187964, -0.2512322243893853, 0.6099299828271731, 1.0, -1.0, -0.01454036081138571, 0.9435150976261868, -0.7899533584049598, 0.38582477221037415, -0.6493351645993403, 0.2863046499236025, -0.7446540451140695, -0.15119662947204293, -0.6631783874376094, -0.5860846555455432, -0.03281348994174349, 0.27301945181526843, -0.10001767939497655, 0.33422635867671957, -0.4310480716493022, 0.12003214472308477, -0.14273374182713777, -0.5416384642141645, -0.3750188543199102, -0.23443895682287313, 0.09503688421397799, -0.07100429521754659, -0.3627810986513831, -0.30759292417271294, 0.31586969651596697, 0.5700215013991347, -0.9510298247028551, 0.208431241036814, -0.5124383562683439, -0.8487170933583944, 0.3748233656547384, 0.3708643831743328, 0.20540078842604628, 1.0, -0.22227716316490348, 0.3768890816841987, 0.5063676029146806, 0.07639780433799165, 0.8199819189755155, -0.848293927462171, -0.008499848477852068, 0.9799013717174566, -0.15959492026010555, -0.6463948631994691, -0.05508525567618269, -0.3487689883550783, -0.022211179660232783, 0.7082440165319442, 0.989419906412611, -0.3234229210903323, -0.5059426430186204, 0.07869986352205827, 0.007861471430598219, -1.0, -0.815212051879382, 0.15643899277567302, -0.8557028815786942, -0.6568072031481004, -0.6677584087988158, -0.7041847448844963, -0.036219690411068484, 0.5351979637630565, -0.5362210556198754, -0.9546719759909486, 0.6120106820009888, -0.9038466940487411, 0.40867882998455035, -0.04671201900107891, 0.7925976365591836, 0.6186334614816811, 0.5723701261243471, -0.03806800123375992, 0.04883284411979552, -0.4963370830143333, 0.2990754794371878, -0.39549595493776074, 0.25303393808208613, -0.7727964414100381, 0.8223657615993274, 0.022657244067383786, -0.4567054145270283, -0.598275370175549, 0.18446282416851073, 0.8247405489142399, -0.3181751639392508, -0.05651485990595581, 0.3832037283765717, -0.1952863947884984, -0.5849919183138185, -0.03110909866414796, 0.2053567195961708, 0.6856187597092607, 0.3716281211105502, 0.5007475502167803, 0.9042707384873927, 0.49638760662240816, -0.8029583171324758, -0.25039895816358104, 0.7923850987986041, -0.6641313645776334, -0.49733809843449756, 0.6785035267976137, 0.02605936740880925, 0.8540117209760534, -0.3772055737917427, -0.35294337043243645, 0.019216999026015258, -0.4611110999101113, 0.49639927036299775, -0.5985966662640991, 0.9667576142618527, 0.09697781135239192, 0.4446748508664195, 0.9619300098695696, 0.21964005834895375, 0.14227731003016952, 0.5878364951761668, 0.975542072186001, -0.882626744274937, 0.6315238647606721, 0.4024563199468517, -0.5982728716693735, -0.5667456912385931, 0.3015627777465957, -0.17022711189238762, -0.07398104171154837, 1.0, 0.6166241543666844, -0.7649864312908163, 0.8095147392263131, -0.7286601259813253, -0.006647486175840239, -0.8217551512650838, 0.3339154913768112, 0.16848611150391063, -0.3418506690728841, 0.7708926319750314, -0.45094256121498805, -0.4443557814578955, 0.5592445611963621, -0.22840256974998557, -1.0, -0.16778579795569665, -0.6390348396247516, -0.7154029168872191, -0.808849699848039, 0.867551145450858, -0.5546533733356755, 0.5350120153990177, 1.0, -0.6277936500432723, -0.5782612256830624, -0.7470009171779802, 0.13781586410125604, 0.15918912507059135, 0.7432756369611642, -0.943152858684351, -0.22718108885780242, 0.10393874549967691, -0.43325318155718273, 0.6936671542685533, 0.8348413125726357, -0.3547808517557992, 0.09943745155192935, 0.2734328825151001, -0.8084771641916322, -0.5268900644272129, 0.5956158703997279, 1.0, 0.05093827558373676, -0.9901174085550573, -0.35426777545504445, 1.0, -0.07874305069832083, -0.03963004774470824, -0.07076289096423462, -0.5808789183411174, -0.012890594033853231, 0.5476167892509506, 0.9648016317133683, -0.36706279516562185, -0.6733404457602009, 0.8650961385092841, -0.625298279213613, -0.7271933250455487, 0.08178201811787589, 0.49387383334856705, 0.441663212692572, -0.13338476506577462, -0.8244154399469447, -0.47672919121572777, 0.07909547501048911, 0.10867637708908257, 0.8137331976325802, 0.7606915684032256, -0.5294667068062264, 0.11916301588527523, -0.5495438326794201, -0.29319250828101373, 0.8561857298534445, -0.13967740310421364, -1.0, 0.36299402566096084, 0.3022311890199964, -0.25401664892900944, 0.5533593009332589, -0.3226084574309209, -0.1899452276991598, 0.7408710318120634, -0.5537777249232123, 0.2934840619125138, 0.6248814554781967, 0.05554486084861848, 0.36631665730284163, 0.5263099426265265, -0.24342498543824387, -1.0, -0.7888680399557461, -0.06334302467481298, 0.7636556209156498, 0.5189152639393065, 0.23360105058057554, -0.13883862384559575, 0.508685584448349, 0.7809991453480201, -0.5299088235761491, 0.6979833651336446, 0.07707611838189363, 0.23751840452451212, 0.43086421625134763, 0.36659944694112817, -0.7147529498274823, -0.9148378866190363, -0.7493135592499058, 0.798408902786349, 0.15960066756975344, -0.4186901900439924, -0.2783240611323938, -0.07508226637983234, -0.5680500053735609, 0.9924917671310827, 0.705782731651301, -0.7605026655928987, 0.3329166746410503, 0.7109418617539373, 0.14895676571393707, 0.668933880223725, -0.9333784004386823, -0.5504285748510307, 0.2887045031602655, -0.06742876442320556, 0.34218736797424076, 0.8487014762239009, 0.0032820173710001455, 0.6337248776959505, -0.19133541969884466], "fitness": 91.77237888630937, "player_life": 74, "enemy_life": 0, "game_time": 278}
{"weights": [0.7166355077535813, -0.8642993356071855, 1.0, 0.804715380717232, 0.9898430784045154, 0.017998798955965428, -0.7420095706551616, 0.9378928069040172, -1.0, 0.041362387094039804, -0.2717658771697207, -0.6822038428212885, 0.1931579800991876, -0.5485424971497335, 0.1649922531148363, -0.6667913938251822, -0.4486764069611049, -0.5448525058021723, 0.1241693544048611, 0.9346269947502875, 0.4345454848832511, 0.15344692352291253, 0.06665491295964737, -0.5729945445824921, 0.8828728203097065, -0.20504366386534556, -0.5711061699641516, -0.5120884289701795, -0.049596215248695175, 0.35207257164376476, -0.12762282174629652, -0.07580684489959544, -0.7124159863798588, -0.07023002463752254, 0.5792047479681082, -1.0, 0.045840218594932425, -0.09059773391378506, -0.922889659077412, -0.05273943724171121, 0.2043555522219031, 0.09170529657587834, 1.0, -0.10189146023068144, 0.4520252933986768, 0.6237091806573247, 0.7183923022750202, 0.8811926450456832, -0.8523908323438751, -0.20692815272140624, 0.840367742699247, 1.0, -0.3370767532482801, 0.8435593452765915, -0.22639093251532294, 0.11704515198099602, 0.3638850795834758, 0.8492466156456197, -0.3253091040521715, -0.6334376888963498, 0.2060207861978447, 0.03445291757603518, 0.8322076669383371, -0.9067219238137388, -0.09305154788646047, -0.5342879920023837, 0.6454063890119671, -0.1452388359325842, -0.7692312654622238, -0.4218335523843102, 0.16297408797910898, 1.0, -0.8724640478863197, 0.6718142604306958, -0.6883212078967857, 0.6923210454124773, 0.05394663444156583, 0.8232104719080936, 0.44469781375320866, -0.43677003867185393, -0.15022431905497802, -0.138400297353254, 0.30046559525014677, 0.8287837920649119, -0.41421056464864753, 0.2934985476470242, -0.8196010006456681, 1.0, -0.03184418622105123, -0.6950508876486923, -0.7385362471474706, 0.6848585326266081, -0.6139475669427827, -0.31415121883256913, -0.022264849975889428, 0.549515515196036, 0.31532411618568035, -0.4640595157519598, 0.042388276397219773, 0.12401658844169575, 0.8397725162810585, 0.506981984834626, 0.6004147126027465, 0.9136234278775619, 0.21008602101014967, -0.7774581434608878, 0.35361127578091095, 0.8590273122490608, -1.0, -1.0, 0.8153102333607978, 0.10338707850646306, -0.4398343836869722, -0.44205268555572846, 0.28397634256899257, -0.2593567062651659, -0.29476768220250044, 0.326214999130114, -0.6868270403597018, 1.0, 0.24592022211055892, 0.31863991768619904, 0.958848759217992, -0.1259532961978478, 0.30970046809738727, -0.10958088953783852, 0.6451415124525636, -0.6952530811383371, 0.7717938476062727, 0.5159606172267851, -0.8822245623484276, -0.18445954221565847, 0.11192660522062921, 0.7291868106677514, -0.0643162652119042, 0.8956515965840093, 0.8850523815942306, -1.0, 0.7148513775936234, 0.8142692706896093, -0.8187942188552735, -0.8219660286133542, 0.18502886124244983, 0.06683791818455403, -0.24637903316020693, 0.9821235430622265, -0.5564968175044985, -0.4276030779408774, 0.9794561837218098, -0.7880048752831068, -1.0, 0.529461819637671, -0.6238662907957795, -0.785118572246996, -0.972725262335105, 0.30134159809998756, -0.5546533733356755, -0.014037736714832494, 0.8251665779419004, -0.23214126986541445, -0.5384991274594184, -0.7336090821804583, 0.648655935528945, 0.30232234612706227, 0.5389140916337893, -0.7797830598061584, -0.41477092310210073, 0.16388480558935534, -0.4930884653423201, 0.7148671998704078, -0.7597509404207982, 0.849720611771658, 0.07117970081374839, -0.2097317771408833, -1.0, -0.29776873385630864, 0.6393301232019748, 0.15250640889351336, 0.077507516993715, -0.9672853238933249, -0.15545630077035585, 0.9152001594139911, -0.18565496548245192, -0.0001177177031387866, -0.5055008998948534, -0.2822777226163619, -0.7775211082080035, 0.26475237397860074, 0.914836106483903, -0.44251353728246534, -0.9108064977794721, 0.8650961385092841, -0.5936808296837721, -0.8737656836876976, 0.08178201811787589, 0.19338398462944217, 0.6268319421951061, -0.10778923333132923, -0.6486844373934542, 0.9681803994950989, 0.1905525101563583, -0.8694247694900973, 1.0, 0.6468986778599184, -0.34351631877337613, -0.28734056017916443, -0.015234259528000504, -0.18582330319958804, 1.0, -0.10075387552244675, -0.2336356498256809, -0.2197815471837219, 0.45555173112510683, -0.05005192850635376, 0.5653130084261526, -0.24341659185997538, 0.153848851722995, 0.7221823277425528, -0.7571709609354924, 0.2564665061535801, 0.26815554238295686, -0.6874589261346422, 0.6489687005150432, 0.744705099168865, 0.26078872249541185, -1.0, -0.5738147612464101, -0.25288394101671297, 0.9232545629130562, 0.8652159895873341, -0.16028745023270918, -0.590510755790885, 0.7119326058212266, 0.9259983004506225, -0.756432335545707, 0.3011235278060984, -0.6852449985522295, 0.39031612983363656, 0.428069025950527, 0.36659944694112817, -0.6825316806306896, -0.7914544927959317, -0.6177636977879992, 0.8383484275047224, -0.017569862902721806, -0.6780856551824392, -0.2630040949300568, -0.2624157597723804, -0.33337280750388065, 0.6729637777310364, 0.3527123765927612, -0.24899243120327064, 0.32829593458287576, 0.7189925193468545, 0.3078721710637812, -0.13040997327243323, 0.6981446698010509, 0.03297449128502766, 0.38477587474241876, 0.2305521633317308, 0.4150399649303582, 0.8918293441754329, -0.6748520724313092, -0.46476599025115206, 0.2162848814791256], "fitness": 91.77237888630937, "player_life": 74, "enemy_life": 0, "game_time": 278}
{"weights": [0.8993752204787344, 0.810653539148855, 0.27722207940475946, 0.4744751502575294, 1.0, 0.017998798955965428, 0.6776547572971813, 0.9193869473432089, 0.8563932775517672, -0.021875012246515058, -0.40911538854071905, -0.5429305757180691, 0.1931579800991876, -0.6376254079956718, 0.22347828604579498, 0.7719465107715096, -0.6004449107317673, -1.0, -0.9714389031009532, 0.8946815298396238, 0.08504985770918658, -0.07392435555008683, -1.0, -0.21718882735510614, 0.1203094401620812, -0.13021637623590884, -0.4818628137987217, -0.28152410562947794, -0.13300175521221985, -0.08791691216527969, 0.15841879478991805, -0.41676428314751623, -0.450201040141764, 0.2505274655853881, 0.5858482227266586, -1.0, -0.07166962257052617, -0.5124383562683439, -0.649006949639365, -0.2662450616927829, 0.08313925550964776, 0.19874396271674055, 0.9693289706774436, 0.08850227029174554, 0.4838728258941117, 0.44753279231033005, -0.04852694684729231, -0.5776063954388718, 0.5592000254804711, -0.35002766748854747, 0.6277400831328026, -1.0, -0.5436155891233192, 1.0, -0.31667867450587595, -0.5054979904578675, 0.7082440165319442, 0.9796688061939491, -0.2600706706935726, -0.7040787542914073, 0.36909932245467714, 0.017672095445267752, -0.859137636164397, -0.6613551623621452, -0.04023839916344135, -0.5059837924522783, 0.763767929991549, -0.4968892233537493, 0.570782165253409, -0.4061348642114966, -0.5318017508277809, 0.9413432438566551, -0.8724640478863197, 0.6718142604306958, -0.8934659470115904, 0.522284576052453, 1.0, -0.8483644164364206, 0.7117226238495006, -0.49525906371131684, -0.2502717101446428, 0.2796289754058995, -0.5861907724153856, 0.30508479280501644, -0.38160275547011013, 0.21467579825060484, -0.7727964414100381, 0.334302575587232, 0.04562517151769355, -0.5142837683780936, -0.4931401220497223, 0.30834711184430585, 0.7768941889585107, -0.3339996527315013, 0.025477042888217477, 0.36916998464997863, 0.24997368652734436, -0.5849919183138185, -0.01055645066750853, -0.011129336095480558, -0.1516816953287769, 0.4838754167351168, 0.4149471553459777, 0.9136234278775619, 0.17143754233681802, -0.8029583171324758, 0.29782857664147155, 1.0, -0.9692577426037791, -0.9494265814031886, 0.2192928858097019, 0.1025864885423837, 0.3864423979116878, 0.2392392243686015, -0.024322805078749676, 0.934981836367733, -0.4517286454373538, -0.7505291931637265, -0.5558172446146707, 0.9152254164244618, -0.005410670553710112, 0.3517535626397636, 1.0, 0.10608292150463791, -0.1443760076527683, 0.38605731041329594, -0.1687537887278832, -0.6956384373920267, 0.9308355244318594, 0.6206500555378549, -0.6329526155379374, -0.36138807357672, 0.01241276081912937, -0.020026830985523658, -0.24260225536558522, 0.9382533550646704, 0.8492181045072191, -1.0, 0.5361542213738574, -0.7138955769591034, -0.003050764346197443, -0.6731368370044231, 0.36989395216583754, -0.11862688200610236, -0.46515681316964946, 0.6168684528708759, -0.6161059745814512, -0.4276030779408774, 0.8726414651349828, -0.7309047551138013, -1.0, 0.13177230209542057, -0.3705629627289527, -0.7924962218970866, -1.0, 0.6290208563900401, 0.42193724750549577, -0.15519117528616627, 0.735411508994614, -0.23849385546566676, -0.7522604740786856, -0.7704094806584998, 0.22929021636000335, 0.1771153639060162, 0.5073165324614933, -0.8336299107844016, -0.3658038051755415, 0.4286085494645225, -0.7993283304845783, -0.6044898265945594, 1.0, -0.4366989695411011, -0.11621694413707309, -0.468171445375586, -1.0, -0.4400383361862344, 0.6386575927018963, 0.10152995476638757, 1.0, -0.8072820467927901, -0.21270927161874506, 0.8387048010121398, 0.3641855387757609, -0.2032719215844057, -0.746256352058102, -0.746321635396518, -0.12618963149377696, -0.05320443779568451, 1.0, -0.08545940820936088, -0.6991882886453176, 0.5685786213058182, -0.8458937631937185, -0.7106884726999385, 0.08178201811787589, 0.20283667905834915, 0.3857917800256694, -0.2195211157718049, -0.5139401720886145, 0.39781002922126674, 0.1905525101563583, -0.8050279352312005, -0.08368046894329048, 0.5757023263158405, -0.3562061807668724, -0.19011299970505569, -0.19808705516188066, 0.31757363109817327, 0.8561857298534445, 0.007233397813757453, -0.2336356498256809, -0.48542957783310176, 0.36763562327254146, -0.1111996366520625, 0.5533593009332589, -0.24986655724138185, -0.08303302322211659, 0.7454893253902236, -0.45654161795774223, 0.3453347915518606, 0.708498479079679, -0.9678351151515932, 0.7353411157592461, 0.6369371563980737, -0.38240020108015116, -0.6725594221955988, -0.48833830191511374, -0.21661272028743028, 0.8992797098956767, 0.42839841276272234, -0.02319950162806539, -0.29187371570825993, 0.8899566459918684, 0.8494980284351799, -0.8403672216730405, 0.5733821632945986, -0.03416805755942626, 0.28233431517615387, 0.5337080334123079, 0.5122111236824235, -0.9008026578732091, -1.0, -0.5919130463033919, -1.0, -0.3045493974553574, -0.6018056834963685, -0.27716244762440134, 0.0964186447331912, -0.2863850515500407, 1.0, -0.6801538465336445, -0.6129192047050708, 0.38308953638447446, 0.7109418617539373, 0.3078721710637812, 0.60957967975434, 0.5653411406001, -0.18322612209094963, 0.009934981939072385, -0.06696518152501958, 0.39428373829581087, 1.0, 0.32323620044056006, -0.5262091007633563, -0.23511510431849825], "fitness": 91.77237888630937, "player_life": 74, "enemy_life": 0, "game_time": 278}
{"weights": [0.8375275476576224, 0.7914296994605782, 0.04997303568917895, 0.6830579852885723, 0.8505262103072557, -0.25813373772749404, 0.6759083999429655, 0.7927618823901179, -1.0, -0.01454036081138571, -0.4671947939140344, -0.5123556527714216, 0.6292328154400945, -0.5141693797972885, 0.2477480651536818, 0.7719465107715096, -0.49263957654543267, 0.4528582303629364, 0.16912393086412383, 0.9031181295350142, 0.20499465358604002, 0.00544282051612921, 0.1671654135675287, -0.2529499562010896, 0.16267365281583057, -0.13021637623590884, -0.2317698374321745, -0.4188982338054418, -0.442467180030216, 0.12151769182305677, -0.3775694576262024, -0.7355469489153272, -0.19728652693254262, 0.39928602603035795, 0.5826642029715237, -0.9510298247028551, -0.44971390827311813, -0.4995409437436045, -0.7286838486402696, 0.5013547746509273, 1.0, 0.4973416868954246, 0.8400557455010247, -0.10189146023068144, 0.29470180963855647, 0.3093485897210009, 0.597911014379097, -0.28939841742455713, -0.8028408692096212, 0.08545114520070946, 0.9799013717174566, 0.9584084702591806, -0.49695645102386565, -0.2927370874796921, -0.6524883406969183, 0.4311581888938113, -0.0021527196770703694, 0.9922272843606281, -0.30398835860493034, 0.20436527787761366, 0.22412362084161438, -0.027907809703236752, 0.849162048920687, -0.6132081888666985, -0.1854029963560223, -0.9026851175832873, 0.5526306344794844, -0.5906446521956615, -0.6018645124879729, -0.4218335523843102, -0.4461141128483668, 1.0, -0.686177071130684, 0.4910191467181459, -0.541862686025437, -0.8693095173202444, 0.08263489453961692, 0.6590321690426424, -0.0543186479393237, -0.3905981666917297, -0.18559458151041403, 0.20884055324150125, -0.14461950783390012, 0.6060825190358204, -0.31092796745079154, 0.25303393808208613, 0.3706616169073732, 1.0, 0.10271845347070765, -0.6796017307364663, -0.7385362471474706, 0.18446282416851073, -0.8726465365067586, -0.5019698202113244, -0.05651485990595581, 0.36717478192376973, -0.21169350425273953, 0.72837517843648, 0.20093408938322363, 0.3377993312285126, 0.9390425443903002, 0.2312157704951613, 0.4162691384721142, 0.940875863783679, 0.2725008794382314, -0.2572859176717807, 0.03241446739435466, 0.9636159009732217, -0.9692577426037791, -0.6546635666928295, 0.4671716934278604, -0.17700678728323127, 0.6470289468820362, -0.6738889478076762, -0.5800854495062032, -0.16549666465855434, -0.7435058867090865, -0.025388663754520424, -0.8130548407320795, 0.9067632614891262, 0.1474028056289034, 0.4446748508664195, 0.989930873775786, 0.889898920249202, -0.014140077006248933, 1.0, 0.7810777367355732, -1.0, 0.39716371783919086, 0.4425883179621841, -0.895281139936372, -0.413444461755663, 0.1650709410410652, -0.009036802304488306, -0.22421723274432115, 0.8956515965840093, 0.7175987486740254, -1.0, 0.386564851258266, 0.6721572858080769, -0.003050764346197443, -1.0, 0.6776457119285024, 0.24954850845916376, -0.44664091776949494, 0.5960984520795318, -0.7050761339636453, -0.22849307665203306, 0.7036145564214276, -0.7145090558754521, -0.9117890974256748, -0.6973630201175421, -0.7199126586243504, -0.6690637852317273, -0.7549978850283284, -0.9695514011591528, 0.5363858641311987, -0.31566030245406235, 0.6339943464108855, -0.43763406703247626, -0.5545045757000074, -0.9867574393835119, 0.5073228946017928, 0.03965060953518046, 0.48182428732412025, 0.33088326437496696, -0.5155705253802463, 0.24201958306166774, -0.43325318155718273, 0.7431936734493239, -0.7443546280832096, -0.3427220424639881, 0.3148740789471748, -0.468171445375586, 0.2040951138208879, -0.30585470201433296, 0.7278913915336398, 0.573994876357494, -0.3329184329745072, -0.9976118633018277, -0.2426404311508224, 0.8387048010121398, 0.07671536633413722, -0.07293464421582335, -0.4115743958830699, -0.7022172089687121, -0.5207735723398901, 0.3430335885135065, 0.7805122605911047, -0.5403156727655385, -0.739739182948913, 0.1901412439241522, 0.9674588573733495, -1.0, -0.18536455797696583, 0.3698912063572013, 0.24754481756340788, -0.8868312314759662, -0.8803173668224646, -0.49683648604481534, 0.14166749703751313, 0.1266688938351479, 1.0, 0.048426638196126914, -0.6205499470384521, -0.36733531727955515, -0.3905818955372833, -0.21631299101003282, 1.0, -0.19448237670967936, -0.3019453434482643, 0.5093824029187213, 0.21085839465044845, 0.3556409808986009, 0.19831543492762763, -0.42509643569689615, 0.0334410715217798, 0.7315146533819603, -0.9587962605007215, 0.754648700263929, -0.4997883624490544, -0.8855159370451471, 0.608300765750068, 0.5263099426265265, -0.38714061600616023, -0.990606583186593, -0.7910848029405688, 0.024229923918984847, 1.0, 0.7601322013443912, 0.08017975747802314, -0.42542640385908, 0.7664478587727919, 0.9749707705607782, -0.6084075414653298, 0.18555198982581747, -0.6885888358904503, 0.3241878122247936, 0.6113768160143792, -0.2203533203199604, -0.17169795069444088, -0.8660293649907029, -0.7702572253319917, -0.9076068717571832, -0.5327493783048532, -0.5814661583812348, 0.1569936434320685, 0.0964186447331912, -0.5000478576389322, 1.0, 0.2995369662598184, -0.4325174338814899, 0.5177095461944095, 0.7109418617539373, 0.3227789806854741, -0.4103704606574732, -0.9576823643899354, -0.5702852089073958, -0.3840117373132022, -0.08509940390003093, 0.5490455671218899, 1.0, -0.6613267686985507, 0.5939464343724145, -0.8763522391894553], "fitness": 91.77237888630937, "player_life": 74, "enemy_life": 0, "game_time": 278}
{"weights": [0.631846300511685, -0.7676018601936464, 0.09765711442133916, 0.8784838515754154, 1.0, -0.5724279560863142, -0.8526691011213933, 0.7949564240018807, 0.9759559443026666, 0.08261762085316295, -0.3582388152557915, -0.33776007317810874, 0.4042593230936198, -0.7595665592052487, 0.15602164666904722, -0.8526652328833142, -0.34798930171714815, -0.5262863855223167, -0.11137043602952237, 0.9268691699973993, 0.230224050532613, -0.22071902734942264, 0.03418428143125915, 0.15729069190928, 0.3837728889239102, -0.033844849980421504, -0.621463124834968, -0.573885266036684, -0.43385275500653125, 0.35657889345315436, -0.07100429521754659, -0.5741683972800158, -0.478244472219528, 0.024171035505933913, 0.4547357791830584, -1.0, -0.30563900448375037, -0.3639409606546146, -0.70502480811832, 0.1659898864349021, 0.3809878094520667, 0.04836395873256891, 0.9072081182602769, 0.428775892315791, 0.4335946656441702, 0.4411319183922614, -0.2343799893182934, -0.6225890800655756, 0.5609591294760652, -0.33943780109524435, 0.7223510286218005, 0.8923164575659998, -0.8978960590381958, 1.0, 0.3158522139610433, -0.022256207412092832, 0.4946099543056588, 0.9692752192157776, -0.9910388305087434, -0.7812086750096953, 0.5177829427002301, -0.12456701662778467, -0.7836596312873133, -0.7955917791570323, -0.34342159635031233, -0.7433544834235992, 0.6951407699370467, -0.004998914989779724, -0.7692312654622238, -0.13229116086482456, -0.7300563524263631, 0.9991944955691325, -0.686177071130684, -1.0, -0.9775331724868306, 0.316863431078551, -0.04671201900107891, 0.8290887240958832, 0.419968314518534, -0.45344601522418077, -0.24000007583358873, 0.20884055324150125, -0.3499656656835707, 0.6060825190358204, -0.3877272291494766, 0.09853246175445216, -0.927267255879647, 0.6515678134926487, 0.34894434161932886, -0.4389212131708589, -0.8027196714439262, -0.5900245115142306, 0.7386500551373218, -0.2790981907942744, -0.03116401801874169, 0.5052807743609411, -0.27009797241361894, 0.6858116031424519, 0.1580944783672727, -0.04209452967967095, 0.8013247378003693, 0.199845974444261, 0.36627632250800357, -0.38918979776544554, 0.6240425375253619, -0.745060049337977, 0.526469942578548, 0.9636159009732217, -0.9692577426037791, -1.0, 0.8023531711635237, 0.1971020433532892, 0.6470289468820362, -0.30934923162086514, 0.3731946963260693, 0.7069733248747295, -0.4611110999101113, -0.8114818520145313, -0.8066151951324726, 0.8013609442202287, 0.014171795870590906, 0.34179539171429996, 0.6213328150208676, 0.889898920249202, 0.30970046809738727, 0.5878364951761668, 0.7810777367355732, -0.9303143842584093, 0.6251839863986834, 0.6255395342263192, -0.8427779431359014, -0.83305877611197, 0.21458305500698358, 0.13336871189058117, -0.07398104171154837, 0.8442438552169509, 0.6589481898920695, -0.9517223705794284, 0.541669814056948, -0.6917750356099038, -0.8111212636661205, -0.45768729575533884, 0.2715828404631718, 0.12291125025562266, -0.4739649454526482, 0.4590379762248803, -0.47947712642382123, -0.3410949650848793, 0.8792713244327046, -1.0, -1.0, 0.25248299640533, -0.29956008995122363, -0.8615982477024909, -0.7493211299674845, -0.9002393174881491, -0.5546533733356755, 0.031976517407162786, 1.0, -0.21781292059122495, -0.48012291056423306, -0.7225945981177473, -0.20693548079926574, 0.18927899775922177, 0.48182428732412025, 0.6122722533461609, -0.36041505949121927, 0.49657416493784434, -0.6188663333006027, 0.8409287008872728, 0.610662401951509, 0.6933412968813715, 0.15723352816122918, 0.2924990444613747, 0.2040951138208879, -0.639176399329427, 0.6159022948488613, 0.23964979309029416, -0.37585749030634547, -0.5659891262844077, 0.058115053692093216, 0.9298972066858915, 0.16708720096030089, 0.1415111451037027, 0.1058490526619682, -0.2609386387544199, 0.6966926673719488, 0.46051300605808576, 0.8571416002371781, 0.4681590850229731, -0.8080814203905504, 0.47823029005417894, -0.8087053272846061, -0.19131048414000024, -0.013149950499865337, 0.5452657390878283, 0.7667957899611418, -0.1561413845434913, -0.671714499499458, -0.47672919121572777, 0.36936105791060486, -0.8050279352312005, 1.0, 0.023359467439731607, -0.34351631877337613, 0.05131839566744198, -0.17447598337237458, -0.36950585159622984, -0.8138625928667242, -0.19489095860264116, -0.43654276653924745, 0.1502920063625968, 0.21085839465044845, -0.03380430976066856, 0.5720926952405682, -0.3486983105390762, 0.11714041587817406, 0.8620822153717793, -0.7264223608758769, 0.8411335667629414, -0.4950605999513389, -0.7219074915749644, 0.3419347562260348, 0.5469953793596602, -0.26391170659125696, -0.6618946653364364, -0.7888680399557461, -0.2855718661865861, 0.9380422507899357, 1.0, -0.09824754323102042, -0.0219943298216507, 0.5679452492287617, 0.8707072129693827, -0.6548559609998066, 0.677467411629585, -0.6368894387510027, 0.29976515336531945, 0.6200158635217032, 0.26745839212022077, -0.4692422681206213, -0.9784899183263146, -0.7057523635750627, -0.9938024145403486, -0.40948652433530164, -0.45036632843694313, -0.3260312499373428, 0.15124612937782422, -0.4188347775399457, -0.166596360456108, -0.7334574981709562, -0.8156031447880716, 0.32829593458287576, 0.5332928569778947, 0.4536310571655529, -0.4103704606574732, 0.6983651319901105, -0.33215447300979883, 0.32161074802029493, 0.5785229232893092, 0.36281041593144653, 0.8090218163704018, -1.0, 0.5939464343724145, 0.10298887598898177], "fitness": 91.77237888630937, "player_life": 74, "enemy_life": 0, "game_time": 278}
{"weights": [0.631846300511685, -0.7676018601936464, 0.27400025804816125, 0.8784838515754154, 0.9010660726718596, -0.4318012017939133, -1.0, 0.667128371699538, 0.9759559443026666, 0.12387925381905052, -0.47329832488773615, -0.8676840434272483, 0.4042593230936198, -0.32335076658945827, 0.15602164666904722, -0.671005544019696, -0.34798930171714815, 0.6449405603922468, 0.17984041278621718, -0.03281348994174349, 0.25860355638566224, -0.18823223781837858, -0.6728634948192174, -0.2021193271767826, 0.10707496723148938, -0.20504366386534556, -0.621463124834968, -0.3750188543199102, -0.23443895682287313, 0.35657889345315436, 0.052335674104561095, -0.5741683972800158, -0.478244472219528, 0.2588853059180128, 0.4547357791830584, -0.7605300330436772, -0.30563900448375037, -0.35893941346264213, -0.70502480811832, 0.1659898864349021, 0.2043555522219031, 0.05728508845437187, 0.8272388624827249, 0.22688953942244924, 0.5350049795079983, 0.44753279231033005, -0.2343799893182934, -0.6225890800655756, 0.23028726695525803, -0.5197335444554785, 0.5873516738117999, 0.7634704592803807, -0.8978960590381958, 1.0, -0.22639093251532294, -0.022256207412092832, 0.4946099543056588, 0.9692752192157776, -0.8109791508734083, 0.41985106482959994, 0.5177829427002301, -0.12456701662778467, -0.7836596312873133, -0.6066560866964122, -0.34342159635031233, -0.7433544834235992, 0.6951407699370467, -0.018647415906673376, -0.7692312654622238, -0.5382606280354691, -0.7300563524263631, -0.8314835034507124, -1.0, 0.755715389473077, -0.813567871855939, 0.316863431078551, -0.04671201900107891, 0.8290887240958832, 0.419968314518534, -0.45344601522418077, -0.24000007583358873, -0.138400297353254, -0.4004832718800717, 0.30508479280501644, -0.07807596127797006, 0.09853246175445216, -0.927267255879647, 1.0, 0.34894434161932886, -0.4758704514048049, -0.8027196714439262, -0.775812187242374, 0.7386500551373218, -0.6649518321810244, -0.05651485990595581, 0.3389184910433, -0.27009797241361894, -0.677518435123394, 0.16182358048730597, -0.04209452967967095, 0.8013247378003693, 0.29644962756422616, -0.2862282453367335, 0.9136234278775619, 0.6240425375253619, -0.745060049337977, 0.526469942578548, 0.9636159009732217, -0.923071269345404, -0.6695741568991896, 0.8023531711635237, -0.528874342843659, 0.9183316362897128, -0.8339653672515479, -0.39932817616022703, -0.332676212217196, -0.4611110999101113, -0.7900191984145045, -0.6868270403597018, 0.8013609442202287, 0.24592022211055892, 0.26060661726279377, 0.6213328150208676, 0.889898920249202, 0.30970046809738727, 0.07580901271961528, 0.7810777367355732, -0.673709253213111, 0.5956890424443388, 0.6597569826329026, -1.0, -0.48664677392769856, 0.21458305500698358, -0.024332201150334493, -0.07398104171154837, 0.8442438552169509, 0.6589481898920695, -0.7649864312908163, 0.541669814056948, -0.6915325034586632, -0.003050764346197443, -0.7167898941866131, 0.4844070508873789, 0.12291125025562266, -0.47993902528497295, 0.4590379762248803, -0.47947712642382123, -0.24688916474653277, 0.820715620048215, -1.0, -1.0, 0.3677074186972574, -0.31499598243176896, -0.654607083989875, -0.7493211299674845, -0.7098653867224133, -0.5546533733356755, 0.014925396889265197, 0.9623707340776587, -0.1392408813144042, -0.31033687354737993, -0.7225945981177473, 0.6532836426342314, 0.018336777013629624, 0.6588457308359374, -1.0, -0.36041505949121927, 0.3798299263259928, -0.6188663333006027, -0.7376444890993992, 1.0, 0.9097684487631891, 0.054727886767322986, 0.2924990444613747, -0.8934053836669432, -0.33254505051260735, 0.6159022948488613, 0.18131466196767937, 1.0, -0.5659891262844077, -0.10772474900860948, 0.9298972066858915, 0.17179869839275388, -0.22277567701439907, -0.7835110931646685, -0.2609386387544199, -0.17862808065385158, 0.46051300605808576, 0.8571416002371781, 0.4681590850229731, -0.8080814203905504, 0.47823029005417894, -1.0, -0.19131048414000024, -0.013149950499865337, 0.5452657390878283, 0.7667957899611418, -0.37546688583778076, -0.5114109861313367, -0.4853396906440187, 0.2575384484788753, -0.9805507218928073, 0.9958068454321886, 1.0, -0.34351631877337613, 0.05131839566744198, 0.03443347292951962, -0.36950585159622984, -0.6414991827526262, -0.19489095860264116, -1.0, 0.1502920063625968, 0.21085839465044845, -0.25401664892900944, 0.6665382560130186, -0.48547275588373406, 0.11714041587817406, 0.8620822153717793, -0.7264223608758769, 1.0, -0.4950605999513389, -0.7219074915749644, 0.22316186579939706, 0.5469953793596602, -0.2322473391297034, -0.6618946653364364, -0.7888680399557461, 0.1087821261764329, 1.0, 1.0, -0.09824754323102042, -0.0219943298216507, 0.5679452492287617, 0.8707072129693827, -0.5085613582658681, 0.13443307474776117, -0.6368894387510027, 0.40144314300977024, 0.6200158635217032, 0.557077805635794, -0.4692422681206213, -1.0, -0.6326712959787777, -1.0, -0.38590662396926056, -0.7201849874043034, -0.3260312499373428, 0.15124612937782422, -0.4188347775399457, -0.166596360456108, 0.10974512431679176, -0.6297755626118655, 0.32829593458287576, 0.7550187053242194, 0.4536310571655529, -0.10000677455072754, 0.6983651319901105, -0.3986240134111659, 0.3402765207409162, 0.5785229232893092, 0.42540761391570164, 1.0, -1.0, -0.0704139311576531, 0.10298887598898177], "fitness": 91.77237888630937, "player_life": 74, "enemy_life": 0, "game_time": 278}
{"weights": [0.6787961773603056, -1.0, 0.25378487254440385, 0.9200198193421034, 1.0, -0.5688645209003373, -0.7359609830808956, 0.8163966801606426, 0.8814726225536592, 0.20995734758178258, 1.0, -0.5855792970976581, 0.1931579800991876, -0.6493351645993403, 0.1649922531148363, -0.7108434558777761, -0.4424382738057457, 0.509690318302974, 0.16912393086412383, 0.11286914838212872, 0.3502388458496139, 0.09739926910778751, 0.1671654135675287, -0.14518200784451762, 0.42746167656014644, 0.3041680348606849, -0.3755146535899852, -0.14095709569311565, -0.2016021127850793, 0.2520559653315037, 0.19862584140537087, -0.4079140974772309, -0.309995683822358, 0.2588853059180128, 0.7413910700166604, -0.5885075691736419, 0.021321384878077776, -0.22530289436729237, -0.8711858149765843, 0.009723850318511612, 1.0, 0.14353073225265434, 0.8400557455010247, -0.27776575779909213, 0.4743974507980424, 0.2902001754563184, 0.5002968537400811, 0.7319886203756132, 0.34963721091365985, -0.17747258171637836, 0.6001767324228003, 0.9080646671943058, -0.5448423925391327, 0.7909818921541099, -0.2744658865322968, 0.039715981631978675, 0.3045872193897731, 1.0, -0.8006586841462577, 0.32717427442620256, 0.4832951133615282, -0.09869315882713303, 0.9452874760852674, -0.4913768439061769, -0.34342159635031233, -0.5332329809236573, 0.5526306344794844, -0.5100542948265152, 0.5705875968930435, -0.40276563219167344, -0.49201695129052814, 0.9757071521883187, -1.0, 0.4910191467181459, -0.968404716655314, 0.5062208827919592, 0.03744160734849564, 0.8169978463011527, -0.22180172234585638, -0.4704864297674757, -0.03806800123375992, -0.22734142322057285, 0.1119133306026854, 0.43552695460354574, -0.31092796745079154, 0.2566026561607869, -0.7063030933560863, 1.0, 0.1662737932881164, -0.6796017307364663, -0.6699852626036915, 0.18446282416851073, 0.7386500551373218, -0.5974743847660395, -0.21610756879962062, -0.32638162116584657, 0.31532411618568035, 1.0, 0.20093408938322363, -0.001547885106176261, 0.946327035273595, 0.42363195376867574, 0.2853915903722214, 0.940875863783679, 0.2725008794382314, -0.2572859176717807, 0.21781998364763103, 0.604744788309054, -0.8308732340540887, -0.6695741568991896, 0.6803472777952118, -0.648589369641823, 0.5265704165094502, -0.6738889478076762, -0.5800854495062032, -0.332676212217196, -0.4611110999101113, -0.7505291931637265, -0.6868270403597018, 1.0, 0.119147152935665, 0.059058158589987336, 0.9131078674066577, 0.8917363513151566, 0.24195107241534777, 0.6191703674375978, 0.7974060722259384, -0.7600420912393457, 0.6561698737246013, 0.5856051211728551, -1.0, -0.3190136339860616, -0.1872912270484724, -0.020026830985523658, -0.22588768018068067, 0.7169003801586622, 0.7175987486740254, -0.7844337226770071, 0.5365150317306724, 0.44558660671558836, -0.10807466333993487, -0.8990778641923822, 0.10851221786194246, 0.055850298988183944, -0.24065000684947485, 0.7424024023376744, -0.7071532120912123, -0.4276030779408774, 1.0, -0.8768062148411759, -0.7375316577096104, -0.06477538233905136, -0.4302041769364356, -0.7379404123065377, 0.12748298252059567, -0.8952864209890357, 0.23939653415973083, 0.014925396889265197, 0.82992566189805, -0.20124727637149006, -0.5384991274594184, -0.6183935721659031, 0.41829620307335547, 0.22928271489109964, 0.32474476143282693, -0.8036241986197457, -0.5592849700923149, 0.08226837414732094, -0.32287681256334905, -0.6944687544403728, 0.8540918210492745, -0.3427220424639881, 0.09985186058168966, -0.5723963723888491, 0.10360760379452316, -0.6270771027942361, 0.6516620228339867, 0.040702866345529914, -0.42494612623565997, -0.9976118633018277, -0.2426404311508224, 0.9741447965347387, 0.08857840106496453, -0.07293464421582335, -0.24536633367803667, -0.5659446164340249, -0.06092005285729388, -0.04540028243246225, 0.8278987314640047, -0.25715197885395763, -1.0, 0.6711377805742683, -1.0, -0.8740456714484875, 0.08178201811787589, 0.37711682283824777, 0.1978142411779077, -0.6893637407471507, -0.7128767231930409, -0.7015271634980524, -0.039411415279283574, 0.3058141084574054, 0.7740853436556685, 0.07982648541945594, -0.4640154768564569, -0.09675667583327952, -0.2354213921018523, -0.6018968610388569, 0.8515319748144152, -0.2156195138641851, -1.0, 0.06668887617703623, 0.2602510101128891, -0.1111996366520625, 0.6059203861870657, -0.20771608505651, 0.14326521473270906, 0.8560569011940092, -0.6425341634911322, 0.754648700263929, -0.5890279239541019, -0.6412564039248203, 0.2781858564742393, 0.4162265267295879, 0.08475248151434417, -1.0, -0.5414862286298292, 0.024229923918984847, 1.0, 0.7601322013443912, -0.14807409370626307, -0.07478983549289919, 0.41589813097835804, 0.7286773140132232, -0.6084075414653298, -0.06154565993181055, -0.13647037751774221, 0.40144314300977024, 0.30785371052647786, 0.31415408841661163, -0.45315816701368283, -0.53595001367637, -0.7808871389091707, -0.9160486781927571, -0.40948652433530164, -0.7560900584311947, -0.08499650417625207, 0.4890162815609443, -0.5680500053735609, 0.9924917671310827, 0.2853817312661594, -0.6736741751482935, 0.7036742442044345, 0.4997489647993284, -0.6656639720385588, -0.4705523752482313, -0.8832219254197311, -0.3833529434901527, 0.3402765207409162, 0.5440390822065471, 0.5490455671218899, 1.0, -0.750055673715388, 0.5939464343724145, -0.14693748999119635], "fitness": 91.77237888630937, "player_life": 74, "enemy_life": 0, "game_time": 278}
{"weights": [0.3637869365205061, -0.5770578139783911, 1.0, 1.0, 1.0, 0.2219917125426714, 0.5140797909483107, 0.9744842152599464, 1.0, 0.08261762085316295, 0.9572296852061752, -0.33776007317810874, 0.3271799506549129, -0.7595665592052487, 0.2477480651536818, -0.8526652328833142, -0.4264542163042875, -0.5262863855223167, -1.0, 1.0, 0.173029686213111, 0.48673919135066046, 0.03418428143125915, -0.2021193271767826, 0.3837728889239102, -0.033844849980421504, -0.5782967390920769, -0.19658097382563777, -0.16963319156710827, 0.04772293647024481, -0.07100429521754659, -0.18631992212417914, -0.30759292417271294, 0.31586969651596697, 0.5841387240127094, -1.0, 0.29348703910776164, -0.4042996907518099, -0.8509909070227171, 0.009723850318511612, 0.9986432285609327, 0.04836395873256891, 0.7529625147222592, 0.1493202789843141, 0.4335946656441702, 0.4411319183922614, -0.31220655381125634, -0.3201995663275637, 0.5592000254804711, -0.33943780109524435, 0.7223510286218005, 0.16291556122739795, -0.5448423925391327, 0.9823685025966056, 0.3158522139610433, -0.02626640321761199, 0.9440435875314053, 0.8492466156456197, -0.8006586841462577, -0.7133966555362677, 0.3488242955503576, 0.26039414307019515, -0.859137636164397, -0.972557407567254, 0.15643899277567302, -0.9490346115738233, -0.6568072031481004, -0.31329292419851834, 0.4001540146413586, -0.13229116086482456, -0.5318017508277809, -0.5823578425290217, -0.686177071130684, 0.27849637113853665, -0.9128247218645977, 0.4367225496797832, -0.04671201900107891, 0.8887591541091671, 0.24981629133675803, -0.43677003867185393, -0.03806800123375992, 0.20884055324150125, -0.3499656656835707, 0.6060825190358204, -0.16167723506236154, 0.02470689823902951, -0.7032734202346851, 0.7635785482445061, -0.028337900228685778, -0.4389212131708589, -0.4890122440697838, -0.47345613900030015, -0.3523872040851325, -0.2790981907942744, -0.3319108399772921, 0.7427710695343424, -0.4211519422419031, 1.0, 0.1580944783672727, -0.04209452967967095, 0.9401419889783886, 0.347289437495917, 0.36627632250800357, 0.7837192794542223, 0.613258566793931, -0.559834505051745, 0.35361127578091095, 0.9270356674961093, -0.9692577426037791, -0.9494265814031886, 0.7952507220803435, -0.4964385375961161, 0.6470289468820362, -0.30934923162086514, 0.3731946963260693, 0.7069733248747295, -0.665497651030593, -0.9125187448051496, -0.738210557326965, 1.0, 0.3720776776294908, 0.34179539171429996, 0.8395836632851513, 0.7462678268807056, -0.2628481643726212, 0.6276132491990611, 0.7810777367355732, -0.7523138459953215, 0.2741147214033776, 0.6122713710511835, -1.0, -0.83305877611197, 0.0635594080426449, 0.6539088393383687, -0.28862002820307553, 1.0, 0.7741662692860416, -0.7649864312908163, 0.732997800674897, 0.7281834952634907, -0.6563386065499057, -0.39782580986103505, 0.2715828404631718, 0.5858084288737524, -0.4062954290391393, 0.8328850726313202, -0.5029465265637421, -0.2902841248397951, 0.8726414651349828, -0.8464200207119676, -1.0, -0.2549673273394998, -0.38703455295304506, -0.8615982477024909, -0.9690277065671173, 0.9714507786051755, 0.3719598694006518, 0.031976517407162786, 0.5943452064839996, -0.4554586224014788, -0.5515531839645126, -0.7704094806584998, -0.16357822173629621, 0.18927899775922177, 0.5409720166814385, -0.8333494313143426, -0.40742658947462373, 0.49657416493784434, -0.4458638239987017, 0.8409287008872728, 0.610662401951509, 0.6933412968813715, 0.15723352816122918, -0.2708037393163507, 0.2040951138208879, -0.5616711403544676, 0.5605179918828564, 0.49277228059391576, -0.37585749030634547, -0.9976118633018277, 0.058115053692093216, 1.0, 0.0025852050981135244, -0.14003435699898384, 0.1058490526619682, -0.40683206942091066, 0.6966926673719488, -0.020194089735863507, 0.8058671811033965, -0.7058308931353723, -0.6661968853090189, 0.07737879899523295, -0.8087053272846061, -0.8740456714484875, 0.1106044152142675, 0.8332245849775475, -0.223987594090051, -0.40600872285647227, -0.5787512861529962, -0.47672919121572777, 0.10887199080899737, -0.8050279352312005, 1.0, 0.023359467439731607, -0.20538130400913862, 0.15208208680979854, -0.5495438326794201, -0.01330059111910889, 1.0, -0.33362888859801226, -0.43654276653924745, -0.10336019785409328, 0.32381156026694846, -0.03380430976066856, 0.5533593009332589, -0.3486983105390762, -0.1899452276991598, 0.8131083914950095, -0.0633152133026732, 0.8411335667629414, -0.47046414412382065, -1.0, 0.3419347562260348, 0.4720208035240927, -0.07991318192533081, -1.0, -0.5506096557387634, -0.20460073160173176, 1.0, 0.7710955961857797, -0.14807409370626307, -0.7060348187702252, 0.7235270006460837, 0.9078354126474338, -0.6548559609998066, 0.15296229570327496, 1.0, 0.2870621523511783, 0.5337080334123079, 0.26745839212022077, -0.054009773061916455, -0.3441308847711078, -0.7131616851522622, -0.5284343121424362, -0.40948652433530164, -0.45036632843694313, -0.14821924529488611, 0.30322084931048254, -0.5890809630464753, 0.7933726165080335, -0.7334574981709562, -0.6751280055263532, 0.14340371934731427, 0.5332928569778947, 0.3078721710637812, 0.7131844106998867, 0.6571366817123445, -0.33215447300979883, 0.11628257108468135, 0.4753318058506232, 0.36281041593144653, 0.8090218163704018, -0.8073993204188639, 0.5939464343724145, -0.03786964283484148], "fitness": 91.77237888630937, "player_life": 74, "enemy_life": 0, "game_time": 278}
{"weights": [0.5178589321261213, -0.8496590830620812, 1.0, 0.4276179940771375, -1.0, -0.19682761187112294, 0.7737407672285155, 0.9885541020625206, 0.6918705808147582, 0.050350215780326224, -0.2717658771697207, -0.9986806604316391, 0.12872270189286328, -0.6849593885252792, 0.061458283564519045, -0.7108434558777761, -0.7828465091266407, 0.5560303224941112, -1.0, 1.0, 0.7143240263000722, -0.004721074331030473, -0.017309903938015986, -0.0030870486270508646, -0.007868339283858439, -0.34827759881561754, -0.5317113415676678, -0.7962407542002835, -0.6454379310150802, 0.14162511251087792, -0.38230535642372343, -0.2722125314441119, -0.478244472219528, 0.3736849339493841, 0.6467924994145237, -0.8558546034816414, 0.29348703910776164, -0.35893941346264213, -0.9881091433124181, 0.29646826118405223, 0.2043555522219031, 0.1284184634413519, 0.8400557455010247, 0.22688953942244924, 0.5350049795079983, 0.45198036908440764, 0.04439124119765109, -0.3955618885946493, -1.0, 0.022762914279947033, 0.7050733891025143, 0.8746528453015634, -0.3370767532482801, 0.8750007879803385, -0.330806925661204, 0.11704515198099602, -0.03740938831087692, 0.8492466156456197, -0.48418465319046, 0.21692975218249888, 0.6424076937719956, -0.9648969263302181, 0.9823432996817489, -0.7151833279899966, -0.1803729552349772, -0.9169919596706877, 0.32049843683894097, -0.43330616940991945, -0.7692312654622238, -0.3356132190043514, 0.5351979637630565, 0.9221570811499684, -0.8724640478863197, -1.0, -1.0, 0.40867882998455035, 0.17680114547562595, -0.6836114032348188, 0.7788547689884656, -0.45344601522418077, -0.006430552738704826, -0.28755522068526185, -0.31524832552392773, 0.8343394951187721, -0.5740728476017801, -0.1850777538522449, -0.7727964414100381, 0.4092334031784337, 0.10271845347070765, -0.7610207000756783, -0.5997670418435629, -0.6294813438548776, 0.6838885541765488, -0.24099888841215625, -0.032036727076952515, 0.29344087471376734, -0.27009797241361894, 0.8017160905663956, -0.26176380019203227, 0.398794298146373, 0.196777957608649, 0.5068299279578448, 0.2853915903722214, 0.940875863783679, 0.09190982508085538, -0.4927810593669504, -0.16737039860685854, 0.6528801960240136, -0.9574365829295141, -1.0, 0.3983512355448297, 0.16758898952170495, 0.7311936476094254, -0.3494086441129102, -0.16867549963549427, -0.3253809250187442, -0.5642494479808983, -0.7505291931637265, -0.6868270403597018, 0.8013609442202287, 0.06228116774645076, 0.1888207494882239, 0.8674597161506128, 0.21478516248251422, 0.14118585757420918, 0.5276638624771411, -0.4255418766616945, -0.7187177631581247, 1.0, 0.6597569826329026, -0.8334006899275022, -0.843601521324534, 0.1583776680213848, 0.1477673239272727, -0.07398104171154837, 0.8515515509713095, 0.4663502536120173, -0.9816858204500536, 0.5365150317306724, -0.4778774272905944, -0.6938167031507103, -0.5812565548318311, 0.19098902340849708, 0.3246165774461941, -0.09321641163648886, 0.8100628595159294, -0.6160494032354232, -0.17428517103271002, 0.7564152389922049, -0.897470260447157, -0.9010137827449318, -0.6950935954173194, -0.37111031449530635, -0.5478395871989981, 0.1272497044046758, -0.7844404126558507, 0.05697407970495105, -0.37949045168677925, 0.6936585595366556, -0.21781292059122495, -0.4076584624655662, -0.7115253424419389, 0.28014786240070244, 0.1349952033767176, 0.6179873253245716, -0.6052131492237007, -0.5419473155914554, 0.030400865528100104, -0.3046455971474107, 0.7431936734493239, -0.4192081630853116, 0.6933412968813715, 0.01637433967528501, -0.5502819240846564, -1.0, -0.5524217621527259, 0.7822788181105227, 0.040702866345529914, -0.32254608657192335, -0.8072820467927901, -0.1855269884464897, 1.0, 0.09002724150146221, -0.0079424244155811, -0.5641145089265993, -0.7022172089687121, 0.4889529913643602, 0.5662897109896314, 0.859975536664163, 0.37802878822364366, 0.3418354616269188, 1.0, 0.8712951669731748, -0.9686864234483681, 0.08178201811787589, 0.40835996038965117, -0.5295606397215098, -0.2742108495516241, -0.5909253378989219, -0.4661367633287159, 0.43002421184833656, -0.7876779843953554, 0.9605711704384594, 0.7778930300900009, -0.5966710913317596, -0.3066818721516644, 0.18611651338993082, -0.09495671062287378, 1.0, -0.5099657924744485, -0.34490952716671075, 0.11320563866674793, 0.5662227905874326, -0.28749508953490815, 0.5533593009332589, -0.35528025638255034, -0.1899452276991598, 0.9105530092228207, -0.5010033261154194, 0.2699924632073103, 0.708498479079679, -0.018626315733222237, 0.5542236778221343, 0.5058050232853221, -0.38240020108015116, -0.8649485790206072, -0.4044943339458579, -0.10942391149811775, 1.0, 0.8652159895873341, 0.060821244965097665, -0.7427210380699507, 0.5440591842308018, 0.7809991453480201, -0.6327066715068268, 0.10434905659839491, -0.6852449985522295, 0.2870621523511783, 0.42479695810170837, -0.1557838778844472, -0.20534068497130037, -0.7073762878692356, -0.30041856737129435, -0.988797853386043, 0.15960066756975344, -0.7831346302592423, -0.20729174210837578, 0.0964186447331912, -0.6102536275458958, 0.9160064110123309, -0.6801538465336445, -0.48323349193691684, 0.3467278619454338, 0.14913440441933434, 0.19217822916519442, -0.1762365473615098, 0.5653411406001, 0.901380239444479, -0.04617255842171586, 0.4753318058506232, 0.2217666436771198, 0.8719583790184391, -0.7472585861297638, -0.522500873903964, -0.18372135843745302], "fitness": 91.77237888630937, "player_life": 74, "enemy_life": 0, "game_time": 278}
{"weights": [0.43043933738282675, -0.2809106944867606, 1.0, 0.8784838515754154, 0.9010660726718596, -0.11287307021722146, 0.5900460660533329, 0.9378928069040172, -1.0, 0.07045701639585433, -0.4671947939140344, -0.7059464651379006, 0.38582477221037415, -0.7595665592052487, -0.29465876574564925, 0.7719465107715096, -0.6597689930708592, 0.26934775818611434, -0.08081175761605569, 0.7418938037813639, 0.7143240263000722, 0.06313319768527834, -0.9483237165445784, -0.016795171500756295, 0.20832417088677646, -0.23403027533208556, -0.4783324023310112, -0.6079727818397477, -0.06694325456254824, -0.04272167730967508, -0.4633577425079126, -0.5741683972800158, -0.6363571479985722, -0.425915082947654, 0.5700215013991347, -1.0, -0.07166962257052617, -0.35893941346264213, -0.44098446099040534, 0.009723850318511612, 0.2043555522219031, 0.09170529657587834, 0.8400557455010247, -0.3067421995122535, 0.4520252933986768, 0.4411319183922614, -0.29920481279950584, -0.426356275365474, -0.9355812390561684, -0.3278207732147675, 0.8377312992191286, -0.007056343046495911, -0.5448423925391327, 0.8523647942127778, -0.3418555128643841, -0.10558096587953, 0.8356787513604862, 0.6519278932872133, -0.5601202406131369, -0.5481483381265186, 0.4900133069783161, -0.10756811717244631, -1.0, -0.7139558480342316, -0.1803729552349772, -0.821466160826021, 0.47428921108723654, -0.454095353020993, -0.8952618554887055, -0.30160746678046557, -0.5318017508277809, -0.706826455502563, -0.7382909751652351, 0.5279094079973397, -0.6563234140412817, 0.59130068951517, -0.04671201900107891, 0.7548402874653404, 0.31569772067818525, -0.3649080736090418, -0.03806800123375992, 0.03284294654069425, 0.2570131474186381, 0.6503172216233983, -0.4683124762803764, -0.020641377699825908, -0.7727964414100381, 0.6805830388409553, 0.04562517151769355, -0.7111106867566214, -0.5997670418435629, 0.5401887831544249, -0.7934356096589751, -0.30835577155590177, -0.040744825735187756, 0.395695895528675, -0.1188542360989589, 0.6858116031424519, -0.0332679256527245, 0.12401658844169575, 1.0, 0.3716281211105502, 0.4213276469165947, -0.18453201536001063, 0.27028263483555526, -0.2572859176717807, 0.5180515836646875, 0.7446178189307588, -0.7301279452492819, -0.9494265814031886, 0.6486758710596567, 0.4318532125150981, 0.750958482040692, 0.5432461004530249, 0.25222567206245367, -0.12240940315870709, -0.6521720593210405, -0.5790853036637286, -0.9503064323122554, 0.8283578444424802, 0.1474028056289034, 0.3193020764818702, 1.0, -0.14020004867214517, 0.1270688817416355, 1.0, 0.6978684951992027, -0.6649247369857443, 0.9308355244318594, 0.5176975375157113, -0.543018106868222, -0.33682078853962516, 0.11845122645434425, -0.013448513473657941, -0.22588768018068067, 0.8956515965840093, 0.565233766123098, -0.8530497911341385, 0.823488385048196, -0.6502977124751532, -0.08046881187505617, -0.9612211687101814, 0.4931050721975915, 0.06683791818455403, -0.550413075128469, 0.8100628595159294, -0.5636655507622608, -0.14023717157637974, 0.808766921822609, -0.8464200207119676, -1.0, -0.06477538233905136, -0.549668628317421, -0.8420431918815168, -0.6771548241830795, 0.9714507786051755, 0.34015431099490456, -0.10956509627776428, 0.9196544098798142, 0.06564806388684752, -0.7522604740786856, -0.6036625342878013, 0.6129082273859943, 0.3016749909830316, 0.48182428732412025, 0.33088326437496696, -0.43579499249092146, 0.3593298205152191, -0.5393866874080029, 0.8511911259337985, -0.7597509404207982, 0.6760160729851067, -0.02660171470038815, -0.24567979414580338, -1.0, -0.5120964539905375, 0.1315242817698315, 0.7567794001750637, -0.30508588310149853, -0.5804190205871882, -0.02675270362655549, 1.0, 0.0025852050981135244, -0.3095096427305171, -0.2773130916145139, -0.6174615635037983, -0.04430383307625893, 0.3430335885135065, 0.8459055695649972, 0.4681590850229731, -0.729816335706925, 0.27616286305996185, 0.743016709777275, -0.6238320502201908, -0.05900685031993036, 0.40835996038965117, 0.7667957899611418, -0.054120868484387574, -0.7271008621895786, -0.34707554437106836, 0.12443245559904317, -0.9805507218928073, 0.7436825758260603, 0.8198279684416404, -0.5113399175840029, 0.16033640003325605, -0.2977914242600185, -0.11698177772529383, 1.0, -0.4963575628702147, -1.0, 0.4566595057364151, 0.45555173112510683, -0.11088368541179291, 0.5533593009332589, -0.48547275588373406, 0.409440226816266, 0.7674717332527324, -0.6425341634911322, 0.754648700263929, -0.5890279239541019, -1.0, 0.38697034350002335, 0.7601059876697931, -0.26391170659125696, -1.0, -0.9276897041605683, -0.20460073160173176, 1.0, 0.6745888529299209, -0.08999012261492828, -0.1661147961083131, 0.7406670449850719, 0.7054108205459033, -0.385083687557839, 0.15120982251974105, -0.16957570465529084, 0.2080032634797946, 0.6363653013108124, -0.548880887147611, -0.21347476582577746, -0.53595001367637, -0.5036241657891942, -0.9076068717571832, -0.2982284709584978, -0.8120019638682937, 0.040466177770851264, 0.0964186447331912, -0.527174070530539, -0.166596360456108, 0.2995369662598184, -0.29402224854434966, 0.48471181037719224, 0.696752007072198, -0.6656639720385588, -0.33906325584765246, -0.8832219254197311, -0.041039521683322255, 0.05217506274672987, 0.4514037893055145, 0.5490455671218899, 1.0, -0.593186782680209, -0.38989034817445345, -0.32336306425866823], "fitness": 91.77237888630937, "player_life": 74, "enemy_life": 0, "game_time": 278}
{"weights": [0.678667766345453, -0.8642993356071855, 0.0382692356335588, 1.0, 0.9203516454537195, -0.004437580199737418, 0.5140797909483107, 0.8896691184703286, 1.0, -0.13118678787890461, 1.0, -0.6988560096364951, 0.38582477221037415, -0.6868179679357992, 0.3754206912214249, -0.7446540451140695, -0.6094075647250434, -0.9381003796554075, -0.8874861885945715, -0.03281348994174349, 0.27301945181526843, -0.03116181951522856, 0.3933524887820553, -0.2078920221700917, 0.20832417088677646, -0.10641105715781157, -0.5506028546587153, -0.5610815595710337, -0.2575762706312905, -0.43068540149302065, 0.01651159224983434, -0.8664408245492574, -0.6632982753829406, 0.3137333460647927, 0.5369308894065143, -1.0, 0.208431241036814, -0.17524948882602903, -0.7647425226493249, 0.3748233656547384, 0.5529344247801634, 0.5156873626893521, -0.6953106711205266, 0.1881761142493406, 0.3596623968520507, 0.2672013789920503, -0.08409131402645348, -0.48373933371192657, -1.0, -0.4182533877145248, 1.0, 0.8102807417974505, -0.4480620220045672, -0.05508525567618269, 0.42707860617094107, -0.12759842357731088, 0.12101957675232197, 0.989419906412611, -1.0, 0.4388552348065299, -0.24240823050637536, -0.03910340627469025, -1.0, -0.838558140862429, -0.2733948656185506, -0.8302824551399914, 0.4754686210050565, -0.2241511239071659, 0.7644628124418082, -0.22046715708835157, 0.20167880494000842, -0.5443503385202382, -0.9856549788356188, 0.6120106820009888, -0.9293879778558596, 0.40867882998455035, -0.04671201900107891, 0.7924870754176412, -0.22180172234585638, -0.45344601522418077, -0.4967271367044022, 0.30749141384511874, -0.5832743100174117, 0.2846470315463708, -0.6982151877095973, 0.08422007476313208, -0.6256921213702862, 0.4928326136607619, -0.055014786783002215, -0.4057560294356107, -0.6841311083638879, -0.2644944369415646, 0.8862386331315002, -0.4735123895239722, -0.15073352189678332, 0.4176822488954528, -0.093856229312278, 0.9397512860695006, 0.3165479461579523, 0.2053567195961708, 0.16358158935333336, 0.28082409715993134, -0.2786310518023317, 0.8589158786126486, 0.4021015170273239, -0.7727331409972864, -0.25039895816358104, 0.7531388073389461, -0.8937341094277819, -1.0, 0.4876078872143943, -0.4857243223020743, 0.31286035389849143, -0.7597647712664961, 0.33373139803050167, 0.8042680857733246, -0.4475981144510577, 0.013799458288937527, -0.6233882346588233, 0.8520480722337915, 0.09697781135239192, 0.4446748508664195, 0.8461380496477532, 0.21964005834895375, 0.30970046809738727, 0.5411181115621159, 0.8847812435531391, -0.7875805128283027, 0.7857905459924966, 0.7004637485122928, -0.8427779431359014, -0.5667456912385931, -0.09141178878482684, 0.02942589380571345, -0.07398104171154837, 0.7332716581577453, 0.32443886533387256, -0.7649864312908163, 1.0, -0.5580285488136789, -0.8170326574817419, -0.8219660286133542, 0.3339154913768112, 0.09129775675960083, -0.5943757498479051, -0.521428395986859, -0.8200880525715846, -0.08257925074990224, 0.7590023596778466, -0.9511800616617978, -1.0, -0.4463156529198384, -0.15929039633584974, -0.35481299820147916, -0.808849699848039, 0.2587851332821768, -0.6009788364463349, -0.15468430877727837, 1.0, -0.11247907087937561, -0.48259863997913693, -0.7470009171779802, 0.13781586410125604, 0.1654676386874313, -0.017648157382722907, -0.8036241986197457, -0.22718108885780242, 0.24201958306166774, -0.43589303143263347, 0.9667994944100005, 0.6802282406928156, 0.5221387076509544, 0.12831283160411977, 0.05415464447320653, -0.8084771641916322, -0.41505534844777126, 0.5956158703997279, 0.3026277243372696, -0.3376090290976013, -0.8818319807175523, -0.2775154774042247, 0.33009237161724314, 0.1544734360504339, -0.07293464421582335, -0.25131328580884943, -0.5808789183411174, 0.07014214958163614, 0.5476167892509506, 1.0, 0.4681590850229731, -0.7671128700483831, 0.38933396439443285, -0.625298279213613, -0.5671682620302857, 0.9487979290063604, 0.6456306115530501, -0.08077254452296911, -0.40097904565951503, -0.5909253378989219, -0.34707554437106836, 0.6315750699879239, -0.035890639508932176, 0.9646218604402883, 0.17262803465980064, -0.08636827177628628, -0.19011299970505569, -0.626997501197397, -0.12651502706754758, 0.9496075611016741, -0.13967740310421364, -1.0, -0.2589700295417416, 0.3022311890199964, -0.20444073813253577, 0.46177336858608775, -0.3486983105390762, 0.1299089771736015, 0.5435218838673322, -0.5397282811420248, 0.2934840619125138, 0.5242540436273313, -0.868676609450552, 0.19617117456887237, 0.5263099426265265, -0.47213243243821257, -0.9870659658142259, -0.4044943339458579, -0.33655529275310264, 0.6804712514859619, 0.8652159895873341, 0.13053595436966728, -0.6302372580295993, 0.6760398213499135, 0.8574174457877138, -0.5759568605494264, 0.48341115846385213, -0.7613992670969705, 0.40144314300977024, 0.6304804988020347, 0.36659944694112817, -0.3393893861419386, -0.53595001367637, -1.0, -1.0, -0.2686677672519264, -0.9721382291203979, -0.20822783275156276, 0.2900791205481734, -0.7571702825871046, -0.166596360456108, 0.25771574919453355, 0.06880097117166334, 0.32829593458287576, 0.9039317733815095, 0.14895676571393707, 0.60957967975434, -1.0, -0.28236520506207563, 0.02494190847229985, -0.03903869030406282, 0.34218736797424076, 0.9497493229195555, -0.9669636637875763, 0.5488200385990732, 0.04950693301317652], "fitness": 12.216174817670263, "player_life": 0, "enemy_life": 80.0, "game_time": 320}
