{"weights": [-0.9963163194614326, -0.8667515695927992, -0.4294759055769525, -0.3486525667006132, -0.6706212956532687, -0.8165776302068936, 0.5780910458389023, 0.09533196944110162, -0.492212054509853, -0.16560309205123291, 0.8851573966863705, 0.661358698961314, -0.23056930684215282, 0.4745000052052539, -0.1842564589823861, -1.0, 0.551077136466838, -0.10040051239434628, -0.6273640729248338, -0.8143069347358467, -0.23515027373253844, 0.10934460062640422, 0.405003923387979, -0.20257295669673253, -0.5757889415869581, 0.1991589205450779, -0.3785097913829985, -0.04837892896321261, 0.5674023608911427, -0.7467377941582443, 0.8004200309274844, 0.07513827796825995, -0.23707155536264515, -0.490894491583387, 0.8556511198916095, 0.1826856370922377, -0.27308487238393553, 0.30068679476620336, -0.32350732893016576, -0.8386283357961932, -0.8859212758863615, -0.9200259219881552, -0.5751304384523099, -0.18305030458206728, -0.9448022296603131, -0.71553327872768, -0.7176648088732633, 0.3981397784506041, 0.438007775185419, 0.8087191715681524, -1.0, -0.8555883609378365, -0.028482976882724026, -0.8158780186582202, 0.008816365222372419, -0.737089760372394, -0.16426506546430553, 0.7156777517807116, 0.9368001826316052, -0.09058217773868499, -0.1374705285256785, -0.7860371477013286, -0.24443127370394035, 1.0, -0.5414839082974056, 0.7648035260534211, -0.08768591592333078, 0.8030853326383751, -0.6181154598153947, 1.0, -0.2298479407646179, -0.36678073527575644, 0.7975752104265734, -0.24724030541352837, 0.9116747853042408, 1.0, 0.29838196306489273, -0.792999201166426, 0.9858670574421711, -0.8411747590337302, -0.5488228978269358, -0.22931089732571158, -0.20590671340323927, 0.33136962470559234, 0.4793156098289116, -0.3557268058989545, -0.0942588483758636, -0.2698646222772546, 0.12135574302163694, 0.4249302878005363, -0.11085726371956925, -0.48152328336442385, -0.7883704574507061, 0.5792660341481028, -0.08250480570666296, 0.49924862837603257, -0.1072379255562203, 0.670337545880534, -0.746039975627055, -0.44011882729667534, -1.0, -0.4590880980255049, -0.6457452505045548, -0.6528513551356661, -0.6899592958801605, 0.9540501006042486, 1.0, 0.4846759659500401, 0.4153463066942433, -0.5847125166288508, 1.0, 0.8932790852652064, 0.45597875728436565, 0.31013096402632173, 0.6166678333624722, 0.584269215795286, 0.7193674257505511, 1.0, -0.1708483481393257, -0.3002359161509406, 0.354192638268356, 0.9712454452760406, -0.23785348581871057, -1.0, -1.0, -0.7569022961303711, 0.55045114033591, 0.32447387947442974, -0.8072659455345496, 0.5724436536681146, -0.6517393966752705, 0.6679805224981424, 0.25704639126253653, -0.5445506919350878, 0.5150966457968921, 1.0, -0.07623547770426914, -0.8038909741823952, 0.8660453563908568, 0.1530370808939559, 0.061697224677486284, -0.5939029406617942, 1.0, 0.4720814985896007, 0.7838801949985217, -0.4229447127180411, -0.8721589723560552, 0.34452048744169905, -0.15710057132936373, -0.8589031518366881, -0.8299348577031429, 0.6043405135744175, -0.5499819785195739, -0.9778807192435373, -0.7400291088361806, 0.7138013303341961, 0.08663387164554695, -0.6975567006433385, 0.08212925790333364, 0.9270027725274823, 0.5523387184314721, -0.04431366652310659, -0.6011712227758893, 0.24902833379189845, -0.8145412011093981, 0.8471123580388285, -0.041906182670126524, 0.28104387406548054, -0.10498654354856224, 0.8068391821671157, -0.16325357994810624, 0.23837526386759003, -0.41147968932831697, 0.20584216821515294, 0.7788460982342794, -0.040882905814614734, -0.595000526288855, -0.9996985335937913, 0.553174223256613, 0.5731604332264197, 0.19045914524785465, -1.0, -0.7658567666044297, -0.9139847002812729, 0.7408450257994342, 0.341188016885969, -0.4403865104551893, -0.16007168562810228, -0.8138532975491436, 0.04935179365123435, 0.15394893414809996, -0.8969220346057503, -0.26959313367832805, -0.5343837671370725, -0.6412999386229429, 0.1756950475648031, 0.36393472222036166, 0.6094607930905245, -0.04250427615890123, 0.385506247575943, 0.9463792416077245, 0.4960340294597366, 0.7070663844520926, -0.2807992049539561, 0.22924987303873937, 0.3662101615857012, 0.05206407708971736, 0.2334270035106716, -0.702654512279379, 0.05504333032088499, -0.20757850035564968, 0.05003827529370544, 0.8822406485409977, 0.1409746094201279, -0.7737538962458741, 0.3054359978946888, -0.05994855926315901, -0.14268962501806, -0.24879190917012434, -0.30050091255824996, 0.2547305249608654, 0.05060132771920192, -0.07164888012252088, -0.5403285252935531, 0.3448218575372736, 0.21020937612096707, -0.1672386102994221, 1.0, -0.6378217233863346, -0.4314094005296928, 0.4780333801299185, -0.29209260467656795, -0.8762860542558739, -0.9933152337290992, 0.7314324708584793, -0.07698618077368585, 0.7398657447745458, -0.5477838547551787, 0.6938610951503678, 1.0, -0.020877581553795876, -0.5679830928249276, 0.9935437268725049, 0.7245883737521299, -1.0, 0.9423632617105767, -0.7824091339235881, 1.0, 0.5903862508852005, -0.44348081109212456, 0.8079987907718993, -0.6277126830356037, 0.9273485730828663, 0.8370765890938161, -0.6890272542763152, -0.7694989569077116, 0.6911416216776181, 1.0, 0.07044372975515115, 0.8224300116962382, 0.7373435388288374, 0.6833851580846537, -0.4085307637182603, 0.8824455774611787, -0.5443395513190225], "fitness": 75.75297592783951, "player_life": 0, "enemy_life": 10.0, "game_time": 190}
{"weights": [-0.8092725104208227, -0.13284456412714904, -0.40703166363800547, -0.27256822186460494, 0.8756661444601792, -0.05204246091331699, -0.4604380312252999, 0.7924975389922772, -0.13227063808597542, -0.5887677961746738, -0.48412231379816745, -0.031109949968017636, -0.5714298210939639, 0.8317631935527591, 0.19547468680022817, -0.34728257258815415, -0.33299896203323043, -0.415737224013239, -0.7832834261685442, -0.38131440597320837, -0.1362591470891873, -0.6009661795716816, 0.8140186150039289, -0.15094899765563716, 0.7254380420817834, -1.0, -0.1887715289785847, 0.049824677366336334, 0.8635440123611171, -1.0, 1.0, -0.29018387355726116, -0.7529935934683384, 0.20770380883893524, 0.11237346840587761, 1.0, 0.7239007654791965, -0.8961686007762649, -0.6205281311618985, -0.26308873495172824, 0.6411003220811862, 0.24890874160341742, 0.5681195310291378, -0.8020415034171491, -0.7849253031026091, 0.2831533833801041, -0.8887603315168332, -0.18848858993939077, 0.12943786550054664, -0.3901566653435525, 0.4551472615796508, -0.5588852402012838, -0.18376426393087258, 0.7898350390934447, 0.2124615893868086, -0.04708058245669361, -0.1163314531635824, 0.7045173303111121, 0.7519395049104379, -0.9070509807332655, -0.21389657707401644, 0.4740855510432377, 0.4983731362200421, -0.19476523901904175, 0.9622515469759867, 0.601087104953796, 0.8357535129885957, -0.8649858613807582, -0.6812300755456362, 0.7413427869857695, -0.28441942674820314, -0.588780184121972, 0.4446677643149843, 0.8022610305918463, 0.845510446974918, 0.10359085883058367, -0.23533324693781288, -0.6722083454693966, 0.4217337503704723, -0.45411975758384304, -0.5383423633295707, 0.9839550624915674, -0.7444580634842797, -0.31035664803751273, 0.44519088899460296, -0.032348891243642125, -0.30005335579095765, 0.5023610026899413, 0.956459399477277, 0.526329001756501, 0.5949822157609179, -0.5698097846483797, -0.47997501954405974, 0.09036687776646452, -0.732569474432847, -0.8526333894631777, 0.21308701370562907, -0.6107684011616712, 0.04107854930818411, 0.07840032657905716, -0.8797957506668004, -0.29657592622228013, -0.7986855486343134, 0.48150584316410666, 0.2763829677745776, -0.738874780233274, -0.09820440495029306, -0.5919037042826754, -0.02790912086603531, 0.9680274945547471, 1.0, -0.8430936946721803, -0.29289536102303476, 0.6503995886055884, 0.942938419670306, 0.26419796505909454, 0.9732801571703532, -0.05667352982909368, 0.5800920830340807, -0.26339098592558985, -0.7441500173320001, 0.7229659977004137, 0.6734217829756813, -0.05863029072895762, 1.0, 0.17628188788965427, 0.6776612387636676, -0.7868489964418742, 0.2615501148539746, 0.9945046411928037, -0.4761755351540718, -0.5330719215631499, -0.4947067958041696, 0.3997314528253639, 0.9612382538150618, -0.9043415466684532, -0.888950791922619, -1.0, -0.4183355009989259, 1.0, 0.8271166702397486, -0.3783634710170922, 0.16049045837332288, 0.6856005449440595, -0.8730493739090166, 0.7057184321413223, 0.036944683758538155, 1.0, 0.8234290591749227, -0.6543387352865992, -0.4129703475340767, 0.4618340180872011, 0.9785453527417869, 0.13398382127088077, -0.4742644335150239, 0.9053576642056315, -0.24556222576174458, -1.0, -0.8533589097983452, 0.2658498475883516, -1.0, -0.6633366690948477, -0.0724514463870872, -0.9650101769435557, 0.4506936917519857, 0.2976225517436399, -0.10938932817235503, 0.6795663289598222, -0.6243234000353313, 0.8598028283044786, -0.7251865343550581, 0.7598572296747637, 0.4544267587845098, -0.40291185785561956, -0.09373350358715545, 0.9117761061776882, 0.9071857566932053, -0.6348431560899788, -0.18287450900605196, 1.0, -0.20668508614945802, -0.7754151977011241, 0.36173185689955367, 0.899905541633237, 0.04151754433709301, -0.8837612112849631, -0.16862371366437146, 0.9140908424104841, -0.09096669515518557, 1.0, 0.20043731195013004, 0.2637727574499654, -0.12592469690896763, -0.43184362944671006, -0.6603906580335623, -0.8008906676221974, -0.869781857773245, -0.395119523327753, -0.9511740894580979, 0.20643127537331574, 0.9315395677491326, -0.06242147498646186, -0.009984059984864235, 0.2600579582852821, 0.6818335307737049, 0.7595542065751152, -0.6804856949529596, -1.0, -0.6389613069815105, 1.0, -0.6483739835689729, -0.7054996888079844, 0.7528199219574014, 0.4529951417605889, -1.0, -0.8066239969590594, -0.07631782892052896, 0.06509203575355382, -0.8972351368499158, -0.21733984483844312, -0.3253336980094029, 0.6334498688102679, -0.006760843801965538, 1.0, -0.5109403405366086, -0.8556184817867463, 0.5067112586460267, 0.7873131015608836, -0.6351307535156712, 0.4745614237516426, -0.5036058740358961, -0.23250864350179523, 0.5720660673642404, 0.8939205286786093, 0.6047456185196829, 0.8544863308475854, -0.20037534602006568, -1.0, -0.7675740785312772, -0.029006450553113253, -0.5849975185472422, -0.9410864048708092, -0.4340981004749236, -0.011083954795776785, -0.388898210212003, -0.25514105724035885, -0.675502500672321, 1.0, -0.01929084417208035, -0.20251653286996907, 0.5356300954593203, -0.5376882921475804, 0.4627759071177603, -0.8155033315430499, -0.8309926809105419, -1.0, -0.40416354688503753, -0.6193210624927317, 0.19771536823641192, -0.9239214689014343, 0.3038041512220716, -0.07546941900405167, 0.830329116689425, 0.4009622293558415, -0.1878238019044423], "fitness": 66.16226955283406, "player_life": 0, "enemy_life": 20.0, "game_time": 343}
{"weights": [0.8443107980767601, -0.9957647765388847, 1.0, -0.9871915949347705, 0.14624863309358957, 0.3059780499714502, -0.2427193833699598, -0.8236335829958072, -0.15667775267022144, -0.6748340380669485, 0.6715032671057424, 0.2567434613828254, 0.4656094177624687, 0.46349039317296037, 0.5081341213136625, -0.16336875761804326, -0.9790550426843767, 0.8879207655512525, -0.9598164757791983, 0.6453279372309876, -0.030590758152032355, -0.6205797190786242, 0.762557404241229, -0.030797741886154056, -0.5048210959444287, 0.005771991048218128, -0.9043777926314001, -0.33730037760762, 0.4312208661091123, -0.4009636636598823, 0.4426723270166604, 0.3522794686304812, 0.920117233749643, 0.8487724465741271, 1.0, -0.1792245287225242, 0.7496222989975869, -0.747709717124681, 0.1258896811434714, -0.12376841944239109, 0.19167424828777738, 0.9999277346676124, 0.5567751009531006, -0.349846290366143, -0.13763052087102642, -0.5415596131866, -0.4093748269990965, 1.0, 0.7237029702833061, 0.15407278931063112, -0.3587527737282792, -0.6222309076595447, -0.1765244925273941, 0.673786254886207, -0.5829263031587442, 0.8778569015369982, -0.6443968338172241, -0.1285828228239138, 0.0029928664076795397, -0.378911485447171, -0.3382540700539563, 0.7653879202288141, -0.7588174478222337, 0.9179334409528382, 0.245398855228424, -0.1516661532601123, -0.165375951501192, -0.9750951905349704, 0.13120295308202767, 0.7664085948020081, 0.619693747573366, -0.9729805093845492, 0.058121453055996475, 0.7781090244331716, -0.337841905625428, 0.642851226996413, -0.6806150511401678, 0.2727616873325905, 0.5517924749045098, -1.0, 0.5902246785059049, 0.8043277614061368, -0.11256728747347844, 0.047131844406718026, -0.22358469999943809, -0.6611713209850072, 0.38325557864605203, 0.8642416068364819, 1.0, -1.0, -0.33662506316287333, 0.08914976702547456, -0.21245522762175806, -0.37868517686557907, 0.0542545748683079, 0.600788203373012, 0.9361515248698551, 1.0, -0.028548366762156746, 0.11266387695603142, -0.3442202292690512, -0.6084669943926647, 0.6719898042782892, 0.9377650492850736, -1.0, -0.2930762768596187, 0.061528127851740014, -0.30514204269417605, -0.14411574097447719, 0.4070341824763669, 0.834737276672362, -0.3529749526141089, -0.8209310611554359, -0.985396554664798, 1.0, -0.9106713010022549, -0.16871886752816728, -0.3189813416435779, -0.12284878988744863, -0.9512377762685508, -0.5577139922161692, 0.544679668743209, 0.8119440118767794, -0.4850328226750963, 0.8013612506588527, -0.1727698951273851, -0.39557527200449016, -0.7902291128672168, 0.23155528823610338, 0.814334582037626, -0.20724799169652397, 1.0, 0.7601349126531369, 0.710920012097642, -0.9210006516610463, -0.6813100176041378, -0.9418814909420725, -0.22251039098992104, 0.07843132199994948, 0.1477094950494947, 0.6417620499991767, 0.8570070665256027, 0.6316928610441492, 1.0, -0.6381716462488852, 0.8178473989924728, -0.7159687878052476, -0.4211166101625738, 0.21556709828391296, -0.4556561557287441, -0.8201803470990159, -0.5276915844236288, 0.8555476278519452, 0.3548234746378708, -0.2988591428552799, 0.6121506994294874, -1.0, 0.030037157724589703, 0.36529762980541314, -0.4214949799745932, 0.28507917595177956, 0.44747179994141195, 0.7506629920524155, 1.0, -0.8794208263350112, 0.8942571563390614, -0.41285375026549276, 0.5259551492110843, 0.8972489583033839, 0.016950445722861557, 0.48024811895642955, 1.0, -0.13796615269503415, -0.812594121321585, -0.3917870105418558, 0.24145812836109565, -0.6459399544475777, 0.6200659794519054, 0.03750882156518011, 0.628193577721277, -0.028916052002767118, 0.8790924182061177, 0.6917888425578798, -0.05296608491076754, 0.4597932395599506, 0.2201508217833154, -0.6589426845276615, -1.0, -1.0, 0.10149712071647188, 0.693022313492941, -0.3549587701842358, 0.5682622376658781, 0.3497076192224107, -0.2589891270348923, -0.8229504655727742, -0.6544796243853289, 0.26860948390531036, 0.7833616123957837, -0.020739404472303435, -1.0, 0.6267590921195054, -0.6353715189004869, -0.6069885817072911, -0.3574287838691466, -0.42204685494816374, -0.922926207987836, -0.08562449026431235, -0.3810684117634098, 0.37627438509390737, -0.38877734571701206, 0.7919310436030471, -0.17593868930756607, 0.7658933503558798, 0.8340134788602676, 0.39835157556574424, -0.32214035563553955, 0.6395271077164865, -0.6873674141389188, -0.6666057656472819, -0.7334765230777712, -0.8393854570770182, 0.13972893496593175, 0.7615063747764415, -0.33623258212106444, -0.683798237038786, 0.6159896334177059, 0.7915019773564012, -0.6893882481117568, -0.13598827669682279, -0.6650119528881363, -0.34960448801425614, -0.31757657682575485, 0.1387528268790451, -0.06421713672805951, 0.9684900950445934, 0.0785399810809039, -0.5938181796413795, -0.04679439560709803, 0.9252551768500807, 0.6063019154642784, 0.3594019213206462, 0.00888732803736561, -0.32990408779347324, -1.0, -0.9464035906328357, -0.679582273166279, 0.43552003320493876, -0.7981731909970688, -0.6021612516495083, 0.9517857131079204, 0.015728460884520845, -0.6347944366696547, 0.25302523727562604, -0.48643997995926896, -0.9684275690204464, -0.9318381315226354, 0.9643466033355257, -0.8031530712681403, 0.3526041853086015, 0.8512493765053619, -0.035543147779140694, 0.4572574103308466, -0.213983248146128, -1.0], "fitness": 57.19486503108351, "player_life": 0, "enemy_life": 80.0, "game_time": 447}
{"weights": [0.376744220804597, 0.47074353570213434, -0.49258583384653803, -0.6308464973042429, 0.09460235674475609, -0.8783055741098131, -0.5923629900858907, 0.8306015737545018, 1.0, 0.6506479569120109, 0.040174817639694854, 0.1842554574914811, -0.5484492838620441, -0.6886219129468469, -0.7844027874073415, -1.0, 0.758108519725559, -0.24275969694044766, -0.8494236378665952, 0.945910266655472, -0.5446669766988175, -0.6064575174377222, 0.44763616668517986, -0.5599810042795128, 0.11370259947671554, 0.5775937751083061, -0.32074216068701467, 0.6723269691309796, 0.01936145268153333, -0.4424818650801806, 0.851963954703575, 0.4456400328701106, 0.6545145748456118, 0.6547456456968691, 0.8185906150095587, 0.8910877310148505, -0.09343143558152733, -0.29208311820585675, 0.10211157096826443, -0.29073417811863783, -0.09417391506896305, 0.052412951055818086, 0.264631703625142, 0.755279483153195, 0.15482891655832617, 1.0, -1.0, 0.013573108966486891, 0.5621404938824416, 0.0518673334968793, 0.7253929880802759, -0.9865730283732893, -0.41509023761151786, 0.6988602315649282, -0.6772263270367669, -0.963597126730396, 0.03188066071628537, 0.0016564602786665328, 0.8389272283433854, -0.4547268194448896, -0.8080612047580396, 0.7022205599155036, -1.0, 0.37313160748208446, 0.3046422107286497, 0.1671902019410815, -0.877532490467428, -0.6095141263603071, -0.9408934906567993, 0.7933954319711862, 1.0, -0.8370203979764311, -0.5557339124232858, -0.9072020309602178, -0.556992005692494, -0.6660063649519007, -0.44929764764767255, 0.7691369175556532, 0.8832732340661459, -0.8477809949933235, -0.1625583807225984, 0.20665905030017181, -0.42229712633964434, -0.813131119735026, -0.1299471001649348, -0.3296508428270257, 0.28504881684444694, -0.9540770213066619, -0.4675038647364143, 0.45081209409873224, 0.12876839399597745, -0.29375385107121665, 0.5965711666238679, 0.5938840966853891, -0.6549650865535867, -0.9160968138624547, 0.47555291930308724, -0.6069257386449365, -0.6965370526508289, -0.6558578595239002, -0.17171147567287284, -0.5326767407818775, -0.7692227390499264, 0.04525833662942587, -0.8537764217451903, -0.5746502437751213, 0.041347394874360954, -0.42415006549689793, -0.06124932212543474, 0.7222476607981057, 0.07608935226157565, 1.0, 0.6812858601209103, -0.9040222601585799, 0.24519294217384746, 0.8726042067486808, -0.10741548862216993, 0.4361969235867501, -0.7647818729895139, 0.9944143586005927, 0.3311625566698688, 0.3945150403184066, 0.8982169340717623, -0.1683581135871644, 0.7231762783950884, -0.3391993812528884, -0.25524722559042473, 0.4167165604280545, -0.27413368575042363, -0.3237148526084983, 0.4721071203327533, -0.028494720959591352, 1.0, 0.3737080828403084, -1.0, 0.5752612231675569, -0.1918572845483455, -0.2931218760428617, 0.8868956633142859, 0.2899352326447197, 0.4112625548711085, 0.4635781952533174, -0.1878159051169142, -0.6181963145119593, 0.15627705964140565, 0.04785157845089835, -0.41374245676668014, -0.47556201960352534, 0.7361755266917988, -0.025320558718601616, -0.18512320414259387, -0.16694380261593111, -0.40353838673645004, 0.0016580953547876698, -0.08230118635119871, 0.11203102893289904, -0.49699797857276634, 0.7729859803439163, -0.417528250664984, -0.9488717706379537, -0.7071820046801114, 0.4720405485638556, -0.4999965117191423, -0.8024346814639154, -0.8454519855457436, 1.0, -0.7133391242168954, 0.9065216956018758, -1.0, -0.38081560665039593, -0.7954102541130524, -0.040652349159828904, -0.37217571017984247, -0.8659782813320883, -0.48139091343231644, 0.6188364924499237, 0.4105996114697481, -0.024524858652467785, -0.8305302232892589, 0.9375824976101597, -0.13978141125291224, -0.45244413092345204, -0.4428481994353144, 0.4924684853920762, -1.0, -0.8525687142866543, -0.42190767890716596, 0.1603792691968896, -0.7933391220488083, 0.6083228344140528, 0.07849649409571091, 0.08633422401193161, -0.017337493345415816, -0.3326092470424755, -0.5643373687504606, -0.8206403709222356, 0.47563544750105097, -0.3208938243805258, 0.1322281264414334, -0.8467003019467558, -0.8744496745821243, -0.9152631028935578, -0.5390983591462811, 0.6411369239905502, 0.3643373377479153, -0.6112507647774217, 0.2343581700504429, -0.8057330427366944, 0.6217208757447396, 0.2680900497795591, 0.8463091399492977, -0.6065305032715032, -0.060307074086140056, 1.0, -0.7560093025713059, -0.32770664602589417, 0.8736764474964498, 0.26060629175285294, -0.7673412419867144, 0.808848409575281, -0.7170731214171295, -0.34831197030424543, 0.15895992936099546, -0.9777196596525202, 0.04480575180982804, 0.23625668454714943, 0.04726464110947076, -0.5205912724296935, -1.0, 0.6605929325717661, 0.5336447064630951, -0.7313827121585214, 0.8655647609758702, -0.3829632606322755, 0.9373798824104975, 0.2481998311436124, -0.37240237629972894, -0.23218431093428654, 0.9725678714877035, 0.40043646365065333, -0.6957890745114987, 0.13200077529367635, 0.903554336984218, -0.7286062738713972, -0.23281651354124158, 0.3420926794737637, 0.4371894374809171, 0.5580627747803396, -0.13100259332384467, -0.7849905298068113, 0.6133173844477708, -0.4302545589221777, 0.9505543527419107, -0.11908705644229539, -0.6439429559705996, 0.004028916079160838, 1.0, -0.4329998378205874, -1.0, -0.49646621638534816, -0.07358645245869655, -0.7407882543597286, 0.7840608330750849, -0.8508503206706253, -1.0], "fitness": 57.16226955283406, "player_life": 0, "enemy_life": 30.0, "game_time": 343}
{"weights": [0.08262981645469669, 1.0, 0.30734117488421153, -0.4368096606869419, -0.4340672831155242, 0.6967166685388803, 0.8854980171055186, -0.5737659606116172, -0.18616902213585282, -0.5366406488693645, -0.6343596185172489, 0.010480758649364263, -0.47319797709769545, 0.3981987651444414, 0.34550585106730836, 0.5813596104652121, -0.4058697545831463, -0.7308389499638038, -1.0, 0.4477923830613772, 0.8027063375276312, -0.33480259334456364, 0.0644512556198113, -1.0, -0.19690629923136038, -0.05422618628315545, -0.49722304335960554, 0.22374387665336343, 0.8463814856687468, -0.8766798783595413, 0.13792795287542586, 0.09331174045489893, 0.11707996405207016, -1.0, -0.6849327370351208, 0.4208548013629442, 0.042046992638673536, -0.9052833871041153, 0.11239294291838162, -0.7957086723091046, 0.8684710068673291, 0.7980660388201353, -1.0, -0.336692530570735, 0.7501959927153398, 0.4248733788887376, -0.40367160593237006, 0.15177899639568493, 0.2789700366877756, 0.05237917234390002, -0.7335359497543892, -0.47912933558666476, -0.6008088703196146, 0.8203760937106321, -0.9709326021874042, 0.22848278684146456, -0.6093905715683935, 0.4047481731820015, 0.00310732004780101, -0.6074369955183392, -0.32242664473103855, 0.5335952965540003, 0.06983621594822709, 1.0, -0.4028945883681067, 0.006347761087194093, 0.4826542149357911, 0.131408368011841, -0.8662134301938187, -1.0, 0.14219253051596747, -0.5443307815884564, 0.23673174533522567, -0.9919209546477539, -0.5711246422316564, 0.2548582657167866, -0.6018754634278947, 0.7518596526901371, -0.2881051089074754, -0.5230006941826515, -0.2331696377058923, 0.642606398933057, -0.8206755827133284, -0.6725486620619237, 0.8430812315119878, -0.04364093987016861, -0.13330272131642634, 0.042464669173052555, -0.5884209348429024, 0.14992731011826751, -0.007346913078335016, -0.19809193665935942, 0.023349010046813487, -0.3051642152144327, -0.8372116406887148, -0.7561051998368294, 0.014287298201037052, -1.0, -0.16845127624387485, -0.8758764013755126, 0.5794909126503751, 0.27166344895597727, -0.16411605656656408, -0.40227351895103153, -0.22125512296679556, -0.6927264578877574, 0.4618343633170042, -0.4409875365930534, -0.19791470014715445, 0.5883213015146544, 0.3790820545788528, -1.0, -0.08754195088859046, -0.4727621994599526, 0.6595901978455707, -0.8516847263847602, 1.0, -0.2416371479629023, -0.19562346085976512, 0.0530698158167317, -0.19327606817496518, 0.3749199241947482, 0.565602975781434, -0.18993873515640303, 0.16744125373804325, 0.5064602647583076, 0.7225449783435927, 0.8352383826701058, -0.801297341800895, -0.3204036084329709, 0.17069286862556998, 0.049799438894438164, 0.3689927915019781, 1.0, -0.9146779394506659, -0.32205672626726295, -1.0, -0.5714392253547196, -0.4920962619966001, 0.23030418447778786, -0.914311421476827, -0.3622258629245311, 0.12788769508901712, -0.21893455670508755, -0.01843970649577062, -0.5907403827074051, -0.8856211010557243, 0.7497681548801847, 1.0, -0.7818873497334294, -0.5608567820867657, -0.6499325095830364, -0.16989003894308294, 0.45832931608200744, -0.637988071253009, -0.7878734080729608, 0.14403766204863236, 0.9451358811433663, -0.04423309143819748, 1.0, -0.9662083825543597, -0.3444847980101249, -0.904563493724458, -1.0, -0.9200847690080624, -0.25740288080285467, 0.10560554925494958, 0.44652488713667876, 0.1612775054081331, -1.0, -0.6205157360208088, 0.6291726967346327, -0.8783100288396054, -0.17949752192184726, 0.8090896187069645, 0.500086034605699, -0.2857699680491953, -0.9702982023423792, -0.6289461242222585, 0.7274124685071603, 0.5004136715080119, 0.8565911693190751, -0.3419215361630197, 0.9429306811177315, 0.8994575154120922, 0.5363415299104822, -0.5132196286739477, 0.3758383297358967, 0.10260429664041121, -0.15605313980843954, 0.07143063194600918, -1.0, 0.7298222826377938, 0.2559608057627196, -0.8781589650928624, -0.33219031230870155, -0.7677397956112837, -0.1825612218733898, -0.004255631709385144, 0.7783894843542376, -0.3616643304346967, 0.5436004377344028, 0.6800714138082267, -0.016121381833251736, 0.5204251352770622, -0.7222378001794486, -0.5445373958997861, 0.012282837140958819, 0.8472821560978809, -0.571310501739092, -0.44117306401254697, 0.5552707167191284, -0.020797454677597554, 0.9042453696328037, -0.10526537710688852, 0.637008032768751, 0.17862287578031807, -0.4974080443303606, -0.4542557167083323, 0.10235176997870249, 0.3919570575078162, -0.675714082026024, -0.38162270851963226, 0.12861855735414734, -0.6410948418397162, 0.3010366642962913, -0.010780388925513668, -0.44874853332370834, -0.821701455265238, -0.46031729413502726, -0.8223917197821994, -0.6064604768436359, 0.28351352923786094, 0.843138049429037, 0.8665813324493673, 0.5903635390151096, 0.9617368315205053, 0.20626234981053143, -0.07220443799672693, -0.4550611887421699, 0.3591575947297447, 0.7371194928387438, -0.6805362091556503, 0.5563481007996613, -0.308991446700733, -0.3693443460008138, -0.5534373172210929, 0.09535362357238669, -0.8147029529659814, -0.08074186048022633, 0.8781279459516245, -0.7381785700997765, 0.17553130475312193, 0.038456731853984905, -0.030070216369676384, -0.5396553747260467, 0.7563861366338365, 0.30615991358516426, 1.0, 0.27601197671747524, 0.544808095695787, 0.5181375656924567, -0.5642531071848871, 1.0, -0.8229261599576148], "fitness": 57.73214184093667, "player_life": 0, "enemy_life": 60.0, "game_time": 327}
{"weights": [-1.0, 0.0677222133547841, 0.7899583514085207, -0.4176051288674712, 0.4976372583007495, -0.8533124158560921, 0.2461934667162058, -0.8192079863117756, -0.2320174921748318, -0.8260871294980903, 0.918505316231639, -0.9157901433531099, -0.2810402636485042, 0.4114552985184737, -0.5058844227255626, 0.15599823282896977, 0.9546273097636724, -0.6078916794617206, 0.1701022353764659, 0.7361533504303948, 0.3561277082315845, -0.6960896296559669, -0.03174924002292426, -0.05634629515535988, -0.009894338663462593, -0.32014247338810903, -0.8504193890757208, -0.5505769241014354, 0.7726316536084662, -0.9825701504635416, -0.5575972374877084, 0.34727244968555976, -0.8657377892212158, -0.6827787911962582, 0.8731960254491812, -0.8246670798105858, -0.055556089742140824, -0.4473815107416359, 0.9177243848533123, 0.4007767375828437, 0.010551459562099436, -0.05359411645581316, 0.6264180876643027, 0.283593991483833, -0.7690985540962985, 0.8245148625205145, 0.13438963503953058, 0.2629232299865055, 0.5505748017613172, 0.8996349969333518, -0.601000644510683, 0.5499515813103264, -1.0, -0.14952275019005762, -1.0, -0.5500813229211448, 0.6675124640307059, -0.15130356995979954, -0.8053382685123519, -0.015900847273872143, -0.7261695893727754, 0.8933188736131666, 0.0408670412781037, 0.11555596014051561, 0.09763895431044639, 0.11841277401046427, -0.19411730037761538, 0.12652963412097415, -0.8129801387540203, 0.7102958630246237, 0.5468868338694375, 0.5057228901372948, -0.17486132037385324, 0.11791528575219815, -0.6719458654498496, -0.4831500690947793, 0.5307082786165195, -0.7045829542026795, 0.4725294917783821, -0.29358980552612224, -0.16745517323926018, 0.8818813803628889, 0.6925241167957752, -1.0, 1.0, -0.7074445512812197, 0.31305178930538324, -0.06838332133277591, 1.0, -0.5777146093586559, 0.7484284819354046, 0.22572009065373058, -0.8969858049867262, -0.6987349155179912, 0.58077366785961, 0.7032282166405797, 0.31790992629306736, 0.9050137756038089, -0.514047100998841, 0.8902989588080003, 0.7453641306501158, 0.3777858455199812, -0.6840170811717134, 0.6178416028654726, -0.22553447007873556, -0.8602188332979802, 0.47712711424199317, 0.974962491015007, -0.16275530360047102, -0.23448827773872868, 0.41273203051726715, 0.03279859994487819, 1.0, -0.7861678140496033, 0.5598887431250998, -0.04092435867456404, 0.14244237597644208, -0.7394830569495884, -0.7344935750623591, -0.25638184468160063, -0.544550967669079, 0.14740827296295375, 0.9405848755187842, -0.811218816937874, -0.42129011434527636, 0.36298794666622036, -0.33226592338261357, -1.0, 0.5025294623586458, -0.10402402072418863, 0.2211116928214843, 0.992132803501304, 0.05008362656429169, -0.18470532392081807, -0.4317438342594308, -0.9343742796991951, -0.44580237188514704, -0.04763362731270476, -0.5632212265020755, -0.9060250816148083, 0.4515025427434622, 1.0, 0.1105788069603362, -1.0, 0.49171222527885056, 0.6065553332963933, -0.5724861590940781, 0.7470496368432595, 0.538974394407047, 0.059003945690117354, 0.14923103009894845, -0.2935134290730097, -0.29543300234755937, -0.20749010333691437, -0.9629106177987498, 0.4847624093204161, -1.0, -0.5155007617566432, 0.22227171859302985, 0.33535514008167877, -0.8198397779718891, 0.05950639005495342, -0.5861153179460636, -0.10790436927024744, -0.7395751082042539, 0.5514670722353365, 0.8675158091068341, 0.8843305477702239, 0.1919260859623852, -0.6857500932614589, -0.5769991629812643, 0.793621189679736, 0.4653477660622847, -0.9231964502363128, -0.36584639734207947, -0.38514561052539065, 1.0, -0.6470346653422139, -0.8697864570087209, 0.00727947623596667, 0.5427290805027409, 0.505707582227566, -0.8249483025471089, -0.9072320413514896, 0.013570684218264267, -0.5437504749141919, 0.8669722205301362, 0.8786287622620691, -0.2769005850542311, -0.26136728392812036, -0.50732878598343, -0.869378841518511, -0.5487638966545082, -1.0, -0.9271004874427915, -0.944312739402611, -0.5304696725111455, 0.38650318326640837, -0.6455494847715859, 0.22468535228041217, -0.29999053359905514, -0.8197532430856976, 0.48341970378571875, 0.6121767465188265, -0.7219120920915463, -0.013533587886605636, 0.828840841625939, -0.16647778593267976, 0.0813768851455269, 0.4760760697713463, -0.310737074760591, -1.0, 0.756351013532329, 0.47535005883687165, -1.0, -0.898188328880686, 0.952260050965813, 0.08626597571133013, -0.9935475610907147, 0.8837675523146066, -0.06293223538373177, -0.8081752716580739, 0.8573316558142406, 0.1772070862527281, -0.9425174986402237, -1.0, -1.0, -0.6262258069197668, 0.3009297066657397, -0.9294098044652678, 0.46944103288025746, -0.45478594619228885, -0.27587834103288267, 0.009628160524423862, -0.10078444538916187, -0.5038060449437934, 0.9521277997497334, -0.8388159079219825, 0.5254329391575725, 0.28689484908997376, 0.3742685737543642, 1.0, 0.7983998417800063, 0.716850061421871, -0.6353296572916498, 0.5073451636710885, -0.24879727199297502, 0.9441952135697091, 0.9962743418697448, -0.9089720238677137, 0.15815658658019113, 0.34258249884078634, -0.6283416849462862, 1.0, -0.47226014439592773, -0.0784803982146694, -0.7418793549299563, 1.0, -0.3911645018978568, 0.5139552117899635, 0.2424478412409448, -0.3968198182401951, -0.44996376158835344, 0.7184655217817848, 0.2068331637811622], "fitness": 57.16226955283406, "player_life": 0, "enemy_life": 30.0, "game_time": 343}
{"weights": [-0.6588770350936964, 0.6324233416431817, -0.22490593920323204, -0.13436007329528132, 0.0828722046066789, 0.22231500326286516, 0.6249583370429218, 0.8631894631970458, -0.6771748151440286, -0.6608547910361808, -0.6240637477913604, 0.6538305998144547, -0.49329000642616033, -0.7486006981495351, -0.6022216473482962, 0.3145888093622382, -0.21951939378625662, -0.4757776399910161, -0.7857993709553623, -0.40127222977998306, -0.21533383604525827, -0.27162054341636416, 0.8347389821696624, -0.5060405093898315, 0.672625610041458, -1.0, -0.19066334180699587, 0.049824677366336334, 0.6019507929636477, -0.800519051423529, -0.09004974459351534, -0.05383453806254193, -0.05931562464158663, -0.9912010767585493, 0.21672484507543738, 0.6047927507740968, 0.900338434856848, -0.16054970585079886, -0.4795113808288701, 0.1237265440072969, -0.14298321743974593, 0.3319525321177843, 0.5103790766179898, 0.5938946722483343, -0.23707384585285737, 0.42572399268443595, -0.8360640023055737, 0.8552506329027572, -0.8606610296400241, -0.19169497266302565, -0.9531257466020633, 0.16623787466603412, -0.4194630143868096, 0.8554121452978921, 0.06644621292593354, -0.07434253922277972, -0.8531927384522241, 0.24275906191033383, 0.6164787938661276, -0.4149687072362307, -0.8361066680592764, 0.350202484493649, 0.4220508589421445, 0.10464271018445767, 0.9977315569415552, 0.41495425929869156, -0.8705830187041996, -0.9619170809997146, -0.5737453593498237, 0.030179543965177413, 0.5752927236727133, -0.3966650658718096, 0.4534863305230783, -0.3019790549349679, 1.0, 0.5787476543216039, -0.4299134920029654, 0.39966415694502744, 1.0, -1.0, 0.6552263963821714, 0.33088078873760063, -0.8217682120643837, 0.2244343990364737, -0.13919658472294708, -0.21026424185497639, -0.4418370217100279, 0.8045251366674512, -0.3319508317738966, 0.586999754013898, 0.837481664722928, -0.681746391477442, -0.1659235558015777, -0.8800722089077158, -0.543851838476652, 0.994486029264297, 1.0, -0.6675467506362471, -0.06500236299192819, 1.0, -0.7177268411687371, 0.5468996992058653, -1.0, 0.2948198688222765, -0.5455573272867327, -0.9697159340695074, 0.35221135290475103, -0.47452001918741926, -0.1874947362846482, 0.8520130977457259, -0.36359911974228726, -0.6632911239250284, 0.5651505340628066, 0.4465579015051127, 0.7199069164495423, 0.22604264867054644, -0.08540417604313327, -0.3232649504511107, -0.4081107153136462, -0.13487437629938037, -0.5165122383325387, 0.5747967849394644, -0.3947805787223409, -0.18317117784566606, 0.9484491091142395, -0.16651882229953296, -1.0, -0.6405505265274305, 0.5071660726516471, 0.9506519367555892, 0.5899094904543497, 0.15891439904549848, -0.8329717646042585, 0.822135373664064, 0.2189617274551231, -1.0, -0.04574071576917993, -1.0, -0.6964688236999306, 0.4096401173174756, 1.0, -0.3703406949758726, 0.14955098927681784, -0.4459193266327771, 1.0, -0.4746373897410191, 0.5020417620265583, 0.0475459076018957, 0.8366300313224805, 0.2154281093584487, -0.43217852520414424, -0.026690973638771265, -0.7809762267974016, -0.5132362591148436, -0.20524309660219703, 1.0, -0.2318676483847491, -0.49806036672384835, -0.06604769152873571, 0.3425083192775925, 0.5009043246916196, 0.7029082717426366, -0.03979829781019295, 0.02210070615792864, -0.552666322739281, 0.19906342068863975, -0.37573115671590446, 0.8013811837332474, -0.7550780741812197, 0.14191267081820846, -0.5325552390153712, -0.40634405578734845, 0.5544428265180136, -1.0, 0.5427033088946223, 0.9312987532710635, 0.7529646320751562, -0.6441042074121608, -0.2431333831032476, -0.5726862822920417, 0.2606543097107725, -0.6953178931829294, 0.47177108327673856, 0.8389759857478818, 0.054098955456687164, -1.0, -0.40659255688482954, 1.0, 0.0916043418276376, -0.6914765668481069, -0.3365317517119456, 0.024084142337774977, 0.0014404684615657581, 0.6243964564261026, -0.32594042996148515, 0.5188593238258152, 0.9716772907275565, -0.6658279676517413, -1.0, 0.36025861794905534, 0.6117060546359576, 0.07120944173517535, -0.3005639937477764, 0.2696476031966357, -0.3700172751280659, -0.5503842603277759, -1.0, -1.0, 1.0, 0.3179199467230196, -0.9816004930685671, -1.0, 0.7392893839677865, 0.7516765540259627, -0.9402798125796886, -1.0, 0.4781944473713701, 0.41464581380776316, -0.45173020435413835, 0.8773261026477356, -0.09078552025089118, -0.4414931055450356, -0.9625958558994796, 0.8478279920411461, -0.3370723107173622, -1.0, 0.4502573787580295, 0.85631622806984, -0.542855990839741, 0.5595159925048445, -0.5784947805937606, 0.9042696853720846, 1.0, -0.12354559586296293, 0.24654600655273853, -0.07656674880603187, -0.4830598292732517, -0.012804106693985434, -0.04443188839982548, 0.17720099583784893, 0.7120739072538731, 0.3889878315200021, 0.9717283718273011, -0.3138250392520604, -0.3142751920944798, -0.301865117442543, -0.839239470769291, 0.028938209844203533, 0.9170765991492721, -0.8614451888982221, 0.49320877657515616, -0.9189560092871121, 0.7807685754194431, -0.6977287522758987, -0.9157805197080608, -0.8947812394922146, -0.17053514277730109, -0.8945608769293778, -0.9313826793623495, 0.08620696905006014, 0.3871295889377396, 1.0, 0.43473464305336473, 0.4620900850574557, -0.2485357764439164], "fitness": 57.16226955283406, "player_life": 0, "enemy_life": 100, "game_time": 195}
{"weights": [-0.865578450642932, -0.2450395076486075, -0.19871218497061693, -0.3277816734923905, 1.0, -0.8471670185290515, -0.8879536873544028, -1.0, 0.2950406705825851, -0.6670255843017804, -0.8620247035995401, 1.0, -0.7881710181957727, 0.8761359369867199, -0.8791940383767616, 1.0, -0.44312900250017895, 0.5739018353159645, 1.0, 0.4880523010419172, -0.020409181501269358, -0.4767975226180237, 0.03441146123561711, -0.6377461890208842, 0.8203555211849258, -0.8812673330646398, -0.48540005406769915, -1.0, 0.6080206998291555, 0.9620417595269751, 0.6566667429177229, -0.5578646750629175, 1.0, 0.08273674507609552, -0.1873615134781213, 0.6036356259707821, -0.22785236046116386, -1.0, 0.17989218330213302, -0.047074374153406956, -0.13834271255973812, 0.8250201493825746, -0.9105028979411549, -0.2814127951810279, 0.8713784447080526, -1.0, -0.41770475971482857, 0.47341892029471055, 0.3607157077454582, 0.7536743799090323, -0.8300444159768419, 0.9635577445030228, 0.39710199742284935, 0.35451813583750535, -0.9423736785790082, -0.5292343798489669, -1.0, 0.5096826562728338, 0.9186887008342163, -0.23837463978963125, 0.568158530577509, -0.5941827086649074, -0.6014686505534239, -0.3877976857443761, -0.014988384483472394, 0.22683865540073136, -1.0, -0.780932898235732, 0.8345153836193717, 0.6647438245034287, -0.009131669268975462, -1.0, -0.8708321310377322, -0.7291419807765974, 0.08783134058085998, -0.646822638550485, 0.6730786076857413, 0.41096000067434224, -0.25055129472079885, -0.610325230254287, -0.445991242546331, 0.14876757361061654, -0.6175820898650545, -0.7186835389625805, 0.8149703935854895, -0.18447654440098119, -1.0, -0.5862771632230607, 0.3149028560858792, 0.1153782810580854, -0.18665828485910307, -0.9533696589603214, -0.5481365149580955, -0.6703998054213682, -0.3800109828397128, -1.0, 0.47777840757847356, -0.8720686741194648, -0.42243136448994717, 0.7864065580781345, -0.9099622837274666, -0.47472890658752465, 0.3855210620393372, 0.5535341174415731, 0.16803008134120928, -0.553202925370462, -0.482014739624499, -0.2468409323114877, 0.5592578959224911, -0.9225961868911838, -0.819575735033272, 0.4037388325261551, 0.0712736074366222, 0.7054100058053168, 0.23101995448756357, -0.724721497106965, 0.9412271930959829, 0.6896080602874368, -0.739060271242096, 0.04582029986492031, -0.35630502249759693, -0.30665550586257495, -0.6183663151794018, 0.9727316209059664, 1.0, -0.6317679348789261, 0.26836683813855833, -0.2935874557697105, 0.8165612904159519, 0.7958784763974617, 0.6049413876789764, 0.7726537225295367, 0.6891979885587615, -0.6713344969604664, 0.10193056387625651, -0.6007714335362264, -0.3209360956374831, 0.270799371337601, -1.0, 0.666118929442122, 0.43304142732587186, -0.31748147748253336, 0.0748701408310904, 0.8297188270071257, -0.2608428324689316, -0.8373565110541649, 0.47370950503827447, -0.4288354617756901, -0.5908891884788998, 0.7231271039221939, -0.9858745904156461, -0.2189597504757602, 0.12689723686187623, 0.660894462685795, -0.8103955364390735, -0.5091130741866368, 0.558307544872581, 0.7953973928140893, 0.2465398316415346, 0.2839026316400162, 0.5535690730296833, 0.11891707233988999, 0.3802820672119277, 0.02309376067373395, -0.6724131589773668, -0.4050197677960231, -0.21377824253096964, 0.1457905463900217, 0.6366650031106011, 0.7778942559336182, 0.8524749008455921, 0.7009816419196139, -0.28569881029406813, -0.8582723753966792, -0.3891365581824838, -0.0068631779153411065, 0.24068894465523868, -0.369555126895298, 0.3135415860911396, 0.8766777966471214, 0.48462221117206117, 0.3828469502719746, -0.8084422652137622, 0.8339618462938888, 0.15661663841949397, 0.06054444660481842, 0.5365980763021889, 0.9256247988518267, 1.0, 1.0, 0.5901310387605776, 0.5520334539481904, -0.4391829925368357, 0.7603338473159984, 0.4428604992268376, 0.3847643795056459, -0.8370461965988604, -0.5805051614120006, -0.6821520288617646, 0.2254088046106666, -1.0, -0.39075623952636274, 0.8366935470230425, -0.414091015576212, 0.02251965947167897, -0.2409205727942318, -0.009328832658762332, -0.743648269928018, -0.4618090947300377, -0.5330157601263422, 0.4872754481649667, 0.4376357707189865, 0.696951074731197, 0.8430952407047665, -0.17531746020291078, 0.05472951103114157, -0.3178617015845503, 0.7731761443427945, 0.6493410367196076, 0.13272832369123252, -0.5990897598488936, -0.17158951805514072, -0.145295516796076, -0.934534019271277, -0.9766264103307601, 0.5351135341508624, 0.6777554785122833, 0.885963629550012, -0.8795933696635767, 0.26678563516554055, 0.8142720922767077, -0.5870041786310589, -0.2791206622418811, -0.8442170629062727, -0.29952764833689954, 0.824694926843791, 0.25001746525129465, 0.11179452691756728, 0.10940863688824204, 1.0, -0.5128228269619205, -0.23636926149891574, -0.821698151454228, -0.1738987077883129, 0.44923115877605124, -0.9678969788135876, -0.3652450857724814, -0.4049900639118294, 1.0, -0.4596048860394881, 0.14598801598133654, 0.07204511120814616, 0.5241223020424486, 0.09037172657081596, -0.41428587739763023, -0.5808024185580095, -0.19992430022662838, -0.13795294325355684, 0.1515192241815638, 1.0, -0.1915665404927465, 0.5750259603874885, -0.5265453911882023, -0.3239443201338302, 0.341274364813616], "fitness": 57.16226955283406, "player_life": 0, "enemy_life": 30.0, "game_time": 343}
{"weights": [0.6540097360632765, 0.41533182476660047, 0.7744099706494705, -0.3782876501467933, -0.4920206439751228, -0.928284688336229, -0.5934644965827621, -0.6280208390246026, 0.25216681987340317, -0.14362576153931414, 0.25408598412428407, -0.8021413479493396, -0.8876121374735385, 0.8488019415001294, 0.1916242202346103, 0.7752287513873563, -0.3287006981478611, 0.7841008040857551, 0.3687091947444939, 0.04274912119108912, -0.6457823804204357, -0.8594399575738227, 1.0, 0.18057829651725144, -0.37617063251487937, -0.8331318772860766, -1.0, -0.6935257622565638, 1.0, -0.6261855219494743, 0.9416664999285438, -0.6461486811385497, 0.7850787638871431, 1.0, 0.2541472901856939, -0.02832984789386131, 0.6924487489861868, -1.0, -0.6680359345863911, -1.0, -0.8213883489023204, -0.8439896098502466, 0.17995268062209496, 0.07012780973660648, -0.16198941396095393, -0.5231451075595511, 0.1352294584416271, 0.9094570951009129, -0.06710439148119968, -0.20462589968360695, 0.020921609704245003, -0.4194504084130527, 0.059817158132674714, -0.6688021720934467, -0.22512442433321728, -0.186674655721904, -1.0, 0.6724030046405123, -1.0, -0.4566468858498884, -0.7338959288496798, 0.3381000989030541, -0.20636580034855914, 0.0626942495978863, 0.43166872428106046, 0.009748461744021997, -0.44975785573805893, -0.8335807201875534, -0.8409121867634423, 0.29382206390032856, -0.5138566285550266, -0.4542145636889629, 0.12310077653171089, -0.046491830180417804, 0.17234539611747707, 0.8779050626542, 0.7202545458101672, 0.16722771305790637, 0.7336626027230965, -0.518255899728129, -0.6714270441375453, 0.1279478434339233, 0.14637089470724762, 0.11779497560267017, -0.8793445509901758, -0.7134546356918308, 0.1466714147025243, -0.6340067545965933, -0.8392037418650419, -0.4755244395336408, -0.2847510654087544, -0.32572132765182993, 0.7393259906598906, -0.49162163438479467, -0.09705403769764992, -0.7213479445734985, 0.16653424494659222, 0.20431606783792142, -0.11547000899415746, -0.21770972968383273, -0.023763273160894244, -0.15299193127007826, -0.2694012041134736, -0.549233594115212, 0.1901747439928975, -0.5396680088605487, 0.8217273232129698, -0.3009889681928725, -0.5225603852918351, 0.03237768378646527, 0.15246606743385283, -0.06631339608809489, 0.27499620655660845, 0.012645758427853898, 0.5824622736159958, -0.46339235362497455, 0.7501242664226643, -0.5612798383961425, -0.9475663104843991, 0.10462478864478125, 0.59486190580335, 1.0, -1.0, 0.3064297203517561, 0.5620291052826079, -0.0723131831429989, -0.6310995613728894, -0.1024751225821901, -0.9780173989393206, 0.8210857396715242, -0.8399083644772258, -0.4327517662538493, 0.7143874901163096, 1.0, 0.5799853033525258, -0.30160012943085407, -1.0, -0.7320667300197021, -0.23007544122174312, -0.04399472321870235, 0.01027264249272053, -0.8045449277137259, 0.2680066300365175, -0.3608115241982629, -0.537927599240183, -0.5804156836010932, -0.10138818899413132, 0.96844749428841, -0.3149393890205015, 0.6966725099028706, -0.7817775492615888, -0.2607158084735802, -0.07716359381312798, 0.5347154543904803, -0.638868107454034, 0.0002835375438659804, -0.7489197068686958, -0.7511354448533534, -0.9957045141091503, 0.09549639473905505, 0.06922733283588531, 0.6530523835354236, -0.46550412386447637, 0.37635633303306587, -0.3334287154828351, 0.8959774717188327, 0.418899350223917, -0.03042332055406055, -0.24154938179437768, -0.14093800481478513, 0.6932577598902606, -0.5587540641855595, -0.02895927427657044, -0.8582110003716668, 0.03426921345166099, 0.18489191076383657, 0.4114091840427777, -0.5013886135607679, -0.06629408046436769, 0.7165365916551258, 0.7676120309302723, 1.0, -0.45810403835260455, 0.7867584828254188, 0.600657664827304, 0.08372025761544843, 0.41790295015319634, -0.6420653258700223, -0.7039475585466424, 0.9018223072607403, -0.2118963598178361, -0.6599525333711274, 0.921734841372094, 0.6604988062944954, -1.0, -0.5155733931167391, -0.01269088081709771, -0.9639198903147774, -0.15368219394100716, 0.4622361565344253, -0.30437051135264503, 0.20491223054157015, -0.4339546465213103, 1.0, 0.18666754314794265, -0.24565396287679508, 0.0863209820263757, -0.5487345194070912, -0.47875236760217554, -0.8211156934136974, 0.028848169951571412, 0.12655897177874548, 0.5846200605101535, 0.7961250756035425, 0.5333873868624228, 0.5033647538595393, -0.7307827617191587, 1.0, -0.41865726176707435, -0.7133661361219928, -0.0294539782002598, -1.0, -0.8038432006289553, 0.8985714419489791, -0.6037174418424269, -0.9792572562683183, -0.22993979503452905, 0.46748203568244995, -0.36339070391294404, 0.6169122216331554, 0.2821817785786772, -0.3585701961534506, 0.6375087457961982, 0.6626598570395152, -0.6049104512858798, 0.052165649322749974, -0.08428313423588771, 0.80352951674837, 0.5489370184733865, 0.9024114576767608, -0.8996958057893789, 0.8002978006572574, -1.0, -0.920919064777821, -0.2835118512720735, 0.4071904499523976, -0.4639495130359536, 0.8138673831553361, -0.35259940833250764, -0.7170078573472625, -0.3150245484133727, -0.8801751831776885, -0.5026302631255781, 0.8511232551108818, 0.8191004789012871, -0.7725993802797539, 0.37179527800646084, 1.0, -0.49278401877950023, -0.9096235702989304, -0.205844785241031, -0.322342964995301, 0.7553915006568146, 0.8355037294724501, -0.3319283251643943], "fitness": 48.752975927839515, "player_life": 0, "enemy_life": 70.0, "game_time": 327}
{"weights": [-0.10688964643668994, -0.43541102199035964, 0.24068630245276862, -0.9719621420426824, -0.6632415158798913, -0.21519385957955417, -0.10484900108283529, -0.6510231445375266, 0.05699672383415791, -0.989227889877354, -0.8008083893481869, 0.20363966128861274, -0.8937566971885029, 0.8698785759473568, -0.8624622661341432, -0.07561536556482235, 0.899960240249251, 0.8766043649791666, -0.24508996140469264, -0.15313738228331059, -0.22328994999366517, -0.018342157494759398, -0.040011162690320345, 0.8476220650556672, 0.632518211240685, 0.2663728581282418, -0.7223625495786601, 0.5675821489865043, 0.4868848188160041, -0.4900666625913906, 0.5437839182129307, 0.04675471723200203, -0.1828085400633456, -0.5529751976200494, 0.41099836924507605, 0.21598127007142737, -0.41279012827090356, 0.4498632928094842, -0.461134619420874, -0.9655466231576316, 0.4115799034256159, -0.38318618523091846, -0.42324706545224033, -0.41932710353235886, -0.8710122280774549, -0.9462062874065522, -1.0, 0.8928748969440032, 0.9129099269371699, -0.9498546473435918, -0.36983710355859756, -0.7720175343115601, 0.47262600509526, -0.46700795412382085, 0.3702893712495574, 0.6012697166222443, -0.6035354676834412, 0.6395298786156758, -0.07970178931443889, -0.5334891988188066, 0.8251463311858676, 0.9775919152598409, -0.2040070135257082, 0.7286546135908889, -0.15651654558724262, -0.2232989121526897, 0.6419612201764235, -0.4645992075165719, -0.4821950439906179, 0.025471054834045465, 0.6740978847683712, -0.07191945429862731, -0.466652083824178, 0.022858076312152753, 0.42594952292116084, 0.18438474365964536, -0.7738244993949491, -0.9797200497377184, 0.6304576686970622, -0.9273265945611446, -0.962157138105917, 0.08649988904449213, 0.5419568329648002, -0.3002489255244209, -0.2759658521380723, -0.35629168774589937, 0.2359082804696786, -0.19513600104587658, -0.08906807592571975, -0.10367563143417782, 0.908419098970557, -0.10364204840806912, -0.9148111361862667, -0.49665691218015834, 0.9124976326444392, -0.7133827783556217, 0.2667655701086169, 0.6901624963372153, 0.15256667896521536, -0.07261905762587953, -0.11454319978777727, -1.0, 0.513763669637796, 0.633407119184177, -0.02919637267032077, -0.7590728274940326, -0.25047204954259017, 0.824062970946202, -0.321602985072757, 0.20161390300231982, 0.7165160326470992, -0.03073418576837436, 0.7542900238118996, -0.6372831750432238, -0.11393291919111144, -0.5679210971723592, -0.550842734871796, -0.3389352733419568, 0.14130384135354268, 1.0, -0.3611450003519412, 0.21384654409105697, 1.0, -0.6530051916490435, -0.3178940731282379, 0.1898037251920688, -0.6828589335477531, -0.2738297534439841, -0.4661736380305167, 0.9248935291598682, -0.08019802753686939, 0.5968194103547837, -0.14208234368522143, -0.441945434579347, 0.8684325519540904, 1.0, -0.4857828415189342, 0.7937192156413982, -0.49864004618973296, -0.3638493062291095, -0.497086962906268, 0.7039498068956257, 0.062201268583706976, 0.7673037810702423, 0.0717137106148531, -0.8055772168252752, 1.0, 0.4918456237243546, 0.835433576624104, -0.4531436852985954, -0.8437384887653738, -0.04201685117659876, 0.015108290566307914, 1.0, -0.04961180067609594, -0.18840410938468832, 0.5898182384470689, 0.80171228992227, 0.5061221601168666, -0.22889895036337715, 0.22131171493449403, -0.1735975324555307, -0.41747918898294517, -0.6505342600228803, -0.9187554330197972, 0.4844530348122015, -0.997457175770862, 0.1469800550100948, -0.874104364484966, 0.6633045570700571, 0.8536009257354892, 1.0, 0.0402471517724681, 0.14923827652304977, 0.689415939342647, 0.33790055087954685, -0.0783270443347377, -0.09982034739573814, -0.9025285478085805, 0.6926826022021276, 0.08208106635755152, 0.3947963989220755, 0.5045743936615277, 0.2972213899619029, 0.45620477426990136, -0.00854167292349689, -0.7361071809603837, -0.3094924065213239, -0.02874312240126553, -0.7113897327012326, -0.20859363885036064, 0.1914854331159736, 0.7613431864817692, 0.5871457694442863, 1.0, -0.13339596064762255, 0.660025875858409, 0.5965248089474396, -0.47206462146223893, 0.5061494681764421, -0.3644987251651475, -0.7376841041861897, 0.7857060826175093, -0.05011807823805435, -0.6807628196926758, -0.3128855376643928, 0.20642043110410183, -0.305873763943872, 0.6626235143995837, 0.5907831078551589, -0.4058979625499543, -0.06515364522419098, 0.61317498561418, 0.9484756259958472, 0.2518986434391662, 0.16549657933326842, 0.9236228109963373, 0.1553204499751102, -0.3852210649313961, 0.399666155805264, 0.27214558496381513, -0.4010152927221429, -0.2844727694796286, 0.9002562651835244, 0.06558900427900521, -0.9410507845614362, 0.4364317326725313, -0.46756698775294253, -0.9026021119906369, -0.2355202999873311, -1.0, -0.5370301815083467, 0.9177196836430679, -0.6035042558446898, 0.8137108678501376, 0.6880674659395764, 0.10764898655067107, -0.07360204124731379, 0.9080471829663004, 0.21202620231087904, -0.277374469948566, -0.6559148966064918, 0.7904210635835087, 0.4407404025568714, -0.2672884388004815, -0.8677637096492204, -0.9288854736591242, 0.0407372382923773, -0.5180616212915579, -0.9013698061650143, 0.5475030849181193, -0.9043276635121422, 0.8738457447541068, 0.8434725127906485, -0.04111301942748699, 1.0, -0.3509612152176728, 1.0, 0.6834647494992359, -0.28542904115458745, 0.39868928673437676, 0.02831259097609401, 0.2590665412626928, -0.1678326056518289, 0.06884817128132129], "fitness": 57.16226955283406, "player_life": 0, "enemy_life": 100, "game_time": 195}
{"weights": [0.376744220804597, 0.47074353570213434, -0.49258583384653803, -0.6308464973042429, 0.09460235674475609, -0.8783055741098131, -0.5923629900858907, 0.8306015737545018, 1.0, 0.6506479569120109, 0.040174817639694854, 0.1842554574914811, -0.5484492838620441, -0.6886219129468469, -0.7844027874073415, -1.0, 0.758108519725559, -0.24275969694044766, -0.8494236378665952, 0.945910266655472, -0.5446669766988175, -0.6064575174377222, 0.44763616668517986, -0.5599810042795128, 0.11370259947671554, 0.5775937751083061, -0.32074216068701467, 0.6723269691309796, 0.01936145268153333, -0.4424818650801806, 0.851963954703575, 0.4456400328701106, 0.6545145748456118, 0.6547456456968691, 0.8185906150095587, 0.8910877310148505, -0.09343143558152733, -0.29208311820585675, 0.10211157096826443, -0.29073417811863783, -0.09417391506896305, 0.052412951055818086, 0.264631703625142, 0.755279483153195, 0.15482891655832617, 1.0, -1.0, 0.013573108966486891, 0.5621404938824416, 0.0518673334968793, 0.7253929880802759, -0.9865730283732893, -0.41509023761151786, 0.6988602315649282, -0.6772263270367669, -0.963597126730396, 0.03188066071628537, 0.0016564602786665328, 0.8389272283433854, -0.4547268194448896, -0.8080612047580396, 0.7022205599155036, -1.0, 0.37313160748208446, 0.3046422107286497, 0.1671902019410815, -0.877532490467428, -0.6095141263603071, -0.9408934906567993, 0.7933954319711862, 1.0, -0.8370203979764311, -0.5557339124232858, -0.9072020309602178, -0.556992005692494, -0.6660063649519007, -0.44929764764767255, 0.7691369175556532, 0.8832732340661459, -0.8477809949933235, -0.1625583807225984, 0.20665905030017181, -0.42229712633964434, -0.813131119735026, -0.1299471001649348, -0.3296508428270257, 0.28504881684444694, -0.9540770213066619, -0.4675038647364143, 0.45081209409873224, 0.12876839399597745, -0.29375385107121665, 0.5965711666238679, 0.5938840966853891, -0.6549650865535867, -0.9160968138624547, 0.47555291930308724, -0.6069257386449365, -0.6965370526508289, -0.6558578595239002, -0.17171147567287284, -0.5326767407818775, -0.7692227390499264, 0.04525833662942587, -0.8537764217451903, -0.5746502437751213, 0.041347394874360954, -0.42415006549689793, -0.06124932212543474, 0.7222476607981057, 0.07608935226157565, 1.0, 0.6812858601209103, -0.9040222601585799, 0.24519294217384746, 0.8726042067486808, -0.10741548862216993, 0.4361969235867501, -0.7647818729895139, 0.9944143586005927, 0.3311625566698688, 0.3945150403184066, 0.8982169340717623, -0.1683581135871644, 0.7231762783950884, -0.3391993812528884, -0.25524722559042473, 0.4167165604280545, -0.27413368575042363, -0.3237148526084983, 0.4721071203327533, -0.028494720959591352, 1.0, 0.3737080828403084, -1.0, 0.5752612231675569, -0.1918572845483455, -0.2931218760428617, 0.8868956633142859, 0.2899352326447197, 0.4112625548711085, 0.4635781952533174, -0.1878159051169142, -0.6181963145119593, 0.15627705964140565, 0.04785157845089835, -0.41374245676668014, -0.47556201960352534, 0.7361755266917988, -0.025320558718601616, -0.18512320414259387, -0.16694380261593111, -0.40353838673645004, 0.0016580953547876698, -0.08230118635119871, 0.11203102893289904, -0.49699797857276634, 0.7729859803439163, -0.417528250664984, -0.9488717706379537, -0.7071820046801114, 0.4720405485638556, -0.4999965117191423, -0.8024346814639154, -0.8454519855457436, 1.0, -0.7133391242168954, 0.9065216956018758, -1.0, -0.38081560665039593, -0.7954102541130524, -0.040652349159828904, -0.37217571017984247, -0.8659782813320883, -0.48139091343231644, 0.6188364924499237, 0.4105996114697481, -0.024524858652467785, -0.8305302232892589, 0.9375824976101597, -0.13978141125291224, -0.45244413092345204, -0.4428481994353144, 0.4924684853920762, -1.0, -0.8525687142866543, -0.42190767890716596, 0.1603792691968896, -0.7933391220488083, 0.6083228344140528, 0.07849649409571091, 0.08633422401193161, -0.017337493345415816, -0.3326092470424755, -0.5643373687504606, -0.8206403709222356, 0.47563544750105097, -0.3208938243805258, 0.1322281264414334, -0.8467003019467558, -0.8744496745821243, -0.9152631028935578, -0.5390983591462811, 0.6411369239905502, 0.3643373377479153, -0.6112507647774217, 0.2343581700504429, -0.8057330427366944, 0.6217208757447396, 0.2680900497795591, 0.8463091399492977, -0.6065305032715032, -0.060307074086140056, 1.0, -0.7560093025713059, -0.32770664602589417, 0.8736764474964498, 0.26060629175285294, -0.7673412419867144, 0.808848409575281, -0.7170731214171295, -0.34831197030424543, 0.15895992936099546, -0.9777196596525202, 0.04480575180982804, 0.23625668454714943, 0.04726464110947076, -0.5205912724296935, -1.0, 0.6605929325717661, 0.5336447064630951, -0.7313827121585214, 0.8655647609758702, -0.3829632606322755, 0.9373798824104975, 0.2481998311436124, -0.37240237629972894, -0.23218431093428654, 0.9725678714877035, 0.40043646365065333, -0.6957890745114987, 0.13200077529367635, 0.903554336984218, -0.7286062738713972, -0.23281651354124158, 0.3420926794737637, 0.4371894374809171, 0.5580627747803396, -0.13100259332384467, -0.7849905298068113, 0.6133173844477708, -0.4302545589221777, 0.9505543527419107, -0.11908705644229539, -0.6439429559705996, 0.004028916079160838, 1.0, -0.4329998378205874, -1.0, -0.49646621638534816, -0.07358645245869655, -0.7407882543597286, 0.7840608330750849, -0.8508503206706253, -1.0], "fitness": 57.16226955283406, "player_life": 0, "enemy_life": 100, "game_time": 343}
{"weights": [-0.44636235992930573, -0.6291050127627305, 0.14249329130757343, -0.33022762445690074, -0.9760472995160991, 1.0, 0.9384669360648674, -0.9482822935391704, -0.5203259913416356, 0.1157978841132368, 1.0, -0.5894169588427554, 0.06882179159022375, -0.20438579174504395, 0.13688848548753577, 0.5022144764273099, 0.8081072791870281, 0.336575574004667, -0.018281995348788854, 0.6619362021091536, 0.7403607702570004, -0.1542938445926122, 0.6124461577015174, -0.1986197954809223, 0.42482136929030273, -0.17085151210209448, -1.0, -0.8100721087821936, -0.17560975205241247, -0.9307825334567958, 0.4425493794152745, -0.9058121288232728, 0.512651667465247, 0.4752592122279772, 0.6961369642711301, 0.7659770913929791, 0.028277240284452845, -0.31916493143906843, -0.7055721457029333, -0.564354058772466, -0.841320847242095, -0.6871621689828207, 0.04472616041236535, -0.28405294763489347, 1.0, 0.11166188797465068, -0.9856671734093748, 0.6165113868880076, 0.1748285728608328, 0.2961663566033763, -0.3644409478836567, -0.6588590586343321, 0.8925778906734241, -0.5939447031270733, -0.7828605947258107, -0.41649387869108856, 0.9133511509336607, 0.39309071780111315, -0.020752088912377592, -0.9020254169469362, 0.5224170083314835, -0.7307218210289369, -0.2192962246825606, -0.7839555539071584, -0.10789770777493424, 0.41672182617902276, -0.5916059373167761, -0.9021244399373834, 0.49217356693634606, -0.550823709211863, 0.23221038477355485, -0.6319486979284501, -0.7974576861786655, -0.8482728228190841, 0.6287792912933677, -0.4719154910285338, -0.8216320624759235, 0.6691825125888164, 0.09252216318383055, -0.04919957352391188, 0.9359770444186605, 0.3528801987139215, 0.15771113726874056, 0.3603520377931174, 0.21608456667979514, -0.49498056513609134, 0.15433409477423038, 0.2783260363429802, -0.7026869559628113, -0.8485223973656684, -0.6996427545644115, -0.679490742432246, -0.5082922685824043, 0.12936220974473905, 1.0, 0.4786684833230977, 1.0, -0.8020272651812984, -0.9617121247819338, -0.8546269603309015, -0.9837713115945733, -0.6735143042809274, 0.8797717236598237, 0.570629836265985, 0.8604229805753416, -0.4157564576096227, 0.0952523136422874, -0.8717622802167022, -0.060788105316732344, -0.8185168869973436, -0.13856423318711225, 0.5787377973866764, 0.7378341305955916, -0.033243047354732796, -0.44926099475825276, -1.0, 0.7744815063271407, 0.8961535896422943, -0.32604860502830335, 0.78524451488306, -0.3279803191709284, 0.23047656626758406, -0.5551629321153155, 0.30344910528905766, -0.7478545076504215, 0.08210446650731605, 0.08241626491643261, 0.17822807745249533, 0.41798846964289016, -0.682311915575706, -1.0, 0.25028827061665637, -1.0, 0.9781060328284824, -0.7765539041941054, 0.1584409987300423, -0.500907707622991, 0.09326613588519908, 1.0, 0.8737313903233456, 0.9188170653576964, -0.4790342024058602, 0.26078747555477044, -0.18908664025280095, 0.7367673963962058, -0.0955179216016965, -0.3227658462951634, -0.09468030981237384, 0.5885367490223297, -0.5199546193651876, -0.8941684315457084, -0.8683202088035752, -0.8505575153632663, -0.9313178477286883, -0.14565155868308463, -0.28941509487655925, 0.39112907221550863, 1.0, -0.7396733709902671, -0.19003413330107982, 0.49178523973098454, 0.27836444829208307, -0.6931221391122184, -0.36948562849303945, -0.7163987448280289, -0.5606378120945983, -0.6070123362636781, -0.43048477882440345, 0.3356190353480336, -0.8765107641188921, -0.4153205463067165, -0.6659136858144961, -0.8421520135843895, 0.5356647749820093, 0.06808831493944456, -0.4829983525675814, -0.4446931885848545, -0.32826044487912776, 0.814115794845581, 0.3493609030317591, -0.5348208764196787, 1.0, -0.378977579646954, -0.9578528506509616, 0.8158486068818076, 0.2509709370541227, 0.7277113386373438, -0.7830799568173881, 0.8905775320699043, -0.946492796231494, -0.09586070927633578, -0.22715269892817216, 0.4680200386265217, 0.0528099301750761, -0.45152089021470593, 0.7345692817525538, -0.033511104094268745, -0.3590430557232743, -0.8395238373602141, -1.0, -0.14012459391612697, -0.8129888673910507, 0.5784467537373801, -0.6876769084542774, 0.6319568501699004, -0.02596609581492751, -1.0, -0.9025094640802238, -0.5606489441608765, -0.3948229948721635, -0.4209635538266086, -0.2705906335197808, 0.06227864056111079, 0.6157123138272242, -0.01673120114227869, 0.5357224744593833, -0.5421014957092316, 0.0287154070786112, -0.5644935079249116, -0.8547994174730923, 0.6903692426815955, 0.14570712862738516, -0.405236783328457, -0.2545512480212493, 0.05904737614045798, -0.7624829637539461, 0.8880598692254518, -0.2432132935119904, -0.16526234466590953, -0.7278963227927083, -0.07332404270448611, -0.8842678352928075, -0.7899354167155863, 0.8990321907583589, 0.39993016755870753, -0.1942265754675941, 0.5524498923495554, -0.18211143488672027, 0.6872381438781886, -0.568783431702866, -0.6876916183194739, 0.24231289662676309, 0.13608716372939333, -0.7309831125302206, 0.6616191441678163, -0.04612421084280699, -0.46389381795716483, 1.0, -0.7646431184554637, 0.5577403353002937, 0.39129478868693945, 0.5197361226027037, 0.9035662368021318, -0.3501401161866385, 0.6139875879817676, 0.14154635789434705, -1.0, 0.6941666048613795, 0.8709618013321136, -0.23421079428238922, -0.5732525666139098, -0.6342131543382696, -0.9327130678096691, 0.6640813888891752, -0.7786245217193555], "fitness": 39.752975927839515, "player_life": 0, "enemy_life": 100, "game_time": 333}
{"weights": [0.9933801424792402, -0.9082908203089807, -0.723383757701785, 0.38128186946372755, -0.13828569634241428, 0.6312620982290467, -0.9328809349441067, 0.20858205461586288, -0.29042231693929316, -0.810180644843602, 0.8592164758534382, -0.24532620614627867, -0.29995771378709696, 0.48133532659353145, 0.8017955378315216, 0.5296810723744232, 1.0, -0.6564254321872925, 0.054142050289516214, 0.5047459910027571, -0.06511458550276061, -0.3385547795689867, 0.35997378000381086, 0.29430223581076037, 0.2389330772075444, -1.0, -0.0073482245392249845, 0.594851516738255, 1.0, -1.0, 0.7083505078630847, -0.7082782854735268, -0.49667902717999546, -0.514632927148287, 1.0, -0.8931806234139393, 0.11739367176046783, -0.77115471365411, 0.8688727934065024, -0.7353678707596523, -0.9280227657270694, -0.17529436503078108, 0.2339148295545416, 0.8732411612831051, 0.00917111129579351, -0.7163673486794779, -0.6975325146728654, 0.8544286508732684, 0.521791437228204, -0.5707825691866506, -0.8701808272837885, -0.05179536037058058, -0.5513687373482359, 0.6482043566112741, 0.8597820904759552, -0.028647340656995285, -0.9321715985513916, 0.9358226866290569, 0.4424605719355107, 0.4342592408181564, -0.2698037785284188, 0.06437655860819139, 0.425704037560865, 0.7039917738939923, -0.2893307516567734, -0.5277945720815416, -0.6108272345154967, 0.15999733717354991, -0.6650526840741696, -0.25782588308142085, -0.03387468507987605, -0.7206840952723107, -1.0, 1.0, 0.4164415309576515, 0.42583360825719224, -0.88455303089779, 0.1902806492105995, 0.8280109593424971, -0.5642447821095253, 0.8951782301305286, 0.6857083740748939, -1.0, 0.020304938529026012, 0.8747669291618971, 0.3625728748075548, -0.7834624280703788, -0.15958786596226593, -0.23334270497823528, 0.42977260267850237, 0.4454263256547564, -0.11926995912865707, 0.0600299252854391, -0.17418697949684103, -0.7256123442804676, -0.9917183093786743, 0.6558963461604048, 0.2640091854377187, -0.5177522307253731, 0.8470881232832682, -0.11872854375944991, 0.018123546221994274, -0.27499968957565163, 0.6191385728363943, -0.053137951608957124, -0.3459981074311243, 0.7155304201357022, 0.6772151064304773, -0.5015358391043063, -0.955038330806415, 0.359557646911851, -0.659584945185214, 0.44689506700390064, 0.7654889430099437, 0.8194347641784456, 0.7616888337754575, -0.38391488267264257, 0.7881583931737006, 0.21975571185338294, -0.6277836668359336, -1.0, 0.09875851388609128, 0.3327514503821258, 0.8292406406335319, 0.06565370065932505, 0.5710456814820776, -1.0, -1.0, -0.15984865646274266, 0.25295482556491733, -0.9160871430310881, -0.4126473066770524, -0.5395748753572452, 0.6433711572629975, 0.27133873478729265, -0.3036221417758992, -0.6072105032638547, -0.9478971785601431, -0.5743247037801251, -0.8210292221319715, 0.3112510360042854, 0.6405219486533231, -0.4199157484014539, -0.015445914119050191, -0.42485694237275495, -0.552388071022476, 0.6296466162661087, -0.04488938448560939, 0.6997045672407657, 0.4407950174083167, -1.0, 0.9135325490542751, 0.7390391045265645, 0.8736073972274585, -0.5811952856633478, -0.5273827103042928, 0.6021032636016306, -0.46906206602938394, -0.34870868680376055, -0.5038557924859224, 0.07643683763713688, -0.41082841138147935, 0.08681105849114801, 0.01905767548753834, -0.6012631348329096, 0.7159422774653518, 1.0, -0.19233187932346804, -0.6698585844208036, -0.6043990585980445, 0.26072226804454424, -0.04341879518323341, 0.6542600006391764, 0.5228863830546832, 0.16475785245583754, -0.1995430299950514, -0.08473459931441413, -0.6183156500707068, -0.005167331732258168, 0.4779379468974305, -0.5276486009664323, -0.8660532824624199, -0.06268363605024474, -0.7524161383243573, -0.5742687778756279, 0.3688870589890161, 0.4709270926971765, -0.03817235364736066, 1.0, 0.7519773093511892, 0.4497269693425771, -0.4266789089619011, 0.23926840449841436, 0.6393892106802713, -0.41129382968923334, -0.6150737141257652, -0.5724429013137122, -0.597664852121814, -0.7097768531335342, -0.8928729312158803, 0.6189299887210722, -0.7097685202348814, -0.5861949204500176, 0.12502008054243136, -0.7640585073643502, 0.5185742424803272, 0.34449595488982554, -0.0890185352846021, 0.4766492634967129, -0.6565962641941766, 0.4955733834028432, -0.3645785919655225, -0.3344282288667066, 0.5689852502046969, 0.8964850131526438, -0.2101141089814536, -0.7891577349666796, -0.5887670141003776, -1.0, 0.376232237152849, -0.6068325474947329, -0.6663924195018973, -0.19120630129902838, -0.08271323572160588, -0.6252860347292577, -0.7553959770183577, 0.7429581856808021, -0.09542449005539358, 0.06182469841548596, 0.17910569136171184, -0.6402429713871092, 0.1415910082027756, -0.16278745367862668, -0.6684375086772758, 0.3923338057151652, -0.9926188147844652, -0.17713214356801488, -0.027308788789219246, -0.9671582639640164, 0.1985786398875063, 1.0, -0.10715919305991325, 0.7894476252260189, 0.8933897486199865, 0.6589314226229617, -0.7727640122695075, -0.3959754306741082, 1.0, -0.621957215659758, -0.46103058792521967, 0.20678571500905185, -0.48009212828354614, 0.6444696467675548, 0.7797951845470454, -0.29668685489917695, -0.46283172940985473, 0.24954488633159438, 0.6211172713916318, -0.5696831970324532, 1.0, -0.35046801992099763, -0.3017524935403944, 0.3890792294767331, 0.47805315143222304, 1.0], "fitness": 57.16226955283406, "player_life": 0, "enemy_life": 100, "game_time": 195}
{"weights": [0.08550421323145865, -0.5460744181711183, -0.19127529538462681, -0.3914517834994031, 0.45441709110424455, -0.8789786132035395, -1.0, -0.6219329711876107, -0.008189997370206703, 0.3826667246944243, 1.0, 0.5672934638032684, -1.0, -0.8896151177791396, -0.17444486794529102, -0.7699484607944942, -0.5288625872916057, -0.1605560759460374, 0.7547442438025389, 0.6589403343462079, 0.6346976291604691, 0.29967296928535414, 0.5995177400084315, -0.09413615499033468, 0.14390178867505385, -0.06433016885009496, -0.5080903511558509, 0.28991922244015367, 0.5338428190909882, -0.898585369398661, -0.5561595607167573, -1.0, -0.16279625248369464, -0.33835846871236375, 0.18715733414646285, -0.6556643200887502, -0.10723779684855814, -0.756455128751385, -0.8317822327458192, -0.48697516651428074, -0.02115286234576491, 0.0818373554112097, 1.0, 1.0, -0.8071873673591836, -0.7240955720191824, -1.0, 0.938369912189408, 0.20669344886207336, -1.0, -0.8440505400360836, -0.11281442603881858, -0.12308908114834102, -0.16679971934126403, 0.035853064295629344, -0.2980641331366013, 0.11944069230942522, 0.5867366502455911, -1.0, -0.646457707640867, -0.5515469451470187, 0.015332126810305213, -0.51242613461788, 0.6514328578574198, 0.8692623042066241, 0.14470447466487935, -0.3551568980450757, -0.8852707800678414, -0.25911859356090844, 0.8650638227481072, -0.3487080134874443, -0.37406767749903314, 0.16679935924515366, 0.4464570801091699, 0.5322593080069699, 0.04198129588759025, -0.5815739344320491, 1.0, 0.03094458394471844, -0.1381310077692271, -0.37880163305475595, -0.1414478375769112, -0.5372624423457864, -0.49029789926223505, -0.7430904913153571, -0.3507550348303172, -0.24580437779980208, 0.2761499086541599, 0.14034498646210677, 0.373231796060962, -0.6308722546881913, 0.20247998595166825, -0.32607043531437074, 0.3889862482679229, 0.5705570935820603, -0.7147058514576533, 0.27958819748520514, 0.1713739464175422, -0.7237876643404033, 0.8201574505606251, -0.1696620493036453, -0.9140746270182616, 0.44620512715350047, 0.5491500055714371, 0.053854111850282604, -1.0, 0.5893928265798987, 0.6532848380370707, -0.4920940445630778, 0.8609608228663681, 1.0, 0.45165620550405394, 0.735364002893513, -0.07123893708874612, 0.5188261031989981, 0.5128890046461767, 0.20794386343318863, 0.4856445421970458, -1.0, -0.6211533968078014, -0.2740205209892649, 0.6482974551562565, 0.31452623998843476, 0.8491604136617878, 0.923346931158783, 1.0, 0.24565767193591084, -1.0, -0.19105580897037078, -0.4600959298626857, -0.3124071915886191, -0.21857370020579847, 0.25427315308449183, 0.7839885303726936, 0.9613978376003108, -0.5601033748118383, -1.0, -0.7043560854412344, -0.4882787837457797, 0.4930639331366027, 0.49229940560979807, 0.08837364728611635, -0.5285031720062254, 0.0767998389162493, 0.11422032538858662, -0.3825566815683625, -1.0, -0.21195815677396646, 0.12423963191443022, 0.8773521223320502, -0.8633219248597358, -0.22068433593666198, -1.0, -1.0, -0.5744115644613415, 0.8156275362041957, -1.0, -1.0, -0.6062786547990311, -1.0, -0.5191457617336175, -0.18538952466993291, -0.6350277315948123, -0.8501872497239435, -0.3414126968245393, 0.11153331709875827, 0.9087584371528805, -0.5559224868478083, -0.6787157541083602, -0.6405441532009017, -0.21186572451646402, 0.6303701360588243, 0.3216647236375426, 0.17102431550517172, 0.6982860266801826, -1.0, -0.7916411511544019, -1.0, 0.01777989401369201, 0.6905283460039288, 0.8190739761410182, 0.9376668253495474, 0.9167793911344218, -0.6929689837038882, 1.0, 0.5155665946076634, -0.25855229572137317, -0.13895709068740725, 0.45344436256935705, -1.0, -0.2151828829058271, -0.7096703768993744, -0.7136645447142409, 1.0, -0.058503688347409585, -1.0, -0.4257087302070416, -0.7524930775437035, -0.3158078651304355, 0.5958592912010012, -0.10204241351481125, 0.10864626753407969, 0.5448111345090156, 0.8826616449677395, -0.6052083258399104, -0.8718862187042025, 0.38576706738480326, -0.4840891843800952, 0.5549320665467823, 0.506355430065955, -0.7897355887497368, -0.8559824947913146, 0.797316503461748, 0.856160070944171, 0.25878387668756275, -0.34011013138087953, 0.10581456376207764, -0.01570978586094532, 0.26362030955514215, 0.10666286558458699, -0.004959038734464266, 0.22153321542752744, 0.36062482208089325, 0.8878706960130953, -1.0, -0.5898080786157187, 0.05833290237780195, -0.588034654520721, -0.6261705211697238, 0.6193013008906515, 0.6548809409520753, -0.2969221888104593, 0.3358371237847356, -0.6779879459317305, 0.012171480968953846, -0.38838463580456256, -0.8513722402009235, 0.48881353110302217, 0.4994009673469916, -0.4436323286610001, 0.9804283226120942, -0.22859795299182747, -0.3422600630516821, 0.6188426929749895, -1.0, -0.7257202742944773, -0.7982430297473304, 1.0, -0.14494495395060203, -0.0756281438041596, 0.4338166243689184, 0.8971465839789394, -0.11713615753393569, 1.0, -1.671255378038472e-05, 0.9919668084846215, 0.541928772505841, 0.9593008500959155, -0.4281501131772026, -0.16465755087237277, 0.6204868655591518, 0.02391977341473933, -0.6776118937262388, -0.6779853707370791, -0.09185649006381269], "fitness": 57.16226955283406, "player_life": 0, "enemy_life": 70.0, "game_time": 438}
{"weights": [-0.1334459676298134, 0.24372472929530672, 0.2704487932017824, -0.6662637751653004, -0.05368216036642173, -0.33362835554519665, -0.7381252428392288, 0.6995779641912991, 0.8504828605705943, 0.4834038364704878, -0.9870748483447366, 0.8892037650698916, -0.4856643447427619, 0.04618424906206564, -0.6380915664260657, -0.4233429505948976, 0.0922903231705933, -0.5526337032644955, -0.8718677801591368, 0.8859750812872444, -0.5803296102387632, -0.20785523564156727, 0.5376293870797866, -0.08571673442012237, 0.7759785256277796, -0.746567839538611, 0.9193738320812803, -1.0, 0.1020959251863223, 1.0, -0.02271140442695324, 0.43047454413329456, 0.6668600199058647, -0.16906211225235923, 0.20462584358931424, 0.09902916293345618, -0.01642517734371929, -0.42860418310295434, -0.8052617601372933, -0.7771411316505055, -0.7131324814041705, -1.0, 0.4642913365752982, 0.1501726293560381, 0.9366045603184902, 0.2403188051400411, -0.6476149347876803, 0.8530590360067187, -0.40311110348956886, 0.3871118284387474, 0.6102272121148575, 0.9050432288315521, 0.4921001047761577, 0.4908476839198034, -0.5841567124796796, 0.5233173817473936, -1.0, 1.0, 0.26229594536231843, -0.47565739922220157, -0.5754383255826041, 0.059211906536358466, 0.391833191841346, -0.21293096145155396, 0.22462565352966343, -0.21265455926039517, 0.676900220645128, -0.6434377993433682, -0.0958102422198806, -0.08222570600567458, 0.05855048792771178, -0.19069831272907156, 0.9951036950174476, -0.48524550721394577, 1.0, 0.29859854510695816, -1.0, 0.17942334805270907, 0.7470681790522369, -0.10533208166077271, 0.00013537449480821584, 0.9139185628440514, -0.3186321254381258, -0.740946581385558, 0.17816076153540794, -1.0, 0.5595153042706185, -0.8311095955696248, 0.34404566023223304, -0.030681949371520828, -0.8296592417522664, 0.3619849638019552, -0.22583589314972838, 0.12112407990415386, 0.26336645739294756, 0.914959257993234, 0.47504297460275546, 0.9493939473363464, -0.9891152693907166, 0.6812063976385853, -0.5191389919266021, -0.9497800626012802, -0.484993388994551, 0.5113218695020199, -0.39237038493648996, -0.9643150590584758, 0.8523779971122061, 1.0, -0.37323784659657555, 0.6520309541643972, 0.7446710137476358, 0.2772961758135749, -0.623793503093853, 0.12155839477563682, 0.32965047485598803, 0.08957229710561093, -0.4552720190723708, 0.7534515072768927, -0.6768448227643638, 0.4113221188090294, -0.5749311173641419, 1.0, 0.7700621213393076, -0.993954863926825, -0.19240517339132526, 0.5485823080148776, 0.8260486966473984, -0.2891967914622165, 0.1556181589445542, 0.4896082431245241, -0.4952593997014971, 0.3457782457118548, 0.2875991879842913, -0.0423789153550764, -0.9397316226122828, -0.5860721002162743, -0.2522255527713284, -0.2571830784113187, -0.835131339317168, -1.0, -0.15413220910782072, -0.6865316393245032, 0.10218661132023134, -0.0040536186000351415, 0.26550129467197925, -0.5725767660352601, -0.11864374775455172, -0.7659331019457395, 0.934828857038549, -0.7565652560388856, -0.902895106541025, -0.11137121931829272, -0.4746409730252459, 1.0, -0.05608689857556101, -0.21119601144192152, 0.8423404307210977, 0.2519750354114774, -0.00523379086660658, -0.8748533685796532, -0.7639123374147931, -1.0, -0.2132035317176484, 0.029299886233993738, -0.8766112038688747, -0.23603377768029077, -0.19317032085704305, -0.6919842921032866, 0.5591709172558417, -0.4999656974421433, 0.5766017570087358, 0.7240254869581644, -0.3337999937486564, -0.06305564286140242, -0.7216893840614117, -0.5324881532700094, 0.48623833193052995, -0.7773892310090402, 1.0, -0.12370096968132212, 0.19501194894872195, -0.6224455086234262, -0.39732022986934473, 1.0, 0.5838233447310923, -0.7612894560044752, -0.5993295958219449, 0.26574701168510895, 0.22540175575685076, 0.46919905550389696, 0.6350356306205216, 0.03296487415115465, 0.3028516618268087, 0.9937480718910091, 0.9547495962239001, 1.0, 0.24416804279501322, 0.8220491997034258, -0.3246394546198291, 0.028978781154798683, 0.16163467919017885, 0.05692070242818523, -0.03364536133204571, 0.4624473728290309, -0.23450293493420066, -0.3470411718884157, -0.14859908944642075, -1.0, 0.9068737619844884, -0.19787032997941853, -0.2751856158119395, -0.5727941103591112, -0.7716542735923437, 0.372135632319586, -1.0, -0.7014176894469096, -0.7287890511946832, 0.4307950375973777, -0.4476257001853265, -0.8822123535969382, -0.30491486135494, -0.20359156889294627, 0.37736916949542115, -0.7292816815408979, 0.07515222125568137, -0.20788640890007548, 0.08499637957088521, 0.5489906859919719, 0.22733473603138027, 0.6683544027182933, 0.6733343658989018, -0.817134888779923, 0.49230095699259596, -0.49857298457737964, 0.6066206602740538, -0.62968964844224, -0.1382102106475636, 0.8071030795220036, -0.30455407648319394, -0.603732278959157, 0.7480728763383402, 0.3624320543777416, 0.9083560871521152, -0.16094027955867984, -0.7837494661870767, -1.0, -0.1759148643839697, 0.2244508204712038, 0.6013135639123036, 0.8207578392883976, -0.34194412624870424, -0.9150552568176132, 0.18473814268715935, -0.5942260210261939, -0.7995538783077223, -0.532502620366593, 1.0, 0.5099177755335582, -0.8405721367758313, -0.26248873528406286, 0.7674708382501054, 0.9858044727011117, 0.3264290166944689, 0.38905953636126334, 0.21230938939482596], "fitness": 57.21003982910275, "player_life": 0, "enemy_life": 30.0, "game_time": 327}
{"weights": [-0.24366476833296236, 0.2969073781676465, 0.6536782657115605, -1.0, -0.5498281506432681, 0.982665844919498, 0.986972029623595, -0.5026311354775852, 0.8454992801738757, -0.1819264456478647, 0.5175427899183974, 1.0, -0.9910279964290465, 0.7016488760419447, -0.9795555457095143, 0.9529628671203645, -0.14673829191802276, 0.5780960798387162, 0.11047632912235628, -0.21532050527810975, 0.7426715684435512, -0.20621297833009666, 0.16247377889100367, 0.3481007011041634, 0.7799595771225334, -0.8331318772860766, -0.5895698758699357, -0.7295147575560226, 0.7529594881974978, -0.6261855219494743, 0.45784899256449574, -0.7723463495938931, 0.2478486113230741, 0.9123134753652281, 0.4010799488382294, 0.4254736541639595, -0.3352103206895095, -0.6822341782615838, -0.7458974257700925, -0.966074502420025, -1.0, 0.5725482758396512, 0.09378550339446962, 0.0786342694449656, 0.004298326871472441, -0.6566942429790767, 0.5237442471245407, 0.6149708123113006, -0.1995958338418269, -0.22326128788264965, -0.12776640304151782, -0.3529949036329257, 0.07161390564310069, 1.0, -0.5020820054894619, 0.1795986717483513, 0.12634009878277574, 0.6724030046405123, -1.0, -0.9300552640831077, -0.7338959288496798, 0.1382078929600118, -0.21980620587391803, -0.06719911037781026, -0.23519902700493833, -0.5487212069729223, -0.6391331105959346, -0.6607152323805112, -0.6524954916746837, 0.29382206390032856, 0.1761639364769042, -0.4779471935106827, -0.8227917547320927, -0.0369850184212876, 0.17234539611747707, -0.34479153715255667, 0.5321669750639223, 0.8976919556591174, 0.9235436357687923, -0.6350299355788805, -0.44143477788861923, 0.08652106982414592, 0.28048435786201464, 0.11779497560267017, -0.4013545239283552, 0.09613300838837927, 0.1466714147025243, 0.357459527249889, -0.8392037418650419, -0.4057178803324622, 0.8789788535617938, -0.449861834869419, -0.007203919464549929, -0.440034578316193, -0.16438804891462921, 0.6137744151987433, 0.19807688079510835, 0.45580428385330685, -0.15475601917647608, -0.21770972968383273, 0.32911492843284046, -0.1633116819124838, -0.16398772019092123, 0.14040550728931372, 0.028971635602178775, -0.7164121697864695, 0.49507315927876083, -0.07957877673998465, -0.4180640183601567, -0.16966818580291568, 0.8604384981865747, -0.06631339608809489, 0.16756650424275, -0.2624818660059202, 0.4607082423839682, -0.28025734265621627, 0.39468112733638916, -0.12600214350279182, -0.44090757803081015, -1.0, -0.6808168790355166, 1.0, 1.0, 0.8818948807190438, 0.7235767835957497, -0.0723131831429989, -0.6862782794809051, -0.1994059164563604, -0.3206100532624066, 0.7587592610045211, 0.06734971165229098, 0.9533222473016396, -0.5922119677242299, 0.20945678306432133, 0.7048511288609146, -0.3941865936787561, -0.6347619613066431, -0.7160285399979663, 0.29194073355601124, -0.04399472321870235, -0.08026896460492683, -0.7115541218178774, 0.3955243656971654, -0.17800205401299718, -0.6037578451752328, -0.02197828319590961, -0.05028758348739326, -0.009391241678721074, -0.9255251638057787, 0.1148987383881607, -0.9250303764279015, -0.6722675038248788, -0.10262953885920678, 0.6970087773016095, -0.6893505517421774, 0.7868471278678874, -0.6978906649706695, -0.8771760456696567, -1.0, 0.09549639473905505, -0.1255105867802447, 0.8036613131168616, -0.5760589197188372, 0.7433281158860088, 0.8121626745303525, 0.8556028721434366, 0.9946477604686179, 0.31598810368661967, -1.0, 0.050418256529696226, 0.767747929608263, -0.8830583347363975, -0.02895927427657044, -0.8582110003716668, 0.1474287923180657, 0.19637751703030393, 0.5302462576315448, -0.5406740918659175, -0.07921499190955278, 0.6536709053092606, 0.6666139834989807, 0.7764057775062156, 0.1474792469788799, 0.7867584828254188, 0.7491797035688558, 0.253594341575343, 0.5852830546178392, -0.017814721000173728, -0.667216618800203, 0.7353959514867999, -0.479610910926883, -0.014617032004758973, 0.811875168467023, 0.43208594288304375, -0.5998876352732038, -0.8696714277745421, -0.3653033490678849, 0.6182246607230815, -0.0361661715496229, -0.7028945880968676, -0.17197904674744166, 0.1911412350873436, -0.560888742355104, -0.960778592352257, 0.0998744589201021, -0.05517818715703829, 0.45953135954589497, -0.4278886079849913, -0.33053180275232485, -0.900845454222934, -0.570971545492521, -0.4579892822796644, 0.683402288333198, 0.29613208624684767, 0.7203285213259656, 0.6414484475891744, -0.7307827617191587, 0.14446956853741086, 0.26565313360599263, 0.32590116402898583, -0.2940647181085037, 0.662675164193113, -0.045231103986094257, 0.6675227920196576, -0.6037174418424269, -1.0, 0.16775659543436994, 0.4166345509655708, -0.35846913506536143, 0.786808918624186, 0.12696192111232757, -0.533104426644991, 0.47315471366113315, 0.8070127996168615, -0.6049104512858798, 0.09859236361620483, -0.45392703210189833, -0.4144027067994004, 0.31700097243181957, 1.0, 0.6451708229163206, -0.252431702862333, -1.0, 0.6204263563593709, 0.5577215433037676, 0.8266308892103831, 0.18675673320003053, 0.9802609447527637, -0.32027144338150937, 0.6159044615069571, -0.9415330300611653, -1.0, -0.8734717806285157, 0.13382560785237527, 0.9179371774335834, -0.3163906756434344, 0.18904260116906663, 0.18330983385678376, -0.4783007221282549, -0.9970989810945047, -0.39653565640071403, -0.07436993236986983, -0.10349951749058772, -0.10599492705061497, -0.3319283251643943], "fitness": 56.910955124553155, "player_life": 0, "enemy_life": 70.0, "game_time": 190}
{"weights": [-0.5780940795647427, -0.3580751334683573, -1.0, -0.7836086030946938, 0.5277095520787948, -1.0, -0.34733990048944036, 0.5047769169749364, 0.011128054765296352, -0.6761738575219953, -0.977914855436549, 0.2982895579865681, -0.23609362614652046, -0.1823137655778308, -0.2805790816425387, -0.1640468238209611, -0.169838980732803, -0.28703845740488465, -0.6957579173374018, 1.0, 0.04712301134453212, -0.7850711741319889, 0.7420356619229966, 0.23961955143168104, 0.3471075630069511, 0.36047328565817677, -0.1257917898111009, -0.062486436291537314, 0.4836399272439059, 0.10316943035176077, -0.06433664071936435, -0.2582689064267002, -0.2522909488958408, -0.6318007866363706, 0.5786736338422259, 0.8687906139334336, 0.8410256491792805, 0.7223172347756439, -1.0, -0.8728916277237775, 0.9580878421208077, 0.3910293315158998, -0.4220743445611358, 0.5369704562391112, 0.43517908588127874, -0.8784633792712364, -0.9589131956034553, 0.907706152678756, 0.5160410702180018, 0.9959081562636732, -0.34334691639512144, 0.47763408143597874, 0.15547235185456373, -0.5792518807736398, -0.9569300461673726, -0.2626396333587964, -0.8618156189184532, -0.1719406152525639, 1.0, -0.11353887928190243, -0.36510298064749025, -0.19708256767293186, 0.37478040726770306, -0.30903846581787336, 0.43575592920285816, -0.23540686974987834, -0.22734603663226152, 0.556372872389229, 0.8661162502804876, 0.37709078967058096, 0.29830264046245936, -0.30946134763171196, -0.4825737721946083, -0.3644986197916385, -0.960027299157777, -1.0, 0.5241855701046657, -0.1861509973487898, -0.842316092058598, -0.47946129322222164, 0.9983473603463489, 0.45054408117638833, -0.0404774898909365, -0.8339454967417852, 0.7796815759237035, -0.32772771110250726, 0.06807418609326993, -0.6186548439146259, 0.1536985844003202, -0.09331872657496132, 0.9800643487971892, -0.8024263685772568, -0.4613548444666667, -0.8496717813133446, 0.4386395781569906, -0.2353051171732899, 0.1396921733708694, -0.34519969287324764, -0.45331797445019695, 0.6707038024689499, -0.3441169689230887, -0.049263145726598345, 0.27245817294166097, -0.8179655834658422, -0.7538128361669281, -0.665016252455552, -0.2866824672731836, -0.2501776459981968, -0.7162808764689975, -1.0, 0.5652204832786277, -0.9331639297616035, 0.10272346232711493, 0.2685451625736841, 0.550960292929627, -0.4874081169197378, 0.29899794403155233, -0.07956103835478384, -0.056576356181618825, 0.4904920528735284, 0.49726543761057734, -0.055477460653530986, -0.9819667243601542, 0.13865854456116639, -0.20572195147228664, -0.9971726194052224, -0.8971972202058227, -0.45472526486220444, -0.65808545919633, -0.012048801107819584, 0.4916564541664946, -1.0, 0.3670045209684108, -0.4356944209115612, -0.8195500936222484, -0.11601682259978574, -1.0, -0.5869463170821967, -0.8561298351193691, -0.30817276783951025, 0.22668036948561565, 0.13653229699425207, 0.7065821782119177, 1.0, -0.5276105530139125, -0.8529178801602819, -0.7873752166234622, 0.9542142976036863, 0.7831825505277352, -0.04282373574093251, 0.2183288656907826, 1.0, -0.7799514329787997, -0.9331554921939669, -0.18001004978657315, -0.6750183935547467, -0.8825194199630431, -0.5070133341031736, -0.01771240137813096, -0.3102637211380951, 0.20248415744649867, 0.5118086974539967, -0.8284262237587179, -0.2936481563623582, -0.25860114686659164, -0.031197788403949434, 0.8398823549029794, -0.10149668732099247, 0.5120965376391028, -0.7264552843133976, -0.6513290400298399, 0.35108329321208287, -0.968737347610712, 0.9360344460390445, -0.8987330873181051, -0.4389920774359589, -0.6161016981000065, 0.7380055454033421, -0.8801801897018839, 0.7807923597185817, 0.3142514500538819, 0.45784575829046653, 0.3771781370838405, -0.3264177854621327, 0.7024135945036852, -0.30791517130225105, 1.0, 0.5831548608237593, -0.20496996624270725, 0.742020065861911, -0.5156934650427245, 0.8110394910351861, -0.3990083834713151, 0.5685288734850388, -0.856684373091344, -0.7179733201781421, -0.41185346881020457, -0.9741578092604607, 0.7174422220266373, 0.23867871889791914, -0.580911271832367, -0.008734371510096123, 0.1937383913851915, 0.17788686234662981, -0.38369755248864457, -0.12986529643512207, 0.07343549058385612, 0.5054165530463565, 0.6268259235275402, -0.40418346688952816, -0.02810572033238079, 0.5177018082565404, 0.8216330656763715, 0.6027625414721192, -1.0, -0.5508160285453201, -0.9264537579114458, 0.41987999506388773, -0.5711919323118999, 0.002990215242748062, -0.9958015030935506, -0.2818227769250773, -0.5129264758047463, 0.350314540379079, -0.6033385666172908, 0.1633418363909637, 0.9194477385877979, 0.7900215187390106, 0.7749876877410549, 0.5144210378219216, -0.25885992183279577, 0.140734941982697, 0.1655312465362629, 0.11040988593478263, 0.04518260744577224, 0.3299717392100071, -0.4035191794720327, -0.32690762884399005, 0.26520215245057666, -1.0, -0.6787886201641821, 0.08707781404617743, 0.5473801835300931, -0.0849473609716648, 0.09927356512553512, -0.27227119868384375, -0.522959551094077, 0.9860514317779826, -0.7923555483196989, 0.98289584564874, 0.32876401854353754, -0.9657828286545451, 1.0, 0.8879673793781047, 0.41708491421187566, -0.4385660913797584, -0.41031486998635197, 0.7699069716001441, -0.5120899964148963, 0.6743844686997826, -0.22627225615953084, -0.04903457784771556, 0.5463606225676666, -0.23140083723611726, 0.6391461841976948], "fitness": 57.16226955283406, "player_life": 0, "enemy_life": 30.0, "game_time": 343}
{"weights": [0.37509541574492206, 0.24116696063125825, -0.8755024142601557, -0.3946331936512732, -0.04294915318176909, 0.704300377129601, -0.6478157593221777, 0.21670021807742954, 0.2201983226652192, 0.3555691283048812, 0.07016614306913485, 0.798075569031907, 0.12019218654553507, 0.010049710182914826, -0.4135443562517081, -0.9278478196736569, 0.4219300560050307, -0.08534033613857847, 0.790200235948469, 0.7255446612920782, 0.4078295868151107, -0.21020544903309024, 0.8172394356268848, -0.12484546272247499, 0.27077000420367536, -0.8149582586502135, -0.504448673424801, 1.0, 0.851919806257444, -1.0, -0.5087881769590528, -0.4893150580283972, 0.004746809432632448, -0.2730681485900458, 0.5671205463680541, -0.8342127461046684, 0.0772943301691862, -0.2724856999646723, -0.36372087646416285, 0.7865654257310914, -0.010484441753195572, 0.6428813332587585, 0.042667469290846416, -0.4124658572193757, 0.8372529438062255, -0.8867364898069596, -1.0, 0.5384737670259967, -0.850515264107594, 0.49429276538162525, -0.9497615095602815, -0.7953505978558455, -0.8449299984230842, -0.9468628031944827, -0.17945327101500025, 0.5777789888933438, -0.2862360312983393, -0.07612780494624208, -0.14518650388129548, -0.5270202602624636, 0.6807276179727264, 0.4944523104509124, 1.0, -0.7919973262088082, -0.921324165336814, -0.16979181521244158, -0.04988705294237317, -0.8499437030806964, 0.612166953444542, 1.0, 0.13747838088158826, -1.0, 0.014105795479318395, -0.6758211792462666, 0.3929373211013703, 0.7209345675831377, -0.14374470791492913, 0.8463117549421717, -0.3153109880984533, -0.8664520709347896, 0.9030364473638202, -0.15586527581142862, -0.4628236495497596, 0.022638069400789163, 0.16979433375444417, -0.17180057546402627, 0.35802347967261583, 0.04185694664411693, -0.414145349162978, 0.6390281819133348, 0.5672973188390164, 0.05800552289497188, 0.208635486299706, 0.06873065439049882, -0.7591624157025358, -0.754297276456728, 0.06903256933311956, -0.3918857999239212, -0.6705085322911204, 0.06764979027305124, -0.987852535156857, -0.6042513340172311, 0.7712190560554932, -0.5280005270280871, -0.1678663382299474, -1.0, 0.5649821135312658, -0.034957467205215476, -0.2978420105792887, -0.016379329487493016, 0.814136577093376, -0.7865145548267116, 0.8353303329230117, -0.21698273184879222, 0.4258703986667516, -0.4455004336603464, 0.17276557660654987, -0.40892444336869715, -0.41944730681058673, -0.42669473245627554, 0.35859624159018055, 0.6893558752046793, -0.5993988904378045, -0.2865876619983005, 0.09995392491529406, 0.041294471925313075, 0.3355238770596445, -0.8525249085282208, -0.22053010231964343, 0.4427400479105743, -0.5458482582248082, 0.22475270191900915, 0.6188138002841921, 0.9849482174233711, -0.5832009941485865, 0.9771173502502251, 0.7704308583654738, -0.7527101246423156, -0.644842585457299, 0.9703559594763116, -0.7273723292291996, 0.4495437122905295, 0.45445658522911586, 0.7740904453730114, -0.7540728008996153, -0.4962434054810995, 0.18682763796736362, -0.009425354581379206, 0.6977165355021737, -1.0, -1.0, -0.44785585240055925, -0.6333030372755198, -0.42297927604455016, -0.7074886970822011, 0.09814317449893878, -0.021501127279134447, -0.057689302016675784, -0.6726500772625187, 0.34791927346445856, 0.9311261157704354, 0.11616733071409577, -0.7067151689202027, 0.8761886151677173, -0.14470165081980646, -0.17047227409946508, 0.43654171889007315, -0.48167001027273415, -0.024716946373925325, -0.1397355122373373, -1.0, -1.0, -0.7273900855024784, -0.8847895262281179, -0.7689387155361549, -0.3623923996686513, -1.0, 0.17684902433761962, -0.4433920134563241, -0.5574702626847254, 0.4563879528822682, -0.5010316181168988, -0.3438410170770113, -0.7085071386440394, -0.3754568198642903, -0.08575010237793512, -0.2078746049382577, -0.495921885074653, -0.6591997762676781, -0.8947583560782579, -0.7126773584997286, -0.4286246816039761, 0.16475767163829275, -0.5922925428359718, -0.006552094184969742, -0.25513289146671037, -0.007781846869314102, -0.9991942435662637, -0.5041227812419528, 0.8194602281583727, 0.21880825697625456, 0.57710844055339, 0.3454366218552182, -0.12556362084657258, 0.6434652452412837, 0.607290752715536, 0.41104945393320386, -0.16663269376018794, 0.5111907792349909, 0.5804022944378124, -0.740611652082206, 0.054029445218289576, -0.13230563990463456, 0.4334964352309887, 0.9809822753650882, -0.25103848687262986, 0.7658080939069634, -0.6789187697777908, 1.0, -0.014373193333959616, 0.023887421058855107, 0.5159076433633707, -0.5290986136216216, 0.9430125552793142, -0.3300930472210162, -0.6370964772151154, 0.8885951673279207, -0.13489962046892423, 0.44277995265837766, 0.5520426971328565, -1.0, -0.8190471560829482, -0.8676001014093396, -0.8628145927100528, 0.9402440720908567, 0.8855572934760557, 0.6611249758036861, -0.6087127556495415, 0.08446272711431393, -0.29052375592978646, -0.6518312138117206, 0.2841003165421435, -0.26310054498797325, -1.0, -1.0, -0.6715993759846759, -0.920932256448509, -0.17636153253846304, 0.8091640085512777, -0.1615750231470166, 0.4500415347191954, -0.08330130319947762, 0.6707965350565489, -0.0874834611084162, 0.6582566715990016, -0.33937996334634946, -0.08928341801968043, 0.7195156232345942, -1.0, -0.800618812828705, -0.8950750394845963, 0.5416339080859491, 0.9123285391871052, -0.11185828194071848, 0.24997733856721946], "fitness": 57.16226955283406, "player_life": 0, "enemy_life": 30.0, "game_time": 343}
