{"weights": [-0.969431145199388, -0.47190783669219405, -0.6111113695698862, -0.7393348276078404, -0.8810824891485949, 0.7646999172443629, -0.7727176767209878, 0.745777465128131, -0.03199261074736093, 0.7812714993385694, -0.25682820858678346, -0.9160520688161484, 0.951455627283456, 0.2530945170249086, 0.6364883943103181, 0.13399289271552606, 0.19176304371410757, 0.13087096735248616, 0.9212114709651573, 0.9947595200577881, 0.80439527463919, -0.77693857306781, -0.7543940323685214, 0.37270502569760344, -0.4662842090289754, -0.8102967255834206, -0.28535201655532294, -0.3935046883952187, 0.6314265167825774, -0.38601093661691266, -0.6707872567852187, -0.5671365779329514, 0.21106261202753274, -0.01402001433643374, 0.4177709973086743, 0.27007667194452334, 0.17799851372769293, -0.663630558937095, -0.24811210836293518, -0.4739496401514969, 0.33697478806637493, -0.5182904961750978, -0.4406134026893511, -0.958552539458192, 0.7287148676447124, -0.0993790142183415, -0.6758883981481689, -0.4453902326415149, 0.04247904460007956, -0.6013742451113224, 0.42203584314188514, 0.1242456112984538, -0.5521083433483198, 0.6317206797705213, 0.2099808172949098, 0.8051687442298514, -0.6347739534452963, 0.34404140526296945, 0.8277938355588716, -0.2402366482804721, 0.8156838680385055, -0.914431549153939, -0.040555237147110956, -0.11289447840128886, -0.7479953872544258, 0.9501862431812103, -0.3389952445929667, -0.6614665721806205, -0.3700472320102566, -0.5696283728746381, 0.5977470182012461, 0.12218994045891796, 0.9873678079824939, -0.07359601756180068, -0.3184216224842522, -0.7701168880691298, -0.7119355552406734, -0.6066497488127129, -0.5339444543578424, -0.6941998356897827, -0.6970178835293754, -0.7065847157595921, 0.525848018733535, -0.08493364996401676, -0.3221590964744838, 0.4734560481202592, 0.8601087240913421, -0.32166279757152805, -0.07218176096357443, -0.5127446449595787, -0.730687574582104, -0.32586614988349427, -0.2974981632499545, -0.5703359867993685, -0.24117133135103597, -0.06470342770555981, 0.01729742541567636, 0.4488570987221301, 0.17691659176881336, -0.08230434938480347, 0.0037498308815717696, 0.054182198831325135, 0.482732936280466, 0.6704615134739946, 0.7190516024333296, -0.32296466292756776, 0.3004953757988691, -0.17722339687413347, 0.28591588337856466, 0.4640121138674451, 0.28189702756821977, -0.14081305060242966, -0.9198160559371793, 0.799893411493005, 0.42865778187312586, 0.88542756170976, -0.3390279623014478, 0.43577256105998496, 0.47260674289543525, -0.007296121809036826, -0.20219130199628332, -0.7109680151037665, -0.9331130349519765, -0.1100083009922963, -0.30805320665744573, 0.23192756772252476, 0.685313262332671, -0.3686023152047031, 0.07384156441778433, 0.45284522919733217, -0.6918095742921762, -0.9597194215403131, -0.08769062105550063, -0.4628107196073561, -0.6474242000767989, 0.0635153389349874, 0.4016741465026441, -0.5854701681355694, -0.43214695944440185, 0.1583528347630221, -0.3936352861476877, 0.9861947941382925, 0.37312235062318844, -0.319598759327258, 0.6721697050569966, -0.018196300605863414, -0.9646411774733685, -0.08707154065512346, -0.1362063247957097, -0.43670191638924183, 0.43021542121550205, 0.27011001999989004, 0.014641495548518568, -0.8533847319514543, -0.03699004007659834, 0.7680534375559827, 0.4792065301174646, -0.29340686392077187, 0.44912954841736563, 0.5073424226523318, -0.06229479671266991, 0.04943643380261342, -0.7226488883801057, -0.6844902634839976, 0.17459406448551507, -0.5718122944622317, -0.479081566439455, -0.8795980295440797, -0.8295391662535827, 0.594016050848921, -0.7050452843119257, -0.44874708296826693, 0.9369641302213856, -0.02081652605524531, -0.8878276731704737, -0.16339909262474217, 0.7307853918195042, 0.30000397197140183, -0.08524494484666656, -0.0004009841133512104, -0.06718860791993331, -0.19856699060754357, 0.28446288162848754, 0.17312519062578602, -0.03372372254633338, -0.20867746216406857, -0.33160278336241, -0.10797967248189444, 0.5760143773092821, -0.8562831832233615, -0.8725519144771534, -0.33726281217714815, 0.004551141617013199, 0.25903442295226786, 0.4819317282515767, 0.12862952212129608, 0.760298396526567, -0.730627231344426, 0.31578834199036065, -0.8881116818117687, -0.5287581648946218, 0.8755040028692755, 0.8857071595669723, -0.5604791249723815, -0.5020650768291597, -0.6395327454003761, -0.6545118857970016, 0.3171551914510242, 0.580480701900473, -0.8147173806412238, -0.8373888394375832, -0.5890807368940301, 0.8545930697985338, 0.482946874675636, 0.6562337566440943, -0.510586977397387, -0.5907949424770211, -0.2966183418702373, -0.3691209812923495, -0.16218327270103705, 0.8145691995855318, -0.9714409165379227, 0.9321776753944695, -0.6224395239225824, 0.0640152463904815, -0.4652733195186953, 0.26039880930790993, -0.0823366410985853, 0.8141311968819727, 0.8658805491399435, -0.7896652902007677, -0.22301838502750204, 0.22579878454087954, 0.2014776273164136, 0.3779481844754333, -0.9865974452341582, 0.8314542104160221, 0.9997678669742189, -0.050526012525932584, 0.05232948754218891, 0.0679675262498749, 0.6028200377813562, -0.13102897363919652, 0.2308116962725737, 0.8148142058017727, -0.3095884852739108, 0.5055175972040338, -0.7915565659100929, 0.7091424898068128, 0.09327375021162809, -0.8648226167472468, -0.9986840829177792, 0.5349733877642366, -0.04863196219973731, -0.9384796499665486, 0.302421860871376, -0.014912235435801335, -0.44092151026603466, -0.2506867816079217, 0.6107255356157293, 0.202175150089285, -0.6230885239952788, -0.4765879705669378, -0.9859813585957011, 0.21449495647971273], "fitness": 41.96046728428749, "player_life": -5.872031846109618, "enemy_life": -2.3746859276654995, "game_time": 202.17968120298252}
{"weights": [0.9799777186637553, -0.47190783669219405, -0.4468581344827258, -0.7393348276078404, -0.8810824891485949, 0.7646999172443629, -0.7727176767209878, 0.745777465128131, 0.332115733274746, -0.5893909219139817, -0.25682820858678346, -0.9160520688161484, 0.951455627283456, 0.2530945170249086, 0.6364883943103181, 0.13399289271552606, 0.19176304371410757, 0.13087096735248616, 0.9212114709651573, 0.9947595200577881, 0.80439527463919, -0.77693857306781, -0.7543940323685214, 0.37270502569760344, -0.4662842090289754, -0.8102967255834206, -0.28535201655532294, -0.3935046883952187, 0.6314265167825774, -0.38601093661691266, -0.6707872567852187, -0.5671365779329514, 0.21106261202753274, -0.01402001433643374, 0.4177709973086743, 0.04843702673621353, 0.17799851372769293, -0.663630558937095, -0.24811210836293518, -0.4739496401514969, 0.33697478806637493, -0.5182904961750978, -0.4406134026893511, 0.2069645176601309, 0.7287148676447124, 0.6481995114896539, -0.6758883981481689, -0.4453902326415149, 0.04247904460007956, -0.6013742451113224, 0.42203584314188514, 0.1242456112984538, -0.7698272275407769, 0.6317206797705213, 0.2099808172949098, 0.8051687442298514, -0.6347739534452963, 0.34404140526296945, 0.8277938355588716, -0.2402366482804721, 0.3355213968430657, -0.914431549153939, 0.7608747124218598, -0.11289447840128886, -0.7479953872544258, 0.9501862431812103, -0.3389952445929667, -0.6021683100522905, -0.27430432689489126, -0.16011185500752267, 0.5977470182012461, 0.12218994045891796, 0.9873678079824939, -0.07359601756180068, -0.3184216224842522, -0.7701168880691298, -0.7119355552406734, -0.6066497488127129, -0.5339444543578424, -0.6941998356897827, 0.8232695340817731, 0.3995373163063627, 0.525848018733535, 0.9285573041441111, 0.04915403952603814, -0.32735894350801376, 0.8601087240913421, -0.2832355521244765, -0.07218176096357443, -0.5127446449595787, -0.730687574582104, -0.32586614988349427, 0.05831511577195614, -0.5703359867993685, -0.24117133135103597, -0.06470342770555981, 0.01729742541567636, 0.4488570987221301, 0.17691659176881336, -0.08230434938480347, 0.0037498308815717696, -0.493841260764752, 0.482732936280466, 0.694982244591859, 0.7190516024333296, -0.20718860983568743, 0.3004953757988691, -0.17722339687413347, 0.28591588337856466, 0.15583621219897958, 0.28189702756821977, -0.14081305060242966, -0.4635447513810309, 0.799893411493005, 0.6056637039558803, 0.88542756170976, -0.3390279623014478, 0.43577256105998496, 0.47260674289543525, -0.007296121809036826, 0.5250488343903426, -0.7109680151037665, -0.9331130349519765, -0.9933188384766518, -0.30805320665744573, 0.23192756772252476, 0.685313262332671, 0.5827214446838156, 0.07384156441778433, 0.45284522919733217, -0.6918095742921762, -0.9597194215403131, -0.08769062105550063, -0.4628107196073561, -0.6474242000767989, 0.4226930389874879, 0.4016741465026441, -0.5854701681355694, -0.43214695944440185, 0.1583528347630221, -0.3936352861476877, 0.9861947941382925, 0.37312235062318844, -0.319598759327258, 0.3512031013466519, -0.018196300605863414, -0.9646411774733685, -0.08707154065512346, -0.1362063247957097, 0.5447535421496439, 0.43021542121550205, 0.27011001999989004, 0.014641495548518568, -0.8533847319514543, -0.03699004007659834, 0.7680534375559827, 0.4792065301174646, 0.3108186923312368, 0.44912954841736563, 0.5073424226523318, -0.06229479671266991, 0.04943643380261342, -0.7226488883801057, 0.4392373136176666, 0.17459406448551507, -0.5718122944622317, -0.479081566439455, -0.8795980295440797, -0.8295391662535827, 0.594016050848921, -0.7050452843119257, -0.44874708296826693, 0.9369641302213856, -0.5982224573555217, -0.8878276731704737, -0.16339909262474217, 0.09800623165919764, 0.30000397197140183, -0.08524494484666656, 0.652050085616463, -0.06718860791993331, -0.19856699060754357, 0.2149436811188088, 0.17312519062578602, 0.7233141919907413, -0.20867746216406857, -0.33160278336241, -0.10797967248189444, 0.15547864112866971, -0.8562831832233615, -0.8725519144771534, 0.7089829128776028, 0.004551141617013199, -0.513034871196131, 0.4819317282515767, 0.12862952212129608, 0.760298396526567, -0.487672128122022, 0.31578834199036065, -0.8881116818117687, -0.5287581648946218, -0.47631456689185114, 0.8857071595669723, -0.6911707263040479, -0.5020650768291597, -0.6395327454003761, 0.10099442939820169, -0.6361020565309419, 0.580480701900473, -0.8147173806412238, -0.493327722767676, -0.5890807368940301, 0.8545930697985338, 0.9407679205846975, 0.486424456212712, -0.510586977397387, -0.5907949424770211, -0.2966183418702373, -0.3691209812923495, -0.16218327270103705, 0.8145691995855318, -0.9714409165379227, 0.9321776753944695, -0.7959390634889982, 0.0640152463904815, -0.4652733195186953, 0.5593402148482389, -0.0823366410985853, 0.8141311968819727, 0.8658805491399435, -0.7896652902007677, -0.22301838502750204, 0.22579878454087954, 0.2014776273164136, 0.3779481844754333, -0.9865974452341582, 0.8314542104160221, 0.5653073993072864, 0.4303759876601223, 0.05232948754218891, 0.0679675262498749, 0.6028200377813562, -0.13102897363919652, 0.2308116962725737, 0.8148142058017727, -0.3095884852739108, 0.5055175972040338, -0.7915565659100929, 0.7091424898068128, 0.09327375021162809, -0.29613441417135955, -0.9986840829177792, 0.5349733877642366, -0.04863196219973731, -0.9384796499665486, 0.302421860871376, -0.014912235435801335, -0.44092151026603466, -0.2506867816079217, 0.6107255356157293, 0.202175150089285, -0.6230885239952788, -0.4765879705669378, -0.9859813585957011, 0.21449495647971273], "fitness": 37.37813989019449, "player_life": -9.195502288722967, "enemy_life": 0.2993256349666318, "game_time": 208.24930939577854}
{"weights": [0.9799777186637553, -0.35981632261295693, -0.6111113695698862, -0.7393348276078404, -0.8810824891485949, 0.7646999172443629, -0.7727176767209878, 0.745777465128131, -0.03199261074736093, -0.5893909219139817, -0.25682820858678346, 0.7382868887397986, 0.951455627283456, 0.2530945170249086, -0.8951624341673292, 0.13399289271552606, 0.19176304371410757, 0.13087096735248616, 0.9212114709651573, 0.9947595200577881, 0.80439527463919, -0.77693857306781, -0.7543940323685214, 0.37270502569760344, 0.28137108793854226, -0.389002881214088, -0.28535201655532294, -0.3935046883952187, 0.6314265167825774, -0.03346292369351267, -0.6707872567852187, -0.5671365779329514, 0.7049971223502549, 0.38656787923984615, 0.4177709973086743, 0.27007667194452334, 0.17799851372769293, -0.663630558937095, -0.8028115390521731, -0.4739496401514969, 0.33697478806637493, -0.5182904961750978, -0.4406134026893511, -0.958552539458192, 0.635351140947122, -0.0993790142183415, -0.6758883981481689, -0.4453902326415149, 0.04247904460007956, -0.6013742451113224, 0.42203584314188514, 0.1242456112984538, -0.7698272275407769, 0.6317206797705213, 0.2099808172949098, 0.8051687442298514, -0.6347739534452963, 0.34404140526296945, 0.8277938355588716, -0.2402366482804721, 0.3355213968430657, -0.914431549153939, 0.7608747124218598, -0.11289447840128886, -0.7479953872544258, 0.9501862431812103, -0.3389952445929667, -0.6021683100522905, -0.27430432689489126, -0.5696283728746381, 0.9741580339716653, 0.12218994045891796, 0.9873678079824939, -0.07359601756180068, -0.3184216224842522, -0.7701168880691298, -0.7119355552406734, -0.6066497488127129, -0.05974912989173786, -0.6941998356897827, -0.6970178835293754, -0.7065847157595921, 0.525848018733535, 0.9285573041441111, 0.04915403952603814, 0.4734560481202592, 0.8601087240913421, -0.2832355521244765, -0.07218176096357443, -0.5127446449595787, -0.730687574582104, -0.32586614988349427, -0.2974981632499545, -0.5703359867993685, -0.24117133135103597, -0.06470342770555981, 0.01729742541567636, 0.4488570987221301, 0.17691659176881336, -0.08230434938480347, 0.0037498308815717696, -0.8010117824229723, 0.482732936280466, 0.6704615134739946, 0.7190516024333296, -0.20718860983568743, 0.3004953757988691, -0.17722339687413347, -0.8783589608128446, 0.4640121138674451, 0.28189702756821977, -0.8074737598480082, -0.9198160559371793, 0.799893411493005, 0.42865778187312586, 0.88542756170976, -0.3390279623014478, 0.43577256105998496, 0.4097578183261523, -0.007296121809036826, 0.5250488343903426, -0.7109680151037665, 0.42970195508273723, -0.1100083009922963, -0.30805320665744573, 0.23192756772252476, 0.685313262332671, -0.5195482953624735, 0.07384156441778433, 0.038564239594483185, -0.95461566684728, -0.9597194215403131, -0.08769062105550063, -0.4628107196073561, -0.6474242000767989, 0.0635153389349874, 0.05925056100893089, -0.1304355609467216, -0.43214695944440185, -0.7901763777507536, -0.3936352861476877, 0.9861947941382925, 0.37312235062318844, -0.4980949555003451, 0.3512031013466519, -0.018196300605863414, -0.9646411774733685, -0.08707154065512346, -0.0823360197405647, 0.5447535421496439, 0.43021542121550205, -0.5874667127952047, 0.014641495548518568, -0.8533847319514543, -0.03699004007659834, 0.7680534375559827, 0.4792065301174646, 0.3108186923312368, 0.5565908174780527, 0.5073424226523318, -0.06229479671266991, 0.04943643380261342, -0.7226488883801057, -0.6844902634839976, 0.17459406448551507, -0.5718122944622317, -0.479081566439455, -0.8795980295440797, -0.8295391662535827, -0.6266301835223849, -0.7050452843119257, -0.44874708296826693, 0.9369641302213856, -0.5982224573555217, -0.8878276731704737, -0.16339909262474217, 0.09800623165919764, -0.018850531533646242, -0.08524494484666656, -0.0004009841133512104, -0.06718860791993331, -0.19856699060754357, 0.28446288162848754, 0.17312519062578602, 0.7233141919907413, -0.20867746216406857, -0.33160278336241, -0.10797967248189444, 0.5760143773092821, -0.8562831832233615, -0.8725519144771534, 0.7089829128776028, 0.004551141617013199, 0.25903442295226786, 0.4819317282515767, 0.4550681347222063, 0.760298396526567, -0.150728363283267, 0.31578834199036065, -0.8881116818117687, -0.1784574882535399, 0.8755040028692755, 0.8857071595669723, -0.6911707263040479, -0.5020650768291597, -0.6395327454003761, -0.6545118857970016, 0.3171551914510242, 0.580480701900473, -0.8147173806412238, -0.8373888394375832, -0.5890807368940301, 0.9369121757790628, 0.9407679205846975, 0.486424456212712, -0.510586977397387, -0.5907949424770211, -0.2966183418702373, -0.3691209812923495, -0.16218327270103705, 0.8145691995855318, -0.9714409165379227, 0.9321776753944695, -0.6224395239225824, 0.06938368329194455, -0.4652733195186953, 0.5593402148482389, -0.0823366410985853, 0.8141311968819727, -0.7325960251573704, -0.7896652902007677, -0.5677548502975471, 0.22579878454087954, 0.2014776273164136, 0.6582402508514456, -0.9865974452341582, 0.8314542104160221, 0.9997678669742189, 0.4303759876601223, 0.05232948754218891, 0.0679675262498749, 0.6028200377813562, -0.13102897363919652, 0.2308116962725737, 0.8148142058017727, -0.5960739943278328, 0.5055175972040338, -0.7915565659100929, 0.7091424898068128, 0.09327375021162809, -0.8648226167472468, -0.9986840829177792, 0.3780182730543029, -0.04863196219973731, -0.9384796499665486, 0.302421860871376, -0.014912235435801335, -0.44092151026603466, -0.2506867816079217, 0.6107255356157293, 0.202175150089285, -0.6230885239952788, -0.4765879705669378, -0.9859813585957011, -0.5447151960010672], "fitness": 32.37511118146525, "player_life": -7.662095413491635, "enemy_life": 2.1611781858498915, "game_time": 174.6199615806907}
{"weights": [0.9799777186637553, -0.35981632261295693, -0.6111113695698862, -0.7393348276078404, -0.8810824891485949, 0.15074657423293503, -0.7727176767209878, 0.6779634430994841, 0.332115733274746, -0.5893909219139817, -0.25682820858678346, -0.9160520688161484, 0.951455627283456, 0.2530945170249086, -0.8951624341673292, 0.13399289271552606, 0.19176304371410757, 0.13087096735248616, 0.9212114709651573, 0.9947595200577881, 0.80439527463919, -0.1677230344675975, -0.7543940323685214, 0.37270502569760344, -0.4662842090289754, -0.8102967255834206, -0.28535201655532294, -0.3935046883952187, 0.6314265167825774, -0.38601093661691266, -0.6707872567852187, -0.5671365779329514, 0.7049971223502549, 0.38656787923984615, 0.4177709973086743, 0.04843702673621353, 0.17799851372769293, -0.663630558937095, -0.24811210836293518, -0.4739496401514969, 0.33697478806637493, -0.5182904961750978, -0.4406134026893511, -0.958552539458192, 0.7287148676447124, -0.0993790142183415, -0.6758883981481689, -0.4453902326415149, 0.04247904460007956, -0.6013742451113224, 0.42203584314188514, 0.1242456112984538, -0.5521083433483198, 0.6317206797705213, 0.2099808172949098, -0.8373271923877832, -0.6347739534452963, 0.34404140526296945, 0.8277938355588716, -0.2402366482804721, 0.3355213968430657, -0.914431549153939, 0.7608747124218598, -0.11289447840128886, -0.7479953872544258, 0.9501862431812103, -0.3389952445929667, -0.6021683100522905, -0.27430432689489126, -0.16011185500752267, 0.9741580339716653, 0.12218994045891796, 0.9873678079824939, -0.07359601756180068, -0.3184216224842522, -0.7701168880691298, 0.7660549211565955, -0.6066497488127129, -0.5339444543578424, -0.6941998356897827, -0.6970178835293754, -0.7065847157595921, 0.525848018733535, 0.9285573041441111, -0.3221590964744838, 0.4734560481202592, 0.8601087240913421, -0.2832355521244765, -0.07218176096357443, -0.5127446449595787, -0.730687574582104, -0.32586614988349427, 0.05831511577195614, -0.5703359867993685, -0.24117133135103597, -0.06470342770555981, 0.01729742541567636, 0.4488570987221301, 0.17691659176881336, -0.08230434938480347, 0.0037498308815717696, 0.054182198831325135, 0.482732936280466, 0.694982244591859, 0.7190516024333296, -0.32296466292756776, 0.3004953757988691, 0.5095818375368983, 0.28591588337856466, 0.4640121138674451, 0.28189702756821977, -0.14081305060242966, -0.9198160559371793, 0.799893411493005, 0.6056637039558803, 0.88542756170976, -0.3390279623014478, 0.43577256105998496, 0.4097578183261523, -0.007296121809036826, -0.20219130199628332, -0.7109680151037665, -0.9331130349519765, -0.9933188384766518, -0.30805320665744573, 0.3087977131445032, 0.685313262332671, -0.5195482953624735, 0.07384156441778433, 0.45284522919733217, -0.95461566684728, -0.9597194215403131, -0.08769062105550063, -0.4628107196073561, -0.19606303090810617, 0.0635153389349874, 0.4016741465026441, -0.1304355609467216, -0.43214695944440185, -0.7901763777507536, -0.3936352861476877, 0.9861947941382925, 0.37312235062318844, -0.4980949555003451, 0.6721697050569966, -0.018196300605863414, -0.9646411774733685, -0.08707154065512346, -0.1362063247957097, 0.5447535421496439, 0.43021542121550205, 0.27011001999989004, 0.014641495548518568, -0.8533847319514543, -0.03699004007659834, 0.7680534375559827, 0.4792065301174646, 0.3108186923312368, 0.44912954841736563, 0.5073424226523318, -0.06229479671266991, 0.04943643380261342, -0.7226488883801057, 0.4392373136176666, 0.17459406448551507, -0.5718122944622317, -0.479081566439455, -0.8795980295440797, -0.8295391662535827, -0.6266301835223849, -0.7050452843119257, -0.44874708296826693, 0.9369641302213856, -0.5982224573555217, -0.8878276731704737, -0.16339909262474217, 0.09800623165919764, -0.018850531533646242, -0.08524494484666656, 0.652050085616463, -0.06718860791993331, -0.19856699060754357, 0.28446288162848754, 0.17312519062578602, 0.9069194761736761, -0.20867746216406857, -0.33160278336241, -0.10797967248189444, 0.15547864112866971, -0.8562831832233615, -0.8886531689239758, 0.7089829128776028, 0.004551141617013199, -0.513034871196131, 0.4819317282515767, 0.4550681347222063, 0.760298396526567, -0.487672128122022, 0.31578834199036065, -0.8881116818117687, -0.5287581648946218, 0.8755040028692755, 0.8857071595669723, -0.6911707263040479, -0.5020650768291597, -0.6395327454003761, 0.10099442939820169, -0.6361020565309419, 0.580480701900473, -0.8147173806412238, -0.8373888394375832, -0.5890807368940301, 0.8545930697985338, 0.9407679205846975, 0.486424456212712, -0.510586977397387, -0.5907949424770211, -0.2966183418702373, -0.3691209812923495, -0.16218327270103705, 0.8145691995855318, -0.9714409165379227, 0.9321776753944695, -0.6224395239225824, 0.0640152463904815, -0.3510549615482106, 0.26039880930790993, -0.0823366410985853, 0.8141311968819727, 0.8658805491399435, -0.7896652902007677, -0.22301838502750204, 0.22579878454087954, 0.2014776273164136, 0.3779481844754333, -0.9865974452341582, 0.8314542104160221, 0.5653073993072864, 0.4303759876601223, 0.05232948754218891, 0.0679675262498749, 0.6028200377813562, -0.13102897363919652, 0.2308116962725737, 0.8148142058017727, -0.3095884852739108, 0.5055175972040338, -0.7915565659100929, 0.7091424898068128, 0.09327375021162809, -0.29613441417135955, -0.9986840829177792, 0.5349733877642366, -0.04863196219973731, -0.9384796499665486, 0.302421860871376, -0.014912235435801335, -0.44092151026603466, -0.2506867816079217, 0.6107255356157293, 0.202175150089285, -0.6230885239952788, -0.4765879705669378, -0.9859813585957011, -0.5447151960010672], "fitness": 35.536253054994134, "player_life": -5.259259436860853, "enemy_life": 0.6904867630909806, "game_time": 205.97762568253222}
{"weights": [-0.969431145199388, -0.47190783669219405, -0.6111113695698862, -0.7393348276078404, -0.08770054403316929, 0.7646999172443629, -0.7727176767209878, 0.745777465128131, 0.332115733274746, 0.03778997110303561, -0.25682820858678346, 0.7382868887397986, 0.951455627283456, 0.2530945170249086, 0.6364883943103181, 0.13399289271552606, 0.19176304371410757, 0.13087096735248616, 0.9212114709651573, 0.9947595200577881, 0.80439527463919, -0.1677230344675975, -0.7543940323685214, 0.37270502569760344, -0.4662842090289754, -0.8102967255834206, -0.28535201655532294, -0.3935046883952187, 0.6314265167825774, -0.38601093661691266, -0.6707872567852187, -0.5671365779329514, 0.21106261202753274, -0.01402001433643374, 0.4177709973086743, 0.27007667194452334, 0.17799851372769293, -0.663630558937095, -0.8028115390521731, 0.06395911002591115, 0.33697478806637493, -0.5182904961750978, -0.4406134026893511, -0.958552539458192, 0.7287148676447124, -0.0993790142183415, -0.6758883981481689, -0.4453902326415149, 0.04247904460007956, -0.6013742451113224, 0.42203584314188514, 0.1242456112984538, -0.7698272275407769, 0.6317206797705213, 0.2099808172949098, 0.8051687442298514, 0.6252498134948778, 0.34404140526296945, 0.8277938355588716, -0.2402366482804721, 0.8156838680385055, -0.914431549153939, -0.040555237147110956, -0.11289447840128886, -0.7479953872544258, 0.9501862431812103, -0.3389952445929667, -0.6614665721806205, -0.3700472320102566, -0.5696283728746381, 0.5977470182012461, 0.12218994045891796, 0.9873678079824939, -0.07359601756180068, -0.3184216224842522, -0.7701168880691298, -0.7119355552406734, -0.6066497488127129, -0.5339444543578424, -0.6941998356897827, -0.6970178835293754, -0.7065847157595921, 0.525848018733535, 0.9285573041441111, -0.3221590964744838, -0.32735894350801376, -0.07658034256705748, -0.2832355521244765, -0.07218176096357443, -0.5127446449595787, -0.730687574582104, -0.32586614988349427, 0.05831511577195614, -0.5703359867993685, -0.8015992849577764, -0.06470342770555981, 0.01729742541567636, 0.4488570987221301, 0.17691659176881336, -0.08230434938480347, 0.0037498308815717696, 0.054182198831325135, 0.482732936280466, 0.694982244591859, 0.7190516024333296, -0.43801893032624095, 0.6779296107904031, -0.17722339687413347, 0.28591588337856466, 0.15583621219897958, 0.28189702756821977, -0.8074737598480082, -0.4635447513810309, 0.799893411493005, 0.42865778187312586, 0.88542756170976, -0.3390279623014478, 0.43577256105998496, 0.4097578183261523, -0.007296121809036826, 0.5250488343903426, -0.7109680151037665, 0.42970195508273723, -0.1100083009922963, -0.30805320665744573, 0.23192756772252476, 0.685313262332671, -0.5195482953624735, 0.07384156441778433, 0.45284522919733217, -0.6918095742921762, -0.9597194215403131, -0.08769062105550063, -0.4628107196073561, -0.6474242000767989, 0.0635153389349874, 0.05925056100893089, -0.5854701681355694, -0.43214695944440185, 0.1583528347630221, -0.3936352861476877, 0.9861947941382925, 0.37312235062318844, -0.4980949555003451, 0.6721697050569966, -0.018196300605863414, -0.9646411774733685, -0.08707154065512346, -0.1362063247957097, 0.5447535421496439, 0.43021542121550205, 0.27011001999989004, 0.014641495548518568, -0.8533847319514543, -0.03699004007659834, 0.7680534375559827, 0.4792065301174646, 0.3108186923312368, 0.44912954841736563, 0.5073424226523318, -0.06229479671266991, 0.04943643380261342, -0.7226488883801057, -0.6844902634839976, 0.17459406448551507, -0.5718122944622317, -0.479081566439455, -0.8795980295440797, -0.8295391662535827, -0.6266301835223849, -0.7050452843119257, -0.44874708296826693, 0.9369641302213856, -0.02081652605524531, -0.8878276731704737, -0.16339909262474217, 0.09800623165919764, 0.30000397197140183, -0.08524494484666656, 0.652050085616463, -0.06718860791993331, -0.19856699060754357, 0.28446288162848754, 0.17312519062578602, 0.9069194761736761, -0.20867746216406857, -0.33160278336241, -0.10797967248189444, 0.15547864112866971, -0.8562831832233615, -0.8886531689239758, 0.7089829128776028, 0.004551141617013199, -0.513034871196131, 0.4819317282515767, 0.12862952212129608, 0.760298396526567, -0.730627231344426, 0.31578834199036065, -0.8881116818117687, -0.5287581648946218, 0.8755040028692755, 0.8857071595669723, -0.6911707263040479, -0.5020650768291597, -0.6395327454003761, 0.10099442939820169, -0.6361020565309419, 0.580480701900473, -0.8147173806412238, -0.8373888394375832, -0.5890807368940301, 0.8545930697985338, 0.482946874675636, 0.486424456212712, -0.510586977397387, -0.5907949424770211, -0.2966183418702373, -0.3691209812923495, -0.16218327270103705, 0.8145691995855318, -0.9714409165379227, 0.9321776753944695, -0.7959390634889982, 0.06938368329194455, -0.4652733195186953, 0.26039880930790993, -0.0823366410985853, 0.8141311968819727, 0.8658805491399435, -0.7896652902007677, -0.22301838502750204, 0.7053531220283806, 0.2014776273164136, 0.3779481844754333, -0.9865974452341582, 0.8314542104160221, 0.5653073993072864, 0.4303759876601223, 0.05232948754218891, -0.9468921934769976, 0.6028200377813562, -0.13102897363919652, 0.2308116962725737, 0.8148142058017727, -0.3095884852739108, 0.5055175972040338, 0.8852509495575345, 0.7091424898068128, 0.09327375021162809, -0.8648226167472468, -0.9986840829177792, 0.3780182730543029, -0.04863196219973731, -0.9384796499665486, 0.302421860871376, -0.014912235435801335, -0.44092151026603466, -0.2506867816079217, 0.6107255356157293, 0.202175150089285, -0.6230885239952788, -0.4765879705669378, -0.9859813585957011, -0.5447151960010672], "fitness": 28.690772620961432, "player_life": -5.8794595492224495, "enemy_life": 3.0254346936210084, "game_time": 170.76912586416927}
{"weights": [-0.969431145199388, -0.35981632261295693, -0.6111113695698862, -0.7393348276078404, -0.8810824891485949, 0.7646999172443629, -0.7727176767209878, 0.745777465128131, 0.332115733274746, -0.5893909219139817, -0.25682820858678346, -0.9160520688161484, 0.951455627283456, 0.2530945170249086, -0.8951624341673292, 0.13399289271552606, 0.19176304371410757, 0.13087096735248616, 0.9212114709651573, 0.9947595200577881, 0.80439527463919, -0.77693857306781, -0.7543940323685214, 0.37270502569760344, -0.4662842090289754, -0.389002881214088, -0.28535201655532294, -0.3935046883952187, 0.6314265167825774, -0.38601093661691266, -0.6707872567852187, -0.5671365779329514, 0.7049971223502549, -0.01402001433643374, 0.4177709973086743, 0.27007667194452334, 0.17799851372769293, -0.663630558937095, -0.8028115390521731, -0.4739496401514969, 0.33697478806637493, -0.5182904961750978, -0.4406134026893511, -0.958552539458192, 0.635351140947122, -0.0993790142183415, -0.6758883981481689, -0.4453902326415149, 0.04247904460007956, -0.6013742451113224, 0.42203584314188514, 0.1242456112984538, -0.7698272275407769, 0.6317206797705213, 0.2099808172949098, 0.8051687442298514, -0.6347739534452963, 0.34404140526296945, 0.8277938355588716, -0.2402366482804721, 0.3355213968430657, -0.914431549153939, 0.7608747124218598, -0.11289447840128886, -0.7479953872544258, 0.9501862431812103, -0.3389952445929667, -0.6614665721806205, -0.3700472320102566, -0.16011185500752267, 0.9741580339716653, 0.12218994045891796, 0.9873678079824939, -0.07359601756180068, -0.3184216224842522, -0.7701168880691298, -0.7119355552406734, -0.6066497488127129, -0.05974912989173786, -0.6941998356897827, -0.6970178835293754, 0.3995373163063627, 0.525848018733535, 0.9285573041441111, 0.04915403952603814, -0.32735894350801376, 0.8601087240913421, -0.32166279757152805, -0.07218176096357443, -0.5127446449595787, -0.730687574582104, -0.32586614988349427, -0.2974981632499545, -0.5703359867993685, -0.8015992849577764, 0.9245994950275569, 0.01729742541567636, 0.4488570987221301, 0.17691659176881336, -0.08230434938480347, 0.0037498308815717696, -0.8010117824229723, 0.482732936280466, 0.6704615134739946, 0.7190516024333296, -0.32296466292756776, 0.3004953757988691, 0.5095818375368983, 0.28591588337856466, 0.15583621219897958, 0.28189702756821977, -0.8074737598480082, -0.9198160559371793, 0.799893411493005, 0.42865778187312586, 0.88542756170976, -0.3390279623014478, 0.43577256105998496, 0.47260674289543525, -0.007296121809036826, -0.20219130199628332, -0.7109680151037665, -0.9331130349519765, -0.9933188384766518, -0.30805320665744573, 0.23192756772252476, 0.685313262332671, -0.3686023152047031, 0.07384156441778433, 0.45284522919733217, -0.95461566684728, -0.9597194215403131, -0.08769062105550063, -0.4628107196073561, -0.6474242000767989, 0.0635153389349874, 0.05925056100893089, -0.5854701681355694, -0.43214695944440185, -0.7901763777507536, -0.3936352861476877, 0.9861947941382925, 0.37312235062318844, -0.4980949555003451, 0.3512031013466519, -0.018196300605863414, -0.9646411774733685, -0.08707154065512346, -0.1362063247957097, -0.43670191638924183, 0.43021542121550205, 0.27011001999989004, 0.014641495548518568, -0.8533847319514543, -0.03699004007659834, 0.7680534375559827, 0.4792065301174646, -0.29340686392077187, 0.44912954841736563, 0.5073424226523318, -0.06229479671266991, 0.04943643380261342, -0.7226488883801057, -0.6844902634839976, 0.17459406448551507, -0.5718122944622317, -0.479081566439455, -0.8795980295440797, -0.8295391662535827, -0.6266301835223849, -0.7050452843119257, 0.2368995151602078, 0.9369641302213856, -0.02081652605524531, -0.8878276731704737, -0.16339909262474217, 0.09800623165919764, -0.018850531533646242, -0.08524494484666656, -0.0004009841133512104, -0.06718860791993331, -0.19856699060754357, 0.28446288162848754, 0.17312519062578602, 0.7233141919907413, -0.20867746216406857, -0.33160278336241, -0.10797967248189444, 0.5760143773092821, -0.8562831832233615, -0.8725519144771534, -0.33726281217714815, 0.004551141617013199, 0.25903442295226786, 0.4819317282515767, 0.12862952212129608, 0.760298396526567, -0.150728363283267, 0.31578834199036065, -0.8881116818117687, -0.5287581648946218, -0.47631456689185114, 0.8857071595669723, -0.6911707263040479, -0.5020650768291597, -0.6395327454003761, -0.6545118857970016, 0.3171551914510242, 0.580480701900473, -0.8147173806412238, -0.7895201528151186, -0.5890807368940301, 0.9369121757790628, 0.482946874675636, 0.6562337566440943, -0.510586977397387, -0.5907949424770211, -0.2966183418702373, -0.3691209812923495, -0.16218327270103705, 0.8145691995855318, -0.9714409165379227, 0.9321776753944695, -0.6224395239225824, 0.0640152463904815, -0.3510549615482106, 0.5593402148482389, -0.0823366410985853, 0.8141311968819727, -0.7325960251573704, -0.7896652902007677, -0.22301838502750204, 0.22579878454087954, 0.2014776273164136, 0.6582402508514456, -0.9865974452341582, 0.8314542104160221, 0.9997678669742189, 0.4303759876601223, 0.05232948754218891, -0.9468921934769976, 0.6028200377813562, -0.13102897363919652, 0.2308116962725737, 0.8148142058017727, -0.5960739943278328, 0.5055175972040338, 0.8852509495575345, 0.7091424898068128, 0.09327375021162809, -0.8648226167472468, -0.9986840829177792, 0.5349733877642366, -0.04863196219973731, -0.9384796499665486, 0.302421860871376, -0.014912235435801335, -0.44092151026603466, -0.2506867816079217, 0.6107255356157293, 0.202175150089285, -0.6230885239952788, -0.4765879705669378, -0.9859813585957011, -0.5447151960010672], "fitness": 30.350667169395372, "player_life": -6.4500847456004, "enemy_life": 2.337416234449055, "game_time": 167.07072415107274}
{"weights": [-0.969431145199388, -0.47190783669219405, -0.6111113695698862, -0.7393348276078404, -0.8810824891485949, 0.7646999172443629, -0.7727176767209878, 0.745777465128131, -0.03199261074736093, -0.5893909219139817, -0.25682820858678346, -0.9160520688161484, 0.005202486980931731, 0.2530945170249086, -0.8951624341673292, 0.13399289271552606, 0.19176304371410757, 0.13087096735248616, 0.9212114709651573, 0.9947595200577881, 0.80439527463919, -0.1677230344675975, -0.7543940323685214, 0.37270502569760344, -0.4662842090289754, -0.8102967255834206, -0.28535201655532294, -0.3935046883952187, 0.6314265167825774, -0.38601093661691266, -0.6707872567852187, -0.5671365779329514, 0.21106261202753274, -0.01402001433643374, 0.4177709973086743, 0.04843702673621353, 0.17799851372769293, -0.663630558937095, -0.24811210836293518, 0.06395911002591115, 0.33697478806637493, -0.5182904961750978, -0.4406134026893511, 0.2069645176601309, 0.635351140947122, -0.0993790142183415, -0.6758883981481689, -0.4453902326415149, 0.04247904460007956, -0.6013742451113224, 0.42203584314188514, 0.1242456112984538, -0.7698272275407769, 0.6317206797705213, 0.2099808172949098, 0.8051687442298514, 0.6252498134948778, 0.34404140526296945, 0.8277938355588716, -0.2402366482804721, 0.8156838680385055, 0.6232367231644023, 0.7608747124218598, 0.20624551033382943, -0.7479953872544258, 0.9501862431812103, -0.3389952445929667, -0.6614665721806205, -0.3700472320102566, -0.16011185500752267, 0.5977470182012461, 0.12218994045891796, 0.9873678079824939, -0.07359601756180068, -0.3184216224842522, -0.7701168880691298, -0.7119355552406734, -0.6066497488127129, -0.05974912989173786, -0.6941998356897827, 0.8232695340817731, -0.7065847157595921, 0.525848018733535, 0.9285573041441111, 0.04915403952603814, -0.32735894350801376, -0.07658034256705748, -0.2832355521244765, -0.07218176096357443, -0.5127446449595787, -0.730687574582104, -0.32586614988349427, 0.05831511577195614, -0.5703359867993685, -0.8015992849577764, -0.06470342770555981, 0.01729742541567636, 0.4488570987221301, -0.6678671286364151, -0.08230434938480347, 0.0037498308815717696, -0.493841260764752, 0.482732936280466, 0.694982244591859, 0.7190516024333296, -0.20718860983568743, 0.3004953757988691, -0.17722339687413347, 0.28591588337856466, 0.15583621219897958, 0.28189702756821977, -0.8074737598480082, -0.4635447513810309, 0.799893411493005, 0.6056637039558803, 0.88542756170976, -0.3390279623014478, 0.43577256105998496, 0.4097578183261523, -0.007296121809036826, 0.5250488343903426, -0.7109680151037665, -0.9331130349519765, -0.9933188384766518, -0.4859072488846119, 0.23192756772252476, 0.685313262332671, -0.3686023152047031, 0.07384156441778433, 0.45284522919733217, -0.6918095742921762, -0.9597194215403131, -0.08769062105550063, -0.4628107196073561, -0.6474242000767989, 0.4226930389874879, 0.4016741465026441, -0.5854701681355694, -0.43214695944440185, 0.1583528347630221, -0.3936352861476877, 0.9861947941382925, 0.37312235062318844, -0.319598759327258, 0.3512031013466519, -0.018196300605863414, -0.9646411774733685, -0.08707154065512346, -0.1362063247957097, -0.43670191638924183, 0.43021542121550205, 0.27011001999989004, 0.014641495548518568, -0.8533847319514543, -0.03699004007659834, 0.7680534375559827, 0.4792065301174646, 0.3108186923312368, 0.5565908174780527, -0.11788804532957742, -0.06229479671266991, 0.04943643380261342, -0.7226488883801057, -0.6844902634839976, 0.17459406448551507, -0.5718122944622317, -0.479081566439455, -0.8795980295440797, -0.8295391662535827, -0.6266301835223849, -0.7050452843119257, -0.44874708296826693, 0.9369641302213856, -0.5982224573555217, -0.8878276731704737, -0.16339909262474217, 0.09800623165919764, 0.30000397197140183, -0.08524494484666656, 0.652050085616463, -0.06718860791993331, -0.19856699060754357, 0.2149436811188088, 0.17312519062578602, 0.7233141919907413, -0.20867746216406857, -0.33160278336241, -0.10797967248189444, 0.15547864112866971, -0.8562831832233615, -0.8725519144771534, 0.7089829128776028, 0.004551141617013199, -0.513034871196131, 0.4819317282515767, 0.12862952212129608, 0.760298396526567, -0.730627231344426, 0.31578834199036065, -0.8881116818117687, -0.5287581648946218, 0.8755040028692755, 0.8857071595669723, -0.6911707263040479, -0.5020650768291597, -0.02984188992720216, 0.10099442939820169, 0.3171551914510242, 0.580480701900473, -0.8147173806412238, -0.493327722767676, -0.5890807368940301, 0.8545930697985338, 0.482946874675636, 0.6562337566440943, -0.510586977397387, -0.5907949424770211, -0.2966183418702373, -0.3691209812923495, -0.16218327270103705, 0.8145691995855318, -0.9714409165379227, 0.9321776753944695, -0.7959390634889982, 0.06938368329194455, -0.4652733195186953, 0.5593402148482389, -0.0823366410985853, 0.8141311968819727, -0.7325960251573704, -0.7896652902007677, -0.5677548502975471, 0.22579878454087954, 0.23515484277169318, 0.3779481844754333, -0.9865974452341582, 0.8314542104160221, 0.9997678669742189, 0.4303759876601223, 0.05232948754218891, 0.0679675262498749, 0.6028200377813562, -0.13102897363919652, 0.2308116962725737, 0.015696148987365266, -0.5960739943278328, 0.5055175972040338, 0.8852509495575345, 0.7091424898068128, 0.09327375021162809, -0.8648226167472468, -0.9986840829177792, 0.5349733877642366, -0.04863196219973731, -0.9384796499665486, 0.302421860871376, -0.014912235435801335, -0.44092151026603466, -0.2506867816079217, 0.6107255356157293, 0.202175150089285, -0.6230885239952788, -0.4765879705669378, -0.9859813585957011, 0.21449495647971273], "fitness": 40.596228662927466, "player_life": -10.721262328807569, "enemy_life": -1.218730444297723, "game_time": 200.51604759128486}
{"weights": [0.9799777186637553, -0.47190783669219405, -0.6111113695698862, -0.7393348276078404, -0.8810824891485949, 0.15074657423293503, -0.7727176767209878, 0.6779634430994841, 0.332115733274746, -0.5893909219139817, -0.25682820858678346, -0.9160520688161484, 0.951455627283456, 0.2530945170249086, 0.6364883943103181, 0.13399289271552606, 0.19176304371410757, 0.13087096735248616, 0.9212114709651573, 0.9947595200577881, 0.80439527463919, -0.1677230344675975, -0.7543940323685214, 0.37270502569760344, -0.4662842090289754, -0.8102967255834206, -0.28535201655532294, -0.3935046883952187, 0.6314265167825774, -0.38601093661691266, -0.6707872567852187, -0.29195183509497324, 0.21106261202753274, -0.01402001433643374, 0.4177709973086743, 0.04843702673621353, 0.17799851372769293, -0.663630558937095, -0.24811210836293518, -0.4739496401514969, 0.33697478806637493, -0.5182904961750978, -0.4406134026893511, 0.2069645176601309, 0.7287148676447124, 0.6481995114896539, -0.6758883981481689, -0.4453902326415149, 0.04247904460007956, -0.6013742451113224, 0.42203584314188514, 0.1242456112984538, -0.7698272275407769, 0.6317206797705213, 0.2099808172949098, 0.8051687442298514, -0.6347739534452963, 0.34404140526296945, 0.8277938355588716, -0.2402366482804721, 0.3355213968430657, -0.914431549153939, 0.7608747124218598, -0.11289447840128886, -0.7479953872544258, 0.9501862431812103, -0.3389952445929667, -0.6021683100522905, -0.3700472320102566, -0.16011185500752267, 0.5977470182012461, 0.12218994045891796, 0.9873678079824939, -0.07359601756180068, -0.3184216224842522, -0.7701168880691298, 0.7660549211565955, -0.6066497488127129, -0.5339444543578424, -0.6941998356897827, -0.6970178835293754, 0.3995373163063627, 0.525848018733535, 0.9285573041441111, -0.3221590964744838, -0.32735894350801376, 0.8601087240913421, -0.2832355521244765, -0.07218176096357443, -0.5127446449595787, -0.730687574582104, -0.32586614988349427, 0.05831511577195614, -0.5703359867993685, -0.24117133135103597, -0.06470342770555981, 0.01729742541567636, 0.4488570987221301, 0.17691659176881336, -0.08230434938480347, 0.0037498308815717696, 0.054182198831325135, 0.482732936280466, 0.694982244591859, 0.7190516024333296, -0.32296466292756776, 0.3004953757988691, -0.17722339687413347, 0.28591588337856466, 0.15583621219897958, 0.28189702756821977, -0.14081305060242966, -0.4635447513810309, 0.799893411493005, 0.42865778187312586, 0.88542756170976, -0.3390279623014478, 0.43577256105998496, 0.47260674289543525, -0.007296121809036826, 0.5250488343903426, -0.7109680151037665, -0.9331130349519765, -0.9933188384766518, -0.30805320665744573, 0.23192756772252476, 0.685313262332671, 0.5827214446838156, 0.07384156441778433, 0.45284522919733217, -0.6918095742921762, -0.9597194215403131, -0.08769062105550063, -0.4628107196073561, -0.19606303090810617, 0.4226930389874879, 0.4016741465026441, -0.5854701681355694, -0.43214695944440185, 0.1583528347630221, -0.3936352861476877, 0.9861947941382925, 0.37312235062318844, -0.319598759327258, 0.6721697050569966, -0.018196300605863414, -0.9646411774733685, -0.08707154065512346, -0.1362063247957097, 0.5447535421496439, 0.43021542121550205, 0.27011001999989004, 0.014641495548518568, -0.8533847319514543, -0.03699004007659834, 0.7680534375559827, 0.4792065301174646, -0.29340686392077187, 0.44912954841736563, 0.5073424226523318, -0.06229479671266991, 0.04943643380261342, -0.7226488883801057, 0.4392373136176666, 0.17459406448551507, -0.5718122944622317, -0.479081566439455, -0.8795980295440797, -0.8295391662535827, -0.6266301835223849, -0.7050452843119257, -0.44874708296826693, 0.9369641302213856, -0.5982224573555217, -0.8878276731704737, -0.16339909262474217, 0.09800623165919764, 0.30000397197140183, -0.08524494484666656, 0.652050085616463, -0.06718860791993331, -0.19856699060754357, 0.28446288162848754, 0.17312519062578602, 0.7233141919907413, -0.20867746216406857, -0.33160278336241, -0.10797967248189444, 0.15547864112866971, -0.8562831832233615, -0.8725519144771534, -0.33726281217714815, 0.004551141617013199, -0.513034871196131, 0.4819317282515767, 0.4550681347222063, 0.760298396526567, -0.487672128122022, 0.31578834199036065, -0.8881116818117687, -0.5287581648946218, -0.47631456689185114, 0.8857071595669723, -0.6911707263040479, -0.5020650768291597, -0.6395327454003761, 0.10099442939820169, -0.6361020565309419, 0.580480701900473, -0.8147173806412238, -0.8373888394375832, -0.5890807368940301, 0.8545930697985338, 0.482946874675636, 0.486424456212712, -0.510586977397387, -0.5907949424770211, -0.2966183418702373, -0.3691209812923495, -0.16218327270103705, 0.8145691995855318, -0.9714409165379227, 0.9321776753944695, -0.7959390634889982, 0.06938368329194455, -0.4652733195186953, 0.26039880930790993, -0.0823366410985853, 0.8141311968819727, 0.8658805491399435, -0.7896652902007677, -0.22301838502750204, 0.22579878454087954, 0.2014776273164136, 0.3779481844754333, -0.9865974452341582, 0.8314542104160221, 0.5653073993072864, 0.4303759876601223, 0.05232948754218891, 0.0679675262498749, 0.6028200377813562, -0.13102897363919652, 0.2308116962725737, 0.8148142058017727, -0.3095884852739108, 0.5055175972040338, -0.7915565659100929, 0.7091424898068128, 0.09327375021162809, -0.29613441417135955, -0.9986840829177792, 0.5349733877642366, -0.04863196219973731, -0.9384796499665486, 0.302421860871376, -0.014912235435801335, -0.44092151026603466, -0.2506867816079217, 0.6107255356157293, 0.202175150089285, -0.6230885239952788, -0.4765879705669378, -0.9859813585957011, 0.21449495647971273], "fitness": 32.23895416086002, "player_life": -5.838228327505522, "enemy_life": -0.5917364857637573, "game_time": 187.0999124343705}
{"weights": [0.9799777186637553, -0.35981632261295693, -0.6111113695698862, -0.7393348276078404, -0.8810824891485949, 0.15074657423293503, -0.7727176767209878, 0.745777465128131, 0.332115733274746, -0.5893909219139817, -0.25682820858678346, -0.9160520688161484, 0.005202486980931731, 0.2530945170249086, -0.8951624341673292, 0.13399289271552606, 0.19176304371410757, 0.13087096735248616, 0.9212114709651573, 0.9947595200577881, 0.80439527463919, -0.1677230344675975, -0.7543940323685214, 0.37270502569760344, -0.4662842090289754, -0.8102967255834206, -0.28535201655532294, -0.3935046883952187, 0.6314265167825774, -0.38601093661691266, -0.6707872567852187, -0.5671365779329514, 0.7049971223502549, 0.38656787923984615, 0.4177709973086743, 0.27007667194452334, 0.17799851372769293, -0.663630558937095, -0.24811210836293518, -0.4739496401514969, 0.33697478806637493, -0.5182904961750978, -0.4406134026893511, -0.958552539458192, 0.635351140947122, -0.0993790142183415, -0.6758883981481689, -0.4453902326415149, 0.04247904460007956, -0.6013742451113224, 0.42203584314188514, 0.1242456112984538, 0.4405275241688591, 0.6317206797705213, 0.2099808172949098, -0.8373271923877832, -0.6347739534452963, 0.34404140526296945, 0.8277938355588716, -0.2402366482804721, 0.8156838680385055, -0.914431549153939, 0.7608747124218598, -0.11289447840128886, -0.7479953872544258, 0.9501862431812103, -0.3389952445929667, -0.6614665721806205, -0.27430432689489126, -0.5696283728746381, 0.9741580339716653, 0.12218994045891796, 0.9873678079824939, -0.07359601756180068, -0.3184216224842522, -0.7701168880691298, 0.7423299544406674, -0.6066497488127129, -0.05974912989173786, -0.6941998356897827, -0.6970178835293754, -0.7065847157595921, 0.525848018733535, 0.9285573041441111, 0.04915403952603814, 0.4734560481202592, 0.8601087240913421, -0.2832355521244765, -0.07218176096357443, -0.5127446449595787, -0.730687574582104, -0.32586614988349427, 0.05831511577195614, -0.5703359867993685, -0.24117133135103597, -0.06470342770555981, 0.01729742541567636, 0.4488570987221301, 0.17691659176881336, -0.08230434938480347, 0.0037498308815717696, -0.8010117824229723, 0.482732936280466, -0.1253044332671669, 0.7190516024333296, -0.32296466292756776, 0.3004953757988691, 0.5095818375368983, 0.28591588337856466, 0.4640121138674451, 0.28189702756821977, -0.14081305060242966, -0.9198160559371793, 0.799893411493005, 0.42865778187312586, 0.88542756170976, -0.3390279623014478, 0.43577256105998496, 0.4097578183261523, -0.007296121809036826, -0.20219130199628332, -0.7109680151037665, -0.9331130349519765, -0.9933188384766518, -0.30805320665744573, 0.23192756772252476, 0.685313262332671, -0.5195482953624735, 0.07384156441778433, 0.45284522919733217, -0.95461566684728, -0.9597194215403131, -0.08769062105550063, -0.4628107196073561, -0.6474242000767989, 0.0635153389349874, 0.4016741465026441, -0.1304355609467216, -0.43214695944440185, 0.1583528347630221, -0.3936352861476877, 0.9861947941382925, 0.37312235062318844, -0.319598759327258, 0.3512031013466519, -0.018196300605863414, -0.9646411774733685, -0.08707154065512346, -0.1362063247957097, 0.5447535421496439, 0.43021542121550205, 0.27011001999989004, 0.014641495548518568, -0.8533847319514543, -0.03699004007659834, 0.7680534375559827, 0.4792065301174646, 0.3108186923312368, 0.5565908174780527, 0.5073424226523318, -0.06229479671266991, 0.04943643380261342, -0.7226488883801057, -0.6844902634839976, 0.17459406448551507, -0.5718122944622317, -0.479081566439455, -0.8795980295440797, -0.8295391662535827, -0.6266301835223849, -0.7050452843119257, -0.44874708296826693, 0.9369641302213856, -0.02081652605524531, -0.8878276731704737, -0.16339909262474217, 0.09800623165919764, -0.018850531533646242, -0.08524494484666656, 0.652050085616463, -0.06718860791993331, -0.19856699060754357, 0.28446288162848754, 0.17312519062578602, 0.7233141919907413, -0.20867746216406857, -0.33160278336241, -0.10797967248189444, 0.5760143773092821, -0.8562831832233615, -0.8886531689239758, 0.7089829128776028, 0.004551141617013199, 0.25903442295226786, 0.4819317282515767, 0.4550681347222063, 0.760298396526567, -0.150728363283267, 0.31578834199036065, -0.8881116818117687, -0.5287581648946218, 0.8755040028692755, 0.8857071595669723, -0.6911707263040479, -0.5020650768291597, -0.6395327454003761, 0.10099442939820169, -0.6361020565309419, 0.580480701900473, -0.8147173806412238, -0.8373888394375832, -0.5890807368940301, 0.8545930697985338, 0.9407679205846975, 0.486424456212712, -0.510586977397387, -0.5907949424770211, -0.2966183418702373, -0.015831356405832553, -0.16218327270103705, 0.8145691995855318, -0.9714409165379227, 0.9321776753944695, -0.6224395239225824, 0.0640152463904815, -0.3510549615482106, 0.26039880930790993, -0.0823366410985853, 0.8141311968819727, -0.7325960251573704, -0.7896652902007677, -0.22301838502750204, 0.7053531220283806, 0.2014776273164136, 0.6582402508514456, -0.9865974452341582, 0.8314542104160221, 0.5653073993072864, -0.050526012525932584, 0.05232948754218891, 0.0679675262498749, 0.6028200377813562, -0.13102897363919652, 0.2308116962725737, 0.8148142058017727, -0.3095884852739108, 0.5055175972040338, -0.7915565659100929, 0.7091424898068128, 0.09327375021162809, -0.8648226167472468, -0.9986840829177792, 0.5349733877642366, -0.04863196219973731, -0.9384796499665486, 0.302421860871376, -0.014912235435801335, -0.44092151026603466, -0.2506867816079217, 0.6107255356157293, 0.202175150089285, -0.6230885239952788, -0.4765879705669378, -0.9859813585957011, -0.5447151960010672], "fitness": 26.84560134399228, "player_life": -10.044288481109948, "enemy_life": 0.976199467703772, "game_time": 194.86105328457154}
{"weights": [0.9799777186637553, -0.47190783669219405, -0.6111113695698862, -0.7393348276078404, -0.8810824891485949, 0.7646999172443629, -0.7727176767209878, 0.7110339369028564, 0.332115733274746, 0.7812714993385694, -0.25682820858678346, 0.7382868887397986, 0.951455627283456, 0.2530945170249086, -0.8951624341673292, 0.13399289271552606, 0.19176304371410757, 0.13087096735248616, 0.9212114709651573, 0.9947595200577881, 0.80439527463919, -0.77693857306781, -0.7543940323685214, 0.37270502569760344, 0.28137108793854226, -0.8102967255834206, -0.28535201655532294, -0.3935046883952187, 0.6314265167825774, -0.38601093661691266, -0.6707872567852187, -0.5671365779329514, 0.7049971223502549, -0.01402001433643374, 0.4177709973086743, 0.04843702673621353, 0.17799851372769293, -0.663630558937095, -0.24811210836293518, -0.4739496401514969, 0.33697478806637493, -0.5182904961750978, -0.4406134026893511, -0.958552539458192, 0.635351140947122, -0.0993790142183415, -0.6758883981481689, -0.4453902326415149, 0.04247904460007956, -0.6013742451113224, 0.42203584314188514, 0.1242456112984538, -0.7698272275407769, 0.6317206797705213, 0.2099808172949098, 0.8051687442298514, -0.6347739534452963, 0.34404140526296945, 0.8277938355588716, -0.2402366482804721, 0.3355213968430657, -0.914431549153939, 0.7608747124218598, -0.11289447840128886, -0.7479953872544258, 0.9501862431812103, -0.3389952445929667, -0.6021683100522905, -0.27430432689489126, -0.5696283728746381, 0.9741580339716653, 0.12218994045891796, 0.9873678079824939, -0.07359601756180068, -0.3184216224842522, -0.7701168880691298, 0.7660549211565955, -0.6066497488127129, -0.05974912989173786, -0.6941998356897827, -0.6970178835293754, -0.7065847157595921, 0.525848018733535, 0.9285573041441111, 0.04915403952603814, 0.4734560481202592, 0.8601087240913421, -0.2832355521244765, -0.8801634307126893, -0.5127446449595787, -0.730687574582104, -0.32586614988349427, 0.05831511577195614, -0.5703359867993685, -0.24117133135103597, -0.06470342770555981, 0.01729742541567636, 0.4488570987221301, 0.17691659176881336, -0.08230434938480347, 0.0037498308815717696, -0.8010117824229723, 0.482732936280466, 0.6704615134739946, 0.7190516024333296, -0.20718860983568743, 0.3004953757988691, -0.17722339687413347, -0.8783589608128446, 0.4640121138674451, -0.07260015879370063, -0.8074737598480082, -0.4635447513810309, 0.799893411493005, 0.42865778187312586, 0.88542756170976, -0.3390279623014478, 0.43577256105998496, 0.4097578183261523, -0.007296121809036826, -0.20219130199628332, -0.7109680151037665, -0.9331130349519765, -0.1100083009922963, -0.30805320665744573, 0.23192756772252476, 0.685313262332671, -0.5195482953624735, 0.07384156441778433, 0.038564239594483185, -0.95461566684728, -0.9597194215403131, -0.08769062105550063, -0.4628107196073561, -0.6474242000767989, 0.0635153389349874, 0.05925056100893089, -0.35985940230220015, 0.338990045496423, -0.7901763777507536, -0.3936352861476877, 0.9861947941382925, 0.37312235062318844, -0.4980949555003451, 0.6721697050569966, -0.018196300605863414, -0.9646411774733685, -0.08707154065512346, -0.0823360197405647, -0.43670191638924183, 0.43021542121550205, 0.27011001999989004, 0.014641495548518568, -0.8533847319514543, -0.03699004007659834, 0.7680534375559827, 0.4792065301174646, -0.29340686392077187, 0.5565908174780527, 0.5073424226523318, -0.06229479671266991, 0.04943643380261342, -0.7226488883801057, -0.6844902634839976, 0.17459406448551507, -0.5718122944622317, -0.479081566439455, -0.8795980295440797, -0.8295391662535827, -0.6266301835223849, -0.7050452843119257, -0.44874708296826693, 0.9369641302213856, -0.5982224573555217, -0.8878276731704737, -0.16339909262474217, 0.7307853918195042, -0.018850531533646242, -0.08524494484666656, -0.0004009841133512104, -0.06718860791993331, -0.19856699060754357, 0.2149436811188088, 0.17312519062578602, 0.7233141919907413, -0.20867746216406857, -0.33160278336241, -0.10797967248189444, 0.5760143773092821, -0.8562831832233615, -0.8725519144771534, 0.7089829128776028, 0.004551141617013199, -0.513034871196131, 0.4819317282515767, 0.4550681347222063, 0.760298396526567, -0.150728363283267, 0.31578834199036065, -0.8881116818117687, -0.1784574882535399, -0.47631456689185114, 0.8857071595669723, -0.6911707263040479, -0.5020650768291597, -0.6395327454003761, -0.6545118857970016, 0.3171551914510242, 0.580480701900473, -0.8147173806412238, -0.8373888394375832, -0.5890807368940301, 0.9369121757790628, 0.482946874675636, 0.6562337566440943, -0.510586977397387, -0.5907949424770211, -0.2966183418702373, -0.015831356405832553, -0.16218327270103705, 0.8145691995855318, -0.9714409165379227, 0.9321776753944695, -0.7959390634889982, 0.06938368329194455, -0.4652733195186953, 0.5593402148482389, -0.0823366410985853, 0.8141311968819727, 0.8658805491399435, -0.7896652902007677, -0.1377300871847007, 0.22579878454087954, 0.2014776273164136, 0.6582402508514456, -0.9865974452341582, 0.8314542104160221, 0.9997678669742189, 0.4303759876601223, 0.05232948754218891, -0.9468921934769976, 0.6028200377813562, -0.13102897363919652, 0.2308116962725737, 0.8148142058017727, -0.5960739943278328, 0.5055175972040338, -0.7915565659100929, 0.7091424898068128, 0.09327375021162809, -0.8648226167472468, -0.9986840829177792, 0.5349733877642366, -0.04863196219973731, -0.9384796499665486, 0.302421860871376, -0.014912235435801335, -0.08269987643007082, -0.2506867816079217, 0.6107255356157293, 0.202175150089285, -0.6230885239952788, -0.4765879705669378, -0.9859813585957011, -0.5447151960010672], "fitness": 28.37763331799005, "player_life": -5.629192791339332, "enemy_life": 2.6043481422465042, "game_time": 164.41438692027566}
{"weights": [-0.969431145199388, -0.47190783669219405, -0.6111113695698862, -0.7393348276078404, -0.8810824891485949, 0.7646999172443629, -0.7727176767209878, 0.6779634430994841, 0.332115733274746, -0.5893909219139817, -0.25682820858678346, -0.9160520688161484, 0.951455627283456, 0.2530945170249086, 0.6364883943103181, 0.13399289271552606, 0.19176304371410757, 0.13087096735248616, 0.9212114709651573, 0.9947595200577881, 0.80439527463919, -0.77693857306781, -0.7543940323685214, 0.37270502569760344, 0.28137108793854226, -0.8102967255834206, -0.28535201655532294, -0.3935046883952187, 0.6314265167825774, -0.03346292369351267, -0.6707872567852187, -0.29195183509497324, 0.21106261202753274, -0.01402001433643374, 0.4177709973086743, 0.04843702673621353, 0.17799851372769293, -0.663630558937095, -0.8028115390521731, -0.4739496401514969, 0.33697478806637493, -0.5182904961750978, -0.4406134026893511, 0.2069645176601309, 0.7287148676447124, 0.6481995114896539, -0.6758883981481689, -0.4453902326415149, 0.04247904460007956, -0.6013742451113224, 0.42203584314188514, 0.1242456112984538, -0.5521083433483198, 0.6317206797705213, 0.2099808172949098, 0.8051687442298514, -0.6347739534452963, 0.34404140526296945, 0.8277938355588716, -0.2402366482804721, 0.3355213968430657, -0.914431549153939, 0.7608747124218598, -0.11289447840128886, -0.7479953872544258, 0.9501862431812103, -0.3389952445929667, -0.6021683100522905, -0.3700472320102566, -0.5696283728746381, 0.5977470182012461, 0.12218994045891796, 0.9873678079824939, -0.07359601756180068, -0.3184216224842522, -0.7701168880691298, 0.7660549211565955, -0.6066497488127129, -0.5339444543578424, -0.6941998356897827, -0.6970178835293754, 0.3995373163063627, 0.525848018733535, 0.9285573041441111, -0.3221590964744838, 0.4734560481202592, 0.8601087240913421, -0.2832355521244765, -0.07218176096357443, -0.5127446449595787, -0.730687574582104, -0.32586614988349427, 0.05831511577195614, -0.5703359867993685, -0.24117133135103597, -0.06470342770555981, 0.01729742541567636, 0.4488570987221301, 0.17691659176881336, -0.08230434938480347, 0.0037498308815717696, 0.054182198831325135, 0.482732936280466, 0.694982244591859, 0.7190516024333296, -0.32296466292756776, 0.3004953757988691, -0.17722339687413347, -0.8783589608128446, 0.15583621219897958, 0.28189702756821977, -0.14081305060242966, -0.4635447513810309, 0.799893411493005, 0.42865778187312586, 0.88542756170976, -0.3390279623014478, 0.43577256105998496, 0.47260674289543525, -0.007296121809036826, -0.20219130199628332, -0.7109680151037665, -0.9331130349519765, -0.9933188384766518, -0.30805320665744573, 0.23192756772252476, 0.685313262332671, 0.5827214446838156, 0.07384156441778433, 0.45284522919733217, -0.6918095742921762, -0.9597194215403131, -0.08769062105550063, -0.4628107196073561, -0.19606303090810617, 0.4226930389874879, 0.4016741465026441, -0.1304355609467216, -0.43214695944440185, 0.1583528347630221, -0.3936352861476877, 0.9861947941382925, 0.37312235062318844, -0.319598759327258, 0.6721697050569966, -0.018196300605863414, -0.9646411774733685, -0.08707154065512346, -0.1362063247957097, -0.43670191638924183, 0.43021542121550205, 0.27011001999989004, 0.014641495548518568, -0.8533847319514543, -0.03699004007659834, 0.7680534375559827, 0.4792065301174646, -0.29340686392077187, 0.44912954841736563, 0.5073424226523318, -0.06229479671266991, 0.04943643380261342, -0.7226488883801057, -0.6844902634839976, 0.17459406448551507, -0.5718122944622317, -0.479081566439455, -0.8795980295440797, -0.8295391662535827, -0.6266301835223849, -0.7050452843119257, -0.44874708296826693, 0.9369641302213856, -0.02081652605524531, -0.8878276731704737, -0.16339909262474217, 0.09800623165919764, 0.30000397197140183, -0.08524494484666656, 0.652050085616463, -0.06718860791993331, -0.19856699060754357, 0.28446288162848754, 0.17312519062578602, 0.9069194761736761, -0.20867746216406857, -0.33160278336241, -0.10797967248189444, 0.15547864112866971, -0.8562831832233615, -0.8725519144771534, -0.33726281217714815, 0.004551141617013199, -0.513034871196131, 0.4819317282515767, 0.12862952212129608, 0.760298396526567, -0.487672128122022, 0.31578834199036065, -0.8881116818117687, -0.5287581648946218, -0.47631456689185114, 0.8857071595669723, -0.6911707263040479, -0.5020650768291597, -0.6395327454003761, -0.6545118857970016, -0.6361020565309419, 0.580480701900473, -0.8147173806412238, -0.8373888394375832, -0.5890807368940301, 0.8545930697985338, 0.482946874675636, 0.486424456212712, -0.510586977397387, -0.5907949424770211, -0.2966183418702373, -0.3691209812923495, -0.16218327270103705, 0.8145691995855318, -0.9714409165379227, 0.9321776753944695, -0.7959390634889982, 0.06938368329194455, -0.4652733195186953, 0.26039880930790993, -0.0823366410985853, 0.8141311968819727, 0.8658805491399435, -0.7896652902007677, -0.22301838502750204, -0.5346103594771079, 0.2014776273164136, 0.3779481844754333, -0.9865974452341582, 0.8314542104160221, 0.5653073993072864, 0.4303759876601223, 0.05232948754218891, -0.9468921934769976, 0.6028200377813562, -0.13102897363919652, 0.2308116962725737, 0.8148142058017727, -0.3095884852739108, 0.5055175972040338, 0.8852509495575345, 0.7091424898068128, 0.09327375021162809, -0.8648226167472468, -0.9986840829177792, 0.5349733877642366, -0.04863196219973731, -0.9384796499665486, 0.302421860871376, -0.014912235435801335, -0.44092151026603466, -0.2506867816079217, 0.6107255356157293, 0.202175150089285, -0.6230885239952788, -0.4765879705669378, -0.9859813585957011, -0.5447151960010672], "fitness": 14.090696393255683, "player_life": -5.407961791380648, "enemy_life": 4.3591135915657375, "game_time": 161.85499104921462}
{"weights": [-0.969431145199388, -0.35981632261295693, -0.6111113695698862, -0.7393348276078404, -0.8810824891485949, 0.15074657423293503, -0.7727176767209878, 0.745777465128131, 0.332115733274746, -0.5893909219139817, -0.25682820858678346, -0.9160520688161484, 0.951455627283456, 0.2530945170249086, 0.6364883943103181, 0.13399289271552606, 0.19176304371410757, 0.13087096735248616, 0.9212114709651573, 0.9947595200577881, 0.80439527463919, -0.1677230344675975, -0.7543940323685214, 0.37270502569760344, 0.28137108793854226, -0.389002881214088, -0.28535201655532294, -0.3935046883952187, -0.19111290602363673, -0.03346292369351267, -0.6707872567852187, -0.5671365779329514, 0.21106261202753274, -0.01402001433643374, 0.4177709973086743, 0.27007667194452334, 0.17799851372769293, -0.663630558937095, -0.24811210836293518, -0.4739496401514969, 0.33697478806637493, -0.5182904961750978, -0.4406134026893511, 0.2069645176601309, 0.7287148676447124, -0.0993790142183415, -0.6758883981481689, -0.4453902326415149, 0.04247904460007956, -0.6013742451113224, 0.42203584314188514, 0.1242456112984538, -0.5521083433483198, 0.6317206797705213, 0.2099808172949098, 0.8051687442298514, -0.6347739534452963, 0.34404140526296945, 0.8277938355588716, -0.2402366482804721, 0.8156838680385055, -0.914431549153939, 0.7608747124218598, -0.11289447840128886, -0.7479953872544258, 0.9501862431812103, -0.3389952445929667, -0.6614665721806205, -0.27430432689489126, -0.5696283728746381, 0.5977470182012461, 0.12218994045891796, 0.9873678079824939, -0.07359601756180068, -0.3184216224842522, -0.7701168880691298, 0.7660549211565955, -0.6066497488127129, -0.5339444543578424, -0.6941998356897827, -0.6970178835293754, -0.7433021217928111, 0.525848018733535, 0.9285573041441111, -0.3221590964744838, 0.4734560481202592, -0.07658034256705748, -0.2832355521244765, -0.07218176096357443, -0.5127446449595787, -0.730687574582104, -0.32586614988349427, 0.05831511577195614, -0.5703359867993685, -0.24117133135103597, -0.06470342770555981, 0.01729742541567636, 0.4488570987221301, 0.17691659176881336, -0.08230434938480347, 0.0037498308815717696, 0.054182198831325135, 0.482732936280466, 0.694982244591859, 0.7190516024333296, -0.32296466292756776, 0.3004953757988691, -0.17722339687413347, 0.28591588337856466, 0.4640121138674451, 0.28189702756821977, -0.14081305060242966, -0.9198160559371793, 0.799893411493005, 0.42865778187312586, 0.88542756170976, -0.3390279623014478, 0.43577256105998496, 0.4097578183261523, -0.007296121809036826, 0.5250488343903426, -0.7109680151037665, -0.9331130349519765, -0.1100083009922963, -0.30805320665744573, 0.23192756772252476, 0.685313262332671, -0.5195482953624735, 0.07384156441778433, 0.45284522919733217, -0.95461566684728, -0.9597194215403131, -0.08769062105550063, -0.4628107196073561, -0.6474242000767989, 0.4226930389874879, 0.4016741465026441, -0.1304355609467216, -0.43214695944440185, 0.1583528347630221, -0.3936352861476877, 0.9861947941382925, 0.37312235062318844, -0.4980949555003451, 0.3512031013466519, -0.018196300605863414, -0.9646411774733685, -0.08707154065512346, -0.1362063247957097, 0.5447535421496439, 0.43021542121550205, 0.27011001999989004, 0.014641495548518568, -0.8533847319514543, -0.03699004007659834, 0.7680534375559827, 0.4792065301174646, -0.29340686392077187, 0.44912954841736563, 0.5073424226523318, -0.06229479671266991, 0.04943643380261342, -0.7226488883801057, 0.4392373136176666, 0.17459406448551507, -0.5718122944622317, -0.479081566439455, -0.3327674670678922, -0.8295391662535827, 0.594016050848921, -0.7050452843119257, -0.44874708296826693, 0.9369641302213856, -0.5982224573555217, -0.8878276731704737, -0.16339909262474217, 0.7307853918195042, 0.30000397197140183, -0.08524494484666656, -0.0004009841133512104, -0.06718860791993331, -0.19856699060754357, 0.2149436811188088, 0.17312519062578602, 0.9069194761736761, -0.20867746216406857, -0.33160278336241, -0.10797967248189444, 0.15547864112866971, -0.8562831832233615, -0.8725519144771534, 0.7089829128776028, 0.004551141617013199, 0.25903442295226786, 0.4819317282515767, 0.12862952212129608, 0.760298396526567, -0.487672128122022, 0.31578834199036065, -0.8881116818117687, -0.5287581648946218, 0.8755040028692755, 0.8857071595669723, -0.6911707263040479, -0.5020650768291597, -0.6395327454003761, -0.6545118857970016, 0.3171551914510242, 0.580480701900473, -0.8147173806412238, -0.493327722767676, -0.5890807368940301, 0.9369121757790628, 0.482946874675636, 0.6562337566440943, -0.510586977397387, -0.5907949424770211, -0.2966183418702373, -0.3691209812923495, -0.16218327270103705, 0.8145691995855318, -0.9714409165379227, 0.9321776753944695, -0.7959390634889982, 0.0640152463904815, -0.4652733195186953, 0.26039880930790993, -0.0823366410985853, 0.8141311968819727, 0.8658805491399435, -0.7896652902007677, -0.22301838502750204, 0.22579878454087954, 0.23515484277169318, 0.6582402508514456, -0.9865974452341582, 0.8314542104160221, 0.5653073993072864, -0.050526012525932584, 0.05232948754218891, -0.9468921934769976, 0.6028200377813562, -0.13102897363919652, 0.2308116962725737, 0.8148142058017727, -0.3095884852739108, 0.5055175972040338, -0.7915565659100929, 0.7091424898068128, 0.09327375021162809, -0.29613441417135955, -0.9986840829177792, 0.5349733877642366, -0.04863196219973731, -0.9384796499665486, 0.302421860871376, -0.014912235435801335, -0.44092151026603466, -0.2506867816079217, 0.6107255356157293, 0.202175150089285, -0.6230885239952788, -0.4765879705669378, -0.9859813585957011, 0.21449495647971273], "fitness": 31.887678393882556, "player_life": -5.00737556287082, "enemy_life": -1.0147022494766453, "game_time": 199.05131580108167}
{"weights": [-0.969431145199388, -0.47190783669219405, -0.6111113695698862, -0.7393348276078404, -0.8810824891485949, 0.7646999172443629, -0.7727176767209878, 0.745777465128131, 0.332115733274746, -0.5893909219139817, -0.25682820858678346, -0.9160520688161484, 0.951455627283456, 0.2530945170249086, 0.6364883943103181, 0.13399289271552606, 0.19176304371410757, 0.13087096735248616, 0.9212114709651573, 0.9947595200577881, 0.80439527463919, -0.77693857306781, -0.7543940323685214, 0.37270502569760344, 0.28137108793854226, -0.8102967255834206, -0.28535201655532294, -0.3935046883952187, 0.6314265167825774, -0.03346292369351267, -0.6707872567852187, -0.5671365779329514, 0.21106261202753274, -0.01402001433643374, 0.4177709973086743, 0.27007667194452334, 0.17799851372769293, -0.663630558937095, -0.8028115390521731, 0.06395911002591115, 0.33697478806637493, -0.5182904961750978, -0.4406134026893511, 0.2069645176601309, 0.7287148676447124, -0.0993790142183415, -0.6758883981481689, -0.4453902326415149, 0.04247904460007956, -0.6013742451113224, 0.42203584314188514, 0.1242456112984538, -0.5521083433483198, 0.6317206797705213, 0.2099808172949098, -0.8373271923877832, -0.6347739534452963, 0.34404140526296945, 0.8277938355588716, -0.2402366482804721, 0.8156838680385055, -0.914431549153939, 0.7608747124218598, -0.11289447840128886, -0.7479953872544258, 0.9501862431812103, -0.3389952445929667, -0.6614665721806205, -0.3700472320102566, -0.5696283728746381, 0.5977470182012461, 0.12218994045891796, 0.9873678079824939, -0.07359601756180068, -0.3184216224842522, -0.7701168880691298, -0.7119355552406734, -0.6066497488127129, -0.05974912989173786, -0.6941998356897827, -0.6970178835293754, 0.3995373163063627, 0.525848018733535, 0.9285573041441111, -0.3221590964744838, 0.4734560481202592, 0.8601087240913421, -0.2832355521244765, -0.07218176096357443, -0.5127446449595787, -0.730687574582104, -0.32586614988349427, -0.2974981632499545, -0.5703359867993685, -0.24117133135103597, -0.06470342770555981, 0.01729742541567636, 0.4488570987221301, 0.17691659176881336, -0.08230434938480347, 0.0037498308815717696, 0.054182198831325135, 0.482732936280466, 0.6704615134739946, 0.7190516024333296, -0.32296466292756776, 0.3004953757988691, 0.5095818375368983, -0.8783589608128446, 0.15583621219897958, 0.28189702756821977, -0.14081305060242966, -0.9198160559371793, 0.799893411493005, 0.42865778187312586, 0.88542756170976, -0.3390279623014478, 0.43577256105998496, 0.47260674289543525, -0.007296121809036826, -0.20219130199628332, -0.7109680151037665, -0.9331130349519765, -0.1100083009922963, -0.30805320665744573, 0.23192756772252476, 0.685313262332671, -0.5195482953624735, 0.07384156441778433, 0.45284522919733217, -0.6918095742921762, -0.9597194215403131, -0.08769062105550063, -0.4628107196073561, -0.6474242000767989, 0.4226930389874879, 0.05925056100893089, -0.1304355609467216, -0.43214695944440185, 0.1583528347630221, -0.3936352861476877, 0.9861947941382925, 0.37312235062318844, -0.4980949555003451, 0.6721697050569966, -0.018196300605863414, -0.9646411774733685, -0.08707154065512346, -0.1362063247957097, -0.43670191638924183, 0.43021542121550205, 0.27011001999989004, 0.014641495548518568, -0.8533847319514543, -0.03699004007659834, 0.7680534375559827, 0.4792065301174646, -0.29340686392077187, 0.44912954841736563, 0.5073424226523318, -0.06229479671266991, 0.04943643380261342, -0.7226488883801057, -0.6844902634839976, 0.17459406448551507, -0.5718122944622317, -0.479081566439455, -0.8795980295440797, -0.8295391662535827, 0.594016050848921, -0.7050452843119257, 0.2368995151602078, 0.9369641302213856, -0.02081652605524531, -0.8878276731704737, -0.16339909262474217, 0.09800623165919764, 0.30000397197140183, -0.08524494484666656, 0.652050085616463, -0.06718860791993331, -0.19856699060754357, 0.28446288162848754, 0.17312519062578602, 0.9069194761736761, -0.20867746216406857, -0.33160278336241, -0.10797967248189444, 0.15547864112866971, -0.8562831832233615, -0.8725519144771534, -0.33726281217714815, 0.004551141617013199, -0.513034871196131, 0.4819317282515767, 0.12862952212129608, 0.760298396526567, -0.487672128122022, 0.31578834199036065, -0.8881116818117687, -0.5287581648946218, -0.47631456689185114, 0.8857071595669723, -0.6911707263040479, -0.5020650768291597, -0.6395327454003761, -0.6545118857970016, -0.6361020565309419, 0.580480701900473, -0.8147173806412238, -0.8373888394375832, -0.5890807368940301, 0.8545930697985338, 0.482946874675636, 0.486424456212712, -0.510586977397387, -0.5907949424770211, -0.2966183418702373, -0.3691209812923495, -0.16218327270103705, 0.8145691995855318, -0.9714409165379227, 0.9321776753944695, -0.7959390634889982, 0.0640152463904815, -0.4652733195186953, 0.5593402148482389, -0.0823366410985853, 0.8141311968819727, 0.8658805491399435, -0.7896652902007677, -0.5677548502975471, -0.5346103594771079, 0.2014776273164136, 0.6582402508514456, -0.9865974452341582, 0.8314542104160221, 0.5653073993072864, 0.4303759876601223, 0.05232948754218891, -0.9468921934769976, 0.6028200377813562, -0.13102897363919652, 0.2308116962725737, 0.8148142058017727, -0.3095884852739108, 0.5055175972040338, 0.8852509495575345, 0.7091424898068128, 0.09327375021162809, -0.8648226167472468, -0.9986840829177792, 0.5349733877642366, -0.062050644577828384, -0.9384796499665486, 0.302421860871376, -0.014912235435801335, -0.44092151026603466, -0.2506867816079217, 0.6107255356157293, 0.202175150089285, -0.6230885239952788, -0.4765879705669378, -0.9859813585957011, -0.5447151960010672], "fitness": 26.72744296931096, "player_life": -7.7474723445637075, "enemy_life": 3.3618855471419558, "game_time": 164.8294647718042}
{"weights": [-0.969431145199388, -0.47190783669219405, -0.6111113695698862, -0.7393348276078404, -0.8810824891485949, 0.15074657423293503, -0.7727176767209878, 0.745777465128131, 0.332115733274746, -0.5893909219139817, -0.25682820858678346, -0.9160520688161484, 0.951455627283456, 0.2530945170249086, 0.6364883943103181, 0.13399289271552606, 0.19176304371410757, 0.13087096735248616, 0.9212114709651573, 0.9947595200577881, 0.8302060295241571, -0.77693857306781, -0.7543940323685214, 0.37270502569760344, 0.28137108793854226, -0.8102967255834206, -0.28535201655532294, -0.3935046883952187, -0.19111290602363673, -0.03346292369351267, -0.6707872567852187, -0.5671365779329514, 0.21106261202753274, -0.01402001433643374, 0.4177709973086743, 0.27007667194452334, 0.17799851372769293, -0.663630558937095, -0.24811210836293518, -0.4739496401514969, 0.33697478806637493, -0.5182904961750978, -0.4406134026893511, 0.2069645176601309, 0.7287148676447124, -0.0993790142183415, -0.6758883981481689, -0.4453902326415149, 0.04247904460007956, -0.6013742451113224, 0.42203584314188514, 0.1242456112984538, -0.5521083433483198, 0.6317206797705213, 0.2099808172949098, 0.8051687442298514, -0.6347739534452963, 0.34404140526296945, 0.8277938355588716, -0.2402366482804721, 0.8156838680385055, -0.914431549153939, -0.040555237147110956, -0.11289447840128886, -0.7479953872544258, 0.9501862431812103, -0.3389952445929667, -0.6614665721806205, -0.3700472320102566, -0.5696283728746381, 0.9741580339716653, 0.12218994045891796, 0.9873678079824939, -0.07359601756180068, -0.3184216224842522, -0.7701168880691298, 0.7660549211565955, -0.6066497488127129, -0.5339444543578424, -0.6941998356897827, -0.6970178835293754, -0.7433021217928111, 0.525848018733535, 0.9285573041441111, 0.04915403952603814, 0.4734560481202592, -0.07658034256705748, -0.2832355521244765, -0.07218176096357443, -0.5127446449595787, -0.730687574582104, -0.32586614988349427, -0.2974981632499545, -0.5703359867993685, -0.24117133135103597, -0.06470342770555981, 0.01729742541567636, 0.4488570987221301, 0.17691659176881336, -0.08230434938480347, 0.0037498308815717696, -0.493841260764752, 0.482732936280466, 0.694982244591859, 0.7190516024333296, -0.32296466292756776, 0.3004953757988691, -0.17722339687413347, 0.28591588337856466, 0.4640121138674451, 0.28189702756821977, -0.14081305060242966, -0.9198160559371793, 0.799893411493005, 0.6056637039558803, 0.88542756170976, -0.3390279623014478, 0.43577256105998496, 0.4097578183261523, -0.007296121809036826, 0.5250488343903426, -0.7109680151037665, -0.9331130349519765, -0.9933188384766518, -0.30805320665744573, 0.23192756772252476, 0.685313262332671, -0.5195482953624735, 0.07384156441778433, 0.038564239594483185, -0.95461566684728, -0.9597194215403131, -0.08769062105550063, -0.4628107196073561, -0.6474242000767989, 0.4226930389874879, 0.4016741465026441, -0.1304355609467216, -0.43214695944440185, 0.1583528347630221, -0.3936352861476877, 0.9861947941382925, 0.37312235062318844, -0.4980949555003451, 0.3512031013466519, -0.018196300605863414, -0.9646411774733685, -0.08707154065512346, -0.1362063247957097, 0.5447535421496439, 0.43021542121550205, 0.27011001999989004, 0.014641495548518568, -0.8533847319514543, -0.03699004007659834, 0.7680534375559827, 0.4792065301174646, -0.29340686392077187, 0.44912954841736563, 0.5073424226523318, -0.06229479671266991, 0.04943643380261342, -0.7226488883801057, -0.6844902634839976, -0.7270247627333217, -0.5718122944622317, -0.479081566439455, -0.3327674670678922, -0.8295391662535827, 0.594016050848921, -0.7050452843119257, -0.44874708296826693, 0.9369641302213856, -0.5982224573555217, -0.8878276731704737, -0.16339909262474217, 0.09800623165919764, 0.30000397197140183, -0.08524494484666656, -0.0004009841133512104, -0.06718860791993331, -0.19856699060754357, 0.2149436811188088, 0.09078090929839777, 0.9069194761736761, -0.20867746216406857, -0.33160278336241, -0.10797967248189444, 0.15547864112866971, -0.8562831832233615, -0.8725519144771534, 0.7089829128776028, 0.004551141617013199, -0.513034871196131, 0.4819317282515767, 0.4550681347222063, 0.760298396526567, -0.487672128122022, 0.31578834199036065, -0.8881116818117687, -0.5287581648946218, 0.8755040028692755, 0.8857071595669723, -0.6911707263040479, -0.5020650768291597, -0.6395327454003761, -0.6545118857970016, 0.3171551914510242, 0.580480701900473, -0.8147173806412238, -0.8373888394375832, -0.5890807368940301, 0.9369121757790628, 0.482946874675636, 0.6562337566440943, -0.510586977397387, -0.5907949424770211, -0.2966183418702373, -0.3691209812923495, -0.16218327270103705, 0.8145691995855318, -0.9714409165379227, 0.9321776753944695, -0.7959390634889982, 0.0640152463904815, -0.4652733195186953, 0.26039880930790993, -0.0823366410985853, 0.7321324849887936, -0.7325960251573704, -0.7896652902007677, -0.22301838502750204, -0.5346103594771079, 0.23515484277169318, 0.3779481844754333, -0.9865974452341582, 0.8314542104160221, 0.9997678669742189, -0.050526012525932584, 0.05232948754218891, -0.9468921934769976, 0.6028200377813562, -0.13102897363919652, 0.2308116962725737, 0.8148142058017727, -0.5960739943278328, 0.5055175972040338, -0.7915565659100929, 0.7091424898068128, 0.09327375021162809, -0.8648226167472468, -0.9986840829177792, 0.5349733877642366, -0.04863196219973731, -0.9384796499665486, 0.302421860871376, -0.014912235435801335, -0.44092151026603466, -0.2506867816079217, 0.6107255356157293, 0.202175150089285, -0.6230885239952788, -0.4765879705669378, -0.9859813585957011, 0.21449495647971273], "fitness": 29.429873523017463, "player_life": -11.943254544660928, "enemy_life": 1.4852977505233547, "game_time": 194.47648468968515}
{"weights": [-0.969431145199388, -0.35981632261295693, -0.6111113695698862, -0.7393348276078404, -0.8810824891485949, 0.15074657423293503, -0.7727176767209878, 0.745777465128131, 0.332115733274746, 0.7812714993385694, -0.25682820858678346, -0.9160520688161484, 0.951455627283456, -0.5186705710974513, -0.8951624341673292, 0.13399289271552606, 0.19176304371410757, 0.13087096735248616, 0.9212114709651573, 0.9947595200577881, 0.80439527463919, -0.1677230344675975, -0.7543940323685214, 0.37270502569760344, -0.4662842090289754, -0.8102967255834206, -0.28535201655532294, -0.3935046883952187, -0.19111290602363673, -0.38601093661691266, -0.6707872567852187, -0.5671365779329514, 0.7049971223502549, -0.01402001433643374, 0.4177709973086743, 0.04843702673621353, 0.17799851372769293, -0.663630558937095, -0.8028115390521731, 0.06395911002591115, 0.33697478806637493, -0.5182904961750978, -0.4406134026893511, 0.2069645176601309, 0.635351140947122, -0.0993790142183415, -0.6758883981481689, -0.4453902326415149, 0.04247904460007956, -0.6013742451113224, 0.42203584314188514, 0.1242456112984538, -0.7698272275407769, 0.6317206797705213, 0.2099808172949098, 0.8051687442298514, -0.6347739534452963, 0.34404140526296945, 0.8277938355588716, -0.2402366482804721, 0.3355213968430657, -0.914431549153939, 0.7608747124218598, -0.11289447840128886, -0.7479953872544258, 0.9501862431812103, -0.3389952445929667, -0.6021683100522905, -0.27430432689489126, -0.5696283728746381, 0.9741580339716653, 0.12218994045891796, 0.9873678079824939, -0.07359601756180068, -0.3184216224842522, -0.7701168880691298, 0.7660549211565955, -0.6066497488127129, -0.5339444543578424, -0.6941998356897827, -0.6970178835293754, -0.7433021217928111, 0.525848018733535, 0.9285573041441111, 0.04915403952603814, 0.4734560481202592, -0.07658034256705748, -0.2832355521244765, -0.07218176096357443, -0.5127446449595787, -0.730687574582104, -0.32586614988349427, 0.05831511577195614, -0.5703359867993685, -0.24117133135103597, -0.06470342770555981, 0.01729742541567636, 0.4488570987221301, 0.17691659176881336, -0.08230434938480347, 0.0037498308815717696, 0.054182198831325135, 0.482732936280466, 0.694982244591859, 0.7190516024333296, 0.8843223170437016, 0.3004953757988691, -0.17722339687413347, 0.28591588337856466, 0.4640121138674451, 0.28189702756821977, -0.14081305060242966, -0.4635447513810309, 0.799893411493005, 0.42865778187312586, 0.88542756170976, -0.3390279623014478, 0.43577256105998496, 0.4097578183261523, -0.007296121809036826, 0.5250488343903426, -0.7109680151037665, 0.42970195508273723, -0.1100083009922963, -0.30805320665744573, 0.23192756772252476, 0.685313262332671, -0.3686023152047031, 0.07384156441778433, 0.45284522919733217, -0.6918095742921762, -0.9597194215403131, -0.08769062105550063, -0.4628107196073561, -0.6474242000767989, 0.0635153389349874, 0.4016741465026441, -0.35985940230220015, -0.43214695944440185, 0.1583528347630221, -0.3936352861476877, 0.9861947941382925, 0.37312235062318844, -0.4980949555003451, 0.6721697050569966, -0.018196300605863414, -0.9646411774733685, -0.08707154065512346, -0.1362063247957097, 0.5447535421496439, 0.43021542121550205, 0.27011001999989004, 0.014641495548518568, -0.8533847319514543, -0.03699004007659834, 0.7680534375559827, 0.4792065301174646, -0.29340686392077187, 0.44912954841736563, 0.5073424226523318, -0.06229479671266991, 0.04943643380261342, -0.7226488883801057, -0.6844902634839976, 0.17459406448551507, -0.5718122944622317, -0.479081566439455, -0.8795980295440797, -0.8295391662535827, -0.6266301835223849, -0.7050452843119257, -0.44874708296826693, 0.9369641302213856, -0.02081652605524531, -0.8878276731704737, -0.16339909262474217, 0.09800623165919764, -0.018850531533646242, 0.7734276717653226, -0.0004009841133512104, -0.06718860791993331, -0.19856699060754357, 0.28446288162848754, 0.17312519062578602, -0.03372372254633338, -0.20867746216406857, -0.33160278336241, -0.10797967248189444, 0.15547864112866971, -0.8562831832233615, -0.8725519144771534, 0.7089829128776028, 0.004551141617013199, 0.25903442295226786, 0.4819317282515767, 0.12862952212129608, 0.760298396526567, -0.487672128122022, 0.31578834199036065, -0.8881116818117687, -0.5287581648946218, -0.47631456689185114, 0.8857071595669723, -0.6911707263040479, -0.5020650768291597, -0.6395327454003761, -0.6545118857970016, 0.3171551914510242, 0.580480701900473, -0.8147173806412238, -0.8373888394375832, -0.5890807368940301, 0.8545930697985338, 0.482946874675636, 0.486424456212712, -0.510586977397387, -0.5907949424770211, -0.2966183418702373, -0.015831356405832553, -0.16218327270103705, 0.8145691995855318, -0.9714409165379227, 0.9321776753944695, -0.7959390634889982, 0.0640152463904815, -0.4652733195186953, 0.5593402148482389, -0.0823366410985853, 0.8141311968819727, -0.7325960251573704, -0.7896652902007677, -0.22301838502750204, 0.7053531220283806, 0.2014776273164136, 0.3779481844754333, -0.9865974452341582, 0.8314542104160221, 0.5653073993072864, 0.4303759876601223, 0.05232948754218891, -0.9468921934769976, 0.6028200377813562, -0.13102897363919652, 0.2308116962725737, 0.8148142058017727, -0.5960739943278328, 0.5055175972040338, -0.7915565659100929, 0.7091424898068128, 0.09327375021162809, -0.8648226167472468, -0.9986840829177792, 0.5349733877642366, -0.04863196219973731, -0.9384796499665486, 0.302421860871376, -0.014912235435801335, -0.44092151026603466, -0.2506867816079217, 0.6107255356157293, 0.202175150089285, -0.6230885239952788, -0.4765879705669378, -0.9859813585957011, -0.5447151960010672], "fitness": 30.352285383871017, "player_life": -5.512593283356249, "enemy_life": 2.337416234449055, "game_time": 168.66456906147943}
{"weights": [0.9799777186637553, -0.35981632261295693, -0.6111113695698862, -0.7393348276078404, -0.8810824891485949, 0.15074657423293503, -0.7727176767209878, 0.6779634430994841, -0.03199261074736093, -0.5893909219139817, -0.25682820858678346, 0.7382868887397986, 0.951455627283456, 0.2530945170249086, 0.6364883943103181, 0.46400020728975244, 0.19176304371410757, 0.13087096735248616, 0.9212114709651573, 0.9947595200577881, 0.80439527463919, -0.1677230344675975, -0.7543940323685214, 0.37270502569760344, 0.28137108793854226, -0.8102967255834206, -0.28535201655532294, -0.3935046883952187, 0.6314265167825774, -0.38601093661691266, -0.6707872567852187, -0.5671365779329514, 0.7049971223502549, -0.01402001433643374, 0.4177709973086743, 0.04843702673621353, 0.17799851372769293, -0.663630558937095, -0.8028115390521731, 0.06395911002591115, 0.33697478806637493, -0.5182904961750978, -0.4406134026893511, 0.2069645176601309, 0.7287148676447124, -0.0993790142183415, -0.6758883981481689, -0.4453902326415149, 0.04247904460007956, -0.6013742451113224, 0.42203584314188514, 0.1242456112984538, -0.5521083433483198, 0.6317206797705213, 0.2099808172949098, -0.8373271923877832, 0.6252498134948778, 0.34404140526296945, 0.8277938355588716, -0.2402366482804721, 0.3355213968430657, -0.914431549153939, 0.7608747124218598, -0.11289447840128886, -0.7479953872544258, 0.9501862431812103, -0.3389952445929667, -0.6021683100522905, -0.27430432689489126, -0.5696283728746381, 0.5977470182012461, 0.12218994045891796, 0.9873678079824939, -0.07359601756180068, -0.3184216224842522, -0.7701168880691298, -0.7119355552406734, -0.6066497488127129, -0.5339444543578424, -0.6941998356897827, -0.6970178835293754, -0.7433021217928111, 0.525848018733535, 0.9285573041441111, 0.04915403952603814, 0.4734560481202592, 0.8601087240913421, -0.2832355521244765, -0.07218176096357443, -0.5127446449595787, -0.730687574582104, -0.32586614988349427, 0.05831511577195614, -0.5703359867993685, -0.24117133135103597, -0.06470342770555981, 0.01729742541567636, 0.4488570987221301, 0.17691659176881336, -0.08230434938480347, 0.0037498308815717696, 0.054182198831325135, 0.482732936280466, -0.1253044332671669, 0.7190516024333296, 0.8843223170437016, 0.3004953757988691, -0.17722339687413347, 0.28591588337856466, 0.4640121138674451, -0.07260015879370063, -0.14081305060242966, -0.9198160559371793, 0.799893411493005, 0.6056637039558803, 0.88542756170976, -0.3390279623014478, 0.43577256105998496, 0.4097578183261523, -0.007296121809036826, 0.5250488343903426, -0.7109680151037665, 0.8203332675350516, -0.9933188384766518, -0.30805320665744573, 0.23192756772252476, 0.685313262332671, -0.5195482953624735, 0.07384156441778433, 0.45284522919733217, -0.95461566684728, 0.8161779497296098, -0.08769062105550063, -0.4628107196073561, -0.6474242000767989, 0.0635153389349874, 0.4016741465026441, -0.1304355609467216, -0.43214695944440185, 0.1583528347630221, -0.3936352861476877, 0.9861947941382925, 0.37312235062318844, -0.4980949555003451, 0.3512031013466519, 0.7327549389537333, -0.9646411774733685, -0.08707154065512346, -0.1362063247957097, 0.5447535421496439, 0.43021542121550205, 0.27011001999989004, 0.014641495548518568, -0.8533847319514543, -0.03699004007659834, 0.7680534375559827, 0.4792065301174646, -0.29340686392077187, 0.44912954841736563, 0.5073424226523318, -0.06229479671266991, 0.04943643380261342, -0.7226488883801057, -0.6844902634839976, 0.17459406448551507, -0.5718122944622317, -0.479081566439455, -0.8795980295440797, -0.8295391662535827, 0.594016050848921, -0.7050452843119257, -0.44874708296826693, 0.9369641302213856, -0.02081652605524531, -0.8878276731704737, -0.16339909262474217, 0.7307853918195042, -0.018850531533646242, -0.08524494484666656, -0.0004009841133512104, -0.06718860791993331, -0.19856699060754357, 0.28446288162848754, 0.17312519062578602, 0.7233141919907413, -0.20867746216406857, -0.33160278336241, -0.10797967248189444, 0.15547864112866971, -0.8562831832233615, -0.8725519144771534, 0.7089829128776028, 0.004551141617013199, 0.25903442295226786, 0.4819317282515767, 0.12862952212129608, 0.760298396526567, -0.487672128122022, 0.31578834199036065, -0.8881116818117687, -0.5287581648946218, 0.8755040028692755, 0.8857071595669723, -0.5604791249723815, -0.5020650768291597, -0.6395327454003761, -0.6545118857970016, -0.6361020565309419, 0.580480701900473, -0.8147173806412238, -0.7895201528151186, -0.5890807368940301, 0.8545930697985338, 0.9407679205846975, 0.486424456212712, -0.510586977397387, -0.5907949424770211, -0.2966183418702373, -0.3691209812923495, -0.16218327270103705, 0.8145691995855318, -0.9714409165379227, 0.9321776753944695, -0.7959390634889982, 0.0640152463904815, -0.3510549615482106, 0.26039880930790993, -0.0823366410985853, 0.8141311968819727, 0.8658805491399435, -0.7896652902007677, -0.22301838502750204, 0.22579878454087954, 0.2014776273164136, 0.3779481844754333, -0.9865974452341582, 0.8314542104160221, 0.5653073993072864, 0.4303759876601223, 0.05232948754218891, 0.0679675262498749, 0.6028200377813562, -0.13102897363919652, 0.2308116962725737, 0.8148142058017727, -0.3095884852739108, 0.5055175972040338, 0.8852509495575345, 0.7091424898068128, 0.09327375021162809, -0.29613441417135955, -0.9986840829177792, 0.5349733877642366, -0.062050644577828384, -0.9384796499665486, 0.302421860871376, -0.014912235435801335, -0.44092151026603466, -0.2506867816079217, 0.6107255356157293, 0.202175150089285, -0.6230885239952788, -0.4765879705669378, -0.9859813585957011, -0.5447151960010672], "fitness": 30.164543232068855, "player_life": -5.778317914944006, "enemy_life": -0.41381265149109936, "game_time": 187.73202557244178}
{"weights": [0.9799777186637553, -0.35981632261295693, -0.6111113695698862, -0.7393348276078404, -0.8810824891485949, 0.15074657423293503, -0.7727176767209878, 0.745777465128131, 0.332115733274746, -0.5893909219139817, -0.25682820858678346, 0.7382868887397986, 0.951455627283456, 0.2530945170249086, 0.6364883943103181, 0.13399289271552606, 0.19176304371410757, 0.13087096735248616, 0.9212114709651573, 0.9947595200577881, 0.80439527463919, -0.1677230344675975, -0.7543940323685214, 0.37270502569760344, -0.4662842090289754, -0.8102967255834206, -0.28535201655532294, -0.3935046883952187, 0.6314265167825774, -0.38601093661691266, -0.6707872567852187, -0.5671365779329514, 0.7049971223502549, -0.01402001433643374, 0.4177709973086743, 0.27007667194452334, 0.17799851372769293, -0.663630558937095, -0.8028115390521731, -0.4739496401514969, 0.33697478806637493, -0.5182904961750978, -0.4406134026893511, -0.958552539458192, 0.635351140947122, -0.0993790142183415, -0.6758883981481689, -0.4453902326415149, 0.04247904460007956, -0.6013742451113224, 0.42203584314188514, 0.1242456112984538, -0.7698272275407769, 0.6317206797705213, 0.2099808172949098, 0.8051687442298514, 0.6252498134948778, 0.34404140526296945, 0.8277938355588716, -0.2402366482804721, 0.8156838680385055, -0.914431549153939, 0.7608747124218598, -0.11289447840128886, -0.7479953872544258, 0.9501862431812103, -0.3389952445929667, -0.6021683100522905, -0.3700472320102566, -0.16011185500752267, 0.5977470182012461, 0.12218994045891796, 0.9873678079824939, -0.07359601756180068, -0.3184216224842522, -0.7701168880691298, 0.7660549211565955, -0.6066497488127129, -0.05974912989173786, -0.6941998356897827, -0.6970178835293754, -0.7065847157595921, 0.525848018733535, 0.9285573041441111, -0.3221590964744838, 0.4734560481202592, -0.07658034256705748, -0.2832355521244765, -0.07218176096357443, -0.5127446449595787, -0.730687574582104, -0.32586614988349427, -0.2974981632499545, -0.5703359867993685, -0.8015992849577764, -0.06470342770555981, 0.01729742541567636, 0.4488570987221301, -0.980030462763988, -0.08230434938480347, 0.0037498308815717696, 0.054182198831325135, 0.482732936280466, 0.694982244591859, 0.7190516024333296, -0.43801893032624095, 0.6779296107904031, -0.17722339687413347, -0.8875560618388119, 0.4640121138674451, 0.28189702756821977, -0.14081305060242966, -0.9198160559371793, 0.799893411493005, 0.6056637039558803, 0.88542756170976, -0.3390279623014478, 0.43577256105998496, 0.4097578183261523, -0.007296121809036826, 0.5250488343903426, -0.7109680151037665, 0.8203332675350516, -0.1100083009922963, -0.30805320665744573, 0.23192756772252476, 0.685313262332671, -0.3686023152047031, 0.07384156441778433, 0.45284522919733217, -0.6918095742921762, -0.9597194215403131, -0.08769062105550063, -0.4628107196073561, -0.19606303090810617, 0.4226930389874879, 0.4016741465026441, -0.5854701681355694, -0.9732260657669043, 0.1583528347630221, -0.3936352861476877, 0.9861947941382925, 0.37312235062318844, -0.4980949555003451, 0.6721697050569966, -0.018196300605863414, -0.9646411774733685, -0.08707154065512346, -0.1362063247957097, -0.43670191638924183, 0.43021542121550205, -0.5874667127952047, 0.014641495548518568, -0.8533847319514543, -0.03699004007659834, 0.7680534375559827, 0.4792065301174646, -0.29340686392077187, 0.44912954841736563, 0.5073424226523318, -0.06229479671266991, 0.04943643380261342, -0.7226488883801057, -0.6844902634839976, 0.17459406448551507, -0.5718122944622317, -0.479081566439455, -0.8795980295440797, -0.8295391662535827, 0.594016050848921, -0.7050452843119257, -0.44874708296826693, 0.9369641302213856, -0.02081652605524531, -0.8878276731704737, -0.16339909262474217, 0.09800623165919764, 0.30000397197140183, 0.7734276717653226, 0.652050085616463, -0.06718860791993331, -0.19856699060754357, 0.2149436811188088, 0.17312519062578602, 0.7233141919907413, -0.20867746216406857, -0.33160278336241, -0.10797967248189444, 0.5760143773092821, -0.8562831832233615, -0.8725519144771534, 0.7089829128776028, 0.004551141617013199, -0.513034871196131, 0.4819317282515767, 0.4550681347222063, 0.760298396526567, -0.487672128122022, 0.31578834199036065, -0.8881116818117687, -0.1784574882535399, 0.8330930994338797, 0.8857071595669723, -0.6911707263040479, -0.5020650768291597, -0.6395327454003761, -0.6545118857970016, -0.6361020565309419, 0.580480701900473, -0.8147173806412238, -0.493327722767676, -0.5890807368940301, 0.9369121757790628, 0.482946874675636, 0.486424456212712, -0.510586977397387, -0.5907949424770211, -0.2966183418702373, -0.3691209812923495, -0.16218327270103705, 0.8145691995855318, -0.9714409165379227, 0.9321776753944695, -0.6224395239225824, 0.0640152463904815, -0.4652733195186953, 0.5593402148482389, -0.0823366410985853, 0.05068894929347123, -0.7325960251573704, -0.7896652902007677, -0.22301838502750204, 0.22579878454087954, 0.23515484277169318, 0.6582402508514456, -0.9865974452341582, 0.8314542104160221, 0.9997678669742189, 0.4303759876601223, 0.05232948754218891, 0.0679675262498749, 0.6028200377813562, -0.13102897363919652, 0.2308116962725737, 0.8148142058017727, -0.5960739943278328, 0.5055175972040338, 0.8852509495575345, 0.6829933666412364, 0.09327375021162809, -0.8648226167472468, -0.9986840829177792, 0.5349733877642366, -0.04863196219973731, -0.9384796499665486, 0.302421860871376, -0.014912235435801335, -0.08269987643007082, -0.2506867816079217, 0.6107255356157293, 0.202175150089285, -0.6230885239952788, -0.4765879705669378, -0.9859813585957011, -0.5447151960010672], "fitness": 30.316638154649947, "player_life": -7.646371507635038, "enemy_life": 2.337416234449055, "game_time": 169.85584940319254}
