{"weights": [-0.0994422137491619, 0.6853907230401335, -0.82473439174966, -0.954491043721322, 0.10918676463118576, 0.8327448453738169, -0.8544212045662186, -1.0, -0.3468007009510263, 0.09075337523772795, 0.3760982982499481, -0.22645895700424556, -0.8342743307968931, 0.17291488670307012, -0.3826164640897095, -1.0, -1.0, 0.6333818926741672, 0.4074315456684795, -0.8620275752624608, 0.5413750460538835, -0.9169939519204672, -1.0, -0.2883323060741032, 0.19839014236611233, -0.013884333623503414, 0.8697267532870464, 0.417323055173803, 0.06349806874263539, 0.4121232344157446, -0.7205472538708737, -0.9927206019623865, 0.07229601229178834, 0.7988390363809565, -0.9815041600343745, 0.8350120071559208, -1.0, 0.9128390092512902, 0.6811473619003185, 0.36562615123728526, 0.2347964710162025, 1.0, -0.6903146651868561, 0.12287954007940208, 0.6448815085851286, -0.7461623896911873, 0.23999942073256586, 0.4063275770227193, 0.8035162326171525, -0.5478073110343964, -0.46535346137337275, -0.9830628539221452, -0.3782466865226499, -1.0, -0.1750637499629773, 0.972293488251635, -0.5893489760662385, 0.2920738272535297, -0.529688371937963, 0.7479429213746656, 0.022915281658752257, -0.818691553101084, 0.1809906173262832, 0.28793439222601486, 0.7814838408963638, 0.7999897055042702, 0.40622345038655866, -0.8252514177875853, -0.8063122203222834, -0.6635752268252708, 0.41468493126208567, -0.5347214674880243, -0.05284978811697233, -0.9459314253075265, -0.7271889170859244, -1.0, 0.07156280346435175, 0.34114596370059325, -0.7010444834846897, -0.16681457687882895, -0.3024100588599732, 0.9288801504234638, -0.004496612283396206, 0.5418495883004033, 0.07255057006122828, -0.2946394964759669, -1.0, 0.28121582847588855, 0.49137304092662965, -0.09798068199780535, -0.11478892091886736, -0.01608885821907094, -0.8161235029184226, 0.5942520117785444, 0.4452170897022191, 0.22144223150583164, -0.5356323510952467, -0.47707657105371915, -0.7004778288873666, -0.7749457428812615, 0.302987274581926, -0.5214665467259161, 0.7446667986420192, -0.7109196197502039, -0.40554876696377257, 0.17028033926930453, 0.6569040264521067, 0.8275876378585321, -0.758336419973261, -0.6449686922561251, -0.7360377452938078, -0.7741504096217153, 0.17339558141639275, 0.36934530658659703, -0.9032889552193115, -0.2415593221196552, -1.0, -0.14005932114274172, -0.33144271286072613, 0.5474965709141757, -1.0, 0.4633554032953482, 0.11447090060718593, -0.03358703836356931, -0.7468076676543307, -0.9058798168552233, -1.0, -0.5194549344975723, -0.3876351384630289, 0.17522587999558942, -0.6160333222674653, -0.1253418409226303, -0.06567905470816165, -0.719375439729117, -0.295718410520063, 0.6090936391709314, 0.9556670174615521, 0.8799896206658498, -0.3439217928014944, 0.8746314594383622, 0.3220620736852592, -0.5546353628364548, 1.0, 0.03329921133780131, 0.1183343491392522, -0.6947849828961741, -0.6704042531300227, -0.6099109973793432, -1.0, 0.3663294163477437, 0.48382966465865385, 0.24364725785534402, -0.7957511616168688, 1.0, 0.8652609197325742, -0.5484710404261169, -0.9305530256773911, -0.3000906833890347, 0.33409983630461215, 0.49689045128193376, -0.8572497832218535, 1.0, 0.647665881213189, 0.3611266877686946, 0.07414041238568397, -0.4282069565784828, 0.21272810002274734, -0.32556869767292973, 0.4355181730430402, -0.7243626641523868, -1.0, -0.44123280779744756, 0.7678529809968844, 0.5488062501764237, 0.37337502994145877, -0.600959508847762, -0.20655259684949817, -0.6949536611431549, -1.0, 0.2482246496406511, -0.07985501637854808, -0.5488443739908713, -0.06862996753854483, -0.6245144155527695, -0.8385281131436312, -0.5462512518666465, -0.24173792558956136, -0.3379103353181549, 0.9361837295306615, 0.13259270762125597, -0.016119846067592536, -0.2656417418976084, 0.937213158282056, -0.5368381157616597, -0.5675646761878278, 0.4792429734417013, 0.05163460525120174, 0.9843565451616945, -0.5934906728274341, -0.6105042815452176, -1.0, -0.009846961474749255, -0.11703923429946375, -0.4318119880818289, -0.7752661637998421, -0.3154155689840885, -0.6677235750694201, -0.25546772031321585, 0.1589394151820869, -0.7186222507895164, -0.9283819750095363, -0.34972598299428, 0.28183765764424407, 1.0, -0.5939586962484577, 0.8324621027861712, -0.0008918855804344872, -0.465133663296208, 0.6330788145224844, -0.4466683603414564, -0.021816912770262986, -0.7980284937461595, -0.006733854124797323, -0.5184110863481786, 0.3119808798435275, -0.2880453354496293, -0.18380360094317738, 0.19284463677410993, 1.0, -0.6636109437345997, 0.5455495772236143, -0.05392956046395042, -0.8988503342190544, -0.9896189428390907, 0.6059144187993561, -0.8566671029518048, 0.8532040971784137, 0.7418250122527567, -0.09904411911977168, 0.5825025311808268, 0.4062952554699155, -0.31689562018894496, 0.5993030276240054, -0.321617039396208, 1.0, -0.31363087016468444, 0.2663323254613408, 0.9384001301314215, 0.19796267469120246, -0.21671128891771146, 0.3806386770384982, 0.5519535653036982, 0.40624581938949544, 0.14855372967587285, 0.04120614136384944, -0.44134905656762036, 0.1318705595017667, 0.8075523758780495, 0.20883667069693268, 0.05590908373226172, -0.852091156184013, 0.04978090922376652, 0.7443254574507572, 0.652983844046268, 0.10342403582170182], "fitness": 75.75297592783951, "player_life": 0, "enemy_life": 10.0, "game_time": 190}
{"weights": [0.14467864547661857, 1.0, -0.029278813485989152, -0.9295852371085151, -0.07976914556152581, 0.23044943280722247, -0.904635121743376, -0.518126950497812, -0.2755624293541217, 0.07319398098305402, 0.20724595494828174, 0.4995224704732104, -0.6242976562277879, 0.18303445069379026, -0.9052118304272678, -0.8400702489873078, -0.8127130880501043, 0.499492660559431, -0.04717780211346927, -1.0, 0.031565535154354535, -0.9183219120663154, -0.16240246187083296, -0.2597499817081482, 0.4327651109170835, 0.016685033907863495, 0.8721725861807865, -0.06891856535401292, 0.2135682748683101, 0.17583872328584887, -1.0, -0.19094891602440997, -0.23983040710162717, 0.9181231598577142, 0.003840458754995668, -0.6853650589659307, -1.0, 0.47324376123377143, 0.83657991988322, 0.13006325702278843, 0.32144692745088255, 1.0, -0.7830580635126069, 0.10938618595121938, 0.8818064618766083, -0.4874990053139585, 0.26360251209276037, 0.8846789702332898, 0.6077086592603822, -1.0, -0.30467926534060363, -0.6572727177028016, 0.050930539149010204, -1.0, 0.583213216334842, 0.7960438994384693, -0.6815176263221896, 0.9185242035380757, -0.09610685009288128, 0.5139032521155094, 0.6753516374197726, -0.49071137185895347, 0.48980062072826985, 0.5052830329280307, 0.7959874607908843, 0.9984718863416366, -1.0, -0.613800880013046, -0.805657782904649, -0.7529005288286714, 0.13091126426348632, 0.7962089950857536, 0.2353473984677848, -0.8357489934563334, -1.0, -0.8483963055196395, 0.2231835436477381, 0.5023899024217394, -0.973823436412181, -0.16697072034295518, -0.5582476866902281, 0.7350763268246494, 1.0, 0.07162542517154255, -0.3171924835828787, -0.24625644442764968, -0.9978195516275266, 0.9891291295567062, 0.33461513699869966, -0.9563695099488481, -0.6055130288740853, 0.09210109712393477, -0.37399696730332116, 1.0, 0.24514382979590416, -0.34605583440764076, -0.8640394914920067, -0.5409055960268048, -1.0, -0.43725660886168183, -0.2724647062808351, 0.7404676043307241, 0.5337317941644671, -0.36352591654543753, -0.270613796146662, 0.5803306345146722, 0.5974867768029041, -0.4637504322750454, -0.2220230900718358, -0.5909665617790131, -0.29712209266951556, -1.0, 0.02571929446056713, -0.11323766356578091, -1.0, -1.0, -0.9364918117994656, -0.018912341554419967, 0.2279577350956281, 1.0, -0.9139188948099297, 0.6688830467790292, 1.0, 0.451319866475594, -0.4441739045925087, 0.03220097985632345, -1.0, -0.17974706449366973, -0.0797436514910366, 0.3961043970327668, -0.3370337671893157, -0.7624896722447327, 0.14133608204597226, -0.7428934548276143, -0.07376078116632075, 0.03197321908213799, 1.0, 1.0, -0.4078041285261458, 0.9297207267968528, 0.25429551724975846, -0.08984405073660273, 0.10862776584602651, -0.03861849530844669, -0.19838224746988897, -0.7175632913801261, -0.9708937302918001, -0.8023034716266843, -0.07991270914371951, -0.011618246539450927, -0.7128683363547237, 0.4107041645853415, -0.5454415052024592, 1.0, 0.9095395722631616, -0.5463366984546447, -0.26634144433892837, -0.38675090044855154, -0.3626680797761337, 0.3835286232215266, 0.7261786905643455, 0.9490440540888625, 0.7807212716465238, 0.3913851065890724, 0.39194889106068975, -1.0, -0.625909910380477, -0.5938245990758892, -0.3491470533987354, -0.7307729198633788, -0.9368863812331863, -0.6789567526543292, -0.036723782936397775, 0.809376577888236, 0.11856908623168438, -0.06300274385306392, -1.0, -0.6103962432687156, -0.8438409901703734, -0.43660050452733545, 0.8454214754967908, -0.9543359060607078, 0.1955416610000619, 0.13341261718292347, -0.6801336976494066, -0.3970597468849409, -1.0, -0.1270934574707394, 0.3711424651850329, -0.054243484657478025, -0.3027994243164091, -0.6335482200318958, 0.9916369537055512, -0.7056661220637899, -0.4957347197248664, 0.6222508279101053, -0.3912777521870383, -0.06130729050095135, -0.6447190454709224, 0.1756394220081453, -0.21897021115751358, 0.4170627020729887, 0.007928838286803838, 1.0, -0.5109260677608707, -0.7443131779255365, -0.22082747529678626, -0.11291859383561775, 0.7394184731623716, -0.5521964686609482, -0.8161696015830922, -0.8947949911809092, 0.45603348973003094, 1.0, -0.8029191716817985, 1.0, -0.3325649113704392, -0.5089862186909688, 0.09591803163998319, 0.07323292177404245, -0.38716161038945573, -0.5772321806010845, 0.302181441163762, -0.4861965246490562, 0.22270711850949093, -0.4122652625728653, -0.7252851616236069, 0.5400148739122818, 0.5299249846764693, 0.7547865130577192, 0.17173188471022055, -0.6326453700897611, -0.41574085358538465, -0.41033109167189497, 0.7606806073217685, -0.7304488178596267, 0.8864087511615252, 0.3887818618247124, 0.5678815305326699, 0.4561786004111722, 0.4164339610811717, 0.24793216924408656, 0.6986010610279745, -0.019294047954083737, 0.5102208513840851, -1.0, -0.19703742138929312, 0.14400183949977566, -0.6748808273184882, 0.1846990938798669, 0.3425937303119736, 0.6732983353777735, -0.030996852707245115, 0.11729202064357652, -0.21392460105553315, -0.008158004779535072, -0.4813310588170934, 0.9924311527386813, -0.36918881501514067, 0.7232545858162299, -0.4240478992663913, -0.5352892648279743, 0.5929251343229649, 0.8051559967153067, -0.17872679508783426], "fitness": 57.23167900420623, "player_life": 0, "enemy_life": 70.0, "game_time": 190}
{"weights": [0.807061847168422, 0.7711364681273418, -0.7260487915835365, -0.9624895631563682, 0.16501311379564867, 0.37791591172233396, -0.7208293913269138, -0.941687826286166, -0.23951324387125078, 0.2822096078786184, -0.619792092932112, 0.4843559090792142, -1.0, 0.49731175182910137, -0.9483618170050819, -0.8483677107057594, -0.24223520589375336, 0.7714372668448184, 0.7626800530039732, -0.9084679930275379, 0.9275036476174648, -0.5362385254184304, 0.8508490748159898, -0.7056964591188948, 0.5468010882548535, -0.5340263558677214, 0.6605539073200102, -0.09545777918064671, -0.19230785217241503, 0.41078482170427966, -0.06099461643412854, 0.11302323434711797, -0.6708688308653346, 1.0, -0.950719557021988, 0.775542419518579, -0.7895297494034748, 0.5931825677248236, 0.5765223242239067, 0.7654445763715259, 0.3952319737769567, 0.8180854460326404, -0.09175260879936709, -0.16499007429503224, -0.1990168471153903, -0.6718157477770614, -0.04649066287095849, 0.43349087286323285, 0.278998944969297, -0.7221748366737795, -0.5253453736038951, -0.6483377895608495, 0.340523764742652, -0.5743111380872543, 0.8329743054582623, 0.881876111483341, -0.5291642706951076, 0.7192349415690336, -0.299608355028781, 0.34321419625240407, 0.014254403133270505, -0.7477725835716758, 0.2778608245367179, 0.10060828460627003, 0.3668428424146989, 0.7079454393138807, 0.3526484035173639, -0.8242017299473056, -0.8579453965538166, 0.14941787871398804, -0.0036568955111598855, -0.13546791467345182, 0.050301914188331465, -1.0, -0.2591172733113619, -0.8509348183607809, 0.3962996002411217, 0.5748985809030371, -0.4765095393158703, -0.24330232565343354, 0.38175702547710383, 0.5842205698586649, 0.02814601429496777, 0.6686582818364477, -0.5164633084187559, -1.0, -0.9358343238909854, 0.25071778523999333, -0.05319790504463459, -0.4704581281234549, 0.7073905428534528, -0.6158609242432538, -0.5536616239469048, 0.7000489419862765, -0.043555266161312084, -0.5954604415229013, -0.12899464103238767, -0.26480905606187466, -0.9614993320103693, -0.9970494135813132, 0.033680488554832216, -0.8684413272666054, 0.786278923829463, -0.8518711210716378, -0.27248947500682463, 0.3573227466857961, 0.49279550741452177, -0.01970706228329072, 0.9474203572096278, -0.791416543528293, -0.6259319880783387, -0.9841538213455837, 0.4416413220851654, 0.15478436246640634, -1.0, -0.6201053020214884, -0.4165224689431335, -0.5289655751985587, -0.4139940652281887, -0.38075129769835625, -1.0, 0.606176945205578, 1.0, 0.1304253695449885, -0.09621311315239278, -0.2721450579223521, -0.9170200232650741, -0.4893827497429001, -0.8493147015208535, -0.1171375274378586, -0.3978022310253554, -1.0, 0.5411902021278254, -0.7419850167570912, -0.0734599589872215, 0.573368911136231, -0.0994363299796312, 0.41194690520614086, -0.37564615575389715, 0.8246990272451474, 0.4111056551519446, 0.5765797624795489, 0.9998193115062768, -0.09026277063485327, -0.24553205647648335, -0.7175632913801261, -0.574738798009276, 0.9247078407465189, -1.0, -0.6622520273577097, -0.6209193969567671, 1.0, -0.10931931950205656, 0.7678362298902565, 0.8665991908337941, 0.839211404391818, 0.037235616076881806, -0.707521946985465, 0.03137863323690207, 0.14794146051893714, -0.2748688671051098, 0.9113346792144971, 0.5473076400779058, -0.370438839977427, -0.38644983934545074, -0.677018001694722, 0.2071167833377025, -0.9671199856471411, -0.3266918776608699, -0.8691957332207307, -0.5930423816031924, -0.8971578190329738, -0.20984377474529212, 1.0, -0.0458268627225132, 0.11159893507891784, -0.43442511305936754, -0.4608233200438838, -0.7300031823919149, 0.01667266550818075, -0.42270227194958754, -0.8797247350309819, -0.8026610955793094, 0.2892836005918123, -0.6632729243051516, -0.10666666732433724, -0.8255089525919448, -0.3379103353181549, -0.9036077972961994, -0.01445318285927888, -0.2989424592031933, -0.6855185485974934, 0.3591202499512707, -0.6936981274227946, -0.5305139706147788, 0.8888104699300561, -0.8482236417495408, -0.11864596722732337, -0.8853742472651456, -0.4869554101163578, -1.0, 0.30205405014615483, 0.06931716166734395, 0.8857035846866178, -0.3184356200640891, -0.4509294761270135, -0.26422677361228, -0.03156195982830651, 0.439877119869411, -0.9896100077309611, -0.7534500711530977, -0.7064049631427269, 0.7430600147032494, 0.8224274718894886, -0.4762507560732909, -0.9125869224347634, -0.13814211010385408, -0.3501045053709104, -0.006959035728052926, -0.03656529377535156, -0.005804554806077777, -0.474955299361333, -0.2150661457691122, -0.3644917324481635, 0.3935228096329196, -0.6954865407321736, -0.8027871864662657, 0.7630339501028252, 0.45447769893966994, 0.4305565763048331, 0.09456387556753647, -0.0029765842693795785, -0.3704521408264315, -0.685930734374851, 0.7716673093955625, -0.9298835779924927, 0.7756173134883325, 0.8969340522214897, 1.0, 0.2797323718755308, 0.4062952554699155, -0.41258292438060074, 0.8147995209004069, -0.19731824946811122, 0.8467397389322513, -1.0, -0.26960152254183256, 0.8706606638324784, 0.09105807757676807, 0.43771434401252163, 0.012378527761877478, 0.4233630461270823, -0.14800862781634103, 0.16775955525447606, -0.14513921309155314, -0.698263856697303, -0.8235405902166294, 0.3556370191044411, -0.4607430454352162, 0.47481225539413696, -0.3062953759138279, 0.08350057267732794, -0.095706149078123, 0.9549130007555433, 0.6857081786736215], "fitness": 57.23480889721515, "player_life": 0, "enemy_life": 30.0, "game_time": 319}
{"weights": [0.8373838080231739, 0.6121953131173237, -0.6823121726751756, -0.9862809837723893, 0.317342966295726, 0.8643115180764301, -0.7750880391486328, -1.0, -0.3526809087939162, -0.16421087890779543, 0.1068494445248917, 0.5954630379237209, -0.8809579757014179, 0.3291244055862711, -0.06641255587689521, -0.9310138378408657, -1.0, 0.831017166323117, 0.26932803257745036, -0.9143340011203069, 0.9311586170272268, -0.6891497675106929, -0.8151342925910702, -0.7819832958722983, -0.45515075187893045, 0.026690503606374816, 0.7369062226600422, 0.3691129887918368, 0.7816462062533023, 0.7600072245126287, -0.6055953980882831, 0.15632709567915054, -0.8373692331653246, 0.6090104678268158, 0.21112411358238403, 1.0, -0.8846833831978991, 0.2975554059103289, 0.6547718742959538, -0.2562366397075723, 0.270081925608975, 0.04832298183579847, -0.7925480824975217, 0.1274956542120075, -0.07084049456027619, -0.5786660610498645, -0.7103466739931499, 0.9936393671892096, 0.3498748494105629, -0.5756423900393469, -0.49044153358124676, -0.9090416639896266, -0.15373098074188457, -0.4638675679807174, 0.0945570267233872, 0.8760505145610576, 0.04260754920174767, 0.21532746085978616, -0.34242989112741623, 0.6464743276072114, 0.022915281658752257, -0.8652622509386836, -0.15455326455265772, -0.002665097698369423, 0.418942105310557, 0.7134965636465794, 0.8428061966979822, -1.0, -0.4805838516443367, -0.899680613796908, 0.13091126426348632, 0.32425328317662816, -0.012981587613416085, -0.6659371565629733, -0.8147856313950681, -0.6630163859491834, 0.6618368972599885, 0.7891079680715929, -0.5303322393077934, 0.7400277373830314, -0.6135537035274785, 0.6363475972932632, 0.5901948136563728, 0.17628417382058692, -0.17546678884583883, -1.0, -0.8603264723507155, 0.5128375276103576, 0.18709704080090686, -0.5671431853968052, 1.0, -0.5774506150909426, -0.671290964021831, 0.7384609872512446, -0.3328194642075075, -0.48649335917892567, -0.03306267167142124, 0.7845382532239591, 0.3626693195267388, -0.6217836801007253, 0.1999669679713395, -0.27444310902993196, -0.4973454503471099, -0.8988988381824092, -0.5092541871792062, 0.969188076161201, -0.8673408858529553, 0.891161841766008, -0.570678208832512, 0.055375644368035576, -0.2838852138606861, -0.8962696845281065, -0.31408890275177165, 0.15478436246640634, -0.944779961924022, -0.5021710726793127, -0.6891090156355024, -0.965898109343369, 0.7402451999720477, -1.0, -0.5739290247186735, 1.0, 0.3991564483604277, 0.2824788018472931, -0.20958220599465033, -0.956204933683887, -0.3276058191538651, -0.2494295265034931, -0.02006109992077057, 0.6222442407214019, -0.9784152820266092, -0.9006717070050797, 0.7169667267474982, -0.39891078731134166, -0.2886124108306386, 0.7206133486657217, 0.13197966504575126, 0.8645036083938178, -1.0, 0.9668071946094157, 0.7115287922861339, 0.7582384979329992, 0.8545902573704223, -0.3829751987534606, -0.02187577886730055, -0.9821225354839602, -0.16583245878643543, -0.12167706906612258, -1.0, -1.0, -0.39241364532353484, 0.34569434445380554, -0.7252728094936728, 0.7468296085374323, 0.3474027268323974, 0.5764883614168902, -0.3258339290582132, -0.6310723624001706, -0.21327003042080495, 0.19757234646426833, -0.7830272163864471, 1.0, 0.626933895060254, 0.46930776336914604, 0.015449194262943278, -0.0891756123506548, 0.9679911668651568, -0.6151493326452183, 0.16062460423275732, -0.41773565083093017, -0.6903835135668887, -0.7694885040666595, -0.5326140382642421, 0.3751496589652041, -0.0458268627225132, -0.4339551188145728, -1.0, -0.3192464738540649, -0.7734601557321885, -0.06375409175691238, -0.2099771039958932, -0.9408981147661735, -0.8994078800872024, 0.46070297342492184, -0.9951281478111047, -0.6577173761085388, 0.5151709947597946, 0.025392173860840805, -0.7813878189984103, 0.09146724814479681, -0.5559576533197004, -0.22451128864807063, 0.8454998933413759, -0.5021176975498969, -0.6066419758266474, 0.5416762487150573, -0.27869831089076375, -0.16361982252321797, -0.6523352118883491, 0.12497324741210691, -0.886622259477942, 0.013693306258572818, 0.15289250158761486, -0.06570376088772564, -0.4275263283313667, -0.8972889891444749, -0.17321673184553876, -0.25040732557080125, 0.11036510529124989, -0.3154558396028295, -0.99418451436401, -0.23165940838181748, 0.8181272680103573, 0.7995719680910707, -0.9705718817855555, -0.46121388255559, -0.39292778629898073, -0.6529601619187586, 0.29867845329774967, 0.36958610112703677, -0.933893561180865, -0.6351040891372516, 0.1060584834504387, -0.6449529338594151, 0.7540299537816536, -0.6915434764153234, -0.6351784529079861, 0.03365804359679245, 0.8578736384075618, -0.9590782527949007, 0.5640967465784315, 0.2440131513499786, 0.10496843037270162, -0.5427045890770897, 0.7720550380753078, -0.827745938668861, 0.8042127090210139, 0.8791787542178127, 0.1106279526465139, 0.5402589254608148, 0.26483420009888237, -0.2501519417403546, 0.9699699222106108, -0.136099525668348, 1.0, -1.0, -0.5171022664677091, 1.0, 0.19843210504293582, -0.8001363000640176, -0.30143192343203995, 0.14542702880362135, 0.3584791511099943, 0.17318273956713753, -0.14513921309155314, -0.6384462026022137, 0.02186275370974977, 0.23375569370106528, 0.9440105676291686, 1.0, -0.8630077771554405, -0.13907441485996636, 0.6448515136037143, 0.7837258377349242, 0.6117937068797855], "fitness": 57.23480889721515, "player_life": 0, "enemy_life": 30.0, "game_time": 221}
{"weights": [0.6234165595270821, 0.7711364681273418, -0.8047286399145848, -0.8088390388469033, -0.0454832830211159, 0.4988378364704594, -0.7933308163946448, -0.43105370933214876, 0.11704396399431861, 0.028899327829983723, 0.46030577919825666, 0.7471977628200145, -0.7095020308433162, 0.46176089417442256, -0.3857869725626193, -0.781859223556242, -0.9080727150785027, 0.6965517999972319, 0.545547883166968, -0.7565035089679876, -0.31511445075010724, -0.8079612962574505, 1.0, -0.18525795744331203, 0.40730323582892625, 0.26880443063938253, 0.5807539457021154, -0.1695371860918037, 0.09332220702304739, 0.6905429954942854, -0.9545928237322532, -0.03626826376403708, -0.01746247251409129, 0.781067201958921, -0.950719557021988, 0.775542419518579, -0.9750982077968058, 0.38063827351964163, 0.9178371791854829, 0.4644623956804639, 0.08785634393030471, 0.588920750422999, -0.7855223852672024, -0.4658526242423955, 0.4596102201396623, 0.09692522199469941, 0.09573315831169352, 0.5656141355296852, 0.8501577081580849, -0.8139101747210657, -0.3010479250265696, -0.8839234798119336, 0.07776227689885448, -1.0, -0.25819562156557624, 0.6937591110948526, -0.7656670886840988, 0.5775489200791935, -0.4454427689972164, 0.8187740381866524, 0.022915281658752257, -0.6076547194857911, 0.828185813330774, 0.28793439222601486, 0.5764686827257035, 0.7144916403635397, 0.2534918195757747, -0.8242017299473056, -0.7633446399393979, 0.1415315551687088, 0.07148290539794422, -0.06638022852169864, 0.30275024599595113, -0.9171605580909112, -0.5181800234711282, -0.7069543512145582, 0.9624365307664675, 0.4938712151255831, -0.28649989083117156, -0.07261447377377239, 0.30789535286279746, 0.5749917662043134, 0.7463408573352078, 0.38690678530970557, 0.7928676252377229, -0.5119802810875178, -1.0, 0.891401757252616, 0.20586683083943924, -0.6422308001967645, 0.10794528195852018, -0.6961371192617767, -0.514978075580065, -0.011245834549573425, -0.4597651851526586, -0.3687884546298738, -0.3968342224563247, -0.7141706897126715, -0.43197797174111274, -0.5442547469433137, 0.10027960387390747, 0.47739866471626896, 0.4451259827538157, -0.7094133421193112, -0.48836191083416836, 0.34563456695478656, -0.605304321609704, 0.704838920258885, 0.28834262397365273, 0.01459315245823628, -0.9082346873877154, -0.7977643887253563, 0.13071913543138594, -0.8290377413278829, -0.8309849967272607, -0.9664389895920487, -0.4053856034017532, -0.965898109343369, 0.5170557562154003, -0.9385531424579676, -1.0, 0.8440319574493449, 0.7619274402296682, 1.0, 0.038366204027789425, -0.9321446819119026, -1.0, 0.47827557918152475, 0.88461316162785, 0.004947803404195011, -0.4080263122921604, -0.02626155084088161, 0.1265142695481638, -0.8406696284058254, -0.053483703791930626, 0.2982358448619999, -0.37031469202327133, 0.39693567725493284, -0.961217668792697, 0.9649230045026751, 0.47698179916184147, 0.4341564719137708, 0.8551207095690945, 0.017767241157330693, 0.23229165899303203, -0.5508192086585235, -0.26289356552481963, -0.46647257627893995, -1.0, -0.03248140784631473, -0.39241364532353484, -0.2267065967101366, -0.7125028680076234, 0.9565272628139636, 0.9056110801208277, -0.41411873361763996, -0.5393945448526555, -0.6838946161532571, 0.33409983630461215, 0.09700334153876179, 0.40848191509803644, 1.0, 0.8669619878312329, 0.5127659505735671, -0.17147644420846722, -0.8585200546562206, 0.7011248410773101, -0.012100438513891837, -0.34248645460420796, -0.40239141881858154, -1.0, 0.7433656413571235, -0.11239757701121197, 0.5975655710560719, -0.1780097799587756, -0.9989318222373189, -0.8211564533360378, -0.5803508888266433, -0.9805370797260501, -0.47193678598973426, -0.06544605310241913, -0.7820936955563318, -0.8026610955793094, -0.5409231015333185, -0.8385281131436312, -0.6169642615976805, 0.3723547959661093, -0.533126649179093, -0.21869207386316503, -0.4194361651220349, -0.15950647413422628, -0.9257235541998573, 0.8999864099401804, -0.44142098123967827, 0.007840001727269785, 0.9118083795683296, -0.999156331731301, 0.9395726962340347, -0.5754436990155091, -0.8628057452852058, -1.0, 0.04897601618740194, 0.029880659361608997, -0.23649380618744112, -0.630725899103421, -0.8472647383376632, -0.21550906539089726, -0.13586935153278024, 0.37990909220141617, -0.9565574009301149, -0.855684252032284, -0.23165940838181748, 0.7024999334557795, 0.5190921499902836, -1.0, -0.6729889697351271, -0.5085017948916482, -0.2842778448945731, 0.29867845329774967, 0.36958610112703677, -0.3704639509424965, -0.9959757286540267, 0.5192923986139445, -0.17926987767774943, 0.027796759240906993, -0.8549288041024082, -0.373782956765073, -0.006124776789592751, 0.6965606413249026, 0.43555321129692876, 0.15956541706016059, -0.16176840259113479, -0.8987118142251875, -0.7986809681881633, 0.5626700638369317, -0.9022152892935207, 1.0, 0.6158526791693402, 0.9518060039042677, 0.5402589254608148, 0.7129163446316461, -0.22349786653359924, 0.9284193403050047, -0.30734783530676224, 0.7596660617346722, -0.8977340953196168, -0.13661383386208756, 0.6466161126226607, -0.6251089748456776, -0.6120744414956523, 0.29995686880713596, 0.523200350866644, -0.14800862781634103, 0.06008564250646277, -0.19847881955317537, -0.524395820476111, -0.02171182121682519, 0.2517020509190553, 0.20883667069693268, -0.031069208574126428, -0.6861552674599283, -0.29536310677992406, 0.41692043420086133, 0.7420132119580627, 0.15806093813484193], "fitness": 57.19486503108351, "player_life": 0, "enemy_life": 30.0, "game_time": 332}
{"weights": [0.011887717873586445, 0.7325929992918205, -0.8846506240697877, -0.41388855312660866, 0.172160473872049, 0.6374046469534076, -0.7519069835855741, -0.15784834047018922, 0.05832205801718254, -0.35239411547619154, 0.2739924027565609, -0.668151545059044, -1.0, -0.21947544663828256, -0.4774461206665402, -0.035478037182493316, -1.0, 1.0, 0.8353157242656993, -0.3135311413534767, 0.1928157651572535, -0.4973005929959923, 0.5541488912048981, -0.6373272957958366, 0.29688703624066476, 0.4559648452332866, 0.377811693259111, 0.24637245644277783, 0.9904823861009744, 0.24668676473950268, -0.619324916535787, 0.1638154052359794, 0.5983966479534959, 0.7734308538422734, -0.2889573877030864, -0.8846369309959927, -0.956329599919093, 0.05552434034755685, 0.6766499312113297, 0.27336968851929166, 0.3365577071874547, 1.0, -0.18450143467584207, -0.5917478130479592, 0.7104478987470952, 0.2929253282571852, -0.07507149830725393, 0.9156442477575107, 1.0, -0.7339887191920418, -0.04053629887959903, -0.9936258986851508, 0.039604705403369356, -0.3265738790864936, 1.0, 0.5395777338223453, -1.0, 0.9356037677398582, -0.6511820452828656, 0.535912737351258, 0.7390874971015793, -1.0, -0.13609006667537726, 0.3183902949014596, 0.3951918589817077, 0.97273914424048, 0.854099230022233, -0.9358319964354443, -0.7785785432804458, -0.27282327348025315, -0.04322607014194402, 0.007628531260652716, 0.6977230740117849, -0.6262665488415222, -0.7889285955530148, -0.6279046568513972, -0.7215829995524932, 0.4565328493965677, -0.4596849651824828, 0.0365783242995088, 0.24946487972707984, 0.9671511907899158, 0.6248526548848063, 0.29599494678517135, -0.23347123299861527, -0.48387785862214444, -0.3229387330598127, 0.6715044920555853, 0.33573911251286426, -0.8380532305282944, -0.6795447383155103, -0.7582113895242314, -0.5717185477720805, 0.672817795549294, 0.4206452373393874, -0.3172707412751776, -0.4253984195895135, -0.18665090369195786, -0.28997332327129954, -0.3472895621612544, 0.21802511059577284, -0.408888502366507, 0.538978160221276, -0.3180003946051136, -0.6196607185904172, 0.9037618973259567, 0.5974867768029041, -0.35408828639793966, -0.6217700246338811, -0.5069727606147374, -1.0, -0.7505799554435276, -0.4226875955461299, 0.1371510795987917, -0.8290313880072744, -0.9692512021020896, -1.0, -0.18252709914140205, -0.008139276950316104, -0.7351501460864105, -0.8206949704802702, 1.0, 0.7268384775779404, 0.3338917740858671, 0.38789738002161633, -1.0, -0.5637147780786919, -0.31078401610483375, 0.11028282809589995, 0.4569183729065076, -0.5426601319517046, -0.3009038349036597, -0.14839414258333092, -0.7177121975144672, 0.18373275718230633, 0.1417138969006641, 0.9296916328215561, 0.5830293020759358, -0.5291456830008169, 0.6982566416044202, 0.1662517536286966, 0.9743960160775649, -0.13024057929886013, 0.4763572706007027, 0.6493581283612349, -0.8752910219742962, -0.4918827666482796, 0.9341268779401575, -0.32881029599896916, 0.5085626578604108, -0.24783951291466688, 0.6049437155426682, -0.15382173524085252, 0.4442228460521058, 0.6591216121736897, -0.8811807735628723, -0.5922435210696828, -0.8667279493165806, -0.2043634052586179, 0.3835286232215266, -0.3389471258780928, 0.860238586404765, 0.7887664863140098, 0.4331744987190971, -0.526932534381759, -0.5183403882770072, -0.3299048801796857, -0.664923415517563, 0.06893456840403803, -0.6543368505599885, 0.164528181415932, -0.6955997309276454, 0.9086314934200785, 0.6939572089363796, -0.004551113154217523, -0.2902320402478824, -0.5573605303666453, -0.8896391763873935, -0.7063840047084398, -0.2640924485445705, 1.0, -0.42396928278429, 0.24293145563317928, -0.4231411323611791, -1.0, -0.47016293842118506, -1.0, -0.9059743009288286, -0.8033993943277881, -0.6230452444726282, -0.9944716773853033, -0.3014196638176074, 1.0, -0.24415887024832694, -0.5231134052441853, 0.17255716922990721, -0.8250349072905634, 0.014382502774730146, -0.7648470344987741, -0.5875759815425333, -0.9761775966613856, 0.7869123240838509, 0.5988148535067837, -0.12175262965530137, -0.5614457938973023, -0.7377354161344449, 0.07134024714050743, 0.8092258487407462, 0.5707465467899998, -0.9883428504349641, -0.7978011865067505, -1.0, 0.6992269379836941, 0.267295572339037, -1.0, 1.0, 0.9873210733662584, -0.4673161364196674, 0.17179610917534288, 0.12164710303636148, -0.9249907540322799, -0.7431939529618693, -0.029454734677200195, 0.060947598596955366, -0.10440817169511735, -0.8153091621187729, -0.3002007581320115, 0.9344108430711175, 0.6706742893550717, -0.6650685192133816, -0.20337035617039484, -0.5459576913490616, -0.32678466881435664, -0.57623324172385, 0.7372505918019, -0.7522891959109725, 0.6521637440384982, 0.765520756253752, 0.8427989592766614, 0.2808484912488106, 0.6514099693029702, -0.6482133961158397, 0.8784930669008693, 0.2629883888830392, 0.6790860102292205, -1.0, -0.322019334098332, 0.8936127230147137, -0.7884195114962794, -1.0, 0.3299590775109621, 0.3794882739371341, -0.19714201284992688, 0.20844566430000133, 0.19361612405691403, -0.701123249585522, -0.5909098976912703, 0.2838598060214869, -0.23152860077318027, 1.0, -0.5940243190558937, -0.10080352076972596, 0.5062825542449045, 0.0355273832849161, 0.2869553878373585], "fitness": 48.752975927839515, "player_life": 0, "enemy_life": 30.0, "game_time": 309}
{"weights": [0.0007004238334919755, 0.812512429508746, -0.7334998441882705, -1.0, 0.024212314123817358, 0.8643115180764301, -0.62764189002899, -0.9679750105704942, -0.23951324387125078, -0.22403552264204885, -0.6042157288553658, -0.22645895700424556, -0.6835053225159125, 1.0, 0.10063718080425943, -1.0, -1.0, 0.6128527550141256, 0.21106461338354804, -0.9823378231352999, -0.12635438876589916, -0.6612661172084187, -0.028334214542653724, -0.18525795744331203, -0.40584276810136244, 0.06959421744548785, 0.7369062226600422, 0.2873615557012452, -0.19230785217241503, 0.9534017004150421, -0.13794209721448222, -0.3067592850142741, -0.008071499730497145, 0.7359260337419069, 0.15856404145459113, 1.0, -0.8471356044446579, 0.9721709180944498, 0.8226549069257522, 0.637559676921827, 0.5801782219993199, 0.8180854460326404, -0.6046628821296772, 0.13790390245214665, -0.07734585647313119, -0.4976947045869213, 0.09457930080231647, 0.34068659387271616, -1.0, -0.1734607544899337, -0.3374803043143965, -0.980082104628521, -0.4082327607475108, -0.7075035193930588, 0.6469638166258158, 0.33762567149227496, -0.8738529540839084, 0.21532746085978616, -0.34242989112741623, 0.9279557822048001, 0.37727344789296147, -0.818691553101084, 0.828185813330774, -0.20116884094757592, 0.7474274858640408, 0.886924206069637, 0.977471349221444, -1.0, -1.0, 0.1415315551687088, 0.3575990803224048, 0.241229707463166, -0.05824802448947816, -0.9262277210894957, -0.08337675910583303, -0.40211157130750474, 0.6618368972599885, 0.7891079680715929, -0.6617558320301467, 0.06150434466518015, -0.581531762091347, 0.9288801504234638, 0.49967404648376706, 0.19749087115990646, 0.08633099874770978, -0.7069166442800207, -1.0, 0.5105694021445661, 0.29620958553869103, -0.9360256717323089, 1.0, 0.002483528152604858, -0.7811857305888323, 0.08002776992689592, -0.043555266161312084, -0.5425586986552394, 0.07791782693052232, 0.7869402299595663, 0.06983696890342467, -0.5244707484158725, 0.294433637978284, -1.0, 0.3113311694827956, -0.8871341155711847, -0.5418391183821809, -0.11545180592348953, -0.8673408858529553, 0.2780552334712588, 0.10685360091492649, 0.08583789461394006, -0.29836724924625113, -0.9731856989611947, 0.43305395507431743, -0.23628675734388838, -0.8739702947068366, -0.44288673260002315, -0.675920426361527, -0.9704547720232289, 0.23238845585539877, 0.8563715928938712, -0.5739290247186735, 0.9947113581236492, 0.29906766643859817, 1.0, -0.07676171919379587, 0.10719975044175344, -0.8974653203566412, -0.5125264977530889, -0.003032979702150912, 0.2924355998471433, -1.0, -0.7865571414586136, -0.11959307427155624, -0.7819540684938878, -0.05974412250264152, 0.4318718728073264, -0.13818619290775372, 0.8173062730343685, -0.9409032894087324, 0.9141316521145, 0.8564689608392679, -0.29412271217536157, -0.6626366393409188, -0.09026277063485327, -0.09644441802088527, -0.8536806548829841, -0.7070697407102778, 0.6339355639480442, -0.802690888196039, -0.7420782683846243, 0.46040617208727297, 0.9066947693930667, -0.7510952209920376, 0.8635570462675259, 0.8665991908337941, 0.7043823562011675, -0.3309168261848829, -0.47506672093186614, -0.04936777290245617, 0.07785823419413751, 0.7448974647843202, 0.8561261658335402, 0.626933895060254, -0.370438839977427, -0.18061432566976954, -0.0891756123506548, 0.5120643878742637, -0.2282332219540109, -0.007024287734938087, -0.41773565083093017, -0.9741099809083502, -1.0, 1.0, 0.5017076130472764, 0.2646247118095211, -0.5982403089328404, -1.0, -1.0, -1.0, 0.43866745071946095, -0.42270227194958754, -1.0, 0.297215559443593, 0.5413942599099896, -0.9951281478111047, -0.6577173761085388, -0.6611470784125302, -1.0, -0.3590428728322552, -0.01445318285927888, -0.8853825937768568, -0.7811722628549608, 0.8454998933413759, -0.2998586877997223, -0.5235001835932775, 0.8888104699300561, -0.7326223901716802, 0.23634806192873506, -0.3154529068895494, -0.7291760298408404, -0.9602593849048053, -0.014272944122794451, 0.32265018377235777, 1.0, -0.31474923210738237, -0.8395904426206737, -0.06956109876577699, 0.3403381381659284, 0.509594759443324, -0.4868086804031277, -0.8617066560297055, -0.7083041976739834, 0.6084522018904586, 0.7118099875503551, -1.0, -0.46121388255559, -0.18007339231446096, -0.4541370126482107, 0.6832557889864528, 0.26572659796780906, -0.933893561180865, -0.5235060620187308, -0.023335737387305377, -0.5722614221121933, 0.3666742182604601, -1.0, -0.3615037328762725, -0.05451132705150499, 0.8795957832830138, -0.9590782527949007, 0.18218932258783038, 0.2440131513499786, -0.9853139223555623, -0.17343584203339563, 0.71767498630693, -0.5000969331440961, -0.49676591937720527, 0.8807528231549768, 0.6167811017005147, 0.11072206857521848, 0.7445677444837702, 0.13564025079734718, 0.6011513137915057, 0.27175308484902594, 0.8226550540677042, -0.5349240323676994, 0.010628802575428642, 0.8414047320298845, -0.5859864451204654, -0.4713372276074861, 0.49176661714311154, -0.2633295144438621, 0.3584791511099943, 0.13209451523003246, -0.002853100664568592, -0.28742010405465834, -0.5403544786851668, 0.7652077683757159, 1.0, 1.0, -0.8307540306692806, -0.21820677551913883, 0.5808219858085777, 1.0, 0.10342403582170182], "fitness": 57.269900217026425, "player_life": 0, "enemy_life": 30.0, "game_time": 308}
{"weights": [0.5854858108684915, 0.1992390293161972, -0.7818375528235451, -0.7701977603802559, 0.653322577096374, 1.0, -0.5162197115948228, -0.9776039250331373, -0.0840506089107751, 1.0, -0.6546407691102061, 0.7471977628200145, -0.15734454885708218, 0.44050596542773784, 0.08661975681302192, -0.47863734193613944, -0.694460222556261, 0.7792247795584386, 0.545547883166968, -0.7565035089679876, 0.7374340814608933, -0.7387457994461675, -0.8151342925910702, -0.28972400876796744, 0.15624231762285057, 0.7061961196443913, 0.6605539073200102, -0.2527677360670602, -0.46902908326558046, 0.7215293842908058, -0.7205472538708737, -0.6093715757939437, -0.5559300535757457, 0.871363711478688, -0.35142175447973933, 0.775542419518579, -0.9750982077968058, 0.19018585168533367, 0.3516098643117571, 0.4644623956804639, 0.1463984818974804, 0.48702273048954964, -0.7855223852672024, -0.268558684113942, 0.2832033747046603, 0.09692522199469941, 0.12690350311214654, 0.6677447923493712, 0.5436647925602559, -0.5478073110343964, -0.01061449420692881, -0.5621802426088746, -0.5588972976889576, -0.7696054282853685, -0.4679978575229744, 0.5901907961047292, -0.9802674312885585, 0.5654813753122208, -0.5601891938535984, 0.8680069141909306, 0.21196969204820665, -0.5250057043601284, -0.16234004095083965, -0.5365679863589191, 0.4469263054712834, 0.9418178554392933, -0.9207476349802892, -0.8309405566867643, -0.8063310701682319, -0.29288808545390826, 0.18451753439368157, -0.17541080826909208, 0.568082681888848, -1.0, -0.8004423732636644, -0.8509348183607809, 0.06419019405319878, 0.7891079680715929, -0.9694777414974788, -0.07261447377377239, 0.0823530282895853, 0.46093626617566663, 0.7463408573352078, 0.3792432751136962, 0.0037730954946170736, -0.8752454487957988, -1.0, 1.0, 0.33461513699869966, -0.09798068199780535, -0.8460091088528874, -0.7544844625749224, -0.5782063938736888, 0.3694499615937026, 0.02264039168158899, -0.5401928782144243, -0.46161128468785, 0.6031686986613416, 0.30464123914141034, -0.612744661100343, -0.1529609399268126, -0.3278023838886289, 0.28941168506448095, -0.6174219654798545, -0.04563154891460598, 1.0, -0.7475941289804108, 0.704838920258885, 0.9190963268376136, -0.791416543528293, -0.6259319880783387, -0.7199023889088643, -0.17427997532380932, -0.8290377413278829, -0.9509431449134804, -0.3481764873105038, -0.8443237135298995, -0.5669472951019068, -0.5580122487528124, -0.229077979905619, -0.813852470658736, 0.8440319574493449, 0.8758808577955314, 0.1786841685824883, -0.10285968612819896, 0.41758592249615634, -0.15405143609792799, -0.23249174145719337, -0.5473219970560543, 0.17544612335620213, -0.8099758318572761, -0.9006717070050797, 0.056263009106029965, -0.6227342631921395, -0.5174353055458674, 0.22607085649164155, -0.0994363299796312, 0.5350881027598553, -0.961217668792697, 0.8246990272451474, 1.0, 0.4341564719137708, 0.8545902573704223, 0.019164056290750908, -0.2010445295745601, -0.48403972914062454, -0.16583245878643543, -0.6099109973793432, -1.0, -1.0, -0.39241364532353484, -0.09056517396449, -0.9251201413699244, 0.9565272628139636, 0.5329778882101271, -0.5399155533588946, -0.3258339290582132, -0.3000906833890347, -0.23665418755612205, 0.6860539667093717, -0.7830272163864471, 0.7912271591989821, 0.6788367842554381, 0.18609991083999522, -0.42970867519453876, -0.7348890767466081, 0.10446332241527381, 0.3596060104948056, 0.16062460423275732, -0.8997235601427764, -0.2005111775028204, -0.42637191903684035, 0.7678529809968844, 0.3637577504320998, -0.1780097799587756, -0.03293893007894426, -0.4925088492141687, -0.7093448438466377, -1.0, -0.8980275062473212, -0.6061306388489547, -0.3911870299353514, -0.8025257444173128, -0.6086112943529765, -0.33176549046606185, -0.6169642615976805, 0.2603855183125874, -0.533126649179093, -0.21869207386316503, 0.36881017216478373, -0.076507553868328, -0.13372106255442306, 0.141794995650684, -0.6079238093907755, 0.16395421939786387, 0.4200534802485134, -0.41054755179659674, 0.44527883781086874, -0.5517830789632135, -0.8695904467588343, -0.8446690075418295, 0.8978649748155093, 0.08740455816282577, -0.010020579126490403, -0.5902037923046537, -0.7477951788457822, -0.2704558760129092, -0.19590944287714718, 0.2735351712768892, -0.6056928491060399, -0.9970134907654691, -1.0, 0.7851432253237862, 0.8317174056515657, -0.7387185335486224, 0.89781724954364, 0.06619865045971046, -1.0, 0.22835744707888958, 0.65675189892068, -0.5645475737903307, -0.92919949653291, 0.11286950410109664, -0.062165603915340095, 0.09718846294953302, -0.716463938050761, -0.373782956765073, 0.6567255098749163, 0.7907926327365006, 0.28274906085910134, 0.5455495772236143, -0.16176840259113479, -0.8666774012967968, -0.9921333043362695, 1.0, -0.8382901566346606, 0.5034292889446451, 0.6677345605827825, -0.9614850783006865, 0.5402589254608148, 0.4543756000478014, -0.2611490327781324, 0.9284193403050047, 0.06329034710759826, 0.7520513127487356, -1.0, -0.13661383386208756, 1.0, -1.0, -0.7961012547933848, -0.5183363378242888, 0.18583446877064744, -0.7490058119391624, 0.048368445672207924, -0.1969109239257848, -0.008158004779535072, -0.26847690645702277, 0.6266562692650743, 0.0714642382075531, -0.031069208574126428, -0.8630077771554405, -0.11308762442655013, 0.733193499419251, 0.889701278759389, 0.3615316047059485], "fitness": 57.16226955283406, "player_life": 0, "enemy_life": 30.0, "game_time": 343}
{"weights": [0.0007004238334919755, 0.812512429508746, -0.7334998441882705, -1.0, 0.024212314123817358, 0.8643115180764301, -0.62764189002899, -0.9679750105704942, -0.23951324387125078, -0.22403552264204885, -0.6042157288553658, -0.22645895700424556, -0.6835053225159125, 1.0, 0.10063718080425943, -1.0, -1.0, 0.6128527550141256, 0.21106461338354804, -0.9823378231352999, -0.12635438876589916, -0.6612661172084187, -0.028334214542653724, -0.18525795744331203, -0.40584276810136244, 0.06959421744548785, 0.7369062226600422, 0.2873615557012452, -0.19230785217241503, 0.9534017004150421, -0.13794209721448222, -0.3067592850142741, -0.008071499730497145, 0.7359260337419069, 0.15856404145459113, 1.0, -0.8471356044446579, 0.9721709180944498, 0.8226549069257522, 0.637559676921827, 0.5801782219993199, 0.8180854460326404, -0.6046628821296772, 0.13790390245214665, -0.07734585647313119, -0.4976947045869213, 0.09457930080231647, 0.34068659387271616, -1.0, -0.1734607544899337, -0.3374803043143965, -0.980082104628521, -0.4082327607475108, -0.7075035193930588, 0.6469638166258158, 0.33762567149227496, -0.8738529540839084, 0.21532746085978616, -0.34242989112741623, 0.9279557822048001, 0.37727344789296147, -0.818691553101084, 0.828185813330774, -0.20116884094757592, 0.7474274858640408, 0.886924206069637, 0.977471349221444, -1.0, -1.0, 0.1415315551687088, 0.3575990803224048, 0.241229707463166, -0.05824802448947816, -0.9262277210894957, -0.08337675910583303, -0.40211157130750474, 0.6618368972599885, 0.7891079680715929, -0.6617558320301467, 0.06150434466518015, -0.581531762091347, 0.9288801504234638, 0.49967404648376706, 0.19749087115990646, 0.08633099874770978, -0.7069166442800207, -1.0, 0.5105694021445661, 0.29620958553869103, -0.9360256717323089, 1.0, 0.002483528152604858, -0.7811857305888323, 0.08002776992689592, -0.043555266161312084, -0.5425586986552394, 0.07791782693052232, 0.7869402299595663, 0.06983696890342467, -0.5244707484158725, 0.294433637978284, -1.0, 0.3113311694827956, -0.8871341155711847, -0.5418391183821809, -0.11545180592348953, -0.8673408858529553, 0.2780552334712588, 0.10685360091492649, 0.08583789461394006, -0.29836724924625113, -0.9731856989611947, 0.43305395507431743, -0.23628675734388838, -0.8739702947068366, -0.44288673260002315, -0.675920426361527, -0.9704547720232289, 0.23238845585539877, 0.8563715928938712, -0.5739290247186735, 0.9947113581236492, 0.29906766643859817, 1.0, -0.07676171919379587, 0.10719975044175344, -0.8974653203566412, -0.5125264977530889, -0.003032979702150912, 0.2924355998471433, -1.0, -0.7865571414586136, -0.11959307427155624, -0.7819540684938878, -0.05974412250264152, 0.4318718728073264, -0.13818619290775372, 0.8173062730343685, -0.9409032894087324, 0.9141316521145, 0.8564689608392679, -0.29412271217536157, -0.6626366393409188, -0.09026277063485327, -0.09644441802088527, -0.8536806548829841, -0.7070697407102778, 0.6339355639480442, -0.802690888196039, -0.7420782683846243, 0.46040617208727297, 0.9066947693930667, -0.7510952209920376, 0.8635570462675259, 0.8665991908337941, 0.7043823562011675, -0.3309168261848829, -0.47506672093186614, -0.04936777290245617, 0.07785823419413751, 0.7448974647843202, 0.8561261658335402, 0.626933895060254, -0.370438839977427, -0.18061432566976954, -0.0891756123506548, 0.5120643878742637, -0.2282332219540109, -0.007024287734938087, -0.41773565083093017, -0.9741099809083502, -1.0, 1.0, 0.5017076130472764, 0.2646247118095211, -0.5982403089328404, -1.0, -1.0, -1.0, 0.43866745071946095, -0.42270227194958754, -1.0, 0.297215559443593, 0.5413942599099896, -0.9951281478111047, -0.6577173761085388, -0.6611470784125302, -1.0, -0.3590428728322552, -0.01445318285927888, -0.8853825937768568, -0.7811722628549608, 0.8454998933413759, -0.2998586877997223, -0.5235001835932775, 0.8888104699300561, -0.7326223901716802, 0.23634806192873506, -0.3154529068895494, -0.7291760298408404, -0.9602593849048053, -0.014272944122794451, 0.32265018377235777, 1.0, -0.31474923210738237, -0.8395904426206737, -0.06956109876577699, 0.3403381381659284, 0.509594759443324, -0.4868086804031277, -0.8617066560297055, -0.7083041976739834, 0.6084522018904586, 0.7118099875503551, -1.0, -0.46121388255559, -0.18007339231446096, -0.4541370126482107, 0.6832557889864528, 0.26572659796780906, -0.933893561180865, -0.5235060620187308, -0.023335737387305377, -0.5722614221121933, 0.3666742182604601, -1.0, -0.3615037328762725, -0.05451132705150499, 0.8795957832830138, -0.9590782527949007, 0.18218932258783038, 0.2440131513499786, -0.9853139223555623, -0.17343584203339563, 0.71767498630693, -0.5000969331440961, -0.49676591937720527, 0.8807528231549768, 0.6167811017005147, 0.11072206857521848, 0.7445677444837702, 0.13564025079734718, 0.6011513137915057, 0.27175308484902594, 0.8226550540677042, -0.5349240323676994, 0.010628802575428642, 0.8414047320298845, -0.5859864451204654, -0.4713372276074861, 0.49176661714311154, -0.2633295144438621, 0.3584791511099943, 0.13209451523003246, -0.002853100664568592, -0.28742010405465834, -0.5403544786851668, 0.7652077683757159, 1.0, 1.0, -0.8307540306692806, -0.21820677551913883, 0.5808219858085777, 1.0, 0.10342403582170182], "fitness": 57.26665872310225, "player_life": 0, "enemy_life": 30.0, "game_time": 309}
{"weights": [0.20930870562760118, 0.24549317877045507, -0.82473439174966, -0.894480441669074, -0.11096423857495208, 1.0, -0.7170128798319154, -1.0, -0.0840506089107751, 1.0, 1.0, 0.1201070428692444, -0.15734454885708218, 0.44050596542773784, -0.09982997874205657, -0.3961849072139999, -0.6667431061350657, 0.7024117031097521, 0.8530160179537741, -1.0, 0.8771894002621705, -0.2829418184579825, -0.0021897448452651846, -0.4909004202151117, 0.15624231762285057, 0.7061961196443913, 1.0, -0.2527677360670602, 0.7797795188054815, 0.6571083965417301, -0.7931090448499488, 0.39504808086649434, -0.37886515082618594, 1.0, -0.2541273952144909, 0.6304214709612207, -0.3938893398149582, 0.7193504496816324, -0.27672069879958716, 1.0, 0.2984660699108517, 1.0, -0.9165499978609442, -0.49589180948621525, 0.8216224709750244, -0.6859117941646843, -0.15625526960014158, 0.47024178356602997, -0.9096581693292168, -0.7243914838243818, -0.266276223992696, -0.9918372150355435, 0.1339267304142727, -0.7218493642694452, -0.0919140101911538, 0.8294523417037996, -1.0, 0.37648527040244634, -0.9740648013158371, 0.8939471601520222, 0.7964671669937721, -0.2513728541097293, -0.16234004095083965, 0.44542753633053966, 0.732307642610364, 0.6687303823728561, 0.2534918195757747, -0.9139375525729563, -0.8063310701682319, -0.8945743512998259, 0.19755529114517256, -0.5610734474809396, -0.24055687646657897, -0.8761610126779802, -0.8004423732636644, -0.8305086318134953, 0.9911701814170987, 0.5541259625496999, -0.7202471964287244, -0.3535623778619625, 0.0823530282895853, 0.06943310523277485, 0.7463408573352078, -0.1135536326100058, 0.20253970943204172, -0.40249519521467503, -0.6028252733459876, 0.9100446620075646, 0.26463971770401395, -0.6934997511192544, -0.06754714144203153, -0.3632940275380421, -0.31705403102289226, 0.4330141966745414, 0.47356552050739936, -0.29687866750870867, -0.3968342224563247, -0.27870917826013863, 0.1607947737840083, -0.612744661100343, 0.2075241750178273, -0.29322103895105245, 0.35987995705328407, -0.6280421187598173, -0.04563154891460598, 0.7854975332839906, -0.47518620265847056, -0.5695098297088453, -0.041906125139985706, -0.044428447043724714, -0.7976254356668913, -0.5872815069424442, 0.46123887309375844, -0.8428333511406481, -0.2791868150711626, -0.7145177431693563, -0.7165395572916837, -0.35856044194190945, -0.38347964324982237, 0.5945961411195908, -0.654590774415714, 0.9386515811872949, 0.43829066046092485, 1.0, -0.3232451588366448, -0.7509349975082809, -0.23807104133534274, -0.2494295265034931, 0.721726702504409, 0.13164820962764281, -0.23275632115624695, -0.02626155084088161, 0.056263009106029965, -1.0, 0.16065633579266272, 0.4689396558661386, 1.0, 0.3985244365586126, -0.7325715785869761, 0.8246990272451474, 0.48670637752607687, 0.8873412971729839, 0.1584725396584919, 0.4359469817053269, -0.2010445295745601, -0.6749849953161516, -0.9248549622546407, 0.012955149897452417, -0.09800590491657035, 0.328131780690866, -0.13239218879177087, -0.15496031036181085, 0.02255700284289927, 0.5909339632188079, 0.5943239193120078, -0.5326873718793274, -0.5393945448526555, -0.6101196891899954, -0.4311114976343691, 0.26435998346352985, 0.42903718994671225, 0.7135886797171531, 0.7259749135878737, 0.35855674662328313, -0.9475943345100973, -0.9042143215528295, -0.03393340653188784, 0.4225867491539481, -0.34248645460420796, -0.9092752635083236, -1.0, -0.7435247384023391, 0.28388037319246373, 0.3637577504320998, 0.007913178981725555, -0.9126554429173026, -0.3251011497683769, -0.3192464738540649, -0.917401352100045, -0.4267782703456699, -0.9452100286794324, -0.7928020686840296, -0.49853439336719196, -0.34357910806184605, -1.0, -0.6017897832393728, -0.05849101459633077, -1.0, 0.3292678803028817, 0.5481390099335431, -1.0, -1.0, 0.27270702730970653, -0.7257518135727773, -0.3867756521715981, 0.5413176029526607, -0.9646223402222088, -0.2814660861456752, -1.0, -0.38942194795288115, -0.645351096884383, 0.8978649748155093, 0.6501953908995661, -0.23649380618744112, -0.5740189486710257, -1.0, -0.5716476579025558, -0.14161410233947938, 0.44132614379754326, -0.7246775712935395, -0.9381918820434342, -0.8870439002217221, 0.5261765960394535, 0.9940527948776672, -1.0, -0.31117334586049067, -0.14319905898663388, -0.3582388628598906, 0.22835744707888958, 0.8175146671354034, -0.5036837806589222, -0.7757248036342862, 0.14223552839254244, 0.09790814698951728, -0.1027686182265776, -0.7159080390094337, -1.0, 0.02426999182061501, 1.0, -0.33682356064701907, 0.8221556375185147, 0.20243269170416198, -0.033189366220405914, -0.2791272912723802, 0.528666109214937, -0.7784844148954054, 1.0, 0.6677345605827825, 0.500824931294751, 0.11727389715683674, 0.30521348252964464, -0.2071357030962916, 0.7453765434191506, -0.3915233789551001, 0.41482960608029495, -0.9631937332609904, -0.19080139697409004, 1.0, -0.15828482026864604, -0.3527640802813954, 0.4525113254648046, 0.831437412964967, -0.0638115265924078, -0.025793251709805926, -0.16521945218723186, -0.0004622073519160719, -0.43903785810308127, 0.4312399716919475, -0.053325367569830945, 0.700546611245249, -0.6968926230790101, -0.5853102118898643, -0.04171562779244867, 0.6056218724505013, 0.4134975745554276], "fitness": 57.31302464366018, "player_life": 0, "enemy_life": 30.0, "game_time": 295}
{"weights": [0.3244629548025792, 0.7711364681273418, -0.6146357256692636, -0.8391883402733598, 0.11903720039528479, 0.6339986889355395, -0.7189646039551825, -0.6612199430424084, -0.06757481044512728, -0.8057433220892323, -1.0, -0.12491903591385792, -1.0, 0.635311808619482, 0.02894236776718989, -0.7179444205223195, -0.9114493574919073, 0.9131928823400766, 0.5939148039979697, -0.8431790381952008, 1.0, -0.8671370968270877, 1.0, -0.27382935623169724, 0.34539128384049644, 0.22932957880264812, -0.4169335272524205, -0.15115967076099984, -0.22710578569844242, 0.7549654659184115, 0.3265930464062109, 0.2292774054930545, -0.3930742968101221, 0.9062741097094045, -0.784677412900479, 0.5936364599384001, -1.0, 0.3183047429719379, 0.3898847369962761, 0.04012322320241607, 0.08785634393030471, 1.0, -0.6258906450587521, -0.04479145857716341, 0.8818064618766083, -0.6468281208421023, -0.3491741384751358, 0.7389587176938193, 0.900805147900609, -0.04203706115681566, -0.40318877373662276, 0.0010748140829207609, -0.4798305768496508, -0.4638675679807174, -0.2001571916325646, 0.6159499178287786, -0.5606763593413919, 1.0, -0.4454427689972164, 0.04411930769906225, 0.18191354111403332, -0.8652622509386836, 0.828185813330774, -0.3057236481794321, 0.7992351108697247, 0.9371561858948653, -0.8524536463194974, -0.6454190132522069, -0.48231657981560894, -0.8210391121072678, 0.14762298837793786, 0.36424444554711555, -0.07128861557317703, -0.848515316162675, -0.21500996136448486, -0.7897359917435521, 0.951541726174268, 0.7125736605815476, -0.7830825312069041, -0.09639537532785708, 0.25428789271762886, 0.871953441430886, 0.8498604184245967, 0.40341330599298536, 0.10302650417162759, -0.04058883841030275, -1.0, 0.1330113622297166, 0.02364716456331739, -0.6390259976402175, 0.5286019351060933, -0.25594881366294464, -0.661577316538642, 0.5942520117785444, -0.16449504123773603, -0.6407351381136019, 0.15657199928331905, 0.9890428427000194, -0.7161231504489837, -0.42939115476098505, -0.4560345744934492, -1.0, 0.5846438654984828, -0.6905346351684933, -0.5092541871792062, 1.0, -0.6230320813186064, -0.7456634307474769, -0.5578886846836972, -0.4863179136865411, -0.11051029583511035, -0.49031946536749377, 0.13071913543138594, -0.34669847945235965, -0.8309849967272607, -0.9664389895920487, -0.4532212481905034, -0.18252709914140205, 0.5764296205037698, 0.7983415614054373, -0.8441031939068481, 0.8387247617497964, 0.43829066046092485, 0.7737770571961676, -0.2909803513681919, -1.0, -0.824627955597085, -0.394968214578378, 0.15739006720860713, 0.1820495150897388, -0.8411127509829519, -0.652685593121082, 0.21947926936267695, -0.8862876468274226, -0.11202456703179495, 0.2483371668745206, 0.9585197049788379, 0.7963330573658763, -0.29325884100527866, 0.8769395513327842, 0.7210989964342841, 0.9220566887473652, -0.5914338842725153, 0.3093631113667647, 0.23229165899303203, -0.428039975361015, -0.7304961611273955, -0.2315778861559512, -0.7523147327071495, -0.30021959469955556, -0.35641763877949506, 0.0579239949377085, 0.13142530067583552, 0.8420092832036576, 0.45178654068986535, -0.6164090472720405, -0.8679757722923453, -0.5318175108938383, 0.33409983630461215, 0.4366699836074375, -0.310798493674328, 1.0, 0.6788367842554381, 0.46930776336914604, -0.15140630765024232, -1.0, 0.8697607390804503, -0.2435005444797037, -0.08554380505531958, -0.40239141881858154, -0.18938096939957472, -0.9350505364739982, 0.11362310614490895, 1.0, -0.1973634523161592, 0.19712322439153687, -1.0, -0.5803508888266433, -0.6182124146993755, -0.3981196307131485, -0.4682694943696357, -0.8454641453827607, -0.011940785140590812, -0.6086112943529765, -1.0, -0.5394553289215188, -0.6405321017801784, -1.0, -0.3590428728322552, -0.5356461740013372, -0.542620025032654, -0.8702856175385375, 0.39469093328803734, -0.36723261635538135, -0.16100283622438805, 0.9285381710543155, 0.22414962937728433, 0.9395726962340347, -0.6923798373514565, -0.019581883803463096, -0.7923440217335967, 0.7594587566223948, 0.6501953908995661, 1.0, -0.15087816613042682, -0.6521012991822079, -0.21550906539089726, 0.3381567187430963, 0.12614641226604106, -1.0, -1.0, -0.3859132454696841, 0.5978329679924779, 0.7247852873912124, -0.6838772150868708, -0.31117334586049067, -0.11710269891084618, -0.6528463399575469, 0.4586739560822554, -0.5189953886331408, -0.9292597928726352, -1.0, 0.2703565241695859, -0.7412448919382044, 0.3387902252239198, -0.3686958541351494, -0.18380360094317738, 0.25257459719058406, 1.0, -0.21754458923799655, 0.18218932258783038, -0.238524749739496, -0.8666774012967968, -0.44973181034365106, 0.7391423025405865, -0.6502637119408285, -0.3633507405353904, 0.6806187965057059, 0.5725316459134263, 1.0, 0.3126384183565832, -0.022368481203477314, 0.889115266441582, -0.4232864182993532, 1.0, -0.4443862381922715, -0.11680803661918948, 0.6532109528698553, 0.01143318958958675, -0.6334405087914978, -0.10360389279375715, -0.44117838335960874, -0.904274140068585, 0.232313436596475, 0.04515108972556975, -0.3280825405665537, -0.7348497454190676, 0.9037011646792212, 0.13847635351902263, 1.0, -1.0, -0.16645612348077798, 0.884241477123781, 0.7837258377349242, 0.5357885273232292], "fitness": 57.601837298482245, "player_life": 0, "enemy_life": 30.0, "game_time": 221}
{"weights": [0.3563663863514511, 0.6976036654326231, -0.04923605071039805, -0.36191023940684075, 0.22903542661549522, 0.8837907894583797, -0.4910096394595268, -0.33535717657046654, 0.09172410787803031, 1.0, 0.8795123011687691, -0.42282791854581275, -0.29761024484917803, 0.9331987881876339, -0.5826186811050745, -0.3865236713063111, -0.8332508355495654, 0.5193477205352366, 0.7115692883261271, -1.0, -0.2959888174595123, -1.0, -0.2137024412803099, -0.2962151529275766, 0.4327651109170835, 0.2516580769150686, 0.4045057845444866, -0.08022416928029863, 0.4145976266635403, 0.7482140814138559, -1.0, -0.6093715757939437, 0.5172583285374157, 0.8992129331783643, -0.9309802534965562, 0.9391505073598255, -0.24015592488768844, 1.0, -0.24464628844279676, 0.7710867482601609, 0.6487002929614296, 0.9052825906680604, -0.3457225165770601, 0.1762305980538339, 0.5253576843459535, 0.08873926096988208, 0.26469341154711407, 1.0, 0.9639333115602015, -0.41242407001331055, -0.39437091496817916, -0.47064116129738587, 0.11908073765602234, -0.5711911842995792, 0.5997829904059331, 0.7212095011149537, -0.028292977524994545, 0.8259931215224707, -0.18784433855425126, 0.2811829613084515, -0.015373347834280793, -0.6432668161112077, 0.8873653941504033, -0.17348569745851056, 0.720657502580989, 0.9949799065126668, -0.996120234664271, -0.9679437926370228, -0.46302739802441906, -0.6417673786206824, 0.032560227745369194, -0.2749187235418797, -0.6663109029374009, -1.0, -0.6931989439727096, -0.6099940639553156, -0.1070843446871794, 0.5661729549567613, -0.6994708347950633, 0.32356723618531485, -0.3070453831075111, 0.7567413700620043, 1.0, 0.6596282077169877, -0.4358434708699323, -0.5138605653886741, -0.6432964948792718, 0.11634638854530358, 0.5346637261645704, -0.9563695099488481, -0.06752034976913668, -0.5120550905095435, -0.3348982787657311, 0.13851054427980314, -0.04380653447315047, -0.6685559870295921, 0.08760677776329137, -0.612820605595511, -0.5843554285464774, -0.46966638463072174, -0.2335948899042692, -0.7849486808543081, 0.36052988480221143, -0.7707383611430187, -0.6630990971300578, 0.5803306345146722, 0.1665714127997551, 0.0336175960583992, -0.5894132831112805, 0.7478802457409972, -0.864615864650372, -0.7243299563217149, 0.5434312399124959, -0.6460704049032348, -0.8901815954330639, -0.4723850230015406, -0.27457215740379715, 0.05865471189193637, 0.483995319074552, -0.7106778298344717, -0.791059117439005, 1.0, 0.42126364410415545, 0.5565926610723186, -0.49751090776251156, -0.7273280383402971, -0.9693251503010365, -0.2839135548583238, 0.6303370773384487, 0.49309621749161014, -0.7511962266777431, -0.09841284994578403, -0.1150240423408447, -0.8468879667189458, -0.3637722554569661, 0.6322156282056818, 0.018817931708672797, 1.0, -0.6766002980521557, 1.0, 0.9810255812615489, -0.5583037185525856, 0.9085835788212199, -0.14197490835729684, -0.8577911271936514, -0.3505109689419611, -0.5537771005809629, 0.020402253352032884, -0.6412546666378557, -0.2930556533995071, -0.2829197282518758, 0.4107041645853415, -0.8168223671469389, 0.8574753909599627, 0.7132283008353643, -0.9074705397738054, -0.30463085420999875, -0.9565060261009944, -0.6872990134809676, 0.5179154435628841, 0.6753955719762266, 0.9897139706313461, 0.5329643481384017, 0.4815788222328498, 0.31758078265618045, -1.0, -0.4418015655091146, 0.1597220778068956, 0.16062460423275732, -0.8126582750332669, -0.9108467773382324, -0.3113593548884723, 0.4284876520730332, 0.809376577888236, -0.2639066610183146, -0.7713322644846562, -0.46564195208625464, -0.7441120579170629, -0.5138468796986451, -0.32807580707365375, -0.4489590968259355, -0.2513119876960944, -0.7085011331085749, -0.4415435784387219, -0.6742962938284123, -0.8550052811611262, 0.39629750716636136, -0.26942892756833425, 0.09631769361954778, -0.5256534347969435, -0.43914494044251035, -0.492150733831227, 1.0, -0.9391112058259496, -0.3884981486324247, 0.5937714996276588, 0.15437290148708452, -0.13863052510696625, -0.44697612492916805, -0.5374401902987445, -1.0, 0.2646578964029403, 0.593136840292422, 1.0, -0.8010028128090367, -0.44184723808631515, -0.2722473904693906, 0.30220588940313614, 0.27671068009200406, -0.8117743194498099, -0.9667956168363736, -0.5459365376166845, 0.25416495900138697, 0.3962975284415274, -1.0, -0.6367706895756887, -0.3325649113704392, -0.7095603344790645, 1.0, -0.14979027955818863, -0.7637488930257249, -0.5098440081326451, 0.15508340372045323, -0.6028100007849624, 0.013560544521252826, 0.35842492954901534, -0.6593392520948166, 0.1524310062127645, 0.7437473861797057, 0.524560430696328, 0.04108621389563026, -0.6124815749667893, -0.5510372055746897, -1.0, 0.7737371125202879, -0.9509668147892358, 0.6515016356224823, 0.49638177456368704, 0.7808350871976666, 0.6545073663046217, 0.4369164499978436, -0.3939523794879501, 0.7867525862994276, 0.49429717032345016, 0.7775726664061042, -0.9925678276762142, 0.06639621749666191, -0.08243411994462223, -0.579245113095282, -0.7606257306438533, 0.2173531300166169, -0.15154626626689333, -0.13563943613249924, -0.024622330216709287, -0.1969109239257848, -0.023556126769621294, -0.6781146095385124, 1.0, 0.6423234464867248, 0.523772249282679, -1.0, -0.5200491790757827, 0.472069780191188, 0.9108004279046777, 0.13278138695832017], "fitness": 57.16226955283406, "player_life": 0, "enemy_life": 70.0, "game_time": 190}
{"weights": [-0.0994422137491619, 0.6853907230401335, -0.82473439174966, -0.954491043721322, 0.10918676463118576, 0.8327448453738169, -0.8544212045662186, -1.0, -0.3468007009510263, 0.09075337523772795, 0.3760982982499481, -0.22645895700424556, -0.8342743307968931, 0.17291488670307012, -0.3826164640897095, -1.0, -1.0, 0.6333818926741672, 0.4074315456684795, -0.8620275752624608, 0.5413750460538835, -0.9169939519204672, -1.0, -0.2883323060741032, 0.19839014236611233, -0.013884333623503414, 0.8697267532870464, 0.417323055173803, 0.06349806874263539, 0.4121232344157446, -0.7205472538708737, -0.9927206019623865, 0.07229601229178834, 0.7988390363809565, -0.9815041600343745, 0.8350120071559208, -1.0, 0.9128390092512902, 0.6811473619003185, 0.36562615123728526, 0.2347964710162025, 1.0, -0.6903146651868561, 0.12287954007940208, 0.6448815085851286, -0.7461623896911873, 0.23999942073256586, 0.4063275770227193, 0.8035162326171525, -0.5478073110343964, -0.46535346137337275, -0.9830628539221452, -0.3782466865226499, -1.0, -0.1750637499629773, 0.972293488251635, -0.5893489760662385, 0.2920738272535297, -0.529688371937963, 0.7479429213746656, 0.022915281658752257, -0.818691553101084, 0.1809906173262832, 0.28793439222601486, 0.7814838408963638, 0.7999897055042702, 0.40622345038655866, -0.8252514177875853, -0.8063122203222834, -0.6635752268252708, 0.41468493126208567, -0.5347214674880243, -0.05284978811697233, -0.9459314253075265, -0.7271889170859244, -1.0, 0.07156280346435175, 0.34114596370059325, -0.7010444834846897, -0.16681457687882895, -0.3024100588599732, 0.9288801504234638, -0.004496612283396206, 0.5418495883004033, 0.07255057006122828, -0.2946394964759669, -1.0, 0.28121582847588855, 0.49137304092662965, -0.09798068199780535, -0.11478892091886736, -0.01608885821907094, -0.8161235029184226, 0.5942520117785444, 0.4452170897022191, 0.22144223150583164, -0.5356323510952467, -0.47707657105371915, -0.7004778288873666, -0.7749457428812615, 0.302987274581926, -0.5214665467259161, 0.7446667986420192, -0.7109196197502039, -0.40554876696377257, 0.17028033926930453, 0.6569040264521067, 0.8275876378585321, -0.758336419973261, -0.6449686922561251, -0.7360377452938078, -0.7741504096217153, 0.17339558141639275, 0.36934530658659703, -0.9032889552193115, -0.2415593221196552, -1.0, -0.14005932114274172, -0.33144271286072613, 0.5474965709141757, -1.0, 0.4633554032953482, 0.11447090060718593, -0.03358703836356931, -0.7468076676543307, -0.9058798168552233, -1.0, -0.5194549344975723, -0.3876351384630289, 0.17522587999558942, -0.6160333222674653, -0.1253418409226303, -0.06567905470816165, -0.719375439729117, -0.295718410520063, 0.6090936391709314, 0.9556670174615521, 0.8799896206658498, -0.3439217928014944, 0.8746314594383622, 0.3220620736852592, -0.5546353628364548, 1.0, 0.03329921133780131, 0.1183343491392522, -0.6947849828961741, -0.6704042531300227, -0.6099109973793432, -1.0, 0.3663294163477437, 0.48382966465865385, 0.24364725785534402, -0.7957511616168688, 1.0, 0.8652609197325742, -0.5484710404261169, -0.9305530256773911, -0.3000906833890347, 0.33409983630461215, 0.49689045128193376, -0.8572497832218535, 1.0, 0.647665881213189, 0.3611266877686946, 0.07414041238568397, -0.4282069565784828, 0.21272810002274734, -0.32556869767292973, 0.4355181730430402, -0.7243626641523868, -1.0, -0.44123280779744756, 0.7678529809968844, 0.5488062501764237, 0.37337502994145877, -0.600959508847762, -0.20655259684949817, -0.6949536611431549, -1.0, 0.2482246496406511, -0.07985501637854808, -0.5488443739908713, -0.06862996753854483, -0.6245144155527695, -0.8385281131436312, -0.5462512518666465, -0.24173792558956136, -0.3379103353181549, 0.9361837295306615, 0.13259270762125597, -0.016119846067592536, -0.2656417418976084, 0.937213158282056, -0.5368381157616597, -0.5675646761878278, 0.4792429734417013, 0.05163460525120174, 0.9843565451616945, -0.5934906728274341, -0.6105042815452176, -1.0, -0.009846961474749255, -0.11703923429946375, -0.4318119880818289, -0.7752661637998421, -0.3154155689840885, -0.6677235750694201, -0.25546772031321585, 0.1589394151820869, -0.7186222507895164, -0.9283819750095363, -0.34972598299428, 0.28183765764424407, 1.0, -0.5939586962484577, 0.8324621027861712, -0.0008918855804344872, -0.465133663296208, 0.6330788145224844, -0.4466683603414564, -0.021816912770262986, -0.7980284937461595, -0.006733854124797323, -0.5184110863481786, 0.3119808798435275, -0.2880453354496293, -0.18380360094317738, 0.19284463677410993, 1.0, -0.6636109437345997, 0.5455495772236143, -0.05392956046395042, -0.8988503342190544, -0.9896189428390907, 0.6059144187993561, -0.8566671029518048, 0.8532040971784137, 0.7418250122527567, -0.09904411911977168, 0.5825025311808268, 0.4062952554699155, -0.31689562018894496, 0.5993030276240054, -0.321617039396208, 1.0, -0.31363087016468444, 0.2663323254613408, 0.9384001301314215, 0.19796267469120246, -0.21671128891771146, 0.3806386770384982, 0.5519535653036982, 0.40624581938949544, 0.14855372967587285, 0.04120614136384944, -0.44134905656762036, 0.1318705595017667, 0.8075523758780495, 0.20883667069693268, 0.05590908373226172, -0.852091156184013, 0.04978090922376652, 0.7443254574507572, 0.652983844046268, 0.10342403582170182], "fitness": 30.752975927839515, "player_life": 0, "enemy_life": 60.0, "game_time": 190}
{"weights": [0.48889370061670523, 0.5720378832220985, -0.7909407797067298, -0.3452872440585108, -0.0416246403017895, 1.0, -1.0, -0.6373669093740203, 0.13358005708761045, -0.12223133880273385, -0.709168975595096, 0.21064662550825142, -0.8342743307968931, 0.3184855805851351, -0.46870120185380243, -1.0, -0.6845101512543499, 0.803359801614983, 0.7635370756399401, -0.73664943106602, 0.34000427694540974, -0.9183219120663154, 1.0, -0.842578486160877, 0.34539128384049644, -0.04715416098622169, 0.038293657166053124, 0.2445721214363284, 0.7037190919209777, 0.48660636509841715, -0.7565174771886682, 0.1664976837342534, -0.3957798999842939, 0.8753686346981837, 0.19808966965752434, 0.8831102925544352, -0.8026149902054542, 0.5952372388390208, -0.3162233883064156, 0.637559676921827, -0.25714050838740843, 0.48702273048954964, -0.7855223852672024, 0.25473487348379703, 0.8818064618766083, -0.6718157477770614, 0.2263646905512975, 0.34068659387271616, 0.7605710814495771, -0.8541188531383714, -0.5253453736038951, -0.17088537423957734, -0.49549480760788506, -0.880329783371067, 0.9838368839802638, 0.5901907961047292, -0.5881363361777668, 0.05715804615294007, -0.43804559810334526, 0.9747357699882379, 0.04600902066992718, -1.0, 0.828185813330774, 0.10060828460627003, 0.6232949078825266, 0.7964338769475587, 1.0, -0.8562122837040772, -1.0, 0.08007909742522, 0.07148290539794422, 0.07563099643416751, 0.3269114296734096, -1.0, -0.20653453210554867, -0.7403669760638084, 0.2445694897930134, 0.799588482556739, -0.997857475071717, -0.067178813486104, -0.4747777675989397, 0.46093626617566663, 0.9921584439102613, 0.48473974152505056, 0.17386271483282145, -0.5388771151841678, -0.6028252733459876, 1.0, 0.29620958553869103, -0.6552047770941184, -0.031012413638112885, -0.12358695024097391, -0.5535485716080193, 0.27529002205165615, 0.11610828326178621, 0.1263112561172826, -0.28015762739399047, -0.6020478026486291, 0.06983696890342467, -0.7836907216136051, 0.1999669679713395, -0.31932754790464885, 0.42328066634091216, -0.6737118068667081, -0.3432996646896621, 0.655154404631673, -0.515241269700588, -0.12745655692530822, 0.9723042025737418, -0.39092956261355305, -0.219392440862827, -0.8916992491918837, 0.13071913543138594, -0.08318756571674732, -0.7955864897696938, -0.3717027708213262, -0.052524427310953165, -0.8205295861615962, 0.4260218186566129, 0.6750109415298967, -0.8743107239848562, 0.5653727801267362, 0.69132450727846, 0.6130950868880016, 0.038366204027789425, 0.41758592249615634, -1.0, -0.5057959150274202, 0.4468765342470434, -0.18297944911618907, -0.2601786889260831, 0.0391927523365823, 0.024581819615306227, -0.8862876468274226, -0.0625997194885318, 0.20231302419281316, 0.20146363744295137, 0.24546196645828203, -0.9022316427819657, 0.7218203865204722, 0.2868316106372824, -0.11870478655980937, 0.23783761716422971, 0.13967941365891126, -0.008914969338522816, -0.5265942126531109, -0.6102991279860932, 0.2101982905203542, -1.0, -0.38734250814279686, -0.5391671078414637, -0.1904426459596405, -0.6028339334860153, 1.0, 1.0, -0.7853403783809019, -0.44660620773034826, -0.6838946161532571, 0.08365564841261641, 0.3199799257101503, 0.612208798407026, 0.9942514513685511, 1.0, 0.3369382183844173, 0.17248983341406754, -0.6191464900383468, 0.6397853760085515, 0.4603450081065872, -0.13709169222427992, -0.30135598665991187, -0.536045705760252, -0.48784132658401247, 0.0001269854353655453, 0.5975655710560719, -0.07042788137732212, -0.5982403089328404, -0.3277247286789166, -0.8156716016148278, -1.0, 0.43866745071946095, -0.46199451140561787, -0.8797247350309819, 0.41911324134716743, -0.8364072881371428, -0.8888272547949507, -0.6035941255316695, -0.6617179724554823, -0.29764680506581054, -0.6585242436387178, -0.5356461740013372, -0.3294669416822733, -0.9446967549615128, 0.6787948632250957, -0.5005144706193088, 0.09539748503339601, -0.05202982097392528, 0.21230562958664967, 0.6642194160049288, -0.3154529068895494, -0.4869554101163578, -0.8619308994397428, 0.6173603937706139, 0.17725043374781424, -0.13959249023033832, -0.5902037923046537, -0.720731960086878, -0.2942919705447509, -0.1172889000074217, 0.83065511021633, -0.5093613255873451, -0.7735987215478941, -0.695285421966464, 0.5568478430534248, 0.8317174056515657, -0.6838772150868708, 0.7730690007111269, 0.10646127612919598, -0.6348710159468015, 0.040951825420075, -0.5405368746759611, -0.9292597928726352, -0.8119997557431005, 0.32913626694378034, -0.5722614221121933, -0.5723697355225619, -0.200169406445765, -1.0, -0.05451132705150499, 0.6371010918936881, -0.764852902327011, 0.15550260660917237, -0.506001617276377, -0.1686194571416233, -0.7986809681881633, 0.71767498630693, -0.6663213130099541, 0.9895951998016173, 0.5989652631159259, 1.0, 0.2024240152744367, 0.3013533972122588, 0.7096522892284451, 0.5288894500732586, 0.40246677045666795, 0.8902225443512087, -1.0, -0.14132933528275188, 0.9174016910319636, -0.5859864451204654, -0.8076750604483669, 0.6378584085351213, 0.3851934380728653, -0.14800862781634103, -0.228879566195228, 0.36844211740202915, -0.21248286308398723, -0.5403544786851668, 0.9037011646792212, -0.4527098335828635, 0.3063162706411303, -0.8962257079791516, -0.1785126234621733, 0.6399796324242533, 0.7837258377349242, 0.2098303037160072], "fitness": 57.601837298482245, "player_life": 0, "enemy_life": 70.0, "game_time": 190}
{"weights": [0.8373838080231739, 0.6121953131173237, -0.6823121726751756, -0.9862809837723893, 0.317342966295726, 0.8643115180764301, -0.7750880391486328, -1.0, -0.3526809087939162, -0.16421087890779543, 0.1068494445248917, 0.5954630379237209, -0.8809579757014179, 0.3291244055862711, -0.06641255587689521, -0.9310138378408657, -1.0, 0.831017166323117, 0.26932803257745036, -0.9143340011203069, 0.9311586170272268, -0.6891497675106929, -0.8151342925910702, -0.7819832958722983, -0.45515075187893045, 0.026690503606374816, 0.7369062226600422, 0.3691129887918368, 0.7816462062533023, 0.7600072245126287, -0.6055953980882831, 0.15632709567915054, -0.8373692331653246, 0.6090104678268158, 0.21112411358238403, 1.0, -0.8846833831978991, 0.2975554059103289, 0.6547718742959538, -0.2562366397075723, 0.270081925608975, 0.04832298183579847, -0.7925480824975217, 0.1274956542120075, -0.07084049456027619, -0.5786660610498645, -0.7103466739931499, 0.9936393671892096, 0.3498748494105629, -0.5756423900393469, -0.49044153358124676, -0.9090416639896266, -0.15373098074188457, -0.4638675679807174, 0.0945570267233872, 0.8760505145610576, 0.04260754920174767, 0.21532746085978616, -0.34242989112741623, 0.6464743276072114, 0.022915281658752257, -0.8652622509386836, -0.15455326455265772, -0.002665097698369423, 0.418942105310557, 0.7134965636465794, 0.8428061966979822, -1.0, -0.4805838516443367, -0.899680613796908, 0.13091126426348632, 0.32425328317662816, -0.012981587613416085, -0.6659371565629733, -0.8147856313950681, -0.6630163859491834, 0.6618368972599885, 0.7891079680715929, -0.5303322393077934, 0.7400277373830314, -0.6135537035274785, 0.6363475972932632, 0.5901948136563728, 0.17628417382058692, -0.17546678884583883, -1.0, -0.8603264723507155, 0.5128375276103576, 0.18709704080090686, -0.5671431853968052, 1.0, -0.5774506150909426, -0.671290964021831, 0.7384609872512446, -0.3328194642075075, -0.48649335917892567, -0.03306267167142124, 0.7845382532239591, 0.3626693195267388, -0.6217836801007253, 0.1999669679713395, -0.27444310902993196, -0.4973454503471099, -0.8988988381824092, -0.5092541871792062, 0.969188076161201, -0.8673408858529553, 0.891161841766008, -0.570678208832512, 0.055375644368035576, -0.2838852138606861, -0.8962696845281065, -0.31408890275177165, 0.15478436246640634, -0.944779961924022, -0.5021710726793127, -0.6891090156355024, -0.965898109343369, 0.7402451999720477, -1.0, -0.5739290247186735, 1.0, 0.3991564483604277, 0.2824788018472931, -0.20958220599465033, -0.956204933683887, -0.3276058191538651, -0.2494295265034931, -0.02006109992077057, 0.6222442407214019, -0.9784152820266092, -0.9006717070050797, 0.7169667267474982, -0.39891078731134166, -0.2886124108306386, 0.7206133486657217, 0.13197966504575126, 0.8645036083938178, -1.0, 0.9668071946094157, 0.7115287922861339, 0.7582384979329992, 0.8545902573704223, -0.3829751987534606, -0.02187577886730055, -0.9821225354839602, -0.16583245878643543, -0.12167706906612258, -1.0, -1.0, -0.39241364532353484, 0.34569434445380554, -0.7252728094936728, 0.7468296085374323, 0.3474027268323974, 0.5764883614168902, -0.3258339290582132, -0.6310723624001706, -0.21327003042080495, 0.19757234646426833, -0.7830272163864471, 1.0, 0.626933895060254, 0.46930776336914604, 0.015449194262943278, -0.0891756123506548, 0.9679911668651568, -0.6151493326452183, 0.16062460423275732, -0.41773565083093017, -0.6903835135668887, -0.7694885040666595, -0.5326140382642421, 0.3751496589652041, -0.0458268627225132, -0.4339551188145728, -1.0, -0.3192464738540649, -0.7734601557321885, -0.06375409175691238, -0.2099771039958932, -0.9408981147661735, -0.8994078800872024, 0.46070297342492184, -0.9951281478111047, -0.6577173761085388, 0.5151709947597946, 0.025392173860840805, -0.7813878189984103, 0.09146724814479681, -0.5559576533197004, -0.22451128864807063, 0.8454998933413759, -0.5021176975498969, -0.6066419758266474, 0.5416762487150573, -0.27869831089076375, -0.16361982252321797, -0.6523352118883491, 0.12497324741210691, -0.886622259477942, 0.013693306258572818, 0.15289250158761486, -0.06570376088772564, -0.4275263283313667, -0.8972889891444749, -0.17321673184553876, -0.25040732557080125, 0.11036510529124989, -0.3154558396028295, -0.99418451436401, -0.23165940838181748, 0.8181272680103573, 0.7995719680910707, -0.9705718817855555, -0.46121388255559, -0.39292778629898073, -0.6529601619187586, 0.29867845329774967, 0.36958610112703677, -0.933893561180865, -0.6351040891372516, 0.1060584834504387, -0.6449529338594151, 0.7540299537816536, -0.6915434764153234, -0.6351784529079861, 0.03365804359679245, 0.8578736384075618, -0.9590782527949007, 0.5640967465784315, 0.2440131513499786, 0.10496843037270162, -0.5427045890770897, 0.7720550380753078, -0.827745938668861, 0.8042127090210139, 0.8791787542178127, 0.1106279526465139, 0.5402589254608148, 0.26483420009888237, -0.2501519417403546, 0.9699699222106108, -0.136099525668348, 1.0, -1.0, -0.5171022664677091, 1.0, 0.19843210504293582, -0.8001363000640176, -0.30143192343203995, 0.14542702880362135, 0.3584791511099943, 0.17318273956713753, -0.14513921309155314, -0.6384462026022137, 0.02186275370974977, 0.23375569370106528, 0.9440105676291686, 1.0, -0.8630077771554405, -0.13907441485996636, 0.6448515136037143, 0.7837258377349242, 0.6117937068797855], "fitness": 57.601837298482245, "player_life": 0, "enemy_life": 30.0, "game_time": 221}
{"weights": [0.3244629548025792, 0.8225733628271156, -0.875199246112852, -0.8391883402733598, 0.10615628049528528, 0.6339986889355395, -0.8450698406564033, -0.6698024052083184, -0.06757481044512728, 0.028899327829983723, 0.6194228322624357, 0.5954630379237209, -0.7513183046759353, 0.584327267335548, 0.02894236776718989, -0.7842037265882071, -0.9985548320819883, 0.9131928823400766, 0.8287898752215439, -0.5587812871403766, 0.8618184015507293, -0.11962028037618172, 0.871581301781184, -0.7819832958722983, -0.45515075187893045, 0.0769161866106505, 0.1471941759824748, -0.10011107931161914, -0.034695023610838205, 1.0, -0.7205472538708737, -1.0, -0.3930742968101221, 0.711098399048802, -0.8518797664730265, 0.3185757278128155, -0.9691542551750136, 0.3307362284486262, 0.424371167834043, 0.467098747102655, 0.08785634393030471, 1.0, -0.8394461059918539, 0.16079640432504874, 0.8818064618766083, -0.5145357552436359, -0.7103466739931499, 0.49420255369410754, 0.4527833496668825, -0.1734607544899337, -0.5106680101587554, -0.17088537423957734, -0.3973551718640312, -1.0, -0.07158831930434878, 0.8309002914301922, -0.7214319417627355, 0.6201324133321686, -0.03307116592968848, 0.5197850489397644, 0.18191354111403332, -0.8652622509386836, 0.9054165436189018, 0.21334270178640538, 0.5099874179360153, 0.7999897055042702, 0.714044184212489, -1.0, -0.48231657981560894, -0.8210391121072678, 0.17890700882049423, 0.11780674951815906, 0.017994926335799646, -1.0, -0.0796229930617578, -0.7897359917435521, 0.04956063667886734, 0.42716647359700133, -0.1850637286079621, -0.2905423916911913, -0.4737552077801206, 0.5372408954475956, 0.811941798954817, 0.38690678530970557, -0.4138119512311959, -0.40249519521467503, -0.8603264723507155, 0.7692952243078333, 0.02364716456331739, -0.1086121527474144, 0.5286019351060933, 0.1673605564544355, -0.49259927860970565, -0.030005665094670925, -0.28607710992850716, -0.5818478837623993, 0.16518080029403898, 0.9890428427000194, -0.7161231504489837, -0.2563576136768869, 0.04968534808827629, -1.0, 0.3113311694827956, -0.5257996633975619, -0.5092541871792062, -0.044097277766368514, 0.6543358998471852, -0.12745655692530822, -0.11017820419385604, -0.19088115530741656, -0.7717774620681451, -0.7127285949329372, 0.1003560477039615, 0.4751446068408353, -0.8739702947068366, -0.9493464851271625, -0.675920426361527, -0.4926666497361525, 0.33346772576383643, -0.831882162379056, -0.9099167304523258, 1.0, 0.8758808577955314, 1.0, -0.1045305902408688, -0.8302750151065167, -1.0, -0.394968214578378, -0.041727153537433045, -0.25455477055552245, -1.0, -0.9355006539167999, 0.4049011335036409, -0.7073149348534888, 0.861849888565595, 0.4689396558661386, 0.931840992843013, 0.9408769650794967, -0.7919801067501822, 0.8142414074656237, 0.22884346964514235, -0.25984374115116543, -0.4366595974857189, 0.12966000305202952, 0.7375708837629589, -0.9604953606357101, -0.8558776906785215, -0.22579404819991578, -0.7493787838102693, -0.22537884156905588, 0.1163042671593941, 0.6075291557098654, -0.1681567885928797, 1.0, 0.8340245860360567, -0.805599621865256, -0.8679757722923453, -0.41408226832790307, 0.33409983630461215, 0.5329023267525597, 0.5940682092675659, 0.8176144938259995, 0.27010777017523135, 0.43273560057873944, -0.47977299940336793, -0.27064716952281204, 0.6376018005460676, 0.1713420400063843, 0.6010505185088013, -0.41773565083093017, -0.46062448606975076, -0.3396169745817433, 0.11362310614490895, 0.6405938589595996, -0.29431057670778193, 0.19712322439153687, -0.3071028579569629, -1.0, -0.3671787741685127, -0.40475064889520246, -0.8049315271542803, -0.8811632100773302, -0.6520566123575146, 0.22523805537274158, -0.8841998413192308, -0.6577173761085388, -0.6405321017801784, -1.0, 0.16154725066006617, -0.01445318285927888, -0.6753836339564531, -0.9257235541998573, 0.7331374490567699, -1.0, -0.755737952614439, 0.9285381710543155, -1.0, -0.16897384494753712, -1.0, -0.48007187546198804, -0.9222306964324434, 0.7594587566223948, 0.15451895840695926, -0.02374598140046652, -0.3758070609649077, -0.6521012991822079, -0.18032911556115336, 0.20688652418943232, 0.9157294488875425, -0.8065055525842155, -0.8661149023931273, -0.9606783230175435, 0.5978329679924779, 0.6508902121566813, -0.30954817079950653, -0.31117334586049067, -0.11710269891084618, -1.0, 0.38165306690630063, -0.6113425699296638, -0.3704639509424965, -0.7571917368945218, 0.2703565241695859, -0.4905858784621544, 0.04335870569199399, -0.2891322553514258, -0.300396259920064, 0.42880926472665337, 1.0, -0.5530036981896873, 0.045257122121414084, -0.07373229350260874, -0.105231850097792, -0.9500700419286912, 0.9667092375110419, -0.5610725053790966, -0.20597250541612977, 0.7245404995905175, 0.5725316459134263, 0.11727389715683674, 0.3126384183565832, -0.022368481203477314, 0.8429366885866125, -0.4232864182993532, 0.8100348265353565, -0.4824809703351781, 0.35174908261340915, 0.9958996747240664, 0.019875923132001233, -0.8001363000640176, 0.4584971577955669, -0.14565621136355206, -0.45071004476408183, 0.2816913979661032, -0.13953717570143406, -0.2840138041708874, -0.7348497454190676, 0.7316350614897035, -0.5894868748962092, 0.08180485668596821, -0.7578874069425443, -0.4298773610086566, 0.09742359292792716, 0.16865114609106047, 0.5448973893754183], "fitness": 21.752975927839515, "player_life": 0, "enemy_life": 30.0, "game_time": 343}
{"weights": [0.576565984823368, 0.7288389007978898, -0.5491212880708587, -0.9105661420925303, 0.1460476421593744, 0.5998304966181667, -0.5939705444994491, -0.9481880391354596, -0.0840506089107751, 0.21371585859811504, -0.6103552716098668, -0.062165782594517965, -0.29761024484917803, 0.635311808619482, -0.5404027602580805, -0.30183479508477057, -0.9943998749959746, 0.6990024535368515, 0.08798923576079826, -1.0, 1.0, -0.2829418184579825, -0.08043231739307616, -0.39276446255855657, 0.35150152926648826, 0.06959421744548785, 0.4224665153051277, 0.4311922279349731, 0.11489737005303824, 1.0, -1.0, -0.28605722516527954, 0.732922232253209, 0.7359260337419069, -0.7896284330142749, 0.858256994492902, -0.6660908237765575, 0.9528381009959939, 0.7366367550157917, 0.6626569710519332, 0.04076393908775902, 0.3500606022620212, -0.9996530263727266, 0.18142065458265333, 0.6599061115689213, 0.1074689750311553, 0.5080062191107348, 0.3870701952722517, 1.0, -0.5650154015834556, -0.21529842561318713, -0.9911240301727876, 0.4083179988691522, -1.0, 0.4010569003068133, 0.3164913297560817, -0.481747166422818, 0.31266979389268196, -0.3080930405254933, 0.724564188478203, 0.2479465504126966, -0.7826485541954589, 0.7992247908457903, -0.27838658147715595, 0.6665903950807136, 0.7144916403635397, -0.9257954546883291, -0.8545500018233931, -0.7593949580063771, 0.3144818911901681, 0.2757256946317493, -0.06638022852169864, -0.32603372355746196, -0.8743712308743141, -0.026457758441101265, -1.0, 0.0022195368155370765, 0.57106650985325, -0.029948506116243834, -0.06772780566421754, 0.0823530282895853, 0.9332011654314302, 0.811941798954817, 0.5713005576731639, -0.6053338389110531, -0.8150032414352583, -0.8280833796512734, 0.6382723540229436, 0.5353892373038467, -0.9259013984458873, 0.5307867025578066, -0.3999540310692322, -0.5991666526124799, 1.0, 0.24361469671809985, -0.7231775842829181, 0.8039130101152117, -0.10604345928888692, 0.1312647000808533, -0.9970494135813132, -0.008972704313510826, -0.7002770313062234, 0.6060275451054878, -0.2527089107797206, -0.4053279707925778, 0.8294697921239704, -0.5483273242346356, 0.2780552334712588, 0.9101579592661074, 0.49664033580649103, -0.7253592036396826, -0.6231238964158354, -0.24383536595054156, -0.13231655207068085, -0.9537294962407954, -0.7706556790830126, -0.8207177404555797, -0.9813231599064438, 0.08688374788581221, -0.6776330820644291, -0.9895120962904725, 0.9386515811872949, 0.8758808577955314, -0.05668866295810725, -0.06702547667075665, -0.5162463146664047, -0.3276058191538651, -0.7000167524085091, -0.5473219970560543, 0.17194409849583936, -0.8588346934887464, -0.9508769742673095, 0.129456325560162, -0.4172964807976776, 0.0032813500532196116, 0.5944943272331549, 0.7594896675265648, 0.8171609220701745, -1.0, 0.6393301348914547, 0.5082842876448835, -0.25984374115116543, -0.194585472133897, 0.019164056290750908, -1.0, -0.8048037066167609, -0.824466273499437, -0.7651098995679879, -1.0, -0.7420782683846243, 0.2091782696821715, 0.10255405486312949, -0.6257997739463408, 0.8133725403900232, 0.6741432752327579, -0.7089282257298563, 0.02220816666633499, -1.0, -0.276348361578472, 0.5648032872907549, -0.2748688671051098, 0.9467902334165036, 0.490380786411926, 0.17319355438949235, -0.5260858672255273, -0.9028130019911202, 0.09329031649453431, -0.6446529942058408, 0.4355181730430402, -0.9076279891594908, -0.5930423816031924, 0.8932625288625298, 0.7712095036568889, 0.7876669243558211, -0.17594706025553947, 0.5490216617660459, -0.8211564533360378, -0.15696734838004023, -0.30683967804542195, -0.5379624213231722, 0.27921844333715884, -0.7326754685992948, 0.21501321379547444, -0.5307161613735841, -0.7189149869589805, -0.6807045219052577, 0.5473250498450143, -0.3379103353181549, -0.21332976736636733, 0.09983308992249201, -0.13649242609607828, -0.5209142512948126, 0.18647262287431107, -0.47261061322730735, 0.16395421939786387, 0.9101133054491679, 0.3199841834109989, 0.6641656586163384, -1.0, -0.019581883803463096, -1.0, -0.014272944122794451, 0.029880659361608997, -0.23649380618744112, -0.15087816613042682, -0.6897293497063433, -0.8818460707322133, 0.20688652418943232, 0.7711630335081657, -0.8399983518074042, -0.8042492407214056, -0.11213530974461117, 0.07543953968130498, 0.7843747477474795, -0.6328276736682144, 0.7746527962520962, -0.1770940539356145, -0.3376324276051352, 0.6375507009717032, -0.09626229526624441, -0.7124060280293846, -0.7339796668122831, -0.217290893964329, -0.737721176436577, -0.15650081663891544, -0.7932508819923076, -1.0, 0.15199743688197676, 0.5372371663622004, -0.9590782527949007, -0.19058287849337552, -0.0992272753892505, -0.9853139223555623, -0.977548852524762, 0.7452342996875598, -0.5000969331440961, 0.5491431480256364, 0.6060378809791, 0.10002164078843295, 0.3454403173301105, 0.18745329970882893, -0.20913794554095738, 0.7923515655556657, 0.27175308484902594, 0.69990429204174, -0.8835263176526651, -0.00372724295406196, 1.0, -0.5859864451204654, -0.831455062929954, 0.5374343573805475, -0.6158942104623399, 0.43631602247566065, 0.23286209748446324, 0.02551647552491984, -0.524395820476111, -0.003096970899049173, 0.8712514515688641, 0.2324548453852745, 0.8469819511428921, -1.0, -0.8302730187917777, 0.5808219858085777, 0.6632835404200524, 0.4067871783613408], "fitness": 57.601837298482245, "player_life": 0, "enemy_life": 70.0, "game_time": 190}
{"weights": [0.0007004238334919755, 0.812512429508746, -0.7334998441882705, -1.0, 0.024212314123817358, 0.8643115180764301, -0.62764189002899, -0.9679750105704942, -0.23951324387125078, -0.22403552264204885, -0.6042157288553658, -0.22645895700424556, -0.6835053225159125, 1.0, 0.10063718080425943, -1.0, -1.0, 0.6128527550141256, 0.21106461338354804, -0.9823378231352999, -0.12635438876589916, -0.6612661172084187, -0.028334214542653724, -0.18525795744331203, -0.40584276810136244, 0.06959421744548785, 0.7369062226600422, 0.2873615557012452, -0.19230785217241503, 0.9534017004150421, -0.13794209721448222, -0.3067592850142741, -0.008071499730497145, 0.7359260337419069, 0.15856404145459113, 1.0, -0.8471356044446579, 0.9721709180944498, 0.8226549069257522, 0.637559676921827, 0.5801782219993199, 0.8180854460326404, -0.6046628821296772, 0.13790390245214665, -0.07734585647313119, -0.4976947045869213, 0.09457930080231647, 0.34068659387271616, -1.0, -0.1734607544899337, -0.3374803043143965, -0.980082104628521, -0.4082327607475108, -0.7075035193930588, 0.6469638166258158, 0.33762567149227496, -0.8738529540839084, 0.21532746085978616, -0.34242989112741623, 0.9279557822048001, 0.37727344789296147, -0.818691553101084, 0.828185813330774, -0.20116884094757592, 0.7474274858640408, 0.886924206069637, 0.977471349221444, -1.0, -1.0, 0.1415315551687088, 0.3575990803224048, 0.241229707463166, -0.05824802448947816, -0.9262277210894957, -0.08337675910583303, -0.40211157130750474, 0.6618368972599885, 0.7891079680715929, -0.6617558320301467, 0.06150434466518015, -0.581531762091347, 0.9288801504234638, 0.49967404648376706, 0.19749087115990646, 0.08633099874770978, -0.7069166442800207, -1.0, 0.5105694021445661, 0.29620958553869103, -0.9360256717323089, 1.0, 0.002483528152604858, -0.7811857305888323, 0.08002776992689592, -0.043555266161312084, -0.5425586986552394, 0.07791782693052232, 0.7869402299595663, 0.06983696890342467, -0.5244707484158725, 0.294433637978284, -1.0, 0.3113311694827956, -0.8871341155711847, -0.5418391183821809, -0.11545180592348953, -0.8673408858529553, 0.2780552334712588, 0.10685360091492649, 0.08583789461394006, -0.29836724924625113, -0.9731856989611947, 0.43305395507431743, -0.23628675734388838, -0.8739702947068366, -0.44288673260002315, -0.675920426361527, -0.9704547720232289, 0.23238845585539877, 0.8563715928938712, -0.5739290247186735, 0.9947113581236492, 0.29906766643859817, 1.0, -0.07676171919379587, 0.10719975044175344, -0.8974653203566412, -0.5125264977530889, -0.003032979702150912, 0.2924355998471433, -1.0, -0.7865571414586136, -0.11959307427155624, -0.7819540684938878, -0.05974412250264152, 0.4318718728073264, -0.13818619290775372, 0.8173062730343685, -0.9409032894087324, 0.9141316521145, 0.8564689608392679, -0.29412271217536157, -0.6626366393409188, -0.09026277063485327, -0.09644441802088527, -0.8536806548829841, -0.7070697407102778, 0.6339355639480442, -0.802690888196039, -0.7420782683846243, 0.46040617208727297, 0.9066947693930667, -0.7510952209920376, 0.8635570462675259, 0.8665991908337941, 0.7043823562011675, -0.3309168261848829, -0.47506672093186614, -0.04936777290245617, 0.07785823419413751, 0.7448974647843202, 0.8561261658335402, 0.626933895060254, -0.370438839977427, -0.18061432566976954, -0.0891756123506548, 0.5120643878742637, -0.2282332219540109, -0.007024287734938087, -0.41773565083093017, -0.9741099809083502, -1.0, 1.0, 0.5017076130472764, 0.2646247118095211, -0.5982403089328404, -1.0, -1.0, -1.0, 0.43866745071946095, -0.42270227194958754, -1.0, 0.297215559443593, 0.5413942599099896, -0.9951281478111047, -0.6577173761085388, -0.6611470784125302, -1.0, -0.3590428728322552, -0.01445318285927888, -0.8853825937768568, -0.7811722628549608, 0.8454998933413759, -0.2998586877997223, -0.5235001835932775, 0.8888104699300561, -0.7326223901716802, 0.23634806192873506, -0.3154529068895494, -0.7291760298408404, -0.9602593849048053, -0.014272944122794451, 0.32265018377235777, 1.0, -0.31474923210738237, -0.8395904426206737, -0.06956109876577699, 0.3403381381659284, 0.509594759443324, -0.4868086804031277, -0.8617066560297055, -0.7083041976739834, 0.6084522018904586, 0.7118099875503551, -1.0, -0.46121388255559, -0.18007339231446096, -0.4541370126482107, 0.6832557889864528, 0.26572659796780906, -0.933893561180865, -0.5235060620187308, -0.023335737387305377, -0.5722614221121933, 0.3666742182604601, -1.0, -0.3615037328762725, -0.05451132705150499, 0.8795957832830138, -0.9590782527949007, 0.18218932258783038, 0.2440131513499786, -0.9853139223555623, -0.17343584203339563, 0.71767498630693, -0.5000969331440961, -0.49676591937720527, 0.8807528231549768, 0.6167811017005147, 0.11072206857521848, 0.7445677444837702, 0.13564025079734718, 0.6011513137915057, 0.27175308484902594, 0.8226550540677042, -0.5349240323676994, 0.010628802575428642, 0.8414047320298845, -0.5859864451204654, -0.4713372276074861, 0.49176661714311154, -0.2633295144438621, 0.3584791511099943, 0.13209451523003246, -0.002853100664568592, -0.28742010405465834, -0.5403544786851668, 0.7652077683757159, 1.0, 1.0, -0.8307540306692806, -0.21820677551913883, 0.5808219858085777, 1.0, 0.10342403582170182], "fitness": 57.17991706964764, "player_life": 0, "enemy_life": 30.0, "game_time": 320}
